2634 128
2633 -0.26577094 0.30686 -0.053634845 0.015759509 0.048930995 0.12852646 0.20567708 -0.11883794 0.12890664 -0.059583753 -0.23046523 -0.0030606855 0.34942898 -0.081849955 -0.2109914 0.09955596 -0.16070068 -0.114895254 0.15708971 0.18135287 0.07955574 -0.15505144 0.1747123 -0.02055883 0.1121394 -0.30621493 0.021395849 0.10989898 0.15279646 0.13817208 0.021707455 0.088115774 -0.023306897 0.20712967 0.1412061 0.07065025 -0.071822554 -0.16072161 -0.1696867 0.08571517 0.09640161 0.036328703 0.21688154 -0.21736224 0.23265457 0.0034089077 -0.32362896 -0.035733007 -0.209197 -0.08305936 0.23599298 -0.006569086 0.2944345 0.002053997 0.054506946 -0.23224363 -0.02341849 0.16053514 -0.07181002 0.028086303 0.19168378 -0.2879259 1.4939922e-05 -0.06947117 -0.059041716 0.052606057 -0.062110603 0.05370496 0.25461894 -0.029027812 0.10282103 -0.043203365 0.26345685 -0.07097248 -0.07207563 0.006452799 -0.05272415 0.13987952 0.019279707 0.24696152 -0.18054935 -0.13325709 0.098251306 -0.08152981 -0.021225728 -0.046450175 0.046811048 0.33459437 0.09229757 -0.13824537 -0.005824099 -0.0378537 -0.051450297 -0.08622008 0.10126086 0.11824955 0.055398628 0.10398199 0.38105088 -0.047526225 -0.06835904 0.35127047 -0.21598561 -0.03963612 -0.029041564 0.31361887 0.018274287 0.19528842 0.041163873 -0.22445638 -0.012190546 -0.1800449 0.2482846 -0.07608672 0.087267555 -0.086568505 0.24713817 -0.0068689007 -0.086315624 0.13300169 0.19143598 -0.08369908 0.011331877 0.17938152 -0.017600125 0.04218897 -0.059557382 0.050313216
2550 -0.32007223 -0.07457469 -0.14550619 -0.18616238 0.1480566 -0.21931523 0.2814512 -0.13092189 -0.0676077 0.088022634 -0.04395487 0.20987365 0.21106914 -0.095696725 -0.21705753 0.18464275 -0.020454021 -0.11268323 -0.06592029 0.30597836 -0.003450225 -0.1303722 0.29101974 -0.041929994 0.006059255 -0.056701522 0.10310385 0.21594925 0.10551829 -0.010777682 -0.13908957 -0.057342626 -0.019774517 -0.016411519 0.05770412 0.07082044 0.14946799 -0.0067032594 -0.018050088 -0.08970752 -0.07854026 -0.14112164 -0.11161124 -0.106360495 0.42398918 -0.008242092 -0.17685583 -0.18815817 -0.17084543 -0.22912888 -0.020542772 -0.043043148 -0.103981435 0.10646565 0.029196152 0.15838268 0.13514638 -0.22512837 -0.30715436 -0.11941952 0.09217633 0.070168234 -0.025927372 -0.21390325 -0.029410716 0.28441432 -0.074510634 -0.05477196 -0.006338112 0.02787585 -0.15618323 -0.016293421 0.19948901 -0.22855508 0.1636123 -0.1820869 -0.27462754 -0.0038881034 -0.105343014 0.09488932 -0.07985798 -0.0011583061 0.08644841 0.084395505 0.15506834 -0.06301376 -0.082856566 0.2518282 0.25772834 -0.0020163388 -0.16223171 0.058450736 0.2462562 0.3581451 -0.20340216 0.02303024 0.064160965 0.018512428 0.15259326 0.3064201 0.09350935 -0.11770886 -0.05164786 0.022173733 0.010521838 0.02203841 0.06842842 0.11312899 0.071378335 0.09135352 0.04526529 0.19139503 0.2551651 0.12778759 0.09606035 -0.12036595 -0.033964366 -0.15722343 -0.2309665 0.087278806 0.23399617 -0.022972384 0.087175526 0.1597672 0.2790163 -0.20953675 0.19950785 0.04872917
2568 -0.17956617 0.12892416 -0.104791164 -0.14306982 0.06487032 -0.07780125 -0.082686715 -0.017511213 -0.09540804 -0.22581737 0.12603776 0.012602906 0.22456251 -0.037177116 0.026176112 0.038341705 -0.15620218 -0.19097935 0.14287215 0.26663494 -0.05644802 0.0072452836 0.071467526 -0.0019281621 0.19787462 0.047275443 0.19288374 -0.029133847 -0.04262131 -0.0572471 0.071772486 0.013844201 0.0009118483 0.17328535 0.05674973 -0.06824045 -0.018541554 -0.07942293 -0.024972767 -0.023348799 -0.09651514 -0.010733695 0.10508792 -0.06102257 -0.035934493 0.017398093 -0.15258302 -0.19484565 -0.1264883 -0.124779984 0.050930753 0.048736338 -0.09541152 0.27829194 0.25057244 -0.2678913 -0.15694651 -0.024181947 -0.26993093 -0.1345849 0.42263237 0.108191 0.14265122 -0.011790696 0.17405163 0.2122335 0.054987673 0.042209405 0.020097254 0.19086075 -0.13708492 0.115427375 0.13236916 0.00504208 0.006618819 -0.11186994 -0.122416176 0.089949146 0.16808586 0.20838787 -0.0057281083 0.16065995 0.2859583 -0.115261346 -0.042069055 -0.11010355 0.3460915 0.1884954 -0.18159513 -0.25347933 -0.07407257 0.057179146 0.03797628 0.040317908 0.37584987 0.12313097 0.14640719 -0.08182155 0.23499382 0.12662727 -0.061419763 0.06620133 0.00036473465 -0.036201857 -0.13923371 -0.1084683 0.12018303 0.021713046 0.119590916 -0.06856382 -0.10190692 0.13288204 -0.009948629 0.030668864 0.06672257 -0.114137605 0.14888856 -0.045090936 -0.1629968 -0.09741345 0.36125237 0.019737277 -0.13511406 0.08842386 0.14405277 -0.12148468 0.2596133 -0.08412327
2604 -0.07236051 0.045561124 0.09045582 0.11529631 0.039668217 0.16747703 0.11735417 -0.2546846 -0.040855207 -0.059567507 -0.41500777 -0.019899184 0.31484058 0.08392911 0.19215001 0.12609953 -0.21494362 -0.35219708 0.21354806 0.051060084 0.0073678927 -0.15399913 -0.03146004 -0.033887506 0.3275999 0.029121958 -0.037700813 0.048301887 -0.21573338 0.048936635 -0.10360064 -0.15945068 0.18405142 -0.08395165 -0.03284094 -0.017104357 0.048030086 -0.21162893 -0.09743522 -0.02803853 0.066147946 -0.17150058 -0.036206342 -0.077651866 0.098991305 -0.036914006 0.0770607 -0.1129974 -0.3728509 -0.27610445 0.06373574 -0.10360589 0.010703066 0.15000664 0.111625195 -0.06327316 0.014907533 -0.0060423324 0.024420127 0.049339697 -0.071324654 0.058406953 0.20793931 -0.08709599 0.2731218 -0.047325417 -0.048157915 -0.049795546 -0.06859044 0.2512721 0.119441494 0.0071549206 0.097298846 -0.20161644 -0.10076564 -0.16036682 0.023630936 0.14572425 0.1283048 0.120732985 -0.07187897 -0.099577986 0.19183889 0.09717236 -0.064402 -0.076548845 0.1408961 0.20686157 0.19404547 -0.1070491 -0.23553763 0.17381792 -0.10241717 -0.11773759 -0.034644436 0.043800123 0.095205806 0.21902157 0.18431726 -0.053828396 0.037933867 -0.0011306773 -0.30581397 -0.06762136 -0.19675079 0.06898616 0.20175074 0.0766808 0.12189887 -0.44171286 -0.15982138 0.320894 0.115485445 0.1560124 -0.023678832 0.015466983 0.21529165 -0.080044255 -0.14117974 0.13657361 0.1828473 -0.14503543 -0.104045235 0.27728122 -0.00015092222 -0.07261861 0.018821826 0.025260935
2610 -0.09952791 0.14940418 -0.07987425 -0.050380193 0.31452358 0.05644611 0.14248978 -0.0023639994 0.014700951 0.012045516 0.13351443 -0.09240635 0.21763498 0.01404 0.0078416485 0.10995989 0.102217264 0.11892072 0.113723926 0.10661086 -0.17789347 0.09902712 0.026703086 0.007849474 -0.09116995 -0.12251515 0.06344313 0.093256705 0.1837109 -0.13171995 0.13980344 0.2406199 -0.17087403 0.51263916 0.18658334 -0.03696899 -0.16932948 -0.23063192 -0.07720195 0.20553179 -0.14439443 -0.04716049 0.114439204 -0.060899373 0.2595499 0.19818737 -0.1306921 0.00763274 -0.13660868 -0.13299319 -0.021824079 0.010615036 0.038400788 0.13183802 0.10629898 0.0005192258 -0.14895135 -0.19426134 -0.017440323 0.1539982 -0.09239485 -0.004791699 0.19520551 -0.13380307 0.14771047 -0.12264441 -0.2168183 0.09143341 0.078790195 0.3089758 -0.036166586 0.008205631 0.12072426 -0.25242448 0.15858503 -0.27593014 -0.16275884 -0.029584795 0.12525818 0.01197477 -0.5292657 0.08021032 0.3715871 0.12423932 -0.009518925 -0.3273232 -0.05636819 0.21404326 -0.004322597 -0.2388006 0.076568335 0.20363536 -0.003360214 0.16001248 -0.11222299 -0.05900829 0.089597054 0.11650981 0.09994557 0.018380746 -0.13345313 0.083123095 -0.24664582 0.24855109 0.1439225 -0.04342653 -0.118523195 0.14498518 0.040484875 -0.12397966 -0.0055150203 0.23862576 0.14421216 -0.16193224 -0.36810258 -0.2204936 0.01714169 -0.031095091 0.11590646 0.10922993 0.43520823 -0.087654255 -0.061407726 -0.05768296 -0.115651615 -0.04295617 0.1210651 -0.15952155
2454 -0.16008292 -0.116029285 0.18874554 0.11783952 0.088132635 -0.1135644 0.041600715 -0.048784565 0.036066692 -0.22969072 0.027864391 0.061168622 0.24287331 -0.070513256 0.10272674 -0.025005074 -0.14432673 -0.09088087 0.24468736 0.0043046074 0.1853503 -0.106940486 0.20346189 -0.027435888 0.26524916 -0.009175867 0.17657009 0.027503457 -0.25768778 0.20943624 -0.046322342 -0.09704887 -0.0075887283 0.27854496 0.15128969 -0.22747305 -0.14021055 -0.036900837 0.08930152 0.07726639 0.083595864 -0.0952639 -0.05130533 -0.13408978 0.10139686 0.100333326 -0.16925745 -0.15915836 -0.1964645 -0.26981765 0.008460796 0.3163242 -0.21273822 0.08795432 -0.013859826 -0.07024809 -0.11580207 -0.1190253 -0.078022115 0.0887317 -0.078890964 0.1649947 0.10372361 -0.16188811 0.0101255495 0.017727679 -0.2663635 0.17738844 0.17917335 -0.044746134 0.07252112 0.1023541 0.15021132 -0.17843495 -0.033219125 -0.09093734 -0.12652805 -0.11173171 0.17508088 0.20981534 0.14173302 -0.08976517 -0.015895454 -0.0027879537 -0.19069639 -0.13488515 0.11037354 0.3133662 -0.16001375 -0.10581644 -0.28452426 0.07617698 -0.019800609 0.025425639 0.25393865 0.21233596 0.28487962 -0.029847395 0.054367814 0.0374237 0.077762716 0.104605295 -0.24470973 -0.07896992 0.10970424 0.025996624 0.15817066 0.08877922 0.22055972 0.03041677 -0.0283578 0.1646483 0.31850576 0.11478901 0.14236762 -0.27688074 -0.036310498 -0.12624837 0.028839748 0.092332736 0.11848468 -0.12473308 -0.11808617 -0.09471913 -0.15966861 0.10641756 -0.058064654 -0.035132777
686 -0.082695566 0.17231704 0.020068303 0.04946757 0.0883665 0.022112554 -0.04781705 -0.0015411131 -0.10074564 -0.18170424 -0.088155456 0.02163653 0.032374367 -0.06199672 -0.2402998 0.0381398 0.073353656 -0.3257297 0.05079909 0.048395976 0.07136408 0.05552255 -0.07255111 0.026063498 -0.011078623 -0.008031187 0.10550359 0.14840892 -0.0020171944 -0.09791478 0.17847523 0.0506329 0.17991756 0.007240721 -0.07193922 0.0022165277 0.06834826 -0.022996482 0.16008967 -0.101483755 0.047516264 -0.038990088 0.070451766 -0.15898685 -0.022831568 0.0068703955 -0.06932747 -0.051759657 -0.22732191 -0.1284958 -0.043610528 -0.026543746 0.03107749 0.18105766 0.31758326 0.023335053 0.012810094 -0.025043102 -0.1645897 0.11956802 -0.062856585 0.0916564 0.04234221 -0.021457883 -0.11163395 0.11058888 -0.025040839 0.07381698 0.15662462 0.051076606 -0.005865405 -0.05828006 0.079152964 -0.022325465 -0.013437191 -0.17646584 0.04089311 -0.051066782 0.13636924 0.12788564 0.0070555606 -0.13811453 0.07954091 -0.009803474 0.033972695 -0.18934469 -0.03179968 0.03740202 -0.12300695 0.025684116 0.031747285 0.12762307 0.036300648 -0.11286878 0.09164705 0.23451142 0.068649314 0.005845838 0.06611296 0.013008585 0.19277851 0.12142531 0.106160544 0.009915048 0.070557304 0.08000241 0.11124204 0.011502312 -0.1386962 0.07499829 -0.009237355 0.10493226 0.13450153 0.09502737 -0.18785782 0.07999817 -0.01623116 -0.1147191 -0.094671056 -0.013990774 0.04094044 -0.10614773 -0.11064157 0.11987923 0.08331716 0.021208148 0.09811412 0.06598534
2464 -0.3112229 0.30818325 0.25236633 0.3464868 0.3333318 0.27550325 0.29119578 0.23355013 -0.16159882 -0.4512061 0.24808145 0.0043077385 -0.06960213 -0.09814286 -0.15206629 0.19182943 -0.5381408 -0.25460866 0.011324222 -0.056137163 -0.17127421 0.04645676 -0.09595331 -0.15737395 0.22585961 -0.201871 0.09290773 0.29840747 -0.045118947 0.07792186 0.061648507 -0.026937762 -0.0018710836 0.058201898 -0.776236 0.3780628 0.5434496 0.15632597 -0.50253356 -0.087207586 -0.116245955 0.06339944 0.10444553 -0.1125689 -0.1944397 -0.14021681 -0.43421116 -0.37310624 -0.13844892 -0.4822365 0.26331538 -0.03267015 -0.007514495 0.10169317 0.23548234 0.26446617 -0.060062565 -0.62955904 -0.4429806 -0.39158258 -0.10513232 -0.084837735 0.05174182 0.18107085 0.46153772 0.10584167 -0.80171156 0.15559581 -0.47976363 -0.13692288 -0.022919377 0.066605136 0.21102706 -0.19957699 -0.08834254 -0.3878009 -0.47910124 0.38368228 0.19551869 0.07424341 -0.41434863 0.3233106 -0.33957148 0.35664344 -0.031792197 -0.2816583 0.11174383 0.28291962 0.0107870735 0.050602704 0.20092247 0.1332857 -0.22209261 0.3048623 0.025890976 -0.07855608 0.23958293 0.03799828 0.085703485 -0.3935467 0.2163772 0.14163221 -0.0025765363 0.24034415 0.37193343 -0.06317579 -0.03168604 0.1798756 0.25665516 -0.3976589 -0.004507661 -0.22627679 0.392154 -0.47114974 0.044051394 -0.0033078967 -0.19273742 -0.24224365 -0.14049652 0.16288692 -0.058733087 -0.08722434 -0.007443487 -0.00956089 -0.0062068985 -0.23877604 0.06910427 0.38581082
249 0.106403716 0.09223602 0.31971076 -0.1528226 -0.049990393 0.110685036 0.1853515 -0.22681072 -0.068839416 0.050941624 -0.123169675 -0.06808256 0.08100384 0.26236135 -0.25517717 0.28247502 -0.10450943 -0.039910648 0.24247465 0.02369262 -0.033440378 -0.09689647 0.1676183 -0.20152353 0.008262609 0.035228334 -0.23582108 -0.054541957 -0.1015025 0.15720806 -0.2877548 0.049645394 -0.12187975 0.002368699 0.042750653 -0.009378013 0.015684228 0.019077139 -0.059229925 -0.14047411 0.020887593 0.046252415 -0.005099115 -0.04647937 0.049421534 -0.09046644 -0.14265959 -0.17138863 -0.04766679 -0.0789071 -0.0024141662 -0.041227788 0.022823773 -0.21468313 0.18050975 0.153531 -0.17832078 -0.3128585 0.014481655 0.17224757 -0.014957367 0.10556031 0.08665023 -0.10416226 -0.020568343 0.32450366 -0.10612467 0.26813632 0.039527845 0.016865103 0.00759275 -0.018371275 0.111116625 -0.057848733 0.11208227 -0.15451984 -0.15358356 0.21467404 0.2749862 -0.048009977 -0.04582043 -0.22400029 0.32344744 -0.15544967 -0.18780425 -0.047778275 0.07082652 -0.09204281 -0.27597547 0.059932638 0.26556113 -0.04777089 -0.07735451 0.021561515 0.056633346 0.30616722 0.005196179 -0.10479549 -0.05407286 -0.049718004 0.20542186 0.26347005 0.05905953 0.152965 -0.010429988 -0.17187867 -0.0017411299 0.092142895 0.20064509 -0.22004123 -0.23572326 0.034601275 0.02500805 0.21039343 0.006709314 -0.08870951 -0.064209394 -0.14990191 -0.26669458 0.1423681 0.07564477 0.07116945 0.11867487 -0.09916589 0.16449556 -0.14987439 -0.011072521 -0.29558006
36 0.1404726 0.14590296 0.30002147 -0.14361688 -0.05844021 0.17275456 0.14219569 -0.19467793 -0.09215683 0.07446696 -0.10421393 -0.08926896 0.054790005 0.19657236 -0.28752694 0.26039425 -0.07196432 0.049511276 0.19879556 -0.007940606 -0.025982354 -0.06372316 0.19289328 -0.24338455 -0.011184648 -0.028430544 -0.14676411 -0.05071943 -0.13855423 0.16363409 -0.24192572 0.09835814 -0.1251069 -0.021718133 0.07174802 -0.03550341 0.041476745 0.04012666 -0.12304056 -0.103361204 0.026554102 0.111211106 0.080622405 -0.06883098 0.037985787 -0.17412916 -0.17209834 -0.16751769 0.02903872 -0.11917696 0.0020052225 -0.005251129 0.0020629205 -0.24770443 0.18218203 0.15216963 -0.15054066 -0.31141257 0.009598588 0.15341751 0.020951085 0.097812444 0.09311647 -0.15527843 -0.0067401463 0.16657843 -0.08481025 0.24693984 0.10794973 0.095275685 0.0049279365 0.054683108 0.103605255 -0.11899204 0.16145891 -0.13805547 -0.17274886 0.17754509 0.30087492 -0.030555503 -0.11791234 -0.19228615 0.2686787 -0.20537014 -0.117280215 0.012880465 0.013633807 -0.0890469 -0.20767681 0.057080608 0.31071457 -0.02459365 -0.07516838 0.06385409 0.059996746 0.29831144 -0.029394174 -0.14252192 0.05432957 0.0645464 0.17797357 0.20226128 0.09456268 0.20793554 0.009717127 -0.103481285 0.06667469 0.120493926 0.22402391 -0.1598913 -0.2664013 -0.0657675 -0.0068690036 0.2040441 0.07430896 -0.068021506 -0.099611424 -0.08206116 -0.26281047 0.06052279 0.046550352 0.020424798 0.11188568 -0.00018309726 0.19766909 -0.15713425 -0.12885833 -0.34087685
88 0.102060474 0.17196347 0.30635002 -0.09389895 -0.06662476 0.23328513 0.22551264 -0.13822897 -0.17110397 0.032034364 -0.13881586 -0.10857706 0.021345686 0.19647327 -0.26444465 0.2834189 -0.10038907 0.06166769 0.20022722 -0.027762724 -0.039738376 -0.12837863 0.19321133 -0.22994535 -0.0072379257 -0.052989766 -0.20873654 -0.080355175 -0.16997221 0.16848394 -0.30743048 0.028141849 -0.092929095 -0.0016671658 0.09645601 -0.047690548 -0.004864154 0.030676035 -0.046048008 -0.055137802 0.03335373 0.07060892 0.023199324 -0.124198355 0.04470078 -0.12905958 -0.20369446 -0.15439726 0.079294816 -0.11567585 -0.017231094 -0.020913497 -0.030897979 -0.21075825 0.21493769 0.18178874 -0.13955274 -0.28737208 -0.103162594 0.17478645 -0.102270894 0.16313985 0.079426 -0.08952094 -0.11264028 0.23691966 -0.07234076 0.19391404 0.06367134 0.022087308 0.011431408 0.0983207 0.10964735 -0.07788258 0.1378002 -0.12470817 -0.15876448 0.2379755 0.31008035 0.019448156 -0.11956592 -0.21460769 0.30795982 -0.21355905 -0.1587938 -0.09462982 0.03318725 -0.037271723 -0.26115918 0.06575877 0.35324597 -0.10621463 -0.1077445 0.008999809 0.084974155 0.25155923 -0.00648975 -0.16468106 -0.0034552207 -0.0128115015 0.1556093 0.27829298 0.040568296 0.16980979 -0.0020617251 -0.1957355 -0.011817879 0.12878288 0.1884229 -0.1422885 -0.25255942 -0.07153728 -0.02185074 0.18306008 0.0388529 -0.053920563 -0.044141002 -0.065506086 -0.23070247 0.06285771 0.1038318 0.020299349 0.07758582 0.030641185 0.10000512 -0.16349846 -0.05543832 -0.29998434
2431 -0.108911216 -0.09486432 -0.18824084 0.08019107 0.21376213 0.10366364 0.18618374 -0.30356446 0.0034516614 -0.052363787 -0.24417454 -0.09855164 0.31609887 -0.103200816 0.095216885 0.046867203 -0.1483728 -0.13941656 0.36887935 0.05127485 0.14683229 0.1325528 0.11760344 -0.11510748 -0.0009585625 -0.094413094 0.21996179 0.17294803 -0.0407602 -0.014426347 -0.09829441 -0.067049235 -0.10647377 -0.20602617 0.06763398 0.26397273 -0.005029575 0.19248575 0.047580343 -0.0063509666 -0.16960262 -0.008337549 -0.03445096 -0.078556 -0.0635353 -0.21700755 -0.35472894 -0.11920419 -0.018062964 -0.18176956 -0.30437863 0.38452944 0.073718175 0.17846894 0.20518371 0.05027135 -0.02857563 0.22506618 0.30934095 -0.13772985 0.0781085 0.16234694 0.040261924 -0.19973998 0.059659317 -0.046738658 -0.1616768 0.2700123 -0.03953622 0.32806045 -0.21983269 0.13306887 0.008058152 0.03839373 0.28892586 -0.27144527 0.15491177 0.09814066 0.16433755 -0.051952623 -0.11542842 0.059082013 -0.043880496 0.06829501 0.13263497 -0.16303152 -0.052924518 -0.13150221 -0.18373737 -0.22053394 -0.11721774 0.015008078 0.08046411 0.085951194 -0.12539388 0.10030322 -0.024626996 0.09341508 0.43481985 -0.0716563 0.19780521 0.098402336 -0.24943994 0.09517493 -0.198943 0.06260208 0.15104073 0.04669824 -0.004230962 -0.088309646 0.014513547 0.21849662 0.23341505 0.076343805 0.2993312 -0.018794877 -0.033484615 0.07938777 -0.28708562 -0.23578937 0.16993846 -0.13897617 -0.262623 0.12985457 0.0848759 -0.16264895 0.07798509 -0.1373007
236 0.087629564 0.13707893 0.29197502 -0.05720115 -0.009055915 0.16615224 0.17159148 -0.18262081 -0.104459494 0.0035707317 -0.11791108 -0.09092855 -0.049639333 0.2262995 -0.2927015 0.20783895 -0.098163225 0.016038265 0.20702799 -0.009264022 -0.03256359 -0.14584702 0.15716696 -0.21041133 -0.036387905 -9.647377e-05 -0.13195018 -0.03364095 -0.1469294 0.106728286 -0.27591652 0.09930452 -0.07066707 0.0010334459 0.11500316 -0.011774062 0.017221719 0.092481844 -0.050584342 -0.085136235 0.002648447 0.027565595 0.052795254 -0.111768864 0.024540413 -0.17740665 -0.15934943 -0.14004143 0.07786611 -0.08940278 -0.051351994 -0.023059754 0.012879972 -0.1717907 0.21460934 0.15681346 -0.21476007 -0.23216183 -0.0030016622 0.16615702 0.003725471 0.12620524 0.081787206 -0.111682326 -0.09191675 0.21757743 -0.11538 0.18961573 0.12897925 0.05724436 -0.0009446527 0.023414787 0.037905373 -0.06450656 0.1115898 -0.13561296 -0.22429249 0.23439439 0.34363416 0.012091152 -0.20399429 -0.21320453 0.305327 -0.20524605 -0.10894214 -0.006032405 0.035707284 -0.12149542 -0.2798342 0.1005316 0.3137311 -0.05847376 -0.15291654 -0.036153942 0.009722949 0.27399194 -0.05001309 -0.23870763 0.047523644 -0.051655337 0.21042842 0.24494362 0.08747385 0.16533662 0.01663171 -0.12261168 0.030299712 0.16856553 0.17565177 -0.17448075 -0.26721087 -0.0045550857 0.047925908 0.23543452 0.03265259 -0.014018219 -0.08506911 -0.12782192 -0.23434484 0.0803756 0.064894676 0.015380064 0.1332824 -0.008075736 0.13394028 -0.16408041 -0.11144873 -0.28262037
2482 -0.2497283 0.09409457 -0.11690868 -0.19783407 0.43172804 0.20447004 0.33152694 0.016953358 -0.06398417 -0.27518556 -0.2779695 -0.18961804 -0.021562196 -0.11542512 -0.24220873 -0.07849499 0.033238467 -0.38135839 0.26251706 -0.05477863 0.07224788 -0.065915845 0.36596817 -0.17152326 0.28599837 -0.17583242 -0.03006419 0.06860739 -0.16686325 -0.06582515 -0.08231322 -0.47896636 -0.020489195 0.18980493 -0.08374467 -0.1401215 0.12953722 0.15794699 -0.1128998 0.1659804 -0.15402342 -0.14314608 0.12114024 -0.099628955 -0.005793415 -0.12288648 -0.24463993 -0.018759586 0.0124055445 -0.0015969019 -0.1339299 -0.038479798 0.18119766 0.30125228 0.21043617 -0.08547224 -0.221002 -0.08170216 -0.23827411 0.0062548527 -0.07959178 -0.39283815 0.14697132 -0.08161359 0.29856586 0.07675819 -0.27756768 0.16104215 0.09276802 0.08943366 -0.24368615 -0.42059544 -0.25113985 -0.04513964 0.22092882 0.20838386 -0.012466469 -0.0798893 0.02602052 0.04889556 -0.38765484 -0.045764208 0.44864708 0.19101876 0.30490845 0.06268065 -0.22292522 0.5751137 0.06984312 -0.13180278 -0.07052187 0.033068717 -0.17501609 -0.11334964 -0.1390887 -0.09377586 0.111928426 0.0028054055 -0.008879416 0.12878422 -0.032658525 0.13844667 -0.16017397 0.14159434 0.06789512 -0.11960827 0.23314002 -0.24936381 0.13062319 -0.25281692 0.0058098575 -0.19767822 0.07476459 0.5100477 0.10378935 0.080870084 0.0065000104 0.005038752 -0.42129785 0.020650713 0.19261418 0.08062299 0.07520383 0.04801184 0.21826242 0.11373744 -0.043013398 0.40715706
250 0.12998044 0.15577956 0.3113371 -0.15793657 -0.03469051 0.17063898 0.15456441 -0.19683017 -0.12222325 0.07595242 -0.15455988 -0.027120339 0.023410765 0.20380779 -0.29673183 0.2687146 -0.09085182 0.023927325 0.18899627 0.046129942 -0.037491214 -0.06161421 0.20751762 -0.17292143 -0.032383293 -0.048343938 -0.23120637 -0.082739465 -0.13689482 0.17107196 -0.30418572 0.14217292 -0.1081874 0.010467063 0.07798932 -0.01561677 -0.035717465 0.055698168 -0.064311296 -0.16564173 -0.08884297 0.067277424 0.10434699 -0.05351299 0.053056132 -0.123111546 -0.14619952 -0.19196305 0.005614301 -0.110016644 -0.03582731 -0.06724455 -0.002765649 -0.21408524 0.19806872 0.23509836 -0.21141987 -0.3041807 0.012436419 0.10500796 0.010453239 0.10842616 0.006127712 -0.16470489 -0.017021619 0.24218287 -0.06407841 0.23976482 0.033112857 0.032056917 0.01412907 -0.0051590973 0.0797679 -0.06881931 0.07368364 -0.25086942 -0.19625175 0.18640915 0.27368927 0.011071807 -0.092265055 -0.24540104 0.29514396 -0.20961052 -0.1655883 -0.049808554 0.07817184 -0.05960738 -0.26386175 0.051917743 0.29314455 -0.05919094 -0.111159265 0.1012197 0.061461877 0.25606254 -0.028526714 -0.09987562 0.03978228 -0.0069443486 0.15356436 0.20494495 0.123190254 0.15243141 0.0148747545 -0.12780504 0.02073038 0.13912508 0.2056139 -0.19010462 -0.24983287 -0.038166225 0.014278615 0.18789776 -0.024619332 -0.0746893 -0.08391158 -0.054500252 -0.26783186 0.15001349 0.071255706 0.08509331 0.14856215 0.040895045 0.120426185 -0.11295623 -0.061244473 -0.26281115
2499 -0.19476373 0.1635354 -0.018302845 -0.027451992 0.035259705 -0.20827106 0.12372489 -0.00708016 -0.07153582 -0.21143885 -0.15354614 0.10613262 0.08993923 -0.13868892 0.15879619 -0.07638277 -0.20673765 -0.20534831 0.17642617 0.16146348 -0.1495542 0.16700268 0.15993388 0.011053562 -0.13292356 -0.14957625 -0.048271537 0.1836785 -0.044204623 0.009650818 -0.10499389 -0.018592862 0.077421196 0.07375485 0.07965474 -0.25666395 0.14041652 -0.22961804 0.02766922 0.32447696 -0.059201613 -0.11661643 0.17759097 0.04881413 -0.023493465 -0.026064446 -0.03537258 -0.1411192 -0.036148578 -0.61173916 0.09491575 0.06494522 0.045418147 -0.15864168 0.10362744 -0.20564488 0.13259275 -0.28218788 -0.10742427 0.077965766 -0.21600553 0.07063198 0.106352165 -0.06589955 -0.047567025 0.09661467 -0.09800974 0.16025929 0.00087194104 0.31454465 -0.1369308 -0.108984694 0.26848164 -0.28767216 0.18489148 0.04701925 0.025963191 -0.02368065 0.053895924 -0.005073373 -0.33847928 0.16267614 0.09234287 -0.025062114 -0.016931081 0.042197112 0.018073682 -0.031908844 -0.10253858 -0.22544023 -0.246298 0.055911005 -0.09930448 -0.23624888 0.0007609429 0.21500991 0.43725982 0.009938662 0.12460388 0.049783044 0.16434072 0.34710327 0.086923204 0.18473364 -0.2100636 0.22781536 0.25888142 0.07461399 0.080125906 0.07743772 -0.10131051 0.048154674 0.28219888 0.03833359 -0.08392574 -0.26697272 0.17129858 -0.1464208 0.0075881514 -0.018318227 -0.0664718 -0.1544628 0.10696194 -0.005655555 0.04689913 -0.13498026 0.11883263 -0.17583576
195 0.13678813 0.1738921 0.2676653 -0.113562934 -0.0434951 0.20006323 0.18914615 -0.23579697 -0.08172357 0.07348705 -0.13829482 -0.0688407 0.019940523 0.22775584 -0.28057012 0.25775352 -0.15362945 0.057362914 0.14949667 0.036413476 -0.05294194 -0.09372357 0.18833542 -0.19699587 -0.009563332 0.009055401 -0.18977554 -0.0624911 -0.14246888 0.19455218 -0.24539039 0.07718642 -0.1065804 -0.009178205 0.07733443 0.0054980097 0.037651323 0.070676 -0.023948519 -0.11753045 0.0064540724 0.07024913 0.052555487 -0.12909131 0.034997836 -0.10959635 -0.1648755 -0.1520832 0.042085472 -0.10925724 -0.03085884 -0.058396295 0.0004569101 -0.20450173 0.21214955 0.11787106 -0.19612855 -0.32093847 -0.015466172 0.1614968 -0.082370296 0.034875568 0.067839734 -0.119224176 -0.07296638 0.19007581 -0.12044647 0.22010568 0.085641086 -0.04269839 -0.06263369 0.070385784 0.09906771 -0.094331875 0.10361377 -0.1347398 -0.23190758 0.24870071 0.30410123 -0.044064064 -0.12364483 -0.16889174 0.35014752 -0.107847966 -0.18978295 -0.045792174 0.011826196 -0.06667107 -0.2028455 0.019387085 0.3355413 -0.09799432 -0.07445903 0.0028205742 0.046572488 0.34458247 -0.008493676 -0.15024379 0.024919372 -0.024411853 0.12915277 0.22868119 0.106367245 0.12951252 0.0026175005 -0.14610893 -0.00049561297 0.19275232 0.17056248 -0.12641723 -0.3389296 -0.038834505 0.022798007 0.19181497 0.0062230183 -0.088135734 -0.09896031 -0.03783268 -0.31451172 0.068029314 0.12941094 0.056863222 0.12921308 -0.022024285 0.13999863 -0.17586473 -0.041908078 -0.3478041
2617 0.28081036 0.122269504 0.03617186 0.13033673 0.13835831 0.012015518 0.105942644 -0.2147897 -0.021979911 -0.1402205 0.09653023 0.299455 0.29634938 -0.039967064 -0.02373379 0.21694984 -0.10183303 -0.13989744 0.066505656 0.19251612 0.060144916 0.055056177 0.24177653 0.23809172 0.22307475 -0.10433444 0.19933006 0.0665208 0.2094733 0.03321076 0.22061493 -0.017599137 -0.1500076 0.24247767 0.14551526 0.013627065 -0.09813234 -0.17816442 0.0070096455 0.052927006 -0.08275664 -0.36804405 -0.102022484 -0.15034384 0.11361387 -0.015240255 -0.18501529 -0.1586853 -0.34386283 0.1308801 0.16335459 0.1274767 0.006997366 0.059057686 0.23859067 0.052019004 -0.18272062 -0.03878978 -0.30903873 0.04728255 0.031746436 0.12513742 0.19418909 -0.02621487 0.08381627 0.17403394 -0.13970031 0.10426653 0.1525266 0.14040023 -0.05881801 -0.07867389 0.028691182 0.06401847 0.169857 -0.21547198 0.13592394 0.12947462 0.088471614 0.12846157 0.18781452 0.15334931 -0.001249871 0.054099396 0.06956899 -0.29284546 0.17042486 0.21711612 -0.1918395 -0.26191115 0.055394523 0.07356188 0.23651864 -0.21235432 -0.024367172 0.47491765 0.24544458 -0.0028715658 0.12809877 -0.0019270475 0.09372142 0.14163308 -0.31793275 0.2085996 -0.006508714 -0.16612935 0.17495994 0.04125151 0.014858833 -0.064025186 -0.01297421 0.11042896 0.07170968 -0.055385303 -0.08806355 -0.08481274 0.042498298 -0.12222708 -0.15036376 0.12419455 0.10366284 0.21088713 0.039478347 0.15007235 -0.010163839 0.04268918 -0.037601873 0.03774304
2430 0.21418552 0.35929784 -0.08889967 -0.018803213 0.06004011 -0.02793833 0.016357368 -0.10488895 -0.08510237 -0.18521783 -0.04340035 0.06634148 0.4938111 -0.20804471 -0.025538916 0.20573953 -0.20731807 -0.21424748 0.03431698 -0.060475446 0.13192916 0.18952747 0.00052648975 -0.017010266 0.045208327 -0.18171425 0.23493257 0.1847285 -0.08443295 0.016106596 -0.15400289 -0.006424132 -0.05036379 0.16783865 0.12606375 0.12571138 0.042760924 -0.25408992 -0.08019212 -0.16764563 -0.2726842 -0.03542676 0.043574005 -0.115678295 0.0303794 0.03378277 -0.18642674 -0.11546163 0.03754513 -0.15628125 0.02935979 0.07327068 -0.051957116 -0.17511614 0.14022012 -0.020522729 -0.06024018 0.0076711862 -0.1181816 0.23087999 -0.002908905 -0.035809338 0.1862881 -0.22420716 0.060390674 -0.013619358 0.03391844 -0.17595194 0.07556054 0.05903106 -0.07720907 0.2621199 0.106659345 -0.078287676 0.14097221 -0.09011177 -0.10626242 -0.0077054095 0.16825172 0.2286402 -0.17557378 0.2037275 0.32091337 0.2562442 -0.26601037 -0.213587 0.13590127 0.085176416 -0.046263535 -0.031790853 -0.28778037 -0.029028475 -0.023840554 0.010969053 0.16952313 0.030980699 0.08662426 -0.025650809 -0.0048874253 0.07869266 0.10163121 0.002226484 -0.008013745 0.12946664 -0.19527887 0.012447719 0.12120306 0.030217495 -0.057617873 0.03838625 0.062471684 -0.03983058 0.18408825 0.048995648 -0.014472018 -0.051156007 -0.17923252 0.02080103 -0.2714071 -0.09178715 0.31223506 -0.10353842 -0.13929407 0.062855236 -0.19393523 0.030909097 0.2145585 -0.11630825
881 -0.120711364 0.10529569 -0.03578079 0.13325226 0.09316405 -0.13074523 0.097555146 -0.11950966 0.06851168 -0.19229127 0.1624753 0.029029768 0.10321468 0.015593056 -0.20177041 0.006563921 0.15578708 -0.30731076 0.08040329 0.132013 0.027629582 -0.006652407 -0.05360082 0.074886955 -0.24779314 -0.016101325 0.1147587 -0.116830915 -0.05714008 0.0021513957 -0.04302914 -0.03774914 0.21973403 -0.063959725 -0.07902767 0.0758497 -0.044743255 -0.03101875 0.15715986 -0.033450995 -0.0023963016 0.055351015 0.14120169 -0.009869352 -0.08662638 0.029635575 -0.24596226 -0.20121126 -0.09130648 -0.052885838 0.13530949 0.0149618685 0.053824235 0.012173022 0.28388482 0.26710707 -0.15565951 -0.15043442 -0.1076374 0.1925465 -0.1734856 0.06940368 -0.13306291 -0.016883062 -0.13065104 -0.010905239 -0.074205324 0.13072927 -0.14201654 0.10386877 -0.11847034 -0.14103709 0.01645936 -0.033729795 0.21386074 0.050105616 0.03612407 0.15481578 -0.059363127 -0.0042789397 0.04858305 0.016919866 0.16688633 0.06114458 0.05009807 -0.0665341 0.06768509 0.16400477 -0.1565865 -0.11969721 -0.015268107 0.25806245 -0.007448144 -0.001681393 0.15193501 0.1793417 0.098134875 -0.025609398 -0.010631386 -0.100141935 0.02962246 -0.030561382 -0.09119617 -0.027938187 -0.051805183 0.009866056 0.13718298 0.10076359 0.07494061 -0.1469617 0.14736111 0.059495695 0.24914657 -0.006746346 -0.06198962 0.06585385 -0.04773125 -0.009721473 0.041952424 0.07854296 0.20821963 -0.11952955 -0.14330468 0.11798938 0.13345312 0.08810046 0.03046184 -0.074793644
2593 -0.12650114 0.011330464 0.12035733 -0.075279124 0.10324593 0.1457324 0.1287353 -0.22692677 0.011957905 0.08735223 0.17698315 0.26118615 0.09193055 0.06959956 -0.08040188 0.23312251 -0.1113921 -0.10274233 0.11874839 0.19374514 -0.08885983 0.05962097 0.0967559 -0.24872799 0.15824696 0.032407057 -0.016339784 0.05515751 0.1053432 -0.022055078 0.033644214 -0.06628533 -0.16301073 0.24865106 0.03584011 0.083772264 -0.07914753 -0.044578098 0.068386704 -0.19653799 -0.06655873 -0.12538761 0.14619754 -0.39186022 0.01885149 0.08306475 -0.091339 -0.18831576 -0.2393662 0.07380249 0.2061437 0.06193812 -0.20309974 0.1347059 0.31745464 -0.29552248 -0.10403414 0.03473444 -0.014573459 -0.19329338 -0.3499647 -0.061118387 0.15691328 0.056693133 0.13833363 -0.03493422 -0.18849908 -0.0070285904 0.100501746 0.2110184 0.061952796 0.02114099 0.07274072 -0.15408128 0.3414794 -0.14900114 -0.11794946 -0.17076993 0.17324911 0.18438736 -0.10510269 0.11755879 0.2250171 0.112450235 -0.0319169 0.007472563 0.0144306915 0.11323787 -0.08577878 0.17834778 -0.049529195 0.03677296 0.30318627 -0.08077267 0.1805921 -0.0077559096 0.07500963 0.27085403 0.12244054 0.119735494 0.18074284 0.09787251 -0.09376179 0.12835468 0.28964037 0.12171012 0.0046447087 -0.26683396 -0.038059 -0.053056773 -0.11457443 0.081452794 0.1385421 0.1323859 0.08458944 -0.28307015 0.16145772 -0.072284915 -0.32667008 -0.057655253 0.10911308 0.12192779 -0.2565814 0.13276468 -0.2223803 -0.0140046235 0.29622623 -0.11157014
2614 -0.16359589 0.20946608 -0.294024 0.2333923 0.20070757 0.05173364 -0.15472244 -0.01932259 0.058803 0.121275045 -0.028690817 -0.0077756 0.15826328 0.06831456 0.0017135493 0.3463731 0.014745175 -0.061521854 0.104088 0.044435542 -0.0026577264 0.5031632 0.3058235 -0.081725724 0.3694918 0.064746514 0.08994773 0.112678446 0.107940234 -0.16292854 -0.12604293 0.048292782 -0.097883984 -0.184193 0.21138833 -0.020647293 0.015497969 -0.2314467 0.03734343 -0.1645756 -0.16939713 -0.01969596 0.09899699 -0.06182873 0.13105705 -0.17012241 -0.35131076 -0.10773764 -0.007975288 -0.17854203 0.18454778 0.09726791 -0.11053549 0.13008817 -0.0048736385 0.0067320443 -0.044650674 -0.26058272 0.14958626 0.1880489 -0.08701173 -0.069032684 0.22359164 -0.039752997 0.0034898159 0.18723474 -0.17030293 0.05305793 0.19034337 0.3883926 0.064350784 0.1988695 0.18921962 -0.05036071 0.017153399 -0.14653215 -0.1564446 -0.2480099 0.0029171042 0.14946082 0.07319825 -0.04262257 0.25226757 0.059822768 0.25222275 -0.0761177 0.11532965 0.10549593 -0.31602144 0.012786447 -0.2778238 0.1881959 0.011442776 -0.0851532 0.084034555 0.2960718 0.27814123 -0.22191237 0.33690467 0.1707721 0.42431274 -0.076860145 0.00019635985 0.08444207 0.2360068 0.28044415 0.21873792 -0.15429664 -0.1981178 -0.2227291 -0.049982056 -0.21874984 0.073190354 0.12710017 -0.08153291 -0.12549214 -0.05484767 -0.2527884 -0.05893372 -0.023868702 0.0131522855 0.036927767 -0.19381648 0.10877016 0.11713054 0.17484179 -0.017712057 0.016401129
849 -0.24272366 0.041037556 -0.064491205 0.022647293 0.20847297 -0.03250835 -0.05321478 -0.22851297 -0.06092157 -0.019434275 0.016714297 -0.13438931 0.0021005678 0.014659106 0.054701068 0.20063308 0.19674563 -0.22927374 -0.10484188 0.15325141 0.09084502 0.03604292 0.043224055 -0.028457679 0.09961585 0.28047985 0.26368535 0.17721505 -0.05524933 0.0733441 -0.12145208 -0.33739108 0.27398965 0.05445745 0.02453671 0.34705615 -0.093379185 -0.13937643 -0.12918001 0.12932497 -0.051853307 -0.024704263 0.16224565 -0.18112887 -0.10236246 -0.038659956 -0.03194688 -0.042911947 0.0511689 0.060228486 -0.0008141213 0.008984202 0.22103465 -0.1281765 0.14369401 0.1272714 0.18622825 -0.15632254 -0.05772075 0.05038322 -0.10029704 0.05278751 -0.16633175 -0.07674572 0.27974436 -0.008110937 -0.16481939 0.106206566 0.057133533 0.085908644 -0.30903733 -0.12409849 0.05880849 0.042486303 0.025186999 -0.18188886 -0.09393579 -0.20015702 -0.01423549 -0.015565303 0.034180645 0.13928176 0.2969755 -0.03784796 -0.15052725 -0.04663293 -0.21108642 0.127126 -0.003423038 -0.050960626 0.09308843 -0.023583619 0.018155308 -0.11804325 0.095520355 0.28142723 0.16966306 0.050499342 -0.10939288 0.06501757 0.198254 0.15848593 0.0156551 0.03696171 -0.009191787 0.063864216 0.06459109 0.14515911 -0.058133457 -0.061330777 -0.17157854 0.11718204 0.42755783 0.12162114 -0.16335332 -0.013308356 -0.06175937 -0.03923424 0.03346874 0.16915487 0.15711689 -0.24097505 -0.14204168 0.08473533 -0.0063767605 0.17627998 -0.08927573 0.14806496
2511 -0.14597793 0.039027587 0.09551525 -0.16321114 0.036852725 -0.11540583 0.18743977 -0.035569515 0.166859 -0.3163603 -0.1409052 -0.08823138 0.108641155 -0.11647426 0.22137035 0.31448615 -0.14463316 -0.3406676 0.17498924 0.13774514 0.06692563 0.08962875 0.18140987 -0.005662151 0.16375059 -0.15351313 0.1461338 -0.0880459 0.037558824 -0.06771086 -0.048682313 -0.264038 -0.19537115 0.15631472 -0.04257777 -0.20952408 0.16835842 0.09310623 -0.17466682 0.12852946 0.08211821 0.03293004 -0.030471597 -0.057546604 -0.01393615 -0.0059449365 -0.21608676 -0.040954564 -0.13464326 0.077066876 0.17960763 0.15388529 0.021747366 -0.104910046 0.18392289 -0.045226514 -0.023533145 0.026413215 -0.116831906 -0.036597177 0.0537164 0.32786256 0.09515693 -0.16020803 0.05177319 0.06693098 -0.28876346 0.0618275 0.21437056 0.28418753 0.2610713 -0.087890685 0.090972826 -0.14149962 0.042850878 0.016660243 0.038269904 -0.100245975 -0.02362716 0.15462226 -0.17198816 0.08705951 0.2868438 0.14262365 -0.16945899 -0.117780544 0.16926813 0.19583835 -0.13600305 0.060066275 -0.13937667 -0.09037886 0.040479414 -0.14810029 -0.049825985 0.11862881 0.06666147 -0.18921915 0.12636869 0.16734822 0.1156162 0.06567376 -0.12312591 0.21743625 -0.21231668 0.020216309 0.1638966 0.17938048 -0.017982338 0.2129341 -0.06872058 0.10582331 -0.0035478254 0.113549106 0.0010733829 -0.33791006 0.14411087 -0.107088126 -0.19474898 -0.022650093 0.11380656 -0.097455144 -0.4028064 0.08361754 -0.034482863 0.041268133 0.021750577 0.043664064
2596 -0.011771935 0.08291344 -0.0766194 -0.13312897 0.28010127 0.2278681 -0.0078582065 -0.088774584 -0.08500773 -0.15635997 0.070804 0.13709623 0.12720048 -0.030309327 -0.20267405 -0.004718359 -0.1467297 -0.053595513 0.3573538 0.26763797 0.025267696 0.050139897 0.3248332 0.033783607 -0.003497939 -0.10369381 0.02354191 0.042021997 -0.09505084 0.010246817 0.10069501 -0.3294126 -0.11339779 0.1773742 0.23788555 0.09982098 -0.24484618 -0.09521956 0.048079193 -0.1235234 -0.17529339 -0.00022824376 -0.034394275 -0.058293 -0.12118598 0.044103254 -0.2106825 -0.0798982 -0.4360099 -0.033775844 0.006597265 0.3071813 -0.18457057 0.1323261 0.30360314 -0.0993416 0.19883396 -0.123917736 0.077535644 -0.10837483 -0.18460043 0.05961834 0.27321735 -0.16618 0.09689189 0.029944312 0.032979872 -0.09457489 0.1333876 0.19272104 -0.10429932 -0.03324562 0.16778623 -0.04804941 -0.1201268 -0.19444214 -0.2966289 -0.16899943 -0.044747494 0.30660087 -0.12665299 -0.08683704 0.02819565 -0.1599356 -0.0899582 -0.078518085 0.12454607 0.05017162 -0.032826718 -0.1214934 -0.15895258 -0.010548891 -0.12252226 0.2209827 0.099572405 0.16320266 -0.20585105 0.047811773 -0.001660364 0.10383377 0.12409375 0.08870113 -0.07006254 0.100281864 -0.043349113 -0.16680877 0.060090993 -0.06356256 -0.21570277 -0.12959765 0.18363869 -0.038711224 0.09110326 0.050154123 -0.08601433 -0.21397199 0.0567408 -0.0728042 -0.010774423 0.21112877 0.07383791 0.117708005 -0.076624714 0.13794836 -0.11217155 -0.01572385 0.115005225 0.21171013
2508 0.029976241 -0.026915943 0.33963114 0.06759296 0.0026880486 -0.020540884 0.23423718 0.028585441 -0.29350695 -0.036784653 -0.018740162 0.14001998 0.05682635 -0.0844663 -0.07772812 -0.09061399 0.18862727 -0.09202386 0.20841524 0.09509885 0.11412696 -0.0075049466 0.37855494 -0.16117069 -0.018638734 -0.2242709 0.209083 0.29462913 -0.076324135 0.22769523 0.06331981 -0.26118478 -0.17924136 -0.20608218 0.28175202 -0.16173461 0.062640876 -0.16276038 -0.04094282 0.2197591 -0.03081366 0.21970898 0.22310092 -0.2732067 0.07474709 -0.10911685 -0.50931686 -0.25584236 -0.051981464 -0.10640266 0.112099156 -0.15610202 -0.086215496 -0.084992714 0.18783548 0.03644328 0.30715954 -0.28275585 -0.07346695 0.10936616 0.33395535 0.12032182 0.28502977 0.0032253845 0.2352173 0.048236214 -0.2254109 -0.04900035 0.04946994 0.47572148 0.14647579 0.17320482 -0.26184776 -0.15291339 -0.05779988 -0.28426036 -0.044227697 0.052716095 -0.06561688 0.26482075 -0.1580678 -0.065264925 0.0711009 0.11824277 0.2102719 -0.090282 0.119346984 0.060851827 0.2359563 -0.27890143 -0.1741649 -0.057183027 0.14073074 0.047447927 0.14007813 0.1311894 -0.1869897 -0.1782166 0.000982782 0.0032819288 0.21658646 0.2970007 0.07694946 -0.010839877 -0.00059467583 -0.2151778 0.19040386 -0.11154955 -0.1757579 -0.09408031 0.107402 -0.032815482 0.27666816 0.053414788 -0.14540674 -0.102753416 0.084973566 -0.12999158 0.010645102 -0.09722574 0.2682388 -0.12624176 0.06724375 0.22331613 -0.016497102 0.09295717 0.105778754 -0.1802472
2561 -0.06826048 -0.008916746 -0.053235985 0.18583433 0.03709905 -0.19943829 -0.2897258 -0.5999237 -0.11046464 -0.24686375 -0.042026065 -0.29652482 0.23114192 -0.035855915 -0.37662217 -0.06789201 -0.21209198 -0.5154303 0.3556279 -0.07967846 0.2756081 0.2769502 -0.009959986 -0.10472302 0.0438701 -0.15622756 0.22273812 0.20890985 0.17809269 -0.2841923 -0.1291502 -0.17685537 -0.36222675 0.3118649 -0.16359782 0.09278457 0.2239853 -0.03980924 -0.093377076 -0.094676726 0.2785572 -0.24735661 -0.17865665 0.018089892 0.09517348 0.25487092 -0.3766894 -0.45201537 -0.11903959 0.009886845 0.05908337 0.019413594 0.2506293 0.22854143 0.15169658 -0.03568737 0.04594725 0.026393462 0.22169207 -0.017855518 -0.10466219 0.20305109 0.0063834824 -0.08286574 -0.19969447 0.26651105 -0.071316384 -0.017177545 0.34105963 -0.03264655 -0.3368288 -0.29512885 0.021223588 -0.03728921 -0.43306214 -0.28949055 -0.41817665 0.12573986 -0.13374637 -0.4396118 -0.35736394 -0.027149418 0.19722767 -0.21543539 -0.48475134 0.1181875 -0.056746412 0.2215362 0.22805819 -0.5279578 0.13238607 0.07503726 -0.24711885 -0.1559276 -0.39441824 0.18349417 0.047375005 -0.061221804 -0.4315421 0.15783265 0.21886113 0.23789696 0.0076084677 -0.31791392 0.16097236 -0.19212446 0.12830739 -0.31896904 0.038168434 -0.2809453 -0.45048296 0.08105853 0.4610613 0.15209904 0.008941923 -0.2420031 0.14939837 -0.16486354 -0.1250998 -0.19095078 -0.095840156 -0.32668394 0.08073316 0.084104836 0.24310748 -0.13624741 0.5094302 -0.054551594
2425 0.07423592 0.08941197 -0.24613447 0.27368456 0.26621798 0.0077163903 -0.04085393 -0.097053416 -0.044478398 0.10734479 -0.0066093802 -0.13799608 0.26713023 0.06034233 0.046735365 -0.1271821 -0.24901325 -0.4597982 -0.017966826 -0.12052944 -0.054362815 0.09642776 0.27002513 -0.046028614 0.31579345 -0.064708024 0.5885488 0.29571703 -0.14273663 0.20506315 -0.10136293 -0.18151635 0.124540985 -0.020335458 0.111458175 -0.10305382 0.00923516 -0.047309414 0.14627448 0.16708641 0.009010362 0.064421676 0.15204652 -0.059509978 0.020756856 0.20304032 -0.15200149 0.18325818 -0.045159332 0.053507008 0.3766284 0.022240058 -0.119434714 -0.041199643 0.29889637 -0.08266006 0.0837908 -0.23070158 0.006219844 0.1380444 -0.04374764 0.05456367 0.08363065 -0.07934673 -0.13921997 0.04095154 -0.48307407 -0.06177488 0.092680395 0.035364013 0.086522095 0.13852027 0.05895175 -0.009475991 -0.067975625 -0.028985376 -0.22883157 -0.17971887 -0.04649938 0.0144744795 -0.13709103 -0.120222315 0.28194153 0.0048755645 -0.08742431 -0.19959712 -0.31157213 -0.11159453 -0.0036944866 -0.15530078 0.31930843 0.08795988 0.07948684 0.07227154 0.1718296 -0.0051669613 -0.031788766 -0.022223258 0.2000647 0.3624842 0.18616252 0.18455598 -0.471167 0.34684595 -0.20038702 0.070875034 0.03043707 0.13699038 0.19506255 -0.23891234 0.15839283 -0.005851882 -0.0028922786 0.094034955 0.058073726 -0.35246298 0.08986165 -0.25989506 -0.26915026 0.03604808 0.090091646 -0.031834435 0.20101082 0.013612691 -0.08393575 -0.19444723 -0.03293377 -0.034181725
87 -0.27675125 0.1679897 0.19517487 -0.02944185 -0.082345195 -0.04311191 0.13831764 -0.12982337 0.04007223 -0.02557037 0.16402224 -0.21724166 0.21995029 0.027920682 -0.108261146 -0.05340164 -0.106810674 -0.04661986 0.19332606 0.14105012 0.027613703 -0.072737314 0.22552644 0.040673092 0.062042683 -0.06431011 0.09240878 0.2528197 0.013332997 -0.014637215 0.15322493 0.30826947 -0.1790258 -0.0007682986 0.14261305 0.14601167 0.1889615 0.09971003 0.036969084 0.06503649 0.114484824 -0.10764517 -0.15401869 -0.029772911 -0.17197984 0.06799056 -0.10463527 -0.068211906 0.17414618 -0.030333422 0.24954449 0.04683843 0.032084554 -0.12184897 0.2506215 -0.053213708 0.21651015 -0.004272615 -0.19999775 0.087984055 -0.19629492 0.23190388 0.12553176 0.04121259 0.12135044 0.1922698 -0.14278883 -0.026329875 0.0697741 0.2871686 0.01864466 -0.14615531 0.05394713 0.1633716 -0.07337239 0.022670317 -0.0006041664 -0.097069755 -0.16177462 0.16131325 0.05526573 -0.082892515 0.021065552 0.05805255 -0.26633298 -0.049278986 -0.094928734 0.028260088 -0.11444029 -0.06944217 -0.024115961 0.17746592 -0.146835 0.09618282 0.0699534 -0.26663882 -0.18393876 -0.08028192 0.122852445 0.074985996 -0.024823766 0.11969564 0.21135351 0.12248059 -0.06859588 -0.010832408 0.04977108 0.17680739 -0.024322363 -0.32293555 -0.36270878 0.33126673 0.20624171 0.13148013 0.0051706955 -0.0066890605 -0.10138938 0.034172967 -0.039866455 -0.011976387 -0.006411248 -0.11750663 0.021115461 -0.25625855 0.21879251 0.1832979 0.05192018 0.27740857
359 0.23725453 0.36684474 0.102391645 -0.028876483 0.086571336 0.06629653 0.09236562 0.08077666 -0.32912797 -0.22112088 -0.22380053 -0.11108016 0.024601862 0.008974818 -0.17486879 -0.16630666 0.29887894 -0.20086229 0.07543233 0.074039675 0.10689917 -0.2847041 -0.0016911614 -0.053566713 0.30056566 -0.00019198978 0.18499482 0.20801699 -0.09719461 -0.066746816 0.010350507 0.1138451 -0.26785582 0.09376952 -0.03582152 0.12547421 0.14706652 0.020285225 -0.06763503 -0.16106415 -0.093346775 0.06846443 -0.124732435 -0.27406985 -0.19692926 0.24659598 -0.19896732 -0.14982162 -0.20305482 -0.07550975 -0.08797402 0.06702209 0.025909541 -0.028434988 -0.048214026 0.04414625 -0.13047965 -0.25798753 -0.2754033 -0.18413986 -0.0038254801 0.025936753 0.23780054 -0.0019671486 0.061271522 -0.05351194 -0.046169583 0.029189216 0.36744586 0.06129916 0.035066355 -0.027217655 0.051098835 0.06787274 0.05720118 0.10292133 -0.24989079 0.011390887 -0.0721183 -0.022416836 -0.13309878 -0.25619027 0.37509945 -0.113073654 -0.18214329 -0.049519207 0.0020001605 -0.04439518 -0.19216153 -0.1445024 0.013301404 -0.2976912 -0.14363523 0.08105759 -0.4376339 -0.053949263 0.078304455 0.00382755 0.36606902 -0.050950065 0.19758591 0.10615012 -0.017318051 0.06752345 -0.17881107 -0.17053145 0.32390654 0.07331071 0.16039954 0.1246088 -0.064530164 -0.12676023 0.26712242 0.14699544 0.16094908 -0.085293114 -0.07351448 0.055675555 0.06343884 0.065799974 0.04372735 -0.020461775 -0.13292506 -0.102394916 0.1650524 -0.23467806 -0.20817788 -0.39306298
164 -0.32089588 0.20599264 0.19708055 0.032023195 -0.115673915 0.06654281 0.14576106 -0.10432115 0.026300356 0.06304391 0.16238762 -0.25838852 0.24233107 0.0021027755 -0.10466068 0.021931075 -0.18754865 -0.019571327 0.1880214 0.18262574 -0.082861535 -0.039393283 0.20094776 0.050516605 0.13662073 -0.14203621 0.16238381 0.21708508 0.011902042 -0.04025927 0.14950275 0.2661372 -0.09892243 -0.014956827 0.15058605 0.09711965 0.20908946 0.14023644 0.049350034 -0.049142748 0.083275974 -0.22624055 -0.19386959 -0.0100326175 -0.1442104 0.08975626 -0.03673621 -0.076049194 0.16888846 -0.041020263 0.16418965 -0.024828881 -0.030649146 -0.09008642 0.29122335 0.030233718 0.18633115 -0.060441166 -0.10962097 0.020108283 -0.30564395 0.2894845 0.19663516 0.07612379 0.086889364 0.26521987 -0.057388425 -0.033297673 0.033596724 0.32412443 -0.048982214 -0.09635883 0.032304004 0.20408244 -0.009978356 0.06781392 0.014579578 -0.110977635 -0.1441667 0.07668117 -0.02652728 -0.070053525 -0.06767362 0.057115808 -0.22210467 -0.019739814 -0.13334934 0.05519615 -0.076622605 -0.02047088 0.1289685 0.18797235 -0.22289567 0.04375104 0.07780329 -0.14225943 -0.15667437 -0.03184446 0.14307806 0.08252934 -0.10678932 0.10968103 0.10118898 0.11838144 -0.12355132 0.067429155 0.101706825 0.1264767 0.003907329 -0.2332331 -0.28173766 0.26835856 0.23851302 0.075108126 -0.0020363552 -0.03664589 0.048292175 0.007400948 -0.0008664217 0.039995283 0.026132504 -0.11738841 0.009513629 -0.16473415 0.18137705 0.16804446 0.06380467 0.19121872
278 0.15655965 -0.05685344 -0.09913457 0.07690048 0.42826343 0.26608053 0.16500625 0.12489124 -0.23141411 -0.00045979331 0.27669597 -0.3588097 -0.0031696667 -0.14629634 -0.21975319 -0.14566585 -0.18843277 -0.1947087 -0.09366722 -0.059207216 -0.013504529 0.26123953 0.36214423 -0.2938055 0.11963315 0.052043714 0.20357357 0.23468508 0.16563433 0.01802169 0.020199675 -0.16238461 -0.06107924 -0.048078377 0.006033168 0.23601733 0.08740232 -0.35683328 0.19409166 -0.32098743 0.37128428 -0.1481373 0.05242622 -0.45325616 0.19258831 0.037803054 0.12643516 -0.27220193 0.15645027 -0.063509785 0.17285709 0.2266491 0.09298834 0.0109047685 0.2106912 -0.16421556 0.21615933 0.008629045 -0.48300278 0.041690994 0.12635948 0.2142837 0.12683019 -0.12041641 -0.10425566 0.007004518 0.04823893 -0.10339781 -0.22486489 0.3114302 0.0669563 0.09134868 0.022514248 -0.35333684 0.007051839 0.12270021 0.16677341 0.23756193 0.17805938 0.051318813 -0.22169073 0.08709512 0.24778982 0.047047663 0.019269628 0.07311182 0.4098621 -0.095732085 -0.09710163 0.034370873 0.21279418 0.031956363 -0.3877013 0.1242851 -0.11162562 -0.031586606 0.14199129 -0.12023919 -0.0026024752 -0.100064315 0.21442765 0.07254099 -0.30542958 0.045883603 0.028008364 0.13097738 -0.007907168 0.16444932 0.2295233 -0.11625958 -0.019177228 -0.18838242 0.3797613 0.26978302 0.084795125 -0.031848755 0.11690574 0.0021762296 -0.066438444 0.016953891 0.12658186 0.33548972 -0.008007844 -0.03530594 0.00038767303 0.075453706 -0.04785616 0.14112753
1109 -0.19294594 0.19904579 -0.004914858 -0.010941891 0.12376645 0.17378151 -0.13254336 -0.04544065 -0.024156854 -0.16887845 -0.036188312 0.09565956 -0.029709829 -0.072468616 -0.16755146 -0.10588594 0.3836476 -0.21200494 0.11189268 0.23991309 -0.19850133 0.026780041 -0.03327975 0.23333824 0.0084420815 -0.30722922 0.2854469 0.18575998 -0.10939666 0.009902161 0.05896737 0.096959256 0.22136374 -0.10854955 -0.31354377 0.039169326 0.03587678 0.17705794 0.038983375 -0.15189558 -0.1899449 0.1290109 -0.021084232 0.0010035752 -0.18070175 0.24748158 -0.27807078 0.17145808 -0.18412879 -0.15567559 -0.009182906 -0.094206505 0.110747956 0.11640156 0.2178728 0.12291426 0.112622224 -0.11572518 -0.12190463 -0.049564764 -0.081270985 -0.06485876 0.18211406 -0.1527992 -0.011946023 -0.0016987608 -0.019138372 0.17189853 0.02983454 0.14270453 0.011384915 -0.2172635 0.22989303 -0.060139474 0.005067572 -0.26449582 0.27506515 0.042690754 0.41336206 0.4485886 -0.10778737 -0.15987866 0.14792642 0.13992745 0.11155305 -0.07682835 -0.11367022 0.010147515 -0.1386423 0.124299586 0.10435801 0.034579527 -0.020728437 -0.30780217 -0.034418397 0.11567323 0.16749622 0.04958702 -0.1303663 0.13672206 0.008958911 -0.0115213245 -0.2572754 -0.013732796 0.5112832 -0.034771618 0.2643989 0.24102862 0.14371149 -0.18395223 0.029527636 0.04952395 0.16365768 0.14682765 -0.0464051 -0.07112337 -0.06383356 -0.025918981 -0.018712306 0.09068427 0.17228529 -0.034099586 -0.18142585 0.3180129 0.02470182 0.06180388 0.13299319 0.05399436
2532 0.019947058 0.19917977 -0.17705569 0.1332018 0.15250726 0.13282716 0.24688809 -0.14528249 0.03970013 0.18052359 0.07275168 0.39663208 0.087446705 -0.23685306 -0.13619745 0.30635503 -0.31538862 -0.23217696 0.23988725 0.09955634 -0.063217156 0.17479575 0.3289542 -0.13241288 0.14185682 -0.26132703 -0.13617855 -0.2788662 -0.20566943 0.045180965 0.25757235 -0.24586782 0.09609217 0.18958235 0.17062174 0.15686049 -0.028385527 0.00968105 0.05478967 0.23203541 -0.099053904 0.16536446 -0.037222397 -0.42204848 -0.14590405 -0.0038816433 -0.36243832 -0.08361868 -0.055294026 0.09055172 0.1482437 -0.14821619 0.12518267 -0.014591613 0.09699042 0.00139512 0.16152245 0.11901085 -0.35374346 0.22034653 -0.2077231 0.25670457 0.24034521 0.08566318 0.21554601 0.26127872 -0.15428336 0.0951269 0.4727735 -0.07970701 0.02919389 -0.22414002 0.12173421 0.070008695 -0.10265121 -0.06922105 -0.19098467 0.005245489 0.051959578 0.13056989 0.09440429 0.18585132 0.4617897 0.32065263 0.025146 -0.0075588007 0.04262712 -0.08823857 -0.14487189 -0.12646441 -0.02381444 0.13926704 0.0024069448 0.09236189 -0.14271837 -0.12653814 0.34393585 -0.027185421 -0.17304595 -0.06931497 0.022358345 0.04301521 -0.1617394 0.22861396 -0.16444649 -0.021418083 0.36356995 0.10492654 0.014687594 0.19856963 -0.37964442 0.43176493 0.20696509 -0.21154766 0.078164116 -0.043703403 0.28742152 -0.07500961 0.02524298 0.07258088 0.15327989 0.33687866 -0.046029776 0.34902716 0.14610521 -0.15630786 0.09260619 0.019823536
716 -0.28755748 0.23206194 -0.04427302 0.032380003 0.13209401 0.05613248 -0.031418767 -0.12465708 -0.19738834 0.10482896 -0.14610589 0.0494579 0.040528562 -0.0047470154 -0.112794355 0.07799322 0.26415706 -0.51112586 0.15735908 0.2711838 -0.27474865 -0.029498842 0.119658425 0.30507788 -0.06370294 -0.1827067 -0.020536946 0.08557681 0.14093344 -0.113958165 -0.17997083 -0.16747195 0.103802055 0.20935468 -0.17686385 -0.0178995 0.007310218 0.017662304 0.13518013 0.043257132 -0.23432009 0.014003324 0.081624635 -0.16841301 -0.14886853 0.122720905 -0.09183582 0.06790274 -0.2326613 -0.27074856 -0.05478267 -0.107533865 -0.030924462 0.12656115 0.22642525 -0.108373754 -0.23019145 -0.13674594 -0.009668169 0.2900874 -0.03166026 -0.19205377 0.06113712 -0.04226302 -0.30185878 -0.060625263 -0.23272687 -0.18632546 -0.043423615 -0.1980941 0.24343754 -0.17470813 0.12538673 0.0042004306 -0.10402813 -0.17051138 -0.06650755 -0.06104404 0.25653037 -0.005076928 0.09407027 0.02427181 0.15908366 0.17975552 -0.13888207 -0.17756915 -0.010969581 -0.04130289 -0.20369661 0.11497718 0.02350296 0.20252034 -0.21668401 0.18097207 -0.0972872 0.06558029 -0.0040094014 0.033291843 0.05841603 0.05955383 0.29681036 0.10155847 0.15085559 0.015235449 0.025844272 -0.08481566 0.32177535 0.12273453 0.101463474 0.100152194 0.049250014 0.19819552 0.28294078 -0.06526949 0.016553245 0.09442873 -0.054361835 0.028047848 0.12108854 -0.15792537 0.16820478 0.11444879 -0.07809956 0.17714506 0.29086006 0.00080069434 0.24915878 0.19125195
720 -0.29080364 0.13580918 0.24901102 0.2111985 0.05497494 0.045666996 0.035584703 -0.15603352 -0.06604296 0.0038014571 -0.27216554 0.0049659954 0.04711715 0.2932369 -0.13891871 0.051786408 -0.3986107 -0.5834515 -0.04760143 -0.2272228 -0.1903343 0.3121673 0.3385828 0.11502988 -0.25189564 -0.123269334 0.20291431 0.14083591 0.07310641 0.2491959 0.008317274 0.08756134 -0.026424784 0.17876264 -0.008581938 -0.18666175 0.14880072 0.13251776 -0.014349431 0.24578975 0.021564562 -0.004605614 0.21961676 0.05889874 0.20221949 0.004887286 -0.381588 -0.0930809 -0.1447345 -0.2427966 -0.16743836 0.03657476 0.20560247 0.10083897 -0.05588916 -0.16364074 0.080684476 0.10736374 -0.28251448 -0.17703897 -0.05513544 0.16169043 0.44051147 -0.044238735 0.15443133 -0.015332092 -0.3613942 -0.15047689 -0.31453344 0.036458354 0.08212425 -0.12764257 0.26595408 0.06280321 0.036502134 -0.43040696 0.17630987 -0.13057591 -0.08195308 -0.034520514 0.26517326 -0.17764685 0.35230193 -0.035368737 0.016199615 0.0149973 -0.45393887 0.09081478 0.17599545 -0.10484703 0.13339862 0.22602428 -0.014767766 0.0337704 0.20700745 -0.04703577 -0.45169267 0.030797867 0.33123362 0.36547896 0.2435155 -0.14622067 0.032805588 -0.07879931 -0.073099926 0.071918465 0.09826619 0.32499152 -0.0025033534 -0.027802989 0.01832682 -0.21484235 0.32872027 0.19893885 -0.103254534 0.048374016 -0.21858148 0.28751025 -0.05595954 0.05701728 0.11613492 0.24756323 -0.20098776 -0.14674446 0.48942825 0.20181966 0.22553128 0.15781339
137 -0.20567928 0.15458554 0.15691514 0.0603072 -0.06301921 0.061969787 0.14439532 -0.15162013 -0.019524096 0.05663587 0.22233804 -0.19519311 0.2147145 0.040020842 -0.26531774 0.021019267 -0.02291616 -0.048861645 0.17128243 0.16300783 -0.035352726 0.0938923 0.18372838 0.0321432 0.22191128 -0.056298643 0.13447826 0.31199506 0.14146236 -0.045552906 0.22602507 0.26229352 -0.21521442 0.07303946 -0.012095246 0.13245843 0.101360485 0.1762251 0.026474135 0.027223883 -0.061978955 -0.255995 -0.1361035 -0.012634239 -0.21801187 0.06695949 -0.12889695 -0.026112884 0.22504258 -0.008333738 0.20826824 -0.04077407 0.04895434 -0.04223297 0.27665988 0.081160285 0.03520634 -0.16501945 -0.10535749 0.047613695 -0.21197264 0.17512901 0.039734907 -0.12579736 0.11407568 0.23054093 -0.020031752 -0.025922604 -0.05802692 0.23235641 0.034955937 -0.063696384 0.07723024 0.10181095 -0.11946801 0.03610134 -0.029098723 -0.09789706 -0.1560177 0.10300285 0.18945147 -0.10433714 -0.08442121 0.12731762 0.008985233 -0.1081814 -0.24514957 0.065391414 -0.029248212 -0.01647125 0.056415375 0.064915866 -0.3004753 0.1045228 0.1489298 -0.16433991 -0.05820948 -0.09984125 0.07392507 0.101767294 -0.11282076 0.14507352 0.04445208 0.032844245 -0.10183812 0.06420621 0.097272746 0.107423894 -0.11067736 -0.17729017 -0.23907661 0.20651676 0.23031722 0.2500503 -0.02403892 0.14885801 -0.08410867 -0.004106554 -0.069378115 -0.007460426 0.008428208 -0.15649262 0.028676342 -0.22060604 0.15953037 0.19132736 -0.08655188 0.2859485
138 -0.30313516 0.16129096 0.25237054 0.091045074 -0.23929156 -0.0024958488 0.1073333 -0.17074305 -0.080245666 0.04027633 0.13992822 -0.12833074 0.26784843 -0.03609741 -0.17279214 -0.00088607444 -0.034063824 -0.07857016 0.16613095 0.107784286 -0.010823367 0.06544249 0.24369039 -0.074925914 0.20380303 -0.06514249 0.17012766 0.3378654 0.082174614 0.011787168 0.16258948 0.17969108 -0.08638044 -0.022017004 0.05577182 0.08366305 0.07968029 0.21645676 0.050560374 -0.08047476 -0.007244494 -0.21248448 -0.10996031 0.14226186 -0.25217265 0.06537297 -0.024913585 -0.09040968 0.18804906 -0.13159125 0.20747416 -0.046658665 0.050175734 -0.18039198 0.24332067 0.13249435 0.03998273 -0.2440378 -0.10724304 0.023545675 -0.15534708 0.2854505 -0.056025513 0.043862224 0.12612924 0.26057926 0.048700288 0.036833387 -0.11037229 0.26580876 -0.0335786 -0.020559343 0.12464569 0.16197827 -0.18519545 -0.011657549 0.0014526359 -0.14717288 -0.13957874 0.077004984 0.21093835 -0.020072572 -0.08571345 -0.006270193 -0.062133104 -0.15162744 -0.07280948 0.024587473 -0.07303911 -0.09761905 0.08071654 0.090415776 -0.26006195 0.06752936 0.05663476 -0.18977125 -0.1752776 0.013426737 0.0952691 0.20685834 -0.12084941 0.12634854 0.010438943 0.048773162 -0.12066474 -0.039617084 0.0036871512 0.11046286 -0.09104158 -0.30345216 -0.15115379 0.24130435 0.23277122 0.2250596 0.16446802 0.12456814 -0.16334137 -0.004161226 -0.09595263 0.020563422 0.022780705 -0.14277181 -0.07122869 -0.23147571 0.19858262 0.14021398 0.02388744 0.25086474
637 -0.26716346 0.16833483 0.2301427 0.043225158 -0.1265838 0.09665744 0.24655864 -0.14903936 -0.030024793 0.017806618 0.09975016 -0.104817994 0.24013776 0.01651718 -0.16644509 0.006139337 -0.069860324 -0.024873003 0.12679826 0.084174834 0.020076334 0.08649487 0.26678586 -0.0057730316 0.21505085 -0.12971343 0.09767917 0.25750938 0.09258247 -0.0129664745 0.22458908 0.21392551 -0.1308561 0.0645161 0.038607515 0.1175117 0.15321484 0.16738251 0.040008113 -0.021259123 0.0041112304 -0.270631 -0.17529082 0.0035116528 -0.24503338 0.097419195 0.0037247604 -0.090843715 0.23204775 -0.10741889 0.109404646 -0.1329525 0.010325686 -0.21873589 0.21548794 0.115629524 0.06640303 -0.100820065 -0.120744124 0.0036088468 -0.18346654 0.19626799 -0.020358631 -0.02025675 0.15470073 0.33868968 0.015136618 0.10942753 -0.06399376 0.211378 -0.053080656 -0.056266885 0.12963359 0.1326131 -0.04534596 0.010526651 -0.012421832 -0.0034354283 -0.20612743 0.042768985 0.1475833 -0.052921187 0.026104726 0.10940879 -0.029789004 -0.089122295 -0.12958972 0.08713067 -0.07742097 -0.113301285 0.055577762 0.031086072 -0.29616213 0.104452714 0.121529564 -0.16285925 -0.06634967 -0.060650773 0.18020645 0.17659359 -0.14756863 0.13838753 0.010584658 0.06725053 -0.2131376 -0.02930241 0.15983641 0.15882415 -0.109382845 -0.114838354 -0.2632637 0.1554615 0.24090682 0.23422848 -0.026296668 0.22637744 -0.0956051 -0.0134116635 0.023275511 -0.07910668 0.10059594 -0.12257876 0.045545142 -0.24682532 0.16497639 0.15868908 -0.042787638 0.2747389
120 -0.18385297 0.32014257 -0.14109227 0.19709355 0.017726474 0.04187565 0.2038963 -0.16684929 -0.10984898 -0.17665802 0.08980815 -0.0061214967 -0.12046953 -0.2085415 -0.15632033 0.19954713 -0.06402549 0.020535616 0.2964092 0.06972701 0.19644548 -0.051921874 -0.036962945 0.05468952 0.033757046 0.04741428 0.16422978 0.102244385 0.13317904 -0.25579995 0.011215184 -0.23694578 0.024134463 0.09798033 -0.3290687 0.06282951 -0.09090183 -0.15822908 0.08514282 -0.07196885 -0.22215912 0.08480348 0.055636723 -0.06279387 -0.0040180692 0.17152257 -0.18764946 -0.12643617 -0.4690175 -0.009186768 -0.15174574 0.2178368 -0.07982521 -0.23914999 0.15983948 -0.26626533 0.31870607 -0.15886967 -0.16206466 0.10516629 -0.026504971 -0.062795065 0.0592762 -0.22514161 0.03675214 0.27969208 -0.27248806 0.134402 -0.14124584 0.26537228 -0.04370806 0.16170314 0.20985675 -0.027052855 0.38219634 -0.040552106 0.052273884 -0.060587887 0.029189337 0.11146302 -0.043989055 -0.0727069 0.26612946 -0.23754993 -0.01735264 -0.35124606 0.24960892 0.023538597 0.09291951 -0.19551234 0.018426878 -0.019826889 -0.039065126 -0.15241918 -0.14462627 -0.4366708 -0.106110126 -0.079726495 0.10955956 -0.14336428 0.1691246 0.15513608 -0.12397621 -0.053128157 0.34113094 -0.0488726 0.09805669 0.23315653 0.13321592 -0.03151112 0.09350374 -0.020359537 0.12402522 0.30149296 0.12818803 -0.2665649 -0.1516748 0.20911154 0.033417404 -0.028682614 -0.06915441 0.03414868 0.1638169 -0.012682175 0.097455986 -0.052158814 -0.14687009 -0.0033439482
1067 -0.1917658 0.03684519 -0.029211564 -0.021778457 0.20305045 0.15590239 -0.038900327 -0.17786995 -0.06375915 -0.077248454 0.094003886 -0.029593918 -0.24647886 -0.002818597 -0.23312873 0.179195 -0.008907918 -0.2692705 -0.03727813 -0.012763016 0.278221 0.13105065 0.100606084 -0.2151886 -0.06622034 -0.1332468 0.072575144 0.08422776 -0.0823086 0.22833395 -0.086978145 0.056073923 0.08210324 -0.10261461 0.25605413 0.006139666 -0.17646524 -0.07000158 -0.005124875 -0.090397045 0.077633 0.06677611 0.15145722 -0.17063425 -0.30860642 -0.067512184 -0.024041126 -0.12895279 -0.07090541 0.03527425 -0.070715025 0.10498761 0.07782831 -0.0034016452 0.3626553 0.11550561 -0.18272874 0.048249498 -0.06945186 -0.25005972 -0.023254542 0.11093379 -0.06412763 -0.14749074 -0.040250294 0.2873009 -0.1940775 0.05535121 0.050813556 -0.03975973 0.2624676 -0.14295109 0.016125081 -0.03087031 0.040889226 0.039935168 -0.16142984 0.18290892 0.1325153 0.10885355 -0.15802494 -0.039154034 0.038091764 0.087121606 0.033191156 -0.21027714 -0.04417706 0.054301202 -0.14729553 -0.047946524 -0.044721074 0.22651297 -0.08695542 -0.020648416 -0.036002744 0.08355409 -0.15862796 0.020613633 -0.12368161 0.14387491 -0.0133548705 -0.027602933 -0.035745483 -0.15087113 -0.004275991 -0.13360953 0.13968894 0.11185549 -0.09121567 0.08903117 0.038238775 0.32217747 0.10464185 0.020449497 -0.2031465 0.03870418 0.06816679 -0.05776538 -0.12988102 -0.11301017 0.19229698 -0.25259754 -0.1734714 0.09799532 -0.038082603 -0.037353236 -0.12876676 0.17779568
22 -0.114561565 0.26183704 -0.33065763 0.28524867 0.23769991 -0.004575273 0.27794853 0.26449978 -0.21052076 -0.109148294 -0.19857407 0.18461579 0.22776154 0.29750836 0.20036094 0.14684379 0.08793967 -0.11335292 0.3615181 0.59690285 -0.019971512 -0.3001261 0.13157564 -0.18281205 0.13163309 0.5409846 -0.03731486 0.2348641 -0.08157857 0.2717327 0.12569366 -0.052624065 0.06258049 0.09783826 -0.38895166 -0.16646267 0.004106105 -0.13148028 0.39166674 -0.21796305 0.01482504 -0.05035204 0.02150187 -0.19377646 -0.21285522 0.12467652 -0.17665944 0.1611467 0.3141111 -0.14248884 0.21570641 0.3116275 0.32070675 -0.32016227 -0.14940201 0.2476405 0.024950987 0.2775598 0.059118472 -0.019195613 0.17050736 0.2602924 0.09273021 -0.053354926 0.044640653 -0.019598007 -0.25694212 -0.145816 0.35195738 -0.04673237 0.022229664 0.069007106 0.20154375 0.15798242 0.019804636 0.10863247 -0.46394837 0.17069732 0.18022819 -0.25410905 -0.066242635 -0.17589055 0.098836556 0.10012638 0.27937752 -0.13092725 0.19971123 -0.020931263 0.22264133 -0.14554676 -0.06415936 0.1514072 0.08737509 -0.12769282 -0.17086358 0.3415396 -0.21674411 0.3343069 0.14289977 -0.044654943 -0.03841362 0.3536129 0.13250566 -0.16226102 0.15759881 -0.0038747927 -0.07934636 0.06823422 0.21949634 0.01830131 -0.36436272 -0.20019205 0.13328059 0.28702828 -0.24496417 -0.11262393 -0.046775892 -0.002486414 -0.21335088 0.33609277 0.42594627 0.08077496 -0.020922868 0.17137317 0.13498244 0.111843504 0.039892197 -0.05595857
12 -0.19541931 -0.03244268 0.07782552 0.17685021 -0.036627915 -0.11157095 0.1520146 0.13538443 -0.00095928065 -0.40071937 -0.028303301 -0.12628637 0.20738038 0.33185583 -0.17709774 0.5278132 0.028959379 -0.45508462 -0.12535413 0.0075794207 0.44351152 0.03886035 0.07136273 0.10720743 -0.07525039 -0.28288805 0.00089981477 0.2809055 -0.3013001 0.13571957 0.06741451 -0.030636543 -0.07798805 0.15940166 0.057734326 0.0050125876 0.16488524 -0.00970674 0.44263902 0.012444871 0.026351832 0.11913244 0.37295374 0.038788304 0.106998995 0.092483625 0.0819023 0.21049507 -0.035636738 -0.26343185 0.1581216 0.040356934 -0.08024343 -0.14399917 0.12154436 -0.30978596 -0.027730377 -0.1507072 -0.10272616 -0.15658887 -0.082321234 0.09769845 -0.19523959 -0.18173763 0.32255623 0.21554542 -0.1610012 -0.17986165 0.028177092 0.09758267 -0.07208624 0.024730515 0.10498633 -0.20929423 0.13626204 -0.034990948 0.025463717 -0.15087008 0.16199738 0.058189534 0.29354435 0.04210511 0.07389465 0.29180068 -0.27043825 0.2082998 0.000990865 0.027015647 -0.10008658 -0.25765756 0.10884681 -0.018887943 -0.12170654 0.28259152 -0.0824923 -0.01888053 -0.32583162 -0.154297 0.1765403 -0.1212038 0.12934871 0.025880273 -0.03553473 0.062371884 -0.00092142686 0.007042989 0.3096018 0.147072 -0.085553855 -0.34523222 0.037773155 0.101409964 -0.045753047 0.046073664 -0.05940066 -0.1809722 -0.16506782 0.08273682 0.05018897 0.011655003 0.017540218 0.055481758 0.1287641 0.030056857 0.06665015 0.08613649 0.011696487 -0.19325124
397 -0.11526802 -0.008117997 0.20505755 -0.27355608 -0.06371059 0.09517361 0.17286848 -0.2979278 -0.4654375 -0.26788208 -0.020648248 -0.19932492 0.15222429 -0.13516894 -0.5095244 0.102431774 0.019108603 -0.028303074 0.39144853 0.05083596 -0.120942384 -0.068738736 0.22872667 0.10488812 -0.13626374 -0.17108658 -0.09794807 0.14498438 0.07411254 -0.14712933 -0.22532581 -0.03789652 0.27263317 0.040476598 0.09079039 -0.035825063 0.13827789 -0.088758826 0.039169844 -0.14792004 0.14186576 0.12326557 -0.07651057 0.07416111 0.081154235 0.058025982 -0.059212018 -0.26966292 -0.3361058 0.06738632 0.17694362 0.0496865 0.070203766 -0.09315301 -0.03273527 0.46843737 -0.13904111 -0.079199076 0.2306867 0.009791196 0.11455366 0.11821066 0.0769365 -0.299469 0.10825735 -0.069686465 -0.14367545 0.0901973 -0.18906316 0.05215797 0.23345241 0.15267786 0.15451442 -0.22079943 0.08823874 -0.12826772 -0.10216967 0.13360247 0.26638675 0.20749114 0.15619333 -0.16582659 0.4508852 0.065120935 -0.19837053 -0.072437845 -0.08872764 -0.092963025 -0.21230341 0.095261745 0.24757221 0.11717042 -0.00076189154 -0.23035906 0.056074474 0.13028032 0.061591253 -0.03932353 0.20191276 -0.23032759 0.1981737 0.010579879 -0.20433863 0.06385563 -0.14359543 -0.14691278 -0.27116007 0.01398772 0.13804412 -0.21538343 -0.19832103 0.021714378 0.0031839686 -0.14419544 -0.06502763 -0.14885342 -0.21552712 0.17669688 -0.1658878 0.21543506 0.13946606 0.3325148 -0.14435667 -0.062236898 0.14991099 0.14709325 0.09108205 -0.028396716
2419 0.17833021 -0.06846075 0.14811686 0.07023328 0.056009203 0.23306638 0.08123011 -0.20327424 -0.24906312 0.018488776 0.08232833 0.000893035 -0.007787518 -0.32983616 -0.19219662 0.31462184 0.20643231 -0.20808344 0.20592831 0.20142283 0.000827232 -0.11497174 0.086645044 -0.00822347 0.13139576 -0.06758775 0.16702719 0.11354068 -0.13122767 0.19998269 0.1560939 -0.14893551 -0.07745109 0.15528502 0.052034505 0.1872252 -0.07177807 0.00230426 0.06313099 0.18736307 -0.09982073 -0.10349192 0.2999041 -0.17092511 -0.22282365 0.06597815 -0.26139668 -0.3643128 0.09509559 0.0006829272 0.084288575 0.08177218 0.058594596 -0.055036847 0.15680225 0.15600629 -0.085308015 -0.18374664 -0.14082526 -0.076269925 -0.058579497 0.19907169 0.23820862 -0.27277485 -0.0058673164 -0.011208867 0.11505273 -0.17752858 0.22004116 0.05069164 0.23877409 0.34732205 0.11106268 -0.23476751 -0.20419519 -0.1388833 -0.12173129 -0.03136732 0.071854964 0.078214884 -0.20425066 0.40658915 0.12119316 -0.032817148 0.25422335 -0.06949642 -0.014800437 0.31254935 0.066399984 -0.14937826 -0.15047422 0.0024681306 -0.11457301 -0.16666853 -0.10748814 -0.026289718 0.07452386 0.09927322 -0.018671518 0.26701927 0.33504373 0.19118078 -0.0951059 0.13511026 0.062045567 0.121466786 0.056499198 -0.016223418 0.015890293 -0.13535538 -0.07226844 0.19063705 0.09581861 0.14234306 0.22466373 -0.2491905 0.04155 0.059426833 -0.086884804 -0.28054252 -0.012105943 -0.18001889 -0.12609586 0.41718754 -0.16095747 0.041216716 0.029729497 0.035860106
2622 0.049920406 0.10702772 -0.06676471 0.088779315 0.21569812 -0.12627555 -0.02139979 -0.10078526 -0.018060088 -0.1288356 0.21477547 0.043239266 0.19225751 0.059584484 -0.26032415 -0.20223038 -0.20228966 -0.25367868 0.012498597 0.068379104 0.13749392 0.08634588 0.070947304 -0.2657725 0.009140563 0.10702241 0.008173312 0.09831073 -0.0113505395 -0.1813746 -0.08114677 0.059553195 -0.057162568 0.12841958 0.31395635 0.12834372 -0.36604214 0.022998273 -0.095773 0.100757346 0.02189079 -0.047768798 0.15535215 -0.105674885 -0.030403346 0.16141291 0.016103588 -0.062900044 -0.29443216 -0.31596702 0.10480408 -0.36951783 -0.056234755 -0.02013305 0.030114809 -0.04504815 -0.018803807 0.13599883 0.2715975 -0.0035002092 0.054043125 0.053235613 0.38312855 0.019547433 0.24414034 0.09993742 -0.059121385 -0.035643086 0.030091837 0.25459972 -0.123409696 0.108860075 -0.03233645 -0.09503281 0.034666162 -0.13707599 -0.21569566 0.24164206 0.24395366 0.15716334 -0.2232236 0.30093706 -0.000736522 -0.008458623 -0.1261219 -0.12208409 -0.040104724 -0.18968806 0.18073435 0.09510266 -0.21866189 0.41754025 -0.13950646 0.24118164 -0.05615612 -0.025955418 -0.033262618 -0.15987903 0.30577847 0.438394 0.31118363 0.29288337 -0.10739831 0.18183365 0.27177444 -0.06602594 0.040955693 0.14597505 0.33825588 -0.035946567 -0.24083352 0.24936298 0.20497513 0.17629126 0.16681023 -0.19076806 -0.04977142 -0.0001697369 0.019772017 0.14195108 0.06790211 0.17204708 -0.20126927 0.31388667 -0.08892621 -0.04328234 0.0775902 0.10633426
56 -0.03730466 0.1443334 -0.24242374 -0.1469452 0.25890717 -0.177373 -0.0040275324 0.07172119 -0.09493365 -0.26053384 0.20893747 -0.015425793 -0.011296936 -0.18058047 -0.25135356 -0.025935128 -0.0095997425 -0.018211344 -0.11694382 -0.05743956 0.024855595 -0.3839827 0.20660803 -0.10297189 0.21645762 -0.11914256 -0.048669748 0.1722102 -0.04170162 -0.04874747 0.08991782 0.14116763 -0.028020415 0.0011521237 -0.002922564 -0.0406951 -0.09081515 -0.04368798 -0.169632 -0.11216493 0.13756123 0.14636344 0.0078035784 -0.08800271 0.09886487 -0.12182249 -0.0016571758 -0.25766456 -0.1551302 -0.16103423 -0.16924956 0.25242662 0.23721685 -0.39629272 0.24945915 0.32735935 -0.18476723 -0.10215854 -0.018624812 0.23506041 0.016464412 0.35872144 -0.00025033916 0.039664745 0.15750621 -0.19315046 0.002290316 0.047874223 -0.070498034 0.1482141 0.34139022 -0.049357194 -0.07821176 -0.20712887 0.19019257 -0.25635073 0.15496874 -0.12230501 0.048691362 0.10997192 0.073060654 0.01976515 0.072550155 0.050501864 -0.011478699 -0.13689815 0.021724219 0.22584042 0.0029994096 -0.24768506 0.09482533 0.06654578 -0.211534 0.068133056 -0.092300266 -0.22370653 -0.1573922 0.048340265 0.287949 0.1018483 0.085572295 0.055368382 0.010210014 -0.050412785 0.08514572 0.042218283 0.20844519 0.18807383 0.19541982 0.016773779 -0.26422447 -0.18110964 0.18682209 0.059399366 -0.02078887 -0.045250885 0.17029254 0.03487612 -0.21284871 0.012253759 -0.02155884 -0.0002512205 -0.16648215 0.27429557 -0.023579223 -0.14307964 0.1429968 0.12027422
166 -0.24135986 0.106380515 0.3005001 0.08087657 -0.14670435 -0.015605657 0.20440485 -0.22471367 -0.061182927 0.12833007 0.15409826 -0.21558976 0.23164895 -0.018954515 -0.14859354 -0.077751815 -0.056030355 -0.03882054 0.16542023 0.1888249 0.0021367876 0.009284748 0.25027454 -0.0023968345 0.10822879 -0.042623106 0.057749547 0.36742756 0.09942082 -0.018825099 0.19083501 0.17574035 -0.12166437 0.0002599017 -0.061396245 0.041981507 0.23240644 0.086804494 0.10505041 0.0042002155 -0.032028764 -0.2481861 -0.17490448 -0.036102947 -0.32123885 -0.003298272 -0.03643387 -0.14387698 0.23234308 -0.052313164 0.19921853 -0.18120348 0.028421655 -0.05721724 0.2911743 0.19786222 0.08786211 -0.22420079 -0.06870844 -0.0014625853 -0.1924211 0.23224172 -0.041824684 0.07383221 0.13763897 0.27379718 -0.05203266 0.1248102 -0.10783382 0.22646733 0.024327088 -0.014102451 0.13894363 0.153594 -0.27877116 -0.0089463005 0.039331313 -0.07624495 -0.084253535 0.12122308 0.08595017 0.00025506635 -0.032120213 0.07054135 -0.084631145 -0.08095939 -0.1773966 0.066944316 0.007744231 -0.045442678 0.025765227 0.08578601 -0.20912431 0.12585938 0.14991456 -0.15435398 -0.16085713 -0.031300128 0.17909995 0.21446879 -0.051589698 0.048645966 0.17172402 0.06561463 -0.16622853 -0.018306257 0.11750524 0.0922538 -0.07200267 -0.19829287 -0.35109934 0.19625118 0.12180694 0.20237118 -0.023736577 0.045206923 -0.08967526 -0.0371939 -0.020522175 -0.016281627 0.07379273 -0.1821587 -0.046292916 -0.11255096 0.19974357 0.27256012 -0.06644277 0.19436261
424 -0.22084096 0.027546475 0.18596153 -0.05448207 0.29938364 0.026016902 -0.17116208 -0.033847436 -0.20680512 -0.121502385 -0.21118888 0.015979312 0.2325584 -0.03507855 0.08565998 0.12434777 -0.35759872 -0.060566396 -0.19661024 0.24599703 0.27109084 -0.16736583 -0.22780025 -0.22423911 -0.11383854 -0.11647717 -0.07807602 0.41214848 0.1625169 0.13589239 -0.2783199 -0.36179453 -0.091204286 0.00966958 0.04785479 -0.1843124 -0.23510747 0.0054200054 0.4892884 -0.16696502 0.17413343 0.13596433 0.36820838 0.0063846866 -0.19848022 -0.14203653 0.07250531 0.015882393 0.19248393 0.16493052 -0.100927986 0.12219205 0.30615345 0.2721708 0.4222769 0.31080788 -0.123078376 -0.50353444 -0.034710422 0.19045117 -0.1602576 -0.19495718 0.30037332 -0.1500925 0.07311628 -0.013206408 -0.20560248 -0.22101817 0.047465194 0.0386972 -0.065266825 0.25726163 0.2687531 0.08310072 0.13350719 -0.11088325 -0.13669825 0.25183365 0.009323109 0.23372377 0.060434792 -0.27126485 0.033384852 -0.19347256 0.11058065 -0.1571328 0.0033148732 0.10501841 -0.024555672 -0.390592 0.42002517 0.15140289 0.077569425 0.0052337972 0.08553758 -0.05449732 0.21130182 -0.15385054 -0.14559472 -0.0022864996 -0.160151 -0.22343601 -0.18981466 0.15339771 0.32523784 0.2086734 0.42458883 0.049808208 0.14309607 -0.104541324 -0.23798074 -0.3155137 0.21533 -0.06482644 0.20040444 0.06518111 0.13183661 -0.32212067 -0.07761643 -0.170985 0.082865305 0.0981948 -0.17204043 0.33239645 0.19456254 -0.16740084 -0.10462188 0.20399277
13 -0.21937062 0.003779809 0.0758733 0.21542771 -0.018313307 -0.17807475 0.06496116 0.094027475 -0.039380316 -0.32285702 0.042629275 -0.20689382 0.26267862 0.3021239 -0.1779281 0.5086077 0.044241276 -0.57802325 -0.14385429 0.025744522 0.43742833 0.034075543 0.025785845 0.09532874 -0.16460486 -0.27773425 -0.03133103 0.20147718 -0.22028142 0.09532751 0.05549322 0.018682515 -0.08070036 0.24643826 0.05061585 -0.02175072 0.28655058 0.104803115 0.43301585 0.031192457 -0.03236332 -0.04731374 0.21429327 0.09773014 0.08370531 0.12653442 0.12139173 0.13606855 0.015918951 -0.32882485 0.04554597 0.01181289 -0.09751859 -0.1402697 0.095157966 -0.30240732 -0.1205427 -0.12930264 -0.058558963 -0.09911753 -0.16563918 0.05895288 -0.22809908 -0.13318782 0.1954062 0.19046776 -0.10171517 -0.23027076 0.05996738 0.10620807 -0.11408657 0.0050457623 0.084549755 -0.13363826 0.1344813 -0.0010799321 -0.024623007 -0.17493594 0.16043356 0.036259566 0.22210483 0.115431696 0.156164 0.33671474 -0.25802544 0.18643337 -0.08515207 0.028320571 -0.017706597 -0.2574352 0.21220332 0.0005676329 -0.14350499 0.22226779 -0.08091592 -0.0065359594 -0.33316192 -0.23968072 0.16578746 -0.059160724 0.11808416 0.05411573 -0.04417803 -0.003051434 0.057148132 0.0688715 0.34330565 0.1386178 0.0347231 -0.29033378 -0.070347324 0.12917708 0.06330662 -0.0053317104 -0.21597119 -0.27021715 -0.0812858 0.054942567 -0.015941834 -0.01564097 0.039975937 0.02087747 0.04386828 -0.050557353 0.086599566 0.14912765 0.029915541 -0.31267944
289 -0.19879907 -0.04145276 0.19375908 0.023400936 -0.062471423 0.24225871 -0.09485997 0.36908126 -0.070992135 -0.22271551 -0.14198348 -0.11753982 0.016660867 -0.071811914 -0.21568468 0.0854962 -0.18516394 -0.11199795 0.06460627 0.12221967 0.3325943 0.28948057 -0.22007558 -0.35085753 0.037705973 -0.14715119 0.13654268 0.033468846 0.3554151 -0.17157394 -0.13206069 -0.11751956 -0.17492317 -0.08939823 0.0063378466 0.0044054296 -0.29944217 -0.08097372 0.22075465 -0.115002856 0.21514833 0.10504697 0.17899203 -0.10728593 0.10729911 0.107226595 -0.08015058 -0.11483301 -0.03526199 0.07069502 0.1332516 0.24879523 0.015723504 -0.04784996 0.27164707 -0.06316387 0.05749977 -0.29517713 -0.12407415 -0.11741469 -0.08252317 0.08938619 0.47711456 -0.12683097 0.19411261 0.07133678 -0.32143065 -0.085392244 0.24919617 0.17437576 0.0070011187 0.10731288 0.20223701 -0.24021335 0.227612 -0.07805186 -0.09062771 -0.0032047513 -0.09335569 0.10108793 0.10286212 -0.21394904 0.11970499 -0.09196546 0.024582142 -0.07454306 0.17194328 0.09509838 -0.079102054 -0.41305205 0.11389095 -0.0070430897 -0.08705433 0.21840042 -0.046235595 -0.2850541 0.22416064 -0.056101847 -0.05487403 0.10037958 -0.019326448 0.29520372 -0.4319863 0.2036439 -0.066740766 -0.03428456 0.27466184 0.025684403 0.13267595 -0.015019279 -0.27473533 -0.004897743 0.2883077 0.04541744 0.24221261 -0.05723065 -0.22495134 0.17910956 0.012672875 -0.10251567 -0.22494482 -0.056730583 -0.042762693 0.23012023 0.072099835 -0.33533928 0.11615802 0.21986853
161 -0.013221987 0.14312394 0.1230717 0.26637173 0.17376544 0.032507222 0.22175157 -0.21392763 -0.21971601 -0.072207585 -0.4512175 -0.0026005562 -0.07855387 -0.013589415 0.03261065 0.08750662 -0.01645362 -0.28171253 -0.14812182 0.21295747 0.03627124 -0.016292607 0.077495545 -0.39352027 0.012905646 -0.36393198 0.07981657 0.1560928 -0.29801252 0.046356753 -0.04050588 0.069989815 -0.2797266 0.0649934 0.018628947 -0.06336618 -0.33314356 0.08551552 -0.12021905 -0.23375101 -0.070557006 0.014994032 -0.27024135 -0.045617003 0.115371175 0.13378346 -0.14806029 -0.15089726 0.08128032 0.044305805 0.22101754 0.08899317 -0.04099993 -0.16323438 0.27935058 -0.22398102 -0.09512536 0.023988262 0.229056 -0.11019747 0.33329085 0.26573303 -0.086191654 -0.42580473 -0.114710115 -0.06867012 -0.15233408 0.08766663 -0.15470211 0.2885419 -0.08781596 -0.06556291 0.11736804 -0.1822616 0.16796498 -0.23128365 0.14017864 -0.085611075 -0.15928267 -0.09434243 -0.08647515 -0.1529593 0.16192047 0.0017594765 0.10607892 -0.035517447 0.15046833 0.022802122 -0.29519823 -0.23028018 -0.013798445 0.42781428 0.021534633 0.2525879 0.07013061 0.061446194 -0.012627595 0.053043894 0.050992098 0.0646336 0.15178189 -0.036720518 0.14039963 -0.05522484 0.11207438 0.17279477 0.009784084 -0.055267483 0.16309123 -0.15345323 -0.39529574 0.1533676 0.4265702 0.038400616 -0.043617908 -0.3839594 0.054721937 0.13979177 0.2693681 -0.07199489 -0.21282199 0.11930913 0.1033028 -0.0513125 0.020691087 -0.107889965 0.026337408 0.1665831
1286 -0.07445303 -0.07232842 -0.13020706 0.33357805 0.1950315 -0.15212935 -0.11577831 -0.118081555 -0.053984188 -0.09529302 -0.06940756 0.1603937 -0.20395783 0.09917633 -0.08907183 0.16003333 0.041481346 -0.26326513 -0.012733294 0.2610046 0.31194356 -0.03341661 0.22104952 0.01768911 -0.22104281 0.14691891 0.022583222 0.0077025 0.059354845 0.21525712 -0.0039218534 -0.21393874 0.0894816 0.24398123 0.054671954 0.13401668 -0.047466543 -0.0058076456 0.03209554 -0.11350583 0.01348292 0.297886 0.056225963 -0.24619474 0.0061741946 -0.17906025 -0.0021766883 -0.14062485 0.09520918 -0.05568899 -0.21343082 -0.14889473 0.08360532 -0.01034742 -0.080347955 0.06647823 -0.05235851 0.005565385 -0.13369709 -0.0031593875 -0.112555936 0.18893376 -0.14567998 -0.088440366 0.28113136 -0.4003369 0.013236862 0.13475929 0.0019264095 0.10927929 -0.26198858 -0.1709708 0.15635931 -0.17209564 0.06480976 -0.40277803 -0.13134912 -0.047419894 -0.08346099 0.1828587 -0.007128491 0.16646914 0.38331324 -0.115690045 0.06396754 -0.1206879 0.07792387 0.05962241 -0.19612063 0.01287483 0.25742343 0.010377488 -0.2777098 -0.17497635 0.012763949 0.3171886 0.15924488 -0.14213964 0.07732885 0.011379982 0.1802375 0.026485749 0.00021579907 -0.08384002 -0.12894645 0.2980004 0.072738014 0.12884422 -0.058441713 -0.03062654 -0.115420066 0.15727694 0.49490556 0.14277595 -0.06935697 -0.18481973 0.04167046 -0.19613494 -0.009342846 -0.07437317 0.10361893 -0.34840322 0.08429454 -0.19142893 0.0039930386 -0.0061127767 -0.22601897 0.20072149
2623 -0.13649409 0.014427839 -0.0959118 0.076075785 0.18097545 0.0007725166 0.37734357 -0.08285202 -0.014705678 -0.306948 0.077906206 0.10609745 0.013024507 0.035106942 -0.11547169 0.25843498 0.15704654 -0.33810645 0.20770344 0.079327874 -0.15586412 0.012266014 0.30011642 0.02051697 0.10691593 0.028522898 0.12738541 0.06058449 -0.19759351 -0.16949454 0.11229612 -0.29188398 -0.0707072 0.3732867 0.119638436 0.2175277 -0.24008182 -0.07324987 0.007979902 0.060859527 0.2665936 -0.052626494 0.077606864 -0.13018322 0.0749357 0.007337623 -0.0092146965 -0.16600627 -0.17271191 -0.17677061 -0.11472712 0.086595364 -0.14891456 -0.100364394 0.18285795 0.133957 -0.052516077 0.06261291 0.0125906635 -0.02218001 0.24328412 0.2505197 0.24628602 -0.01152134 0.1052874 -0.097577386 -0.20878753 -0.039144486 -0.09016493 -0.12219309 0.25972885 0.14997344 0.40092903 -0.033860058 0.13851441 -0.17075475 -0.003791396 0.025536973 0.10722097 -0.088999 -0.14497739 0.066950396 0.008438277 -0.35513532 -0.006827863 -0.08970264 0.027883362 0.22255988 -0.39289758 -0.20056012 -0.018913217 0.14263256 -0.17938554 0.18572879 0.113331236 0.20842743 0.29090226 0.029899165 0.17553736 0.32469013 0.11768459 -0.014526493 -0.20413919 0.11075426 -0.049539838 -0.15573105 0.06785998 0.06285624 -0.28994447 -0.4051316 -0.08674873 0.18436173 0.029793205 0.22453922 0.22771275 0.11547303 -0.14013833 -0.12699912 0.089505784 -0.17430553 0.060080573 -0.126824 -0.01486864 0.05800221 -0.100261286 -0.18087171 0.008237346 -0.11442843
163 0.082627706 0.21380197 0.069249585 0.23881556 0.13621376 0.09677697 0.273153 -0.29118606 -0.26101744 -0.072151594 -0.43322298 0.07082664 -0.043229464 -0.021367641 0.029695325 -0.05498201 -0.13240944 -0.3147138 -0.31610876 0.16677025 0.0742094 -0.059925962 0.09538419 -0.38505167 0.15097499 -0.259666 0.22161286 0.15828909 -0.23393454 0.07470729 0.07194698 0.1379987 -0.18721469 0.22528206 0.070150286 -0.04749544 -0.32448354 0.10613469 -0.045793418 -0.17577443 -0.117083594 0.031355873 -0.30931488 -0.14838158 0.012170617 0.28510246 -0.032214396 -0.07703541 0.06416539 0.017020267 0.27749005 -0.077491336 -0.026525324 -0.14896868 0.20526278 -0.16168647 -0.11193241 0.016839396 0.28102896 -0.1200157 0.39246807 0.27556276 -0.16309471 -0.40073603 -0.08322802 -0.109630644 -0.08258307 0.14340478 -0.09696575 0.16359743 -0.096574806 -0.078858666 0.093212254 -0.18667093 0.24075837 -0.15589868 0.058072627 0.062321343 -0.018785123 -0.12350816 0.10813091 -0.11957344 0.113476425 0.0036368486 0.15635797 -0.11437841 0.11764492 -0.015402158 -0.32543573 -0.23164523 0.1130994 0.41142604 -0.047779724 0.26094058 0.16367984 0.058787383 -0.0073842695 0.04957403 0.1522802 0.17655487 0.13459228 -0.006526191 0.07055879 -0.035108168 0.048873994 0.1364637 0.12159438 -0.15820713 0.078419775 -0.18623535 -0.28152663 0.09028987 0.49651304 -0.044099692 -0.0151765905 -0.40973452 -0.0034589313 0.08063543 0.2083839 -0.09785123 -0.12545939 0.06451735 0.027985765 -0.0767638 0.13119833 0.02578142 0.06842859 0.10136942
1489 -0.19129378 -0.027816826 0.0647929 0.063526385 -0.07141504 -0.07344295 0.032224417 -0.19992074 -0.15768787 -0.114069454 0.10286807 0.12749906 -0.14945638 -0.24824648 -0.1263467 -0.009073503 0.23005134 -0.08970554 0.120431945 -0.04548704 0.16688001 -0.14297947 -0.16808309 -0.19614923 -0.025045047 0.2921528 0.43928558 -0.0014247444 -0.13764562 0.018758537 0.107096136 0.17880256 0.23622216 0.049196526 -0.0793278 0.18957892 0.113162965 -0.054388948 0.13322882 -0.2019547 -0.029954676 -0.016360058 0.35010633 -0.38598636 0.08310639 0.06874182 -0.31835398 -0.18365087 0.048652053 -0.0970093 -0.18629394 0.027499288 0.0033312817 -0.17233391 0.06869955 0.10474169 -0.019344497 -0.009586503 -0.17312592 0.029033342 -0.22569577 0.004045603 -0.052299824 -0.14756684 -0.08719674 -0.0070718005 -0.1299995 -0.13173121 -0.1704549 0.27537495 0.061485548 -0.04121353 0.28717005 -0.008442645 0.023820523 -0.1515253 -0.075907305 0.115737244 -0.14190352 -0.060015798 0.13025165 -0.20339632 0.087550305 0.0007181024 -0.015009456 -0.16767302 -0.026178095 -0.12088285 -0.1823642 0.13132755 0.081621446 0.17927222 -0.11897062 -0.03040588 0.005127918 0.14183494 0.087581076 0.17419058 0.1891758 0.031502698 -0.013863629 -0.032483112 -0.016142316 -0.03522443 -0.0028336905 -0.19746944 -0.019445973 -0.02778532 -0.019428672 -0.06591334 -0.26946115 -0.12698019 0.23465952 0.111009926 0.027468935 -0.11436345 0.04455724 -0.20227899 -0.1240299 0.05149894 0.10045247 -0.06418271 -0.015506719 0.12461211 0.10861452 0.3988777 -0.23006651 -0.10186171
2320 -0.3263419 0.07174206 0.024833623 0.08136307 0.38236663 -0.009590624 -0.10163773 0.28868827 -0.013155044 -0.06549676 -0.11795558 0.06392375 -0.09348716 -0.10193685 -0.34367415 -0.04050885 0.12636143 -0.22217688 0.040792033 0.37349752 0.18813562 -0.18234117 0.14634322 0.20853463 -0.15745288 -0.03180673 0.09402494 -0.030671896 -0.25456 0.16615549 0.16429272 0.12629505 0.0036714664 -0.11802929 0.020756453 0.10246846 -0.1804212 0.015666526 0.07425098 0.13848713 0.0214693 0.07768837 -0.10754948 -0.12558144 -0.17182584 -0.007164883 -0.11593292 -0.29476514 -0.14359966 -0.023543889 0.030232737 -0.02946356 0.08171229 0.018969798 0.121457405 0.027087025 -0.170962 0.009081242 0.0011686446 0.36696804 -0.24142702 0.063187115 -0.14376606 -0.03692909 -0.12770963 0.01599482 -0.014405023 0.03319744 -0.04567381 0.056627125 -0.037429597 0.17528091 0.006425062 -0.09247136 0.01438181 -0.42120406 -0.2719369 0.035686515 0.2431559 0.25628933 -0.052071065 0.0451018 0.1547347 -0.11976497 0.15734129 -0.23430373 0.23881972 -0.14108464 0.040254384 0.11346923 0.18592164 0.07938301 0.103878535 -0.3268175 -0.005015521 0.051677708 0.13619947 0.13898721 -0.12962103 -0.04066264 0.1492586 0.0740089 -0.035466664 0.0042364136 0.19803837 -0.16380057 0.2826996 0.26956245 -0.07954745 -0.15381527 0.11544284 -0.09596962 0.19522458 0.2319153 -0.010846785 -0.2549678 -0.13068838 -0.015856273 -0.21901485 -0.16359673 0.16359033 -0.13804708 -0.13105029 -0.03304265 0.20199578 0.12301019 -0.09832659 -0.034946382
420 -0.16302042 0.10428121 0.29627833 -0.016169092 0.091081284 0.0045198128 0.025633067 -0.20339036 -0.025014145 -0.16364692 -0.0017494768 -0.038861837 -0.06707572 0.1306989 0.06498699 -0.015273162 0.030539041 0.0018952335 0.038930602 0.24211131 0.20478286 -0.20789531 -0.055672985 0.13223296 0.045252208 -0.016207512 -0.24875012 0.3084338 0.26515472 -0.11585131 -0.0039897054 -0.027587421 -0.0016331207 0.2042788 0.03946044 0.1838184 0.00026642502 -0.021694243 0.15786967 -0.45953628 0.10340792 -0.25013253 0.1718691 -0.4746544 0.11346215 -0.016191354 -0.29212436 -0.25780848 0.29475236 -0.112163804 0.14919056 0.0890886 0.24277039 0.080181785 -0.075870186 -0.090414375 0.36640978 -0.086057246 0.2996384 0.24980286 -0.03236415 0.41389638 0.11438093 -0.013938253 0.15929505 0.06613764 -0.1888611 0.06491022 0.17020687 -0.13972698 -0.07682453 -0.034115713 -0.20208284 -0.18428059 0.11727006 -0.2916526 0.038669907 0.01139525 0.27544665 0.11443412 -0.13867001 0.10784305 0.29020393 0.024085248 -0.19220355 0.17728469 -0.15189686 -0.050321426 0.034308035 -0.27161184 -0.09881853 -0.090090014 -0.3313188 -3.208371e-05 0.363385 -0.10575798 -0.04583355 0.075232275 0.11527644 0.09876861 0.269522 -0.286029 -0.2751233 0.14427571 -0.233211 -0.12896593 0.10630754 -0.023782633 0.3391686 0.16116421 -0.0018706333 0.080413885 0.14744182 0.07933623 -0.012751704 -0.31555384 0.15295099 -0.26377457 -0.026907144 -0.063311204 -0.018069249 -0.12496582 -0.062152233 0.10252066 -0.0014164359 0.0099773025 0.05348927 0.34739503
651 0.18297389 0.38880956 0.07365796 -0.012823693 0.2700965 0.024570465 -0.0007117005 0.19933017 -0.15531223 0.16534661 -0.057833664 0.16644122 0.29391935 -0.056879796 -0.19429925 -0.026487337 0.33819962 -0.4020685 -0.1324524 0.101877265 0.21481699 -0.06724265 -0.27586335 -0.26645666 0.26450217 -0.004319288 -0.20085606 0.33396634 0.17412515 -0.09336591 -0.2253355 0.13197562 -0.11482768 -0.016306452 -0.10628751 0.028011482 -0.051099844 -0.015107341 0.19992658 0.22940238 0.05758298 0.24551228 0.028365878 -0.016708277 0.20431724 -0.26125714 -0.09594927 -0.20764197 -0.28100196 -0.26735374 0.1404236 0.3692799 0.02187354 -0.10575768 0.094273694 0.052521694 -0.14913519 0.20487098 -0.022844266 -0.03796261 -0.14562574 0.14139035 0.059071094 -0.06959359 0.15632756 0.38061112 0.013987974 0.358695 -0.029124781 0.39584157 -0.055944826 0.10384333 -0.081215195 -0.0682599 0.15039638 0.10906405 -0.13860224 0.036049407 0.09386466 0.039968066 0.029705167 0.088886395 0.24616382 -0.19954391 0.09344931 0.3286949 -0.0051324097 0.0043033725 0.113175064 -0.08343387 0.22761798 0.27268896 -0.020617774 0.07356089 0.4036414 -0.055823974 0.16988541 0.095681526 -0.1978736 0.14719261 0.124798246 0.17492431 -0.1224865 0.23597126 -0.010570646 -0.018469948 0.31933329 -0.09978452 0.09746507 -0.025873898 -0.008723047 0.037020072 0.046627183 -0.040816084 -0.045586318 -0.1868408 -0.17192829 -0.1846699 -0.02465163 -0.14479542 0.21287565 -0.15442818 -0.11702636 0.006322153 0.019865347 0.2216901 -0.11016369 -0.036290865
141 -0.38608557 0.18368872 0.23393644 0.09290597 -0.06671136 0.06051594 0.17753512 -0.2583594 -0.0909934 0.034350768 0.13679059 -0.21558571 0.21864584 0.014918631 -0.14248233 -0.088073686 -0.06093498 -0.06834152 0.16945133 0.17876239 -0.14206122 0.07456568 0.16406187 -0.017282654 0.139872 -0.056766257 0.07897939 0.3564494 0.064880915 0.033523157 0.17495066 0.27702916 -0.14896731 -0.010442639 0.015037801 0.12569825 0.21085566 0.17476164 0.032328267 -0.03863373 -0.09070619 -0.21594663 -0.1440828 0.12193884 -0.26202828 -0.009026699 -0.059652913 -0.12216081 0.23221298 -0.1157335 0.13788526 -0.13098826 0.1277122 -0.09064759 0.27625933 0.091018245 0.10264333 -0.16939403 -0.09180614 0.011146826 -0.28060064 0.16345821 0.004024811 0.10386634 0.0986725 0.2460932 0.015061857 0.02194736 -0.09207019 0.29473507 -0.020358607 -0.03541173 0.105392136 0.2712842 -0.15562396 -0.0401725 0.071094126 -0.11089144 -0.09984559 0.11069932 0.08125447 -0.09205088 -0.027162127 0.09467193 -0.068461895 -0.090511344 -0.13612045 0.02798311 -0.04323438 -0.061531734 0.019979639 0.18797386 -0.18238641 0.031977307 0.14961593 -0.13069843 -0.17191681 0.0038287223 0.16322191 0.1330769 -0.122765124 0.07189021 0.1808628 -0.003939235 -0.14807431 0.031217866 0.090830445 0.12071179 -0.114038 -0.2406413 -0.25435162 0.23018153 0.22589214 0.2502442 0.057578277 0.150286 -0.017613227 0.005516034 -0.036752336 -0.024950614 0.07323931 -0.15780385 -0.006168693 -0.18109041 0.15072276 0.21994618 -0.052557733 0.15248913
162 0.091091044 0.17868769 0.13533914 0.3269657 0.025542619 0.019632041 0.25014624 -0.19658493 -0.2652114 -0.13148554 -0.48762777 0.1655454 -0.056540683 -0.03326898 0.011171678 0.09990245 -0.050920248 -0.25478905 -0.1585352 0.13994531 0.108917564 -0.08021245 0.14249547 -0.31540483 0.06366431 -0.3861148 0.250866 0.17444454 -0.26222917 0.14535587 -0.042913236 0.03481727 -0.33432084 0.1374168 0.0062437966 -0.044812866 -0.25969198 -0.012926794 -0.14614625 -0.10828095 -0.15633512 0.10447508 -0.44300088 -0.20161112 0.023989346 0.18496343 -0.11472609 -0.09796551 0.019620946 0.08281598 0.23565361 0.022319205 -0.023148034 -0.1992817 0.32761073 -0.19271174 -0.06965784 0.12990308 0.17130658 -0.10184135 0.44642788 0.31954393 -0.02877688 -0.29430377 -0.08380222 -0.07699644 -0.13173679 0.17818953 -0.12300735 0.13341518 -0.10677867 -0.1034777 0.11416865 -0.09808401 0.18227105 -0.16509494 0.1318727 -0.029742438 -0.17917928 -0.006366343 -0.010017298 -0.13384117 0.22039182 0.040946737 0.13141233 -0.11581095 0.21503575 0.053861193 -0.19032896 -0.21232712 0.0934179 0.41261005 0.042212892 0.2109514 0.11672447 0.0037694746 -0.013223416 0.04280885 0.027550329 0.07301662 0.18138348 -0.14724551 0.16163412 -0.0010231589 -0.08542638 0.08081653 0.18648466 -0.072017975 0.043593924 -0.28932565 -0.3690479 0.14840338 0.36636093 -0.037102867 -0.070408866 -0.30463648 0.020213863 0.11042901 0.31447962 -0.029472962 -0.049816497 0.059112824 0.09764874 -0.019951336 0.12685572 -0.06990774 -0.026538381 0.1584724
613 -0.15953667 0.23168351 -0.03591961 0.012541747 0.066624865 -0.15224852 -0.05609643 -0.04529292 -0.177411 -0.20192766 0.20510486 -0.097249635 0.07919951 -0.078200616 -0.18765302 0.23203216 -0.12404596 -0.088508524 0.15007168 0.12041732 0.020422716 0.16850398 -0.20952393 -0.008831178 0.08080916 -0.32222804 -0.27682215 0.05310456 0.0784095 0.14797273 -0.09422022 -0.21533471 0.13721202 0.1562682 0.08215354 0.25404602 -0.2830139 0.016684925 0.04466739 0.102543555 -0.056354128 0.062411048 -0.11611048 -0.15732428 0.09074495 0.055308547 -0.12088994 -0.32875097 0.06386009 -0.35229936 0.18874383 0.21896401 -0.083969474 0.03199784 -0.06316614 -0.16140576 0.07645812 -0.025158064 -0.28750312 0.12213905 -0.13998367 0.29244673 0.23807101 -0.117707305 0.05137974 -0.05685698 -0.18211237 0.16331671 0.08966664 0.034445457 -0.019257396 -0.12434188 -0.0024240725 0.00036963544 0.26625615 0.14983802 0.09037881 0.055728197 0.09642337 0.24562958 -0.15115146 0.011402043 -0.08035383 -0.08835694 0.104756996 -0.16880047 -0.16096243 0.063223444 -0.236258 -0.027715951 0.050102927 0.04203828 -0.30776325 0.036617912 -0.209012 0.2426543 -0.24483405 -0.106810495 0.123048894 0.18185197 0.13390036 0.15307176 -0.12804526 -0.10397967 0.00056996074 -0.07429464 0.06825654 -0.2654441 0.2355613 -0.16932774 0.06062134 0.15625381 -0.08696143 0.20373504 0.12968321 -0.004325249 0.005881431 0.19532508 0.05725176 -0.1008884 0.2796688 0.17002591 -0.3464408 0.5091011 0.050730232 -0.20990969 -0.0073976466 0.037275713
213 -0.3173981 0.2658218 0.129062 -0.13126665 0.025219193 0.3272436 0.3076347 0.025597239 -0.27972513 -0.08949808 -0.087331355 -0.22815172 0.053841546 -0.13516165 -0.38736632 0.38541478 0.09504187 -0.30942965 0.04237592 0.22903736 0.14158675 -0.042589474 0.26992422 -0.072397895 -0.3056287 -0.109896235 0.08863558 0.12047769 0.064917706 -0.19538112 0.40258014 -0.06757248 -0.14755613 -0.11302596 -0.07037602 -0.20780213 -0.091191314 -0.05728281 0.40830252 -0.267359 0.010558114 0.027764505 -0.28142035 -0.048342623 -0.08497652 -0.08783808 -0.24175978 0.31501484 0.0013314179 -0.1351078 0.10446706 -0.053242076 0.19475886 -0.0060648215 -0.10556583 -0.17027326 0.043160144 -0.15939988 -0.034634966 0.2453589 -0.034918226 0.16857946 -0.0332457 0.15804699 0.19507101 -0.07434049 -0.19370605 0.24912739 -0.19501854 0.34774736 -0.12602112 0.11434345 -0.081722885 -0.18003945 -0.18401083 0.021361222 -0.07640301 0.13533343 -0.32583424 0.2439299 -0.16700852 -0.11052923 -0.07802613 -0.3546019 -0.032575604 -0.2874532 0.04089083 0.068824366 -0.06695281 -0.091881275 0.06714594 0.085064724 -0.21180597 0.24089186 0.01447143 -0.05011399 0.41974127 0.087867655 0.107304476 0.36192328 0.19762921 -0.10785424 0.034669448 0.026477184 0.051208712 -0.22584975 0.060754776 -0.034540158 0.031910516 0.06950271 -0.20427501 -0.16568442 -0.24020624 -0.010994368 -0.009826447 0.07212771 0.39180756 0.07827852 -0.05841354 0.110278234 0.2267151 -0.10739813 0.018672079 0.0009395134 -0.28618923 0.14256167 -0.00996287 -0.10415125
338 -0.2183602 0.19322944 -0.047400136 0.24032901 -0.21651839 -0.047920283 0.20750839 -0.18529008 -0.2535812 -0.03394605 0.21979475 -0.013775286 0.2740528 -0.21512583 -0.13215795 -0.1457179 -0.068623364 -0.075606465 0.090647615 0.10516385 0.11679674 0.11571689 0.074153244 -0.018571826 -0.0026045407 0.097063944 -0.10115969 0.1401824 0.0021345732 0.12663217 0.06897512 0.035134465 -0.15159653 0.062239405 -0.044231094 0.20551969 0.018577037 0.04905437 0.19636993 -0.04022818 0.16494027 -0.11394413 0.1336011 -0.10373669 0.05678963 0.102821074 0.010190972 -0.10255197 0.050365265 0.035966523 0.0114167305 -0.062734224 -0.0016703913 0.03352614 0.41916105 -0.07752121 -0.2803421 -0.10568268 -0.09010062 0.073385365 -0.17402531 0.07363484 0.08420277 0.018338243 0.3061037 0.11204087 -0.07244989 -0.046903756 0.10346721 0.31263155 0.09625705 0.11834013 0.11713821 0.015204691 0.06971008 0.10429731 -0.14759089 -0.14150096 0.094516784 -0.041801594 -0.02473802 -0.22138533 -0.05294524 0.1568414 -0.14188765 -0.056380518 -0.22042109 0.065230906 0.053919237 0.20658703 0.06869699 0.2773257 -0.28614354 -0.01902131 0.108916394 -0.006738994 0.033903234 -0.043426294 0.12832472 0.37886116 -0.28725645 -0.11039423 0.013680786 0.018240664 -0.030825572 -0.06651408 -0.16282709 0.1729965 -0.035008863 -0.017372262 0.061956067 -0.039417326 0.10581504 0.12294141 0.013002755 -0.014485152 0.0242164 -0.06287071 0.24691305 -0.03020368 0.18526757 -0.1966376 -0.013360882 -0.020897854 0.051427342 -0.073404744 -0.029340908 0.20852518
337 -0.21732643 0.17512889 -0.061404545 0.06977141 -0.22051944 -0.026614597 0.21436381 -0.1274606 -0.311428 -0.045703534 0.10775393 0.027067995 0.27428758 -0.15471746 -0.09058882 -0.049250547 -0.09146476 -0.046485625 0.15226735 0.058151744 0.19375376 0.096781746 0.107559785 0.03477396 0.039053075 0.082952164 -0.1819186 0.102900915 0.012478198 0.18471558 -0.0046906723 -0.020641716 -0.15060581 -0.032057468 -0.102269895 0.14777704 0.18639745 0.02442509 0.17624414 -0.10897207 0.19732404 -0.08991397 0.08192804 -0.061136115 0.092848666 0.017636752 -0.0117109185 -0.116895765 -0.038083456 0.07769686 0.076267876 -0.09578181 0.013931433 0.049426682 0.41361508 -0.1403852 -0.22091882 -0.13299948 -0.06292869 0.05467612 -0.13023172 0.14040047 0.040083602 0.031145997 0.19405518 0.15873303 -0.14489675 -0.012554243 0.10311299 0.32146105 0.13097164 -0.005589793 0.14953956 0.059474193 0.13040671 0.051840533 -0.0801433 -0.0852468 0.050845075 -0.0875683 -0.002723388 -0.19935171 -0.12479181 0.20885082 -0.05822135 -0.068826474 -0.18021192 0.096558385 0.011606101 0.20093939 0.059548534 0.23415416 -0.18685162 0.031415526 0.06585247 -0.009953604 0.04462752 0.04170046 0.10620523 0.36224738 -0.24877757 -0.17614157 0.008334555 0.08596822 -0.18447922 -0.12390902 -0.15555415 0.07973776 -0.0792778 -0.021210501 0.04083174 -0.11170105 0.13544913 0.1927718 -0.1442134 -0.011219557 0.054924723 -0.11846148 0.0762985 -0.020743191 0.1987646 -0.17849159 0.06006009 -0.08160655 0.12753974 0.052664608 -0.021088114 0.24464318
171 0.1776732 0.3729125 0.097870015 0.028348576 0.1148393 0.09177011 0.05008296 0.0028674104 -0.2771765 -0.33112612 -0.24905606 -0.016277209 -0.012970574 0.13507044 -0.043845695 -0.27278462 0.45217898 -0.18348151 0.014866 0.048815746 0.05200346 -0.28885296 -0.007732288 -0.051502615 0.24037936 -0.099807106 0.14453128 0.20749998 -0.11428446 0.14135875 -0.026749302 0.08481397 -0.32507384 0.14090347 -0.047254745 0.15773404 0.1890247 0.08234245 -0.013495915 -0.25027427 -0.31224293 0.10211834 -0.03446243 -0.352921 -0.26837265 0.30734974 -0.14104408 -0.060355254 -0.22599876 -0.21886092 -0.10334063 0.06776333 0.0999197 -0.0128328875 -0.087563805 0.15870701 -0.2869573 -0.28153548 -0.22968514 -0.33886713 -0.041886777 -0.0379418 0.18035798 -0.014208715 -0.09686812 0.0085197 0.061872214 0.19044796 0.2994113 -0.025304247 -0.08565251 0.034350526 0.020122666 0.29133314 -0.015333705 -0.059257574 -0.44384205 0.11925073 0.00019621501 0.037674665 -0.050029866 -0.31554827 0.41536263 -0.1863639 -0.21687336 -0.14755815 -0.052535363 -0.06556434 -0.22158958 0.048052464 0.048207544 -0.3424592 -0.02587096 0.11791035 -0.39829317 -0.025287988 -0.04710725 0.05718721 0.5123768 -0.06360692 0.2191623 0.0693422 0.22019926 0.0076485234 -0.14206028 -0.0422111 0.27594373 0.1419277 0.173109 0.07447943 0.0068217004 -0.102007 0.22137634 0.13139713 0.16984807 -0.12996829 0.10063133 -0.03068479 -0.006196894 0.09550014 0.09114615 0.012237542 -0.18122828 -0.060900856 0.20408411 -0.13477789 -0.2998003 -0.49154863
