2634 128
2633 0.30256534 0.09181005 0.12020817 -0.017471101 -0.046805926 0.1144367 0.06438411 -0.0050933845 0.20456614 -0.01771445 0.08276505 0.115700394 -0.04367599 0.241682 -0.20756975 0.021821719 -0.078141585 0.021284278 0.03497662 -0.24448822 0.111025535 -0.1411155 0.022429552 -0.23717569 -0.2852243 0.33375233 -0.087321065 -0.15336527 -0.2080148 0.45812762 0.2687129 -0.05310091 -0.020579372 0.0055008754 0.02540969 -0.0069530434 -0.26999882 0.029405545 0.2821584 0.037568193 0.07839243 0.26673487 -0.16462505 -0.24720287 -0.14713006 0.052199993 -0.09824918 -0.1286312 0.18432641 -0.0063875765 -0.06426014 0.06267021 -0.10836987 -0.16098464 -0.03567357 -0.10517291 -0.094339825 -0.013925703 0.009509966 -0.022028703 -0.16505115 -0.18516307 -0.11244089 0.13546011 0.08025061 -0.20816799 0.037423983 0.07023356 -0.11818077 0.22068232 0.09421713 0.32448456 -0.057714347 -0.026361255 -0.010662232 -0.058977336 0.08829431 -0.062425006 0.02437576 -0.2506116 0.002388127 0.19489159 0.031146454 0.14011513 -0.044733196 0.09772493 0.009462181 -0.07361332 -0.20776878 0.065541565 0.24390611 -0.07331847 0.124628946 -0.06282039 -0.028666478 0.07955744 -0.06165041 -0.07219603 0.19960585 0.146202 -0.23574455 0.014264602 0.0131850485 -0.13509068 -0.14912792 -0.044135194 -0.062668465 -0.10240222 -0.0129313 -0.24047466 -0.01516916 -0.03978936 0.25312862 -0.17147422 -0.23019367 -0.3604817 0.13006942 0.41029513 0.106624775 0.21319456 0.013487655 0.18929785 0.032267693 -0.12938192 0.13345543 -0.044769317 -0.026033968 -0.13992205
2550 -0.18178543 0.19039552 0.22202231 0.05633434 -0.23317355 -0.09451219 -0.07483049 0.12957753 -0.20294712 0.038740497 0.15433984 0.06128415 -0.2317989 -0.014961512 -0.20016077 0.025637994 0.059461273 0.12573412 -0.1808902 -0.12591796 -0.09867293 0.19424458 -0.1739302 -0.03657189 0.06930044 0.3419211 0.07099143 -0.13270849 -0.07983778 0.19941583 0.3883933 -0.0211324 0.101572886 0.47469205 -0.061663847 0.059301984 -0.045660105 0.13059151 0.1736045 -0.053124957 0.06512376 0.16162087 0.028627276 -0.10573474 -0.09253727 0.17937545 0.06311107 0.124954246 0.036412258 0.052940466 0.21256192 0.03136536 -0.28718674 0.0031012662 0.049981818 0.05592555 0.013269237 0.243252 0.19683073 0.24230759 0.07360981 0.06641784 0.030164804 0.10539842 -0.43270656 -0.07081786 0.06415518 0.11112903 0.11326826 -0.0327761 -0.10975634 0.23798554 0.23363638 0.27742332 0.12661615 0.017797122 0.004713409 -0.16597074 0.27580664 -0.018252008 0.15518984 0.113955185 0.08496842 -0.14290242 -0.22120722 0.14802073 -0.062049683 0.19438536 -0.0065094414 0.19200967 -0.18906099 0.053633742 0.093540765 -0.17594452 0.20114115 0.11887665 -0.0945191 0.06454997 0.049671862 0.21248461 -0.20394634 -0.08603785 0.036264915 -0.3440989 0.098530695 0.19459929 0.13575618 -0.15157801 0.002710696 -0.017451294 0.10989875 0.2121138 0.11044857 0.02350374 -0.14396374 -0.32179043 0.023367543 0.16549473 -0.029870093 -0.18697572 0.04154823 0.020063596 -0.17157747 -0.19450168 -0.020133661 0.020520374 -0.10020355 -0.22772215
2568 0.17680164 0.006907158 0.12656152 0.03812094 -0.18243335 0.07469099 -0.20999198 0.029733388 -0.13031441 -0.085778706 -0.1707066 0.13776056 0.082746655 0.044153646 0.012511954 0.12474519 -0.12702535 0.013950159 0.14160433 0.006349027 0.022867335 0.060251184 0.036059678 -0.0899444 0.15712292 0.1952013 0.005118638 -0.13046321 -0.17890583 0.27267158 0.016757201 -0.09614428 -0.08538198 0.20692837 0.088939875 0.042877823 -0.22387803 -0.091172196 -0.00027515047 -0.139143 0.040291406 0.06984848 -0.004307506 -0.0463404 -0.09251169 -0.038032614 0.13482578 -0.03071091 0.16966915 0.09703922 0.03503722 0.3303652 -0.16794467 -0.03272317 0.05438717 0.14100128 -0.22334336 -0.30128223 -0.0039418023 -0.090269014 -0.20994082 -0.151417 -0.15461403 0.4892881 -0.070879884 -0.30482027 0.20078799 0.10254062 -0.039950646 0.03666224 -0.0031143874 0.100321844 0.12789069 0.1259802 0.07323228 -0.10471425 0.2793734 -0.037226282 0.14520575 -0.15105489 0.122952335 0.12198001 0.16299325 0.13082375 -0.08644926 0.14040141 0.16129066 -0.0077131554 0.012134684 0.03878076 -0.037139524 0.03164212 0.018904004 -0.1590082 0.26819828 -0.18620218 -0.0490494 -0.28875676 0.12705012 0.08186437 -0.11311243 -0.00055150205 -0.023206478 -0.1059961 -0.06283285 -0.10467565 0.17875363 -0.06708915 -0.09533026 0.08984882 -0.14604452 0.07992403 0.039962545 0.32031626 -0.046271145 -0.23805866 0.09146746 -0.10056891 0.063541934 -0.06604101 0.020243825 0.029560287 -0.14892897 -0.06533821 0.13348997 0.07279572 0.22188635 -0.2813204
2604 0.06026607 0.10986252 0.025933703 -0.105540894 0.080116235 0.013663849 0.04162884 -0.17423505 0.13795443 -0.21441326 -0.14479624 0.006773494 -0.04828719 0.12608153 -0.2482604 0.42228067 -0.021646844 -0.08125107 0.12299715 -0.17176536 -0.23532058 -0.031309023 -0.1575838 -0.13022014 0.16644084 0.1932947 0.1414271 -0.06899122 -0.040992998 0.34815323 0.3375862 0.03220081 -0.04428892 0.035881538 0.17777024 -0.039805092 -0.14467637 0.006400766 0.15075137 -0.07016477 0.001815239 0.11540266 0.08867173 -0.0773354 0.05362031 0.08968871 -0.08615681 0.23254296 0.11907126 -0.2966473 -0.09894254 0.41625896 -0.09492547 -0.16508059 0.1516492 0.119384885 -0.1517622 -0.08822642 0.02964362 0.0659977 0.06220968 0.0061612166 0.09590272 0.1343007 -0.058207322 0.03873852 0.0064956555 0.015902475 -0.040753316 0.053656444 -0.053040933 0.22625244 -0.026755242 -0.025033696 0.1351962 0.06953779 0.2575416 0.18322475 0.17522305 -0.21758254 0.017324788 0.1476992 0.08431103 0.034435354 -0.097860806 -0.21274848 0.07800174 0.10553293 -0.17240688 0.1731014 0.015502389 0.014081967 0.066871054 -0.17153 0.10532613 0.08343046 -0.26532856 -0.158546 0.084250554 0.2838144 0.07305479 -0.18099923 0.18744124 -0.26614437 -0.05592938 0.11219944 0.0064769476 0.16134968 0.033421002 -0.23013633 -0.027380688 -0.0349347 -0.074327275 0.030675737 -0.22513652 -0.18387061 0.0784938 0.25048086 0.04680802 0.13473526 -0.097674154 -0.22671804 0.12421355 0.040872816 -0.080306746 0.068206355 0.301011 -0.124467045
2610 0.09475452 -0.13091913 0.29811183 -0.06482645 -0.044944655 0.2406176 -0.044635963 0.031738624 -0.29487342 -0.31339732 0.21055375 0.21925813 -0.01722164 0.21865067 0.082244955 -0.20703027 0.16476284 0.021575656 0.016443893 0.11601605 -0.05362959 -0.18080787 -0.061118666 0.34124106 -0.1221208 0.29856282 0.07796363 -0.2718447 -0.029380219 0.08100646 0.268225 0.07771413 0.021957709 0.092864186 -0.15525708 0.13342217 -0.067646 -0.18167812 -0.09753731 0.07798688 0.1995999 0.39181024 0.1817522 -0.10918144 0.19946525 0.1720839 -0.02882278 -0.10201874 0.010606436 -0.13083048 0.10342415 -0.086420335 -0.16558576 0.12537181 0.013511371 0.078319654 -0.2576509 0.061274253 0.06215043 0.02649131 -0.31278515 -0.08862694 -0.103990205 0.1727881 -0.07385252 -0.24765195 0.08339903 0.40591377 -0.21007681 -0.023776786 0.019788714 -0.11755546 -0.04043179 0.01904868 0.07249382 -0.042793423 0.06737511 -0.034330226 0.047599215 0.03407443 0.12817176 -0.062241208 0.05953891 0.21514207 -0.22475667 0.083651215 0.03940107 -0.08219269 -0.11638429 0.2314246 0.099960476 0.086053275 0.16960981 -0.2015274 0.102123216 -0.007916783 -0.09412933 -0.1583551 0.093103796 0.370509 -0.10664355 -0.066069126 0.27767804 -0.09040694 0.0011468056 -0.12114709 0.035170715 0.06789722 0.056409847 -0.27999473 0.0011201395 -0.088074066 -0.052290812 0.21641682 -0.335503 0.0020928322 0.17933802 0.03752339 0.0363599 0.31816074 0.08927584 0.1389893 -0.2457505 -0.13815321 0.04945034 0.120513156 0.025876101 0.15181534
2454 0.18576661 0.082643144 -0.03732826 0.0952662 -0.023163745 0.094538435 -0.02868111 0.012226961 -0.19725056 -0.021709029 -0.12030657 0.077178605 0.058684785 0.10920699 0.026300516 0.034714323 0.060150545 -0.03465503 -0.08718249 -0.24788499 -0.01746635 0.2969425 0.24061912 -0.22862965 0.26250646 -0.014937104 0.10194779 -0.15468211 -0.081166744 0.30724186 -0.021712976 -0.12924403 0.12896127 -0.037096404 0.008560391 -0.0017584786 -0.24696605 -0.06345731 -0.04755291 0.06327671 0.085143454 0.12177438 0.23119502 -0.0088661155 0.18979396 -0.021391658 -0.09186627 -0.045252196 0.15694445 -0.15216446 -0.09528773 0.23384172 -0.21962386 -0.056537587 0.13728815 -0.073665105 -0.082706966 -0.08240379 0.28221175 0.18099019 0.032710757 -0.055695128 0.0063968515 0.09432623 -0.003311159 -0.25149247 0.1908443 0.2919486 -0.15234697 -0.06704116 0.08008616 0.40048394 -0.011831067 -0.27272287 -0.026827319 -0.06235978 0.16640702 -0.05056332 0.024117494 -0.12411288 0.13824293 -0.032900963 0.21114737 -0.03667165 -0.13079013 0.20126618 -0.03144435 0.16499153 0.04524366 0.19255766 -0.050791133 0.08787805 -0.09343382 -0.17638078 0.33663467 0.23872061 -0.30121005 -0.028524525 0.100964285 0.24733363 0.119152874 0.024328956 0.06072092 -0.1890141 0.051827002 0.1293912 -0.036668558 0.1970047 0.14551713 -0.05971773 -0.16034222 0.2087606 -0.07160936 0.22684495 -0.10124417 -0.25113103 0.108053386 0.05415458 0.14432545 0.12789388 -0.09225888 -0.047986697 -0.040011566 0.02708478 -0.09486986 -0.16307947 0.23690638 -0.073441714
686 -0.04974744 -0.010004891 0.109521605 0.0040354766 0.10905302 0.14977604 -0.14378074 0.04694546 -0.01256086 -0.11540429 0.068339914 0.1233373 -0.09638049 -0.0028337524 -0.0735811 0.05174306 0.070367776 -0.05078214 -0.0536225 -0.22096318 -0.08327051 -0.09724812 0.013509088 -0.07813256 0.28206038 0.08578469 -0.10638882 -0.05300134 -0.028772261 0.19890304 0.10017742 0.025925083 0.12596719 -0.118046686 -0.115735315 0.18640666 -0.03332739 0.08955966 0.008181355 -0.047195 0.09242961 -0.046687976 0.055102427 -0.056961425 -0.019556832 -0.016597075 0.075125836 -0.00015566875 -0.09537965 -0.073615 -0.0129314475 -0.097322926 0.05458603 -0.10100037 -6.534549e-05 -0.081003815 -0.12144633 -0.11308742 -0.066658616 0.09917203 -0.15857716 -0.064077176 0.023341669 -0.005170933 -0.011511534 -0.07043667 0.10016663 0.019522622 -0.09649517 0.20294139 0.060318083 0.05353818 -0.02309542 0.059462935 -0.006802783 0.039548453 0.21249735 -0.06929056 0.13581604 -0.21899149 0.11897787 -0.14140473 0.1271973 0.06951333 0.10623302 -0.053490367 0.063176416 -0.055367425 0.041794077 -0.110389784 -0.011018587 0.11565331 0.063125715 0.033036858 0.103071645 0.14841707 -0.023567896 -0.0430406 0.04917498 0.067373015 -0.13088588 -0.14092267 -0.19930916 -0.26094258 -0.017229762 0.25963148 0.2417477 0.013711306 -0.017564267 0.020210998 -0.040354617 0.038814016 0.05796412 0.09340401 -0.06016303 -0.034833018 0.13600558 0.043420546 0.0028415157 0.10197179 0.1629775 -0.2530033 -0.08682558 -0.024043122 0.08946244 0.024195965 -0.0102618635 -0.111204505
2464 0.018150605 0.31881323 -0.07261576 0.18407673 -0.28853703 0.58779854 0.117512695 0.65264285 0.104754694 0.024008159 -0.11390465 0.3389228 -0.3114576 0.2292754 0.20711772 -0.031985044 -0.0741636 0.21347632 0.14453807 -0.26152554 -0.20155764 -0.3974073 -0.49359083 -0.34135592 -0.33298984 -0.29407462 -0.060470402 -0.13622102 -0.23558936 -0.11527115 0.2869709 0.30838418 -0.09777452 0.29583028 0.41570193 0.053726315 -0.11788764 0.030523796 0.1397714 0.11060276 -0.070387125 0.1565391 0.41451764 -0.09390653 0.09859086 0.014849104 0.11221238 -0.26108488 -0.040292773 0.17681976 -0.1466121 -0.003183107 -0.0753751 0.19250414 -0.02666645 -0.12107549 -0.6088877 -0.08913872 -0.12475705 0.23898864 -0.16953902 0.12070359 0.21754776 0.064000085 -0.29699525 -0.22207707 -0.09929116 -0.4902722 -0.26786247 0.22542632 0.20085454 0.36528194 -0.051036242 0.21648149 -0.38574854 -0.13527021 0.39031467 -0.015216894 0.18738113 -0.12664005 0.034711555 -0.20354664 0.28824398 0.055205047 0.3527588 -0.028605247 0.015802478 0.28251055 -0.26542142 0.029646473 0.08691248 0.061007377 -0.42148882 0.02916395 0.13185805 0.19089532 0.5046984 -0.071799524 -0.11548368 0.5859101 0.099629514 -0.2508402 0.47400716 -0.5262014 0.2721483 -0.060967326 0.14356013 0.057176657 0.035316873 0.16878514 0.36490506 0.77457345 -0.3456711 0.32635787 -0.33695585 0.19951358 -0.51066136 0.018569523 0.16695659 0.51677 0.2835398 -0.19500498 -0.4392102 -0.24763183 0.16567788 -0.043414533 -0.037890106 0.051477216
249 0.17426896 0.29210025 0.043027632 0.15756084 -0.09237432 -0.24965967 -0.071598336 0.18917654 0.20269468 -0.15405315 -0.27646866 0.27408266 -0.051466808 0.26496753 -0.05716697 0.06116671 -0.16049702 0.07021591 -0.2600266 -0.17601152 -0.10516692 -0.33282673 0.14168492 -0.054209 -0.03912104 0.18449402 -0.1697601 0.039872658 -0.03218849 -0.051478397 0.06902763 -0.009513005 0.06501134 0.061993774 -0.17480305 -0.12493292 0.0060082213 0.26999015 0.0045410083 0.15635338 0.21620184 0.13811526 0.021704936 -0.07310309 0.11719147 -0.10640145 0.10509477 0.09989161 -0.08659225 -0.33090594 -0.06518989 -0.10736172 0.17858031 0.029969769 0.10061625 0.18461114 0.11078339 -0.084787235 0.057569887 -0.13452075 -0.13569246 0.13238907 -0.024900436 0.3398931 -0.04040793 -0.18041328 0.1819289 0.14603035 0.05672957 -0.017635828 0.10454665 0.1634313 -0.1987539 0.06497396 0.06486468 -0.122360185 -0.010727257 -0.068622455 -0.114918604 -0.055278767 0.2572745 -0.19619112 -0.118671805 0.23568991 -0.19531025 0.16616164 -0.11000373 0.14985017 -0.23057333 -0.03398397 -0.13241598 0.042721737 -0.06983716 0.12512563 0.14453384 0.14332448 -0.052404173 0.15638871 0.17361152 0.15370025 0.16172586 0.104054525 0.27446488 -0.10008727 -0.16514221 0.25129324 0.22145037 0.18731655 -0.101638965 -0.118652426 -0.16203544 0.24852684 0.052010965 0.14960554 0.15659276 0.045405757 0.017444838 0.059475638 -0.001336165 -0.019578077 0.10525697 -0.052675765 -0.017621638 -0.06679535 -0.2786638 0.0817932 -0.04593676 -0.09062288
36 0.08622953 0.19411162 0.12647721 0.16267776 -0.0069094175 -0.2994041 -0.03285738 0.12638871 0.15330584 -0.13529962 -0.17994359 0.232281 -0.032819636 0.2550644 -0.059182853 0.058901068 -0.24750708 0.13682994 -0.19996874 -0.18152024 -0.12669018 -0.3598432 -0.000109828936 0.027021157 -0.06988549 0.24766958 -0.23472296 0.0002853571 -0.042341184 -0.026236828 0.12818769 0.061483324 0.030604519 0.039768856 -0.14814463 -0.19329274 0.0064161937 0.33058217 0.035549738 0.13846327 0.16663758 0.23556723 -0.013823853 -0.067236945 0.072871216 -0.18862022 0.04320738 0.10404313 -0.06389108 -0.25882792 -0.08249958 -0.07748405 0.13647337 0.019983435 0.092581235 0.10116909 0.091672815 -0.12465569 0.13328722 -0.097460754 -0.042925186 0.2269955 -0.063118875 0.27469605 -0.027788946 -0.13358872 0.13536581 0.20059037 0.053434663 -0.007171024 0.11775702 0.104242645 -0.1873177 0.06599472 0.09487495 -0.09237611 0.04754476 -0.15424138 -0.1000849 -0.083468996 0.26085022 -0.12745121 -0.081029475 0.25348064 -0.15958074 0.19783512 -0.076536655 0.08719944 -0.19419909 -0.0863147 -0.08597228 0.14147411 -0.16008328 0.13200991 0.17935087 0.07225287 -0.0439134 0.18828967 0.19104761 0.11462036 0.13226864 0.1453744 0.3064862 -0.17423077 -0.10187961 0.26286104 0.25566572 0.22798078 -0.12326052 -0.09480329 -0.22297329 0.24313307 0.02636647 0.15302165 0.16533226 -0.0061365655 0.013258994 0.011359649 0.03944261 -0.051121432 0.08019242 -0.0042012325 -0.009678638 -0.015540581 -0.27644685 0.033515725 -0.0694775 -0.07207236
2431 0.19692406 0.22892343 0.015686352 0.20894307 0.08258655 0.17462943 0.06656605 0.17146686 -0.07562072 -0.15027212 0.21109399 0.043021433 -0.025476163 0.015102563 0.16651078 0.18744877 -0.14480938 -0.011051412 0.15235746 -0.28426227 -0.12249836 0.023263829 0.07249405 -0.19723976 0.37233776 0.36025262 0.051186316 -0.02799681 0.18508111 0.0023036473 0.1377602 -0.07979932 -0.048821297 -0.018968387 0.022622487 0.0066259787 0.12734617 0.12653854 -0.021806788 0.0026001323 0.077417016 0.16426522 0.14367314 -0.18187563 -0.0878841 -0.13887715 -0.016862808 0.028320568 0.1413846 -0.12077833 -0.047799047 -0.12097786 -0.07838888 -0.15767509 0.07143385 -0.034158442 -0.17213376 0.27868754 0.020351406 0.07085462 0.06755489 -0.05883702 -0.009208873 0.068161905 -0.31728613 -0.44158444 -0.22134413 0.45733365 -0.061989784 -0.17380293 -0.17268172 0.2680261 0.22494584 0.07654846 0.3663391 0.08066356 0.20362402 -0.055204835 0.2497869 0.04026554 0.07015805 0.2029832 0.13110319 0.24916628 -0.006498842 0.02328042 0.14260794 -0.16599014 -0.10358774 -0.134474 -0.009965007 -0.019245375 0.06135338 0.069994815 0.038414087 -0.08166303 0.12867051 -0.19728255 0.3313326 -0.044141497 -0.009428801 -0.12141258 0.109271064 -0.08090778 -0.07059233 -0.06935871 0.047084454 -0.050836865 0.057092365 -0.21798104 0.11124721 -0.08059747 -0.066865616 0.06959575 -0.24844892 -0.31726953 -0.17188597 -0.13846442 0.068751894 0.30099812 0.30947718 -0.14926746 0.01740874 -0.1932556 -0.26485658 0.015018273 0.056324594 -0.17744622
236 0.15522549 0.16928864 0.057642136 0.18937072 -0.04065022 -0.2191658 -0.06311809 0.12395619 0.118380666 -0.18051808 -0.18876041 0.21093155 -0.040549967 0.18892404 -0.06929517 0.06470306 -0.21245743 0.07592066 -0.23433262 -0.1679059 -0.078991205 -0.35732928 0.02944292 -0.03284557 -0.04537593 0.18270491 -0.19977038 0.06779236 -0.04245971 -0.03444815 0.03756594 0.042678602 0.094841726 0.109363854 -0.2054903 -0.17996646 -0.011050606 0.30387965 0.08437865 0.1594924 0.22548224 0.19293794 0.045522667 -0.06811936 0.10960754 -0.22372657 -0.012591961 0.19070745 -0.0608232 -0.3145127 -0.05544642 -0.09552213 0.13583267 0.02162071 0.10390963 0.09173836 0.08066885 -0.07150668 0.03314141 -0.08079116 -0.046012685 0.16668145 -0.0040249773 0.32648656 -0.038662404 -0.19187105 0.14631864 0.0973199 0.11859861 0.059654932 0.11599208 0.114952125 -0.2374414 0.08252816 0.0704852 -0.1377591 -0.016328592 -0.1770717 -0.05162368 0.03633723 0.25995052 -0.1818317 -0.11515315 0.25784403 -0.14726138 0.16434568 -0.07535132 0.105842866 -0.21032435 -0.070711106 -0.09059951 0.035190947 -0.16256788 0.09948747 0.15583149 0.030920696 -0.0017854238 0.16110292 0.20788038 0.16206746 0.25464985 0.094848305 0.30796134 -0.21747518 -0.10102078 0.25870314 0.19769317 0.17633665 -0.09484905 -0.123326026 -0.20580964 0.22532044 0.07516012 0.20037818 0.13341776 0.05979693 0.041137595 0.046592698 -0.0245675 -0.06429778 0.13181241 -0.0121694645 -0.0032082284 -0.049035072 -0.34236422 -0.026201447 -0.06601423 -0.12116492
88 0.108634524 0.15303084 0.042701527 0.18464433 -0.042859323 -0.3120145 -0.08329844 0.10840218 0.1522526 -0.13709415 -0.23456183 0.24877347 -0.025966667 0.22199051 -0.06599912 0.09365584 -0.18507712 0.05703045 -0.2710622 -0.16553138 -0.09641401 -0.40080878 0.09881017 -0.037343312 -0.07406748 0.13158731 -0.16945177 0.058824934 -0.06287871 0.0057811816 0.10337263 0.030524967 0.08583456 0.029881032 -0.19548295 -0.120994404 -0.054478694 0.32216 0.09314709 0.12253913 0.22411028 0.17794605 0.062229607 -0.07839189 0.09495176 -0.15421677 0.07965406 0.06239924 0.00894023 -0.31209293 -0.10156842 -0.022068888 0.040687248 0.053389948 0.10605029 0.08314474 0.07821521 -0.0644638 0.05815711 -0.10732715 -0.11329937 0.1801466 -0.068972364 0.35105768 0.015581484 -0.19727099 0.16152956 0.17832619 0.05048487 -0.0016568224 0.15432851 0.13262156 -0.23962264 0.121978745 0.09094369 -0.083590366 0.047510576 -0.13784319 -0.10301497 -0.02692652 0.2683525 -0.14568166 -0.06260296 0.23815484 -0.15582685 0.11327721 -0.073006354 0.12239181 -0.18029177 -0.080162235 -0.092810094 0.08988295 -0.17718405 0.11801692 0.12297493 0.064700186 0.021240685 0.20621084 0.18004967 0.16227728 0.21114945 0.18105039 0.3161203 -0.10799555 -0.014959788 0.28835645 0.17599769 0.24279588 -0.16191882 -0.13182743 -0.1315762 0.30936798 0.042546336 0.14572819 0.09640729 0.082658485 0.08327153 0.004131905 0.07264596 -0.031381495 0.14452228 -0.010028917 0.023495477 -0.07674752 -0.30817193 0.028600419 -0.16150053 -0.09021164
250 0.13899352 0.24937037 0.08450942 0.15522738 -0.005091985 -0.28155935 -0.04960519 0.14309531 0.15469003 -0.11826736 -0.27243844 0.28904685 -0.07846308 0.23895524 -0.13049732 0.029522346 -0.20751746 0.1080091 -0.22618058 -0.18087858 -0.076245666 -0.34285778 0.06559662 0.010152829 -0.09697008 0.22780341 -0.247542 0.04874843 -0.05881786 -0.12233982 0.07534547 0.026051048 0.061325803 0.03747812 -0.14285074 -0.15392168 0.024287438 0.2634408 0.055250008 0.12506568 0.1789646 0.20484124 0.032712664 -0.124074556 0.12132161 -0.20309904 0.087920025 0.058131963 -0.08079758 -0.25602072 -0.056248065 -0.08784787 0.09616025 0.0605077 0.05474053 0.12736095 0.12433456 -0.047197904 0.020816997 -0.18687665 -0.15764643 0.16181083 -0.07117979 0.29794487 -0.017067226 -0.16021432 0.13713674 0.13017659 0.01059705 -0.07866986 0.13014382 0.10487406 -0.1777754 0.08631349 0.104004994 -0.11026274 0.03505922 -0.1816708 -0.11730575 -0.070596494 0.24064639 -0.15186933 -0.07927703 0.16504166 -0.18401916 0.09475908 -0.084999904 0.073766 -0.26271877 -0.080382235 -0.10866018 0.14339042 -0.117892645 0.12623362 0.19129753 0.111841895 -0.047195103 0.16220856 0.17183645 0.13681136 0.1196331 0.10708869 0.32136616 -0.17006311 -0.15569021 0.2396313 0.26333234 0.24969663 -0.09428452 -0.080070354 -0.21105586 0.259585 0.13066758 0.15307981 0.10777675 0.02540906 -0.018122079 0.017297313 0.019388571 -0.0801311 0.11466773 0.02289379 -0.03336099 -0.034887526 -0.27007833 0.07364951 -0.096665 -0.11777041
2499 0.14307036 -0.07499436 -0.1793167 -0.14891851 0.021877674 0.23678261 -0.0003878228 -0.12610702 -0.008668869 -0.092852995 -0.019794513 -0.04534156 -0.16969858 0.10003595 0.116153315 0.008828962 -0.16261081 0.08611967 0.10754217 -0.16491179 -0.21955855 0.07479323 -0.13159707 -0.1003447 0.0037256696 0.028533569 0.15767664 -0.10091212 -0.054704063 0.14469136 0.043963216 -0.24024224 -0.20641069 -0.09453085 -0.08979503 0.053407464 -0.26390904 0.039634105 -0.022981845 0.16609262 -0.19349521 0.16285196 0.0031377315 0.25638428 0.039048254 0.12664115 -0.08120209 0.0637256 0.10815137 0.036937866 0.0024934825 0.26270416 0.06676555 0.21114627 0.028199865 0.117293194 -0.028186958 0.122104265 0.16223904 0.3781762 -0.08428275 0.13526016 0.1501098 0.121880524 -0.049162168 -0.3067998 0.19266818 0.36030546 -0.08940537 0.25782663 0.07993094 0.27967486 -0.14734079 -0.0029723395 0.32420263 0.116007805 0.12469954 -0.0748056 -0.014720446 0.025245631 0.1765619 -0.12817344 0.08146579 0.37401247 -0.21468878 0.07334418 -0.07957998 0.24832714 -0.04644144 0.11563057 -0.07100934 0.06163159 0.010190245 -0.23234628 0.14592175 0.13211046 0.102607906 0.032254294 -0.026596224 0.18539858 -0.030074863 -0.1182129 -0.15210791 -0.11320639 -0.013582151 0.4042958 0.28354397 -0.12887122 -0.022513665 -0.055597726 -0.118923575 -0.020717068 -0.0033266628 0.09009252 -0.26666707 -0.22615352 -0.0257917 0.16919196 0.40749845 0.16287574 0.12749295 -0.036817584 -0.010588564 -0.26746568 0.08234322 0.24418402 0.2593464 0.09862506
195 0.13814911 0.20114607 0.038744185 0.12652409 -0.050337564 -0.27827746 -0.08101987 0.08572189 0.1791786 -0.10776815 -0.2009735 0.1747731 -0.04890337 0.19783701 -0.061703708 0.050843466 -0.22062123 0.1457948 -0.20490958 -0.20981541 -0.16930073 -0.39481923 0.048606697 -0.005146901 -0.046179045 0.22388776 -0.1910421 0.007868574 -0.05573922 -0.051569775 0.09137677 0.044024836 0.03240597 0.03299997 -0.20961553 -0.16020064 0.050448146 0.2985002 0.04422533 0.18373956 0.22299232 0.23676664 0.012525245 -0.12128914 0.09709351 -0.15676367 0.08124582 0.11061211 -0.07962861 -0.2313353 -0.09738167 -0.023785265 0.08217828 0.06505363 0.11356403 0.13956112 0.056400545 -0.12708618 0.013349976 -0.14922531 -0.11580196 0.20186527 0.018534072 0.2773502 -0.048152257 -0.2295654 0.15996969 0.14306715 0.05551553 0.0070783948 0.08975354 0.13837345 -0.22614191 0.10170787 0.05296246 -0.11094029 -0.058662374 -0.092318915 -0.05349876 -0.089717336 0.2615706 -0.16094199 -0.08070601 0.21080844 -0.15856573 0.15981464 -0.074281566 0.05813718 -0.21225007 -0.07902158 -0.14685129 0.069364324 -0.114649355 0.1595269 0.16192667 0.0979848 -0.017643215 0.12744418 0.16135062 0.13472946 0.12114289 0.120605186 0.28515434 -0.09909227 -0.09022514 0.28000778 0.21636531 0.24313375 -0.16129902 -0.177896 -0.20775639 0.30689505 0.0967278 0.14846253 0.16423963 0.052111223 0.017627995 0.010377233 0.048671797 -0.039530493 0.13934651 0.0053965114 -0.03589593 -0.030462569 -0.32455117 0.03620496 -0.079281434 -0.07871138
2482 0.16745922 0.040211532 0.28360254 -0.024888646 -0.05959826 0.37772197 0.10537199 -0.061211806 0.026292637 -0.22129726 0.07271597 -0.07752304 -0.051044174 0.11776992 -0.10500986 0.27707273 -0.041625448 0.19520079 0.12767215 -0.3764102 0.3300566 -0.30614257 0.06825461 -0.12191281 0.1465146 0.29334617 -0.31980914 -0.11207761 0.014186082 0.019378204 0.23473626 -0.07096575 -0.08131633 0.08940462 0.09154587 0.29803148 -0.42061898 0.36847636 0.3142973 -0.12765524 -0.20336778 -0.14945213 0.30189264 -0.19929463 0.19743484 -0.12074996 -0.37496668 0.4182219 0.1768318 0.38791648 0.18212706 -0.0024365815 -0.32476515 -0.1671014 -0.19503416 -0.13883828 -0.08931517 -0.09385817 -0.004870304 0.038424842 0.085461296 0.14223737 0.15579002 0.1416964 -0.11523255 -0.057729363 0.109621584 0.4841833 0.035407573 0.3865708 -0.092447944 -0.060495365 -0.13988079 0.29071862 0.19665976 -0.07606912 0.11188664 -0.01999097 0.17245126 -0.017397143 0.25356576 -0.23226056 -0.24692146 -0.22901346 -0.03908961 0.1216778 0.20312464 0.21558365 -0.17531078 0.12912601 -0.24905515 -0.14005156 0.09744576 -0.054066762 0.21620943 0.13611369 -0.2732611 -0.11131102 -0.026070226 0.17991973 0.050578844 -0.3434873 0.40336418 -0.23772763 0.15098116 -0.123934776 -0.21867287 0.117500536 -0.283283 0.023143787 0.17521489 0.08665723 -0.017471638 -0.3390898 -0.07142974 -0.1664994 -0.14225124 0.1626157 -0.14434525 0.24311751 0.0332114 0.03122958 -0.31918812 -0.36607805 0.004692969 -0.14935073 0.26236805 0.06294587
2617 -0.003283537 0.012912355 0.083198376 0.060994584 -0.16635957 0.17819147 -0.26468652 0.0006371439 -0.06364196 0.059044566 -0.069992416 0.15793033 -0.061489187 0.15310286 0.08989804 0.04145023 0.13399826 0.28433642 -0.37922633 -0.2847948 0.15732631 0.13564408 0.08115927 -0.2237242 0.09998196 0.034085885 -0.16662525 -0.21108194 -0.008924574 0.2872784 0.02735299 0.024782954 -0.13555868 0.07827765 0.122102365 0.107440546 0.058713242 0.03675893 -0.010129504 0.110705845 0.16190003 0.12382174 -0.02372827 -0.04337462 0.0028667757 -0.070502326 0.14412084 0.08184549 0.056396466 -0.118790984 0.18512088 -0.047006078 -0.10102272 -0.21304545 -0.027111797 -0.056632068 -0.22610247 0.0017859593 0.19614074 0.06409157 -0.4427694 -0.014421252 -0.1360713 0.3361831 -0.005149976 -0.16348232 0.31379056 0.11962213 -0.09026905 -0.06775367 -0.03757722 0.056874786 -0.027517663 0.033630032 0.13384315 -0.030842116 0.06927384 0.068185225 -0.048073094 -0.26405233 0.22457044 0.018875614 -0.0039136666 0.018218687 -0.39432207 0.08524071 0.059026204 0.049156927 -0.03984959 0.1395644 -0.15375277 -0.067422315 0.21613936 -0.14499834 0.12155256 0.060337365 -0.036599033 0.0017344842 0.091383174 0.21150544 -0.17933194 -0.077600606 -0.23099613 -0.23409155 0.23243338 -0.19561647 0.023856966 0.08532449 -0.016294388 -0.14377518 -0.014723975 0.0432728 -0.11152883 0.01234302 -0.20162499 -0.25257236 -0.020832973 0.103024505 -0.024556814 0.30631506 0.011453723 -0.2364194 -0.026696214 -0.16534801 -0.24143296 -0.090036124 0.22456898 -0.17679249
2430 -0.03471433 0.2623165 0.03672845 -0.16266695 -0.00032381987 0.16774848 -0.17037573 0.12943721 -0.115619615 -0.06843655 0.023268675 0.18132766 0.04070211 0.035430662 0.012427968 0.057142176 -0.05935452 -0.009935218 0.062804334 -0.10536832 -0.17486721 0.060905878 0.07264399 -0.0053537926 0.06113198 0.18299349 0.01603443 -0.12374827 -0.2353631 -0.010350548 0.0015357443 0.01807123 -0.07776485 0.07960091 0.035768 0.08882598 -0.12655552 0.09502768 0.026339112 0.0058796913 0.04931837 0.30148536 -0.10371837 0.0092372475 -0.062334593 0.055055585 0.07971377 0.14932048 0.12780964 0.2471859 -0.114074014 0.18989408 -0.09293162 0.05802373 0.12271984 -0.03356651 -0.07383291 0.11908563 -0.058916323 0.1176055 -0.008832137 -0.22196318 -0.2702151 0.26768428 0.0501702 -0.010830595 0.31806368 0.43747836 -0.3965224 -0.15778933 0.058584336 0.21955219 -0.161489 0.098793104 0.18784007 0.08892065 0.17820121 0.098882586 0.05486577 -0.058242705 0.111736074 0.17961003 0.18912657 0.09539502 -0.12690042 -0.027939018 0.05685552 0.04826806 -0.023381878 0.059360456 0.020700507 -0.1286167 0.06073256 0.1510487 0.09490543 0.119053096 0.029046828 -0.13223116 0.24046753 0.14329758 -0.21601835 -0.15020467 0.26052433 -0.242311 0.078437656 0.13713956 0.08106173 -0.031417858 -0.1851844 -0.1744011 -0.2247237 -0.04016002 -0.07151556 0.17167327 0.03723323 -0.01540867 0.13956288 0.2394421 0.12980457 0.17039567 0.2826327 0.11336084 -0.0064154025 0.007910014 0.09502232 -0.0065137907 0.12037269 -0.07151648
881 0.19529602 -0.047263354 -0.0742661 0.09538071 -0.07906592 0.17159468 -0.05621201 0.07456 -0.038035493 -0.15010373 -0.007175795 0.13547887 -0.22329506 0.027958417 -0.16103001 0.08357941 0.017315036 0.16171847 -0.08215792 0.00093461695 -0.11094107 -0.10513503 0.07178945 -0.12816468 0.07091235 -0.095501155 -0.0329237 -0.053716473 -0.015514415 0.078580484 0.08360669 -0.06397917 0.046390265 -0.08582054 -0.08923858 0.024755314 -0.1476649 -0.0068018213 0.13975754 0.045381032 0.1058873 0.010682666 0.098566525 0.022504853 -0.046515148 0.1737163 0.01245493 -0.0015677803 -0.10079784 -0.088369876 -0.114271894 -0.0127556175 0.13292861 -0.29851097 0.059301946 -0.05752035 -0.13172019 0.2719524 -0.188197 0.1014286 -0.057100467 0.047021624 -0.10197635 0.23377466 0.042209625 -0.21595879 0.013268119 0.13163684 -0.2297152 -0.12764886 -0.1370758 -0.019049296 0.08995679 0.05308623 0.0055343015 0.075755216 0.097040795 -0.011543148 -0.058631927 -0.18139748 0.2269971 -0.2572794 0.067275874 0.056325752 0.10453821 -0.1436061 0.10960272 0.07361512 0.17631295 -0.05184081 -0.03763208 0.014281892 -0.09003597 0.024881408 0.43788362 -0.049938694 -0.03337083 0.0469273 0.0018838127 0.2954146 0.036572993 -0.20543192 -0.10736978 -0.2297954 -0.034271188 0.09534103 0.20132281 -0.006493586 0.10953561 0.05673846 0.062224414 -0.007823945 0.014560264 0.015100682 -0.0969853 -0.07358749 0.08917941 -0.0412431 -0.076728664 0.16302818 0.04602255 0.00038213888 0.0032917717 -0.07458339 0.01761924 0.11662892 -0.082320064 0.0789467
2614 0.07845574 -0.16083221 -0.020608729 0.1320735 0.006172188 -0.05269035 -0.1707065 0.03245285 -0.1734686 -0.0703814 -0.14276138 0.2218173 0.19539315 -0.08674012 0.0013253798 -0.006877915 -0.014399525 0.25334468 0.009683422 -0.31417444 -0.016653053 0.12105212 -0.005791715 -0.11157145 0.25168714 0.23416798 0.032174375 -0.32095012 0.014990765 0.09474827 0.16067158 -0.015935225 0.15679456 0.113065846 0.16995274 -0.06084208 0.30253473 0.3165576 0.335466 0.08705678 -0.17594668 -0.08838009 0.046905506 0.04599544 0.070407964 -0.09123227 -0.1683168 -0.21145976 0.24001545 0.04313754 0.0499961 0.06283844 0.028655685 0.07721396 -0.061351966 0.2067711 -0.19557069 0.027698776 -0.09856591 0.11928958 0.1280576 0.035874195 0.10010247 0.27315715 -0.060182683 -0.13626026 0.13811888 0.09442345 -0.16680302 -0.017761433 0.27081332 0.06940415 0.028902618 0.06822068 0.17170218 -0.12869085 0.04077458 -0.26974466 0.08095655 -0.16290124 -0.03381081 -0.03272595 0.2079426 0.12731914 -0.17399628 0.09190599 0.024648514 0.24120066 -0.11828313 0.04280884 0.019871812 0.1865726 0.13872012 0.12920944 -0.008383509 0.14054407 -0.16590798 -0.23637022 0.21588136 0.30249092 -0.2259049 -0.27327615 0.06295281 -0.4173717 -0.09909489 -0.043992724 0.3940443 0.17118892 0.27158794 -0.02569383 0.22703293 -0.53034943 0.04256807 0.115886785 0.05529989 -0.14386725 0.012794436 0.3309241 0.33047533 0.25163278 -0.00039803202 0.12685385 -0.24615605 -0.114765815 -0.088846706 0.026525987 -0.105368815 -0.07622407
2593 0.019755634 0.1795813 0.021827992 0.27472818 -0.052264158 0.13548386 0.065143175 -0.18045428 0.007461212 0.09366943 -0.11639005 0.2968303 0.13155572 -0.06186311 0.060779966 0.1299121 -0.010276774 -0.10610594 -0.17869647 -0.2371309 0.095547475 0.2381988 -0.055494685 -0.109062694 0.09227953 0.24149911 0.040632743 -0.20696373 -0.022832107 0.2732502 0.084150635 -0.059873138 -0.08901588 0.0062470487 0.019117199 0.126708 0.032726478 -0.05973433 0.13370447 0.16550496 0.11091851 0.20218836 0.06452741 -0.10642281 0.29714265 0.1093256 0.27684313 -0.18735152 0.18586156 -0.18093595 0.020168776 -0.09207589 -0.15818135 0.24604471 0.096389614 -0.0538126 -0.22768414 -0.21821028 -0.02823312 -0.014860276 -0.15035239 0.26206705 -0.06734991 0.23886755 -0.030413926 0.08535447 0.24663696 0.07142471 -0.33654734 -0.14770249 0.21299078 0.043557204 -0.18446033 0.09003726 -0.078015424 0.15717977 0.085901976 0.1463924 0.20296848 -0.19586845 0.07908679 0.054509018 0.2883811 0.20362438 -0.1008004 -0.13349728 -0.1726786 -0.031614076 0.08898517 -0.11618224 -0.3928523 0.08529482 0.28134197 -0.0937036 0.15055017 0.104282826 -0.11057225 -0.25775293 0.37785804 0.14008354 -0.15373796 -0.31544983 0.08370793 -0.15704088 0.041203823 -0.015134648 0.11938649 0.23795152 -0.24694784 -0.0025373632 0.0065570273 -0.0126131205 -0.03984076 0.015374008 -0.22520754 -0.16685168 0.13802138 -0.040374365 0.27110785 0.09838443 0.12381335 0.027453618 -0.24968702 -0.1333923 0.06252255 0.088112675 0.015104517 0.09003918
849 0.016605526 0.19502403 0.11820333 -0.0211681 0.07402979 0.13671012 -0.14245158 0.11537273 -0.18994202 -0.10997919 0.14068902 -0.026996287 -0.24232464 0.11706683 0.06300104 0.065136515 -0.06649223 0.15798521 -0.080687635 -0.18662918 -0.07815533 -0.13427038 0.028551182 -0.094821095 0.13168131 0.08294768 -0.13407 -0.12796687 0.09708188 0.31454366 0.079131015 -0.034761835 -0.07514632 0.11992782 0.048192535 0.03612163 -0.009613195 -0.015569912 0.10583807 -0.0018108492 -0.20679937 -0.00084027275 0.25555477 -0.15501365 -0.2941307 0.0024291505 0.086027056 0.10919694 -0.11328939 0.092418514 -0.19849265 -0.045927744 0.121229015 -0.1403778 0.14931862 0.04715851 -0.12169901 -0.19034313 -0.080884665 0.1414989 0.19411473 0.048194196 0.095694736 0.234191 0.1855825 -0.060520966 -0.110691346 0.26076907 -0.22822617 0.13951895 -0.0982147 0.08459042 -0.13569184 0.09276128 0.30552965 -0.015220522 -0.16661736 0.04999538 0.102404065 -0.21730825 -0.049358398 0.10681752 0.17268755 0.15669267 -0.0025607608 -0.040614847 -0.08968914 0.2004035 0.19899663 -0.09048015 0.033021234 0.08158447 -0.09024308 0.16669878 0.23302004 0.18236513 0.2352728 0.021304464 0.027668798 0.20586868 0.03693641 -0.25633612 0.16928451 -0.13120268 0.036971904 0.13495798 -0.028775362 -0.028728737 0.16166605 0.11946093 -0.013507049 0.20896807 0.24037789 0.14597493 -0.19757333 0.12031298 0.07884514 -0.005274954 0.048324656 0.018738784 -0.059509557 -0.041869156 -0.17022298 -0.06543057 -0.00046563643 0.12396949 -0.07540481 0.09911502
2511 0.038300432 -0.0097883465 0.15796685 0.06819004 -0.016700389 0.17483504 -0.14290006 -0.073829174 -0.22305305 -0.16604719 0.0037174746 0.07697301 0.24006689 -0.024830837 0.124628104 0.027104463 0.056837823 -0.04216018 -0.004329098 0.029242225 -0.12848158 -0.17033443 0.035931874 -0.21886024 0.19809176 0.26214653 -0.061763447 -0.10865112 0.3441221 0.21218558 0.16020748 -0.21805733 -0.2767987 0.025591567 -0.004651805 -0.064843565 -0.14697038 0.0902891 0.08937655 -0.054649133 -0.3135907 0.11070008 0.253261 0.056916103 -0.12634988 -0.084102884 0.22553797 0.062731594 0.20551622 -0.030033892 -0.14781684 0.16523638 -0.058908515 0.13315679 -0.12456128 0.054731246 -0.12851207 -0.050366957 0.08115144 0.060789306 -0.00950072 -0.10746655 -0.023026409 0.12727752 0.14175966 -0.1979595 0.2344183 0.09193571 -0.21146435 0.109015144 -0.061550293 0.4408487 0.04558162 0.054411 0.0074796877 0.10189735 0.23525491 0.08531477 0.094098695 -0.015514744 0.21580969 0.15508132 -0.096835166 -0.05451991 -0.2886072 0.2796999 0.15084669 0.17418651 -0.18449676 0.015001102 0.01628232 -0.13981305 -0.06228944 -0.032151833 0.110052444 0.24564894 -0.07408276 -0.22598179 0.07856035 0.20426829 -0.2305821 -0.021076094 -0.0018687786 -0.13981302 -0.04261817 0.06767038 0.031071201 0.12960862 -0.07965258 -0.15744908 -0.010446804 0.12671742 -0.15239689 0.25588647 -0.33489478 -0.17976467 0.075168766 -0.038202927 0.07098748 -0.033056594 -0.020639436 -0.013166041 -0.05040605 -0.17522532 -0.2558012 -0.108274214 -0.049639247 -0.05528974
2596 0.1645376 0.1695767 0.124866955 -0.002353871 0.053020563 0.16362126 -0.00076001976 -0.2204787 -0.009872764 -0.14167514 -0.010049774 -0.072813295 -0.05831277 0.10061096 0.054197602 0.10479137 0.019543123 -0.04402095 0.11965893 -0.15465277 -0.019525347 0.08613761 0.13411504 -0.028197693 -0.04993744 0.023283191 -0.092105426 -0.00073991256 -0.028196882 0.039781373 0.3612252 -0.061923917 -0.1328355 -0.13660415 0.044643987 0.14517015 -0.13879974 0.22305176 0.02348258 0.1439933 0.25540218 0.12774885 0.18935995 -0.19230735 0.17362325 0.0005765263 0.309607 0.11207194 0.18178356 -0.09929261 0.06167388 0.014203578 -0.028391538 -0.07143385 0.033669617 0.25584084 -0.030027978 0.05045651 0.04163271 0.17586833 -0.009619023 -0.18081564 0.025942417 0.12726414 0.015031014 -0.0026290528 0.089842126 0.015126045 -0.32938668 -0.20910338 0.115751855 -0.072427325 0.18987146 0.3095383 0.0028402337 -0.39670813 0.15229353 -0.037624728 0.17372152 -0.17353392 -0.0046146205 0.12702587 0.25472093 0.039027546 -0.16454922 0.11782472 -0.11958473 -0.05378348 -0.059564944 -0.16786656 -0.17336583 0.16143526 0.046276096 -0.099423185 0.1487773 0.19211198 0.02687886 -0.16052213 0.34429193 0.2860013 -0.115872525 -0.22413753 0.076468214 0.018933482 0.21243623 -0.0829791 -0.14457266 -0.04122163 0.06374596 0.027466768 -0.23927906 -0.2468331 -0.015868746 0.19131397 0.040536433 -0.3807457 0.022164747 0.03999989 0.14675649 -0.07570764 -0.047621857 -0.28698596 -0.35580164 -0.2019106 0.0024586169 -0.053336494 0.060149953 -0.25928804
2508 0.18857816 0.06675028 0.20822115 -0.018132156 0.3129101 0.07161926 0.04884164 -0.021445947 -0.18280472 0.19766434 0.011927065 0.21311645 0.36139625 0.282138 0.06584843 0.009144876 -0.14385433 0.09408032 -0.19811048 0.036004372 0.22604378 -0.033566598 -0.0559796 0.028445626 -0.2501743 0.14575796 0.16682751 -0.080590144 -0.04211005 0.17439207 -0.018100081 -0.07424337 0.34212932 0.008208167 -0.047796544 0.23925108 -0.27822918 0.30818778 0.18211414 -0.03874523 -0.10940476 0.12575677 0.1782817 -0.025216052 -0.19692509 0.084760055 0.08311584 0.42663196 0.1583318 0.002073757 0.16693169 -0.10038198 0.106956095 0.12153449 0.22797576 0.1891373 -0.35898402 0.27726567 0.5473857 0.15474328 0.007643876 0.03528595 0.21628232 0.33090097 0.11171196 0.026126526 0.041281704 0.22591075 -0.2704315 0.08695274 0.30543774 0.34227368 0.19899301 0.37017298 0.11574157 -0.09129755 0.30512893 0.027018232 0.22864427 -0.056756962 0.08143953 0.18180746 0.28125367 0.2524472 -0.11370098 0.28528318 0.1822411 0.035722524 0.14263958 -0.027585587 0.020179685 0.096552156 -0.019012757 -0.06716272 0.15143411 -0.021393737 0.09209015 0.07850335 0.1432156 0.14313678 -0.27431455 -0.071598805 0.09710932 -0.287971 0.02967018 0.1901694 0.009609737 -0.05139954 0.22602369 -0.14957197 0.2115603 -0.02103601 -0.19009277 0.09030884 0.01569673 0.116587505 -0.071305364 0.26271635 -0.102997765 0.07708122 0.11221216 -0.28976777 0.0030008114 -0.0031488861 -0.0039212406 -0.1452532 0.056727003 -0.24889635
2561 0.2439998 0.077030644 -0.028234549 -0.18667373 -0.030986642 0.80787027 0.1224523 0.03175389 -0.19281632 -0.22319914 0.10756272 0.166342 0.0018314485 -0.041728202 0.09315733 -0.17079318 -0.27882415 -0.22378427 0.15837377 -0.5653922 -0.21344449 -0.54532516 -0.18300083 0.022469599 -0.055947803 0.3327253 0.2498325 -0.28571174 0.2456978 0.30867276 0.3016366 0.100927055 -0.213592 0.2837701 -0.2483078 -0.14715476 -0.0694413 0.4916867 -0.0028112552 0.002061786 0.21649677 -0.30619213 -0.15207061 -0.23656812 0.23707391 0.23461337 -0.60184103 0.35928413 -0.14758584 0.09917443 -0.032232493 -0.27482283 0.010514938 -0.04755205 0.08734538 0.43418446 -0.15754838 -0.09526843 0.35087028 -0.084387355 -0.31441775 0.06914246 0.34659368 0.026203878 -0.38700265 -0.22932439 -0.018651733 -0.09550194 -0.4071378 -0.23298414 -0.12730283 0.3945247 0.15617727 0.19367422 0.12426755 0.2051748 -0.020270383 -0.070118606 -0.1273156 -0.12023943 0.25769705 0.07383549 -0.17495447 0.13697612 0.08350559 0.08136665 -0.19280222 0.22582784 -0.08151994 0.04217655 -0.39823115 -0.1721392 0.38759762 0.03487552 0.08383802 -0.08958341 0.3124614 -0.37106314 0.2644831 0.33743396 0.042993825 0.1719007 -0.07891769 0.011447414 -0.17576243 0.196845 -0.07674283 -0.12515363 0.26915726 -0.28835502 -0.14144658 0.3597227 -0.10310141 0.24817087 0.19155362 0.046403326 0.19982217 0.07465099 -0.118853986 -0.09189058 -0.104929596 -0.19620533 0.013821777 -0.022035059 0.1680824 -0.020255642 0.17239332 0.09388377
2425 -0.047752183 0.04830085 -0.043666653 -0.044862546 0.0942447 0.26643 0.038611695 0.24242994 -0.21577677 -0.21903512 0.08085292 -0.07016285 -0.10655467 0.08049289 -0.18094714 0.3790282 -0.047537223 0.12023993 -0.059917066 -0.20296867 0.039496236 0.20284107 0.119516425 0.15863918 0.16911438 -0.11278241 0.11231157 0.013802477 0.17600146 0.28823617 0.24348383 -0.18787344 -0.044019684 0.12333737 -0.15774257 0.2693542 -0.12056809 0.15425414 0.004090817 0.16048099 -0.06259445 0.14432958 0.1924409 -0.06426031 0.12965073 -0.03580735 -0.1349803 0.3504795 0.33737925 0.21836431 -0.22274509 -0.006669958 0.15245642 -0.08692659 0.51436776 0.068353035 0.028612003 -0.042434283 -0.17516287 0.077006035 -0.051598232 0.028074257 -0.22055767 0.11066958 -0.055473953 -0.16080154 0.16410184 -0.14563401 -0.23012199 0.13752453 -0.089702435 0.5504225 0.049921535 0.16152781 -0.07491651 -0.08594268 -0.020398248 -0.17616527 0.15172715 0.16036065 0.2366641 0.0030159561 -0.12537505 0.09566256 -0.14687665 0.25839913 -0.017220149 0.0414529 -0.15423341 0.15514679 -0.2263238 -0.17185774 -0.066509895 0.12483158 0.22240993 0.12197859 -0.044977788 -0.100889266 0.19352852 0.46470276 -0.2785007 0.11467175 0.20679459 -0.05814966 0.1371691 0.02942176 0.08828519 0.04797636 -0.22965597 -0.15156007 0.1061335 -0.33191523 0.1559533 0.25352365 0.07815948 0.07736958 0.09386078 0.06868163 0.22996308 0.27608588 0.10827608 -0.005233432 -0.14114332 0.13049333 -0.05565067 -0.2555199 0.0016836033 -0.040883843
87 0.080472276 0.15362124 -0.08014611 0.15109207 0.09465093 -0.06706002 0.21729688 0.08865754 0.030848915 -0.20503548 0.05159515 -0.16761504 -0.06389592 -0.08315481 -0.02825644 -0.16351491 0.091328725 0.14751695 0.24347422 -0.33806777 -0.091866516 0.17325176 -0.23250975 9.279439e-05 0.094535 0.08055802 0.12865238 0.100319594 -0.007430146 -0.111710444 0.25119677 -0.096345305 -0.032767333 -0.11838266 0.17521071 -0.035080656 -0.12256122 0.07321079 -0.076954715 0.06789981 -0.09400925 -0.07178269 -0.019621236 -0.3001331 -0.15010233 0.24983896 0.033011865 0.25571197 0.04681365 -0.14686386 -0.10698881 -0.26396212 -0.13054067 -0.04668432 -0.12595034 0.3429977 -0.0027610601 -0.07811412 0.10840037 -0.048997186 -0.40322226 -0.25744846 0.07922516 0.16801699 0.12001152 -0.03274599 0.16167483 -0.016871464 -0.06365692 -0.0017220359 0.059572417 0.23889524 -0.06936317 0.20248277 -0.018407052 0.039139364 0.11613377 -0.0074473955 0.051923323 0.044388488 -0.22740878 -0.089264296 0.16769275 -0.015843594 -0.15682822 0.26841584 -0.053577602 0.23552933 0.16926025 -0.0064382087 0.079860695 0.0481267 -0.19679499 -0.105379336 0.15689693 -0.108307205 -0.13366348 -0.08227496 0.17633623 0.15676114 0.010962778 0.1896915 0.06435766 -0.1767397 -0.14111532 0.08663252 0.06477169 0.02466789 -0.008166657 -0.06272244 0.090870626 0.11270246 0.21761389 0.07628181 -0.09571792 0.1355652 0.18027231 -0.19528107 -0.19267084 0.2193291 0.026959442 0.1111125 -0.1488503 -0.23550688 -0.04576907 0.06779656 0.12903129 -0.033817925
359 -0.11095664 0.2539609 0.12559141 0.054772332 0.11966753 -0.0072401324 0.2009951 -0.115376964 -0.08493513 0.08131724 -0.044592 -0.044690866 -0.03348444 0.12756912 0.14650337 0.2839203 0.016117157 0.1852051 -0.047066666 -0.070576675 -0.1595654 -0.1405833 0.20066799 -0.08155456 0.09952104 0.23232359 -0.09757828 -0.16725928 0.09187068 -0.04533399 0.4640871 0.03658809 -0.15277661 0.1115606 -0.2086078 0.034120757 -0.13882823 0.12112606 -0.07316501 -0.3925054 0.12355924 0.27242053 0.032663047 -0.15480003 0.06446858 -0.1280918 -0.08135945 0.1270811 -0.1792375 -0.19495825 -0.002784231 -0.17544256 0.19699161 -0.12607025 -0.09189011 0.11655344 -0.36181182 -0.031185782 0.07305209 -0.12799889 -0.21414736 0.106607966 0.19752458 0.011776582 0.080899626 -0.12548132 0.026833678 0.34756607 0.12269962 0.051800843 0.05376435 0.23326394 -0.1598474 0.099243335 -0.17931761 -0.030457174 -0.08503656 -0.1530934 0.1584017 -0.07462702 0.11503826 0.09073551 -0.09444453 0.26964772 -0.08451906 -0.051621117 0.16951358 0.12966926 -0.27996618 0.25349355 0.19956756 0.15257412 0.0633892 0.28125963 -0.13311683 -0.2325303 0.0032086933 0.04047773 0.28728625 0.013330939 0.0973071 0.04407244 -0.062535696 -0.34314978 0.4712245 0.08973734 0.15037306 0.11985696 0.10133594 0.013622137 -0.10858943 0.055936933 -0.16144118 0.37938416 0.2876991 -0.014193923 0.11196076 0.1015483 0.1834838 -0.14967719 0.034043267 0.017390436 -0.13346168 -0.23166445 0.015980251 0.05171396 0.23574035 -0.038664132
2532 -0.06287054 -0.098291546 0.18663079 0.03954087 0.15049468 0.17029765 -0.32317847 -0.19461723 0.0070272377 -0.17788267 0.13934833 -0.07097935 0.014712914 -0.048631076 0.3620595 0.105078354 0.134517 0.21296729 -0.061702717 -0.19097582 0.08167364 -0.040417727 0.29606956 -0.28630355 -0.023061538 0.07134335 0.055628244 -0.0823513 -0.11271824 0.03933654 0.20090336 -0.18010081 -0.28295523 0.2167884 -0.05140589 -0.03176889 -0.16994956 0.38499498 0.11120343 -0.122438185 -0.06907829 0.04283396 0.42667267 -0.1522882 0.04098197 -0.283401 -0.012311009 0.14201741 0.18647584 0.11586904 -0.095794275 0.1825668 -0.06508126 -0.13083525 -0.16130535 0.021826364 0.13145919 0.081964 -0.08230846 0.13459352 -0.51912576 -0.21510224 0.013387512 0.19196574 0.044471268 -0.1192562 0.28879327 0.13250147 -0.09601971 -0.2084836 -0.1668765 0.23802672 -0.05980447 0.1392802 0.1878219 0.31933933 -0.18848431 0.15601972 0.22631422 -0.57188743 0.08853583 0.44649225 -0.022635499 0.25659573 0.048621666 0.051815387 -0.20315222 -0.04701254 -0.3685321 0.223844 -0.30176973 0.030245313 -0.09404447 -0.3872965 0.26229692 -0.10651857 0.15877582 0.013476607 0.2768003 0.34036908 0.055178825 -0.08960861 -0.02586923 -0.11071585 0.08412637 0.10560271 -0.08559712 0.04072992 -0.2995225 -0.02758349 0.29232064 0.15026033 -0.15850426 -0.06334151 -0.34304568 -0.06443702 0.18493429 0.06064872 0.044736937 0.22482142 -0.08057055 0.09859901 0.067513 -0.08162267 -0.2052464 0.068001166 -0.29057088 -0.12687898
164 0.07118659 0.15626173 -0.07247136 0.16117242 0.08773165 -0.004129292 0.19049144 0.040006336 0.021369353 -0.21616372 0.049449254 -0.10026196 -0.068160124 -0.047440797 0.016330397 -0.14350504 0.047919005 0.116147086 0.1968167 -0.32048914 -0.12213541 0.10333721 -0.24397765 -0.047144208 0.100020595 0.04435435 0.027385576 0.11122265 0.00440692 -0.049421992 0.2878763 -0.011277307 -0.07373744 -0.11126582 0.20653753 -0.092950754 -0.1185902 0.0037259052 -0.003901349 0.10698594 -0.06641149 0.036567483 -0.1055309 -0.19688523 -0.065018535 0.25369948 -0.005951042 0.28562576 0.012044638 -0.14366697 -0.19605067 -0.19890708 -0.1353156 -0.04627117 -0.10572902 0.36956015 -0.071766056 -0.10419453 0.054568708 -0.004829556 -0.36330613 -0.2793925 0.101495355 0.10207665 0.16227986 -0.008427535 0.07954188 -0.016832095 -0.11498216 0.101431146 0.039767146 0.22279689 -0.098074846 0.16710627 -0.022824395 -0.010184526 0.041850533 -0.056529466 0.14142336 0.00798865 -0.109029695 -0.05571687 0.20860636 -0.050633445 -0.10615037 0.23898484 -0.12448495 0.17774494 0.24268366 0.05260578 0.09544277 0.04803687 -0.14139108 -0.10999032 0.22029571 -0.053525764 -0.11081875 -0.06150324 0.15868336 0.100519046 0.0396678 0.19956115 -0.0496539 -0.17295574 -0.09457511 0.10522775 0.041535903 0.051852945 -0.17568529 -0.0835934 0.015654532 0.01705783 0.1671546 0.048669696 -0.10885542 0.07562233 0.15113793 -0.22534798 -0.1624132 0.29393306 0.029145196 0.13544467 -0.047006942 -0.2598013 -0.073656924 0.098369725 0.12848051 0.037532818
1109 -0.272387 0.10394309 0.20081732 0.08535369 -0.123640314 -0.01070685 0.11334672 -0.09072944 0.058942385 -0.087437086 -0.063439324 0.08175223 -0.17741054 8.9599795e-05 -0.29470858 0.093073525 0.2846504 0.066286586 -0.21228023 0.11792156 -0.20129168 -0.19957215 -0.0003617126 -0.0021140045 0.23450826 0.06779213 -0.11857039 -0.011254725 0.26014048 -0.17116143 0.09088695 -0.12806676 0.11385847 -0.08651433 -0.11984507 0.16302614 -0.07877081 0.11517532 0.07987745 -0.05604245 0.06619905 0.069715254 0.03584663 0.019078845 0.10525239 -0.09787359 -0.16631852 -0.1148246 -0.038199767 0.0019151156 0.10434858 -0.12778668 0.3391513 -0.40116432 0.017530479 0.014493087 -0.09008017 -0.041562784 0.14846519 0.11595836 -0.072715886 -0.025916478 0.1075536 0.105905 -0.23682523 0.07476275 0.075046025 0.06077185 -0.25195795 0.2943412 0.03380627 0.16827449 -0.20070283 0.06055425 0.017577188 -0.09800609 0.1733452 0.028456584 0.11042551 -0.456897 0.33073655 -0.071390316 0.05818484 0.18929149 0.30440778 -0.061847545 0.13112396 -0.19043443 -0.12880355 -0.29037 0.09540005 -0.047248907 -0.17729431 -0.24568386 0.26495007 0.03581605 0.02908729 -0.37536532 -0.017993456 0.3970906 -0.20535952 -0.06866537 -0.06776506 -0.20974945 -0.052560702 0.09503237 0.08510359 -0.04477463 0.09429412 -0.036757223 -0.10821508 -0.093058206 0.05742679 0.110228546 -0.27893448 -0.0536278 -0.031389616 -0.18141869 0.19167304 0.26272097 0.3015397 0.18660404 -0.16561502 -0.17361403 0.34290773 0.10770995 0.12688707 -0.0039814455
278 -0.10998713 0.09489567 0.38865766 0.104343474 -0.062311564 -0.23047166 0.019650195 0.1360464 -0.040802322 -0.045519985 0.03216605 0.23109639 0.15222798 -0.31135806 0.041965466 0.2342415 -0.14223047 0.12358257 -0.29415473 -0.41456857 -0.0689797 -0.14584133 0.16461581 0.20601864 0.15098163 -0.3626047 0.26980948 0.07492401 -0.3818001 0.2196612 0.32905912 -0.23319276 -0.058665697 0.25911832 -0.15712489 0.010231203 0.00842642 -0.016663037 -0.011583577 0.06457644 0.10482236 -0.14802894 -0.07901203 -0.1450865 -0.0038864757 -0.16687083 -0.1489815 0.14788607 -0.16712807 -0.07035266 0.05925706 0.021582233 -0.21841374 -0.07546843 -0.17580386 -0.16270658 -0.020767173 0.098038614 -0.016595872 0.13525067 0.028183986 0.050335813 0.13697173 0.27706757 0.071438715 -0.16052231 0.07875282 -0.16976047 -0.31106082 0.21063066 0.11779639 0.24241449 -0.057958934 0.072846666 -0.08137953 -0.030035337 0.28226528 0.2149422 0.3475228 0.03747356 0.06885009 0.21996547 0.21582524 0.3762493 -0.24667083 0.062168997 -0.09766925 0.43489227 -0.12959899 -0.23859325 0.061565455 0.12120093 -0.041248363 0.01961274 -0.03863724 -0.18186224 0.47986713 0.059244674 -0.15263925 0.22029325 0.21214756 -0.23390394 0.12815954 -0.304486 0.09565827 -0.16715768 -0.024328472 0.11736914 -0.045033693 -0.08423832 -0.16481957 -0.2951819 0.0016778647 -0.12549198 0.021494208 -0.12783086 -0.10877103 0.17673339 -0.0765734 0.08158382 -0.0068052323 0.17520347 -0.49625486 -0.25378427 -0.3259274 -0.008614445 0.16055053 0.08603326
716 -0.09508157 0.17672482 -0.13450895 -0.018325245 0.1652585 0.08889377 -0.16064663 -0.27753833 -0.09169689 -0.17814526 0.04478795 0.10839533 -0.28499687 -0.1115541 0.16558805 -0.0933934 0.08835242 0.04504288 0.052642055 -0.19348498 -0.3190941 -0.19775175 0.008948314 0.05028791 0.27239582 0.12916094 0.0692185 -0.099746495 -0.07766765 0.298676 0.18980457 0.1270389 -0.08475589 -0.074513905 -0.10767321 0.11202322 -0.16864768 0.024468476 0.109234 0.11171147 -0.043387454 0.21208194 0.16432092 0.03907242 0.10902504 0.18004717 0.053816628 -0.011753195 0.021400802 -0.090860456 0.17143293 -0.07735059 0.26121455 -0.2936592 -0.040530547 -0.08720395 -0.18937755 0.23106438 -0.2982945 0.22222497 -0.08357434 -0.034962665 0.111471325 0.16689034 -0.17506762 0.068429254 0.062297214 0.022971157 0.058267318 0.1296479 0.16561605 0.09773936 0.18260522 0.07796575 -0.0772449 0.14980054 0.15862724 0.016650194 -0.14890158 -0.33022627 0.12704492 0.04534812 -0.07957124 0.21236226 0.17059655 0.03411719 0.3030176 -0.14421608 -0.040471822 -0.0839508 0.15399504 0.016287 0.0398318 -0.19911902 0.14901116 0.2343419 0.0763732 0.038806073 -0.08963752 0.50071144 -0.03900065 -0.1286126 0.027856298 -0.30841398 -0.02474952 0.1795656 0.081717044 0.031241698 0.009212434 0.30340764 -0.12304839 0.14900841 0.21265765 0.25198844 -0.108394645 0.028411563 0.013015213 0.05576711 -0.00818869 -0.106510445 0.27812648 0.25012267 -0.0022885208 -0.1535222 0.09352464 -0.14782804 -0.1611085 -0.17308101
137 0.111912064 0.07426531 0.06080118 0.12919153 0.0513964 -0.024116624 0.14633323 0.13664278 0.11678831 -0.17326866 0.11064325 -0.02121724 -0.12975527 -0.07296428 -0.0049614194 -0.23367544 0.16043244 0.18551192 0.14737776 -0.32373145 -0.17253976 0.2356496 -0.22132523 0.02238034 0.12195814 0.0002515011 -0.0042347135 0.051006805 0.01998152 -0.07579262 0.1597804 0.08156124 -0.050394733 -0.02280584 0.2381003 -0.10101274 0.047314 0.13263091 0.019250622 0.018671323 0.005573592 -0.053614095 -0.09131585 -0.14832793 -0.049754076 0.104432486 -0.11809264 0.30666554 -0.018063065 -0.06475945 -0.051277984 -0.23242183 -0.16386038 -0.16039608 -0.11758912 0.2611815 -0.16229181 -0.044413663 0.02898905 -0.02934443 -0.42935604 0.031720474 -0.033314984 0.109327674 0.13073406 0.021698805 0.06130371 0.042131487 -0.06400961 0.073319316 -0.028411865 0.077364594 -0.07175191 0.14164945 0.036126863 0.0054822094 0.047743652 -0.020030798 0.17749926 -0.07611374 -0.13989417 0.02716505 0.18505837 -0.11182268 -0.10848425 0.24620076 -0.052336268 0.23528759 0.26200232 -0.071341865 0.17170915 -0.011090449 -0.05463454 0.13620795 0.26160657 -0.121643834 -0.1239499 -0.099520676 0.040903743 0.12974598 -0.09397462 0.1457501 0.056794528 -0.29619294 -0.14915587 0.18630882 0.012938975 0.11252655 -0.008569156 0.028534919 0.050356656 0.040146425 0.31291544 0.015327786 -0.059744954 0.114360824 0.12038848 -0.15699528 -0.19324866 0.3310186 -0.04705945 0.13002673 -0.15268089 -0.3165124 0.054831114 -0.021875167 0.122335166 -0.043801006
720 0.041763846 0.15612586 0.11197701 -0.117232755 -0.09040619 0.028293025 -0.07220683 -0.023703841 0.11529074 -0.106129944 0.41666737 0.29883668 0.14059189 0.14638516 0.12766856 0.15595448 0.2337049 0.04528964 0.14278318 -0.6297966 -0.20734502 0.10187054 -0.21781583 -0.00032094703 -0.20652281 0.36055884 -0.12166222 0.052587733 0.015940916 -0.115684114 0.15934731 -0.24007471 0.034657054 0.26388913 -0.15561195 0.35451734 0.120343104 0.06777764 0.16940418 -0.07238742 -0.016705088 0.09659528 0.26081887 -0.27987054 0.009772002 0.42280328 -0.07086342 0.33168498 0.0119646285 0.09239314 0.13761094 -0.21554857 -0.17553952 -0.3623171 -0.118552476 -0.17501542 -0.16597427 -0.1078216 -0.21940105 -0.01984267 -0.09002385 -0.21057777 0.30462041 0.09956306 0.11936557 -0.16128886 -0.064793184 -0.2026605 -0.00883283 0.32102045 0.28893575 0.14185673 0.37386447 0.028546466 0.10041506 0.023392381 0.1647906 -0.12957908 0.0679874 -0.012839157 -0.10155278 0.15786505 0.095846824 0.024407068 -0.13721222 0.20277072 0.23860523 0.21574993 -0.09944377 -0.3045484 -0.09681094 0.22636417 -0.16856448 -0.09766909 0.027313674 0.18399097 -0.23685102 0.016174281 0.10474954 0.5411719 0.20135318 -0.013141762 0.08821792 -0.07830471 -0.22685526 -0.17398836 0.47148466 -0.062137138 0.011804115 0.100419275 0.092870295 0.023400895 -0.049796328 0.27199182 0.00472701 0.022708485 0.24770926 -0.026461149 0.0074644214 -0.027294222 0.255722 -0.053156335 0.38773164 -0.012472346 0.03320517 -0.4140645 0.20426238 0.27022713
120 -0.082495466 -0.08211865 0.2433336 0.007985107 -0.35034397 -0.12033574 0.16412835 0.11817482 0.15855286 0.04022556 -0.10835848 -0.065855354 0.13836165 -0.0063243853 0.27021125 0.13859871 0.07672461 0.19994377 0.02864336 -0.022726303 -0.2708681 0.1180112 -0.0010471072 0.0977169 0.09055054 0.2360924 0.019961065 -0.03153619 -0.089174986 0.024951017 0.12666431 -0.07076187 -0.21685274 0.18098086 0.11051787 0.18774593 -0.5204531 0.11339888 0.07185496 0.02919454 -0.12518279 -0.11433149 -0.079227135 -0.31238103 0.2591692 0.2600667 -0.19405977 -0.022659497 0.039014142 -0.2270024 -0.02700261 -0.13267024 0.045021772 -0.12743683 0.25524002 -0.12009776 -0.042971965 0.09516908 -0.24704793 0.10911867 -0.07376369 -0.060936537 -0.046860665 0.12320062 -0.20095095 -0.02473012 -0.012265926 0.37076414 -0.25922692 0.14713001 0.179002 0.23366289 0.068905674 0.14711069 -0.11186203 -0.14044303 0.22816987 -0.1797803 -0.1945364 -0.14504763 0.22742939 0.003680924 -0.042074744 0.2804486 -0.2266068 -0.20475347 0.03068254 0.07388797 0.14408289 -0.11949573 0.1505017 -0.03862594 -0.035569243 -0.016806155 -0.1603799 -0.023257148 -0.06390149 0.027509233 0.23817764 0.024243599 0.19965988 -0.09337825 -0.09796097 -0.15078016 0.1391545 0.06881523 -0.10511903 -0.024411736 0.19651404 0.20446312 -0.07510239 -0.06129751 -0.10370279 0.41640204 -0.36977407 0.12636542 0.0132935 0.23851348 0.08865127 0.23880106 -0.0334129 -0.16940548 -0.37127164 -0.30426627 -0.18243812 -0.07843594 -0.019759495 -0.19447471
637 0.13104475 0.1993023 0.04362058 0.13840614 -0.028548257 -0.056443818 0.13228984 0.085578226 0.09560973 -0.15433927 0.095826484 0.05351795 -0.104115225 -0.042676467 0.01522761 -0.2742565 0.016208028 0.19214544 0.19430207 -0.29963064 -0.15012148 0.16776495 -0.15250961 -0.051524233 0.070312835 0.06742726 -0.028475119 0.1410578 0.017126912 -0.18402386 0.17426307 0.07097036 -0.05454877 0.056033034 0.27485198 -0.119916745 0.06402577 0.08832499 0.068558834 -0.02683231 -0.106008284 -0.02885491 -0.04710001 -0.056547035 -0.067033514 0.11935198 -0.03942804 0.32572484 0.011154604 0.0073629473 -0.041505657 -0.26425016 -0.22313401 -0.14059661 -0.122438334 0.24247107 -0.11928229 -0.045780618 -0.08310013 -0.10300629 -0.3264066 -0.022053193 -0.019961478 -0.011501796 0.23946674 -0.00545539 -0.013114196 0.14717229 0.05591266 0.11812267 -0.10857539 0.14567338 -0.112038136 0.1111358 0.028335892 0.019058507 0.09009027 -0.06654151 0.13374731 -0.11434128 -0.15561925 -0.008886318 0.23749778 -0.07607507 -0.11464205 0.27281997 -0.10647125 0.2350666 0.32146153 -0.0022375947 0.12616879 0.01388719 -0.067784026 0.035009366 0.19274531 -0.036932435 -0.07388857 -0.055916656 0.065283395 0.107781194 -0.049223214 0.1525733 0.03907579 -0.26074597 -0.062392544 0.19413877 0.0537919 0.100985005 -0.14206843 -0.04863137 0.06426907 0.18099718 0.18685615 -0.022859177 -0.091847815 0.059408583 0.14080945 -0.19284703 -0.2245025 0.3499815 -0.022513801 0.16099904 -0.03368486 -0.37119237 -0.014468552 0.08576395 0.11165927 -0.17364463
138 0.07643289 0.25898534 0.07879084 0.18203653 -0.04410338 -0.026558168 0.03257314 0.13994718 0.09701782 -0.15284957 0.021491189 0.012012425 -0.123885795 -0.0031592017 -0.02345467 -0.3088624 0.0699298 0.1299915 0.29239 -0.2981369 -0.26355594 0.15989041 -0.14882632 0.010336914 0.13860817 -0.011603676 0.080296285 0.16533214 0.13788742 -0.18423715 0.22542337 0.10306427 -0.035369206 0.07391511 0.23007596 -0.09523931 -0.0023584466 0.13052148 -0.05716062 0.059581965 -0.081893615 -0.05884692 -0.050455034 -0.05956822 -0.07757896 0.20543867 -0.026782671 0.20801479 -0.04876671 -0.029230027 -0.06258554 -0.22843254 -0.2011014 -0.21944469 -0.0092727225 0.355951 -0.080604605 -0.09416648 -0.10217308 0.005376337 -0.23767471 -0.09758047 -0.020797467 0.129286 0.20389849 0.0008747586 0.009615726 0.018167542 -0.09036214 0.049669582 -0.007308578 0.18004024 -0.114499904 0.14612846 0.058797162 -0.11901489 0.046033278 0.033850864 0.060799647 -0.050839502 -0.20827776 -0.031199005 0.18596639 -0.030892694 -0.17006052 0.33901894 -0.052223895 0.20358098 0.29149625 -0.04109399 0.076260634 -0.033005178 -0.07693951 -0.02873878 0.264342 -0.10289437 -0.06838147 -0.14040571 0.12552823 0.0962962 -0.09054297 0.18889885 0.10093321 -0.33039448 -0.14143021 0.2352347 0.0007849198 0.07502834 -0.06601302 -0.08208353 0.04432762 0.045686048 0.15755866 -0.034685962 0.0070234374 0.04339725 0.15509333 -0.19716755 -0.2289987 0.25580007 0.041154128 0.0041081365 -0.07692507 -0.24891193 0.033300538 -0.08058138 0.17219748 -0.13106033
12 -0.18399578 0.22468165 -0.18191211 -0.06158466 0.16833112 -0.037082504 -0.089080915 -0.084809765 -0.091184124 -0.2237841 -0.09187028 0.2829094 0.28988963 -0.16676034 0.034113154 -0.10083007 0.030605068 -0.08991575 0.3983147 -0.06324766 0.0062625636 0.01906331 0.07362972 0.07767131 -0.013808682 0.25627977 -0.18601806 0.011784095 -0.17090994 -0.0025591627 0.23603593 0.16281676 0.081169076 -0.12857445 0.24391907 0.08625604 -0.03812639 0.18293343 0.08241658 0.14544709 0.0466673 -0.16812505 0.10023455 -0.18192941 -0.12619439 0.49022213 0.15547957 0.41011992 0.13168025 0.10197542 -0.080634385 0.0051278397 -0.06531304 -0.036313288 0.21884447 -0.2078222 0.17374597 -0.086099274 0.00023463777 0.008620058 -0.12931073 0.08283205 -0.06522977 -0.071374044 0.20065561 -0.39959884 0.11548699 0.12768862 -0.06281662 0.17699297 0.2537189 0.5639946 0.08535545 -0.041985024 -0.20567758 -0.27066398 -0.033039555 -0.07594449 0.014318303 0.030597076 -0.22101846 -0.24036737 0.036654 0.13254012 -0.233504 -0.004210511 0.036441892 -0.024852486 -0.11608405 0.0033213333 -0.022807892 0.088128336 -0.12396747 0.055601038 0.45409364 -0.19135848 0.1973466 -0.0997234 0.08826578 0.29945457 0.07760968 -0.24290593 -0.14895137 -0.16868868 0.14101586 0.13238405 0.32012805 -0.12282469 0.095793314 0.21422279 -0.22874527 0.018692296 -0.253526 -0.03637909 0.10215133 0.044388834 0.04087665 0.17830192 -0.14049439 0.09066968 0.03940062 0.005074356 -0.062043972 -0.25317147 -0.20579784 0.1534285 -0.15592906 -0.01983298
1067 0.16080844 -0.088115625 0.13182521 0.051820856 -0.04000872 -0.0020840752 -0.2200966 0.0152471755 0.04108245 -0.14420971 -0.036961615 0.34787652 -0.17528121 0.080995634 -0.062282186 0.059324197 -0.0738599 0.0400737 -0.010215895 -0.013026401 0.14642271 0.07826465 -0.081397906 0.07286656 0.17679237 0.049040556 0.12817775 -0.0896404 0.07489565 0.16493611 0.15110391 -0.035096414 0.054581415 -0.13129686 -0.16421205 0.03616066 -0.012771111 0.36498347 0.009621184 0.10186991 0.08334454 0.018341614 0.027882645 -0.30313218 -0.09417963 -0.049060572 0.31224203 0.19639035 0.05859822 0.0674423 -0.06684719 -0.12169841 -0.11195509 -0.14367586 0.122500286 0.037208777 0.010562091 0.06020256 -0.0861633 -0.23193057 -0.18757413 -0.07618532 -0.05551165 -0.18819399 0.1249372 -0.057121243 0.11587722 0.08540866 -0.043385055 -0.09736782 0.07214486 0.16734876 0.05603406 0.08976007 0.16169335 0.035254724 0.2387283 -0.14536528 0.2683639 0.05272654 0.19580919 -0.23811917 0.004076156 0.0593182 0.32762238 0.022436133 0.07990646 0.098406896 -0.07146739 -0.33796933 0.14686291 -0.09564907 0.099269 -0.014771867 0.2861612 0.11143167 0.16991948 0.023718571 0.009162158 0.20164476 -0.009884821 -0.16186537 0.010731318 -0.19943717 -0.010817144 0.02591437 -0.07920756 0.07696584 -0.014495019 0.1205777 -0.10138685 0.034824762 -0.17212005 0.078664534 -0.21990643 0.008086547 0.055107877 -0.15108007 0.083185166 0.07747505 -0.08831685 -0.08571575 0.08728152 -0.0123432465 -0.024744239 0.058599025 0.11628831 -0.08340889
397 -0.14480332 0.063399896 0.35728443 -0.15297742 -0.16717388 -0.28175852 -0.18082756 0.051015805 -0.2072212 -0.13237587 -0.14726238 0.23719378 0.062309645 0.38349372 -0.16183291 0.15773325 -0.13810301 0.1486243 -0.27248636 -0.122659214 -0.09522227 -0.30313358 0.15446237 -0.10104275 0.029681487 0.06669552 -0.03483353 0.29940152 0.07500849 -0.17373778 -0.0770571 0.08790677 -0.08345709 -0.26545027 0.06840577 0.0766502 0.09531109 -0.15303887 0.15182097 0.27231148 0.17422512 0.22157238 -0.0071673193 -0.39391425 0.09142791 0.09638221 0.0006527406 0.07321507 0.07670649 -0.13223146 0.28489715 -0.11224805 -0.25914738 0.025558421 -0.10378096 0.0796618 0.32812887 -0.028977837 -0.069187135 0.09041209 -0.1827762 0.042843983 -0.070833765 0.08344852 0.02017564 -0.28820017 -0.0052890615 0.09477889 -0.2760803 -0.01598647 -0.10134025 0.21240467 -0.11644356 0.1817264 -0.20714602 -0.0019633016 0.1496907 -0.0006478738 -0.0024404936 -0.37201765 0.27523386 0.17082404 -0.14742944 0.1595653 -0.3004953 0.100687295 -0.08646667 -0.11467463 -0.11877302 -0.14209098 -0.043297082 -0.15577237 -0.0583729 -0.026878474 0.17448035 -0.056081876 -0.12370854 -0.0074493038 0.15902129 0.2535377 0.311273 -0.051569536 0.31887054 -0.30038264 -0.27687946 0.34217727 0.2364874 0.04980702 0.2516127 0.04016932 -0.15082048 0.2390502 0.019959593 0.011972758 0.007961163 -0.006532004 -0.062163115 -0.2058448 0.08156711 -0.10428669 0.28737634 0.13538006 0.047025103 -0.23020454 0.24923512 -0.3684759 0.101093 -0.19968182
22 0.21162364 0.094004415 0.058608722 0.3296891 0.16539213 0.23049277 0.2429195 -0.24092458 -0.022693994 -0.05916239 -0.28251466 0.3161307 -0.26223612 -0.1378525 0.03677671 0.09781184 0.21317983 -0.0695787 0.088854566 0.013804714 -0.2670611 0.08837602 -0.11376502 -0.056212753 -0.14734636 0.35118717 0.013495851 -0.11491285 0.29575217 0.17600256 0.3021925 0.041110493 0.06874202 0.33811098 -0.39220333 0.2116242 -0.016451683 -0.12072718 0.062916934 0.27965942 -0.06616197 -0.20660709 -0.248266 0.10086613 -0.22663185 -0.10631618 -0.09212471 -0.012212714 -0.15834236 -0.22854196 -0.052445583 0.36385623 0.29510376 -0.17517854 0.20936525 -0.25063697 0.25067806 0.02323006 0.05456902 -0.39369202 -0.09419019 -0.14198089 0.29782492 0.09186324 0.08143152 -0.51529175 -0.18891753 -0.081416905 0.08510587 0.1735957 -0.07392681 0.08298932 -0.37161845 0.20981319 0.037387747 0.2356567 -0.16432147 -0.35098523 0.12984985 -0.38070512 -0.30144227 0.11773849 -0.22400449 0.20663244 -0.3784845 -0.038637 -0.2155162 0.10133837 -0.07632227 -0.035557505 0.16502787 -0.121041454 0.03384461 -0.05263241 0.30015215 -0.17037573 -0.30876118 0.23331755 -0.045443535 -0.02256285 -0.11970311 -0.28359723 0.26522392 -0.042006496 0.18654068 -0.02115431 -0.11487227 -0.00307612 0.022134244 -0.12094033 0.0069361227 0.2131379 0.25001436 0.39765635 -0.0011856821 -0.2579621 -0.29255116 -0.2366947 -0.22757764 0.38891593 0.37322447 -0.2449861 -0.44510683 0.02420898 0.20756517 0.044729143 -0.08093386 -0.2654751
2419 0.078543246 -0.09177634 0.1166788 0.19491695 -0.032377843 0.067494586 0.106611095 0.058500465 0.07150825 -0.21193206 0.34112224 0.3016999 0.077084236 0.08099543 0.017786058 -0.024052909 -0.040248785 -0.15473427 -0.091987886 -0.078188136 -0.18787721 -0.11076216 0.19136511 0.05865376 -0.09707702 -0.03957387 0.086497225 -0.20577313 0.13184693 0.28409678 0.099893525 0.13887946 -0.13236372 0.013029141 0.1889953 0.033977278 -0.19436736 0.2997625 0.007486939 -0.20590174 -0.060568064 0.043168712 0.0122245345 -0.013841527 -0.2535652 -0.0148875555 -0.16780782 0.23875165 0.14355148 -0.40280417 0.124574624 -0.064935155 -0.037044197 0.11577471 0.11498759 0.078316994 -0.02328501 0.062592514 0.11523031 0.14878443 -0.036321834 0.05236936 -0.31035542 0.2456421 -0.09925032 -0.10901539 0.223244 0.260904 -0.23715399 0.032518998 0.03764298 0.06402008 -0.15386862 0.15953806 0.26908913 0.25061908 0.11343734 -0.09632668 0.25486383 -0.06462162 0.011359628 0.10180817 0.17938757 0.26053795 0.17863989 0.07197691 0.14405346 0.21938157 -0.14183763 -0.11076811 0.115305245 0.012255048 0.12740698 0.11412835 0.25420043 -0.15941419 0.24210301 -0.16756184 0.19613312 0.29719663 -0.2596614 -0.053315982 0.18420894 -0.3439101 0.12699077 0.30101812 -0.25776646 -0.13825338 0.008847218 0.16258188 -0.10528502 -0.048685804 -0.27534264 0.0031361557 -0.009192045 -0.123682 -0.0008858917 -0.019408504 0.39517 0.10076261 -0.0745459 -0.32673517 -0.13236536 0.13545735 0.26871887 -0.2028705 -0.010644897 -0.06409114
2622 -0.030926757 0.11643561 0.12518664 0.25278684 0.031702552 0.19514129 0.15799211 0.08273361 0.008890364 -0.2177812 0.17106931 0.05016894 -0.15692952 -0.27559695 0.020728977 0.11650683 -0.18318292 -0.048169386 -0.009402505 -0.24844262 0.19136207 -0.05971938 -0.07992259 0.2643524 0.015993807 -0.18709421 0.22483094 0.068569064 -0.12997992 0.0009847225 -0.011010732 -0.2029029 -0.056467198 0.15527678 -0.23000701 -0.17171769 -0.18555242 0.17273082 -0.08428209 -0.046964757 -0.17839684 0.23957595 -0.015412666 -0.3012169 0.0021096836 0.04398692 -0.23837526 -0.0057935272 0.037572008 -0.21453467 -0.12447829 0.1097106 -0.120755054 0.021910014 0.15978445 0.006902409 -0.15090524 0.051662724 -0.0052292584 0.24158587 -0.08682362 -0.06861331 0.23476702 0.14581923 0.08185938 0.043948174 0.52478856 -0.11288861 -0.2463378 -0.23380147 0.15071405 -0.029874362 -0.18348165 -0.12733574 0.19113906 -0.008266275 0.11890344 -0.19623007 -0.026634125 -0.019083153 -0.13958895 0.10315705 0.08294565 0.06319825 -0.047779556 0.06001292 -0.055589374 -0.32466766 -0.30672023 0.17212166 0.0046165534 -0.1379145 0.42673832 -0.13758327 0.24826828 0.09130157 -0.09487528 -0.18501493 0.57422185 0.3129321 -0.051637262 -0.17213352 0.22279826 -0.2992029 -0.04314402 -0.13120387 0.34324348 -0.17561823 0.08703885 0.081816666 -0.0760652 0.10788951 -0.14387833 -0.033289477 -0.22476627 -0.3053399 0.1548143 0.04113245 0.22273797 0.010427672 0.2134985 -0.10204686 -0.37131333 -0.038238626 -0.06737494 -0.008894692 -0.06452292 0.018515592
166 0.22012244 0.05542274 0.012963002 0.2114632 0.062466316 -0.06143456 0.1699142 0.04895416 0.0629596 -0.12349645 0.11298669 0.00636862 -0.060013514 -0.013325375 -0.03889392 -0.2458575 0.07333394 0.1738509 0.18444648 -0.2392774 -0.26725042 0.16968803 -0.32967883 -0.021698475 0.19270638 0.012632786 0.08949203 0.10041514 0.09323192 -0.10291043 0.14178012 0.1326875 0.0479691 -0.07753098 0.2249976 -0.1458129 0.06381028 0.1283005 0.03189632 -0.053487357 -0.05745606 0.043345492 -0.08717605 -0.1182434 -0.13998131 0.16725866 -0.040348377 0.31377682 -0.016708424 -0.05961331 -0.024355374 -0.20436706 -0.15805644 -0.0039209262 -0.11508778 0.30941537 -0.10555333 -0.025795808 -0.07178135 -0.11373382 -0.44194108 -0.08296599 0.036419593 0.10710678 0.19531389 0.02928413 0.03087329 -0.021432975 -0.10949862 0.08124493 -0.10592073 0.16485113 -0.064670295 0.18820149 0.017794866 0.034767605 0.05256305 -0.09597774 0.010916099 -0.14597215 -0.14017089 0.005877977 0.21083441 -0.15882598 -0.14261459 0.37111267 0.0011873783 0.23504332 0.25937 -0.08586254 0.04485424 0.10126294 -0.15928026 -0.0145336995 0.24905354 -0.15853499 -0.06071944 -0.11745914 0.02481896 0.08036423 -0.057403643 0.15982613 0.08197654 -0.37432912 -0.14350107 0.26017952 0.05678736 0.10115313 -0.080985576 -0.022440102 0.12641945 0.109705 0.17887373 -0.009986866 -0.011225643 0.15353224 0.16279721 -0.17941651 -0.21309586 0.25933173 0.024022618 0.0329948 -0.11111888 -0.25605756 0.010902706 0.03670869 0.17023818 -0.12699138
56 -0.22381203 0.0035705748 0.4486079 0.11388596 0.11174595 -0.08120533 0.22692207 0.038103286 -0.030617673 0.043977384 0.30810854 0.16655152 -0.24927717 -0.012359795 0.006801541 -0.08818993 -0.2796766 -0.031229805 -0.029957395 -0.072864816 -0.08789924 -0.41703102 -0.018416557 -0.25294703 0.37156767 -0.061192337 0.010800583 0.04487904 -0.04695451 0.26894307 0.13038667 -0.07008248 -0.1608572 0.18058772 -0.0067272577 0.2830662 -0.254757 0.020542666 0.13253656 -0.028505081 -0.07296602 0.16277796 -0.14711396 -0.19004941 -0.10312241 0.03967684 0.11399996 -0.13286981 -0.0073262216 0.07296277 -0.05697197 0.12904148 -0.21596603 -0.12784575 -0.2128753 0.023526864 -0.21369468 0.32550946 -0.031548213 -0.15795605 0.05579291 -0.030518271 -0.21564867 0.16820352 0.2500313 0.013186164 0.21150868 0.12745167 0.1963777 -0.11698504 0.2556315 0.16602273 -0.05185126 0.2110414 0.012793622 -0.18663782 0.07833403 -0.10158539 -0.00798353 0.033999417 0.11881431 -0.07682017 -0.20875773 0.047708247 -0.040932257 -0.072633184 -0.19522434 0.061683178 -0.026130004 -0.09130587 -0.055138145 0.054747164 0.14330943 0.1941176 0.24099791 -0.115068085 -0.04062187 0.22798914 0.043077096 0.12131593 0.15796115 0.00735514 0.02801521 -0.27916324 -0.114499696 -0.040060177 0.0735096 -0.00051622326 0.17435382 -0.16901158 0.020635944 0.18562983 -0.15377954 0.23993008 -0.24416861 -0.0186333 -0.15777606 -0.039034076 0.080243506 0.14969395 0.18736355 -0.10761792 -0.20041154 0.02760178 0.05033623 -0.07384069 0.1815854 0.073653266
424 -0.32743812 -0.04197388 0.37430707 0.03404116 -0.02998982 -0.038795546 0.0020562634 0.2622983 0.09055002 -0.19747408 -0.06511679 -0.026201505 0.18760467 0.22432299 -0.6382805 0.2279587 -0.3481926 0.36627212 -0.001866387 -0.33984703 0.17524311 -0.04981969 0.18868096 -0.041072723 -0.023446122 0.29955906 0.3124356 -0.5266528 -0.14038745 0.124103285 -0.016527591 -0.09675928 -0.35854432 -0.057090696 -0.15625705 0.38718715 -0.2990866 0.05610245 -0.04255285 0.16399406 0.07646146 -0.29095525 -0.09428214 0.22663683 0.15427123 -0.062428784 0.097135566 -0.035735074 0.03149324 0.11831742 0.0855689 0.15265457 0.27284786 -0.22008236 0.5283434 0.01648322 -0.3704279 -0.052515157 0.07943097 -0.17234755 -0.010167479 -0.019749139 0.038771726 -0.1969793 0.15329345 0.020748228 -0.17864321 0.084430456 0.101274006 -0.00408357 -0.13868831 0.20857656 -0.0535186 0.106230035 0.33901796 -0.019156374 0.030776082 -0.53636914 0.12380961 -0.009818053 -0.28739044 -0.053749207 -0.05546576 -0.052850302 -0.028569886 0.00018152714 0.021690737 0.08218399 -0.26578078 -0.086588174 -0.014617148 0.1329934 -0.13250296 -0.028985623 0.29962838 0.04838916 0.42065695 -0.20191556 0.1274145 0.3873677 0.17123602 -0.1475935 -0.18018024 -0.19342807 -0.23799038 -0.119532965 0.0055397786 0.29013506 0.081695475 0.016894223 0.075658426 0.4271017 0.36324713 0.04652026 0.013094165 -0.16227442 -0.19893825 -0.20437723 -0.09910775 0.20472232 0.13285854 0.08658801 -0.34828904 -0.036919534 -0.1505081 -0.0108474335 -0.18778299 -0.033328123
13 -0.16094744 0.1805883 -0.2149906 0.040804826 0.16322905 0.049533654 -0.10669042 -0.095438175 -0.1414661 -0.29493204 -0.036037274 0.3385224 0.25548062 -0.16475116 -0.062573776 -0.17418952 0.014774676 -0.13944969 0.3206215 -0.07086762 -0.1260073 -0.0504258 0.081703775 0.018319111 0.024411555 0.32579046 -0.04947221 -0.031816572 -0.078170426 -0.00045909017 0.2104801 0.1849484 0.07303076 -0.1593479 0.16042012 0.0041550007 -0.017748686 0.21981812 0.14614826 0.11057806 0.056392375 -0.046752837 0.10321449 -0.2603925 -0.015203251 0.4854469 0.0471862 0.46059453 -0.014566882 0.17640084 -0.1884623 0.016915008 -0.031076545 -0.07222226 0.17926523 -0.24914603 0.12599969 -0.09040517 0.023000171 0.014723968 -0.1009995 0.0769852 -0.07544487 -0.04633179 0.19170453 -0.39055222 -0.0055020587 0.062358752 -0.053533763 0.27348384 0.26078033 0.54705286 0.04402561 -0.09181278 -0.23278594 -0.2817278 -0.123600364 -0.06686145 -0.0021128345 0.113057934 -0.16504382 -0.28626302 0.06432388 0.066004515 -0.15804754 0.008434324 0.11306884 -0.048387155 -0.04379406 0.16396287 -0.006888298 0.064692944 -0.031785347 0.034631085 0.45540598 -0.1673497 0.20590362 -0.12009253 0.07725217 0.31889296 0.11204603 -0.19796808 -0.16391541 -0.16737446 0.082574524 0.062045775 0.30301103 -0.13093652 0.022043984 0.19567987 -0.29816943 0.024527444 -0.27565777 0.073150896 0.0021967287 0.06715928 0.011153752 0.18840191 -0.2211809 0.045171607 0.039549172 0.10031085 -0.05619091 -0.2210753 -0.19305028 0.14820592 -0.14044157 0.10242185
289 -0.22816099 -0.04674022 0.5745846 -0.0035637459 -0.0043824734 0.012260613 -0.06847255 -0.07439864 0.099833675 -0.09091508 -0.14294362 -0.09105986 0.09289735 0.052286435 -0.2865116 -0.07299631 -0.027338807 -0.00023088667 0.13412876 -0.51416254 0.04298075 -0.06507509 0.07176454 0.056040663 -0.075025655 0.02852173 0.086716734 -0.07433566 -0.098809116 0.19389804 0.33052957 0.050159473 -0.3804216 0.29218408 -0.091803595 0.17022625 -0.48883578 -0.0101965675 -0.1663103 0.19974785 -0.102884874 -0.124664225 -0.08817878 0.25351948 0.032618802 0.11573652 -0.11417477 0.1785411 0.27716225 -0.014126735 -0.21980718 -0.22067943 0.037445445 -0.085898325 0.121038914 0.054904252 -0.32209873 -0.18939327 0.22034678 0.09040932 -0.03864004 0.005180438 -0.060962446 -0.06287622 -0.08787826 0.057202883 0.1095505 0.28042996 -0.028933747 -0.19621259 0.33500087 0.17304529 -0.03600061 -0.042601008 -0.008477385 0.016972266 0.27834433 0.02108524 0.092506506 0.027408432 -0.03552698 0.21013583 0.04345557 0.13947089 -0.10536259 0.11881667 -0.06288944 0.20276691 -0.24325119 -0.25780684 0.1915676 -0.010239128 0.07337383 -0.07265512 -0.11675323 -0.15144177 0.35505062 -0.31634986 0.2727245 0.11590769 0.31782454 -0.12837027 -0.130755 -0.27690554 0.13700126 -0.05541566 0.252064 0.09921896 -0.052800283 0.038049046 0.10840211 0.22492819 0.21231055 0.12329466 -0.1014432 -0.07257299 -0.027831778 -0.22817415 0.099425055 0.19458033 0.041279413 -0.026470525 -0.26607442 -0.19268559 -0.25585586 -0.051211007 -0.13529235 0.0031878725
161 0.25399238 -0.17353031 -0.07781861 -0.22637329 -0.10583476 0.08347892 0.1256514 -0.30195516 -0.0129143 -0.21718699 -0.16857949 0.17868428 -0.043222655 0.013503196 0.044549532 0.053361613 -0.19860823 -0.114326246 -0.17553733 -0.2636358 -0.09770813 -0.0995562 -0.23386954 -0.28122067 0.34615695 0.05204402 -0.17490694 -0.14036655 0.111746445 0.07899511 0.4517112 -0.087689534 -0.04913355 0.232584 -0.16577397 0.10174751 -0.018754164 0.22612874 -0.08581215 0.09015004 -0.0829077 0.24935038 0.05636568 -0.24287833 0.22558537 0.03260549 0.02233049 -0.003776168 -0.047135845 0.1395277 0.25903577 -0.40068838 0.04268975 -0.11682339 0.2443401 -0.04505945 -0.045888543 0.085605286 -0.14831232 -0.28907314 0.0846971 -0.17792307 -0.18427789 0.021547528 0.008612151 0.04834503 0.1272029 -0.10107443 -0.3028339 -0.3043623 0.40066332 0.35359922 0.06448378 -0.33295947 0.07053117 0.22878824 -0.103101 -0.06767063 0.014703688 0.05017652 -0.109217905 -0.08652213 0.2659152 0.15752092 -0.2612251 -0.037590772 -0.034248617 0.34704834 -0.1752188 0.12082024 0.25387636 0.1428044 -0.013650411 -0.25415984 0.09281685 -0.03546008 0.0125855105 -0.10326009 0.064626075 0.047990575 0.16502759 0.2657709 0.046153884 -0.22333032 -0.20509827 0.14181675 0.07895979 -0.15577912 0.25948188 0.022550507 0.040207915 0.057341177 -0.048138235 0.10680044 -0.14834692 -0.14037009 -0.015243874 -0.11610865 0.0024956472 0.09337358 0.23674823 -0.022713756 -0.34385282 0.0733926 -0.23020169 0.17257777 0.17794837 -0.30489102
1286 0.17377038 0.23601484 -0.0177384 0.042150788 0.059581652 0.09227981 -0.15675303 0.014509965 -0.13569325 -0.065137945 0.14600499 -0.0197367 -0.22976118 0.052991796 -0.14398575 -0.023733443 -0.1295028 -0.020136818 -0.23264673 -0.086474955 -0.24509762 -0.25147364 0.13436416 -0.16220644 0.26874715 0.067027606 0.13316053 -0.20348333 -0.16828105 -0.039432608 0.33530635 -0.18271029 0.08265105 0.036758486 -0.23581174 0.15189283 0.01122706 -0.18357469 -0.05566782 -0.014160675 -0.107490554 0.054576926 0.29279315 -0.22338259 -0.3304226 -0.12149329 -0.011831405 0.021515794 0.108301856 0.19153693 0.11538944 -0.08993276 0.13578457 0.021219188 0.052767146 -0.14890575 0.08303691 0.004884969 -0.06154984 -0.16937909 0.056605734 0.18481584 0.064568095 0.12451862 0.21758376 -0.29187825 -0.09550924 0.15732527 -0.27906927 0.0045393333 0.31695533 -0.121141255 -0.09688452 0.11141469 0.414084 -0.09096473 -0.04758686 -0.20809707 0.03560023 -0.24929895 -0.007936494 -0.27475917 0.18609591 0.209061 -0.077116646 -0.15596321 -0.19312654 0.44589916 0.27366567 -0.027033988 0.1250281 0.07604064 -0.0072935573 -0.026772812 0.060722295 0.013020094 0.12065252 -0.26345512 0.033127666 0.25231308 -0.027241554 -0.22843471 -0.14430211 -0.14115135 0.03977065 0.12279345 0.0021352894 -0.005911007 0.09180271 0.11669057 -0.053792655 0.2541889 -0.042543616 0.041813668 -0.28089207 0.020105151 0.06286177 0.16205364 0.16679111 -0.014945508 -0.27501637 -0.15901409 0.07291123 -0.18309654 -0.27875674 -0.055010907 -0.043921106 0.044526048
2320 -0.09438463 -0.09581915 0.08320471 0.21152346 -0.21544829 0.030076532 0.06070494 -0.0133550055 -0.106020145 -0.15410839 0.06971163 0.1658436 -0.2517919 0.041153047 -0.16728996 0.067079745 0.019800367 0.09207763 -0.24663693 -0.21741691 -0.07584008 -0.14886406 0.0655963 -0.14260335 0.21569224 0.14798276 -0.03517452 -0.14155172 -0.15270488 0.07517696 0.004622333 -0.08034564 0.11008166 0.1033359 -0.11344865 0.04174248 -0.24757802 0.017818544 -0.0047460278 -0.0019476847 0.09342764 0.24500743 0.2729607 -0.20086427 -0.10304423 -0.11932145 0.21296303 0.23244038 0.26104438 -0.15528992 0.06133805 0.04458997 0.3597817 -0.14022784 0.10941333 0.14348474 0.26309583 0.2622068 0.27908456 -0.12480152 -0.08660691 -0.004346868 -0.005450588 0.20687747 -0.08823443 -0.2636119 -0.22240281 0.0025024978 -0.16911668 0.21665457 0.099475324 0.11698263 -0.26052102 0.0866786 -0.062367685 -0.09958333 0.048980813 -0.30448017 0.07694112 -0.20429094 0.0013211042 -0.290555 0.2736353 0.15937337 0.18789281 -0.051357515 0.08624551 -0.20138146 0.19320996 -0.3509188 -0.13582699 0.3023764 0.2594996 0.12572797 0.14322999 -0.0063186223 -0.17258918 -0.11259232 -0.086183585 0.13676341 0.23940815 -0.23812042 -0.056092326 -0.17995612 -0.03903475 0.16480674 -0.15014915 -0.07209436 0.07341431 0.08700806 -0.040692788 -0.110562846 -0.18278244 0.18072475 -0.14348347 -0.1363161 -0.0048342724 0.049104687 0.093099445 0.09535351 0.15767977 -0.02290871 -0.09599154 0.05145115 0.04342837 -0.10370611 -0.15674233 -0.037401248
2623 0.074881464 0.053298805 0.12897225 0.08714319 -0.035814323 -0.040848304 0.010755712 -0.02683615 -0.002598205 -0.25248113 0.17522319 0.0575883 0.23789145 -0.07687454 0.17171052 0.018616825 -0.26915264 0.019477546 0.036514416 -0.17894965 -0.012388207 -0.12620054 0.16357188 -0.08286594 0.22020473 -0.14107539 -0.08730569 -0.19421372 -0.013202691 0.20036943 0.20529638 0.051276926 -0.039422724 0.24648333 0.05253245 0.061763532 -0.18115805 -0.04828357 0.08277741 0.08588111 0.49532714 0.08535701 0.081653126 0.08969066 -0.14849694 0.020013517 0.1282061 -0.020412311 0.17184924 -0.28123507 0.22111888 -0.105302684 -0.28632468 0.012924713 0.22695583 0.0034266757 -0.36951274 -0.07749647 -0.212256 0.22027263 -0.0637746 0.08422958 0.014812216 0.109754786 0.15432698 -0.30279982 0.10015422 0.20082527 0.06961428 -0.062261827 0.09507862 0.32379118 0.0026757072 -0.16887844 0.15709755 0.09378879 0.24216114 -0.31390586 0.031972207 -0.0902809 0.10298302 -0.10334818 0.11074617 0.057315584 -0.21670668 0.17874669 -0.2236047 0.15797743 -0.006770603 0.09163547 -0.038761243 -0.1534011 0.017636823 -0.16590546 -0.1290085 -0.08984451 -0.18552059 -0.15588443 0.31468505 0.37486178 0.077833615 -0.2059433 0.27745494 -0.16604838 0.1494572 0.07092498 -0.0993116 -0.105749555 -0.00015825234 0.03279897 -0.09493957 -0.16943228 -0.35830826 -0.0495451 0.093445815 -0.22052237 -0.0028401366 -0.16669263 0.16674484 -0.035272438 -0.08855759 -0.34268448 0.07665544 -0.099463776 0.16299601 0.21665762 -0.1663714 -0.27510694
163 0.2745142 -0.048209816 -0.06490202 -0.14070395 -0.111812964 0.19698553 0.13003153 -0.25931308 -0.15282252 -0.14547262 -0.22826445 0.2717889 -0.06341166 0.12285221 0.09782284 0.09549913 -0.120540194 -0.09432828 -0.2850536 -0.28800297 -0.0025125882 -0.10155059 -0.16120273 -0.3230593 0.34052467 -0.012692342 -0.118764356 -0.15571135 0.01167657 -0.045921557 0.4131248 -0.12254522 -0.030374438 0.30498892 -0.015517969 0.16396378 0.107927494 0.1568483 -0.11150715 -0.030601883 -0.0551724 0.26896438 -0.0073500397 -0.27630734 0.21547124 0.006194791 -0.1216967 0.0703427 -0.14745119 0.0972328 0.23935874 -0.37781015 -0.114268385 -0.2711101 0.37393644 -0.018425161 -0.117244996 0.06869942 -0.221909 -0.290475 0.13117003 -0.058679376 -0.2693779 -0.074956894 0.11839221 0.053587493 0.09406579 -0.18462844 -0.23734175 -0.1957209 0.39039716 0.34098232 0.039738566 -0.31686386 0.099443555 0.24561538 -0.16882423 -0.13126752 0.07387629 -0.023936026 -0.012488592 0.00021542465 0.21102451 0.2534906 -0.21944185 0.011964499 -0.06903351 0.11682047 -0.10189081 0.11204131 0.24056633 -0.013589589 -0.01095291 -0.20941849 0.08144529 -0.06704913 -0.04081293 -0.29278183 0.03838834 0.092968754 0.091576174 0.29704338 0.04385874 -0.21989104 -0.21852198 0.10048185 0.15125115 -0.24538167 0.039202906 0.0132461665 0.06780007 0.13616766 -0.09748652 0.11986964 -0.1474407 -0.11230402 0.03028509 -0.07733492 -0.085981175 0.18306845 0.20009364 -0.06643742 -0.28648394 0.110826306 -0.18208545 0.2029761 0.18175921 -0.303242
141 0.19678648 0.14495304 -0.061220776 0.14022027 0.1310787 -0.07563267 0.17846186 0.072898924 0.1269301 -0.15935248 0.07690693 0.0015561397 -0.15655491 -0.089202315 0.0019322832 -0.21247704 0.028393969 0.2642942 0.2902603 -0.2953914 -0.19137798 0.16189587 -0.3091273 0.04619475 0.15670252 0.06909682 0.034503132 0.109050006 0.10189668 -0.09175397 0.20666195 0.07899594 -0.0676276 -0.10753446 0.1674138 -0.10939439 0.05996978 0.13356704 -0.031452205 0.050603714 -0.110087655 0.0028381457 -0.07283341 -0.1504617 -0.06267701 0.19679992 -0.023925245 0.27135488 -0.058027387 -0.03319804 -0.03141573 -0.17360009 -0.094138406 -0.13987955 -0.12966953 0.27468935 -0.1798427 -0.11406647 -0.06141979 -0.029780999 -0.37971032 -0.23461314 0.021975005 0.11410712 0.20484617 -0.04716387 -0.09571239 -0.05768368 -0.099674106 0.13663772 -0.07407506 0.11334258 -0.10812129 0.19175966 0.06200304 -0.10547836 0.085116826 -0.09890516 0.069422536 -0.07169164 -0.20672342 -0.07455475 0.25148532 -0.029157724 -0.051447492 0.3061246 -0.012332416 0.19872266 0.28829846 0.07218084 0.071517095 0.06626465 -0.14235616 0.088214785 0.27554464 -0.09776406 -0.23905063 -0.03174372 0.07891331 0.13584906 -0.025160778 0.17612432 0.04057321 -0.2645483 -0.14353506 0.21488024 0.06604678 0.055495486 -0.03815947 -0.061243236 -0.016700083 0.008489332 0.20459619 0.006528919 -0.11788212 0.1112131 0.08888517 -0.26618648 -0.23917294 0.22928956 0.040420756 0.13894099 -0.049267508 -0.287616 0.027497571 0.11904752 0.12618364 -0.16262257
1489 0.0091612525 0.09756455 0.0081347 -0.010281583 0.11914362 -0.0049577435 -0.08158073 0.1497255 0.004333145 -0.07574075 -0.09935277 -0.016035892 -0.13556132 -0.004424233 -0.05957337 -0.028982101 -0.09223576 0.07466413 -0.14907606 -0.01621698 -0.34508446 -0.012094871 0.09044583 -0.2906688 -0.04158962 -0.064645685 0.1338021 -0.14264242 0.19690935 -0.14190313 0.2076962 -0.28074187 0.19763435 0.008727216 -0.14025852 0.22816142 0.012345854 0.026856873 0.16350265 -0.20914918 0.26498458 -0.10290334 0.1403614 -0.25874373 -0.06701985 -0.048618037 -0.03574181 -0.13911715 -0.32414347 -0.18786497 -0.23689923 -0.25589865 -5.659276e-06 -0.09567574 0.16006567 -0.21693471 -0.0412577 -0.031471457 -0.0429679 0.108391486 -0.07099841 -0.12849112 0.012103503 0.19002573 0.058692876 -0.05690278 -0.053840373 0.15030271 -0.11644883 0.24175707 -0.013549909 0.15911752 -0.049266163 0.23969962 -0.05192353 0.22522622 0.17207846 -0.21928133 0.00070336886 -0.08860806 0.2152722 -0.21806093 0.21876137 -0.02831237 0.060480263 0.027750075 -0.31385073 0.17492385 0.29286766 -0.16479006 0.061976552 0.11330994 -6.56686e-05 0.29936743 0.31060836 -0.07854945 0.06299128 0.009962976 -0.0042315614 -0.0422113 0.13713437 -0.23837715 0.14199336 -0.25854 0.0420321 -0.0011702706 0.12241167 -0.06419187 0.14154342 0.03067285 -0.060589895 0.00782515 -0.089258455 0.1091166 -0.16747406 -0.17129423 0.13661407 -0.14144102 -0.064970896 0.08316701 0.06387388 0.15016791 -0.022542134 0.09315562 0.0041551683 -0.15707806 0.0074055213 -0.118696876
420 0.10145831 0.13881388 0.14495912 0.012726114 -0.21249054 0.12504643 0.22977161 0.012686069 -0.36765632 0.023954647 0.33987355 -0.20329964 0.23398721 0.023783598 -0.24217646 -0.24168496 -0.21761495 -0.16832966 -0.3154475 -0.15354425 -0.10553601 -0.019198 -0.024366675 -0.07722186 0.2477967 -0.046295978 0.09829612 -0.037755553 0.10533328 0.04334157 0.32163 -0.049683545 -0.31634417 -0.053841665 -0.13230945 0.019452408 0.15260933 0.0067145177 0.18198435 0.07442005 -0.01180838 -0.05967896 0.21766838 0.03058992 -0.22627689 0.15777646 -0.16384324 0.15436485 -0.01820021 -0.13870274 -0.03388324 0.102706835 -0.012141875 0.060187314 0.062111553 0.04771386 0.0105417 0.24689169 0.13381942 -0.23889394 -0.10209054 -0.0026283637 -0.04466611 0.2618943 -0.085578166 0.0011221361 0.35008404 0.19735014 -0.2272443 -0.0018734055 0.046498373 0.083817676 -0.20895374 0.13914518 -0.16774589 0.00306656 0.19708614 -0.26062262 0.048147503 -0.057961177 -0.044409443 0.04311136 0.13714786 0.015322948 0.04781143 0.1160829 -0.12210151 0.007956528 -0.28414896 0.28448093 0.27099526 0.41481656 0.1421439 -0.1633753 0.21406744 0.21270683 0.39798066 0.017437223 0.13027781 0.09189507 0.14196897 -0.41132677 0.08512505 0.0594716 -0.11999351 -0.13532253 0.1906584 0.20995893 -0.14678334 0.10060583 -0.05028307 0.22989513 0.25869015 -0.004965195 -0.039559234 0.32054716 0.026944427 0.064737804 -0.014925348 0.010417992 0.1770933 -0.267757 -0.019213267 -0.24739172 -0.027666915 0.048337623 0.3480675 -0.16134478
651 -0.11424644 0.3316049 0.04562621 0.16964033 -0.15681921 0.07296158 -0.070108 0.11449896 -0.23457207 -0.030691888 -0.038758498 0.44785002 -0.09772727 0.059205562 -0.28149006 0.06310477 0.18105438 0.20092613 0.0521121 -0.22171266 0.38948423 0.053734522 -0.49715587 -0.12345427 0.07911363 0.10602935 -0.060831424 -0.05607068 -0.13306707 0.11221172 0.18663369 0.036619492 -0.06516568 -0.11894508 -0.06572067 0.00859951 -0.49130455 0.25049126 0.15105492 -0.031948466 -0.18650125 -0.014247775 0.08879606 0.11063803 0.26469836 -0.102060534 -0.13661341 0.2986627 -0.26731032 0.1352146 -0.21424139 -0.036941964 0.16691175 -0.0019003525 0.20494688 0.007749234 0.16065855 0.2131846 0.06977467 0.03713388 -0.021358998 0.2786512 0.099801145 0.14420135 0.21315348 -0.093035586 0.30590487 0.25504717 -0.21340749 -0.13109761 0.018071614 -0.028313084 -0.31043622 -0.08424428 0.2104346 0.047249436 0.26893523 0.08887736 0.30545023 -0.31666672 0.010043606 0.026690977 0.26994458 0.2383722 -0.11195706 0.28058484 -0.029701708 -0.12297011 -0.009588419 0.04576199 0.08189008 0.08575841 0.13106237 0.21419273 -0.05932462 -0.0885654 0.0005228598 0.23396719 -0.150173 0.24601395 0.11009557 -0.17733742 -0.010277437 0.17757857 -0.3557613 -0.29653084 0.308013 0.022704573 0.290056 -0.008709037 -0.041844927 0.11189629 -0.002026845 0.1535006 0.049229573 -0.08704297 0.051016677 -0.1464767 0.06384905 0.090937056 -0.019127036 -0.06711965 -0.14191353 0.046990983 0.014697264 -0.0072644185 0.26020125 -0.1096866
162 0.277413 -0.10069182 -0.11076956 -0.24880557 -0.09000712 0.14352405 -0.0044864938 -0.24057308 -0.15274052 -0.22194979 -0.15527327 0.22056043 0.054250333 0.1143852 0.08217361 0.14106546 -0.20993675 -0.038887847 -0.27279618 -0.23490328 -0.0689794 -0.09377037 -0.30199325 -0.30008236 0.336964 0.05728643 -0.2312451 -0.16589367 0.066390015 0.10108445 0.43397456 -0.090931006 0.028796602 0.34798965 -0.028002635 0.12520187 -0.02409212 0.24174608 -0.12955308 0.021818148 0.029243207 0.24303165 0.08254244 -0.24361126 0.08128649 -0.08429716 0.049530633 0.15620175 -0.055542007 0.14926177 0.29022953 -0.41733903 0.054717354 -0.23563138 0.1942047 -0.009169774 -0.1644786 0.23630887 -0.12378299 -0.303736 0.04483002 -0.16538061 -0.2781633 0.074048504 0.122676454 0.07742001 -0.013800164 -0.06823048 -0.2542388 -0.21266071 0.37706944 0.35061833 0.09090864 -0.26566866 0.0842598 0.25716498 -0.11699994 -0.07412196 0.05571456 -0.16651681 -0.017610867 0.05821012 0.21164435 0.14921157 -0.2811058 -0.04601654 0.009767146 0.21950287 -0.10365591 0.13321097 0.24658467 0.07286477 -0.12583394 -0.22597353 0.06426135 -0.0821361 0.08768447 -0.1637792 0.0107719535 0.08248173 0.09579451 0.36947122 0.017191887 -0.22941522 -0.10420679 0.0012430722 0.053862404 -0.24002093 0.12368693 -0.042804353 0.09491354 0.18031666 -0.045017134 0.07188179 -0.044269115 -0.053677447 0.05088454 -0.07679738 -0.040072642 0.09239994 0.20072182 -0.1327884 -0.23060994 0.12610008 -0.22678405 0.17986116 0.20266312 -0.34602404
613 0.15170874 0.081387974 0.14815167 -0.018259952 0.037241034 0.22481643 -0.1642589 -0.10841468 0.16093913 -0.07407805 0.17515144 0.06207798 0.03600425 0.08731386 -0.011216749 0.080080256 0.22714713 0.06450176 0.22570167 0.052785456 -0.11564286 -0.12986486 0.04567355 0.032566156 0.15474589 0.05906867 -0.000719171 0.27815694 -0.1558917 0.3243177 0.2667877 -0.10968836 -0.11749544 0.2690693 0.0140584735 0.058820236 -0.055988315 0.29111135 -0.064448014 0.28268656 -0.0065974845 0.14202474 0.16834089 -0.12688215 -0.11768607 0.062135126 0.028437657 -0.14340654 0.10228616 -0.26989982 0.027569594 -0.119940385 -0.19381899 -0.16981906 -0.041718 -0.13445956 0.054551646 0.19032907 0.17450748 0.221879 -0.05844082 -0.039292544 0.2077044 0.039065734 0.07023342 0.23088555 0.06467992 0.3833943 -0.1986352 -0.13729662 0.06738207 0.095916405 -0.26546606 0.11892877 -0.10428335 -0.014186474 0.36030623 -0.08831405 0.12030066 -0.1263322 0.19977865 -0.07326193 0.09245642 0.14819227 0.13637723 -0.07208895 0.020004703 0.0010273722 -0.25009263 0.2503611 0.046835117 -0.24606052 -0.16487615 -0.25789827 0.23439708 -0.30147058 0.24538355 -0.0020829102 0.19144152 0.06250794 0.04594106 -0.30549967 -0.12153812 -0.15795937 -0.07212699 0.013599176 -0.02137913 0.40312484 -0.05443898 0.18785715 -0.10780605 0.0067929486 -0.077596836 -0.08369147 0.060570274 -0.29738465 -0.059622865 -0.16814826 0.18560381 0.023521174 0.20975389 -0.050693292 -0.13340506 -0.3197946 -0.06335939 -0.12720084 -0.04376973 -0.007933659
213 0.022152323 -0.12498986 0.13467138 0.20447823 -0.3310057 0.011074613 0.081767924 -0.11435583 -0.02991918 0.061593678 0.23332864 0.10442029 -0.270557 0.28105846 -0.046693686 0.0796926 -0.088004306 -0.22566792 0.002723435 -0.11583157 -0.038702987 -0.30030766 -0.06875107 0.08949705 0.15830608 0.21646482 -0.033072438 0.11132571 -0.130818 -0.15799285 0.0775763 -0.22937447 0.18131022 0.11189956 0.09435497 0.08609098 -0.077274054 0.021916928 0.123190396 -0.2090057 -0.041367676 -0.104374506 -0.070345856 0.048796587 0.31471896 -0.08393234 -0.00052591384 0.074341446 0.028472269 0.16453642 0.19280894 0.30141655 0.031232707 -0.18164138 -0.16282174 -0.07722132 -0.1220938 -0.08243539 0.22093561 -0.31835008 -0.22083735 0.023283264 0.30907917 -0.17082007 0.33393943 -0.047623016 0.2280001 0.061166324 -0.18520321 -0.010806463 0.08206104 0.027331749 0.025599416 -0.21650434 -0.073850654 0.18734549 0.05935976 -0.23536207 0.00013181557 -0.22499171 0.31594154 -0.017032199 0.119715236 -0.21229054 -0.30891764 0.46074948 0.018870132 -0.03638027 0.4638366 0.13943562 0.29501432 -0.05921981 -0.35918146 0.036610797 0.080390245 -9.07018e-06 0.0897598 0.11089201 0.10826082 0.25769144 0.17599046 -0.15950093 0.14701673 -0.15821154 -0.038687386 0.06759023 0.0141160665 0.03388314 -0.10769508 -0.11984767 -0.25556573 -0.14434355 -0.09980527 0.13110147 0.014973971 -0.0118209915 0.24706659 0.14534397 0.11136962 0.2831289 0.17917521 -0.2889579 -0.4150946 -0.18638429 -0.13604383 -0.089083046 -0.39209428 -0.41153833
338 0.06870263 -0.0002380016 0.057126172 0.16533332 -0.10811818 -0.041962713 0.002633159 -0.04512488 -0.017896162 -0.20267598 0.226246 -0.066201456 -0.054961476 -0.00645166 0.011752211 -0.11316807 -0.078538045 0.027543634 0.34895924 0.010956773 0.066170506 0.34516075 -0.035915703 -0.12698734 -0.08040396 -0.10142976 0.15629444 -0.0005440489 -0.056746405 0.15975058 0.14542626 -0.10151348 -0.18535009 0.1475964 0.12617418 0.033569712 -0.119008265 0.018959852 -0.07091182 0.2293746 0.3897425 0.15552801 -0.1417376 -0.015403465 0.1842813 -0.06022557 -0.18004315 0.1342424 0.041381046 -0.07765972 -0.033999838 -0.1199612 -0.11705839 -0.033762064 0.11087127 -0.014430015 0.0057246336 -0.063519605 -0.116333365 -0.13895468 -0.09207504 -0.00095461827 0.13685101 0.06650641 0.16649815 -0.048382733 -0.017617162 0.038546745 -0.25678533 0.28750098 0.14823142 0.07525646 -0.103677385 0.24020559 0.0009924221 0.07837287 0.24573319 0.030269582 0.020572918 0.056359608 -0.23378779 0.025545876 0.17867544 -0.18275787 0.08976429 0.12383334 -0.18200779 0.022520216 0.10568301 0.02228793 0.15279998 -0.13303268 0.085941166 0.24739543 0.33028695 -0.024504505 -0.042290833 -0.11931478 -0.043584723 0.17958605 -0.12422349 -0.09007795 0.077428065 -0.33555028 -0.06968127 0.18428954 0.22984351 0.20949437 -0.015171006 -0.14309971 0.062157415 0.06580298 -0.08041546 0.051792648 -0.06998058 0.09308171 0.24117202 -0.14532997 -0.22822064 0.1351741 -0.06488853 0.06809979 -0.13401979 -0.11687276 -0.102898456 0.08096871 -0.10033379 -0.018890342
581 -0.037892047 -0.10389438 0.02736113 0.416583 -0.39415482 0.07250029 -0.13589193 0.20964281 -0.11341963 -0.33519456 0.052299995 0.094404764 -0.21760266 0.085566536 -0.0034144316 0.04889496 0.047247164 -0.15528613 0.120858885 -0.2355897 0.015095581 -0.2353638 -0.12309544 -0.1409189 0.17498167 0.06912108 0.084999636 0.028489117 0.0731282 0.021454256 0.2400766 0.148378 -0.031048905 -0.05733969 -0.30033317 0.07363876 -0.2240309 -0.22744864 0.20638946 0.0012464452 -0.13657673 0.18351841 0.21617197 -0.052064802 0.1533099 0.12777661 -0.13921274 0.044282395 0.118203245 -0.09179278 -0.052268174 -0.027805513 0.1948157 -0.36800557 -0.057349835 0.00812736 0.036000103 0.17875849 0.06448508 -0.037255887 -0.34409842 0.12694795 -0.25648037 0.15038943 0.1080833 0.10311523 -0.0014203782 -0.100220755 -0.12101965 -0.32117534 0.12417678 0.07028308 -0.17317972 0.14801204 -0.019184032 -0.16529919 0.5812087 -0.084169514 0.13447519 0.061640054 0.1802375 0.37636036 0.22066633 0.030834852 0.052893214 -0.060767595 0.00060582504 0.17637834 -0.09228116 0.081909575 -0.11910295 -0.34422857 0.089138605 0.09171442 -0.15063867 0.25590786 0.29881305 -0.015525278 0.16424121 0.28238666 0.2124396 0.12601854 0.028563581 -0.09334237 0.3458005 0.33471388 0.2191032 0.08462284 0.13226405 0.06568356 -0.16828461 0.15989468 0.097342305 -0.020456972 0.07259207 -0.30735442 0.1867738 -0.19236118 0.1937303 0.24682614 0.23560178 0.19750127 -0.08531957 0.019613469 0.03561671 0.20410343 0.022169419 0.019147618
171 -0.05891335 0.40092918 -0.03196791 0.11345043 0.15393153 0.10705442 0.28735322 -0.07796439 -0.048038956 0.11026397 -0.19558872 0.09961139 -0.11659467 0.16718587 0.1638944 0.31338504 0.073617585 0.3330054 -0.10497974 0.013831311 -0.2585198 -0.137844 0.24280499 -0.14945109 0.0034960317 0.2807102 -0.005157589 -0.13353132 0.20406047 -0.13777825 0.39898473 0.06257138 -0.08569896 -0.04491965 -0.25824532 -0.026447736 -0.092618085 0.18062459 -0.043816358 -0.3222725 0.22302438 0.3604412 0.036240324 -0.28012007 0.019279953 -0.1792642 0.04008074 -0.07587931 -0.2637607 -0.21368259 0.066724606 -0.024228195 0.34820238 -0.16427739 -0.038381513 0.03568029 -0.3545149 -0.061821025 -0.021223726 -0.22581606 -0.22231933 0.08562159 0.16039942 -0.016369957 0.21531837 -0.21915689 -0.043424856 0.15663244 0.2990937 0.20294227 0.0385606 0.17490655 0.011245851 0.1517953 -0.032146364 -0.042749356 -0.060778134 -0.18256624 0.14306536 -0.15383655 0.1878888 0.06888676 -0.026917301 0.21783601 -0.021889193 -0.02528855 0.20393011 0.1324827 -0.2546554 0.39441955 0.1777553 0.19938679 0.008805957 0.40081388 -0.0457517 -0.18071157 -0.22782451 0.030334292 0.25361168 -0.09315941 0.046661418 -0.012935115 -0.1482802 -0.29995957 0.4540107 0.091593996 0.17667648 0.2088614 0.18452471 0.10682663 -0.110828206 0.16109352 -0.124819934 0.34047014 0.26798007 -0.08569522 0.24381343 0.108129546 0.3246614 -0.15820181 0.18213075 0.05290325 -0.09733224 -0.29820418 -0.022973271 0.12490527 0.20263459 -0.10524322
