2634 128
2633 -0.26242346 0.16390368 0.10233334 0.00029620982 -0.031599563 -0.3153466 0.048006713 0.116841376 -0.18485707 -0.058478106 -0.09156582 -0.05602244 0.18780787 0.0044903043 -0.17549388 -0.3574141 0.22411892 -0.11967719 0.06813431 0.06689786 0.059202407 0.012219243 0.04341885 0.015328954 -0.04022464 0.18344238 -0.028823003 0.24534263 0.16624904 -0.25113955 0.10915991 0.096658446 0.040184423 -0.23455793 0.20368914 0.076700225 0.14152187 -0.054727226 -0.1327771 -0.044973813 -0.13255887 -0.025567027 0.24680956 0.0037515212 -0.10016922 0.16290735 0.0870117 0.15173076 -0.090884045 0.22135365 0.070442036 -0.22694069 -0.05844305 0.12943113 -0.17869172 0.07655626 0.043714467 0.19809218 0.01497642 0.08561274 -0.008583251 0.08335066 -0.005084496 -0.117252834 0.19485871 -0.16472745 -0.14200905 0.010448025 -0.13257022 -0.23303272 0.054731335 -0.30838227 0.10910294 -0.0023368977 0.04214927 0.15398608 -0.020451868 0.04700396 0.078150705 0.13107714 0.16632491 -0.18833686 -0.11468102 -0.19143036 -0.07620576 0.04367974 -0.04967563 0.02001396 -0.08152591 -0.06638607 0.03686921 0.17770362 -0.40088904 -0.023340154 -0.10183931 -0.082091 -0.16407464 -0.13086504 0.16035406 0.046336547 -0.059387244 -0.012603818 -0.0907807 0.1878613 -0.012767285 0.15631075 0.22438638 0.2037218 -0.062315907 -0.26439875 0.13901195 -0.061501764 0.24221914 -0.19447608 -0.24610132 -0.02657902 -0.13546926 0.070446834 0.062247142 0.037297025 0.22346245 0.13435099 0.32998797 0.19781393 -0.36995506 0.029167745 0.3147116 0.15088607
2550 -0.1251848 0.0970131 -0.01633433 -0.03566432 0.080461346 0.11684556 0.08746111 -0.02416492 -0.07694864 -0.102897994 -0.09586055 0.15822643 0.09080632 0.101284936 -0.025717417 -0.12503238 -0.15645812 0.09259641 -0.08553838 -0.07276156 0.382343 0.04019489 -0.009291153 -0.05934286 -0.0019307887 0.055268656 -0.12507279 -0.014615443 -0.17504853 -0.30749634 0.024825035 0.14285982 0.21831453 0.030463057 0.03329184 0.23726277 0.031844463 -0.03428294 -0.03508578 -0.019228237 0.009678044 0.13771561 -0.00133877 -0.1858211 0.14984505 -0.32324758 0.17501064 0.18992302 -0.21057664 -0.0024505202 -0.023071904 -0.010730684 0.22947535 -0.14530092 -0.10182016 0.045248315 0.12222043 0.2077195 -0.11860501 -0.16116379 -0.093866244 0.04207539 -0.0109036425 0.12995942 -0.026997587 -0.09745383 -0.11798748 0.13177253 0.11931282 -0.24714129 -0.17019886 -0.48702475 -0.00045436822 0.14733969 -0.12928298 -0.022697318 -0.14810695 0.003968351 -0.04351521 0.35810724 -0.008432661 0.24643975 0.18161371 -0.057462472 -0.10455221 -0.14364682 0.002859823 0.29651007 0.12286403 0.11061645 0.007756064 0.015119643 -0.25933525 -0.021178832 -0.091703475 -0.0262322 -0.2096508 0.18654834 0.16968793 -0.41792807 -0.09080337 0.034931332 -0.21066879 -0.14981884 0.06790044 0.0141896345 0.17924902 0.03278617 0.20473553 -0.12657975 -0.016970456 0.08437678 0.017265117 -0.122016504 0.0026611683 0.08666309 0.110158555 0.20775792 -0.27128908 0.1599065 0.54359823 -0.025675148 0.2199864 0.030316796 -0.08782405 -0.10548564 0.16083004 0.16830388
2568 0.11846625 -0.1696654 -0.017891545 0.0093374 -0.29781017 0.11201008 -0.05196807 -0.13718006 -0.13944028 -0.046236172 0.17191449 0.07832392 -0.02583789 0.117987804 -0.23023087 -0.06833446 0.0418851 -0.18414624 0.15528107 0.18080989 0.37840274 0.102187335 0.0068596466 0.036620144 0.19538324 0.13130267 -0.04964934 0.058520455 -0.15125903 0.07380778 0.13904074 0.039636824 0.0021501149 0.021553917 0.023399755 -0.03688083 0.029695412 0.024353214 0.12176395 -0.15247336 0.14726385 0.14410351 0.050798435 0.093028314 -0.15237771 -0.19067211 0.072970204 0.13182013 0.020588065 0.2810515 -0.07453097 0.07711743 0.12413199 -0.012304558 -0.10284089 0.14344554 -0.053638026 0.13615093 0.15808615 -0.10166726 0.017662464 0.00044076386 -0.053034957 -0.057425067 0.08638311 -0.009253274 0.017769005 0.18666667 -0.107399456 -0.2804342 -0.0017104738 -0.27828157 -0.13037336 0.15102394 0.19354317 0.17150559 0.09158337 -0.16439202 0.032541238 0.39541766 0.28502622 0.011428605 0.10952809 -0.10407611 0.078119025 -0.1114874 0.16994606 0.04529857 0.30821928 0.0555683 0.19689845 0.022434056 -0.2619385 -0.0029561112 0.15443203 0.06212588 -0.2706841 0.0008640156 0.0223025 -0.13442019 -0.14804131 -0.074418195 -0.16831501 0.2636265 -0.22541128 0.2642304 0.016910918 0.031281184 -0.05321679 -0.22565019 0.19545561 -0.026250338 0.19875726 -0.1245882 -0.24506775 0.0056114784 -0.13658598 -0.09545503 0.0868703 -0.071788505 0.09251376 0.057198983 0.10542666 0.062019337 -0.084632926 0.08307666 0.15509214 0.14295578
2604 -0.11652473 -0.02237966 0.0963043 0.1032436 0.12647352 -0.086993515 -0.17613174 -0.021135613 -0.01439624 -0.20072043 0.0545964 -0.0101996455 0.24080575 0.24707021 -0.0997388 0.0027260915 -0.07298056 -0.21781485 0.08644802 0.113559194 0.041190587 0.12463279 -0.09700504 0.067215435 0.17555933 -0.2595239 -0.1939778 0.046436843 0.066352665 -0.11107905 -0.05346046 0.035374917 0.21811411 0.06723908 0.08168615 -0.031226458 0.31830075 -0.047395006 0.12721367 -0.15531202 -0.19889705 0.07463032 0.006398077 -0.050591838 0.19670276 -0.02658242 0.045074824 0.18179967 -0.0029492716 -0.10518234 0.042947177 -0.21210681 0.15799953 0.032136858 -0.22449584 0.08216264 -0.022945631 0.08856756 0.17156394 0.2166678 -0.12360498 0.07350219 0.22031984 -0.07393544 0.12287101 -0.1288053 -0.008376519 0.20355393 -0.009175181 -0.06502412 -0.13271792 -0.00583304 -0.13118778 0.066111974 0.10012966 0.17309365 -0.0036114366 -0.23559055 0.18588948 0.3806728 0.09393278 -0.016024636 -0.12419786 0.03014698 -0.052591316 0.02179458 -0.0035101161 0.080438904 0.034926213 0.051831476 0.1722139 0.3552397 -0.2055333 0.04905346 -0.062233165 0.0984883 -0.004123709 0.007292541 -0.22378787 -0.2737597 -0.1493664 0.122327365 0.016294107 -0.09331423 -0.13802451 0.21254435 0.23442915 0.033330426 0.09256146 -0.16730644 -0.08520625 -0.36961308 0.40769124 -0.08925099 -0.17295142 0.047165718 0.17446804 0.02211947 -0.03382012 0.23285158 0.16204658 0.34303775 0.23657933 -0.04620821 -0.1543687 0.012890798 0.12916167 -0.06259169
2610 -0.31683382 0.15837383 0.14562532 0.0061842874 0.019749964 0.093748264 -0.25576642 -0.019949866 -0.30736956 0.011817097 0.07696107 -0.2684726 -0.114546634 -0.121867895 -0.032615267 0.20940116 0.17511743 -0.025895055 0.21746403 -0.1509154 0.27564472 0.2902406 -0.11243031 -0.015431659 -0.10960668 0.13357903 0.12594834 -0.039123297 -0.22199577 -0.13930029 -0.07720306 -0.0059646196 0.11313457 0.11768783 0.11661899 -0.2822016 0.07004389 0.03561268 0.21973005 -0.06654548 0.059247907 0.22935537 0.28253528 -0.23427245 -0.2263619 -0.038371004 0.1789635 -0.05010435 -0.06897259 0.011327921 0.05683068 0.11191294 -0.13247621 0.059535306 -0.107865915 0.1212081 0.10319399 0.22144122 0.07820753 0.15067239 -0.27015963 0.25524655 0.07623343 0.11135533 -0.0914496 -0.115092285 0.16861774 0.14258373 -0.037935764 -0.021650096 -0.20276442 -0.4005294 0.09626524 -0.21218291 0.031236902 0.14035276 -0.05957329 -0.04273184 -0.06253078 0.25144812 0.009706216 -0.028252231 0.07257204 -0.04056954 0.19664493 -0.2046535 0.3036532 -0.10529646 -0.011324838 -0.2325684 0.17929131 0.17575292 -0.367242 0.30615395 0.020606702 -0.10813955 -0.29544038 0.1083275 -0.26992306 -0.12786923 0.0072313147 0.017997265 -0.027847655 -0.018310659 -0.15337805 0.015721668 0.25839266 0.050970204 -0.18623489 -0.00034215016 -0.037156932 -0.017522076 0.165183 -0.21452488 -0.11013013 0.1421822 0.0511657 0.04860087 -0.10550999 -0.100802734 0.25869069 0.15146841 -0.070448995 0.16820242 -0.18975092 0.082553364 0.13289161 0.27991167
2454 -0.04861853 -0.16573404 0.016398905 -0.2386126 -0.101533055 -0.18076615 -0.24423136 0.19774503 -0.20017268 -0.11351062 0.052158315 -0.21747681 -0.06167235 -0.0033442646 -5.1053867e-05 -0.18771 -0.18573241 0.058665548 0.17425284 -0.033853356 0.0647524 0.12274121 0.122790396 0.09422459 -0.11886685 -0.0427032 0.0036289627 0.014422605 0.085233465 0.05326018 0.061310627 0.019052995 0.24794948 0.05726624 0.09494245 -0.14021204 -0.020370552 0.029808277 0.1416935 0.00030137482 0.074688904 0.28902826 -0.13319245 -0.16248001 0.06752327 -0.22884537 0.08265407 -0.045791607 -0.0075597684 0.1713261 0.179377 -0.34729216 -0.10606521 -0.09789581 -0.26295358 -0.101747684 -0.10190106 0.1061634 -0.006441682 -0.20280126 -0.025587615 0.055551067 -0.04954921 -0.057914384 0.11695921 -0.19343822 -0.16826384 0.10770613 -0.13996038 0.011530689 -0.27031332 -0.23281911 -0.1284941 0.26553896 0.09231707 0.5317576 -0.0040639727 -0.051292416 -0.13033076 0.32524517 -0.030502561 0.1751109 -0.16262634 -0.18398495 0.016154435 -0.0833737 0.03337627 0.13076171 0.101560086 -0.025366819 0.0616128 0.15288165 -0.12531103 0.11796971 0.2786874 0.15074201 -0.032544374 0.049288593 -0.06274544 -0.0693736 -0.22974768 0.012036085 -0.15726276 0.15329331 -0.056764852 0.30442834 0.04541801 0.21537445 -0.129091 -0.23794411 0.0070967376 -0.1658878 0.15444243 -0.039006248 -0.055175036 -0.050537944 -0.00794918 0.10677223 -0.036893092 0.18131845 0.011707839 0.028598264 0.21663009 -0.18255995 -0.12781054 -0.041211944 0.17638953 -0.01857186
686 -0.098107025 0.07926913 -0.0706683 0.12214949 -0.035357352 -0.10406923 0.047734734 0.004686701 0.0677765 0.022733165 0.22407997 0.015132258 0.11075939 0.036910083 -0.0025518467 -0.12108235 -0.042329792 -0.15657592 0.11408495 0.03884817 0.0224698 0.15281206 0.067525335 0.021450792 0.07490051 0.07780314 0.029054375 0.2114286 -0.15245673 0.19486333 0.11384115 -0.046082485 0.059707336 -0.18871856 0.03556763 0.15064585 -0.06798461 -0.0455927 -0.027560992 -0.16038679 -0.021911673 0.044597663 -0.1872796 -0.14743637 -0.09882605 -0.061584927 0.058201212 0.09167519 -0.12906455 0.008505146 -0.024937507 -0.095903285 0.053437002 -0.06772878 0.10018266 -0.065859504 0.06706725 0.119937494 -0.008352313 0.20197129 0.07318586 -0.010359395 0.1005821 0.19314475 0.00829385 -0.09558617 -0.051032215 0.117293954 -0.061721507 -0.0074410005 -0.056271728 -0.024929915 0.1056823 0.037866525 -0.029306592 0.016864562 -0.09177492 -0.10338197 0.042140346 0.113999 0.074694686 -0.1032217 0.17917097 -0.0954446 0.027852777 -0.04304053 -0.089525335 -0.025945619 0.2095184 0.010067753 0.012584541 0.16034731 0.16473414 0.040408157 0.08214253 0.115929104 -0.14908934 0.012560515 -0.0026510924 -0.06253161 -0.034750633 -0.004676749 0.0064602126 -0.031281784 -0.087490045 0.19406185 0.009795375 0.22448412 0.010754121 -0.055845235 0.04458886 0.04496599 0.008599427 -0.12228175 -0.04899403 0.12876083 0.14180122 -0.041691326 -0.1274748 -0.1319697 0.11440407 -0.08800725 0.28857502 0.016377468 -0.14171924 -0.0035316052 0.16635938 0.1488765
2464 -0.017498523 -0.07700108 0.29906943 -0.20645288 -0.12918475 0.015500166 -0.44151208 -0.1516891 -0.07674664 -0.34426633 0.041599464 -0.29586256 -0.032501146 0.42338002 -0.29909348 -0.13532098 -0.07147718 0.11204831 0.57404673 -0.09172949 -0.081747815 0.08079537 -0.5889388 0.1424443 -0.14403081 0.41051707 -0.22314677 0.2194143 0.28172922 -0.23562318 0.22046004 0.27753207 -0.09998533 -0.25895596 -0.22778104 0.52023655 0.19836204 0.14755945 -0.024981871 0.30296758 0.00965164 0.22393468 0.0015570532 -0.13969657 -0.50439346 -0.76147026 0.30322725 0.53044266 -0.041969772 -0.14867128 0.0675146 -0.107711345 0.121621124 -0.067448206 0.25100008 -0.15102421 -0.44252527 0.29821986 -0.14941052 0.056033373 -0.013983099 0.57625484 0.374669 0.6192301 0.37589097 0.12503879 0.04858338 -0.22007239 0.034306344 -0.04492009 0.24145813 -0.36117116 0.03052957 -0.07000867 -0.24098049 0.1973289 0.049493946 -0.44758728 0.028881405 -0.08668536 -0.10733506 0.099452406 0.30369824 -0.30691618 -0.09542719 -0.19635458 0.26085675 -0.33501047 0.119886644 -0.27098334 -0.3191882 0.31157613 0.027388126 0.49149972 -0.07262076 0.3689923 -0.31160054 -0.18570712 0.06272783 0.43787125 -0.058549266 0.054454226 -0.063558586 0.09720541 -0.14149047 -0.058857296 -0.054716088 0.14231509 0.6298139 0.1257344 -0.24573593 -0.35977837 0.1681509 -0.10874542 -0.14168799 -0.15401195 0.11498993 0.3176247 0.032779388 0.24579982 0.43573245 0.073528096 -0.015901912 -0.23680551 -0.12563035 -0.14973994 -0.14392895 0.5759795
249 0.034580726 0.09750611 -0.08028658 0.03456603 -0.18035136 0.007550807 -0.042926766 -0.08869902 -0.1485891 0.22650608 -0.11754884 0.04923486 -0.089592494 -0.05143632 0.032129265 -0.11837109 0.075573675 -0.21073706 0.04653536 -0.1054529 -0.24815677 0.23904575 0.08397428 0.04540846 -0.39899537 0.21306391 0.22583312 -0.23536123 0.035859175 -0.17035809 0.023314966 0.24799362 -0.08585592 -0.08578715 -0.13234559 0.05907071 -0.02500239 0.06217529 0.030911477 0.11476071 0.022173915 0.094993085 0.030696025 -0.07647154 -0.22068965 0.00832929 -0.21899053 -0.021662429 -0.3250826 0.04704445 0.052349277 -0.011490545 0.09924518 -0.015028147 -0.14057164 -0.08157234 0.11924334 -0.022394791 0.2571819 0.086349785 0.05253535 -0.013203545 0.182306 0.048579723 0.23923592 -0.13198674 0.07900192 0.1295246 -0.02283989 -0.13377035 0.038869318 0.041373637 -0.15692548 0.100436345 0.095174275 0.2552059 -0.13541563 -0.130855 0.20110315 0.19894035 0.07240447 -0.048119795 0.34521824 -0.40067297 -0.12288978 0.038362462 -0.0032879075 0.31608233 0.3034313 0.23245394 0.09326912 0.18661503 -0.020596009 0.39005044 0.14239845 0.15623781 -0.1246827 -0.040388383 -0.013195075 0.054134604 0.06551326 -0.03737415 -0.09343402 -0.11981977 -0.031129546 -0.11969004 0.18259907 0.10976485 -0.13974056 -0.22777644 -0.19024764 -0.15519376 0.010052883 -0.14728673 0.12627341 -0.041347597 0.075051054 -0.15321687 0.05115377 0.16640313 0.22153033 0.17751037 0.15735291 0.0059069726 0.119622186 -0.14407927 0.026190449 -0.048148464
36 0.029276557 0.054034643 -0.013680641 -0.07218124 -0.16042608 -0.030206325 0.027883027 -0.152847 -0.15312609 0.16824524 -0.117228344 0.08042127 -0.07606831 -0.020634998 -0.041789606 -0.16285941 0.023865724 -0.15816797 0.055959377 -0.10126786 -0.2521978 0.17900763 0.07266265 0.05985744 -0.3824458 0.26038507 0.26405314 -0.30839768 0.0270361 -0.17531554 0.07715178 0.23820454 0.05128339 -0.09470525 -0.10683947 0.11578443 -0.060039014 0.07966854 -0.030156186 0.060442097 0.020200208 0.09062735 0.0051923823 -0.025878554 -0.24470615 0.036838297 -0.19773105 -0.039172795 -0.32963774 0.046802927 0.09052191 0.03684577 0.08387201 -0.059028763 -0.17307389 -0.018085102 0.11420887 -0.0002861754 0.27333006 0.12771297 0.051459044 -0.023439843 0.28232673 0.031172225 0.30976477 -0.19648974 0.03228283 -0.010889878 -0.05490158 -0.10177118 0.010448157 0.07760879 -0.107607804 0.12262912 0.12899476 0.26081777 -0.06923473 -0.034638602 0.19254842 0.1932822 0.061695144 -0.0742101 0.36231953 -0.34423193 -0.13430932 -0.0062561147 0.07018773 0.34379503 0.2809654 0.18920891 0.15122513 0.16899142 -0.0049041905 0.3591332 0.14694905 0.15531813 -0.063105896 -0.07585237 -0.0066213384 0.08875428 0.13581008 -0.051075563 -0.092607245 -0.20337032 0.025055135 -0.06919465 0.19546549 0.07339235 -0.13554765 -0.19731222 -0.08889885 -0.1429986 0.009895287 -0.11406369 0.051112972 -0.012516759 0.070456706 -0.14885192 -0.035169605 0.21416467 0.2647624 0.10704102 0.13461225 0.015551771 0.11652877 -0.15795663 -0.024513096 -0.008544266
2431 -0.12515008 -0.09672844 0.117200546 -0.07805421 0.063103996 0.12704226 -0.24008663 -0.11244525 -0.097687095 -0.29511616 -0.033991892 -0.117314056 0.09653168 0.194412 -0.09616434 -0.28946906 -0.08442195 0.08568044 0.08585264 0.024892086 -0.0042294464 0.10253305 0.1525056 -0.15005912 0.13257182 0.30279306 0.057572406 0.03823417 -0.11551011 0.016111815 0.07203257 0.18321878 0.18233068 0.23767605 0.0279789 0.019477613 0.17415453 -0.019478804 -0.08739708 0.19032243 0.10427696 -0.017038433 -0.19304553 -0.37151924 0.052057024 0.13294087 -0.013618596 0.17016533 0.19911219 0.12456204 0.0054400517 0.086177796 -0.13607728 0.111701295 -0.09426645 -0.19014321 -0.09740825 0.12258162 -0.04457646 0.059316017 0.008112711 -0.17010634 0.28606308 0.011460033 -0.09914292 0.0099107055 0.09951432 0.027723884 -0.12753831 -0.19988747 -0.34096295 0.096571185 0.27786043 0.19157481 0.10264957 0.20278771 -0.12282503 -0.2275833 -0.08897797 0.3454668 0.17215897 -0.018144127 0.07850126 0.009162382 0.22242261 0.020577844 0.24958248 0.10140798 0.021780994 0.23944943 0.1364015 0.3404355 -0.3061765 0.020708224 -0.16023424 0.05419002 0.009470066 0.024471333 0.027191458 0.16862494 0.011233488 -0.18443517 -0.16766821 0.09842226 -0.19805166 0.18845601 -0.1262299 -0.07624141 0.052683234 -0.19202591 -0.07644441 0.19269317 0.28785273 -0.18826355 -0.28407755 0.14127398 -0.035552803 -0.08271276 0.0010992812 -0.17599037 0.5449292 0.1016149 0.124736495 0.028485827 -0.23963286 0.19003524 -0.2402847 0.08823664
88 -0.021747677 0.044990562 0.031934507 0.032835588 -0.16603737 -0.033824045 0.052524988 -0.11600082 -0.20623334 0.14433537 -0.16269934 0.013519765 -0.10701661 -0.0285928 -0.026959877 -0.13882694 0.07508252 -0.1837685 0.074963115 -0.07655313 -0.28224453 0.13229534 0.12556104 0.10031105 -0.3466067 0.24049917 0.20208775 -0.2790142 -0.033700142 -0.112431064 0.08946989 0.19815764 0.0054472764 -0.16672078 -0.12404393 0.028220408 -0.12318737 0.1525185 -0.019265395 0.14922108 0.0076160887 0.0664078 0.058617976 -0.0011927935 -0.26709223 0.04959867 -0.20141327 -0.042063087 -0.28819713 0.057281483 0.11412803 0.051043924 0.060935076 -0.011205879 -0.09573316 -0.0011569147 0.1488054 -0.023841478 0.30663124 0.13100342 0.092348486 -0.034630615 0.25627887 0.034007214 0.3331069 -0.13429935 0.035290204 0.056473892 -0.04880964 -0.040544387 0.047371164 0.009385018 -0.14021283 0.09688293 0.08168586 0.15925112 -0.09538924 -0.14760329 0.17793426 0.22862181 0.00433743 -0.049301818 0.321371 -0.32535115 -0.090816684 -0.015974846 0.055587832 0.26532513 0.2611906 0.2218098 0.14813592 0.19545056 -0.07839103 0.36820638 0.20522004 0.19711338 -0.064213134 -0.123859406 -0.06635368 0.055464283 0.13885456 -0.007222059 -0.107713096 -0.15701564 0.00458444 -0.07288629 0.23927358 0.0055087483 -0.12949465 -0.25800973 -0.19833691 -0.13277802 0.026241345 -0.14614792 0.10933345 -0.085417196 0.13823166 -0.10670876 -0.004779259 0.2095941 0.25688294 0.116599604 0.14874297 -0.08161375 0.09738206 -0.15933864 -0.0070493324 -0.051601697
236 0.040533617 0.10140118 0.022892702 -0.008715334 -0.2287583 -0.0025788385 0.050386317 -0.12667392 -0.15046982 0.11735708 -0.100128934 0.03553977 -0.048598766 -0.011231063 -0.043408815 -0.19919015 0.05650483 -0.19445531 0.05430118 -0.09027237 -0.18520516 0.18647897 0.15531993 0.046341397 -0.4099752 0.20870043 0.18165635 -0.27018386 -0.021580199 -0.14441326 0.07885021 0.32838944 -0.0038479287 -0.07767648 -0.16006161 0.04489331 -0.070395574 0.08730405 -0.035169672 0.1481303 0.055282723 0.035524063 0.024830116 -0.037080366 -0.2691673 0.014670669 -0.254038 -0.052817564 -0.26505542 0.015349689 0.13028674 0.011441702 0.13802695 -0.0060339402 -0.16564366 0.016532829 0.056247406 0.011621959 0.3029481 0.080563 0.1227356 -0.05014334 0.24037834 -0.03406644 0.3464397 -0.15207106 -0.008214901 0.08694157 -0.102399394 -0.02046041 0.014107861 0.045940105 -0.11484879 0.088100016 0.10950268 0.19229575 -0.09912184 -0.12709013 0.11301276 0.22304451 0.026713422 -0.068218105 0.40053985 -0.33737177 -0.1136845 0.0920901 -0.005485551 0.3830212 0.23879534 0.2514402 0.16563664 0.14837565 -0.058402814 0.32281435 0.13754712 0.16484031 -0.065175354 -0.054994572 0.00596827 0.036420293 0.12896188 -0.03194302 -0.06874067 -0.15398161 -0.008167208 -0.087913446 0.22457173 0.049331203 -0.1106372 -0.19701473 -0.17489201 -0.10165702 0.021344163 -0.115041256 0.09284397 -0.014321331 0.09040653 -0.04777945 -0.005819018 0.15628512 0.2603159 0.09550192 0.10744759 -0.04427202 0.077843934 -0.12317728 0.034848455 -0.027807366
250 0.01846514 0.081197254 -0.02206766 -0.03745666 -0.18821546 -0.008928575 0.019002056 -0.11396584 -0.18465447 0.1721213 -0.14978501 0.077152535 -0.09320837 -0.053087812 -0.054445673 -0.14538477 0.0993433 -0.16260506 0.11443074 -0.1420696 -0.21758056 0.25551528 0.042717505 0.0032919135 -0.40929893 0.22253123 0.13814306 -0.31085974 0.02826353 -0.11502292 0.057788424 0.30900285 -0.0070553403 -0.12962738 -0.077928394 0.09577336 -0.039197784 0.049040314 0.008738299 0.13562728 0.017383786 0.06641573 0.05656961 -0.061082106 -0.3124777 0.01880943 -0.2528069 -0.06766324 -0.38662815 0.08325861 0.04420408 0.06841975 0.12414871 -0.07965704 -0.14790945 -0.015680088 0.16475217 0.011713746 0.23772876 0.113681465 0.12179242 -0.0062522204 0.23988593 -0.02752465 0.24861519 -0.15763631 -0.012092121 0.08206176 -0.042136487 -0.10254026 -0.0056372825 0.03394954 -0.12266535 0.0881872 0.09915831 0.22670214 -0.07687506 -0.05830266 0.18903606 0.18112448 0.06535435 -0.06637213 0.41245306 -0.35904992 -0.14271143 0.07542159 0.09887719 0.27450067 0.22564861 0.26893175 0.19112398 0.16484536 -0.04172013 0.403706 0.19503091 0.150164 -0.099445924 -0.046842154 -0.010779403 -0.003759127 0.081098795 -0.044801343 -0.034592982 -0.15214248 0.040986024 -0.088960014 0.17595537 0.099898174 -0.06346753 -0.223581 -0.10464227 -0.09521078 -0.043835193 -0.09802147 0.06655225 -0.04309745 0.09850818 -0.12841477 -0.045567304 0.14215294 0.25898734 0.08015264 0.10930729 0.06136711 0.099187724 -0.13406542 -0.034094058 0.0046064383
2499 -0.02180599 -0.15672794 -0.10761745 -0.1536983 0.15934181 -0.11200604 -0.004856201 0.08863602 -0.2997411 -0.08380488 0.08286619 -0.03357534 -0.009994359 -0.061686203 0.0007038187 -0.07655763 -0.04062936 0.057697028 0.24976142 0.073142536 -0.009996859 0.10491517 0.13701825 -0.019515598 0.00023637532 -0.13672575 0.3118301 0.18434393 0.18269002 -0.08524011 0.19958852 0.00057137053 -0.06999502 -0.15649311 0.034301467 0.093762584 -0.009459255 -0.009589326 -0.012500744 -0.25320742 0.08155279 0.289562 -0.13635643 -0.064046875 -0.058067277 -0.19356515 0.01804801 0.23995039 0.07167837 -0.28215846 0.017907718 0.14893036 0.06259122 -0.07250683 -0.016894525 0.01690116 0.12415142 0.11610954 -0.06621254 0.03129622 -0.16948122 0.07445136 0.16481373 0.15090173 0.08183064 -0.44705662 -0.0346941 0.3352497 -0.27563968 0.16012253 -0.1532824 -0.23923448 -0.046468467 -0.15623754 0.074831136 0.18419316 0.13509129 0.0018176993 -0.13229562 0.3711909 0.25247195 -0.12962823 0.15361747 -0.10151111 0.0709036 0.03282692 -0.27543232 0.059165545 0.064376034 0.0062010298 -0.019528182 0.26123407 -0.3301136 -0.19951925 0.113564804 -0.10254131 -0.23549455 0.07595139 -0.12497568 -0.047610085 -0.21471728 -0.15070622 -0.044698372 0.048493568 -0.22146471 -0.00045579032 0.397968 0.207067 -0.23580259 -0.08333445 -0.31018516 -0.0034089305 0.13691975 0.034334533 -0.26956403 0.2594055 0.1525232 0.19223659 0.22285038 0.05025269 0.15854016 0.031487927 0.12924954 -0.11103672 -0.12767233 0.09097578 -0.011110113 -0.023915937
195 -0.015672911 0.11626863 0.008561137 -0.048021898 -0.12472338 -0.056022424 0.07517375 -0.11278333 -0.18864831 0.15592532 -0.13407806 0.077684 -0.050061136 -0.1089801 -0.07273091 -0.16223049 0.023268316 -0.19348131 0.12691458 -0.14969505 -0.20877731 0.21017201 0.13624686 -0.00049432 -0.34863055 0.19901185 0.18332627 -0.23011363 0.009491984 -0.0996426 0.09601851 0.25506288 -0.0031391256 -0.03718737 -0.11757586 0.10788186 -0.11744485 0.12474374 0.0044018356 0.20621397 0.057000246 0.080567785 0.031215858 -0.052022945 -0.2051816 0.04954351 -0.18682157 -0.035874374 -0.3020243 0.052267205 0.1375106 0.026331984 0.06563014 -0.038534883 -0.16795199 0.0070594563 0.12010344 -0.009975999 0.3137493 0.17560719 0.038221996 -0.033141695 0.2568514 0.03267202 0.31777954 -0.11911273 0.09036692 0.029109994 -0.07651509 -0.020045096 -0.019976633 0.06581879 -0.13366814 0.1188487 0.09302941 0.19505408 -0.13544893 -0.1305864 0.27796677 0.21668577 0.03300085 -0.08794957 0.37446728 -0.32769156 -0.12771662 0.0696137 0.067760296 0.2693885 0.27987158 0.25380418 0.20046015 0.14541069 -0.03668427 0.41003445 0.16563106 0.14259963 -0.061313316 -0.11626684 -0.00051300327 0.063164696 0.10541179 -0.055839363 -0.09702957 -0.2507809 0.04251277 -0.06533858 0.18683419 0.017819386 -0.10277353 -0.20120424 -0.14814045 -0.11579034 0.026441624 -0.16121425 0.11536699 -0.036914006 0.13888277 -0.14085793 -0.004589957 0.16646075 0.23868632 0.09335289 0.12962893 -0.013892661 0.08293905 -0.18019487 0.057442106 0.023374008
2482 0.064180896 0.14279673 -0.078229636 -0.06486428 -0.25951415 -0.049890008 -0.048024833 -0.106207624 -0.17248715 -0.35328618 -0.21658368 -0.13235094 -0.1342586 0.1328385 0.11585629 0.09738122 0.012077866 0.058682434 0.20931917 0.1603931 0.0025849927 0.18580739 0.062149003 -0.04042805 -0.06578217 -0.015801283 0.029183473 0.08201527 -0.07888444 -0.053539935 -0.29467976 -0.049620006 0.14703004 -0.21400204 -0.026450805 0.15314326 -0.21110824 -0.072347835 -0.19605689 -0.18974641 -0.14805718 -0.32584256 -0.08241832 -0.29817268 0.095054604 -0.26450303 0.25197154 0.29874048 -0.23602505 0.09517032 -0.06428156 -0.18066646 0.3914624 -0.18326391 -0.026046632 -0.18140799 -0.043844897 0.37608993 0.27403003 -0.053491965 -0.10780946 0.12447293 0.20679659 0.06381483 -0.13410102 -0.26672617 -0.074789904 0.23921995 0.119673274 0.13091846 0.20450643 -0.27195868 0.15754725 0.3046935 -0.28306434 0.3171869 0.33230534 -0.35116524 -0.051623996 0.040704843 0.043452203 -0.35127825 -0.23335232 -0.23521385 0.28294057 -0.04220737 -0.2114755 0.05559069 0.037909627 -0.06973898 0.18420629 -0.009432432 -0.4015949 0.42201877 -0.14233041 -0.0076190266 -0.107122764 -0.27228552 0.118421346 -0.2532512 -0.073855326 0.02076096 0.015998147 -0.24671933 0.06301893 0.17292489 0.123643674 0.08720781 0.20436797 -0.18213686 0.23691875 0.29698896 0.3513624 0.03952359 -0.19264881 0.33291093 0.11982677 0.05924689 0.002568493 0.04990726 0.5586279 0.1579445 -0.20370236 -0.01150027 -0.036582407 0.0853403 0.32684994 0.24626833
2617 -0.26280603 0.09437199 0.13699032 0.14562236 0.091280036 -0.043462213 -0.028411802 -0.08354014 -0.05080316 0.05334122 0.16733076 -0.12681213 0.085518934 0.029080277 -0.05146556 0.2511104 0.00586064 -0.03987253 0.1477466 0.20634161 0.20823272 0.110410035 0.09535664 0.06527366 0.049172934 0.0579097 -0.045259558 0.29451504 -0.119816706 0.05862342 -0.012480296 0.10656424 -0.019227164 -0.0733052 -0.045250002 0.2025702 -0.010027652 -0.16642968 0.013343768 0.08715235 0.15113671 0.22174561 -0.06644988 -0.36473018 -0.05084939 -0.043565832 0.15466355 0.109840535 -0.20486276 0.36239865 -0.03904658 -0.042357326 -0.18945374 -0.043759856 -0.19602662 0.09202451 -0.23909953 0.074720815 -0.019923937 -0.027893728 0.032452054 0.2580865 0.039276794 -0.15458602 -0.11186734 0.11139502 -0.0076397564 0.3285123 -0.0033325164 -0.06041389 -0.23700929 -0.21043238 -0.023305424 -0.049182028 0.22074424 0.47921216 0.04770254 -0.2321711 0.10337291 0.23991425 0.09920461 -0.033300098 0.068621844 -0.059846602 -0.0056329328 0.053118758 -0.13826683 0.021389807 0.2145151 0.013273785 0.09802809 0.15613271 -0.06694376 0.051088322 0.21945414 0.19707704 -0.13169709 0.032421295 -0.052197367 -0.11079981 0.01723127 -0.2237271 0.025543785 0.113327965 -0.04859338 -0.04498806 -0.042564202 0.3365651 -0.22246632 -0.19542895 0.1523022 -0.06244494 0.27076873 -0.13157411 0.17267407 -0.093834095 -0.18207169 0.0578522 -0.053775374 0.077460095 0.48710713 0.034076598 0.16769585 0.12238129 -0.03431372 -0.09548056 0.23388688 0.11851525
2614 -0.05078147 -0.18766959 0.037875682 -0.22711669 -0.036943838 -0.02739475 -0.10520937 0.19325836 -0.18685396 0.21756883 0.060673002 0.0036171593 0.1029887 -0.015944842 -0.044973694 -0.19035651 -0.16840728 0.04214151 0.06207086 -0.099733755 0.058834005 0.17230488 -0.00897738 0.21337084 -0.16902988 0.17042552 -0.029947879 0.12685996 -0.32197496 -0.17859718 0.2969541 -0.17084283 0.23560458 -0.0023366453 0.09408861 0.38848546 0.15147601 -0.17416106 -0.24181521 -0.18460785 -0.21431181 0.27615547 -0.19882743 -0.007235912 -0.28924105 -0.12102162 0.18687989 0.106853046 0.17254223 0.064551495 -0.1439753 -0.045127615 -0.13261747 -0.05691586 -0.104776666 -0.15625045 0.25446627 0.097482376 -0.1664771 -0.04816309 -0.1708154 -0.07466287 0.4104945 -0.121223666 0.16017477 -0.055331532 0.05958032 0.38396552 0.16433193 -0.17499317 -0.19880788 -0.13198394 0.11988228 0.028989986 0.2667883 0.13726999 0.049170993 -0.2758472 -0.14142373 0.1378957 -0.008094514 -0.1601454 -0.06979787 -0.10846411 -0.028667297 0.11262749 0.06630451 0.13421017 0.16504338 -0.11535906 0.012307734 0.07406559 0.12328857 -0.052156553 0.1411129 0.20588227 0.0025751698 0.04929605 -0.13291003 -0.03563647 0.09618397 0.077332765 0.15599455 -0.035109203 -0.075531326 0.32563266 0.28578886 -0.024993595 -0.10599199 -0.041554097 0.08226274 -0.037526026 0.16459392 -0.03456251 -0.28255177 0.070133075 -0.031155193 0.35247815 0.06791313 -0.15108445 0.42751047 0.13586627 -0.13513714 0.26011935 -0.08296117 0.0497438 0.19447082 0.04221973
2430 -0.20582215 -0.3428412 0.002864913 -0.19618072 0.050362036 -0.038216762 -0.0033903783 -0.14708087 -0.05174158 0.10922921 0.19054803 -0.16419749 -0.10927287 0.068847515 0.1158293 -0.22878318 -0.0681392 -0.031238375 0.0130362855 -0.088589415 0.22107264 0.09896907 -0.05497746 0.040335342 -0.030908365 0.057496637 0.124315 0.02485685 -0.08439648 0.26862 -0.009051966 0.050054796 0.14110227 -0.3988491 -0.035769198 -0.0053524054 0.111498244 -0.0128018595 -0.0064847018 -0.030020196 -0.02931613 0.084782094 0.13385922 -0.09281902 0.03256908 -0.06480467 0.06881678 0.10381179 -0.06768553 0.10142697 0.00810473 0.37734655 -0.025515009 0.09549679 -0.24901651 -0.16466969 0.114370175 0.03730462 -0.044757728 0.027484935 -0.066464454 -0.07065854 0.16285115 0.0013011426 0.2007901 -0.098077334 0.31845948 0.19597863 -0.30382773 -0.06713866 -0.17427315 -0.24928203 -0.055667777 0.0824944 0.1237542 0.22070308 0.076441385 -0.047426064 -0.076453425 0.26832289 0.020754099 -0.06807105 -0.082122676 -0.012220492 -0.068445906 -0.09231567 0.16699347 -0.014437971 0.23018664 -0.05711529 -0.015845247 0.17834745 -0.19983591 0.09072667 -0.05858123 0.1355533 -0.16259009 -0.010998506 -0.22003403 -0.1516202 -0.03223794 0.032310866 0.076901056 -0.06027977 -0.061431926 0.2683301 0.13738818 -0.010500941 0.0023765974 -0.09514752 0.015886446 0.07875037 0.2970606 -0.2685739 -0.32649457 -0.0071036736 -0.0657222 0.00025440138 -0.12011472 0.07416955 0.15052374 -0.10366755 0.15915656 -0.062226884 -0.118679136 0.10690403 0.21459089 0.060258713
881 0.009561999 -0.09002504 0.061404474 0.1230303 0.057753652 -0.003621024 -0.013775309 -0.010143406 0.019826561 -0.12344779 -0.10036378 -0.2933614 0.15982717 -0.12101649 -0.07469122 0.010583016 0.05792139 -0.1277188 0.040619444 0.07230684 0.0767455 0.09736049 0.04697905 0.008371788 -0.06255355 0.25032824 -0.17045103 0.016576728 0.0077492627 0.05250551 0.06479811 0.15833658 0.0066262633 0.069286965 -0.08007145 -0.0468095 0.00014892007 0.06296769 0.020439645 -0.2443245 -0.051256493 0.16003472 -0.05816663 -0.07541612 -0.028181393 -0.00406906 0.10122787 0.20522727 -0.08870217 0.0047346503 -0.056565627 -0.16042268 -0.050505903 -0.07023862 -0.014877958 -0.10827956 -0.06074125 0.20004381 -0.021531975 0.111969054 -0.07898373 -0.094956234 0.14163354 0.12163801 0.108900376 -0.16794278 -0.14618114 0.20899296 -0.13968755 0.08128452 0.067843206 0.11967622 0.049098082 -0.02065007 0.0013137147 0.016008014 0.08175537 -0.12389407 -0.11012552 0.24708645 -0.11341447 0.004711453 0.19571067 0.03524264 -0.026944952 0.039902404 -0.06591562 -0.0073064296 0.013477334 -0.005107523 0.10818009 0.15388924 0.20408048 0.13860534 0.23715602 0.049027096 -0.11731364 0.07980797 -0.20619147 -0.007020181 -0.2021255 0.09778701 0.07236926 0.026600357 -0.10973163 0.02829218 0.120595925 0.17990345 0.23320033 -0.14196432 0.22466336 -0.100580744 -0.052437115 -0.18626276 -0.042206574 0.016866367 0.02808806 -0.11107919 -0.15933724 -0.0062641986 0.28414568 -0.15449452 0.23936088 0.053646613 -0.050822567 0.13902424 0.014122681 0.08835099
849 -0.08329931 -0.3213168 0.11910524 -0.05228949 0.040030118 0.101799585 -0.15819319 -0.0027453934 -0.019416561 0.10878217 -0.039412517 -0.15509848 0.16675116 -0.051552203 0.070256636 -0.02958352 -0.10044465 -0.030156959 0.06728761 0.05918169 0.12567668 0.011382027 -0.003148254 -0.009451923 -0.20766427 0.27305377 -0.00018832322 0.086019315 -0.3186907 0.03477456 -0.06616731 0.001955452 0.06620051 0.03639157 -0.18538402 -0.0641404 -0.02787519 0.274945 -0.057400376 -0.027529348 -0.048423555 0.08994608 -0.032130472 -0.03962127 0.042384256 -0.2037323 -0.15833876 0.17919432 0.117074035 -0.2867133 -0.11379529 -0.19369411 0.1572543 0.005582786 -0.09696789 -0.2150685 0.0059841825 0.2759901 0.028780041 0.077290356 -0.16622569 -0.11957639 0.13880022 0.32182094 -0.11148166 -0.22636743 0.070535436 0.15940909 -0.15128858 0.0022891026 -0.09819639 0.011656137 -0.061050337 -0.11859286 -0.06889668 0.05965874 -0.13619485 -0.19902492 0.24271587 0.1234254 -0.08094418 -0.14475146 -0.010154965 0.0762823 -0.2662244 0.022925667 -0.20121996 -0.07622796 0.041230705 0.1542916 -0.1986848 0.13282467 -0.06774592 0.026091386 0.15882413 -0.0020688677 -0.011501563 -0.1248475 -0.11964327 0.12731667 -0.10498791 0.113579616 -0.17205843 -0.09627829 0.02763687 0.07366294 -0.028980618 0.2521233 -0.06716805 -0.16462573 0.019082151 0.18019776 0.08770301 -0.16540714 -0.14209637 0.051832654 0.17810352 -0.018959051 0.041055385 -0.05614934 0.0905092 0.33666164 0.1214227 0.05758746 -0.1573534 0.068184786 0.26439568 0.41687608
2593 -0.17672165 -0.09701147 0.0009735584 -0.091106065 -0.11354426 -0.03181363 0.05691275 -0.0886775 -0.158644 -0.12724864 0.21227303 -0.003597583 0.08252713 0.08021982 0.04353783 -0.0034620978 0.0056584827 -0.14648588 0.0948366 -0.22469461 -0.079347596 0.17090194 -0.07445613 0.066973865 0.15608105 -0.25436106 -0.02835632 0.30871776 -0.2679327 -0.14411466 0.27710444 -0.13932787 0.036334142 -0.13250715 0.07668445 0.15902415 0.3301259 0.3545936 0.21747248 -0.26377168 -0.046763252 0.012770631 0.14642616 -0.4200655 -0.0112340655 -0.1828218 -0.009611947 -0.27447927 0.09063374 0.23511742 0.21332982 0.05274631 -0.10351206 -0.032751977 -0.066193365 -0.20168981 0.20483948 0.111384824 0.20722221 0.103115246 0.03545888 0.1351145 0.16257827 0.1590011 -0.14824311 -0.12949273 0.024639448 0.22633167 0.027125742 -0.2551946 -0.22909558 -0.19475672 -0.066901125 0.046520196 0.06046354 0.20318797 0.023677638 -0.42190328 -0.18867758 0.17396106 0.1223192 -0.050866507 -0.07745572 0.13729641 0.03888919 -0.02855202 0.09449799 0.12850283 -0.013915596 -0.00805403 0.052687746 0.13484108 -0.10062198 0.18341397 0.25133932 0.20834471 -0.23580481 -0.16694929 0.05033206 -0.20657961 0.14597236 -0.16808279 -0.038385212 0.29300594 0.041926846 0.15555803 0.1864728 0.006015635 -0.019373251 -0.2687271 -0.017672483 0.061649863 0.024268579 -0.29818228 0.04365968 -0.16141768 -0.062469278 0.02284817 -0.13234413 0.152743 0.23242533 0.01711705 0.06656773 0.09216779 -0.029932292 -0.17423992 0.1590162 0.23561358
2511 -0.03374735 -0.047331437 -0.07022387 -0.0029418003 -0.07632115 -0.02185741 -0.11452291 -0.028951744 -0.16471697 0.07756383 -0.002557268 -0.17791192 -0.17939161 0.28481683 -0.030747468 -0.25556803 -0.006323002 0.14195356 0.09111588 0.00067197124 0.061698634 0.08978654 0.06409175 0.21802163 0.03473539 -0.30344558 0.2196769 0.22822262 -0.418903 0.02963996 0.055689815 0.18949728 -0.119359426 -0.025249282 -0.07088874 0.12505049 0.13348685 -0.054591674 -0.20357268 0.13341053 0.13504331 -0.065365955 0.045694996 -0.16973734 0.20336585 -0.18765278 0.18772988 -0.063526936 0.16637154 0.012274995 -0.07394247 -0.11893489 -0.057184555 0.03409371 -0.28855962 0.124827825 0.04479043 0.028851295 -0.032092925 -0.075176366 0.02161701 -0.019050281 0.058196444 0.066951804 0.09710743 -0.19824813 0.087000996 0.1945092 -0.13607633 0.109857686 -0.09729706 -0.21481004 -0.040149976 -0.0493838 -0.078062885 0.33874357 0.13312536 -0.040008154 -0.015425138 0.26706156 0.07398205 0.123354256 -0.004259645 -0.05498832 0.2130188 -0.24844025 -0.07728088 0.14228763 0.27343163 0.045299858 -0.004535683 0.2877391 -0.23889303 0.06663966 0.28379783 -0.106747426 -0.15242411 0.010159705 -0.19276758 0.06395566 0.051381655 -0.111113116 -0.19946145 0.13477731 -0.04071763 0.30142504 0.086251445 0.14855981 -0.026609628 -0.1301085 0.24414848 -0.16909422 0.35428503 -0.1195421 -0.20354421 0.052831057 0.041470286 -0.05589729 0.057166032 0.11025959 0.05654765 0.16631715 0.23734047 0.06206437 0.005427703 0.05333596 0.032082744 0.13826333
2596 -0.06780777 -0.32276163 -0.062467087 0.26640773 -0.23043792 -0.1158091 -0.40466648 -0.19870834 -0.03734446 0.15298502 0.01722274 0.061305627 0.17082281 -0.06952564 0.06661018 -0.073351055 -0.072564736 -0.04485283 0.012132875 0.007868171 0.10729432 0.114741996 0.03844999 0.100616306 -0.068327695 0.08275842 0.022116998 0.16048115 -0.35076964 0.077407256 0.013347787 -0.045698747 0.18256202 -0.24961041 -0.002014563 -0.003982579 0.09494253 -0.15589896 -0.03556581 -0.020764673 -0.022498237 -0.017332582 -0.18852516 -0.03608611 -0.06908781 0.076096915 -0.0114658885 -0.11417337 0.03655629 0.17598973 -0.0011716319 0.03744227 0.13198571 -0.13549149 -0.13653038 -0.22444569 -0.12659991 -0.024449559 0.045203846 0.00079612405 0.064171016 0.14076999 -0.0111858295 -0.17839295 -0.10079599 -0.25430098 -0.083767265 -0.07223913 0.0343529 -0.11348791 -0.32384175 -0.30030584 0.114565626 0.10253017 -0.01599124 0.05558442 -0.029698307 -0.3325611 -0.15130597 0.2081971 0.27341923 0.048946045 -0.121527575 -0.029354155 -0.09458612 0.051925432 0.11519294 -0.082700476 0.028263437 0.063156046 0.028042236 0.34089583 -0.13698909 0.09400026 0.18109156 -0.05298088 -0.12774713 -0.08126194 -0.046305247 -0.35341159 0.11167854 -0.0038553558 -0.06204657 0.024267023 -0.22130708 0.18836702 0.13259718 -0.14864217 0.12713218 -0.35461906 -0.12052499 -0.112037644 0.1207306 -0.22557059 -0.08763425 -0.033320542 0.05116014 0.10851126 -0.01979629 -0.07692467 0.24205363 0.15591584 0.015349949 -0.08771056 -0.26068822 0.040399972 0.12905037 0.27081102
2508 0.13956495 -0.17537898 -0.2607471 0.017451305 0.124532565 0.038520038 -0.14785591 0.04634818 -0.40522012 0.06896054 0.12061577 0.14748201 0.18266587 0.28733847 0.08129116 -0.077056676 -0.15665926 0.25480244 -0.2039441 0.11137198 0.13458692 0.25824553 0.0954243 0.025482034 -0.055251636 0.1664424 0.040393256 0.0890325 -0.25218165 0.13823496 -0.10195673 0.017620852 0.27898848 -0.29130143 -0.08308496 0.09893873 -0.06417788 -0.08939512 -0.07413031 -0.018143127 0.22869897 0.05712598 0.07187039 0.10036971 -0.07260291 -0.00024258716 -0.0050365557 0.048438843 0.11495878 0.2771039 0.20275621 0.00021680068 -0.17922072 0.19752751 -0.10877397 0.18337336 -0.20828994 0.1463399 0.23525028 -0.036689736 -0.18405244 0.09496556 0.31639826 0.17884198 -0.084272325 -0.19312884 -0.12975363 0.06070014 -0.17192872 0.15284233 -0.14905305 -0.2924822 0.22578557 0.03069208 -0.100176446 0.09805038 0.14071111 -0.12481086 0.14877222 0.4510381 0.042001665 0.04865852 -0.0016206838 -0.12339929 -0.07875951 -0.10257587 0.009790269 0.43420213 -0.17000988 -0.13555008 -0.06756332 0.15254056 0.25289166 0.14031577 0.05165736 0.09228166 -0.07990591 -0.18850592 -0.09460184 -0.16007331 0.092518814 0.11830556 -0.0125473235 -0.07618587 -0.10146896 -0.294164 0.1836337 0.035974424 -0.046711016 -0.22906817 -0.022937723 0.024646819 0.09334399 -0.031093573 -0.34394205 -0.14100876 -0.050117686 0.50400376 -0.016027885 -0.093121596 0.3968773 0.14802822 0.3569754 -0.23215094 -0.2915405 -0.09339645 -0.026431581 0.15397736
2561 0.35293418 0.03717616 0.02983169 0.03096409 0.23894612 -0.27891374 -0.081927 -0.3238472 -0.3628108 0.2022254 -0.042638864 -0.02349972 -0.08340415 -0.02015536 -0.3451158 -0.3483749 -0.12776166 -0.058907088 0.47060865 0.16790488 0.30560946 0.3931895 0.37585592 -0.3042427 0.017302811 0.17322996 0.37937573 -0.08954152 -0.22979167 0.29741746 0.36308187 0.47089818 -0.08164234 -0.058381833 -0.027732164 -0.059348274 0.22606991 -0.1046597 0.13765115 -0.0374776 0.11879383 0.27533543 -0.11746865 0.11242104 0.42207566 -0.2883319 -0.16734938 0.2845575 0.16594179 -0.0344554 0.11163904 -0.36508617 0.03945075 0.08390819 0.048484135 -0.13892685 -0.36970046 0.23286842 0.10256248 0.4740457 -0.05477112 -0.2482008 -1.1812892e-05 0.02017616 -0.02249684 -0.027234918 0.077570684 0.37268385 -0.14690542 -0.30013454 -0.14364603 -0.064224996 -0.026702277 0.1496184 -0.30190203 0.07465206 -0.12187085 -0.3880362 -0.060796488 0.042242814 0.07611054 0.2635495 -0.09532272 -0.32323495 -0.11899859 -0.1919522 -0.027932923 0.2817121 0.032234192 0.08651775 0.009763663 0.16935107 -0.21485119 0.010670513 -0.49581733 -0.31133592 -0.01670118 -0.20604092 -0.071912944 -0.010627333 0.5509683 0.22044203 0.2669024 0.16348734 0.1557574 -0.07317066 0.51808417 -0.016933013 0.095559284 -0.008310701 -0.2430418 -0.17543112 0.2680974 0.11138911 -0.008076866 0.08029253 -0.0076253726 0.15629213 -0.12106192 -0.13013756 0.24004468 0.024203287 -0.014003944 0.049323507 0.16392764 -0.36895686 0.3329926 0.61088085
2425 -0.32908082 0.038709562 0.034060515 0.043545216 -0.101481356 -0.0495925 -0.15662576 0.033085246 -0.08480102 0.02789138 -0.1260457 0.07919546 0.10018101 -0.20508732 0.01533307 -0.08949076 -0.006087668 0.002013215 -0.07168421 -0.3787086 -0.07964641 0.21251935 0.25758043 0.024183022 0.13742974 -0.08804734 0.11953064 0.07317642 -0.055602815 0.28626323 -0.092172064 0.262127 0.014045727 -0.2000991 -0.055277128 -0.13455835 0.21603175 0.21825574 -0.21054079 -0.3116784 0.03712591 -0.13797338 0.095265456 -0.27406865 0.057146695 -0.24706729 -0.0197296 0.14130613 -0.04991563 0.07108389 -0.087162115 -0.17034256 0.056837168 0.071894564 -0.3351949 0.14208668 -0.19372025 0.29550487 -0.19629292 -0.054387923 -0.32496262 -0.22222395 0.2172493 0.06529117 0.33622622 -0.00038296572 -0.09968618 0.053138115 -0.02179604 -0.19995375 0.085172206 -0.23078538 0.07747948 0.085081935 0.086693466 0.21337278 0.1032605 -0.59722406 -0.06777385 0.095688045 -0.046334177 0.00017905177 -0.011674242 -0.11272192 0.08958022 -0.06660574 0.10429829 -0.019707512 0.4222695 -0.16639993 -0.08764405 0.055172354 -0.15301637 -0.13128483 0.14834116 -0.14104107 -0.020668374 0.17422478 -0.35906196 0.068443656 -0.232325 -0.04355008 -0.05629524 -0.13532947 0.020411128 0.12799914 0.36511707 -0.14107864 -0.08100728 -0.35080367 -0.09995797 -0.06637832 0.24079223 -0.19619481 -0.12326251 -0.096599855 0.00095457915 0.31886438 0.15128265 -0.015307756 0.35954505 -0.14143339 -0.11849168 -0.30420008 -0.060127255 -0.26506642 -0.009975229 0.1320096
87 -0.04045224 -0.031153534 -0.2457919 -0.095690526 0.046689954 -0.042624395 -0.18848895 0.10749864 -0.23477872 0.03700494 -0.060484335 0.05055939 -0.1851161 -0.11056754 -0.16706848 -0.0053374157 -0.05912171 0.020590266 -0.25602406 -0.24399939 0.33150384 -0.03427186 -0.26715326 0.16832028 0.02135926 0.17276236 -0.11029415 -0.02804999 -0.02301384 0.052984804 0.023628706 0.11129166 0.070022024 0.048834745 -0.12572978 -0.035189215 -0.020965932 -0.114302464 0.018588252 -0.19610685 0.019284567 0.12476394 -0.05946541 -0.17417833 -0.17922527 -0.15924801 0.09790314 0.18469352 0.17444764 -0.07846251 0.14199762 -0.12678303 0.055489253 0.18511286 -0.20993438 0.04320243 0.0026903804 0.1344202 0.20873615 0.17367321 -0.007291464 0.17517601 -0.019056758 -0.2667795 -0.14936046 -0.112382755 0.017251097 -0.011210775 -0.045632515 -0.08346862 0.04100515 0.15418704 0.075761326 0.29754323 -0.12943529 0.16173226 -0.012261785 -0.17558928 -0.043739334 -0.2511288 0.058014862 0.021253929 0.2981232 -0.16258147 0.052921787 -0.022062458 -0.23863553 0.15758637 0.1603135 0.11072323 -0.079154894 0.34076875 -0.09925618 0.023883855 0.08581286 -0.27607393 -0.18857977 -0.14759636 -0.14317404 -0.02331322 0.17323653 -0.011754718 0.052439436 0.24603477 0.0293866 -0.038142387 0.02066537 -0.098104104 -0.15370966 -0.16053927 -0.20010385 0.01644697 0.22388825 -0.2843196 0.04531035 0.05269204 0.30605572 0.08025329 0.0694531 0.088178836 -0.09916968 0.05448348 0.3360894 -0.12546809 -0.06906893 0.025779495 0.01252566 0.15660352
359 0.042404875 0.15967661 0.19615173 -0.08390185 -0.06591224 -0.019467639 -0.10005442 -0.10068596 0.0022476004 0.21876928 0.35650167 -0.2050653 0.03178433 0.1261286 0.21308035 -0.25274834 -0.14338976 -0.11871556 0.12941143 -0.16016617 0.0264697 0.088725224 0.08091935 0.038628686 -0.06444545 0.053319782 0.1659636 0.055466887 -0.3898422 0.020471966 0.1293808 0.17676635 -0.14030538 -0.15997496 0.096085206 -0.098517865 -0.25851935 0.26594678 -0.15846659 0.05592177 0.04666914 0.26540163 -0.06882971 0.29591176 -0.14371492 0.01081234 0.01699386 0.025613263 0.12415011 0.2136497 0.32430187 0.11952989 0.3683508 -0.04753697 -0.38866538 0.041918363 -0.17872635 0.19981477 0.01895684 0.33802095 -0.08257441 0.13519013 0.09939508 -0.17764395 0.034408767 -0.058484785 0.14285354 0.19187795 -0.0919269 0.008025378 0.049065333 0.056249954 0.33278048 -0.06320291 -0.052625813 0.09597592 0.10670764 -0.07223523 0.274128 0.16591331 0.14740524 -0.29165295 0.14277811 -0.119684175 0.06711168 -0.0605071 0.13792117 0.123336144 0.02573283 0.059176136 0.11935389 -0.08150735 -0.15650997 0.23283659 -0.09292275 -0.1730278 0.05916035 0.13977526 0.17596656 0.2533638 0.07268133 0.039110214 -0.20465305 -0.080626935 -0.18104166 0.13104312 0.1499261 0.08943936 0.16995765 -0.22898023 -0.18246278 0.041087516 0.12043633 0.11042846 -0.012443253 -0.02712064 0.1295861 0.11389253 -0.21162704 0.051438946 0.33209687 0.1980348 0.18499349 -0.3585548 0.25390247 -0.10907084 0.02115845 -0.12803817
164 -0.05732679 -0.0435212 -0.1079023 -0.07396273 0.079799525 -0.16211498 -0.07126485 0.11804269 -0.1825957 0.042626906 -0.053532735 -0.022274489 -0.11441868 -0.11721589 -0.16262552 -0.01983858 -0.025496798 0.04356382 -0.17253171 -0.21342516 0.22009666 -0.05693876 -0.2363335 0.12573384 0.06747417 0.19297461 -0.11300669 0.044948936 -0.06483647 0.06476685 0.13434258 0.015265101 0.05353058 0.10585265 -0.1705244 0.037595574 -0.040496793 -0.055556096 -0.004352052 -0.15615036 0.033530854 0.031724997 -0.070108436 -0.20425393 -0.19946355 -0.20401329 0.029719785 0.15849721 0.1839587 -0.15562211 0.037311222 -0.10543533 0.1190118 0.10614135 -0.19470711 0.028339662 0.098694086 0.10091113 0.18877235 0.11624843 0.0706783 0.015670154 -0.04906781 -0.28689423 -0.09262896 -0.07674209 0.060881473 0.10176129 -0.049247738 -0.12761149 -0.018088982 0.09027048 0.08855445 0.24136874 -0.06258617 0.105742924 0.056522302 -0.20216487 0.09414481 -0.22825289 0.08450998 0.017821213 0.29053515 -0.07329638 0.10185764 -0.058505524 -0.15204415 0.14746311 0.17646247 0.19831054 0.034045294 0.3196037 -0.23122305 0.015780088 0.024385987 -0.20823741 -0.17944995 -0.18462414 -0.14725411 0.00057104876 0.20664024 -0.041493516 0.012959232 0.23150343 -0.03707629 0.044170313 0.027144995 -0.05836167 -0.1250552 -0.12259337 -0.21441238 0.035178434 0.19595152 -0.31101102 0.023203626 0.028291866 0.32506865 0.09406714 0.10201157 0.13556513 -0.1018177 -0.01627418 0.27138722 -0.10617492 0.033027727 -0.023833254 0.0022809259 0.22703949
278 -0.0307685 0.09387769 0.041251402 -0.28399393 -0.17299902 -0.08801292 -0.09613146 -0.044255476 -0.057391826 -0.021099424 0.051896404 0.10400118 0.075031444 -0.07573262 0.13224393 -0.14018014 -0.10611125 0.22071575 0.0972577 0.17256075 0.13285093 -0.28512105 0.02622626 -0.12600905 -0.25590986 -0.01785054 -0.14115888 0.20797232 -0.16352361 -0.11332004 0.011101131 -0.02294857 0.096006185 0.027998852 -0.121215194 -0.11756336 0.118672445 0.1590847 -0.21309617 -0.068033844 0.12140193 0.13047814 0.1059205 -0.29398787 -0.40212062 -0.20042941 0.003978084 0.38375962 -0.37575513 0.1266778 0.26416564 -0.07383329 0.2529285 0.34565526 -0.08032217 -0.3532002 -0.19279538 0.04210332 0.0024239416 0.13321926 0.17000243 0.0137333665 0.05232439 -0.023166431 -0.16345307 0.13592762 -0.15991421 0.018600915 -0.16231723 0.1268516 0.032174654 -0.190546 -0.16190304 -0.07923682 0.23555814 -0.43232873 -0.14663994 -0.4376689 -0.20520452 0.22653635 -0.114397414 -0.06060859 0.061192602 -0.12533726 0.45858517 -0.47762978 -0.27031982 0.36905175 0.21602313 -0.10365507 -0.052630592 0.044145297 -0.02203213 0.087127626 0.14899029 0.10191181 -0.13156533 -0.092119515 0.06971889 0.21542418 0.106674075 -0.08358819 0.1688386 0.14580137 -0.22847652 0.116258875 0.23920684 -0.027907623 0.15156193 -0.1552973 -0.24218029 -0.0532483 0.050164554 -0.0897269 0.07160736 -0.19984667 -0.013358711 -0.056178898 -0.03610173 0.19190401 0.32542202 0.3125789 -0.19953503 -0.045928374 -0.3631749 -0.027812283 0.17635757 -0.13822804
2532 -0.03634043 -0.104952395 0.28316727 0.24056785 0.36887336 0.14840582 0.13434033 -0.03904491 -0.36648294 0.059787784 0.0745813 -0.100384206 0.23947228 -0.35740677 -0.26637915 -0.09563377 -0.020998454 -0.18187667 -0.037098877 -0.030376397 0.078387074 -0.13313554 0.117823675 0.07352776 -0.027284378 0.0047756876 -0.2479448 0.12431338 -0.2687398 0.04034262 0.1952614 0.3417555 -0.015137403 -0.16907194 -0.25305137 -0.042761493 0.23114213 0.16431913 0.09026016 0.14077485 0.122518145 0.16307473 0.071611896 -0.45156908 0.13684852 -0.2456342 0.16212828 0.04669929 -0.1538159 0.17511791 0.14768533 0.16177168 -0.07700373 0.020817574 -0.117986314 0.020518666 0.1512691 0.081282064 0.11328036 -0.0904933 0.048907258 -0.09043001 0.17494915 -0.15876555 0.026425315 -0.2870443 0.090395026 -0.06617123 0.2832635 0.062893085 -0.30074263 -0.39597374 -0.0044461535 0.022808861 0.011255113 0.13716778 0.19802773 -0.19738552 0.23909616 0.2682558 0.27606034 -0.26227573 -0.004169229 -0.070982754 0.5120236 0.025477698 -0.1885991 -0.08032814 0.025647087 0.08806979 -0.20300588 0.2319341 -0.069215156 0.037021346 0.5174624 -0.34477755 -0.034505863 0.028407602 -0.0029816304 0.0042099194 0.0145349745 0.029319374 0.28311253 -0.17916386 0.07925034 0.38957468 0.079337075 0.103850715 0.082068264 -0.11063433 0.36539924 -0.17819825 0.25312674 0.13637991 -0.14892162 0.03421888 0.011390097 0.11962207 0.075523645 0.071515255 0.34010112 0.34612012 0.09762077 -0.26074946 -0.02206994 -0.037517894 -0.12345668 0.40630952
1109 -0.20260902 0.26513186 -0.093930535 -0.013071982 -0.3107617 0.15624659 -0.072506 -0.10126045 0.0380443 -0.028024713 0.043497883 -0.10816294 0.36783808 -0.22812496 -0.10670873 -0.21804334 -0.1808974 -0.24831866 0.10291714 0.11410075 -0.10140211 0.28788882 0.09489819 -0.052153923 -0.10226461 0.0028876793 -0.19204831 0.2006028 -0.02585223 0.2767417 0.2820652 0.085201085 0.17310989 -0.2573579 -0.24886647 -0.096660025 0.10929875 -0.025567975 -0.090763964 -0.15388069 -0.06673872 0.18713567 -0.105964266 -0.21465535 -0.37551445 -0.14768505 0.018510848 0.09704723 -0.05413462 -0.11177297 -0.16633278 -0.08745316 -0.0013403605 -0.1020225 -0.034274146 -0.05255471 -0.06969609 -0.06369674 -0.063407145 0.20426084 -0.12385536 -0.080891274 0.28843722 0.32042336 -0.09001827 -0.13276814 -0.07307464 0.23756784 0.09695063 0.029307375 -0.05603318 -0.10380989 0.27571452 0.019147405 -0.2048168 0.2275345 -0.09551706 -0.14392963 0.1255362 -0.009445694 0.09841713 -0.21683314 0.05532037 0.036470894 0.08154001 -0.07435681 0.040057838 -0.021982232 -0.01597565 -0.1942808 -0.016141282 0.0020223777 0.16265395 0.12868789 0.16211292 -0.01880816 -0.22576602 -0.07059404 0.018740298 0.011855254 -0.1954459 0.22922333 -0.23152742 0.025725378 -0.026710246 0.12697364 0.09762992 0.03394077 0.24424733 0.07240631 0.19993885 -0.07195873 0.33197552 -0.07075186 0.1366486 -0.060160533 0.27168825 -0.20233686 -0.18754676 0.11756763 0.27381727 -0.009442698 0.3385957 0.15634307 -0.08243668 0.33823884 0.05195557 -0.12756939
716 -0.056298345 0.035375085 -0.1192603 0.2695464 -0.17297451 0.12172889 -0.19731997 -0.05771347 -0.116423115 -0.15432996 0.029003443 -0.1827864 0.06660305 -0.01154093 -0.112119004 -0.301452 -0.16743502 -0.113102265 -0.0241572 -0.07430862 0.03702562 0.03111529 -0.09531474 0.13694793 0.081054166 0.096267276 -0.25857264 0.11004465 -0.24802749 0.009988877 0.18926279 -0.010075618 0.05987532 -0.18540922 0.20427388 -0.06899508 -0.036320582 0.04764056 -0.1510641 -0.073176876 -0.17375037 -0.088975124 -0.04542837 -0.42097488 -0.12300822 -0.30933753 0.1936035 0.012367232 -0.25246444 -0.104901835 0.20031911 0.09651412 0.21881144 -0.0633366 -0.06233997 -0.09900875 -0.08143204 -0.070442654 -0.10455068 0.14637968 -0.094461285 0.016595624 0.10410896 0.3256771 0.04500568 0.003368241 -0.12037544 0.3146106 0.0911598 0.18686047 -0.14353359 0.05505 0.2519469 -0.035621833 -0.006578639 0.09175437 -0.06153875 -0.049931545 -0.011140847 0.097808674 -0.16056605 -0.12998408 0.24822028 0.011587409 -0.12765306 -0.039984062 -0.09440404 -0.2529822 -0.015618813 -0.12804167 0.308637 0.10092729 -0.0014663644 -0.033568334 -0.068871774 -0.04882954 -0.06074099 -0.055925827 -0.05486163 -0.036124807 -0.1440614 0.06299456 -0.13839921 -0.06451604 -0.04906734 0.12080028 0.4138999 0.17338817 0.04781828 -0.24628381 -0.016759567 -0.2791722 -0.06393383 0.09124294 -0.21067496 -0.049384028 -0.00040511187 -0.12344649 0.0075128926 -0.03629934 0.097462855 0.049758762 0.3057108 0.071543634 0.119017914 0.27907667 -0.13220204 0.29943228
720 -0.052815642 0.15199578 -0.02693526 0.29672214 0.029352777 -0.017662726 0.034703657 0.32648516 0.12974282 -0.1073875 -0.15200354 0.05859225 -0.17386088 -0.059216604 -0.17842542 -0.18059042 -0.6203116 0.39309844 0.1679565 -0.21671085 0.026671877 -0.034913354 -0.111092545 -0.025098592 -0.19288652 0.21444371 -0.003606999 -0.20273638 0.030398961 -0.025467694 0.25542307 0.18014276 0.004497839 0.07901965 0.071837485 -0.09814311 0.014061269 -0.19401278 0.16610473 -0.15596865 0.2818765 -0.2439447 0.28713816 -0.106730096 -0.118356526 0.019237395 0.3479705 0.08594419 0.020060817 -0.18346861 -0.036771834 -0.12817277 0.45794526 -0.0013260808 -0.50431484 0.006593578 -0.03297747 0.20998034 -0.3547162 0.040972162 0.18971077 0.11348364 0.1689056 0.20213917 -0.31300682 -0.054932546 0.031265676 0.28961948 0.14990765 -0.21068688 -0.31259307 0.00023395459 -0.019675056 -0.09960428 -0.39560542 0.09044013 -0.2989434 -0.5600344 0.12726656 -0.04048799 0.020455303 -0.26072842 0.119058274 -0.31432375 -0.19083086 -0.22325212 -0.34268498 0.09767652 0.010014091 -0.29868957 0.22087675 0.24544996 0.11117663 -0.08492348 -0.010542249 -0.055161707 -0.098363094 -0.110642724 -0.255837 -0.031695776 0.008307729 0.08941099 -0.24043621 -0.0012126188 -0.069539346 0.13140394 0.16999336 0.0026449477 0.039083622 -0.34891394 -0.09234908 0.19494186 0.17184383 -0.07732928 -0.2494827 0.24392514 0.0028002874 -0.041524023 0.10336835 -0.13941845 0.20899351 0.040574025 0.3911164 0.06188534 0.14756122 -0.11929655 0.018759778 0.2773995
137 -0.012074723 -0.06990069 -0.053783752 -0.1498859 0.08648665 -0.14580259 -0.00703895 -0.03552303 -0.1331942 -0.0050506904 0.01697984 -0.0009222968 0.0025584907 -0.21108983 -0.0452239 -0.062736 -0.026283743 0.0852794 -0.2997727 -0.18129705 0.26495716 -0.01963648 -0.21739165 0.10333577 -0.1041118 0.28277582 -0.16825266 0.044703923 -0.11866621 -0.019594567 0.023537239 0.040950667 0.05096399 0.12465177 -0.117518045 0.037960004 -0.045219447 -0.19966649 -0.036345292 -0.1387244 -0.021682078 -0.007704178 -0.16807501 -0.26063564 -0.18767753 -0.17973737 0.040552024 0.3462327 -0.013739528 -0.13882929 0.08068986 -0.18180953 0.17267433 0.125836 -0.14672886 -0.092717774 -0.040517855 0.2645512 0.06317406 0.085353784 -0.018409781 0.08078151 0.023878727 -0.2416119 -0.16049054 -0.011534547 0.2132641 0.1115985 0.10615913 -0.06938472 -0.008596478 0.15303858 0.14860933 0.38005215 -0.045594607 0.22310778 0.061349463 -0.116612725 0.011339724 -0.27222717 -0.026364466 -0.037389673 0.19041187 -0.064146996 0.09865012 -0.024486607 -0.15816021 0.13848767 0.16145861 0.1417146 0.048189204 0.31713957 -0.111016214 0.09909329 -0.0032832965 -0.17422007 -0.17364396 -0.14721593 -0.10965603 0.087090954 0.07015773 -0.059776817 0.05801015 0.19717209 -0.06702775 -0.090722285 -0.07897792 -0.13454573 -0.08479166 -0.13684307 -0.24648857 0.13049623 0.26224113 -0.28427693 -0.007221142 -0.011741613 0.25306413 0.0487208 0.0023276147 0.042469546 -0.029755881 -0.105137095 0.18911292 0.08229679 0.114142194 -0.08996175 0.07375166 0.22961687
637 0.04956522 -0.06598565 -0.059959568 -0.15766934 0.13726835 -0.12912054 0.018787583 0.056383498 -0.18289869 0.08501201 -0.10772051 0.029585345 -0.12474571 -0.10038249 0.018573001 -0.001554843 0.0029103656 0.073848955 -0.25141367 -0.14075063 0.21552852 -0.027215168 -0.21923299 0.109878525 -0.03225981 0.25939524 -0.13644932 0.031941365 -0.050225835 -0.04523178 -0.022098916 0.010544931 -0.07830384 0.15642439 -0.12597956 0.1326167 -0.039033495 -0.14861958 -0.0059652715 -0.11795042 -0.014201257 0.061092462 -0.14966135 -0.30495778 -0.17835121 -0.17433138 0.004617773 0.3815491 -0.070911914 -0.104399495 0.067267895 -0.09604325 0.1686604 0.11486748 -0.07613023 -0.08278509 0.03724328 0.2904892 0.07599316 0.08860429 -0.020231463 0.11424615 -0.04646661 -0.20956758 -0.11736336 -0.014409427 0.19486533 0.12851588 0.07427377 -0.068395354 0.0052188444 0.19696477 0.10667427 0.27062047 -0.081242085 0.17440893 0.12495586 0.027581003 0.11664855 -0.23079152 0.04326346 -0.04718154 0.2811594 -0.064694636 0.07758148 -0.06671029 -0.224029 0.18938339 0.16690746 0.17329808 0.0018702815 0.3501675 -0.15895097 0.117715254 -0.04340159 -0.1995328 -0.17368211 -0.15654692 -0.12953143 0.16621765 0.00091419404 -0.07659071 0.057797264 0.21660201 -0.062952295 -0.034068394 -0.08923996 -0.18916875 -0.08488594 -0.19430824 -0.20649196 0.14423317 0.28739473 -0.25968844 0.049458947 0.0050115096 0.31246296 0.0036440308 -0.004709279 0.100315504 -0.036751263 -0.093070336 0.27831206 0.029121738 0.21852116 -0.032542262 0.048299734 0.15745762
120 -0.30006853 0.049344312 0.23192036 -0.042888936 -0.20362705 -0.036507465 -0.093886845 0.21518855 0.13710755 -0.07203033 0.019039847 -0.06682437 0.05590264 -0.11637184 -0.011184675 -0.03045835 -0.0049364963 -0.15905899 0.15945116 -0.04807776 0.28349406 -0.029714068 -0.22490011 -0.20730954 0.041122098 0.08779734 0.047863103 -0.22840972 -0.34054255 -0.18929467 -0.033743184 -0.03711268 -0.10199288 -0.0148851955 -0.1083152 -0.11744314 -0.131003 -0.17275786 0.03502962 -0.061287075 -0.08421201 0.06688173 -0.37888637 -0.114307664 -0.1005282 -0.25399584 0.07917131 -0.0040683546 -0.15270273 0.20545852 0.05798373 0.09320972 0.038922235 0.07235554 -0.07346069 -0.20310867 -0.24108282 -0.03143205 0.08423499 0.15976124 -0.023680065 0.056356005 0.43120888 -0.026742611 0.20336834 -0.30461365 0.026738152 0.15476498 0.2001987 -0.009930094 -0.11864137 -0.02170113 0.19566047 0.043493327 -0.2898225 0.08999864 0.027982732 -0.018984005 -0.12253808 0.31682122 0.34064022 -0.16541424 -0.04668838 0.05513779 0.073859245 -0.30254263 -0.11858902 0.3510216 0.03533493 -0.0363296 -0.38917714 -0.38211998 0.0054615494 0.08732477 -0.06549476 0.12264835 -0.012102458 0.009674944 0.028839774 -0.062138066 0.042979553 0.21786079 -0.15783934 0.11508522 -0.20625927 0.06832676 0.19770765 0.18943249 -0.024786416 -0.54541075 -0.19871114 -0.13361129 0.230926 -0.30692258 -0.25186995 -0.036626466 -0.020159733 0.17219329 0.007757407 0.03445983 -0.049449693 0.0059610284 0.11016362 -0.122071475 -0.12955782 0.09606433 -0.028855389 -0.0060997154
138 0.13044395 0.032711808 -0.09684858 -0.11816041 0.12399862 -0.120099634 -0.009835293 0.11270421 -0.14191543 0.027885756 -0.04347861 -0.026985003 -0.09671139 -0.116314575 -0.015790375 -0.09733471 -0.032350272 0.06000347 -0.339984 -0.03843789 0.213309 -0.00724252 -0.26864165 0.06352433 0.061264057 0.2721171 -0.10258055 -0.07601111 -0.027504858 0.029713906 -0.050435603 0.029691646 -0.04389809 0.12042437 -0.13196597 -0.00978712 0.008548159 -0.19582345 -0.056330055 -0.13479322 -0.083939284 -0.0075710663 -0.21567905 -0.22805521 -0.21661411 -0.24171035 -0.09668714 0.34860057 -0.0829817 -0.048457015 -0.020333324 -0.18551368 0.15695776 0.067022234 -0.17419587 -0.0372892 0.06970087 0.24806638 0.07680199 0.10491077 -0.07255346 0.04350573 0.0027276513 -0.21488284 -0.017979585 0.0023065342 0.16547742 0.16544162 0.005704896 -0.09735927 -0.06888585 0.15331578 0.049449828 0.29623973 -0.07579163 0.1130084 0.034021858 -0.05189223 0.06523488 -0.21754456 -0.014041178 -0.035824202 0.20038052 -0.11032978 -0.012836043 -0.107128076 -0.021299874 0.21893872 0.22033629 0.1398517 -0.053405274 0.36358407 -0.11329357 0.10025461 -0.047732823 -0.08730598 -0.21059631 -0.083778426 -0.14069678 0.13020982 0.040958326 0.06066702 -0.007972693 0.33400804 -0.06127684 -0.018122325 -0.015201961 -0.2142051 -0.10162643 -0.13274047 -0.23987915 0.08314121 0.1660611 -0.2850769 -0.0026998296 -0.04318551 0.29379794 0.049525633 0.045097116 0.14650136 -0.049486965 -0.07937215 0.1889573 -0.077749066 0.22242667 -0.021200972 0.030086484 0.18932725
1067 0.10301178 -0.12611331 -0.022442652 0.15259011 0.052614138 -0.09393787 -0.17960784 0.056032244 -0.08520244 0.1000646 0.033409446 -0.12780604 0.021296628 0.22730508 0.11896662 -0.23683839 0.10113865 -0.10584644 -0.076982625 -0.057222478 -0.13245068 0.073574096 0.10547677 -0.12679963 0.053665277 0.014462065 0.027485577 0.122008085 -0.16286653 0.08090526 0.034581713 0.24699053 0.04539978 -0.11461226 -0.072349265 -0.17447592 0.018653302 -0.007333516 0.07645521 -0.19362158 0.14101346 0.2122196 -0.020851478 -0.2695706 0.123990126 -0.09036775 -0.067670114 0.115041904 -0.1526466 0.0040988782 -0.20771253 0.010288665 -0.014013359 -0.1243091 -0.10801525 0.029232696 -0.06884017 0.08335545 0.050167236 0.07730437 0.013514709 0.034937635 0.20716399 0.049007624 0.047185183 0.26223454 -0.23887303 0.1000869 0.00064581045 0.09179645 -0.0037291038 0.06272638 -0.08544408 0.16934861 -0.15254784 -0.059428338 -0.19512707 0.10601898 0.13565792 0.067861676 0.014403724 0.03760529 0.12673007 -0.09953989 0.12473477 -0.03564838 0.10337128 0.0004211699 0.031680446 0.15060365 0.11458744 0.13248563 0.040776886 0.26417822 0.3359085 0.11373296 -0.09990735 -0.4040037 -0.009024901 0.11460818 -0.01575792 -0.093353696 0.01401755 -0.16244692 -0.08432741 0.080243595 0.06581344 0.13930717 0.12263191 -0.09649715 -0.0037262863 -0.009166944 0.06095265 -0.10219893 -0.20181212 0.13604718 0.041470554 -0.007114478 -0.13211717 -0.049996037 0.10187322 -0.15316917 0.20171836 -0.08039769 -0.13982902 0.10882749 0.29336783 0.40543655
12 0.024381582 -0.32729405 -0.08995784 -0.07140085 -0.03853281 0.075685106 -0.10529536 0.18070254 -0.14240417 0.045867447 0.028034948 0.23872851 0.05510581 0.11890788 0.0028163511 0.12988596 0.041326787 0.16918688 0.10109024 -0.14884998 0.4301442 0.345275 -0.28173995 -0.1849739 0.06737582 -0.0007205108 0.32371637 0.039452955 -0.0937931 -0.1167574 0.069601454 0.25578335 -0.07307323 0.102226704 0.07769631 0.23704877 -0.30126446 -0.101101704 0.124995805 0.0045578703 -0.03440407 0.032445904 -0.08642037 -0.15573902 -0.022233687 -0.17951408 0.19366634 0.093154885 0.105108626 0.26828906 -0.18779287 -0.09839458 0.08462209 0.13283281 -0.045938503 -0.19084541 0.019148774 0.052930176 -0.31448907 0.014429223 0.15880147 -0.039077953 0.093289286 -0.073894806 0.29523012 0.08457478 -0.1352795 -0.1698191 -0.13521568 0.06962327 -0.1469179 0.102049716 -0.089666285 0.0050738533 -0.027869804 -0.1570804 -0.06287921 -0.104591705 0.1529257 -0.03792699 -0.24689478 -0.21032749 0.10888689 -0.081031255 -0.20113586 -0.27192026 0.021188047 0.053234812 0.15690225 -0.2959493 0.16134085 0.2007642 -0.06830196 0.26579478 0.29690844 -0.43413052 -0.12063613 -0.21373753 -0.07967197 -0.1734139 -0.023782114 0.06014484 0.20164196 -0.1606744 0.21598142 0.030530196 0.40559378 0.15213072 0.15815017 -0.5582758 -0.15521115 0.15671684 0.13136518 -0.078884035 0.06672545 -0.055060714 0.128713 -0.1309207 0.33569112 0.019664347 0.010290391 0.22305366 0.43021294 -0.01706696 -0.08337097 0.08893268 -0.06946545 -0.17392053
22 0.06642677 0.4081387 0.14786799 -0.067258984 -0.10907594 -0.10997536 -0.088144235 0.025880119 -0.17769352 -0.016924582 -0.060696352 -0.057515424 0.5348868 0.048865758 -0.24399582 -0.1728371 0.23702449 0.14451982 0.2888966 -0.14617157 0.2792101 0.132412 0.31228197 0.03521124 -0.14904164 0.32590818 0.0034363011 0.057087414 -0.19300178 0.13941078 -0.10084675 -0.15849932 -0.08151132 0.038197868 -0.117428795 0.18799275 0.040740218 0.24828137 -0.085353665 -0.19420387 0.053554446 -0.19114144 0.25663558 -0.0065945704 0.071803704 0.01105615 -0.33097985 0.306617 0.24940407 -0.10383458 0.17440498 -0.20522779 0.30519548 -0.01873551 0.2402727 0.18137285 0.15595028 -0.029549984 0.010787107 -0.036033884 0.039414 0.14080703 0.11786905 0.13724007 -0.14898914 -0.259915 -0.16730584 0.34990165 -0.08065778 -0.07365357 -0.107568055 0.3447885 -0.1795846 0.33331707 0.18285374 0.23786065 -0.025422132 0.30989036 0.22777335 -0.024913982 -0.31226727 -0.45920092 0.28890157 -0.18515368 0.13898905 -0.32124078 0.08265158 -0.29151475 0.23997775 -0.03097423 -0.39006272 -0.067551084 -0.13574958 0.06940476 0.43948707 -0.13879165 0.019317478 0.083670005 0.1953379 -0.2776405 0.1683779 0.2252518 -0.057623185 -0.19878842 0.08731045 0.24407159 0.030722931 -0.22691311 -0.005002267 -0.35561025 -0.50371647 -0.28395543 0.05024234 -0.26591733 -0.118723996 -0.01106968 -0.32103255 -0.049045373 -0.29015845 -0.05978006 0.45301172 0.03516619 0.2978382 -0.120457 -0.17625709 0.2267083 -0.06196679 -0.15442362
2622 -0.06368441 -0.08471725 0.10479888 -0.12248948 -0.16489162 0.08492911 -0.15294048 0.02993491 -0.14598504 -0.2330782 0.060759686 -0.051347304 0.16782011 -0.06362445 0.06290517 -0.076506004 -0.23705858 -0.05101969 -0.08478241 -0.32577023 0.047383007 0.15527886 -0.08152203 -0.007824275 -0.058910333 -0.06857613 0.13205606 -0.037912395 -0.00020969422 0.12483791 -0.005145337 0.297427 0.18494406 0.106954366 -0.06442556 0.055381257 0.33570257 -0.054781545 0.04918917 -0.033347104 0.10064614 0.068189815 -0.09137144 0.19734542 -0.21317773 -0.2934369 0.016279083 0.058693506 -0.110588305 0.2216332 0.06928263 -0.046971083 -0.114501566 -0.033318233 -0.22286765 -0.112773485 -0.025087573 0.17830808 0.2728438 0.004080773 -0.33602172 0.20153202 0.32421225 -0.07244096 -0.038949933 -0.19591346 -0.14533366 -0.020078206 -0.16844733 -0.0775826 -0.09201003 -0.110397376 -0.16665672 -0.39119017 0.19542652 0.040960323 -0.042256348 -0.14143495 -0.22275369 -0.15134294 0.37299633 -0.06599792 0.16210786 -0.018626764 -0.055168636 -0.10104563 -0.0077301273 0.10711483 0.014373919 -0.08210587 0.056078706 0.23550223 -0.27463508 -0.109573066 -0.058008827 0.020488502 -0.40780327 0.085723005 0.16477537 -0.37482697 0.28519744 0.041039318 0.19357556 0.13664494 0.13365526 0.46533063 0.321922 0.07207262 -0.315191 -0.18471178 0.034114026 -0.110425934 -0.029746411 0.15491723 -0.25578487 0.020054124 0.15441771 0.050056897 -0.09470438 -0.057061125 0.3825061 0.06203702 -0.037302185 0.053699702 -0.01596197 0.031239169 0.06543087 0.33326897
397 -0.07187885 0.026367977 0.14345466 0.13037375 -0.26330882 -0.14294508 -0.25571498 0.092304826 -0.6140691 0.028358923 0.08823869 -0.16133359 -0.16466318 -0.0336135 0.067784466 0.007510577 0.20441939 -0.17849958 0.2283394 -0.075140625 -0.18180104 0.24389763 -0.089264624 -0.11409801 -0.2613488 0.073481135 -0.031308156 0.1330294 -0.03411317 -0.34344503 -0.105023734 0.17025554 -0.001760293 -0.18905395 -0.19236612 0.029966302 0.15268874 0.042875983 0.012613269 0.3046539 -0.025939194 -0.057756387 0.12135264 -0.29559597 -0.19264185 0.0013338245 0.015139257 -0.032421283 -0.21157262 0.12838684 0.060474835 0.11720065 0.018966928 0.15532902 -0.12408932 0.031987756 0.14137222 -0.117684 -0.17277755 0.17830893 -0.1751086 -0.2070884 0.19648318 -0.08307715 -0.12100061 -0.120200634 -0.23150772 0.31787696 0.07975933 0.13960303 0.0045012995 -0.10745541 0.0835592 0.24575502 -0.08183877 0.08898484 -0.21204452 -0.17791957 -0.040626884 0.06334559 -0.06870567 -0.094670504 0.38776633 -0.41210562 -0.44532442 -0.120494805 -0.14217333 0.36829266 0.20088597 0.059861213 0.09927527 0.11139255 0.038515788 -0.061303314 0.07606352 0.29977167 -0.31395474 0.2008398 -0.117521726 -0.21220139 0.12767114 0.066944614 -0.053150635 0.057821285 -0.07536863 0.050703708 -0.04273568 -0.06641506 0.30546063 -0.23630235 0.09471364 0.088384 0.060750607 0.012404609 0.1781264 -0.18756397 0.07159301 -0.23726422 -0.051308792 0.10596162 0.044329237 0.16281363 0.2966148 -0.05269834 0.22010863 -0.038671985 -0.048501506 -0.11865791
2419 -0.069049165 -0.03484978 0.05727272 0.12296022 -0.031841144 0.038019024 0.0025935438 -0.2798068 -0.09458317 0.0034799299 0.19489664 -0.20115806 0.14434189 -0.19135675 -0.014791766 -0.24060512 0.016073711 0.0318419 -0.08257207 0.20036004 -0.072372824 0.25256783 0.03881135 -0.07998122 0.17896454 -0.07343947 0.04616519 0.110475644 -0.32627252 -0.17058234 0.17156507 0.18131526 0.12497404 -0.28904653 0.054800298 -0.25291577 -0.064160615 0.28652948 0.17972948 -0.2935003 0.15063113 -0.15378933 -0.26952988 0.17160855 0.088172 -0.2437845 0.20550822 0.26077175 -0.15896623 0.20969611 0.24554366 -0.023590317 -0.119958386 -0.037018236 -0.18809207 -0.11973638 -0.0022662354 0.2102373 -0.13434076 0.06708521 0.092970945 -0.008013043 0.5174887 0.009827085 0.10030693 -0.113192685 0.10652475 0.23521322 -0.23000303 0.04258338 -0.17920619 -0.21172911 -0.037598155 0.08354578 0.15054318 0.19944601 -0.11134584 0.14515637 -0.04726985 0.19507617 0.010469142 0.12997581 0.0110403495 -0.12028995 -0.07992437 -0.14429939 0.024554323 0.21861741 -0.10815472 -0.20583676 0.01966674 0.4334661 -0.22081202 -0.031511337 0.16453442 0.10602304 -0.045796756 -0.21826908 -0.082231574 -0.0044831405 0.12772857 -0.0070584 0.1507703 -0.033095565 -0.15013447 0.11543923 -0.1453822 -0.06016527 0.005769962 0.013051853 -0.09959686 0.048312865 0.14292115 0.15293622 -0.10237479 -0.082328744 0.19945969 0.0849928 -0.15844959 0.090524 0.1738402 0.039028946 0.16819274 -0.22279355 -0.15241349 0.071604684 0.021347666 0.41738075
56 -0.091786735 -0.12726127 0.16068743 -0.03588424 0.07224285 0.0462354 -0.24572873 0.26356363 0.023543088 -0.04727071 0.19087489 -0.12707987 0.066658705 0.06930674 -0.054075565 -0.36868688 0.2453986 0.26558885 -0.069245204 0.23790923 -0.10509705 -0.266109 -0.15875317 -0.24333972 -0.009176103 0.08256097 0.0062437407 -0.12660204 -0.044465013 -0.1936387 -0.018075485 0.05472074 -0.006643895 -0.1331608 0.0639349 0.07002273 0.018844096 -0.029027868 -0.15377326 0.004346525 -0.065634705 0.07361153 0.033271953 -0.31080163 -0.29179114 -0.08481653 -0.14834821 0.18836617 0.054096173 0.19957222 0.20638192 -0.00083732663 0.31224906 -0.14061439 -0.1576619 0.17767073 0.119158745 -0.10831393 0.13382564 0.06611995 -0.102010675 0.004899317 0.35883322 0.067020886 0.06434439 -0.08930992 -0.07327341 0.051306907 -0.31685174 0.048593644 0.2066867 0.08247677 0.041732416 -0.2406954 -0.12995768 -0.13397627 0.014336442 -0.018951982 0.009145037 0.098940186 0.10286878 0.09556979 0.019674707 -0.20846647 0.14295603 -0.24436101 0.21313804 -0.014279869 0.14440362 0.013303319 0.08830192 0.009209097 -0.00576921 0.17625459 0.186555 0.04705013 -0.23460986 0.08083783 -0.23949105 -0.19905096 0.18683735 0.054954324 -0.0757376 0.049213596 -0.0655759 0.2772852 -0.06758207 0.11739769 0.10381592 -0.175757 -0.07051543 0.09204712 0.14769025 0.17653619 0.109464504 -0.018376833 0.066241525 -0.083996035 -0.25987473 0.10758535 0.20510082 -0.13076682 0.06311323 0.091052614 -0.1299337 0.009885896 0.3935391 0.27529764
166 0.06348733 -0.0645478 -0.15140082 -0.14954491 0.20212169 -0.09395359 0.045974903 0.03889535 -0.20510507 0.04951006 -0.09387229 -0.021243166 -0.10114432 -0.091954015 -0.1181487 -0.013465292 -0.102196254 0.09496716 -0.3372906 -0.11867067 0.28901124 0.045121305 -0.28154108 0.061333597 0.037253156 0.2329537 -0.22691558 0.032996234 -0.12456152 0.0835152 -0.06700428 0.057349294 0.04771888 0.083057255 -0.10699213 0.096130066 0.007969061 -0.04100543 0.037587266 -0.18063214 -0.032701246 -0.08285894 -0.17642638 -0.18818867 -0.2234665 -0.16823885 -0.06951817 0.370554 0.024646897 -0.117949694 0.04084568 -0.14901756 0.20689873 0.14768332 -0.23143336 0.056131084 0.067109846 0.20439354 0.12777688 0.07233041 -0.07003362 0.013694685 0.058898095 -0.233652 -0.18433422 -0.09008241 0.18064252 0.112257876 -0.020320682 -0.11022505 -0.09739865 0.24337415 0.15254189 0.36134696 -0.036776256 0.14221156 0.03219355 0.002001628 0.043957833 -0.26848918 0.032455683 0.010466342 0.32642815 -0.13327546 0.034956746 -0.10294981 -0.17580652 0.20000717 0.17219807 0.23298791 0.010651466 0.38341808 -0.0644573 0.10950426 -0.0105339885 -0.20741518 -0.17411177 -0.17371723 -0.1756801 0.052250333 0.038371705 -0.020245906 0.034073085 0.22343779 -0.05130783 -0.042337887 -0.084068336 -0.13472922 -0.07682896 -0.037321027 -0.20309344 0.053297956 0.20729795 -0.19655801 -0.07867664 -0.04925957 0.3256508 0.11280689 -0.015249604 0.03147188 -0.06402218 -0.07142984 0.24962954 -0.05687821 0.16617088 -0.06891966 0.03358889 0.23452535
424 -0.18113627 -0.12620032 -0.18051201 0.08944755 -0.093794644 -0.26273993 -0.19201808 -0.09356098 -0.21037714 -0.043646123 -0.29038936 -0.23349352 0.045547906 0.2336185 0.042720605 -0.26788124 0.43169415 0.18773302 -0.017035197 -0.120134674 -0.15131426 0.24518618 -0.028266463 -0.24310675 -0.21350534 -0.3126774 0.048891302 0.08653865 0.10450124 0.6200919 -0.009506998 0.16253695 0.18014884 0.17199698 -0.12844759 -0.13127933 -0.31007028 0.089363866 0.14701784 -0.2906526 -0.320002 0.20885362 -0.19150747 -0.26816553 -0.54042214 -0.40672892 0.2883267 0.100952186 0.07484358 0.26280886 -0.034596592 -0.38609424 0.13552526 -0.053387985 -0.14526494 0.044140168 0.11907138 0.2964803 0.046342537 -0.08629325 0.018813321 0.03523188 0.11215543 -0.12230251 0.34452033 -0.07939675 -0.13764267 -0.085799985 -0.026725464 0.11265324 -0.341288 -0.058395978 -0.07647451 -0.1568295 0.17373344 -0.018035436 0.016442183 -0.020302989 0.21166126 0.45062926 -0.11069389 -0.11776548 0.15447007 -0.094312355 0.013583753 -0.038502093 -0.1796088 0.12203339 -0.035636917 -0.03696658 -0.14752014 -0.39687207 0.06008997 0.106034294 0.07299522 -0.00032239576 0.07203057 0.1257807 0.1687256 0.2088699 0.2773239 -0.045745786 -0.3669215 -0.045313872 0.096613415 -0.040021993 -0.12449777 -0.1511757 0.29013702 -0.00820161 -0.049725756 0.10450077 0.17859471 -0.056075796 -0.15985522 0.046798322 0.0025702633 -0.26336837 0.12832443 -0.077360734 0.38225922 -0.03925124 0.11919996 0.28269082 -0.31788826 -0.22555095 0.06892801 0.25829378
289 -0.16211581 -0.20273963 0.066864364 0.07152272 0.08659104 0.06532181 -0.21573377 -0.17815852 0.00785754 -0.020605313 -0.104304984 0.022569409 0.14785473 0.11760026 0.029825151 -0.10846435 0.16561481 0.13366963 0.18616265 -0.02520237 -0.3186593 0.052731425 -0.18771653 0.08762936 -0.013722935 0.017137554 0.26233858 0.05647886 -0.22202565 0.02578298 0.19767185 0.15028976 0.046876915 0.12530385 -0.17582494 -0.25220206 -0.18249403 -0.03970318 0.115323275 -0.11213278 -0.22981805 0.4517023 -0.2286596 -0.17429964 -0.3453028 -0.16273843 0.33824182 -0.027650245 -0.17587176 0.27092814 -0.000113698734 -0.15489128 0.21739277 0.019603712 -0.10040617 -0.053006295 -0.03659135 0.31802815 0.017492207 0.16452807 0.27312118 0.38537255 0.16986078 -0.114293806 0.17409319 -0.17981586 -0.083553016 0.09403361 -0.26486897 -0.0033218623 -0.19265653 -0.13779645 0.042642433 -0.21861547 0.09521607 -0.07887703 0.2794818 -0.27552718 -0.0002572039 0.33529538 0.03807438 -0.090243906 -0.25442976 -0.2149332 0.030482903 -0.24944694 0.0048907558 0.39379483 0.044364627 -0.07421512 -0.3668555 -0.110133156 -0.10104956 -0.17212147 0.11248242 -0.1825056 -0.045326676 -0.156147 0.21799394 0.15534538 0.40008143 -0.13969088 -0.16494861 0.13433522 0.10949189 0.11895494 0.2641564 -0.2283788 0.22712442 -0.05212979 -0.12256567 0.122784264 0.228768 -0.15334491 0.0041462705 0.23957549 0.029682707 -0.08185146 0.025474664 0.19424424 0.22637284 -0.1162487 0.09564643 -0.1195583 -0.13944815 -0.10019591 -0.086475834 0.09267928
161 -0.06074686 0.061895438 -0.0016847828 -0.25035936 0.10081285 -0.020562895 -0.069184825 -0.050861403 -0.2021149 0.039001018 0.055397116 0.13224228 -0.14592488 0.3508099 0.061668664 -0.4852317 0.11690782 0.25750533 0.18871172 -0.1725016 0.121821 -0.23415354 0.088008694 0.36327103 0.11140429 0.015609097 0.2564198 -0.08411463 -0.22312263 -0.04185051 0.05178763 0.47676638 0.08078064 0.40953398 -0.07909586 -0.16430806 -0.08551812 -0.14929129 0.124255314 -0.2957264 0.03343361 0.14593166 -0.14923185 -0.3635281 -0.038165234 -0.15164867 -0.17388488 0.25064892 0.06835169 0.064615555 -0.033629112 0.14248018 0.112466626 0.014090478 0.20754449 -0.04819053 0.08371373 -0.26705113 -0.14523098 0.26493222 0.3184214 0.099735074 0.11448701 -0.25427178 -0.08497803 -0.24568525 -0.37475485 0.19098127 -0.06337213 -0.12937915 -0.020722717 -0.2353407 0.21740448 -0.19142951 -0.10216663 0.16175486 -0.23259412 -0.277707 -0.06861202 0.04479067 0.11677625 -0.25741068 0.14162768 -0.051252052 -0.21787848 0.15502588 0.10216118 0.010562703 -0.1385167 0.03852566 -0.046404157 0.28584874 0.094369754 0.23629555 0.051650323 -0.0017434346 -0.21575744 0.23803759 -0.13284583 0.09992302 0.05487638 0.03894367 -0.10815579 0.080959566 0.097614564 -0.03921266 0.3782614 0.06753017 -0.044576626 -0.25717604 -0.049793836 -0.17027023 0.118984796 0.071278214 -0.18939157 -0.06241424 -0.024183692 -0.08394665 -0.13248533 0.023737373 0.02017086 0.12336078 -0.03709207 0.070915565 -0.088610694 -0.15966299 0.15384632 0.09988269
13 0.08319452 -0.3174438 -0.04080579 -0.113141425 0.037356645 0.019882625 0.021743264 0.25954735 -0.10940748 -0.062007163 -0.02082503 0.110624224 -0.03496382 0.13824286 -0.06339531 0.1276609 0.046789426 0.13383025 0.12979117 -0.14110912 0.44597968 0.4367211 -0.23416018 -0.17540371 0.031105915 0.023932215 0.34281746 0.1375791 -0.059973598 -0.024723481 0.07157065 0.3672751 -0.05066982 0.099894 0.055209965 0.16528758 -0.26436767 -0.066845804 0.06494011 -0.019993952 -0.062429097 0.09710432 -0.050745443 -0.12874849 -0.03510918 -0.25978202 0.114727154 0.06472683 0.0859033 0.06874553 -0.10940827 -0.19168647 0.14160252 0.09577044 -0.14248222 -0.20122749 0.015716733 -0.00050022855 -0.2602923 0.06790173 0.12168029 -0.13833684 0.065309085 -0.09275632 0.27217695 0.15358013 -0.09793223 -0.08285913 -0.14882237 0.09996853 -0.17107257 0.12535623 -0.1032627 0.045270592 0.005876999 -0.22411485 -0.123094976 -0.09755819 0.12226258 -0.07403706 -0.1938268 -0.28517672 0.04048155 -0.058618657 -0.14976968 -0.32950476 0.07488773 0.027567888 0.2134001 -0.24919541 0.19316432 0.17522141 -0.10810237 0.31672162 0.22140492 -0.43740165 -0.16403311 -0.18057837 -0.091311805 -0.17875135 -0.048619732 0.053485814 0.16339615 -0.14010796 0.20212778 -0.005693488 0.3712789 0.23485024 0.13974299 -0.50230134 -0.21283378 0.18430653 0.092432275 -0.14739144 -0.0111872805 0.0031544094 0.056474358 -0.13439643 0.25490177 -0.02267558 -0.048549354 0.18927044 0.40406144 0.04233933 -0.029223897 0.059123717 -0.06677748 -0.12662321
2320 -0.025211388 -0.042459574 0.014663916 -0.08806787 -0.035130475 0.0699898 -0.33245805 0.15418404 0.018222578 0.3035831 -0.072093435 -0.21486628 0.08072517 -0.25384316 -0.06874957 -0.09432088 0.043648567 -0.21608937 0.14877422 0.1403745 -0.069119334 0.22996458 0.25083283 0.10503621 -0.060215745 0.22675827 -0.42692882 0.103028886 -0.18190357 -0.016398236 0.0032948914 0.17775871 0.07346318 -0.20009944 -0.16813058 0.09492776 -0.24202743 -0.08037704 0.15590273 -0.21976802 0.23516054 0.11637485 -0.2468805 -0.31460938 -0.0782767 -0.11018511 -0.058427908 0.20051566 0.005512005 0.020212801 0.09514908 -0.19901809 0.08126773 -0.12610242 0.03931236 0.00071890384 0.2323655 -0.13905999 0.05212382 0.25235018 -0.0019730541 -0.118489526 0.23097792 0.22488092 0.119780846 0.031242702 -0.10746614 -0.010674013 -0.09284747 -0.23442167 -0.09697894 0.149268 0.09553301 -0.022638243 -0.25396365 -0.074265674 -0.053741425 -0.009612761 -0.26627257 0.4023078 -0.001963947 -0.16094439 0.07100688 -0.002758439 -0.17853768 -0.041841514 -0.10524714 0.019104553 -0.12878864 -0.28383052 0.18098566 -0.049745463 -0.07542145 0.06502301 0.22262347 0.0798773 -0.13168593 -0.21267019 0.18157546 -0.068954945 -0.014859337 0.008406932 -0.19150284 -0.18284176 -0.13028741 0.038885046 -0.17733891 0.16913652 0.10184921 -0.17915191 -0.08437473 -0.13510512 -0.057147294 -0.18315826 -0.07666679 0.14404006 -0.0071816975 -0.07447855 0.0059916223 0.014348261 0.37382805 -0.017425938 0.22017524 -0.088955656 -0.120180674 -0.082404114 0.057599142 -0.113548234
2623 -0.20953384 -0.09846704 0.068505965 0.0061390554 -0.09491686 -0.14328331 -0.3612734 0.079423636 -0.23436049 -0.1055389 0.20291926 -0.015503717 0.30597532 0.24017222 0.1168723 0.024204316 0.11400837 -0.21502672 -0.17687765 -0.062402826 -0.012468787 0.05255479 0.23863481 -0.031088829 0.2738221 0.31087857 0.09879488 0.024215965 -0.27725378 -0.27277467 0.16422997 -0.040712923 -0.0962015 0.10840476 0.0037707412 -0.22012347 0.14899924 0.09633643 0.2113893 -0.2488322 0.20366803 -0.17554498 -0.08770816 -0.07491115 -0.075772785 -0.023825873 0.34248933 0.16528973 -0.041516144 0.0009930024 0.04688738 -0.017605538 -0.014338904 0.12713107 0.14142397 -0.29522246 -0.023183834 0.013087796 -0.042045865 -0.045359265 -0.12527293 0.15827897 0.12326486 -0.08554588 0.32086375 -0.07622258 -0.14487019 0.33400264 0.11679678 -0.03954954 -0.11142817 -0.16367492 -0.2070631 -0.3257424 0.124925755 0.17986265 -0.05951318 0.069848634 -0.07505375 0.41767353 0.08689922 0.28367013 0.024629273 -0.1359916 0.059345767 -0.13049841 0.18142891 0.14254005 0.16294408 -0.15903382 0.0570948 0.47127685 -0.07326147 0.22896174 0.06944578 -0.014613059 -0.002853505 -0.09657893 -0.09167089 0.15203637 0.0765313 0.012312966 0.16418655 0.044918906 -0.059227485 0.24339646 -0.11360587 -0.032291356 -0.02506091 -0.2524568 -0.028256988 -0.052316524 0.24737602 0.05130037 0.08014695 0.12085505 0.019215396 0.00449262 -0.010723905 0.10257877 0.2634296 0.062068548 0.17639405 -0.19113554 0.14758739 -0.4076629 0.05761979 0.0922309
163 -0.054018814 0.028043171 0.0478997 -0.2508734 -0.01041731 -0.060326114 -0.055870283 -0.109797336 -0.119808756 0.047802057 0.109454595 0.15033813 -0.11404448 0.36256847 0.03804222 -0.38858795 0.118076496 0.21643835 0.12955163 -0.28230372 0.147692 -0.097330235 0.05226065 0.275162 0.15978989 -0.06611646 0.23141138 -0.017198812 -0.21143794 0.021334179 0.0024090318 0.47113854 0.06548778 0.4514846 0.016492246 -0.2038832 0.053479746 -0.022598868 0.12620698 -0.30170333 0.090122364 0.051925823 -0.046330318 -0.38611737 -0.030680496 -0.16402937 -0.18390381 0.34431306 -0.09642139 0.18712658 -0.0011375666 0.14822023 0.17722718 -0.08274732 0.28076974 -0.039822128 0.01631969 -0.099613436 -0.0945037 0.1784542 0.29866186 -0.028859029 0.10214584 -0.33400077 -0.0021689332 -0.14283413 -0.3785517 0.3467797 -0.00014285173 -0.24410675 0.116016425 -0.25596964 0.19752558 -0.23047894 -0.1972335 0.24406266 -0.264299 -0.21539412 0.011967431 0.0048507163 0.31924522 -0.2974201 0.0783365 -0.033098605 -0.21649109 0.06027805 0.094839364 -0.018298734 -0.07970579 -0.08976089 0.04450527 0.27265188 0.13167758 0.18908507 -0.02198635 0.0043225987 -0.18441209 0.25448892 -0.029017603 0.16232005 -0.022948904 -0.092101984 -0.021864101 0.04871477 0.04533953 0.026188534 0.28745893 0.08022362 -0.03129374 -0.16573234 -0.073687986 -0.041833628 0.17768905 0.06277891 -0.0633623 -0.16283081 -0.059359103 -0.09487323 -0.19101334 0.014438666 0.061981678 0.105077416 0.059415266 -0.026143538 0.06289195 -0.23840246 0.18043365 0.1838448
1489 -0.06372811 0.034446944 -0.013737453 0.047005694 -0.065848045 0.11053994 -0.06641157 0.3135979 0.04401092 -0.10087564 0.100017175 -0.22617598 0.0091587445 0.03515539 0.13137461 0.016966753 -0.06332272 0.019737763 0.058532212 -0.040711585 0.021585565 0.4024535 0.049775597 0.020556979 -0.07775625 0.2981653 -0.20285629 -0.12600246 -0.049058445 -0.038666774 0.19481665 -0.10760403 0.04527708 -0.07587237 -0.30029052 0.081755854 -0.18537548 0.124716744 0.19987094 -0.053688753 0.006514582 0.092580825 -0.056500416 -0.24148299 0.012371295 -0.01627641 -0.10119302 0.10699138 0.117513075 0.0035096065 -0.031849142 -0.1377324 0.14573528 -0.0726494 -0.18438065 -0.16460451 -0.07985401 0.21822174 0.017623799 0.118030176 0.04606817 -0.09640758 0.018130826 0.11880993 -0.089192905 -0.32002968 -0.02504561 -0.00281861 -0.075455025 -0.12261915 0.2907624 -0.07293871 0.01584808 0.08732352 0.097084485 -0.084567785 -0.26993513 -0.0024600776 -0.10785971 0.11848198 0.07696484 -0.1499616 0.19307743 -0.07550455 0.03698193 -0.2551649 -0.033999868 0.19972177 0.008056432 0.34519774 -0.11327647 0.07227835 0.26768556 0.12253444 0.21967761 0.01290139 -0.027081441 0.20050746 -0.15501302 0.24535143 -0.02338618 0.33874452 0.21154568 0.14875175 -0.096852854 -0.020922033 -0.23444307 -0.00339446 0.12503017 -0.22749181 -0.013060293 0.011716262 0.14591286 -0.09971147 -0.17787714 -0.11040091 0.1161754 0.018575788 -0.34563673 0.093979746 0.17320134 -0.027220776 0.1372781 0.07874184 -0.25970444 -0.16751471 0.09438913 0.017468996
1286 0.04720527 -0.28723508 -0.00040666337 -0.08530344 0.09910243 -0.015178339 -0.21541008 0.03626395 0.08435856 -0.07044303 -0.053333692 -0.27288574 -0.07601521 0.14923239 -0.17996104 0.0008077899 0.006239643 0.039788313 0.14807601 0.11452936 0.18588486 0.07002898 0.28574097 -0.12160022 -0.17802364 0.308056 0.06612729 0.02654891 -0.5200222 0.048605546 0.1792138 0.088547155 -0.040053625 -0.041619465 0.07585465 -0.015319169 0.024785826 0.16343226 -0.08460462 -0.2473558 0.11391965 0.14600867 -0.036156863 -0.09885652 0.16883242 -0.34123567 -0.29839936 0.24919005 -0.14192468 -0.039385397 -0.08151745 -0.33481696 0.12619938 0.042695835 -0.029716399 -0.08793322 0.33754086 0.065500714 -0.1631815 -0.14482452 0.011156456 -0.07273383 0.16307315 0.12887342 -0.14569922 -0.25578168 -0.1003567 -0.10470973 -0.061239716 0.04090487 -0.04195656 0.0056581222 0.122849606 -0.2560651 0.028887784 -0.00844686 -0.2166544 -0.17415509 0.089562826 0.15007786 0.054732595 0.01324358 0.16901183 -0.007977038 -0.3120124 0.16300082 -0.22409657 0.013575074 -0.15107156 -0.15896676 -0.13444999 -0.058877055 -0.11466377 0.15256824 0.29148552 0.18982193 -0.089720584 0.040213343 -0.11882763 0.13334747 -0.11231018 -0.14056145 0.25959885 -0.038221795 -0.2752953 0.09583742 -0.088544466 0.2408118 -0.055443473 -0.37144944 -0.082202025 -0.20234819 0.15756421 -0.07624928 0.03027377 0.22114916 0.3401718 -0.053187467 -0.17165525 0.06263167 0.10308202 0.14197473 0.009233501 0.19314684 -0.1755516 -0.119006164 0.17925508 0.021878995
420 -0.23661467 -0.28522137 0.1619354 -0.050305825 0.21665289 0.21911278 -0.21657017 -0.114913285 0.1114364 0.17807429 0.08164763 -0.27253482 -0.17410266 0.121533126 -0.017887754 -0.5263296 0.15383604 0.018638708 0.1617427 0.18378803 -0.028266227 0.17637382 -0.17734058 -0.12580174 0.047623143 0.29261032 0.03405638 0.1380712 -0.11359648 0.007934678 -0.10553706 -0.017154628 -0.13411817 0.06914912 -0.086826175 -0.07206456 0.025270963 0.25510868 0.21619415 -0.16508883 -0.27477476 0.22132416 0.028996734 0.11809911 -0.3667499 -0.25035653 -0.033476546 0.053261947 -0.15328282 -0.12756772 0.09082277 0.17134711 -0.1129064 0.20011258 -0.017336402 0.21018189 -0.3585785 -0.053563315 0.056569725 -0.23910841 0.18224688 0.014989305 0.25435692 0.09414943 -0.16763934 -0.1009011 -0.22044365 -0.10911468 -0.097755 -0.112369835 -0.24849911 -0.13661508 -0.117228605 0.17087094 -0.1952018 0.07445918 0.029705746 -0.30812982 0.10933921 0.14135319 -0.16345975 -0.06614708 -0.021797195 -0.16163178 -0.090672806 -0.03242596 -0.35834807 0.12507866 -0.047895968 0.06916307 0.11505944 0.10141988 -0.27273464 0.20368008 -0.0048542763 -0.26306418 -0.121447705 0.22461937 -0.0638412 -0.12868346 0.24513572 -0.35070077 0.3381005 0.13885371 -0.06382374 0.27083558 0.06720033 -0.16157861 -0.078828506 0.06946817 -0.09881191 -0.18862875 -0.051568028 -0.101086274 -0.15522863 0.07710083 0.19503576 -0.010181194 0.011158621 0.03393278 0.19162878 0.044870026 0.25875187 0.029159764 -0.19689873 0.0013285188 0.1971186 0.04009429
141 0.09282952 0.050335735 -0.14702106 -0.16293983 0.18641913 -0.18600655 0.05045191 0.12557259 -0.24251425 0.05491362 -0.07047516 0.018947737 -0.15365767 -0.13195537 -0.09368535 -0.08685424 -0.11086101 -0.012951757 -0.27603924 -0.20208946 0.26092508 -0.009955934 -0.21351728 0.16638413 0.037344027 0.21781486 -0.17827858 0.024697896 0.0014345314 0.09978048 -0.020260222 0.0028465341 0.07282669 0.104267426 -0.16732751 0.05927363 -0.0024982917 -0.13756126 -0.030887531 -0.22370416 -0.06122344 -0.020056032 -0.22365564 -0.21401183 -0.26668584 -0.21800059 -0.037894133 0.34665394 0.090472884 -0.19273184 0.09681377 -0.086439505 0.14076208 0.15988651 -0.27846506 -0.10128785 0.19054262 0.16133332 0.11532209 0.13018578 -0.11665243 0.024566945 -0.05152068 -0.11536924 -0.08343547 -0.054969598 0.12806539 0.10582676 0.014303295 -0.14655401 0.0011000724 0.21773493 0.117091715 0.28683588 -0.05397154 0.114485234 0.009668548 -0.089969605 0.11881507 -0.25186744 0.0024294297 -0.06332015 0.3813953 -0.0428041 0.096236505 -0.07623714 -0.08779195 0.052307535 0.15013027 0.2647069 0.03309803 0.31949252 -0.10846596 0.11098786 0.011580099 -0.1526637 -0.14928752 -0.10868057 -0.16036676 0.09671211 -0.034509428 0.03911847 -0.034499716 0.26118514 -0.02143741 -0.087457485 -0.07990639 -0.09607203 -0.11933598 -0.18173668 -0.24106462 0.075928755 0.25871107 -0.24741401 -0.024463555 0.022606138 0.29527494 0.03380363 0.04766421 0.059071276 -0.06904122 -0.06345044 0.24131489 0.019565253 0.109967925 -0.056605563 -0.028518524 0.20985956
651 0.27371377 -0.27919525 0.043884616 -0.23880929 -0.03253126 0.087321706 0.111018196 -0.17429534 -0.028077153 0.03456182 -0.030683996 0.39667147 0.12749594 0.108007334 0.42962056 -0.12824184 0.11085897 -0.017985813 0.05622368 0.23787808 -0.17980845 0.15166633 -0.3868652 -0.18620144 -0.2172634 0.045451943 0.13411465 -0.12066463 -0.16066661 0.0041718204 -0.048460707 0.09356408 0.35780722 -0.08736267 -0.2740571 0.05623648 0.029045591 -0.06148182 0.14531592 -0.2671889 -0.22449006 0.3533596 0.24026358 -0.11602925 -0.095792234 -0.10169099 0.13343431 0.36055854 -0.19902653 -0.16475196 0.09141736 -0.26631615 -0.29249734 -0.20062798 -0.108799316 0.16359247 -0.04356024 0.084799595 0.13320209 0.2185864 0.14378658 -0.01798158 0.13032228 -0.09563398 0.05712471 0.01835058 -0.1713313 0.25786597 -0.015877029 -0.17790373 -0.16536321 0.14719313 0.12684515 0.038905162 -0.11794401 0.28368497 0.067085706 -0.06221896 -0.029930156 0.21437244 0.18698211 -0.16750257 0.07183915 -0.07870571 0.09899108 -0.342294 -0.19716299 -0.18786472 -0.044168472 -0.29256526 0.1429818 0.1424824 -0.1201586 0.17538543 -0.004418278 0.07205141 -0.16979638 0.05461277 0.07168542 -0.07526508 0.16970491 -0.027838195 0.037091766 -0.04356903 -0.14538115 0.32474118 0.00900045 0.23283237 -0.048229076 -0.33123288 0.093747 0.10599326 -0.44445544 -0.12418701 -0.22180614 0.1967695 0.06184048 0.20455872 -0.04339745 0.12651287 0.20449759 0.050962225 -0.088865854 0.051105596 -0.11464057 -0.23005953 -0.21087772 0.13307609
162 -0.041877035 0.08321316 0.013658312 -0.16348287 0.04813497 -0.055771936 0.07582841 -0.07786887 -0.22894384 0.07926557 0.09053498 0.18382737 -0.0303432 0.44110158 0.008641689 -0.42015162 0.123838566 0.21373567 0.08700934 -0.1321424 0.16983932 -0.24111733 0.11003101 0.34581712 0.09550052 0.05188877 0.17155538 -0.07031309 -0.2852656 0.08146015 0.0095820455 0.44296455 -0.032419425 0.3144526 -0.043438237 -0.13884744 -0.156853 -0.05627503 0.1412975 -0.2691791 0.10189818 0.15158845 0.05132469 -0.32896683 0.036853965 -0.11277085 -0.16012 0.3731911 -0.036294274 0.13620494 -0.03321712 0.18704222 0.14207356 0.02443552 0.28798583 -0.026527042 0.045852892 -0.22103727 -0.11919509 0.20424007 0.436403 0.07966939 0.06481135 -0.3373651 -0.026757406 -0.19591221 -0.40379494 0.3313343 -0.014884213 -0.18542305 -0.024582779 -0.24487047 0.2717357 -0.1680164 -0.25376916 0.24507356 -0.14538515 -0.1673909 -0.057179403 0.15313682 0.15391366 -0.2891561 0.11753809 -0.023998616 -0.15033491 0.11126099 0.112979285 0.029529948 -0.09668554 0.071868315 0.039527874 0.31839874 0.10509912 0.16246434 -0.030826937 0.023516985 -0.19332576 0.28172985 -0.21395937 0.2212832 -0.040432837 0.049963895 -0.03876157 0.04670828 0.07227708 -0.06927817 0.27463344 0.07470121 -0.0040591536 -0.1911547 0.03845417 -0.16770776 0.18068258 0.08037936 -0.05638999 -0.16683969 -0.095985316 -0.03557416 -0.059261464 0.07491038 0.17791718 0.10242453 0.04461116 -0.036217574 -0.031848226 -0.20266064 0.12534699 0.18403164
613 -0.087444246 -0.25175628 0.108149394 0.15257065 -0.0190846 -0.038591992 -0.046217315 -0.12701577 -0.09061859 -0.16515069 0.057092812 -0.39784566 0.06575636 0.013753304 0.0015116826 -0.111159794 -0.024145477 -0.094758146 0.033419218 -0.06849969 0.075589135 -0.11310164 -0.1719205 -0.01788247 0.11289871 -0.06393006 0.10902519 0.19435714 0.011091132 0.06925361 0.071634315 0.04120781 0.09922749 -0.10007627 0.07965463 -0.17896809 -0.25132713 -0.11410818 -0.28616336 0.05777831 0.020277478 0.0060274447 -0.12735593 -0.06289113 -0.2499396 0.24058864 -0.16547963 -0.07749206 -0.2452918 -0.13110769 -0.019166205 0.10579295 -0.2539899 0.073599145 0.033066977 0.08713001 0.05263243 0.3481851 -0.13507 -0.0025075488 -0.0013012497 0.06969369 0.19110127 0.068069465 0.06572636 0.05559794 -0.18893152 0.3906577 0.16443631 0.0022915138 -0.05130481 0.013289796 -0.13066477 0.13803124 -0.09695242 0.10866887 0.08352527 -0.25576085 -0.10500126 0.06261862 0.23763168 0.07421748 0.07954258 -0.020037647 0.19735448 -0.23524906 0.16760838 0.15840411 0.046461664 0.03469015 -0.048914976 0.20703089 -0.029062182 0.18349299 0.11621469 -0.106829286 -0.2020892 -0.1057107 0.30130774 -0.12903492 0.38431206 -0.023265108 -0.012609681 -0.010021062 -0.050522283 0.18504234 0.10757166 -0.018776052 0.09382516 -0.41516653 0.08895594 -0.19506976 0.0938077 0.11792703 -0.05767444 0.3935317 0.14887448 -0.16923785 -0.18133163 0.42969045 0.25044072 0.24709702 0.04915673 -0.10607581 -0.15678786 0.2727528 0.12838194 0.15545067
213 -0.35565093 0.18741518 -0.07142765 0.14625785 -0.18041775 -0.2523888 -0.15337992 -0.32989493 -0.14482671 0.08898 -0.052425083 0.06662529 -0.15718333 0.22736804 0.11556549 0.003779647 0.060399488 -0.08725777 0.22783561 -0.17304374 -0.106486686 -0.021970622 -0.07515017 -0.21834391 0.052219998 0.39591983 -0.07608134 0.3131734 -0.44495732 0.107807666 -0.053070236 0.03001718 -0.004469824 -0.1264219 0.020110505 -0.004734216 0.11504474 -0.21965165 0.18470198 0.0024968376 0.09995442 -0.09460326 -0.16785564 -0.065680586 -0.3075748 0.11194916 0.1840117 0.25057006 -0.24871826 -0.17752309 0.1485251 -0.24578924 -0.11808015 -0.17147651 0.050011445 -0.0457446 0.3095321 -0.16067174 0.20894949 -0.40260404 -0.14295428 -0.25310937 0.19218402 -0.20869948 -0.2530501 -0.31255746 -0.23162751 -0.019082837 -0.36259216 -0.060461618 -0.118390016 0.047478553 -0.041488193 -0.115664355 -0.26591232 -0.030469546 0.13652684 0.03204455 0.123548836 -0.06520311 0.0015204933 -0.09731067 0.4388128 -0.17691906 0.11927696 -0.23926921 0.019897606 0.13120496 0.15120013 0.05899364 0.057050806 -0.03450956 0.20151915 0.22901838 0.036645718 -0.2048087 -0.1180345 -0.14173378 0.34629157 -0.12847106 -0.32408074 0.22857127 -0.012642258 0.1422825 -0.18380594 0.027107436 0.21636915 -0.05537095 0.048101906 -0.17312945 0.030795641 -0.06898192 0.41612175 -0.15398274 -0.13376953 -0.24200208 0.1410089 0.21471535 0.13816755 0.09590095 0.03846124 -0.109580316 -0.18618879 -0.006852483 -0.03739243 -0.37678164 0.13607126 0.09313367
338 0.0647502 -0.13317497 0.11892414 -0.18848787 0.10273905 -0.25084883 -0.055568684 -0.08723007 -0.017346395 0.10629797 0.015313044 0.108145095 -0.059442777 -0.14338982 0.069953896 -0.07030532 0.012198137 -0.112651825 -0.27031797 -0.22095686 0.20432782 0.06998239 0.04106097 -0.042332247 0.030908724 0.25075036 0.11410763 0.1443051 -0.14515632 0.06710108 0.08438871 -0.2776201 -0.05691494 0.14993736 0.08887558 0.11068974 0.046764437 0.10902963 0.33360404 -0.11978601 -0.17914465 -0.02703477 -0.118721634 -0.17038335 -0.17300577 0.101132 0.10947907 0.120429754 -0.08338002 0.017767072 0.02278723 -0.2958732 0.25464883 0.016293092 -0.17850135 0.13746397 -0.032038197 0.24120693 -0.10717623 0.0861223 -0.12327633 0.078508444 -0.07279729 -0.07901829 0.07294561 0.105994895 -0.12164064 0.06244538 -0.024081355 0.073274076 0.17893331 -0.1795837 -0.08046878 -0.015433686 -0.008832135 0.16323663 0.105005495 -0.19197522 -0.065674655 -0.15158275 0.025670405 -0.109144725 0.258415 0.089686856 0.19497155 -0.31305557 -0.09114761 0.08546761 -0.03067832 0.17153198 -0.08236357 0.18335949 -0.18472463 0.09521658 0.058051784 0.1304562 -0.087576374 -0.15438524 -0.026904503 -0.0014712997 0.1645141 0.105414174 0.09251419 0.0773226 -0.01773619 0.046133053 0.035637356 -0.1295918 0.04630743 -0.0020173127 -0.048536852 -0.08600432 -0.02773439 -0.34058368 -0.21144275 -0.101672485 0.14246051 -0.04093841 0.0021623033 0.21251118 -0.049021162 -0.16893129 0.22540967 0.0373433 -0.047448024 0.059099223 0.02536018 0.29021153
337 0.062927574 -0.15751228 -0.023125442 -0.1565259 0.06488657 -0.21126476 -0.043995608 -0.06809816 -0.015478632 0.08528527 -0.091532 0.05563003 -0.10556545 -0.10746739 0.04853467 -0.016066317 -0.06320514 -0.13864805 -0.21478648 -0.13572513 0.21696635 0.083866194 0.047964927 -0.037729576 0.053983063 0.13130328 0.13524495 0.13356234 -0.1823574 0.04067916 -0.016658999 -0.25631696 -0.071034335 0.14250354 0.052121498 0.24745703 0.05902539 0.08057851 0.30505368 -0.099438 -0.14257511 -0.15471482 -0.030954998 -0.2186514 -0.1336526 0.11630004 0.09072084 0.18966825 -0.081301235 0.09668424 0.057126295 -0.31840518 0.28092107 0.056182306 -0.16380373 0.2252161 -0.0778414 0.16104297 -0.10670777 0.13320932 -0.13578582 0.13033767 -0.064743645 -0.07078854 0.05549981 0.04997366 -0.08987252 0.08415649 0.0048558386 0.0010716865 0.24637595 -0.1421984 -0.07558958 0.095910035 -0.09038114 0.19301294 0.15698576 -0.15454026 -0.012804488 -0.049684457 -0.016769014 -0.052967526 0.23268504 0.19703007 0.21818888 -0.24186054 -0.1523115 0.13498697 0.031680845 0.20458432 -0.06636367 0.1607442 -0.116405904 0.18166338 -0.010145839 0.14007013 -0.02696189 -0.08434096 0.06892922 0.015993182 0.061153907 0.029368853 0.10568576 0.13618043 -0.010595042 0.058248922 0.02693185 -0.19290541 0.16709872 -0.037702158 -0.073359214 -0.17710724 0.046526723 -0.29036292 -0.26232955 -0.0018064748 0.15479559 -0.12319458 0.0049511804 0.23451297 0.019687308 -0.15933385 0.21775389 0.118380435 -0.08713808 0.012653047 -0.030426756 0.21850705
171 0.08106231 0.2704207 0.12563407 -0.09653618 -0.117688976 -0.14721793 -0.05131806 0.06519273 0.023982713 0.1744181 0.37644175 -0.23213616 -0.025547447 0.09085488 0.18723927 -0.19804683 -0.16589656 -0.063213445 0.10323123 -0.2852324 0.022754138 0.20948681 0.24233085 0.08777882 -0.19456166 0.023283565 0.06473945 0.01982129 -0.3682027 0.061330218 0.2068929 0.26178858 -0.10148818 -0.20009881 0.3563342 0.097339876 -0.40493035 0.2489466 -0.12262799 0.1614797 0.076286696 0.2939008 -0.05312378 0.4208719 -0.21930532 0.042260215 -0.0580419 0.18144883 0.27969426 0.23456444 0.29053044 0.07838263 0.24604923 -0.1737382 -0.27483228 -0.10162438 -0.07614688 0.23130748 -0.023408223 0.27184197 -0.1427488 0.07828224 -0.057910413 -0.14680173 -0.047923442 -0.067654334 0.17805743 0.17729491 -0.06876682 -0.12455635 0.004814319 0.1413371 0.18013819 0.04582193 -0.12645464 0.25771788 -0.013932271 -0.014327197 0.40068027 0.05431147 0.26591164 -0.31781128 0.32189593 -0.022309463 0.018176913 -0.00456455 0.18269034 -0.07013729 0.103366606 0.07941141 0.2355584 -0.1824507 -0.1738941 0.35853404 -0.14863484 0.047490913 0.059473455 0.1952324 0.09015248 0.33412316 -0.062056884 0.1421477 -0.23977306 -0.18757603 -0.2532535 0.13336886 -0.06584874 0.17584023 0.16028394 -0.40421706 -0.04849131 -0.11682983 0.037496243 0.10487058 -0.091029204 -0.13063046 0.15171236 -0.028272621 -0.20021485 0.05211182 0.3069485 0.1728634 0.31845725 -0.43113348 0.21652818 -0.14325665 -0.016135374 -0.19367918
