2789 64
2789 0.46890524 0.30069485 -0.005969959 -0.19455793 -0.18065779 0.011290631 -0.23386379 -0.0071044858 -0.027179416 0.3233923 -0.13385884 -0.08610711 -0.21438125 0.41195974 -0.3014033 -0.5669995 0.29456186 -0.14053552 -0.01237883 0.5222704 0.024233803 0.33381253 0.079940006 -0.41928127 -0.10805321 -0.05097405 0.39102954 -0.077076524 0.048288897 0.0572757 0.053822204 -0.11160306 -0.0548556 -0.32866654 -0.21486704 -0.25530094 0.050009873 0.061290823 0.03678216 -0.22260556 -0.028498786 0.24810845 0.04720212 -0.07323087 -0.07207902 -0.029905364 -0.12368786 0.26147765 0.18142308 0.0074639902 -0.059559815 0.4090153 0.3610719 0.27395487 0.19549541 0.15880051 0.2666984 -0.06620633 -0.1422187 -0.085963 0.22811064 -0.014779405 -0.058319386 0.11655199
2683 -0.2001743 0.44950128 0.312017 0.4157877 0.10149246 0.061996564 -0.21940908 0.18527256 0.1959954 0.04004794 -0.2324336 -0.043585807 0.12709783 0.12291686 0.10470116 -0.07036926 0.065780304 -0.18897796 0.049188398 0.021799132 -0.20413539 -0.11389173 0.00935431 -0.08128402 -0.023539035 0.0031146405 0.18834047 -0.25093088 0.16311689 0.39417374 0.28153884 0.18208641 0.02980183 -0.36925346 -0.5792079 -0.05797045 -0.2299681 -0.010426073 -0.22078227 -0.38100025 -0.0036626018 0.3210083 -0.09191463 0.6152515 -0.18515351 0.09573208 -0.2210221 0.08892077 0.23662938 -0.15113525 0.30146742 0.004990532 0.025784682 -0.24669668 0.2799834 0.17237645 0.22146547 0.09428342 -0.07454372 0.20334397 0.21446928 0.23138878 0.012898604 0.20376329
2740 0.17300645 0.12852924 -0.06529925 0.2842659 -0.119932696 -0.1512837 -0.3092455 -0.037760105 0.030556941 -0.051149976 0.0139568765 0.02070572 -0.07309235 -0.16039686 -0.18361898 -0.15817598 0.09145469 0.06278289 -0.049320757 0.11368172 -0.41445947 0.23543695 -0.30332288 -0.032361712 -0.09894004 0.09884425 0.08318161 -0.15664454 -0.20689525 0.38663974 -0.064918295 -0.023833828 0.039295197 -0.5129388 -0.28402862 -0.15923476 -0.13923699 0.07164152 -0.1633978 0.013112877 0.043225028 0.117099315 -0.013235566 -0.22342555 -0.059924543 0.096887186 -0.29918954 0.32470405 -0.15112205 -0.20817626 0.12840603 0.12585895 0.31434643 0.13227807 0.1158925 0.13490635 0.1591625 0.15186635 0.0792548 -0.10831469 0.24416359 0.089424804 -0.17582493 -0.36470124
2745 0.30439782 0.34148055 0.0045310594 0.042412505 0.095280804 -0.15986355 -0.19216684 -0.121065356 0.25641626 0.17959893 -0.28751296 0.074643575 -0.1481142 0.1667575 0.025426127 -0.1535356 0.3454785 -0.26185954 -0.26054144 0.72051996 -0.031444754 0.11857086 -0.1775349 -0.022326766 -0.06703658 0.17206332 0.07004494 -0.12824658 -0.008659119 0.12033691 0.13407709 -0.3921077 -0.0896037 -0.3840462 -0.19511317 -0.11243987 0.027888788 -0.032473728 -0.11798938 -0.199492 -0.0042450516 0.08991589 0.11832103 -0.062773965 0.1044373 0.0049467674 0.194911 0.04948506 -0.27285528 -0.0941625 0.31701982 0.15924963 0.3564664 -0.12044402 0.18144196 -0.10867838 0.073557414 0.14802788 -0.06127527 -0.25666136 -0.12970397 -0.069365114 -0.19083275 0.16637029
2628 1.0945408 -0.42396292 0.37870622 -0.12556064 -0.6911418 -0.7840665 0.25707966 0.50381744 1.0271027 -0.5181585 1.3569003 0.28942227 0.29238388 0.11712221 -0.8853055 1.363111 1.0057076 -0.9344016 -0.8188998 0.82528394 0.058780145 -0.3756454 -1.7403219 -1.2817672 0.08798606 0.9228136 1.1289959 -1.118956 -0.17886205 0.16513741 0.23998623 0.15220568 0.03284829 -2.8625567 0.69954735 0.14652097 0.034598242 0.6089911 0.0678653 0.18476358 -1.3399198 -0.9445497 -0.8421655 1.1945668 0.8709524 -0.1624682 0.17297629 1.0757512 1.2564398 -0.37713018 -1.4838464 -1.4659021 -0.79322326 -0.46966088 1.342558 -0.90941346 0.9068179 0.06506511 0.57405156 0.22508973 0.10181314 0.32978478 1.392521 0.7957568
2759 -0.08044382 0.006755522 0.34645897 0.09767145 -0.23082955 -0.15082099 -0.3554969 0.37276873 -0.20225082 0.36632988 -0.1424706 -0.4360031 -0.086472265 0.087091796 -0.20481393 0.11287972 -0.035716556 -0.1450491 0.32493174 -0.08049426 0.1356959 0.2674362 -0.63602954 0.0019156168 -0.48522857 -0.13885856 -0.28023365 0.052956294 -0.17004906 0.1507894 0.16137588 -0.07202807 0.0047293142 -0.11226754 -0.26316008 -0.12912455 0.15935652 0.15331288 -0.39065498 -0.25169688 -0.00017929658 -0.11252162 -0.16601309 0.113078475 0.06885583 0.17894708 -0.27998286 0.14960815 0.09256716 -0.31127372 0.003933496 -0.047603097 0.16415046 0.071482256 0.32132664 0.23904562 0.089790344 0.16288055 -0.089476556 0.1472935 0.31484687 0.27892005 -0.07728739 0.09437855
2585 -0.24762112 0.5126596 0.57075816 -0.19648956 0.051926345 0.27550852 -0.03955523 0.17882864 0.3791067 0.026800105 -0.38210812 -0.4930862 0.2883573 0.046143793 -0.09720361 -0.14168021 0.17598431 -0.36153644 -0.10970345 0.44451642 -0.37061918 0.10205933 -0.32998464 -0.29611018 0.032324523 0.6559467 -0.70107013 -0.023941902 -0.42074153 0.5991857 -0.014993771 -0.9395543 0.39271098 -0.31359842 0.54705197 0.38731384 0.44446906 0.04747581 -0.53096193 -0.07308562 0.39874297 0.26134315 0.09751174 0.7544327 -0.16532534 0.116670445 -0.0360867 0.2853694 0.090648174 0.21042176 -0.26675096 0.23776814 -0.3085735 0.3604268 0.42385992 0.056779724 0.12454274 0.29685986 -0.46958992 0.1205855 0.03968563 0.31023672 0.80120504 0.27005017
2575 0.036676653 0.22312412 -0.016913364 0.1873405 -0.12386615 -0.36634716 -0.034989182 -0.13837136 0.11703496 0.17026605 -0.019704837 -0.2607745 -0.20945965 -0.16840851 -0.1315024 -0.16457956 0.044763867 -0.21932064 -0.103255264 0.18946056 0.035114888 0.008702238 -0.5476908 0.20791295 -0.17157766 0.035960477 -0.04299342 -0.09241179 -0.044873957 0.3002069 0.0813128 0.13719997 -0.14069602 -0.27477682 -0.23647408 -0.20792025 -0.016673343 0.009832506 -0.030375518 -0.42378572 -0.18005997 0.26882544 -0.019860504 0.021994766 -0.13978133 -0.00030528937 -0.15847479 0.21856718 -0.117999576 -0.190874 0.3317043 0.0817014 0.16656551 0.3842308 0.33006728 -0.029070951 0.18866888 0.052230686 0.15440814 -0.19225797 0.06733685 0.04962373 -0.12839183 -0.14203559
2549 -0.05818046 -0.02351211 0.11769545 0.08968641 0.45416018 0.1358111 0.15275715 0.11753013 -0.08230558 0.0625346 -0.2437103 -0.07211991 -0.006117051 0.20040354 -0.18854699 -0.22451 -0.03752563 -0.32786033 -0.45557788 0.17172152 -0.16800451 0.03957808 -0.5531406 -0.17302673 -0.0066636745 -0.20607376 0.045733888 -0.346954 0.13846304 0.34831205 0.3558082 -0.033277694 0.2841139 -0.43746364 0.0851956 -0.19581762 -0.09185169 0.03364068 0.00035408133 -0.27270198 -0.07988064 0.028656 0.15048616 0.09932467 -0.15659079 -0.40477678 -0.011131761 0.37304282 -0.51321536 -0.23708725 0.28763148 0.17349873 0.17140903 -0.40512082 -0.13928899 0.07944305 -0.10132482 0.012835749 0.109053075 0.12458089 0.2158372 0.034997478 -0.24651906 -0.22347124
2605 0.052844256 0.5241539 0.32025754 0.13621551 0.1351758 0.0141186975 -0.066398546 -0.19146049 0.24831694 -0.11951935 -0.5217034 0.065144494 0.27826884 0.46629408 -0.10494276 0.19150025 0.24249053 -0.6415402 0.100938 -0.19953498 -0.0968524 -0.32524344 -0.22000949 -0.5148845 0.0041193697 0.18908975 -0.0015742341 0.041223664 -0.5018746 -0.06638993 0.06543791 0.037847288 -0.1510278 -0.46911684 0.03853299 0.23888077 0.3083102 0.30945942 -0.28149474 -0.27696773 0.057184253 -0.069839 0.21776141 0.00036304398 -0.06120337 0.038959343 -0.101072356 0.2284308 -0.39889023 -0.42092904 0.19793084 0.44510216 0.35307246 -0.30157268 0.33445907 0.3129118 0.24455994 0.17856315 -0.5705776 -0.15805513 0.04411775 0.31374148 -0.0355272 0.5869736
250 0.09971107 -0.1588656 0.23969886 0.18278407 0.16657333 0.12098686 -0.02334265 0.2890212 -0.026493935 0.115362905 -0.1791684 0.26213515 -0.096159995 -0.29932836 0.16983789 -0.13005683 0.52069694 0.16234492 0.1281387 -0.021257272 0.17301777 -0.11751668 -0.61430633 -0.21554494 -0.055439144 -0.3230447 0.07708976 -0.14366965 -0.5603861 0.12524167 0.09613722 -0.013952604 -0.09049354 -0.059269913 0.1052079 -0.30776155 -0.025389336 -0.0112009635 0.05463117 -0.065845266 -0.025485804 0.35860804 -0.32348365 0.14902669 -0.40305048 -0.11060443 -0.14232424 0.11545877 0.043046325 0.23400377 -0.16082823 -0.092665836 0.37937185 0.27397123 -0.17228019 -0.04925546 0.19518825 0.10092471 -0.05665254 0.18659547 -0.14406323 -0.06790041 -0.05780881 0.38760123
37 0.0962235 -0.11481866 0.20567164 0.16819984 0.1939993 0.21351536 -0.047340993 0.19540037 0.025586791 0.06427274 -0.17685187 0.19593292 -0.1703521 -0.33226705 0.06969556 -0.20311718 0.5743774 0.19594909 0.11697805 -0.067370474 0.09112179 -0.08876907 -0.6062456 -0.21868673 -0.08207652 -0.21758275 -0.07508446 -0.23909679 -0.5904501 0.20344608 0.12898941 -0.0071959463 -0.02525835 -0.06845037 0.19648314 -0.37827694 -0.14661494 -0.08490675 0.037927467 -0.04144788 -0.022187006 0.39691463 -0.24619217 0.07758779 -0.38112965 -0.166804 -0.07226716 0.13644654 0.07083271 0.13746038 -0.14127254 -0.15255803 0.37530163 0.20292185 -0.14943318 -0.0268193 0.17316331 0.14874245 0.08419513 0.17408015 -0.091787875 -0.06345938 -0.17633593 0.3620127
2622 0.2766915 0.3333991 -0.002520094 0.39901718 0.10593451 -0.082996815 0.057095457 -0.4066566 0.1089397 -0.02905074 -0.18756431 -0.09949273 -0.35340264 -0.23036662 -0.16695979 0.010977928 -0.041444555 -0.116832994 -0.059375606 0.2216553 -0.013935324 0.49325144 -0.39379814 0.21371773 -0.096241325 0.20154479 -0.17495239 -0.36118904 -0.08527994 0.16110307 0.08966901 -0.060911972 -0.199598 -0.10189828 -0.027047347 -0.17316484 0.17858393 0.02425524 -0.3373925 -0.3243327 0.065286815 -0.1781975 -0.18017009 0.18050528 -0.19000575 -0.057645544 0.0031253328 -0.03992528 -0.43691343 -0.11329752 0.32400516 -0.13320427 -0.12409152 0.2864908 0.1848081 0.31295958 0.4783042 -0.08205658 0.102196395 -0.335452 0.09228471 0.16728617 0.017214904 0.078866236
89 0.065759756 -0.20716524 0.084418915 0.122344054 0.13805617 0.12594675 -0.00044656705 0.24595161 -0.06614215 0.20499048 -0.17025259 0.1719814 -0.067808606 -0.36474782 0.17498177 -0.19873413 0.4577457 0.10329097 0.110786706 -0.039031256 0.13551149 -0.1658992 -0.62408924 -0.19853103 -0.028361091 -0.26734397 0.06191079 -0.2796165 -0.5663482 0.14919205 0.09029401 -0.025405578 -0.1321964 -0.08127564 0.14876233 -0.30383372 -0.02273965 -0.035955314 -0.05038328 -0.0534364 -0.04881581 0.382583 -0.33542886 0.15115431 -0.39526156 -0.02045492 -0.18659884 0.06523223 -0.0026750474 0.27994725 -0.1698659 -0.10930729 0.36644688 0.23549402 -0.16591923 -0.016590776 0.17039743 0.08023159 0.02351941 0.22135957 -0.13289356 -0.063581035 -0.1096838 0.38179347
237 0.15917817 -0.1417981 0.16553898 0.24982525 0.20636055 0.20850928 0.088913836 0.26746425 -0.029689379 0.12467009 -0.113889664 0.23001672 -0.06489802 -0.32977796 0.22351913 -0.18094295 0.5117893 0.14762044 0.0386787 0.017401643 0.08157138 -0.042908676 -0.5962137 -0.19082312 -0.118038066 -0.2546445 -0.0676108 -0.24002343 -0.6388186 0.1243481 0.08839823 -0.007319535 -0.094197586 -0.04451088 0.10501308 -0.32794732 -0.065077424 -0.054688703 -0.041933544 -0.10462073 -0.09271648 0.43046334 -0.2980535 0.20849991 -0.35652372 -0.096960366 -0.05372194 0.08334001 -0.0058128447 0.24249788 -0.13633682 -0.14149337 0.34175596 0.25526053 -0.13124959 0.011767861 0.11637148 0.048373453 0.00017257546 0.16764931 -0.116614595 -0.06973219 -0.081372686 0.40663487
251 0.0765841 -0.15552624 0.2707212 0.19064675 0.24929476 0.16982205 -0.028129747 0.25620645 -0.04463164 0.19096155 -0.06745766 0.22770815 -0.06972388 -0.29860693 0.13723697 -0.160875 0.5219486 0.15279457 0.16453655 -0.017147712 0.07683491 -0.058543008 -0.6851031 -0.26581627 -0.044662792 -0.25254953 -0.023013564 -0.16629574 -0.66108775 0.15327932 0.17245586 0.0076325014 -0.087158084 -0.0975024 0.09476915 -0.29654786 -0.10832814 -0.01202672 0.012912826 0.049633276 -0.030546697 0.38178498 -0.31589943 0.0956612 -0.34990636 -0.0815685 -0.12599173 0.15474579 0.046878606 0.20235452 -0.13378285 -0.10820734 0.31309572 0.31593126 -0.2584617 -0.06403562 0.1032411 0.007409646 0.045420222 0.2471579 -0.1059289 -0.09152189 -0.07175984 0.3008825
196 0.15113737 -0.13669875 0.21501756 0.26632777 0.16297826 0.22133064 0.0081356885 0.25795406 0.060472492 0.114534914 -0.12950417 0.26793298 -0.12726867 -0.29967022 0.09824264 -0.17777137 0.5962952 0.1288261 0.13019381 -0.045647487 0.12321621 -0.02977364 -0.6283283 -0.13186423 0.0032209426 -0.34217125 0.079302676 -0.22282097 -0.5626767 0.17529148 0.10959442 0.0042745518 -0.12588392 -0.06020915 0.12664011 -0.37060568 -0.08161939 -0.0025563054 -0.0024542161 -0.018478008 0.01900698 0.32274103 -0.26519442 0.098333314 -0.36047333 -0.18957524 -0.14368308 0.087743565 0.04025922 0.18863611 -0.1933241 -0.112839594 0.32586017 0.30388743 -0.1661724 -0.037237488 0.13285814 0.07208721 -0.020144308 0.21955259 -0.07568874 -0.06619558 -0.16705497 0.31989962
2768 -0.051178742 -0.11381877 0.09042881 0.17445584 -0.15629992 -0.35438123 -0.3550372 -0.020519292 0.30010983 0.06964705 -0.22077374 0.09470973 -0.012967423 -0.22480178 -0.22059269 -0.23409238 0.33746585 0.04090329 0.104401045 0.064951405 -0.07418467 0.19190152 -0.54168105 0.13226229 0.031721108 -0.14795826 0.044360574 0.031929616 0.054326802 0.07698777 0.21390052 0.0066835987 -0.09467175 -0.45585114 -0.2319207 -0.26811108 0.07974962 0.15724988 -0.022437192 0.046495024 -0.25954083 0.18691416 -0.07492896 -0.06885872 0.061241537 0.1794811 -0.37650245 0.14741363 -0.06165455 0.16708706 0.12802453 0.42011654 0.12704474 0.10201105 0.30501908 0.242645 0.20928912 -0.16139796 -0.065941274 0.018853001 0.0003275697 0.21547687 -0.26212656 0.05779603
2764 0.025469452 0.13627367 0.12727052 -0.11011794 0.075635895 0.2925647 -0.10555137 -0.32374883 0.26747772 0.35515893 -0.27587226 -0.019699827 0.019418634 -0.2543638 -0.082082644 -0.32215106 0.17194282 -0.2755928 -0.067871906 0.16418387 -0.14686278 0.24601436 -0.43325028 0.26902553 -0.12572558 -0.10969351 -0.06956186 0.05259608 -0.20452492 0.22777183 0.48030084 0.08364697 0.065148264 -0.30296972 -0.21707746 0.35902944 -0.16478348 0.14849088 0.11464877 -0.23333855 0.100110084 -0.10081421 -0.29051706 -0.020610256 0.38986298 -0.3397005 -0.10223634 0.4404162 -0.23698854 -0.26649103 0.21118425 0.10352102 0.14421116 0.34636006 0.36770406 -0.02534821 0.051635265 -0.34085464 0.09502617 0.07728979 -0.014055016 0.23524216 0.069522016 0.11348153
897 0.025720643 -0.074863166 0.03593022 0.1370431 0.38021314 -0.2744984 -0.14942543 -0.052630164 0.1731637 0.16945611 0.076456465 0.15714651 -0.023558853 -0.0572182 -0.11246637 -0.03753302 -0.10183667 -0.36581683 0.22239695 0.018418634 0.027022408 0.10286436 -0.22386289 -0.016269717 -0.18938056 0.010754004 0.0906201 -0.2126725 -0.028501011 0.24951948 0.049657915 -0.077358186 -0.19580334 -0.19915633 0.021022817 0.1721052 -0.11898984 -0.088969864 0.057232074 -0.07067878 -0.024235137 0.21035331 -0.3414786 -0.047495663 -0.008338696 0.07464092 -0.10422038 0.03293838 -0.5263865 0.17298865 0.101919144 0.047357462 -0.048314724 0.14929329 0.28218752 0.068823166 0.3499981 0.29594338 -0.13855848 0.1520471 0.14809947 -0.17088397 -0.09560352 0.20146786
2731 -0.03375261 -0.046964392 0.06799899 -0.14210556 0.0035349752 -0.23581052 -0.121201515 -0.096725926 0.28899893 0.14079724 -0.18882187 0.009011773 -0.05114771 -0.46266472 -0.3875277 -0.022693299 0.24462849 0.0012391495 -0.13215898 0.016772278 -0.24168456 0.25929755 -0.32478955 0.026251832 -0.08453539 -0.3859966 -0.006268087 0.03536309 -0.007345006 0.3290849 0.1252586 -0.12046259 -0.031338945 -0.31647602 0.07405177 0.1082409 -0.23168522 0.27806216 -0.0012280823 -0.10881191 -0.30134362 -0.07396128 -0.039698064 0.027355067 -0.13052921 0.28929353 -0.26758087 0.24713823 -0.0103434855 -0.28160936 0.09675503 0.1613047 0.27592483 0.293473 0.24309498 0.22907051 0.06890646 -0.27425933 -0.41448286 -0.0885344 0.22425123 0.10293207 -0.20526868 -0.15809575
2547 -0.056468934 0.032584913 0.0040835966 0.03224667 0.14743622 -0.01484591 -0.31049436 -0.054875497 0.21546093 0.26368672 -0.21908315 -0.22725928 -0.12907195 -0.325748 -0.06669582 -0.0029450455 -0.0021079122 -0.08470038 0.12462281 0.010574596 0.06466719 0.114710905 -0.4921801 -0.05108683 -0.30200008 0.06306292 -0.14937755 -0.29220468 0.030352302 0.43985024 0.013720624 -0.17398332 0.17030522 -0.3304949 -0.15647258 -0.3383701 -0.0054699923 0.07874947 -0.011969084 -0.14687331 -0.19537455 -0.11047047 0.010677114 -0.3207544 -0.23932043 -0.21794887 -0.3391499 0.14971818 -0.056932833 -0.2518703 0.17311111 -0.016014682 0.20916604 0.23147008 0.03147854 0.03268789 0.2759104 -0.073799714 0.10171672 0.025400413 0.16424613 0.06941425 0.006862974 -0.18171525
2636 0.14764994 0.13100669 -0.17672549 0.3180359 -0.21136889 -0.15636648 0.05786815 -0.064201355 0.12810875 -0.08482859 -0.025992718 -0.1490442 -0.08095566 -0.22438708 -0.21357897 -0.11999494 0.14407232 -0.20991622 -0.2548911 0.2906492 0.17446792 0.21362467 -0.30198142 -0.046985842 -0.047171067 0.15631695 -0.04629268 -0.14761968 -0.12369261 0.010989142 -0.16671768 -0.1599209 0.051213596 -0.3144069 -0.22058463 -0.17810676 -0.062651865 0.008006209 -0.12455389 -0.12385417 -0.25256214 0.29067996 -0.053277757 -0.018886304 -0.063018486 0.0684794 -0.057976667 0.19681641 -0.46385577 -0.0015727815 0.2735534 -0.021984635 0.24394248 0.12509964 0.064323194 0.41224235 0.47003445 -0.25115043 0.031480845 0.057706572 -0.021285878 0.1060939 -0.07850646 -0.07299102
2632 -0.20341402 0.13094549 -0.12249812 0.01480078 0.014743457 -0.2340746 -0.060571678 -0.20258771 0.19089949 -0.030716216 -0.5286301 -0.41165984 0.3149931 -0.40671235 -0.0425483 -0.15735984 0.21543176 -0.120597295 -0.035622623 -0.30690196 -0.06413302 0.01988334 -0.04824268 0.082444124 -0.1827131 -0.10600571 0.012851206 -0.43244183 -0.13726494 0.024531128 0.45798394 0.19544743 -0.047443364 -0.5126772 -0.11534905 -0.27491334 0.10293835 0.3365134 -0.004095602 -0.32665843 0.19228344 -0.1257893 0.05379035 0.06782318 0.19743529 -0.40271804 -0.27258208 0.3133043 -0.27710655 0.11900317 -0.11553448 0.031651292 0.03338754 -0.20575377 -0.023931945 0.5037651 0.31134674 -0.067776054 -0.07714447 0.16012855 0.4570538 0.12957822 0.3229891 0.32795253
2735 -0.039535537 -0.16077973 -0.08033956 0.02564219 0.093553826 -0.103874214 -0.13007866 -0.089150675 0.22512206 0.21099877 -0.076488964 -0.2479654 0.003486324 -0.25643888 -0.07828468 0.12234202 -0.21692085 -0.14506991 0.0020412947 0.12018159 -0.25046128 0.06122774 -0.37623593 -0.10331347 -0.094280146 -0.2507894 0.10793762 -0.22547176 -0.09001261 0.1899841 -0.07700992 0.008357948 0.097179085 -0.3579874 -0.16374363 0.08012197 -0.13751419 0.55167216 -0.065488376 -0.2997795 -0.11180984 0.18471207 0.09333602 -0.27343482 0.032265857 0.320746 0.038060497 0.28584018 -0.032333545 -0.1079858 0.34584355 0.12118264 0.40566882 0.005915268 0.09781762 0.20370977 0.19052285 -0.20961545 -0.18390957 0.09368078 0.407245 0.11211108 0.034200747 0.08475712
2696 0.2568069 0.0024800324 0.30680656 0.28205663 0.30428123 -0.28022656 0.1605329 0.8478093 0.62960696 -0.24579959 -0.06444573 -0.08733253 0.213239 0.3031616 0.4936427 0.20844968 0.22314805 0.28408617 -0.15717508 0.37263903 0.52846515 0.43443203 -0.26582074 0.07685491 -0.24254175 -0.65907395 0.09886383 0.22175655 -0.05404157 0.50428814 0.4070307 -0.16959621 0.38949978 -0.33044297 -0.33450666 -0.13134061 0.4924481 -0.003969657 -0.09419172 -0.51336455 0.16740361 0.089458644 0.30983615 0.43991676 0.20915043 0.1530239 -0.07078097 0.25062093 -0.6297931 0.07976271 0.35761884 0.18414365 0.18544975 0.0039699906 -0.03321326 0.6251973 -0.008798488 -0.22620091 0.086832546 -0.17249179 -0.059278686 -0.356199 0.18983859 0.15668112
2540 0.2730884 0.38267994 -0.30401555 -0.21269518 -0.21009478 -0.2897404 -0.081236295 -0.13211906 0.027347438 -0.027506804 -0.2476258 -0.32725063 0.2234017 -0.25757688 0.19675352 0.1534037 -0.34441534 -0.19521455 -0.027779743 0.33204067 0.38087028 -0.0109159835 -0.40418056 -0.2832251 -0.3533097 -0.389136 -0.009525731 0.0021283755 0.01643855 0.31424913 0.07162054 0.017017655 0.25382495 -0.24679264 0.08144097 0.36884308 0.04966327 -0.020891208 0.03736599 -0.4944763 -0.06869168 0.2624046 -0.21841882 0.36804274 -0.14802587 -0.05497662 -0.29682904 0.20237014 -0.34486485 -0.18332008 0.040030308 0.25126222 0.20551634 0.46065998 0.16272287 -0.03302021 0.067405544 -0.05526244 0.07559513 0.10168746 0.07713053 -0.036670893 -0.22409892 0.5609773
2660 0.08839054 0.06903098 0.109840214 0.06812017 -0.1076226 -0.4446936 -0.41957828 -0.22921582 -0.07539254 -0.37040228 -0.17286715 -0.04728975 0.32398888 0.026482487 -0.48178154 -0.17154422 -0.13188834 -0.33061984 -0.2869839 0.2905611 0.4950829 0.04519267 -0.43251902 0.003889593 0.21777119 -0.18369015 -0.100934274 -0.13228406 -0.23397022 0.44507074 0.21706927 0.077826984 0.1096014 -0.06119044 -0.17168882 -0.10756225 0.038575865 -0.18062049 -0.4733863 0.21670906 -0.17030537 0.35301375 -0.042076316 -0.11577565 -0.046403784 0.02065838 -0.10975607 0.100795746 -0.04519774 0.46674332 0.23947348 0.026288552 0.15524413 -0.15657337 0.21415049 0.49516088 0.5322023 -0.51835537 0.07154237 -0.44887313 0.33874825 0.28983447 -0.088333316 0.31193435
360 -0.07021399 -0.052059684 -0.33852443 0.36442503 0.32435352 -0.10699862 0.15715869 0.044431582 0.1540683 0.07325394 0.20059429 -0.19600159 -0.18095253 0.020719636 -0.16700344 -0.054263618 0.16973779 0.14858387 0.16102861 0.29983228 0.061761465 -0.08759417 -0.43783975 -0.36419263 -0.30898154 -0.10249787 -0.089741684 -0.15966822 -0.44314054 -0.27530515 0.43896142 0.16755623 0.017634401 -0.41137007 0.008437873 -0.007754707 0.088043615 -0.17770809 -0.30548665 0.051104467 -0.07932684 0.103895344 0.123380415 0.3157089 -0.25806448 -0.40602225 -0.080536075 0.11835649 0.21780203 -0.22338769 -0.09482266 0.16556793 0.0809556 0.14373972 -0.39430168 0.19349201 0.4746339 -0.08333664 -0.31938788 -0.28592598 -0.05444142 -0.11987631 -0.35337865 0.28155965
279 0.20770563 -0.014095951 -0.31982395 0.08015425 -0.023889 -0.29866388 -0.41804853 -0.26668522 0.07577695 0.15100807 -0.026231237 -0.57311124 0.14508106 0.2039322 0.08882117 -0.35378572 0.26997465 -0.0135519095 -0.36779982 -0.31660575 -0.5108428 -0.031660784 -0.17574479 0.059594817 -0.00067316677 -0.23778185 -0.20040885 -0.26156002 -0.14920883 0.11894944 0.36460787 -0.43521628 0.10178672 -0.04519888 -0.025209803 -0.27463803 -0.049311195 0.16212699 -0.03450447 -0.34182927 -0.21873918 0.09894908 -0.40345672 0.42160347 -0.2634248 0.23669858 0.20499972 0.20036349 -0.14344065 0.07258865 -0.5871141 0.08424618 0.114347674 0.243576 -0.31560972 0.031869 0.108726315 0.031651855 -0.026030576 0.090239935 0.35216573 0.48727116 -0.07071988 0.42378744
88 0.012995887 -0.35393506 0.37416393 0.33733886 0.14261116 -0.42794022 -0.2580777 -0.0354478 0.086713165 0.15795617 -0.08395596 -0.09168817 -0.02675989 -0.101054884 0.36350843 -0.14805341 0.0671753 -0.27262402 -0.37304646 0.3241425 0.18333675 -0.17455067 0.15176031 -0.2789889 0.120143056 0.09102708 -0.1748547 -0.40037084 -0.1624973 0.25082344 0.3201486 0.10235106 0.13986781 0.13751918 -0.14399402 -0.14860232 0.0627289 0.10866913 -0.0707968 0.03777859 -0.35623893 0.009401235 0.004962411 0.22318313 -0.095961064 0.21091308 -0.08232335 0.51745695 -0.19621465 -0.03991004 0.25098506 -0.22764456 0.04298012 0.4246009 0.002431106 0.45563656 0.14725739 0.10613823 0.039824307 0.015278783 0.13060361 -0.20836331 -0.19964944 0.2936677
165 0.011153522 -0.35695228 0.22469549 0.2915425 0.1707452 -0.39251944 -0.19147761 0.0467882 -0.029490797 0.13676088 -0.18926127 -0.1320175 0.014750576 -0.19871923 0.40530628 -0.16611403 0.14120752 -0.24943708 -0.28804275 0.1883051 0.16063885 -0.092627965 0.14739163 -0.23334146 0.19490956 0.1082808 -0.080684416 -0.2680442 -0.13708493 0.25816613 0.30896986 0.16798961 0.24146032 0.0520564 -0.15036818 -0.22714303 0.057756808 0.05117499 -0.03882215 0.032440245 -0.41073334 -0.008150842 -0.025481066 0.052726474 -0.19576451 0.28069347 -0.059231106 0.55082405 -0.16952135 -0.07011741 0.1516038 -0.15637445 0.060692247 0.4878126 -0.031772345 0.39780933 0.26630247 0.15532966 0.052323002 0.01105464 0.109998986 -0.29327616 -0.23408502 0.2810092
2533 0.2745957 -0.032589182 -0.059883293 0.10368167 0.22078621 0.04954204 -0.25382176 -0.09681135 0.4605727 0.008234828 -0.023413964 -0.45959714 -0.10632942 -0.14708285 -0.36695266 -0.01630507 0.14638971 -0.0852822 -0.24671502 0.24991387 0.30684024 -0.06841602 -0.2049534 -6.4612694e-05 -0.20070396 -0.260767 0.118456155 -0.33361924 -0.0795767 0.31130087 0.22220637 -0.4041389 0.23424561 -0.28727016 0.057206344 -0.2189919 -0.020789891 0.02992799 -0.15256065 -0.30055422 -0.3152406 -0.13901581 0.17291255 -0.114285834 -0.14760031 -0.15330352 -0.22571354 -0.28599012 -0.5285919 -0.35665596 -0.21277954 0.33464828 0.20713417 0.030703947 -0.013074098 0.3799813 0.007218974 0.024214052 0.016379004 -0.09153266 0.14347312 0.033389833 0.088351816 0.15605402
121 -0.23012172 -0.22513549 -0.13003159 -0.21347073 0.34985432 -0.017858777 -0.22634146 -0.12659127 0.34731248 0.27934304 0.1411146 -0.36858577 -0.39743644 0.031214243 -0.24093078 -0.41510478 0.08036179 0.03533266 0.11287061 -0.10900012 0.084460326 -0.15316744 -0.6216174 -0.0751619 0.3277571 0.24275635 -0.09674885 -0.29017723 0.04168774 0.023586115 -0.0002661024 0.24388729 0.06052685 -0.13025975 -0.15170598 0.3390316 0.33762908 0.24939588 -0.40754592 -0.42462385 -0.12265346 0.1483627 0.01295004 0.47679105 -0.0033334105 0.038668867 0.26106098 0.08316821 -0.3475017 0.112073414 -0.024865428 -0.19643334 0.38685963 0.27852044 0.04781999 0.31168664 0.1067233 -0.0022681237 -0.13575521 -0.14036156 0.28030536 0.20574266 -0.36877266 0.002022127
1095 0.1842144 -0.2782878 0.048531126 0.26151147 0.23842958 0.07831269 -0.0176534 0.19531183 -0.037549213 0.2841919 -0.07684228 -0.09404524 0.100634694 -0.20349787 -0.11861436 0.09836923 0.14063008 -0.29394767 0.21396038 0.18249442 0.048783083 -0.1788171 -0.16266201 -0.3357569 0.046854846 0.021326184 -0.10082035 -0.33371204 -0.078654006 0.26952884 0.13426287 -0.08985487 0.24765863 -0.24919184 0.077863894 -0.054937262 -0.092291325 -0.22553234 0.038237765 -0.023483764 -0.12942909 0.14280626 -0.14101228 -0.18411566 0.06651386 0.2673524 -0.2045678 -0.093592 -0.6068183 -0.118654415 0.08142941 0.3963567 0.20297855 0.072978064 -0.027847456 0.14177336 0.36967492 0.13176312 0.0126051335 0.2880853 0.3222759 0.015975377 0.09988133 0.04746527
640 -0.028641358 -0.28443816 0.23939145 0.43297157 0.3543754 -0.3876587 -0.39840844 0.016752454 0.081329145 0.22360381 -0.19156559 -0.062032174 0.06182394 -0.08705771 0.3415006 -0.18505284 0.1711547 -0.48397595 -0.2508411 0.08874244 0.1828545 -0.1925463 0.10793691 -0.3200153 0.29689518 0.318107 0.104313046 -0.26270252 -0.082026266 0.18717162 0.48435384 0.13934444 0.17211229 0.01350932 -0.0014047092 -0.085843705 0.095020555 0.1509454 -0.15325998 0.1047431 -0.27649075 -0.06810139 -0.038778488 0.09800749 -0.32466927 0.19201435 -0.05354752 0.40267783 -0.19132186 -0.12761913 0.15759668 0.021906126 -0.04370506 0.41532147 0.008830609 0.29376197 0.32008877 0.12903345 0.09319025 0.0006591247 -0.06787559 -0.20283069 -0.3431551 0.18178232
13 0.2736938 -0.1540657 0.07688327 -0.056805424 0.11148297 -0.20331964 -0.08810489 -0.32730553 0.17301553 0.282852 -0.20581599 -0.28772688 -0.23049994 -0.07433775 0.20316368 0.004492316 -0.31199315 0.23383097 -0.15743667 -0.03778331 -0.09046087 0.21048822 -0.28499657 -0.40758103 -0.20520149 -0.072571784 0.43554986 -0.63272566 -0.12701572 -0.31898308 -0.12601809 -0.26341182 -0.016926544 0.11164057 0.05266274 -0.115939945 -0.018977132 0.060996793 0.004135878 0.083470576 -0.11829896 0.2148367 -0.0197677 0.34166917 0.04505791 -0.18033221 -0.11452061 0.51784223 -0.43852016 -0.054534808 0.32176816 -0.09865545 -0.036647502 0.48597464 0.13279487 0.19881043 0.65992814 0.14444105 0.17846109 0.14964373 -0.14332883 -0.21829076 0.3016227 0.039616395
23 0.40207985 0.33383903 -0.09201398 -0.07633277 0.031661313 0.009153158 0.13599274 0.25252092 0.57604927 0.13235232 -0.062510185 0.6352968 -0.24097745 0.0064725857 0.11489488 0.1550485 -0.33013463 0.029195433 -0.32301426 0.3481146 0.24760701 0.08386639 -0.3733787 -0.001931472 0.048613276 0.043450337 0.15219757 -0.80501807 -0.34837398 0.32104057 0.5950655 0.48137096 -0.2597416 0.33679804 -0.1302581 0.23653577 0.18093547 -0.50780153 0.12689556 -0.038754817 0.29519248 0.2782999 0.39093512 0.4290518 0.080714606 -0.12329896 -0.26356548 0.11014146 0.029496053 -0.0012834638 -0.25214055 -0.0012088016 0.3366114 0.14918926 -0.06853654 0.15210438 0.5712718 0.7024942 -0.732315 0.25733864 0.6686119 -0.00594824 0.06149903 -0.22204915
399 -0.11016973 0.12437639 0.5050743 0.18053797 -0.013159484 -0.14172861 -0.19708067 0.005624869 0.21200582 0.4061805 0.09331486 0.20296386 -0.25865504 -0.45177057 -0.05372867 -0.10586205 0.2768994 -0.13783543 -0.2768596 0.049859304 -0.027884088 0.106713146 -0.53612584 -0.05568881 -0.054048818 -0.22439334 0.082747065 0.14097027 -0.2856372 -0.2802539 0.16972746 -0.18078415 -0.13281901 -0.32889134 0.25009558 -0.3422611 -0.23847845 0.54501563 -0.29155564 0.14310274 0.10017998 0.23065807 -0.21220528 0.25500366 -0.11025829 0.2379489 -0.39777344 -0.26847306 -0.25914034 0.23975775 -0.30013737 -0.3422089 0.4217683 0.3626163 -0.17879117 0.1875353 -0.0016640115 0.14464822 0.1563324 0.35393086 0.10533112 -0.27072024 -0.23823373 0.24648517
2424 0.21864751 -0.40297845 0.18849611 -0.19270344 0.011266986 -0.059838574 0.047562525 -0.054753117 0.52644324 0.33807662 0.16125216 -0.039564826 -0.27591503 -0.16280665 -0.13948521 0.116571374 0.19385655 -0.2751099 0.19560969 0.21914414 -0.076925784 -0.023019657 -0.21214426 0.20186546 -0.04742516 -0.46386713 -0.10034702 -0.3496033 -0.32939517 0.45985758 0.02840206 0.16403767 -0.4444571 -0.22702828 0.23861428 0.044766564 -0.17323165 -0.1047307 -0.1986784 -0.14462098 0.03263774 0.1934483 -0.11251772 -0.10037345 0.20750462 -0.051853195 -0.29355463 0.16793707 -0.42734638 0.28572264 -0.030774284 0.19461194 0.040656954 -0.08294508 -0.08625943 0.04155444 0.11724725 0.19117339 -0.23953786 0.094249226 0.37961808 0.18303503 0.0889519 0.11142596
2773 0.39222366 0.26476184 0.19752185 0.30478594 -0.008905585 -0.021308884 -0.16171187 0.13361645 0.1494493 0.23885718 -0.10706603 -0.30724752 -0.12844169 -0.114196815 -0.17704006 -0.12681936 -0.13544548 -0.056832694 -0.14510374 0.12841631 -0.26139796 0.49163207 -0.39056456 -0.043808065 -0.13334337 -0.6240438 -0.41935113 -0.015897278 -0.28275165 0.16902868 0.19489005 -0.020766081 0.2745679 -0.046191655 0.12800229 0.22264883 -0.19757438 0.046049334 0.15028934 -0.10813517 0.004776417 -0.105161294 -0.09474428 0.10768669 -0.046746217 0.17437723 0.34250447 -0.06790086 -0.06785321 -0.3381924 0.2853679 -0.04793574 0.23823607 0.17783959 0.370045 0.18100685 0.22757992 -0.047303017 -0.20901321 0.0089617465 0.31058985 0.030336054 -0.065992184 0.36874726
290 0.09028159 -0.19572532 -0.16326371 0.027385604 0.014393397 -0.025722211 -0.017243998 0.010547119 0.2686947 -0.003268262 -0.43728897 -0.4287979 0.06134357 0.04548956 0.071856156 -0.4343135 -0.047356382 0.29994452 -0.33218718 -0.21924792 -0.14391461 -0.0870742 -0.30623955 -0.13803075 -0.32000345 0.08140097 -0.21399629 -0.13381031 -0.27635807 0.19501786 0.219086 -0.017645892 0.18765023 -0.08316125 0.2487833 0.31365624 0.12800346 -0.05594825 -0.27829856 -0.58915055 -0.39962032 0.23870364 -0.05064753 0.5730785 -0.09933327 0.39121842 0.21975553 0.35110384 -0.40533498 -0.24393399 -0.17716229 0.10484525 0.26421964 -0.19234237 0.0049437736 0.035729904 0.19055034 -0.35752806 -0.1535071 -0.004857501 -0.11793427 0.028593298 -0.02939519 0.24756542
138 -0.009362082 -0.39660284 0.27027002 0.3776469 0.26261577 -0.22004661 -0.45398802 0.07130553 0.21190386 0.1959603 -0.1523306 -0.17467813 0.05274526 -0.04656946 0.3907902 -0.13256553 0.18322867 -0.48980108 -0.25122154 0.1289957 0.25338238 -0.120344095 0.13460538 -0.22958577 0.14492896 0.102758884 -0.023569407 -0.21776254 -0.119558126 0.3718005 0.38648158 0.10240895 0.21022324 -0.005213742 -0.10052993 -0.10878739 0.06750019 0.12125488 -0.0837896 0.14004515 -0.37382352 -0.13028963 0.018333515 0.08700153 -0.18234897 0.28348172 -0.16427444 0.37652627 -0.21476822 -0.2331109 0.11328148 -0.07864311 0.035184868 0.5132216 -0.057093505 0.23073848 0.18382205 0.16583277 0.056669284 0.0575114 -0.11822688 -0.13450977 -0.29596472 0.31409788
139 0.01638601 -0.3454315 0.118740626 0.34297356 0.25040504 -0.36550128 -0.30692118 0.030837823 0.22494757 0.18467219 -0.19809164 -0.18786703 0.02796265 -0.12218237 0.34851122 -0.06007143 0.09644679 -0.31744015 -0.3019446 0.22843273 0.3374505 -0.20730951 0.0864777 -0.20098196 0.22965248 0.22586247 0.058369685 -0.1476208 -0.13086942 0.32526037 0.45409763 -0.0050229025 0.28486314 0.034876917 -0.06922132 0.110929154 -0.010389123 0.19764747 0.01947958 0.13378732 -0.3131105 -0.09224213 -0.053918287 0.18305701 -0.2626376 0.2002109 0.03170948 0.40158403 -0.39168853 -0.078212425 0.08688499 -0.19531044 -0.029792272 0.56190866 -0.05617034 0.23241581 0.17979139 0.27438575 0.14158393 0.06625937 -0.03378848 -0.25453675 -0.29585063 0.24295251
1325 0.15902649 -0.2770757 -0.10182858 0.33933768 0.4791001 -0.15406084 -0.074557215 0.1775736 0.31711772 0.3900792 -0.113085665 -0.02688382 0.29611352 -0.24841759 -0.010979942 -0.066648945 0.2226535 -0.08409497 -0.15356226 0.067852914 -0.21971335 0.04693675 -0.35724732 0.1970962 -0.055113293 -0.109286115 0.2896075 0.10317511 0.05349953 0.33282998 -0.19315521 -0.028008705 -0.27977228 -0.06523571 0.029982489 0.29024422 -0.28787118 -0.15173344 -0.036503643 0.0055050403 -0.16855179 -0.0505309 -0.211366 0.12767313 0.184509 -0.4138746 0.033335403 0.05462741 -0.15179798 0.14751723 0.12454455 0.21095234 0.028015718 0.18260722 -0.23361559 0.54223025 0.40388978 0.3385415 0.22850692 -0.08711063 0.34237123 0.3984007 0.3988042 0.14991161
426 0.3754371 -0.47856373 0.04909907 0.33051857 -0.23238415 0.31506467 0.23011783 -0.17023517 0.15887955 0.22304225 -0.01887714 -0.10937959 0.027174342 0.021774258 -0.11697989 -0.32660988 0.23446004 0.1995303 -0.036356397 -0.28842282 -0.24511476 -0.011285935 -0.04994094 -0.21752039 -0.5203146 0.26037204 0.21986717 -0.0790532 -0.37390715 0.80745107 -0.055705786 0.37787253 -0.13920511 0.008195289 0.18211503 0.41495022 0.034223076 -0.46128514 -0.09671006 -0.22008482 -0.062877156 0.17106314 -0.5493506 0.68839973 0.28308654 0.5447308 0.025559364 0.23852585 -0.675249 -0.40477133 0.029096667 0.077417985 0.280231 -0.30061224 -0.19511637 0.05163482 0.35222873 -0.031136937 -0.4215016 0.35709435 -0.16287354 -0.0001874519 0.2037807 0.34160492
1539 -0.16444875 -0.0017142422 -0.1947286 0.1887142 0.3658565 -0.11423847 -0.023051439 0.24416113 -0.024166305 0.122026294 0.3078809 0.13090779 0.09591091 -0.27004555 -0.22679009 -0.5493267 0.24541831 -0.4072802 0.104763955 0.14346902 0.16884278 -0.34099948 -0.19290875 0.2086478 -0.15350242 -0.13099444 0.1467546 -0.32283998 -0.14271834 0.51812583 0.16742706 0.09365481 -0.2077058 0.039217796 0.13638102 -0.018414874 -0.19937395 0.12687856 0.11508896 -0.04879108 -0.08596404 -0.1156292 0.17305371 0.24120396 -0.1657749 0.003504439 -0.03489207 0.16258302 -0.39712152 -0.15946773 -0.12850145 0.0010745588 0.17733224 0.5670243 -0.098762974 0.11245571 0.42173186 0.3142875 0.037123214 0.28743237 0.24333924 -0.117595345 -0.05040357 0.16552463
57 -0.18416436 -0.07861712 0.119741745 0.1761228 -0.2332588 0.20450683 -0.24830304 0.1424789 0.26296765 0.41689008 -0.08445473 -0.38193777 -0.055264205 0.23773143 -0.1353873 -0.20410039 0.2007005 -0.02631415 -0.15876348 0.02396073 -0.13519895 -0.3133746 -0.38704056 -0.047271423 0.09462641 -0.12060681 -0.12795761 -0.05918081 -0.23510648 -0.10150472 -0.13737445 -0.11758842 -0.11559646 -0.3947383 0.0063191187 0.16931364 -0.26541075 -0.36564043 -0.07320395 -0.08053007 -0.34027466 -0.18762031 0.13428454 -0.053940974 -0.32126984 0.23491378 0.081513114 0.22482343 -0.3299267 0.28961888 0.015051065 -0.17169681 0.10289377 -0.01477762 -0.15421256 0.23834091 0.3467994 0.50274056 -0.0880403 0.17169532 0.32814658 -0.32696432 0.20474276 0.1711382
2774 0.05571752 0.18045746 -0.13640727 0.2299165 -0.026663138 -0.16207118 -0.0548781 0.11088952 0.11821531 0.25428674 0.02570874 -0.18406004 0.048941012 -0.41630375 0.011940039 -0.07316733 0.1514338 -0.12584737 -0.0935337 -0.009922979 0.1941178 -0.4458598 -0.5048631 0.10574907 -0.04902775 -0.42244795 0.10992556 0.015308591 -0.22949174 -0.1313978 0.35554025 -0.23974524 0.43874282 -0.22863878 0.20608602 -0.048857663 -0.2980819 0.15385579 -0.23803206 -0.4389354 -0.14790967 0.017031258 -0.13563435 0.1678266 -0.14866738 0.07388483 0.116290264 0.027298551 -0.39613962 -0.21432018 0.1659704 0.3549656 0.28144938 0.2561099 0.40551153 0.34420276 0.25557148 0.21796983 0.021634964 -0.046007257 0.0072876215 0.17183228 0.0055460883 -0.19309801
14 0.26181266 -0.11355647 0.2394239 0.052910734 0.10930991 -0.29606184 -0.009301914 -0.2413137 0.13043208 0.26236042 -0.2208204 -0.23411368 -0.258014 0.010468208 0.30663976 0.087933965 -0.25430226 0.23756148 -0.133157 -0.077075884 -0.015182424 0.32058486 -0.32078323 -0.43850338 -0.2957745 -0.031375654 0.40792963 -0.6325207 -0.042827964 -0.23018375 -0.17665833 -0.3225869 -0.16752827 0.11739013 0.14351688 -0.20228371 0.060951352 -0.023017371 0.010424565 0.1798058 -0.092410766 0.21804827 0.05781275 0.40916654 -0.008924673 -0.079757385 -0.19234598 0.47127485 -0.4417363 -0.1672767 0.31818 0.0037294326 0.011481018 0.36634088 0.16734126 0.13954991 0.61510825 0.14997175 0.18102063 0.071366064 -0.14578979 -0.32590312 0.21347237 0.033600222
725 -0.32510805 0.032777928 0.365136 -0.45056617 0.17051256 0.2115636 -0.36106372 -0.03172931 -0.4732546 -0.29930997 -0.6192653 -0.1831391 0.21335031 0.10213217 0.15974186 0.096834995 0.21649578 -0.045745585 -0.109788686 0.43455386 0.17364432 0.15881509 -0.35937545 -0.20497458 -0.23324239 -0.0075819977 -0.19451931 -0.18847933 0.32136038 0.16440886 -0.27565026 -0.22337072 0.42860085 -0.88701576 -0.3293368 0.08069244 -0.43325964 0.05451785 -0.5219613 -0.15314627 1.1137064 -0.0758436 -0.10371106 0.4529467 0.18694969 -0.08379239 0.39533308 0.8761358 -0.040145952 -0.48395875 0.35736766 -0.29091135 -0.10166643 0.40500417 -0.17554031 0.7945171 0.21200271 -0.2615242 -0.370703 0.07843402 -0.17350115 -0.31881428 0.49685466 0.6598577
162 -0.11951056 -0.06830708 -0.06632227 0.26515034 0.15733048 -0.042507257 0.18892676 0.46098867 0.38029617 0.2766377 -0.53707856 -0.39033315 -0.22560486 -0.13970791 -0.084072575 0.016772129 -0.032708883 0.17460148 -0.063105755 0.11877943 0.17867224 -0.16486597 -0.18098995 -0.29370424 0.28363582 -0.07091018 -0.17266548 0.1177615 -0.23160848 0.21185409 -0.031433385 -0.36381957 -0.08919066 -0.0789912 -0.16197263 -0.43878385 -0.27471346 -0.22197442 0.3394424 -0.2959487 0.106105305 -0.16024952 -0.37563643 0.51868916 -0.019335235 -0.121839836 0.31804362 0.44963536 -0.17087151 0.222453 0.2058954 0.07032633 0.45640677 0.13765524 0.102377124 0.22916767 0.4733853 0.14338885 0.043502618 -0.19890423 0.1891402 -0.026699597 -0.27875015 -0.09027392
422 0.08533617 -0.19713178 0.44556585 0.3942659 0.16840144 -0.4537541 -0.3561975 -0.021792263 -0.15401627 0.54133093 -0.22560771 -0.23470086 -0.10721316 -0.23152448 -0.056314196 0.13474832 -0.022188427 0.042655658 -0.3152548 -0.09851834 -0.15327607 0.18715446 -0.31870094 0.23097901 -0.13319056 0.18742102 0.22939418 -0.127175 -0.40614983 0.5202321 -0.010768506 0.13766007 0.0063022645 -0.20376626 0.073691785 0.1684858 0.026966799 -0.38150293 0.39199662 -0.3512932 -0.22778235 -0.14634413 -0.03564133 0.24113305 -0.14195096 -0.072237425 -0.22802792 0.32485598 0.18993281 -0.10240465 -0.2893878 0.19867201 0.22291827 -0.028697146 -0.28832105 0.4990368 0.06183612 -0.37402198 0.03423414 -0.22677842 0.20253278 -0.42448726 0.1732486 0.04332079
635 0.09555902 -0.15733877 -0.05300653 -0.16694497 0.27495915 -0.031242933 -0.34925082 0.03041884 0.1197441 -0.08859615 0.15610772 -0.19838536 -0.35390174 -0.2794877 0.06622003 0.06903876 -0.14155492 0.1574752 -0.16447671 -0.11874064 -0.051727086 0.24480689 -0.25571078 0.1516029 -0.10084328 -0.04328402 -0.28154966 -0.3178028 -0.22269838 -0.08574206 0.21356618 -0.31127733 -0.52033234 -0.59797585 -0.37626275 -0.08524439 0.093340576 -0.18710354 -0.45450813 -0.044802167 -0.11207583 -0.006278355 0.3371769 0.2575593 -0.30037975 0.31126288 0.29426074 -0.0034746197 0.28150994 -0.45141956 -0.14546591 0.044365603 0.4685922 -0.004126556 -0.068432555 0.42315727 0.50484526 0.004042311 0.13919388 0.17041644 0.4099591 -0.3408548 0.13499077 -0.032877468
167 0.06415544 -0.25166634 0.3430932 0.39125982 0.22934301 -0.35508543 -0.24336901 0.12524365 0.12835069 0.119703576 -0.12486597 -0.20319887 0.08202054 -0.25254247 0.43915853 -0.13692963 0.22499882 -0.38101676 -0.35646072 0.19197471 0.34194097 -0.09463744 0.2438422 -0.2757188 0.18643646 0.2132896 0.10597392 -0.3340127 -0.14731717 0.23757757 0.47936904 0.15890151 0.19582191 -0.019581825 -0.19827417 -0.16261333 0.030017413 0.09655835 -0.16031742 0.2695902 -0.23923755 -0.17808802 -0.0039339974 0.042751674 -0.23650618 0.24433257 -0.13326038 0.4133697 -0.34392416 -0.007888601 0.111507244 -0.1306586 -0.0012329769 0.3789661 -0.07715435 0.30165425 0.27472293 0.26106352 0.11960083 0.032006618 0.032872334 -0.26825577 -0.19870667 0.2426904
1183 -0.018089127 -0.028929994 -0.010691813 0.08650491 0.21812233 0.090205505 -0.0123857055 -0.09194667 -0.026350375 0.2811364 0.15383898 0.12511392 -0.34102887 -0.13955477 0.014734889 0.24672617 0.06735469 -0.19584583 -0.10566758 0.22032253 0.10014042 0.24769457 -0.05588783 -0.1294181 -0.12986757 -0.15831117 0.15368007 -0.059912104 -0.15105169 0.17956406 0.017914157 -0.29260817 -0.6054982 -0.54823786 0.26895556 0.26178628 0.1257945 -0.36075315 0.082350716 -0.4695271 0.065477684 0.26644114 -0.20079863 -0.23405477 -0.2939584 0.1489526 -0.32772008 0.10754061 -0.18909842 0.27519122 0.06057514 -0.07365771 0.29139498 0.28442752 -0.21013156 0.32778323 -0.083620876 -0.10750164 -0.08909979 0.26333055 0.6677414 -0.055527024 0.34396484 0.39381355
214 0.23122591 0.12905486 -0.08292646 0.011438865 0.14316662 -0.22572121 0.07451522 -0.02298784 0.26199535 0.6051657 0.029623298 -0.058709312 0.06494778 -0.24483801 0.52662575 -0.08959625 -0.09549888 -0.42884794 0.14210539 -0.22572447 0.021400161 -0.12589161 0.2170269 -0.23522855 0.44144437 -0.13965431 0.25230566 -0.025996858 0.035681628 0.09174046 -0.086670406 0.29832315 0.035986308 -0.40505573 -0.23369639 -0.0357077 0.26416424 -0.085080266 -0.47918296 -0.051337685 0.09887922 0.3400671 -0.45612186 -0.10803787 -0.45735645 0.05458469 -0.08100198 0.29185095 -0.027017072 0.22966945 -0.17085478 0.100412145 0.42912474 0.0924739 -0.054294158 0.2100811 0.4267504 0.10338336 0.28188166 0.09047407 0.520419 0.011666788 0.12108954 0.21125914
616 -0.2322296 -0.26025718 0.1639681 0.17666773 -0.059883006 -0.053826276 -0.32591608 -0.037628744 -0.13579282 0.069376916 -0.38523197 0.18646885 0.11044721 -0.20345381 -0.034231365 -0.10257588 -0.2859794 -0.31236404 0.0136899 0.29219884 -0.06568426 0.16779469 -0.49647716 -0.5066145 -0.15790871 0.12341906 0.022150198 -0.27898604 -0.35535192 -0.06968068 -0.020272665 0.037149817 0.25768942 -0.24194625 0.15955567 -0.13000996 -0.20998186 -0.13406068 -0.12748899 -0.22183688 -0.61083996 0.31246096 -0.0064168363 0.23289241 0.04535858 0.26317862 0.29172194 -0.21964607 -0.44082776 -0.08552358 -0.3061183 0.14880879 0.30666718 -0.11179538 0.20235203 0.17341259 0.21441929 0.0113875875 -0.084960215 -0.44334716 0.3465778 -0.047431733 -0.17274329 -0.19629745
339 -0.02468741 -0.26845816 0.057064597 0.057841185 0.30884326 -0.20332228 -0.1644634 0.13882622 0.12741962 0.12322565 -0.29416925 -0.044743445 0.14768143 -0.30293313 -0.14572752 -0.09033597 0.2041966 -0.17807387 -0.094508246 -0.10174626 0.22297865 0.14526728 0.050897796 -0.041243114 0.018551247 0.056211174 0.20110622 -0.5818846 -0.2773252 0.22961092 0.18333457 -0.06768174 0.1679025 0.12830824 -0.10275847 0.33440822 -0.16975243 0.020340106 -0.163733 -0.041626 -0.32525626 -0.16165584 -0.029914882 0.07143505 -0.012345298 0.43445396 -0.00452901 0.4978185 -0.08565911 -0.19925918 -0.24815142 0.37526646 0.11106571 0.4519692 0.09516471 0.0359203 0.19172198 0.365419 0.13333736 0.16909172 0.28767234 -0.43760484 -0.39663586 0.20029533
164 0.0032227298 -0.09578596 -0.16715719 0.37577137 0.074556686 -0.13635574 0.4195612 0.54990536 0.28948203 0.32081783 -0.53228116 -0.46851465 -0.225283 -0.25185317 -0.23719129 -0.0049696364 -0.036408987 0.18364729 -0.13693635 0.09181662 0.19024785 -0.057439923 -0.15113363 -0.39388508 0.37500745 -0.12964562 -0.053280685 0.2335057 -0.045929994 0.1518249 0.10906008 -0.47984186 -0.079952635 -0.20229721 -0.088862784 -0.46418408 -0.19993412 -0.24505077 0.2684042 -0.24677858 0.19258 -0.1693283 -0.31704104 0.47034478 -0.086668454 -0.17105651 0.16124254 0.34705988 -0.13902959 0.19499849 0.15710069 0.14189875 0.4142348 0.15236284 0.054466903 0.133849 0.5653682 0.21102227 0.025193736 -0.29513595 0.08903217 -0.081206135 -0.3142974 0.064892024
654 0.34779066 -0.018608872 0.10822699 0.23224331 0.26450694 -0.5448281 -0.3707526 -0.15757808 0.24605489 -0.076234855 -0.5526306 -0.09410098 -0.7100219 0.12016967 -0.062328976 -0.114184715 0.17041022 -0.17108287 0.08968804 -0.33848158 -0.20161784 0.067717664 -0.07143855 -0.67938286 0.047675826 -0.33267537 -0.42635593 0.015920945 -0.26887944 0.42681834 0.21202397 0.25685352 0.018021882 -0.3641032 -0.08500467 0.051800378 -0.37377045 -0.10751215 -0.06521604 0.07438746 0.030790659 0.10010015 0.16077596 0.061238218 0.39863327 -0.0051037734 0.020270074 0.017632717 -0.07176815 -0.04656302 -0.41987917 0.1752828 0.19110583 0.094539486 -0.06384109 -0.1289035 0.39278513 -0.25691366 0.1562 0.41267106 -0.027845815 -0.03434147 0.03046116 0.16268998
2779 -0.052349314 -0.32112145 -0.18613301 0.27994263 0.03746683 -0.4768024 -0.5017668 0.30741155 0.118113376 0.005318143 -0.53684247 0.44064903 -0.21402286 0.05204294 -0.26627153 -0.07173877 -0.17820951 0.1373627 -0.04550924 -0.1139552 0.31304917 0.0559302 -0.23363067 -0.46818376 0.02061337 0.262221 -0.34817353 0.0767749 0.25256312 -0.1332057 -0.010002931 -0.08402723 0.30740988 -0.38919726 0.17872904 0.120175205 -0.0014344838 0.12554121 0.09601565 0.23526117 0.39325744 0.33414057 -0.13223538 0.32789207 0.07716419 -0.012344294 -0.18525065 0.3830371 -0.3761938 0.046939146 0.21482486 0.030647242 0.47819903 0.14368346 0.3444297 0.39529318 0.4336133 -0.15563917 -0.37749317 -0.06256029 0.15361142 0.5104669 -0.100386664 0.3068698
163 -0.119937554 -0.15256365 -0.2111235 0.24273142 0.19406965 -0.23122431 0.3144802 0.5014319 0.3627798 0.13743147 -0.5451329 -0.26669762 -0.17272513 -0.20834312 -0.15017088 -0.0126295015 0.0009819308 0.13609838 -0.16213375 0.021789698 0.22005159 -0.1917397 -0.08398602 -0.33015716 0.31412116 -0.0072910553 -0.08483548 0.15665868 -0.16478728 0.18089668 0.050448343 -0.32579985 -0.0040477156 -0.2850586 -0.28055465 -0.6385993 -0.21645595 -0.28864446 0.31656072 -0.2277202 0.15804724 -0.12966943 -0.31516916 0.43675157 -0.10886908 -0.15546134 0.15911607 0.463699 -0.1893745 0.31665978 0.22649589 0.051044397 0.43402877 0.05548113 0.052348312 0.36008266 0.5146078 0.2817566 0.024681665 -0.24207927 0.16190551 0.0068326816 -0.3072638 -0.089469604
61 -0.22926414 -0.11778557 0.17406136 0.19308938 -0.32255903 0.28288797 -0.25190812 0.19244327 0.26174927 0.47323227 -0.08120239 -0.27578816 -0.048892025 0.19278136 -0.34476653 -0.25677294 0.22818102 -0.032940168 -0.24468228 0.09468416 -0.16487382 -0.43701306 -0.3425728 -0.038456302 -0.0015138305 -0.26205358 0.083726875 0.012556932 -0.124969564 0.036111552 0.024298131 -0.06663886 0.0027179702 -0.29732206 0.10098086 0.09923136 -0.31327996 -0.35219955 0.06677852 -0.0408913 -0.20078675 -0.0756981 0.16652255 -0.014807591 -0.1927885 0.18264455 0.057083048 0.2349889 -0.33801758 0.3008191 -0.012005607 -0.20280774 0.13547373 0.108873144 -0.34920707 0.34410992 0.27837327 0.48936927 -0.21035932 0.20673321 0.38955894 -0.30142856 0.18342927 0.20565547
338 0.039521623 -0.17775701 0.05826026 0.16417892 0.32604915 -0.31291893 -0.1438039 0.11796446 0.054286636 0.11082273 -0.30511734 0.0795854 0.14927407 -0.19042808 -0.09649859 -0.0639831 0.24231993 -0.15937221 -0.044168614 -0.07011831 0.1486802 0.11110786 0.14815478 -0.17636187 0.16055109 0.22904298 0.24575266 -0.60777205 -0.3222369 0.20141956 0.18905814 -0.058483306 0.13170686 0.055816606 -0.10949246 0.22759393 -0.08979389 -0.0023638187 -0.16971047 -0.03132613 -0.29752284 -0.08267938 -0.106284276 0.08712825 -0.07964779 0.53099036 0.01027885 0.55071366 -0.029191388 -0.20267501 -0.14446524 0.49162528 0.101498745 0.27428052 0.113582954 0.008307142 0.2549285 0.2826141 0.06322765 0.25128803 0.18323474 -0.4289784 -0.42416054 0.27842605
2612 -0.096146256 0.438288 0.23345372 0.33397484 -0.004379745 0.13947242 0.013141536 0.030936144 -0.0715459 -0.16486777 -0.1695739 0.06176235 -0.41557997 0.03832205 0.19759524 -0.43180388 -0.0239016 -0.22100519 0.14780724 0.16163287 -0.15411228 0.091488495 -0.6440973 -0.3099377 0.119754836 0.12649019 0.060057033 0.29866546 -0.19601054 0.37307185 0.33321467 -0.3067317 0.29081026 -0.43448502 0.17380948 -0.07553647 -0.6481638 -0.555522 -0.4698664 -0.08216273 -0.36368224 -0.15941131 0.27955666 -0.4362564 -0.38356525 -0.031232264 0.09284913 0.5305429 -0.17092504 -0.64275616 -0.06835314 -0.29698685 0.6572293 -0.30437896 -0.0045990217 0.03548513 0.12784907 -0.18582249 0.4424682 0.5513238 0.35161388 0.23071095 -0.42225367 -0.3117821
655 0.27295777 -0.23600473 0.11257665 0.1381512 0.17483664 -0.49519816 -0.34091428 -0.13429804 0.22657897 -0.0553034 -0.5414923 -0.20792125 -0.72015727 0.036058858 -0.12220436 0.008798975 -0.04407043 -0.16123646 0.1437753 -0.39945912 -0.028857697 0.010258502 -0.11822769 -0.6413152 0.09395297 -0.46418175 -0.47045553 -0.057712544 -0.20849468 0.47688228 0.42295307 0.13198607 -0.005676565 -0.35153297 -0.12836455 0.07415668 -0.4295448 -0.10382365 -0.10398382 -0.018112788 0.015387541 0.11028888 0.048556995 0.12767643 0.52832264 0.022021107 0.076328024 0.021494651 -0.048383877 0.05228074 -0.36408088 0.14550358 0.16398728 0.13238825 -0.015632808 0.036751732 0.31567183 -0.30424556 0.1449337 0.48929963 0.13261451 -0.07948764 0.1071551 0.17624299
658 -0.35280222 -0.15765361 0.014759169 -0.002552876 0.3019266 -0.22644088 -0.5497389 -0.16199434 0.14095816 0.3413538 0.13472465 -0.30346778 0.14764087 -0.17782712 -0.22677603 -0.05194262 0.4143872 -0.022458455 -0.20291594 0.14585887 0.050413016 0.1354132 -0.074014656 0.025099035 -0.20790374 -0.29888752 0.26916695 -0.26705495 -0.33893293 0.18615618 0.4209738 0.05927833 -0.116359405 -0.2525376 0.04505776 0.096255295 -0.28748497 -0.19016391 -0.34288606 -0.09790153 -0.10431285 0.039109785 0.21268669 0.4114255 -0.36402658 -0.5382433 0.20210232 0.08761052 -0.3034963 0.14762074 0.13257964 0.12396388 -0.1086843 0.12328696 0.2329228 0.09334177 0.23000546 0.10279847 -0.20597462 0.33631414 -0.16283536 0.19111921 -0.2690994 -0.11946121
172 -0.09559646 -0.013976335 -0.33257395 0.39473176 0.41185513 0.0063361297 0.40705165 0.052306708 0.08715015 0.1611915 0.31815234 -0.06684541 -0.3141882 -0.08144245 -0.1981353 -0.13017683 0.36918673 0.088096045 0.30563486 0.398325 0.07591125 -0.010264017 -0.47552583 -0.5170369 -0.38051566 -0.056470048 0.20122592 -0.27084956 -0.42787382 -0.0883073 0.49170718 0.37826517 0.005046729 -0.32595843 0.13472976 -0.027799573 0.04967265 -0.2525215 -0.20677659 0.30219775 0.0082683535 0.23969503 0.07559304 0.083466396 -0.313931 -0.4970695 -0.23342143 0.101686895 0.30547643 -0.14473431 0.033113226 0.092178665 0.059596922 0.27436364 -0.60922676 0.07223399 0.62676424 -0.06893669 -0.3752434 -0.21725778 0.028557712 -0.16925363 -0.30411035 0.356627
107 0.021865565 -0.16484112 -0.37755296 0.04653842 0.11411363 0.32919478 -0.5437514 -0.061181642 0.31946617 0.050686307 -0.22464606 -0.18570259 0.058044054 -0.21385227 -0.21836689 0.26027897 0.11485107 -0.050292272 -0.06650706 -0.037488803 -0.40590033 0.26784575 -0.30737215 -0.06571216 0.30627984 0.26318675 0.2066005 0.050125334 -0.3489712 0.044963844 0.42318797 0.12022859 0.024183 -0.16445088 -0.1288275 -0.33816972 0.39555246 -0.65006655 0.055698857 -0.045284424 -0.2104264 0.29761744 -0.03350996 0.19439551 0.21847604 0.21073338 -0.0640083 -0.13947861 -0.1667132 -0.14619614 0.11351609 0.036125217 -0.0428428 0.34532678 0.24328378 0.40512413 0.32333824 0.17303135 0.106222905 0.055564106 0.21626166 -0.041069556 0.13976419 0.40605
584 0.055038363 -0.04123873 0.061695024 -0.11438651 0.4968648 -0.25523332 -0.09243259 0.34850922 0.33563286 0.40279925 -0.20272984 -0.2960951 0.009377819 0.049852088 -0.28704694 0.05922691 0.16583945 -0.29460424 -0.18871292 0.3782807 -0.33601174 0.2722339 -0.23165785 -0.43561715 -0.41936094 -0.3064959 -0.51566947 -0.22160198 -0.021432444 0.5466922 -0.13829605 -0.0028400377 0.18374464 -0.21153185 0.373901 -0.001973234 -0.12961732 -0.2106911 -0.1859712 -0.29410708 -0.29575655 0.4115166 -0.18999715 0.03783034 -0.17745577 0.35248578 -0.055317514 -0.09005224 0.13442607 0.29805166 0.16620775 -0.1853528 -0.14606059 0.16821162 -0.13438031 0.09739416 0.03978977 -0.10044448 0.13197072 -0.06351453 0.11187735 -0.20028989 -0.24625154 -0.04043846
484 -0.37811244 0.21215872 -0.21133868 -0.23415118 0.28235063 -0.18072742 -0.5614457 0.006892063 0.2557293 -0.04584018 -0.27826044 -0.50171 -0.09321388 0.068219736 0.15235259 0.014949416 0.27797198 0.23327921 -0.20041119 0.0623474 0.04894268 -0.00930565 -0.46094424 -0.06260816 0.20717111 -0.17745674 -0.30340058 -0.2950962 -0.027893122 -0.034633934 0.2853762 -0.3186713 0.059135955 -0.38713574 -0.10389006 0.44491568 0.07962598 0.13157399 -0.040168446 -0.07416486 -0.52491117 0.15311597 -0.4690197 0.21823594 0.23994985 -0.10530959 0.13311982 -0.030406116 -0.23161647 -0.050486825 -0.26754805 -0.17924501 0.25845343 0.019311598 0.12791808 0.31864813 0.20234899 -0.0859011 -0.38281417 -0.073862374 -0.116372965 -0.19622493 -0.07331592 0.0019160853
286 0.17777103 0.011773868 -0.04233148 -0.101707175 0.06038118 -0.33124933 -0.39455044 -0.07143005 0.085995026 0.18777882 -0.2637946 -0.34397694 0.264627 -0.23932494 -0.0715964 0.0048525 0.49583995 0.018098207 0.004242354 0.16841653 -0.045746576 0.046135247 0.03546046 -0.16092135 0.19370435 -0.13362013 0.01929592 -0.025295202 -0.5617982 0.41192803 0.27815187 0.23875159 -0.2709393 -0.06814093 0.29545623 -0.14724417 -0.013462506 -0.09913775 -0.103073746 0.09402536 0.38948977 0.20601347 0.14203575 0.14136055 -0.006769656 0.10827204 0.28868055 -0.46262056 -0.2342138 -0.55121124 0.0016215476 -0.34598258 0.27331722 0.019999567 -0.0040212115 -0.19597785 1.0566548 0.17114991 0.35540187 -0.03899459 0.21023977 -0.13791485 0.16377233 -0.058158454
58 -0.17595132 -0.104792304 0.10123187 0.24327554 -0.40271413 0.13623737 -0.33411676 0.17310564 0.2844842 0.4405499 -0.05116175 -0.3149264 -0.16948771 0.15264417 -0.23691453 -0.22136588 0.23187721 0.039768256 -0.12677361 -0.0006576247 -0.09843379 -0.395558 -0.52176243 -0.11590421 0.07283246 -0.25652537 0.081121214 0.020016424 -0.17769878 -0.10241514 -0.16233844 0.06563577 -0.044110395 -0.2807929 -0.09480126 0.079103306 -0.3505829 -0.23283057 0.030333115 0.054644186 -0.1523596 0.048785973 0.07604194 -0.17810449 -0.15616752 0.2592735 0.021930642 0.27811614 -0.27318633 0.3593607 0.09652247 -0.1433127 0.11236972 0.20789495 -0.26530698 0.39130792 0.3701965 0.61342555 -0.08169728 0.22046795 0.40163276 -0.32773525 0.2393713 0.21711488
60 -0.22534698 -0.09217521 0.16216043 0.18597649 -0.31048256 0.20052838 -0.32950816 0.16191116 0.24703677 0.4958094 -0.091137424 -0.30629873 -0.29502696 0.0940359 -0.3023289 -0.2087534 0.37174886 0.09893509 -0.043399986 0.08407127 -0.090024024 -0.3145282 -0.35910097 -0.15698723 0.01344105 -0.25561538 0.12195072 0.017684111 -0.2536552 -0.04850528 -0.06777636 0.0367001 -0.013109586 -0.26914513 -0.0045419773 0.17173956 -0.33972636 -0.3108933 0.20788917 0.039356235 -0.20522177 -0.06299682 0.15455149 -0.13188712 -0.16111368 0.26195028 0.03700472 0.2626866 -0.26958394 0.2166833 0.025339145 -0.23501499 0.17356837 0.08458541 -0.12115733 0.38508093 0.15793677 0.5246477 -0.19371106 0.2806161 0.5087083 -0.28149307 0.150011 0.25600666
421 0.2550223 -0.14973097 0.46752745 0.3012913 0.15841036 -0.4824543 -0.4416241 -0.12783611 -0.27230108 0.76812834 -0.22364452 -0.100917235 -0.19262117 -0.41648984 -0.16327094 0.038537867 0.044149324 -0.1094048 -0.3456599 -0.093431875 -0.18729159 0.21386045 -0.29530203 0.3426472 0.052163202 0.5031568 0.33383608 -0.04220829 -0.31417304 0.38981465 -0.030699527 0.10108871 0.014667853 -0.18396166 0.10828972 0.15729742 0.028799018 -0.24983399 0.31532812 -0.29178485 -0.05607024 -0.29840884 -0.14847425 0.37581834 -0.15453917 0.047915123 -0.2101644 0.22609876 0.18424602 -0.042705562 -0.33250135 0.1912516 0.34979084 -0.08024834 -0.3569229 0.32216683 0.20463459 -0.2940244 -0.050552562 -0.32875073 0.051337168 -0.39617965 0.17143203 0.0795278
276 -0.43458417 0.12274839 -0.03890224 0.08450336 0.059537586 -0.48382276 -0.09099175 -0.0355225 0.17122 0.24836081 0.4125705 0.2178481 -0.19209988 0.21363139 0.020973956 0.0056287316 0.1442601 0.24624932 0.1294335 -0.01862954 0.46471545 0.2157257 -0.12680584 -0.14185482 -0.27968508 0.20419988 -0.30802953 0.0026879031 -0.17923525 0.3089932 0.1713608 -0.30146843 -0.210936 -0.35622466 0.21656561 -0.3603316 0.02941601 -0.71301836 -0.07948384 -0.700449 -0.028956583 0.35160857 0.088224605 0.065664455 -0.032359257 0.15030134 0.32480296 0.8854511 -0.2645913 -0.04357434 -0.025111768 -0.04269889 0.31076646 0.15927014 0.37016043 0.41274813 -0.31539357 0.044416264 0.3641283 0.016337847 0.33140078 -0.15870056 -0.14303684 0.39958492
2719 -0.27501845 0.10877425 0.26156083 0.30226666 0.008614659 -0.2722293 -0.15405226 0.07892613 0.076260224 0.27931526 0.28241545 -0.64559186 -0.20355895 -0.3259077 -0.013790297 -0.14242806 0.08659721 0.2333426 -0.30293992 0.072461426 -0.26911288 0.12750159 -0.39213926 0.07764379 -0.13981438 -0.32849565 -0.48215824 -0.15000652 -0.15409368 0.3636659 0.19122247 -0.22552854 -0.104048334 -0.39471924 0.2986687 -0.39750558 -0.020855788 -0.09240224 0.14167675 -0.20779559 -0.10370412 0.01578759 -0.015047692 -0.21871255 0.007947678 0.013540094 0.27694 0.23378763 -0.003606822 -0.051963214 0.07429085 0.13187581 0.49991438 -0.44721803 0.07253753 0.13266774 0.34466305 -0.05422063 0.18106131 0.03794194 0.19386183 -0.17699538 0.12353193 0.39931688
142 0.023774423 -0.3817953 0.2882912 0.3654531 0.27213702 -0.29001766 -0.3452541 0.016682005 0.13282117 0.2233539 -0.026871046 -0.08432645 -0.0015532221 -0.1938812 0.4383944 -0.194447 0.24596193 -0.5003961 -0.28610957 0.3156673 0.25618234 -0.13081601 0.17946152 -0.29461938 0.22690773 0.18824615 -0.03324084 -0.35046574 -0.1863246 0.37461472 0.34167844 0.1177269 0.057145175 -0.034074366 -0.028012602 -0.14126801 -0.03763244 0.055748593 -0.040350374 0.31888792 -0.26772904 -0.16680206 -0.09599775 0.048915792 -0.21715754 0.24475408 -0.03149689 0.45000738 -0.37017593 -0.24193357 0.29034528 -0.15205237 0.01068368 0.4919174 -0.04118871 0.20571728 0.16076939 0.2941165 0.18003647 0.07310533 0.06722095 -0.33707327 -0.36624867 0.11023199
2405 0.45209056 0.14414033 0.03822015 0.36009407 0.17640048 0.02215476 -0.013105685 -0.13876013 0.2540958 0.5296405 0.21408732 -0.07272634 0.16572593 -0.35076287 0.011402435 0.0156144 0.22116312 -0.24634895 -0.043378383 -0.089915305 0.02786406 0.06504057 -0.11428654 0.11328932 0.28226706 0.0050772927 0.2580034 -0.14747004 0.17503402 0.29822582 0.14329877 0.08721002 0.1861368 -0.037846304 0.046082877 0.20596792 0.011085069 -0.3169459 -0.12041551 0.051044673 -0.35025683 -0.22468132 -0.5208553 0.003722634 -0.19362141 0.39536813 -0.14419907 0.35392576 -0.28997153 -0.15786158 0.16676696 0.42088333 0.013772664 0.14930096 -0.007637761 0.30664545 0.11153003 0.19380862 -0.07694463 0.28821167 0.4409063 -0.22852711 0.24320698 0.20654605
912 0.36719805 0.10547503 0.08217945 0.19648767 0.26887235 -0.24033068 0.07578005 -0.06631807 -0.012559082 0.17514652 0.1304512 0.0940193 0.09660401 -0.41204542 0.042141657 -0.17222917 0.1278096 -0.18837805 0.28619602 0.15746306 0.20784777 -0.24927135 -0.044804968 -0.042430658 -0.16256106 -0.043438688 0.07500725 -0.45757532 -0.38437313 0.05643098 0.037336312 -0.2349459 -0.005062235 -0.17142515 -0.13378382 0.11343266 -0.24887781 -0.015056831 -0.19525354 0.2221383 -0.19282681 0.11941346 -0.2719005 -0.012281211 -0.2142332 -0.07363846 -0.3745311 0.2934918 -0.46091697 -0.2722092 0.13559802 -0.26419678 -0.14091879 0.3457381 0.13379832 0.21276817 0.32595643 0.07900501 0.046969827 0.34854338 0.094240785 -0.122695096 -0.18047231 0.26677167
1026 0.118167825 -0.3347335 0.02692287 0.5068666 0.35305393 -0.006149341 0.12219131 0.0053068646 0.16172262 0.32293195 0.086991705 0.09770054 0.17138794 -0.04382164 0.03644028 -0.14290977 0.09144989 -0.18637608 -0.0840485 0.028135601 0.17530565 0.15565872 -0.2938983 0.26959026 0.1310469 -0.013008051 0.18874359 -0.18636255 0.1694601 0.7102246 -0.06534831 -0.092753336 -0.12940775 0.084405825 0.32319817 0.14161398 -0.32144177 -0.07066772 -0.046383653 0.024251722 -0.25532228 -0.25488353 -0.08220463 -0.0036952554 0.12789482 0.35238796 -0.14252004 0.20863548 -0.3061924 -0.24586873 -0.23502922 0.21484844 0.18547244 0.26832864 -0.018615745 0.6076494 0.4888261 0.41302565 -0.0022550477 0.15665543 0.037691813 -0.059784617 0.09353608 -0.02530152
542 0.2094778 -0.000889448 -0.086579554 0.047554072 0.0033486336 0.36072344 -0.24201766 0.064881414 0.3356686 0.36165088 -0.16364343 0.34369636 -0.3893567 -0.24951752 0.049050633 0.11797257 -0.22412878 -0.40648904 -0.19216673 -0.16413192 -0.23259537 0.2928311 -0.37013623 -0.46239755 -0.16195832 -0.20005187 -0.02310207 0.3074614 -0.06513209 0.24319802 0.027184132 -0.04023329 -0.01614747 -0.11724382 -0.4494257 -0.07494331 0.17543688 -0.08431075 -0.007151884 0.097105265 -0.20018393 -0.27237108 -0.002480715 0.27817863 -0.12522125 0.054689426 0.10277087 0.29870936 -0.13235593 0.09854306 -0.13206983 -0.05933164 0.066317506 -0.10156853 0.1818635 0.22250563 0.58163047 0.20719364 0.112426035 0.08508991 0.04223028 -0.26352882 -0.5119487 0.28890857
476 -0.10376008 -0.17648299 -0.07530514 0.06205541 -0.1229267 -0.28775823 -0.031283233 0.026776517 0.45038605 -0.3006572 -0.51142526 0.010362645 0.22226565 0.050220076 -0.23675238 0.20485522 -0.010979387 -0.07026346 -0.11438827 -0.13568495 0.20934862 0.36747167 -0.33434576 0.10087327 -0.121405356 0.056440387 -0.043275755 -0.20640777 -0.25847825 0.3170187 0.04223076 0.05756533 -0.0253041 -0.12979987 -0.3441454 -0.0856057 0.3166264 -0.6836839 -0.15517257 -0.3983373 -0.33492634 0.10196193 0.11345228 0.22770491 -0.22699383 0.2920889 -0.03602331 0.3229599 -0.44390446 -0.012913163 -0.4284846 -0.28486234 0.098174706 0.132698 0.08711898 0.089205295 -0.045955464 -0.1862429 -0.26225668 0.052063398 -0.11445665 0.321391 0.16346398 0.25280544
543 0.17296651 -0.03456613 -0.09753807 -0.12404341 0.07940718 0.37882122 -0.32996157 0.0020131613 0.3499538 0.38532272 -0.22213908 0.28219828 -0.41657132 -0.16533281 -0.055254225 0.07612267 -0.23804705 -0.41421372 -0.25713468 -0.21875912 -0.25325325 0.21508762 -0.49893853 -0.3743389 -0.16584311 -0.33691043 -0.049802415 0.2133482 0.013238529 0.3849801 0.0543178 -0.00083397864 -0.00034855684 -0.021162687 -0.5277461 0.0075456593 0.1335749 0.028763128 -0.027320068 6.8113615e-05 -0.15449907 -0.18153414 -0.05326314 0.29068258 -0.12510844 -0.009197014 0.024259511 0.26640338 -0.16332634 0.15746482 -0.18344827 -0.061053284 0.077408455 -0.09039283 0.16631693 0.053670138 0.52191836 0.088460796 0.21045032 0.16751479 0.08478176 -0.32353842 -0.510461 0.2511554
2741 0.12848257 -0.2041252 -0.36172047 0.018754292 0.05918789 -0.07100857 -0.4822257 0.39240515 0.3179452 0.10074629 -0.18930781 0.047148883 0.208494 -0.5957575 -0.24991445 -0.16470534 -0.11700554 -0.052542426 -0.012831242 0.0025388163 -0.062939614 0.6137105 -0.3158108 -0.019146025 -0.34819204 0.07704012 0.124638826 -0.19452217 -0.2668208 -0.097147696 0.2166002 -0.06399371 -0.05701953 -0.46946087 -0.021269215 0.16530731 0.026986783 0.1336512 0.19495243 -0.43361384 0.01949381 -0.1519264 0.3331786 0.16153128 -0.5710724 0.16212714 0.27771667 0.5191147 -0.14212295 -0.21502127 -0.12845893 0.48708797 0.1431191 0.124428466 0.04581192 0.035395052 -0.025646029 -0.18584883 -0.052849654 -0.14369513 0.26747194 0.23606591 0.1259235 0.07871302
668 -0.18632412 -0.08182024 -0.35118484 0.45402434 0.39767116 -0.08616016 0.40282205 0.06933184 0.12662351 0.27613777 0.33947226 -0.13594982 -0.31547695 -0.16714773 -0.14013326 -0.051604837 0.29132152 0.12047426 0.31226426 0.36870158 0.13305025 -0.10641039 -0.5164374 -0.4981861 -0.3942969 -0.06763908 0.026010126 -0.2860208 -0.53551507 -0.025059171 0.46804154 0.313268 -0.009199945 -0.26787505 0.10304991 0.11006653 0.06512753 -0.2709084 -0.23942985 0.27040756 -0.010467753 0.18648623 0.0059083602 0.14200002 -0.25126728 -0.49640006 -0.20794973 -0.025242094 0.30007732 -0.12166741 0.02931927 0.04928009 -0.08826156 0.31117982 -0.5461402 0.19885962 0.67772853 0.062368307 -0.40214974 -0.14772557 -0.0068166456 -0.11871263 -0.3129657 0.41128504
222 -0.27639982 -0.3579186 0.19937094 0.27445057 0.190588 -0.13312729 -0.4597685 -0.051853936 -0.0136937965 0.11096599 -0.11652288 0.24875095 0.16961326 -0.081301525 -0.047973104 -0.1600074 -0.14439861 -0.051223077 -0.11190662 0.31744593 -0.029476153 0.1232066 -0.31216288 -0.46341634 -0.008812563 -0.090320975 -0.11698058 -0.15826534 -0.21478912 -0.21914355 0.021948192 0.013269455 0.21677388 -0.32033142 0.008618173 -0.15454753 -0.12859079 -0.16234887 -0.04452028 -0.11038066 -0.37091544 0.21626732 -0.14014837 0.36267343 0.14081213 0.13143456 -0.0065299855 -0.25419167 -0.3631934 -0.31201482 -0.21838543 0.16500375 0.36128935 -0.13151455 0.26504523 0.12186812 0.2996657 -0.041065976 -0.14446801 -0.36435714 0.41242835 -0.07035645 -0.09387609 -0.047227398
291 0.5259281 0.13684295 0.26741812 0.46613893 0.26379985 -0.24246414 -0.004786296 -0.002891419 0.6183637 0.30382332 0.21565236 0.035765417 -0.07632642 -0.26040605 0.25379854 -0.054468814 0.06390222 -0.10632921 -0.57755566 0.3140845 -0.24233605 -0.25235108 -0.09909675 -0.072677165 0.14511985 -0.46307686 -0.15825735 -0.29432955 -0.44119057 -0.14745393 -0.15438981 -0.17676798 0.34729716 0.015202108 -0.14905618 0.56729686 -0.0182203 -0.0806659 -0.44223964 -0.5532386 0.016954456 0.09361807 0.059047867 0.5573259 0.12777936 -0.052417435 0.07521478 0.13999242 0.22566426 -0.02174018 0.13414547 -0.054516412 0.32114604 0.14723414 0.014107725 0.18555455 0.21530524 0.08101587 -0.14847425 0.29962468 -0.37115064 0.16291706 0.2341761 0.25172463
48 -0.08992909 -0.2656172 -0.06195398 -0.051852603 0.11976309 -0.43968102 0.068177976 0.18348818 0.18933682 -0.0648067 -0.3432407 0.052083902 -0.0030694338 -0.51486635 0.10524478 -0.30137452 0.100630336 -0.22640389 -0.008871356 -0.13308111 -0.24582937 0.05693337 -0.5387136 -0.63243204 -0.08144834 0.24046987 0.39753908 0.05525702 -0.033184413 0.17363779 0.2625943 -0.3061275 0.039771155 -0.29669127 -0.12718825 0.19805884 0.30181915 -0.19029042 -0.36096928 -0.43759212 -0.5957181 -0.08283581 0.10264234 -0.09537637 -0.25818852 -0.06824185 0.047292054 0.012178783 -0.083433665 0.08656694 0.2605734 0.35440287 0.18950234 -0.012605811 -0.36095333 0.12322413 -0.113500446 0.2416118 0.025726628 0.039029434 0.15837172 -0.030018184 -0.008079847 0.24722242
337 0.031400967 0.38968122 -0.2918429 0.24572757 0.31012437 0.054387838 -0.12150732 -0.18374221 0.31684074 0.04436917 0.14430602 0.0058428417 0.26851568 -0.44832945 -0.28188062 -0.13460407 0.25979403 -0.06163155 0.26718566 -0.3367562 -0.5354269 -0.013021708 -0.52256924 -0.1284461 -0.17037143 -0.023429072 -0.009871242 -0.36824813 -0.51736706 0.44087157 -0.0713474 -0.56496346 -0.2151462 0.39731207 0.40052703 0.23719028 0.021402903 0.3032106 -0.18286587 -0.14636841 0.20793109 0.16548462 0.23360863 0.3178756 0.03789625 0.028254306 0.2726363 0.5015145 -0.10280638 -0.14681849 -0.18478991 -0.33497816 0.18835528 0.15681073 -0.19668797 -0.10426649 0.52741534 -0.088510044 -0.388385 -0.37475312 0.30932778 -0.43498686 0.06707418 -0.07419504
59 -0.15054856 -0.26726153 0.14120142 0.14962113 -0.32451424 0.17722604 -0.24873762 0.22672701 0.34953386 0.4370433 -0.05918759 -0.29378596 -0.15663394 0.23081654 -0.3078812 -0.3106308 0.32224387 -0.006162617 -0.108483426 0.028399803 -0.14421704 -0.3212444 -0.42704314 -0.07250626 0.045494366 -0.29273129 0.030910438 -0.041677043 -0.15997575 -0.080675006 0.070397995 0.0039070006 -0.078095935 -0.34991455 -0.07728852 0.16631137 -0.22642066 -0.44621098 0.038416963 -0.0025849119 -0.26147673 -0.16118445 0.1345845 -0.17719516 -0.23043843 0.32985964 0.016441636 0.09899949 -0.33500236 0.28123578 0.04791871 -0.2010716 0.07543064 0.15449496 -0.1609379 0.39342082 0.20870265 0.53450024 -0.28291708 0.22679707 0.37327513 -0.39227423 0.24352458 0.32213473
530 -0.13846938 0.13975994 0.45488718 0.3185839 0.09286788 -0.12062477 -0.12589388 -0.06739975 0.19353886 0.3518398 0.17085154 0.19834174 -0.19497563 -0.5005004 -0.011528399 -0.14361838 0.2773554 -0.24945569 -0.31810915 0.038075615 -0.012704754 0.0662609 -0.47422802 -0.05149737 -0.19628291 -0.18877165 0.076981306 0.06741563 -0.24964403 -0.24629594 0.2508861 -0.11917191 -0.22693071 -0.33429134 0.3249223 -0.37901387 -0.284727 0.5072239 -0.41009226 0.2204419 0.26180816 0.2606566 -0.35716438 0.30459422 -0.19547288 0.120931156 -0.410795 -0.42032397 -0.42365932 0.29571486 -0.42868283 -0.46408147 0.3104604 0.36760086 -0.36132094 0.3018871 0.01245311 0.1670603 0.045001276 0.44910085 0.21075743 -0.21136233 -0.1631712 0.38243347
391 0.005774868 -0.20335278 0.10017807 0.18146388 0.31480405 -0.30285367 -0.025394116 0.10960893 -0.0011763792 0.16656177 -0.14707232 0.14587879 0.11619584 -0.27174443 -0.2118618 -0.091393754 0.23965575 -0.16560318 -0.16424897 -0.07587029 0.13970938 0.13007395 0.17051423 -0.20298567 0.13850969 0.12484441 0.1768271 -0.6561785 -0.1910981 0.2703632 0.22072229 -0.08049463 0.06096398 0.06840246 -0.20486528 0.22541395 -0.09893557 -0.0033323441 -0.13806653 0.04227616 -0.25402847 -0.06722562 -0.09068471 0.07870421 0.048573118 0.60935843 -0.005623518 0.5346623 -0.095356345 -0.2752616 -0.11673969 0.30093285 0.09277202 0.3409971 0.044088535 0.07488664 0.2753672 0.36224395 0.11478527 0.2572101 0.3271237 -0.426614 -0.46948218 0.24898261
392 -0.07807971 -0.19799928 0.21548496 0.17736435 0.37986416 -0.2830132 0.032337785 0.10691412 0.08452121 0.17908853 -0.1657496 0.14142433 0.1511436 -0.19443046 -0.13480699 -0.043220036 0.1066122 -0.26080474 -0.12077299 -0.15081924 0.265172 0.11869745 0.14015788 -0.1245497 0.15066619 0.21124586 0.1533472 -0.65342176 -0.36136478 0.17987363 0.22686264 -0.010309288 0.044539604 0.04930265 -0.15696916 0.3025774 -0.04991771 0.023324324 -0.15344784 0.07265826 -0.18005857 -0.09247785 -0.14409074 0.007844357 0.08768738 0.54305065 -0.05888526 0.5658447 -0.10770539 -0.26779762 -0.20358105 0.29363903 0.16668083 0.27698413 0.033806764 0.07961912 0.36079058 0.38175115 0.016884109 0.26477236 0.20256318 -0.38556865 -0.4701027 0.26348835
637 0.15036395 -0.18295546 0.06271143 -0.25371972 0.30262905 0.015931359 -0.34771147 -0.077684715 0.20541021 0.016120143 0.22343086 -0.13221723 -0.31410104 -0.2506026 0.012495786 0.03429426 -0.08417456 0.17022154 -0.17587359 0.0067041623 -0.1624448 0.19487114 -0.27282652 0.17313635 0.014826359 -0.0808957 -0.2984432 -0.29883376 -0.13052441 -0.15386294 -0.053226754 -0.3590968 -0.5195744 -0.53002864 -0.35092402 0.11861132 0.2451044 -0.12973239 -0.24718432 -0.051705096 -0.048529826 0.11863589 0.09869784 0.23834723 -0.38331902 0.2219304 0.36059836 -0.047251724 0.4156216 -0.5416984 -0.09434377 -0.0040374924 0.48791787 0.1904309 0.1303707 0.42076674 0.5581777 -0.009621899 0.14700197 0.24398585 0.54140323 -0.48391473 -0.08038257 -0.0918647
217 -0.50633013 0.36525786 0.0041637775 0.18894869 -0.13617848 -0.2824449 0.036173683 0.37576228 0.51504594 0.41600817 0.08499137 0.24239889 -0.0407905 0.20591842 0.14161992 -0.06356097 0.26531354 -0.5909484 0.23413643 -0.17108753 -0.050840005 0.13795131 -0.1602382 -0.041958846 -0.15609035 -0.012503202 -0.0049075033 -0.35150072 -0.3071138 0.4311584 0.14627995 -0.051315315 0.26007318 -0.61711586 0.0056607793 0.07222471 0.18326126 -0.31567866 0.08733948 0.11193187 -0.17717323 -0.04161753 0.35842872 -0.09879659 0.011510699 -0.09973775 0.116876915 0.13872771 -0.021747606 0.087427914 0.22310953 -0.18032625 0.86114997 0.36289516 -0.37198985 0.10761333 0.5653958 -0.41590708 0.15371367 0.43978035 -0.3377034 -0.57222414 0.3030342 -0.16003443
1479 0.100835554 -0.22053768 -0.06891355 0.23387973 0.26725066 -0.11183908 0.14375441 0.04382982 -0.008397839 0.33503222 -0.055140972 -0.09611689 -0.3963129 -0.17190367 0.015997123 -0.051537473 0.1177365 -0.22079025 0.21059465 0.18048072 0.21176076 -0.20091636 -0.33833078 -0.24769658 0.10214338 -0.14095569 -0.06173133 -0.51505625 -0.31422064 0.24596573 0.35372338 0.33109504 0.008124039 -0.14499578 0.006931439 0.31093436 0.032907646 0.22541325 -0.10473127 -0.0916642 -0.12755628 -0.27040648 0.07064138 -0.25017235 -0.13186903 0.4002386 -0.059849184 0.1571341 -0.46818715 0.108821616 0.16056481 0.38203865 0.20646267 0.24825874 -0.06687073 -0.07030187 0.13636138 0.28068596 -0.2948492 0.23809378 0.2592097 -0.0036224604 -0.15495068 0.2420705
123 -0.14059512 -0.25943336 -0.055158254 -0.2727563 0.33752105 -0.05251447 -0.15596314 -0.2253119 0.21627429 0.3070665 0.1607041 -0.06128012 -0.4175416 0.12528415 -0.49332225 -0.38703656 0.2235186 -0.3463565 0.24371253 -0.05011395 0.16538444 0.06069591 -0.49368408 -0.28528434 0.3051337 0.18896185 -0.0035612881 -0.286148 -0.15950519 0.29776132 -0.01579995 0.5000458 -0.09567839 -0.04976547 -0.18225504 0.19286044 0.32307792 0.032025915 -0.42442304 -0.32146394 0.094506666 0.098351456 0.23946145 0.47829774 -0.07416624 0.066951945 0.04631283 0.09356579 -0.307754 0.19535948 0.103616014 -0.2983306 0.33686876 0.20937882 0.0019838053 0.20638554 0.011704238 0.12999915 -0.020211041 -0.2385591 0.34255657 0.2912803 -0.361131 0.07371282
259 -0.06329347 -0.36060697 -0.31981215 0.11769208 -0.024974965 -0.31680056 0.0073935967 -0.10578435 0.23869765 0.23400344 -0.34337506 -0.38351882 0.33113578 0.037351284 0.21603045 -0.38404763 -0.08921258 -0.20117863 -0.359841 0.15174569 0.16457126 0.28760162 -0.31924808 -0.042716615 -0.2089401 0.05191332 -0.36577135 0.15195745 -0.13811433 -0.3729663 -0.13205098 -0.036867548 -0.24007744 -0.5707306 -0.2713537 0.26273963 -0.16884921 -0.34779057 -0.23323719 -0.38360152 0.36341962 0.302739 -0.41050428 0.31518993 -0.022089712 -0.51687914 -0.18570977 0.08578232 -0.019739006 -0.36545953 -0.19864745 -0.06628297 0.16031988 0.050585475 0.03776528 0.2698313 0.4142835 0.16564676 0.048059355 0.14662026 0.34582347 -0.25646132 -0.30794686 -0.22549209
620 -0.2033431 -0.32397842 0.28693736 0.32036275 0.077908196 0.015060517 -0.20234771 -0.049905304 -0.06594593 0.08784123 -0.21104375 0.42625448 0.13194342 -0.16714586 -0.016105164 -0.3427616 -0.24288285 -0.258701 -0.09044754 0.38804072 -0.16611058 -0.00074119447 -0.44653368 -0.41999397 0.10275191 -0.093487754 0.037276372 0.06768267 -0.22977482 -0.26194653 -0.085043095 0.01951141 0.28099358 -0.26553386 0.19287789 -0.00961103 -0.20711797 -0.13843016 -0.093285084 -0.13023895 -0.4183663 0.30761084 -0.20440762 0.23148745 0.08134427 0.19348422 0.09472385 0.0021651748 -0.50514793 -0.17430091 -0.10596556 0.12057976 0.41450968 -0.11034335 0.3653929 0.10586818 0.28171664 -0.23669368 -0.15680127 -0.4246971 0.3879822 -0.14926387 -0.13553596 -0.07378253
29 0.012612063 -0.22072169 0.10855347 0.11282308 0.4161622 -0.22499391 -0.06270131 0.054578185 -0.026224632 0.14193183 -0.24151641 0.12639762 0.21877919 -0.23032077 -0.03300471 -0.14626324 0.20911567 -0.16598257 -0.10528652 0.019248515 0.21274298 0.10457163 0.18112816 -0.13888353 0.16528045 0.07998652 0.13781464 -0.65877014 -0.39262325 0.18259333 0.2188327 -0.024084615 -0.023871332 0.044501904 -0.038735326 0.3116043 -0.16198704 -0.04673709 -0.10570958 0.058062024 -0.23931317 -0.06760208 -0.074171826 0.049884923 0.0539172 0.5053604 0.035275042 0.53693384 -0.11207061 -0.15329428 -0.27438703 0.38580883 0.08527434 0.30922267 0.09973503 0.13171664 0.32547706 0.31595436 0.12907647 0.26720205 0.3448333 -0.5046653 -0.40740556 0.34681958
475 -0.11704219 -0.00046752227 -0.39131102 -0.36767974 0.40509784 -0.06496588 0.11202975 -0.10885271 0.27719477 0.39213273 -0.3922295 -0.1190352 0.09435438 -0.09222156 -0.2060439 -0.13705131 0.30930588 -0.37197646 -0.22240222 0.11984 -0.09347133 0.44859457 0.044175617 -0.27493474 0.14521106 0.00976266 0.14690286 -0.506793 -0.023514535 0.60415614 0.34755072 -0.10873296 -0.029869353 -0.19068846 0.3970025 -0.28085524 0.2033954 -0.30809328 -0.025410129 -0.08560581 -0.17898853 0.505326 -0.2732258 0.018070308 0.18019876 0.47191745 -0.0027724565 0.033077706 -0.12254373 0.07039189 -0.07372453 -0.26602292 -0.082779266 -0.11623031 -0.21983176 0.4812086 0.2519053 -0.30034608 0.14677098 -0.11873993 0.2966438 0.09336305 -0.26413974 -0.33469078
33 -0.030000838 -0.23941387 0.18801022 0.2014464 0.52436155 -0.2723082 -0.046049222 0.16636282 -0.02396919 0.2229596 -0.18229748 0.11450388 0.0923222 -0.2635168 -0.010331989 -0.0856316 0.2731632 -0.26594102 -0.070569426 -0.05722364 0.18730092 0.060363237 0.24372612 -0.16089742 0.12819886 0.19137157 0.114453904 -0.7169341 -0.26617712 0.24032333 0.2813585 0.012724315 0.07036307 0.0494258 -0.15271272 0.19125041 -0.132626 -0.015970042 -0.13847037 0.03698168 -0.21835499 -0.06665835 -0.16068336 0.1071478 0.06157406 0.5836514 -0.052597485 0.4349404 -0.12967008 -0.20565271 -0.11091194 0.32232368 0.008804304 0.31183413 0.0905606 0.054374523 0.43404528 0.32537258 0.20457724 0.30373284 0.33048746 -0.49460122 -0.49186495 0.25519913
482 0.08860823 -0.21099208 -0.04887746 -0.16760606 -0.19266428 -0.271962 -0.0014181988 -0.37893137 0.11871982 -0.09085857 -0.26017687 0.21313268 0.12676291 0.18738823 0.025904072 -0.1813543 0.644075 0.3187132 -0.08880002 0.039996862 -0.103420965 0.42272288 -0.076714195 0.11712796 -0.13988438 -0.33201995 -0.36873254 0.12960693 -0.20828606 0.18419476 0.21918324 0.08086492 0.012039526 -0.20348781 -0.3076488 0.21159528 0.15855724 -0.31474033 -0.0062154774 -0.077841975 -0.19913429 -0.1869454 -0.09607287 0.59454596 -0.11576684 0.19716126 -0.124548204 0.20678143 -0.22026882 -0.13825366 0.01045615 -0.5594502 0.43894446 0.13797401 0.16164514 0.40248597 0.46743125 -0.110544845 0.3264923 0.03527677 0.36962888 0.30186856 -0.17398135 0.20965081
47 -0.14347778 -0.3394044 -0.104359195 -0.044899125 0.123663105 -0.41545954 0.100746736 0.07723761 0.0534605 -0.033805847 -0.43068296 0.07288212 0.09131415 -0.5529609 0.018063946 -0.21985325 0.073576696 -0.21422909 0.0602045 -0.16301747 -0.1687598 0.22287352 -0.53142416 -0.49302793 0.011575988 0.24807203 0.2016841 0.04160411 -0.00674682 0.18862459 0.26335478 -0.24928229 -0.17981382 -0.34881923 -0.21376356 0.15991169 0.33246034 -0.24357711 -0.359299 -0.32176968 -0.29161915 -0.050453704 -0.056801364 0.017767191 -0.099094994 -0.13289446 0.022571841 0.048584744 -0.13618997 0.16106574 0.26034635 0.22756292 0.09807399 0.14153706 -0.44189957 0.10371075 -0.08249673 0.14422876 0.02049581 0.009826547 0.2544833 -0.13298908 0.066980004 0.31385228
373 -0.37646815 -0.02532454 -0.21504554 0.1237255 0.062455554 0.035408624 -0.56443036 -0.36814603 0.4241548 -0.32532972 -0.032693993 0.1521751 -0.41601345 -0.5437102 -0.109769195 -0.21357493 -0.08530551 -0.16319814 -0.22679159 -0.035245374 0.21038409 0.37165898 0.19421588 0.020530853 0.13581254 -0.17428997 0.47301853 -0.03629293 -0.14414701 0.03543057 -0.21012755 -0.100255735 0.24814852 -0.541861 0.047424063 0.22453885 -0.10839438 0.25154033 0.16486491 -0.36495975 0.17234908 0.30460298 0.07493501 0.1283896 -0.3680485 0.3889783 -0.18767409 0.40397683 -0.055820797 0.37219462 -0.102028884 -0.36848244 0.28675732 0.18120576 -0.3538862 -0.051321264 0.8331336 -0.0076872897 -0.14863719 -0.11123973 0.17689157 0.11082176 -0.036241174 -0.067413785
536 -0.18637578 -0.06564056 0.10459268 -0.16683535 -0.2815646 -0.1358976 -0.31815043 -0.25072342 0.26191643 0.26268643 -0.043576892 -0.18215774 0.11435992 -0.42379656 0.09730913 -0.02469283 0.5226731 -0.1312934 -0.11662009 -0.15637897 -0.05344082 -0.05163813 -0.059198245 0.1488747 -0.13960983 -0.2421864 0.14952219 0.1817823 -0.32209888 0.046490896 -0.21948554 -0.52864504 0.12461095 -0.15076417 0.15496701 0.4868001 0.077965096 -0.30533174 -0.39957199 -0.30452415 -0.2996889 0.022283886 0.07044104 0.2578872 0.097460255 -0.22465928 0.018487588 0.53568643 0.107154086 0.39096203 0.24272618 0.1652487 0.5388659 -0.01038271 0.1120426 -0.0026053987 0.171729 0.043440994 -0.6295113 0.1964824 0.19409788 0.0046764635 -0.19823812 0.2718025
657 -0.33214626 -0.30762258 0.17229877 -0.059807114 0.39542744 -0.3408047 -0.497438 -0.11363972 0.15732718 0.35449415 0.3161339 -0.34609514 0.17068733 -0.12506932 -0.23562138 -0.14184824 0.44935817 -0.10053095 -0.21110803 0.2944995 -0.087380365 0.21118672 -0.14571916 -0.023421688 -0.12235587 -0.24487793 0.17448092 -0.1648136 -0.434895 0.28823882 0.3074791 0.01860261 -0.023183428 -0.23593625 0.1746801 0.052789878 -0.30034935 -0.25057733 -0.18634582 0.009784939 0.013640059 0.1405133 0.24780476 0.49366847 -0.51578116 -0.51744586 0.23084015 0.12433318 -0.21784882 0.18514848 0.111715116 0.17729968 -0.18322702 0.09662083 0.20590927 -0.0032867058 0.17283206 0.20520991 -0.36070806 0.4485831 -0.30421647 0.16456553 -0.21920012 -0.15935452
30 -0.02252049 -0.22121352 0.058033027 0.2349948 0.47492713 -0.34898666 -0.12407591 0.05359084 0.029586961 0.15063678 -0.14050218 0.14385393 0.08530718 -0.26664892 -0.08032034 -0.0978692 0.2437173 -0.20651929 -0.16142374 -0.0067580263 0.19800664 0.05203032 0.19945699 -0.067227215 0.11435739 0.19389881 0.15910217 -0.7105668 -0.39982834 0.31235185 0.18351535 -0.023944648 0.07893571 0.065207995 -0.14434245 0.2889862 -0.13320354 0.010244197 -0.16310704 0.06754093 -0.215574 -0.06100543 -0.19565313 0.049579665 0.005367733 0.59615284 -0.02708287 0.51925 -0.08747787 -0.19050176 -0.16114785 0.33550462 0.12368283 0.21071917 -0.07517003 0.024051135 0.35719463 0.3770118 0.14153342 0.21430449 0.27545878 -0.468441 -0.47334707 0.22533014
370 0.1171109 0.41098747 -0.19923858 0.045200333 0.36071038 -0.5437362 0.19842832 0.09288086 0.14506608 0.08837252 0.11572306 -0.20344985 -0.006817849 -0.17836443 -0.3191887 -0.27676466 0.27415526 -0.035811268 -0.5165359 -0.43846324 0.21752194 0.23216191 -0.27757558 -0.14289199 -0.4552265 -0.050911494 0.14789326 0.20126645 -0.29095322 0.06514672 0.36771765 -0.012095855 0.466 -0.31838393 -0.32677603 -0.06403429 -0.2975086 -0.25486693 -0.30057663 -0.105379716 -0.18287425 0.51277864 -0.0009068262 0.14771637 -0.04031573 -0.039941277 0.19963728 0.24458301 -0.28109193 0.07434253 -0.117692806 -0.22246242 0.032508515 -0.27952713 -0.09054138 0.41385278 0.19463848 0.47122273 -0.23909682 -0.27440202 -0.34640458 -0.41260013 -0.1790664 0.3989288
135 -0.07550647 0.29421633 0.0535139 0.45078373 0.112892844 -0.114073485 0.04770235 0.18435673 0.37985036 0.05760839 -0.11129467 -0.41167778 -0.3597134 -0.21364394 -0.064408265 -0.1282291 0.35015747 -0.2868138 -0.42036816 0.004655589 -0.03292568 0.77251613 0.07896897 -0.5411155 0.38204134 -0.65636754 0.23813915 -0.15328555 -0.22247867 0.09221728 0.047862995 0.1832443 -0.18048601 0.025356479 0.105942756 0.3023768 0.16620101 -0.17245956 -0.1995786 0.11919508 -0.0057593076 0.07249992 -0.7680459 0.16314784 -0.20611605 0.28431275 0.19903779 0.15045886 -0.2864154 -0.27416927 0.28592095 -0.0037632822 -0.05133502 0.20862566 -0.42888698 0.39230216 0.22091088 0.06921759 -0.13056922 -0.28599828 0.08977617 0.15251537 0.36483446 0.047058105
204 -0.1779573 -0.33677822 0.2901288 0.31383333 -0.07373818 -0.19552419 -0.2828418 -0.013185236 -0.09487809 0.05182523 -0.20025246 0.31017303 0.12786677 -0.17789577 -0.16700141 -0.2141754 -0.17911068 -0.26457396 -0.11005698 0.31109807 -0.24361417 0.2700649 -0.287464 -0.49042606 0.055715155 -0.011725125 -0.087081335 -0.18398808 -0.3278258 -0.2963298 -0.10882017 -0.08804959 0.2371872 -0.3502784 0.17621182 -0.2259584 -0.09229326 -0.21517235 -0.012159203 -0.21665794 -0.2898166 0.3306882 -0.20884268 0.22070867 0.16602015 0.22046228 0.08665178 -0.2007869 -0.5064648 -0.06415078 -0.20532061 0.26038608 0.42307305 -0.09201991 0.2885717 0.10334228 0.12989075 -0.0021524096 -0.07478221 -0.4321299 0.55354446 -0.14097942 -0.076880686 0.0918175
480 0.0879269 -0.57087696 -0.3017679 0.10444683 0.060731944 -0.2227225 0.048627213 0.675926 0.6918825 0.3511189 -0.6863344 -0.34857184 0.04500279 -0.21591084 -0.269595 -0.23817664 0.12966177 -0.020291114 -0.03318116 0.35481796 -0.069971316 0.2325304 -0.14541554 -0.013725545 0.06203132 -0.21477337 0.44941446 0.0060382974 -0.37181264 -0.14125708 0.3721596 -0.227801 -0.09988609 -0.17220998 -0.004620425 -0.29219425 -0.06326585 0.060402136 -0.60074896 -0.21527869 -0.266942 0.09653131 -0.07080252 0.04973276 -0.16868986 0.113437235 0.14114958 0.028093766 0.3226911 -0.2966712 0.30670556 -0.32197952 0.039363142 -0.1153162 -0.020322109 0.54886496 0.02372089 -0.018972766 0.041549116 0.11280907 -0.0033803636 0.03244183 0.37788123 -0.09605562
398 -0.09752524 0.115780614 0.054753523 -0.1068883 0.11868482 0.3242397 -0.30719215 0.11201348 0.4780757 0.24249455 -0.3529688 -0.28937286 0.43045995 0.14870253 -0.15872373 0.07191155 0.0051259003 0.02058857 0.034463964 -0.39919615 0.059012823 0.029798096 -0.27571478 -0.055524405 -0.15143183 0.052537665 0.3661729 -0.06653834 -0.2866673 0.23282745 0.32442784 -0.10346966 0.53680736 -0.016434064 0.058818053 0.013426808 0.40712118 0.0630539 -0.3814927 -0.55280864 -0.17270203 0.05065028 -0.16440928 0.07800081 -0.219306 0.1896657 0.049012538 0.1897923 -0.26942572 -0.22223686 -0.11032451 0.22692788 0.38258103 -0.12503943 -0.05138167 -0.12891376 0.53206706 -0.4102841 0.26299924 -0.338314 -0.06553606 -0.18738994 0.19173962 0.21268773
619 -0.20381485 -0.29486278 0.25854117 0.20779453 -0.022130165 -0.10280262 -0.33491844 0.010609432 -0.05320705 0.05993336 -0.14597668 0.3108652 0.1331123 -0.20764184 -0.09723734 -0.21016222 -0.07105081 -0.15454455 -0.17609644 0.26730224 -0.023223512 0.14546587 -0.35572198 -0.51050985 -0.017855799 -0.102758415 0.18139715 -0.18151481 -0.27931398 -0.26598585 -0.111730516 -0.093078196 0.26734087 -0.26102224 0.18397415 -0.22322078 -0.13904124 -0.14645009 -0.11873399 -0.24637735 -0.38154423 0.34985262 -0.017964676 0.20901416 0.20006944 0.2761804 0.13693501 -0.11237321 -0.58118075 -0.10934711 -0.20774145 0.2802358 0.34712982 -0.19698675 0.2649932 0.17331482 0.25580138 -0.03913821 -0.22596632 -0.4482036 0.35942334 -0.15218647 -0.08673035 -0.06213582
389 -0.016583426 -0.20017262 0.11944091 0.19246607 0.51308095 -0.33133915 0.031434715 0.077819966 0.065925255 0.27497205 -0.18288337 0.06587061 0.1439319 -0.28180167 -0.065588176 -0.070649475 0.16717665 -0.20631738 -0.11598565 -0.024597904 0.13943541 0.1635956 0.16183165 -0.15447675 0.08991338 0.1599406 0.06411993 -0.74316216 -0.27867705 0.2482275 0.18342727 -0.08023149 0.1180008 0.12992416 -0.04672803 0.31220424 -0.1920779 0.043637924 -0.14639959 0.0996427 -0.30127802 -0.13928926 -0.14944859 -0.009006932 -0.016476305 0.54960626 0.079197675 0.4578995 -0.07553871 -0.22486922 -0.13540539 0.3514072 0.05152854 0.39514568 0.10188685 0.16012686 0.3494325 0.35767847 0.100911856 0.26994357 0.35942668 -0.4272513 -0.44238216 0.40626007
2049 0.2695916 0.019627228 0.23092194 0.074021414 0.18880013 -0.04347045 -0.09748566 0.3299721 0.19644307 0.3228717 0.023669446 0.24735136 -0.13720359 -0.11861112 0.1642277 -0.21539886 -0.020469027 -0.581083 0.103830636 -0.145255 -0.19089676 -0.10705043 -0.35708788 -0.24554892 -0.14817856 -0.1275124 0.024235103 -0.04805931 -0.06026799 0.42375347 0.2139115 -0.05881497 -0.032665417 -0.29239193 -0.0006052896 -0.10184677 0.027966212 -0.020060208 0.06914177 0.2770054 -0.3235311 0.069158874 0.07512805 -0.21695451 -0.24972291 0.0032371364 -0.12850791 -0.027621092 -0.34677207 0.289341 0.11130312 -0.09395795 -0.30547372 0.32960033 -0.28125215 0.35786065 0.49030578 -0.07472449 0.065662846 0.5351848 0.16120969 -0.2071807 -0.021892553 0.19602372
314 0.23852475 -0.17901541 0.5385879 0.15811053 0.23763303 -0.42673633 -0.18710072 -0.04759407 0.13895033 0.3047527 0.17588058 -0.31586576 0.08517707 0.2196622 0.24867803 -0.42812783 -0.027037667 0.036641467 0.15446839 0.026330153 -0.27252054 0.39886162 -0.18514623 -0.16873159 -0.2823883 -0.09135621 0.03527089 -0.45244384 -0.07662532 -0.40846765 0.45224094 -0.27189437 -0.032572724 -0.17748727 -0.16374782 0.1013578 -0.18210034 -0.25558263 -0.10739203 0.121505484 -0.19927663 -0.04828721 -0.020201799 0.334516 -0.36624178 0.03365016 -0.06278309 0.23717332 -0.4146314 0.08102784 0.28063965 -0.32718614 -0.09550157 0.30360025 0.31494877 -0.12436947 0.4351797 -0.022873767 -0.06680766 0.19280982 -0.05096092 -0.18111941 -0.29671553 0.13353254
515 0.106687576 0.44429487 -0.05817471 -0.048102215 -0.072607845 0.15606658 -0.3747819 -0.14963642 -0.068173416 0.2313776 0.037827708 0.113549136 -0.3839078 -0.043240815 -0.33155686 0.39938235 -9.11597e-05 0.10161307 0.21484774 0.31786373 0.03863572 -0.20223704 -0.4180612 -0.28842318 0.032721177 -0.43721467 -0.046509307 -0.30096892 -0.6921 0.4979812 0.3115768 -0.18051073 -0.07411321 0.019445922 -0.099974394 0.15285833 -0.2772841 -0.17622417 -0.108082436 -0.31728077 -0.16294654 0.26128888 0.05520774 0.20284921 0.14677922 -0.20138957 0.0075662443 0.3843464 -0.22393538 0.4165577 -0.22239493 -0.09972509 -0.10580601 0.30845135 0.14806941 0.5100088 0.19937587 -0.43230367 -0.06378053 -0.11543958 0.23602298 -0.3698327 0.010281873 -0.14114247
477 0.4231629 0.19859427 0.093047716 -0.02639769 -0.02201557 -0.23501383 0.12347994 -0.4118063 -0.22311665 0.64714384 -0.16560067 0.0034465862 0.43885037 -0.1649096 -0.17187895 0.06506567 0.64656407 -0.49071085 -0.32349026 0.1532707 -0.21815851 -0.1619224 0.015535877 -0.15803455 0.07075358 -0.31273597 -0.0032295207 -0.061041415 -0.4378892 0.19693635 0.4608137 -0.47462603 0.17362264 -0.2778418 0.035396278 0.08911756 0.08819473 -0.28658277 -0.71864855 -0.11687433 0.09533813 -0.18428706 0.25675604 -0.2622846 0.17033873 -0.0873325 0.11994503 0.11333643 -0.6521748 -0.5319512 0.048360474 -0.6474029 0.5020008 0.113022275 -0.11078266 0.36738086 0.009272612 -0.16394526 0.45410675 -0.30054986 0.19834322 -0.031924352 0.14380465 -0.034784127
390 -0.009075948 -0.34078908 0.058445416 0.123476036 0.4396378 -0.25502086 -0.038023006 0.12521975 0.032433815 0.12515275 -0.12617353 0.12898552 0.1150164 -0.31422496 -0.11430648 0.006408769 0.15687275 -0.23613255 -0.09567044 -0.03537682 0.1717653 0.16624124 0.19522977 -0.26276696 0.13305344 0.1612717 0.20582806 -0.72215337 -0.327546 0.19437225 0.24623817 -0.059264995 0.08542518 0.024025401 -0.06932477 0.24705625 -0.14209414 0.06260403 -0.09034907 0.11415669 -0.16653338 -0.13941434 -0.033276964 -0.022468908 0.008097807 0.6178647 0.04870781 0.5414291 -0.22185385 -0.33574197 -0.1438567 0.3466934 0.14615354 0.3327441 0.034343377 0.04595777 0.37925684 0.34236693 0.1527857 0.2208497 0.32875407 -0.47161597 -0.45352903 0.2805251
2546 0.048243396 0.045055576 -0.106207006 0.0811577 0.26188806 -0.1392358 -0.23227508 0.29926765 0.6222063 0.37034133 0.06599609 -0.3594514 -0.017120995 0.35070926 0.17242588 -0.4240742 -0.14987963 0.3491352 -0.09467293 0.18592283 -0.06395558 -0.069037765 -0.45748115 0.21799117 -0.10867474 -0.20394444 -0.33971128 -0.34443688 -0.18838227 -0.12019898 0.19996214 0.014333496 -0.1319521 -0.39248675 -0.45817208 0.12656793 0.012140906 -0.124550484 0.2865357 -0.0457445 -0.14538388 -0.34680918 -0.30271813 0.2404996 -0.3873381 -0.1651899 0.15219498 0.36492395 -0.2945083 -0.22707525 -0.20018777 0.121649414 0.35156488 -0.015934981 -0.059654158 -0.008389423 0.325237 0.21924077 -0.2713798 0.21303616 0.40503904 0.11106339 0.038946513 -0.52182674
541 0.31879035 -0.030957093 -0.12028651 0.060223136 0.14723153 0.29199693 -0.5416518 0.13227911 0.29917645 0.42081398 0.04447755 0.2588131 -0.45131764 -0.12982678 -0.0021370344 0.15263449 -0.12951964 -0.35686868 -0.20742111 -0.10530993 -0.29332638 0.27448982 -0.36791936 -0.36129493 -0.08525252 -0.11066189 -0.080865756 0.28227097 0.0068793334 0.32731608 -0.076861896 -0.033158917 0.024291497 -0.14549549 -0.5832531 -0.19005252 0.21869013 -0.16622463 0.0059865084 0.12928495 -0.18437074 -0.285629 -0.00550828 0.2637142 -0.18654783 -0.006682922 -0.07833388 0.2856103 -0.23692611 0.179452 -0.3552016 -0.009653654 -0.004498628 -0.17139882 0.032574132 -0.038933877 0.6461343 0.34883338 0.12111727 0.26678282 0.08410278 -0.35206106 -0.47687644 0.20759203
1341 0.107980475 0.07716468 -0.08645152 0.25569585 0.10129958 -0.25740775 -0.06568685 -0.10715446 0.19543199 0.36776787 -0.068112075 -0.017155096 -0.008464704 -0.23094074 -0.24900857 -0.015249032 -0.035157684 -0.20877506 -0.14501524 -0.34801346 0.026956175 -0.032010462 -0.2667151 0.3537027 -0.05484298 -0.1312226 0.073158786 -0.1650382 -0.19178905 0.1491755 0.051271573 -0.050825115 0.0046399552 -0.10146284 -0.1614443 0.3362675 0.21103421 -0.21916756 0.13922322 0.13683084 0.06884042 0.13861133 -0.015442446 -0.03655159 -0.35673848 0.41782343 -0.15986733 0.45854637 -0.020127935 -0.24708274 -0.15605325 0.20469621 0.059609346 -0.23997675 0.08822815 0.18746766 0.50192475 0.31073496 -0.265347 0.31622553 0.4905846 -0.3814421 -0.18853398 0.2058076
31 -0.035546288 -0.31140068 0.11336438 0.16566844 0.5110739 -0.26102045 -0.01921914 0.050375815 0.01348419 0.11446281 -0.18908696 0.24415855 0.12990554 -0.28042868 -0.09290058 -0.09525524 0.33104786 -0.23207396 -0.12820032 -0.07832929 0.23530446 0.074362956 0.18489215 -0.095713966 0.11692145 0.15660618 0.13346648 -0.7170741 -0.32497987 0.2973761 0.20764647 -0.0240838 0.042560186 0.105728485 -0.10706602 0.27122855 -0.0998866 0.028208734 -0.1735357 0.09666022 -0.14407624 -0.050786745 -0.17220317 -0.033906195 0.04910903 0.57622355 -0.017171936 0.56867236 -0.25024706 -0.21561587 -0.17602713 0.31895724 0.0881165 0.3553911 0.13216953 -0.032672714 0.38808888 0.39761996 0.13622218 0.25846082 0.32283047 -0.49810988 -0.48605168 0.26716605
177 0.023020616 -0.2630166 0.0977378 0.13052583 0.5239321 -0.2190038 -0.09379344 0.04415806 0.036478776 0.19451378 -0.16517915 0.18573649 0.10876318 -0.22675723 -0.10542754 -0.15004477 0.2526552 -0.22355212 -0.1846099 0.031409144 0.2237091 -0.00097208197 0.16200389 -0.10146297 0.16911966 0.1714471 0.1471422 -0.75160486 -0.2855751 0.25704208 0.26745933 -0.07495115 -0.02278603 0.08744663 -0.12138209 0.29894048 -0.15891878 0.031356823 -0.15176319 0.16652726 -0.19630954 -0.049170814 -0.1020034 0.038870215 0.054394 0.5935392 -0.032503806 0.5194315 -0.16796385 -0.23455839 -0.2185493 0.3265852 0.10755027 0.31982785 0.07210192 0.07576904 0.32641676 0.34499073 0.149083 0.2879469 0.35894898 -0.5337778 -0.4143688 0.31269038
315 0.19264308 -0.22472519 0.60342705 0.057556592 0.22901273 -0.34723258 -0.2824004 -0.08056829 0.096099764 0.25770268 -0.041410167 -0.2147762 -0.0012484858 0.07225112 0.10327524 -0.29117766 -0.095539495 -0.15466385 0.21649797 -0.019957583 -0.17222914 0.45681366 -0.278889 -0.37181586 -0.29399404 0.11332572 0.26470342 -0.26954392 -0.17808741 -0.11686067 0.4197787 -0.22350031 0.072440624 -0.08575887 -0.12422913 -0.037943993 -0.26380858 -0.37109938 -0.2106364 0.31719074 -0.233462 0.022584746 0.09896612 0.1351241 -0.10647461 -0.047324646 -0.27489483 0.30302396 -0.3329942 -0.051716715 0.4366279 -0.36735845 -0.25057018 0.23755187 0.32054183 0.16560113 0.32235903 0.053891513 -0.035658814 0.25418937 -0.16838768 0.0066951085 -0.24511583 0.074469715
2254 -0.07913273 -0.3287144 -0.029675676 0.2097828 0.6221318 -0.019278344 -0.18992947 -0.09904396 0.14976992 0.14532946 0.3299038 0.34882137 0.25868234 -0.047651146 -0.25234133 -0.45367685 -0.18697797 -0.40847552 0.23821914 0.1195372 0.096636824 0.05670758 -0.28141034 -0.08069453 0.064467564 0.0072888606 0.16567104 -0.39553165 -0.3678327 0.44215554 0.017543403 0.117797054 -0.074484594 0.07521138 0.07138624 0.027095659 -0.019927986 -0.14179632 -0.08480567 -0.032645516 -0.023582045 0.32170048 -0.30428827 -0.14237675 0.6297103 0.39474332 -0.021689883 0.02176617 -0.29383808 0.046132207 -0.12990253 0.37390134 0.50114995 0.2451968 0.42178816 0.114349596 0.32326716 0.31826085 0.20230606 -0.116237186 0.38614327 0.0389111 0.021953363 -0.00067115703
388 -0.057863533 -0.25905615 0.17658816 0.248709 0.4958732 -0.3174273 0.034975126 0.12454758 0.009723036 -0.018228173 -0.19947542 0.15144235 0.21756902 -0.22021908 -0.04639537 -0.07285104 0.38612068 -0.31399888 -0.059353832 -0.13750559 0.27757886 0.13465242 0.31278002 -0.11498037 0.23985334 0.20501523 0.08450404 -0.788188 -0.15774113 0.13202938 0.22405502 -0.01895466 0.04138397 0.019023977 0.0023464807 0.19049284 -0.031565867 -0.0294596 -0.24323148 0.16894361 -0.22107427 -0.098538265 -0.23273309 0.19971311 -0.011451572 0.4088355 0.08550424 0.5448766 -0.20330599 -0.14193098 -0.17101954 0.38025677 0.087570295 0.2025251 0.09884434 0.097529255 0.38638285 0.35571942 -0.06202039 0.34485134 0.3242566 -0.51822406 -0.36910793 0.33204222
544 0.24605265 -0.026653616 -0.09518025 0.16052173 0.1732216 0.404987 -0.42037773 0.089408435 0.25204098 0.36943907 -0.15760265 0.301382 -0.53606623 -0.26857868 -0.032639828 0.12801541 -0.29690352 -0.39654934 -0.20350464 -0.1692723 -0.16437101 0.33887908 -0.29489264 -0.41696075 -0.0512262 -0.11263255 -0.09024947 0.20457944 0.078686565 0.26196498 0.029020306 -0.14588346 0.10193063 -0.057936255 -0.4866954 -0.06766252 0.15735084 -0.07037015 -0.030063624 0.011074211 -0.04080631 -0.28359655 0.0116475625 0.30674154 -0.11966709 0.013520401 0.00738314 0.26360494 -0.117483936 0.1318688 -0.24937545 -0.15620492 0.024481274 -0.09038687 0.1672149 0.14264569 0.69554365 0.2054612 0.053325705 0.23107828 0.072744004 -0.21316753 -0.5669274 0.24255495
32 -0.20500617 -0.21366955 -0.33620828 0.6219369 0.0017380666 -0.3334911 -0.16484794 0.061908316 0.3503257 0.55336493 -0.50733185 0.013841191 -0.08179726 -0.21855725 -0.28304985 -0.19525164 0.1638621 0.12085222 -0.04967338 0.043526728 -0.17978278 0.17603795 -0.4406526 -0.10921369 0.01820068 0.11554759 -0.15931691 0.012284387 -0.022988975 -0.012264264 0.21392483 0.11524385 0.059610385 0.050330997 0.18396656 -0.025158355 0.18530057 0.19315413 -0.0014908969 -0.1832091 -0.045939136 0.4907837 0.5526882 0.13185199 0.09147391 -0.17692068 0.36568984 0.57982606 -0.025728121 -0.5113847 0.04193467 -0.6804209 -0.17945513 -0.22034226 0.45329377 -0.060164046 0.12200938 -0.16150412 -0.41541663 0.1649338 0.5003169 -0.21425152 0.055987846 0.17901847
438 0.0054327706 0.21300144 0.36977965 0.40944034 0.19301082 -0.6606213 -0.18133193 0.053724844 0.029149253 0.08222265 0.11210325 -0.22544698 -0.38765043 -0.07508593 -0.33760458 -0.15116096 0.014630832 0.02788866 0.3173234 -0.12968002 -0.23245999 0.35318846 0.18472786 -0.053915285 0.28170022 -0.29665136 0.13855617 -0.4313632 -0.68959635 0.41450465 -0.44414145 0.20931925 0.28678316 -0.21133608 0.13519344 0.09913909 0.53474516 -0.16292876 -0.13254344 0.24880521 -0.092693314 0.4203658 -0.71614295 -0.32023406 -0.39316747 -0.25474143 0.0499902 0.13073865 -0.27320206 -0.121345356 -0.2815254 -0.5353518 0.06520216 0.112633675 0.13349204 0.2368728 0.5767892 0.73650265 -0.020044517 -0.35754874 0.009768218 -0.1717031 -0.14269814 0.06602973
43 0.23067239 0.16950788 0.11616378 -0.40147713 0.16665936 -0.32461286 -0.15347083 0.2886697 0.2536234 0.29010573 -0.1920165 0.335788 -0.2205708 -0.2571289 -0.06667242 -0.1105042 -0.11573496 -0.1638043 0.16968949 0.1243348 -0.35814422 -0.4253538 -0.1462213 0.38400185 0.31378207 -0.039294865 0.2528768 0.17328148 -0.36209148 0.48767203 0.059965465 -0.16312018 -0.5798522 -0.27401394 -0.11008157 -0.15451945 -0.18358663 -0.114986345 -0.30639023 0.2566915 -0.47181103 0.30763057 0.025596406 0.4246197 0.2043595 -0.2857961 0.15533204 0.07993725 -0.31843427 -0.2554472 -0.0314188 0.063123114 -0.21446373 0.3863458 -0.16275226 -0.025168717 0.66601485 0.054114 0.0011688551 -0.08277065 0.23782949 -0.037884653 -0.017297247 0.3981251
