2634 128
2633 0.08692353 -0.095462754 0.011991526 0.041273486 0.044342287 -0.0061140414 -0.084090546 0.022227244 0.10637854 -0.048750926 0.14729495 0.043601405 -0.09689679 -0.19540104 -0.24142626 -0.13868773 0.24704415 0.08759148 0.015641754 -0.038605064 -0.2702923 0.034062147 0.024104737 0.041881595 0.017684786 0.06877606 0.117490426 0.028416455 0.3063574 -0.24916132 0.04273962 -0.46091846 -0.10398528 0.06828849 -0.09172181 -0.022378825 -0.0034731461 -0.023212152 0.20699447 0.19358237 0.036688846 -0.10188548 0.053801708 0.06470424 0.17261684 -0.10596232 0.22929758 -0.049790595 0.16387144 -0.034257956 -0.075499825 0.08000225 -0.2651283 -0.15794422 0.06981235 0.15025623 0.25014788 -0.05238156 0.08786726 -0.12878086 -0.19943677 -0.083091155 -0.16502348 0.049068805 0.02861796 -0.061678715 -0.008164478 -0.16795893 -0.045208734 0.10803564 0.12595113 0.21675009 0.19322303 -0.14312938 0.043569684 0.035514083 -0.11734708 0.08986998 -0.0867515 -0.050219975 0.29739645 -0.1305959 -0.07087869 -0.08737648 0.07262781 -0.14339973 0.06542138 0.30421934 0.27912503 -0.113951884 -0.07706425 0.12330043 -0.077247575 0.121671915 0.1275649 0.21324943 0.19947417 -0.1267998 0.08970606 -0.095243685 -0.17356429 -0.009460057 0.057519536 -0.22245821 0.099017195 0.023508785 0.10022488 0.19875944 0.013110292 -0.3395906 0.13865493 0.34142292 -0.17399882 0.19799505 0.2021604 -0.17584528 -0.0453721 -0.23895694 -0.1400463 0.13462943 0.09975243 -0.13654424 -0.018298404 0.009900559 -0.02606877 -0.24435267 -0.31420803 -0.28007483
2550 -0.10528076 0.15426153 0.002168708 -0.06703192 -0.12762894 -0.11372077 -0.02958335 0.028244967 0.015373951 -0.04151654 0.080348425 0.07688732 -0.073131904 -0.08135678 -0.047195703 -0.19616401 0.039905343 0.1262399 -0.023151644 0.08478651 -0.21131366 -0.25607857 0.08599826 0.058198776 -0.23938145 0.0015759072 0.10688297 -0.021337958 0.07109253 -0.015021247 0.12371672 -0.2861126 -0.23683505 -0.011260396 0.041780237 -0.082979545 -0.10809651 0.040352464 0.3320754 0.074024685 -0.020392124 -0.06721839 -0.0065540136 0.2776351 0.15480475 -0.045976378 -0.097439215 0.2744167 0.32890743 0.13840543 -0.021375503 0.13002042 -0.3417725 0.057490934 0.09853368 0.11254363 0.008631875 0.09817117 -0.07848856 -0.2131362 0.0049318755 -0.105008475 -0.10850765 0.10625697 -0.2650085 -0.32451534 -0.08689497 0.091302015 0.073888615 0.0073040472 0.11720736 0.3631716 0.04600404 0.064897835 0.022408238 -0.013111731 0.20563371 0.061957758 -0.12733291 -0.11037405 0.1844499 -0.08503009 -0.13795057 0.35857058 0.033330537 -0.0090329945 -0.0168722 0.3732344 0.09449934 -0.19006775 0.028645989 0.16789465 0.13628766 0.02428419 -0.055834167 -0.16950655 0.18566014 0.11707155 0.21586375 0.19317764 -0.2264132 0.027792513 -0.12015741 -0.15497273 -0.2602006 -0.036616035 0.15328322 0.304061 0.272919 0.08686041 -0.16032249 -0.012000669 -0.20498121 -0.18200079 -0.058145203 0.023804188 0.039915185 0.19711465 -0.17024632 -0.035322163 0.15534213 -0.063747086 -0.18347876 -0.030147437 0.044654746 -0.2697872 -0.16791357 0.22017731
2568 0.20095766 -0.04549383 0.018776573 -0.19954252 -0.15739107 0.048812132 0.08565807 -0.008608238 -0.08699901 0.19394197 0.1800623 0.30090848 0.018562857 -0.02878682 -0.08598039 -0.023339523 0.14839254 0.12150104 0.037487045 0.03457038 -0.029922683 0.22632733 -0.23761825 0.11657074 -0.11411616 -0.08905847 0.19279912 0.044550527 -0.10493856 0.084208995 0.19487038 -0.34254646 -0.33999467 -0.12153459 -0.17196043 -0.34873065 -0.044571325 -0.044398613 0.1116549 0.13986835 -0.029427756 -0.040618088 0.07192629 -0.16481136 0.13914636 -0.029537667 0.044102546 -0.016431186 0.26025438 0.15580443 0.12011223 0.26895413 -0.14665861 0.08786909 0.056011356 -0.015328311 -0.055738676 -0.10467897 0.18350296 -0.37477678 -0.086752035 0.059341226 -0.024670064 -0.13045153 0.04552211 -0.065453805 0.039986387 -0.14148046 -0.19234866 0.02589354 -0.11044979 0.30306867 0.13571823 -0.22885908 -0.015893115 -0.06909103 -0.024780823 0.025541473 -0.046764247 0.002530633 0.2148484 -0.1569639 -0.033456475 0.16899607 0.25713715 -0.2948706 0.014928516 0.0778648 -0.0013858025 -0.009756685 -0.07950488 0.1676888 -0.15312833 -0.12031102 0.18380333 0.0818607 0.03110115 0.011997589 -0.10567464 -0.016789326 0.013433216 -0.010252158 -0.070525184 -0.10524638 0.03010891 0.08882377 0.3058109 0.11186193 0.10446238 0.13294075 -0.040972874 0.034223523 0.1428461 0.20866627 -0.11444845 0.040294614 0.043704145 0.076864354 -0.12774378 0.0582255 -0.09584247 -0.2784993 -0.16266821 0.004459885 -0.10312408 -0.063502975 0.15484217 -0.037115943
2604 0.1900741 -0.18288328 -0.07709296 0.114735946 0.12750019 -0.021119904 0.106233686 0.1386693 -0.068513185 0.07627821 0.082759045 0.15488708 -0.011257895 0.07637406 -0.18416476 -0.16958681 0.013363972 0.1835217 0.07843736 0.1454631 0.00730319 0.040959883 -0.06187808 -0.1917476 -0.17353362 -0.08745932 0.17574148 -0.12782869 0.0927021 0.07382298 -0.03729514 -0.33083016 -0.016323453 0.110757306 -0.016671022 -0.14026916 -0.004792184 0.110045135 -0.057938077 0.068514496 0.075840205 -0.10664633 -0.066880934 -0.025272485 0.19246404 0.057801843 -0.17969707 0.25618088 0.012147517 0.19090861 0.44965497 0.013176339 -0.22688393 -0.066403046 0.04172181 0.15313347 0.10460703 0.13602984 0.11490164 -0.04731602 -0.2575037 -0.00686197 -0.059771203 0.043959357 -0.008296695 -0.00017505918 0.16456208 -0.30568486 0.10767278 -0.0539162 0.09990042 0.1761993 0.24136722 -0.2423232 -0.0033452 0.065859385 -0.03546108 0.1441838 -0.07704589 0.053561274 -0.03192093 -0.14233823 -0.17925365 0.042851258 0.13815299 -0.24364127 0.12420232 0.41871256 0.028390527 -0.011925583 -0.07879583 0.04142786 -0.1594449 0.09816158 0.005936364 0.040923074 0.09537943 0.16616587 -0.103017114 0.23877251 -0.093835816 -0.05084576 0.17569408 -0.27563024 -0.2018094 -0.13147803 0.20261328 0.06666606 -0.06260074 -0.28488275 -0.09331995 0.20759007 -0.03284919 0.022184134 -0.103477895 -0.06871471 0.31930393 -0.14799102 -0.21813445 -0.16721265 -0.057240807 -0.04695545 -0.07736296 -0.124641225 0.038184673 -0.30283388 -0.059248127 -0.22471157
2610 0.14108078 0.045805007 0.25955376 0.016970418 -0.08835488 0.21394646 -0.2737634 0.18431877 -0.10061813 -0.06908703 0.28502926 0.20508263 0.1906768 0.0027893125 -0.14885522 -0.0044377893 0.16353239 0.29820123 0.24823086 -0.049090676 -0.29208094 0.037872516 0.042148694 0.3803263 -0.050968524 0.10211214 0.1204093 0.06163295 0.06263177 -0.060456667 0.40870008 -0.3484177 -0.3148552 0.023687156 -0.13587603 -0.0894148 0.04577655 0.103098206 0.105677955 0.24021046 -0.19986737 0.033512983 -0.028127719 0.15062577 0.0014919747 -0.0825684 -0.099630095 -0.22842005 -0.041666757 0.21022914 -0.0811728 0.07153859 -0.2906141 0.0779698 0.033175647 -0.06445059 0.05341992 -0.15823464 -0.30946103 0.074520476 -0.0005274909 0.22427322 0.05639392 -0.07021186 -0.021602107 -0.1963437 0.004287653 -0.34795374 0.11728768 0.2404238 -0.004928933 0.14986627 -0.19254175 -0.116349354 -0.06295714 -0.25465748 -0.17501625 -0.011880629 0.07579437 -0.05370612 0.04768263 -0.06957795 0.020821769 -0.07784838 -0.17372213 -0.09883798 0.18270119 0.13284376 0.16417895 0.14378695 -0.17587012 0.035981577 0.08117068 -0.16660327 0.29203254 0.064337134 -0.05044681 0.13442637 0.00256158 -0.023382794 -0.19205439 -0.055728387 0.21838649 -0.099761456 0.00896492 -0.024071718 0.13693824 0.3225005 0.0197181 -0.09246692 -0.15551008 0.185023 -0.12401111 0.0691111 -0.10551802 0.08464387 0.23145714 0.08532881 0.06515786 -0.1645076 0.009018656 0.15209723 -0.37899828 0.11627688 -0.050447416 -0.067536496 -0.07281342 0.10995105
686 -0.1280741 -0.014855398 -0.058793876 -0.06368769 0.05888735 -0.21888618 0.14848453 -0.046192802 -0.08903641 -0.10724896 0.009518265 0.15283535 0.06978054 -0.07799551 -0.05628594 0.037129395 0.082739554 -0.062406052 0.18075402 0.036958665 -0.06487238 -0.04016876 -0.20590603 0.20540775 0.0028673655 0.021559596 -0.042291336 -0.032132298 -0.11975591 -0.15913913 0.13613875 -0.22491571 -0.121426016 -0.075896904 -0.10804869 -0.14789614 -0.063400686 0.09936955 0.07147332 -0.054404337 0.03951175 0.024984628 -0.06725501 -0.034440257 0.13121726 -0.023384584 0.05148968 0.028613225 -0.00013174252 0.008624888 0.06179242 0.05236865 -0.03821335 -0.019954141 0.2390108 -0.02204992 -0.08684508 0.105840184 0.17382178 -0.028170178 -0.017489035 0.08500051 -0.12192416 0.1735962 -0.17133369 -0.1323908 -0.028523255 0.08654455 -0.09971327 -0.03268647 -0.06523012 -0.053523034 -0.03784587 -0.15055767 -0.044939253 -0.0778255 0.099358685 0.015278744 -0.08582057 0.054631047 0.09674369 -0.2883266 -0.11244281 -0.036571275 0.11233071 -0.049364667 -0.122211345 0.07786284 0.08585554 0.089200586 -0.0036380268 -0.2762953 0.0098189395 0.1153979 0.0069332714 0.01597385 0.058050077 0.03551828 -0.015982531 0.26793668 0.10869739 0.18277457 0.06847129 -0.011008699 0.0093355905 0.020670116 0.077363856 0.025970919 -0.1095342 -0.035839994 -0.10827165 0.13156675 -0.012584849 0.20777142 0.08190218 0.15096416 0.078172475 -0.14025965 -0.15703452 -0.022413358 -0.09561632 -0.1064538 -0.16272831 0.07461684 -0.027020419 -0.11690221 -0.09002322 0.0336498
2454 0.11568646 -0.20840219 -0.07597585 -0.010302526 -0.2819469 -0.034560915 0.04298469 0.144761 -0.026782932 0.04164219 0.116794094 0.16394268 -0.09596372 0.3264832 -0.12445576 0.12649591 0.059149496 0.15019381 0.17512329 0.17428622 -0.06245544 0.09481986 -0.038423248 0.01556099 -0.080692984 -0.010679337 0.4354962 0.090844184 0.09973533 0.06438657 0.16996025 -0.31869546 -0.13417445 -0.08224466 0.15434182 -0.045436252 0.20835564 0.17233893 0.026106454 0.18862864 -0.024703797 0.1195606 -0.07879972 0.0632059 0.18816197 -0.17607743 -0.073270015 0.2149772 0.20877062 0.16543947 0.014963524 -0.06947318 -0.27790827 -0.17367017 -0.2031005 -0.056827474 -0.07090868 0.06096241 0.10537168 -0.31410056 -0.092194356 0.21910547 -0.046085004 0.08320521 -0.052750364 0.044567153 -0.06623528 -0.010291355 -0.058077466 0.21709675 0.03852974 0.31462836 0.011210243 -0.2591509 0.1294184 0.13681886 0.083625235 -0.0015461058 -0.19387443 0.15428182 0.15701593 -0.07828352 -0.08432711 0.036328215 0.18820712 -0.10596097 0.014940801 0.18154544 0.14798677 -0.035273686 -0.060296435 -0.06473634 -0.09294878 -0.28085217 -0.020012435 0.033576507 0.10067443 0.12990935 -0.13527048 0.084162876 -0.020334626 -0.0036146918 0.2740996 0.1589191 -0.18216215 -0.16598204 0.0077190893 0.25232285 -0.022468515 -0.14883569 -0.048368197 0.03981245 -0.22715615 0.07563115 0.09470227 0.079123944 0.06460722 -0.04035878 -0.20408678 0.09482374 -0.30137986 -0.07328632 -0.049698215 -0.12873043 0.06641015 0.012576359 0.07317978 -0.14540471
2464 0.2919029 -0.25869784 0.13630018 -0.0070745503 -0.02928606 0.033625167 0.22701918 0.20573755 0.06471223 -0.52257013 0.3382466 -0.10695183 0.32466155 0.16349834 0.043653753 -0.3950751 0.062013566 0.1993121 0.15140569 0.20800492 0.13192885 -0.23987727 -0.21384503 -0.21079277 0.010026192 0.160818 0.11012836 -0.38504258 -0.034644876 -0.010747354 0.5425374 -0.038015302 -0.0536366 0.13623072 -0.59111816 0.110324875 -0.47843397 0.09632582 0.07113009 -0.064423405 -0.12459976 0.11569626 0.30280593 -0.031597327 0.39374432 -0.23340872 0.03873028 0.4403577 0.44361794 0.019221973 -0.018274307 -0.11689226 -0.028862312 -0.05506956 0.022078225 -0.14951853 0.06102798 0.10330925 -0.47427925 0.46566772 -0.314923 -0.5040801 -0.21395032 -0.2527509 -0.0368149 0.2695976 -0.37391996 -0.4240474 -0.62426335 0.2852375 -0.03815741 -0.05595148 0.043789167 -0.11424504 -0.35749263 -0.06921434 0.10566519 -0.30503467 0.0716598 -0.10349305 0.3210188 -0.19985087 -0.07025673 0.13240546 0.25088683 -0.40449214 0.050510958 -0.12583731 -0.23514687 -0.26658127 -0.13830918 -0.46205068 0.23718235 -0.072321326 0.13159406 -0.33511633 -0.069922745 0.18136652 -0.07528642 0.027084334 -0.29603365 -0.04644588 -0.3582382 -0.2285157 -0.28890827 -0.11619827 0.55732393 0.34625238 0.052754547 -0.43014848 -0.2271312 0.30796707 0.02461109 0.0370427 -0.18429808 0.7472141 0.186389 0.032195006 0.0634577 0.065661594 -0.08441648 -0.12060312 -0.14084484 -0.037679426 0.21258207 -0.076142505 -0.73798096 0.27970263
2431 -0.14951128 -0.22247145 0.024099126 -0.027766699 -0.10593194 -0.10719535 0.06429552 0.2845635 0.09214283 -0.024380997 0.11639434 -0.21189865 -0.12180177 0.08841089 -0.15302086 -0.26879254 0.07601224 0.12555645 0.2599133 0.18521947 -0.010291098 0.07806111 0.047623023 0.042646196 0.13411754 0.24570753 0.25025383 0.072302595 0.08460307 0.013855651 0.16054972 -0.1971208 0.031438664 0.2049751 -0.20619877 -0.1487993 -0.06609429 0.14675668 0.28560048 0.22533378 -0.076080084 0.13063173 -0.21300215 -0.1030408 0.26142496 -0.0745809 -0.11203761 -0.12516089 0.05032171 0.24439561 0.040642157 -0.20624061 -0.16288535 -0.020645162 0.04188075 0.053387698 -0.13915233 -0.06557514 0.014257218 0.0051861666 0.21526746 0.2532597 0.22957438 -0.0766704 -0.2855368 -0.1394456 0.25934872 -0.12254244 -0.23137625 0.08276443 -0.10289132 -0.04103784 0.25151628 -0.40044376 -0.10246752 -0.15106167 -0.1720195 0.05992338 -0.20408018 -0.062867455 0.29459363 0.03476727 -0.32794487 0.010617641 0.426998 -0.030214129 0.110329814 0.04993094 -0.115312345 -0.03468283 -0.28157175 0.40192974 0.021855101 0.07248216 0.11380336 -0.010712118 0.15388942 0.24980849 0.20531054 0.16758405 0.13357012 0.090219654 0.15073858 -0.24856502 0.07929163 0.011882679 0.10295795 0.1488577 0.020797953 0.08631588 -0.16500224 0.07338462 -0.11547331 -0.016293943 0.02978671 -0.07863578 0.02799311 0.10658505 -0.20596504 0.23023117 0.08102036 0.09523463 -0.09433037 -0.031430464 -0.08602547 -0.18745327 -0.040677916 0.034251966
249 -0.32567075 0.040127024 -0.12808043 0.100029156 -0.058121633 -0.07216851 0.15312928 0.071928024 -0.0083023785 0.069705464 0.07423032 0.15296921 0.049771212 -0.026761714 -0.07599532 0.019065142 -0.08617038 0.30966535 0.0016245135 0.27662283 0.10326654 0.0017801973 -0.09216621 0.04249833 -0.31856614 0.19955572 0.12035595 -0.18849908 -0.13791296 -0.010468802 0.0185234 -0.17797124 -0.25538972 0.23218584 -0.09156948 -0.15555733 0.015267915 0.34937945 -0.08536553 0.034768425 -0.039263155 0.057941135 0.113657445 -0.016768223 0.13836673 0.2046817 -0.15847565 0.23198894 0.053443685 0.03242346 -0.25360835 -0.14218871 0.06037561 -0.020119116 -0.084101714 0.16248284 -0.0150397755 -0.20350584 -0.054104876 0.158243 -0.20096245 -0.22338782 0.032659292 -0.022954388 -0.17594364 -0.0750106 0.011109598 0.13212292 0.06493767 0.10259389 0.06612446 0.30463594 0.026710324 0.23019552 0.048064236 -0.114701845 -0.024172345 0.04363054 -0.0525506 0.11543428 0.27119732 -0.25830087 -0.0047138087 0.066258244 0.0048522325 0.09216839 -0.14745207 -0.056666657 0.08140791 0.05170734 -0.03977504 -0.072338596 -0.44944263 0.25163856 0.26881292 -0.010685347 0.10444709 0.16632716 -0.22370028 0.14122847 0.060402732 -0.08268543 0.15610705 0.16621219 0.12548202 0.055898 0.347163 0.2033945 0.07455864 0.008960409 0.15209281 0.18338256 0.002425198 -0.0023748109 -0.0120916525 -0.17435092 -0.06533304 -0.07730812 -0.04082989 0.23075098 -0.19356418 0.15817064 -0.21674904 0.14125018 -0.14209935 0.05144116 -0.12975255 0.0035790552
36 -0.24763563 0.1026232 -0.074176386 0.048513778 -0.03092517 -0.045078717 0.14149232 0.06926521 0.06620213 -0.041497115 0.046699755 0.22162199 0.039682083 -0.101996094 -0.11999179 -0.054591384 -0.068838716 0.26777667 -0.054217074 0.18522133 0.13950391 -0.044096358 -0.01744169 0.07517964 -0.37569234 0.19576356 0.10802035 -0.1212963 -0.09618608 -0.073311105 -0.04221271 -0.16077174 -0.28896976 0.3099683 -0.0955786 -0.15321797 -0.026260497 0.32014632 -0.022003463 -0.031123705 -0.0585744 0.03385006 0.14645982 -0.08850087 0.13046266 0.24185097 -0.22890465 0.20336227 0.092122875 -0.01851649 -0.31003374 -0.11206832 0.07040934 -0.021710873 -0.024760097 0.11419369 -0.030500455 -0.28770328 0.033975933 0.19997077 -0.13326077 -0.22660248 0.11035488 -0.015182744 -0.13579382 -0.15055376 0.020460319 0.112455286 0.06314001 0.079200186 -0.008568561 0.24834484 -0.008799576 0.18529971 0.07216669 -0.12369187 0.07394079 0.06460314 -0.09042424 0.069204696 0.29478484 -0.2843001 -0.05683114 0.00848396 -0.042563047 0.067266464 -0.14242868 -0.056143645 0.0952007 0.0634294 -0.045204144 0.009543382 -0.43453205 0.12554795 0.20312114 -0.031130938 0.12437544 0.068905175 -0.17531893 0.13784188 0.0031022865 -0.03588491 0.13210036 0.1556983 0.11471806 0.11348395 0.39387032 0.22906029 0.015251696 0.06834959 0.12406046 0.21330856 -0.034925118 0.04669165 -0.012882532 -0.13949764 -0.08662825 -0.07828375 -0.010409286 0.25318635 -0.09285293 0.14671506 -0.23063506 0.20435876 -0.0634947 0.11591628 -0.11413395 -0.027074564
236 -0.24214475 0.098134495 -0.1269146 0.059321895 -0.035805937 -0.04228418 0.1358492 0.013961462 0.044971123 0.04102417 0.093992785 0.20132165 0.016326126 -0.10804244 -0.1122368 -0.07727755 -0.06743019 0.24516737 -0.008145975 0.20026238 0.15423802 -0.08081899 -0.080197245 -0.019956117 -0.34477937 0.18884487 0.05687402 -0.16615605 -0.05556063 -0.07755613 0.018601837 -0.15823619 -0.26723456 0.18103817 -0.14764069 -0.15849996 0.0043353084 0.35289848 -0.08385344 0.07246889 -0.0567932 0.07043287 0.17744525 -0.109468564 0.13613047 0.16110502 -0.14691982 0.21967849 0.066370405 0.032314762 -0.3363917 -0.230792 0.10077734 -0.074299425 -0.029053146 0.15708885 -0.029013334 -0.21715064 0.029579777 0.17009367 -0.14909576 -0.225191 0.11790952 -0.06122489 -0.11928844 -0.11774995 0.03829075 0.17687032 0.07079644 0.068146385 -0.012655122 0.21787277 -0.077846326 0.15344436 0.005135297 -0.19868436 0.07956383 0.05142301 -0.18385871 0.072661765 0.26680735 -0.25033414 -0.0598993 0.03272599 0.08435795 0.043922685 -0.1048296 -0.09408241 0.11723589 0.046195813 -0.019448066 -0.046184435 -0.39679098 0.21432999 0.2279833 -0.048197597 0.07473559 0.052653693 -0.09976026 0.08786821 0.02901946 -0.10607464 0.10102981 0.15345402 0.07570988 0.0410834 0.42553192 0.23928048 -0.025343226 0.07728667 0.09682183 0.15347055 -0.10465161 0.008463391 -0.046984304 -0.19209318 -0.036224104 -0.12229155 -0.022386787 0.29275006 -0.12700076 0.1515373 -0.21178871 0.1395926 -0.1450656 0.10074359 -0.12244216 0.064383924
88 -0.2969894 0.062580585 -0.10471538 0.07718364 -0.05566483 -0.011912307 0.12012682 0.058489777 0.035817068 0.08578046 0.09624618 0.20605554 -0.026899166 -0.08878705 -0.092955306 -0.033357855 -0.0861996 0.3081801 -0.030859472 0.2542681 0.13659678 -0.07200437 -0.1179871 0.042981133 -0.3012295 0.13314277 0.09226843 -0.1498432 -0.09637976 -0.06422884 0.0084383655 -0.21648549 -0.24195266 0.19667783 -0.08478647 -0.1407811 -0.025862651 0.38327256 -0.035744905 0.039948303 -0.051458582 0.08307253 0.12613893 -0.049945116 0.17587738 0.19174704 -0.12734093 0.22686976 0.05622774 -0.03694119 -0.2862911 -0.12780443 0.08684573 -0.049268134 -0.043693885 0.060952097 -0.036848783 -0.22927529 -0.021662235 0.1843841 -0.21226934 -0.22153087 0.086167514 -0.05424623 -0.13795355 -0.17346828 -0.01503736 0.108231105 0.04616996 0.1302138 0.044891845 0.17521636 0.011373704 0.22190891 0.046011187 -0.119410925 0.019759689 0.017806362 -0.11041204 0.06859147 0.28935096 -0.2927978 0.02512218 -0.022652768 0.019671904 0.01261721 -0.14542408 -0.12982419 0.07675091 0.07395287 0.029417057 -0.089028575 -0.47950125 0.22352472 0.21996336 -0.032968227 0.061657466 0.09904831 -0.1696767 0.17252602 0.015152141 -0.10052312 0.14562523 0.17323823 0.09392345 0.06619738 0.37738702 0.23427919 0.038308293 0.03371106 0.08955802 0.13202357 -0.098846644 0.00067171955 -0.0008626273 -0.17254941 -0.06146154 -0.068818495 0.002672833 0.28672552 -0.16694275 0.0942627 -0.18248762 0.15308271 -0.14404705 0.112330176 -0.21092947 -0.054808635
250 -0.2742283 0.03291267 -0.14700279 0.031294167 -0.034117244 -0.04073265 0.15588683 0.11308793 -0.009844316 0.06949412 0.04987231 0.21172662 0.043547615 -0.065770164 -0.0697572 -0.105129726 0.000474386 0.30111653 -0.057367932 0.23090526 0.048355818 -0.02277986 -0.02368817 0.06029626 -0.3318307 0.20682494 0.055742957 -0.13608393 -0.11060867 -0.04906459 -0.06678097 -0.15415066 -0.26509872 0.22448835 -0.14044584 -0.1437629 0.022224095 0.35803777 -0.022212384 -0.0057576406 -0.07158286 0.03718657 0.10013713 -0.11010984 0.16905834 0.2185192 -0.1756095 0.21571054 0.08123567 -0.018417193 -0.35990128 -0.117166735 0.011317306 -0.04133176 -0.05290533 0.0812479 -0.049393136 -0.22553241 -0.0007780434 0.16406834 -0.17387381 -0.21771157 0.073068544 -0.027044449 -0.17208293 -0.08447517 -0.0073443763 0.0584838 0.074244 0.1093866 0.039271917 0.30276716 -0.036876816 0.21855788 0.06316837 -0.14647739 -0.007336423 -0.011878539 0.028072296 0.0649076 0.30039117 -0.2420035 -0.032470755 0.04659278 0.015004053 0.07679251 -0.0838704 -0.070978664 0.06520657 0.104273945 -0.01666943 -0.059333164 -0.4143273 0.24192017 0.23567624 -0.04099494 0.14276958 0.1133166 -0.17338713 0.1307008 0.057668313 -0.029996328 0.14451593 0.121368475 0.17143995 0.023584459 0.40989152 0.2558373 0.07168824 0.087775566 0.108134665 0.17748126 -0.031996883 0.025073515 -0.014438267 -0.11893575 -0.0672751 -0.031515677 -0.05463023 0.22464265 -0.11070822 0.18017694 -0.26880634 0.20127779 -0.16741098 0.1237051 -0.07114467 0.012117103
2499 -0.14397828 0.07056507 0.13743429 0.22333582 0.049774773 -0.06258933 0.23218863 -0.01394015 0.18736057 -0.20966914 0.13070928 0.23611054 -0.008732102 0.0045916317 0.094195016 0.08001706 0.14849766 0.39987233 0.1433711 0.1038778 -0.076679066 0.05846222 -0.10068909 0.040732488 -0.13167593 -0.029783329 0.13202251 0.035145286 -0.02959598 0.054664824 0.14946336 -0.48618537 -0.2563173 -0.053592794 0.21006933 -0.09216236 -0.018176904 0.30785957 0.18437946 0.016001834 0.058961418 0.19952415 0.023148207 0.06321939 0.109330535 -0.22705396 -0.24124452 0.14567041 0.06042786 0.012553692 0.01973276 0.19411406 0.025297636 0.1788231 0.06527964 0.17557365 -0.06134366 -0.07704327 0.04052514 -0.12369134 0.064717904 0.14953078 -0.03169423 -0.0014704968 0.12586267 -0.118897825 0.2297786 -0.13363741 -0.13236953 0.1621425 0.07446162 -0.0611614 0.0840069 -0.36406797 0.024642697 0.06454193 0.12602292 -0.23275478 -0.2013674 0.083753005 0.052941866 -0.27613005 -0.07149204 -0.08590586 -0.059508424 0.039977957 0.06563867 0.31934267 0.18301089 -0.04616494 0.05311025 0.0034138516 -0.10396406 -0.21343838 -0.12801921 0.07749436 0.04655749 0.27237457 0.06311634 -0.031375814 -0.100824356 -0.24040902 0.19015785 -0.12797342 0.015169546 -0.05607315 0.1537357 0.116431355 -0.32982156 -0.23723872 0.06521622 0.20069668 0.08514839 -0.17170759 -0.0038044685 0.26222706 0.27044058 0.07632615 -0.05465019 0.1821805 -0.09585205 -0.105919115 -0.031948987 0.28211835 0.31590036 -0.2393168 -0.06408785 -0.07030417
195 -0.25970447 0.07707198 -0.065804295 0.049533606 -0.045329537 -0.037344117 0.13942721 0.0948411 0.05666302 0.09798312 0.05345003 0.1959779 0.04585961 -0.04045863 -0.11801226 0.005304227 -0.073554985 0.221677 -0.018257044 0.23526913 0.13290916 -0.092207916 -0.05072785 0.0142660625 -0.3449711 0.22972296 0.088595234 -0.15178232 -0.070696905 -0.055783845 0.017420206 -0.14721926 -0.36367497 0.28012854 -0.16384463 -0.13225958 -0.09807684 0.31324327 -0.06529752 0.03628817 -0.07319559 0.12525871 0.17575827 -0.087800436 0.16369325 0.18099019 -0.18302017 0.18304396 0.047554508 -0.0030553557 -0.2559619 -0.17136925 0.07105637 -0.039537895 -0.03445857 0.13078298 -0.09379077 -0.20216115 0.042749874 0.17423034 -0.16482878 -0.18465236 0.07174621 -0.045718763 -0.12896673 -0.18709888 -0.023467187 0.082465336 0.07388091 0.07977092 0.007724866 0.2064874 0.028954642 0.2347683 0.071760826 -0.19200733 -0.038182978 0.023042887 -0.12313365 0.049625404 0.30338904 -0.30864584 -0.114138156 -0.015111301 0.008332319 0.07765832 -0.16223316 -0.05651165 0.10503303 0.0727114 -0.007370041 -0.0826938 -0.4412049 0.2162901 0.25641987 0.010458307 0.07546595 0.077677675 -0.1818027 0.19537915 -0.0068023987 -0.04576498 0.10152543 0.18476874 0.14779209 0.05247636 0.3805256 0.20776542 0.008670555 0.06180313 0.13167444 0.13834248 -0.071480036 0.031763922 0.027469957 -0.18882422 -0.07534086 -0.12106888 -0.005318264 0.2836385 -0.10051198 0.10374052 -0.15233627 0.1947401 -0.16566603 0.092738904 -0.11285943 -0.006377622
2482 0.11987678 -0.15611546 -0.09910746 0.074270956 0.0849386 0.16512363 0.06070414 -0.041826323 -0.2617186 -0.30271113 0.14469843 0.17190935 -0.05696591 0.47243688 -0.06538569 0.1636173 0.08864972 0.09535707 0.37445566 -0.16559875 -0.295167 -0.43121767 -0.16201845 -0.06365739 0.13286366 0.32134178 0.041410558 0.16263989 0.1280408 0.1423331 0.15278104 -0.33674875 -0.032762785 0.25097173 -0.35018784 -0.19218281 0.005299108 -0.14664884 0.26985234 0.115847096 0.2994514 0.17014317 0.09166054 0.031492278 0.347399 -0.56395733 -0.13053733 0.11906323 0.05592951 -0.12380792 0.009164696 0.037503835 0.05052955 0.05739126 0.18139744 0.060069926 0.24679172 -0.19238718 0.0057808035 -0.14662723 -0.049576323 -0.035587016 -0.07196746 0.23243089 -0.16827925 0.18872873 0.26783717 0.05200985 0.14064735 0.15852672 -0.29846573 0.3784542 0.007500779 0.1091073 0.03927676 -0.06524325 -0.15088594 0.081425436 -0.2447495 0.17353989 0.055814017 0.10137202 -0.13745606 0.085513525 0.07026684 0.27471823 0.17841582 0.1867768 -0.13576528 -0.55395216 -0.25927985 -0.065515384 0.11870319 0.40818724 0.065726005 0.16864812 0.13875629 0.13591404 0.21834649 0.17607938 -0.14481273 0.04692908 -0.078587174 -0.09100483 -0.03453434 -0.14067788 0.42357007 0.12839998 0.14593923 -0.079478696 -0.045505915 0.3504994 -0.2117566 0.03835309 -0.23453905 -0.028325101 0.07844061 -0.2169073 -0.17605187 -0.08280178 0.104898565 -0.022155354 -0.38458458 0.046746824 -0.119723655 -0.24244419 -0.28323656 -0.04966815
2617 0.0059406003 0.06053086 -0.13511626 0.038506195 -0.05979836 0.122620344 -0.24921778 0.27694395 -0.18393797 -0.03899571 0.10159341 0.030934269 -0.23372112 -0.048796616 -0.033394918 0.13005021 0.1334601 0.164475 -0.08323135 0.18749364 -0.31235445 0.035276093 -0.089075245 0.11321408 -0.13877977 -0.026893277 0.25144312 -0.03578986 -0.24364613 0.012825672 0.28707334 -0.26938507 -0.24590148 -0.16016567 -0.18254258 0.008185636 -0.08144413 0.036661513 0.010494865 0.20675327 0.12289628 0.15737303 -0.03884226 -0.01840508 0.13620657 -0.023959052 -0.011592528 -0.1669695 0.10575031 0.20464177 -0.073720396 -0.06116088 -0.12708169 0.23010108 0.07668387 0.0185923 9.676665e-05 0.020961044 -0.02445901 -0.08189179 -0.16107526 0.0872266 -0.2588941 0.22209741 -0.13083586 -0.07935188 -0.19551294 -0.051398706 -0.031829163 -0.016264621 -0.0154898325 0.13918199 0.30086508 -0.31538457 -0.037500095 -0.104147665 -0.1469997 0.0684437 0.059630986 0.27413943 0.16467409 -0.035731513 -0.1257106 0.07198742 0.3868458 -0.0531175 0.0835037 0.23333533 0.41344556 -0.1595991 -0.09480557 0.23983185 0.09106207 0.010823843 0.13468888 0.07145824 0.17059053 0.14995958 -0.008000919 0.058729235 -0.03771283 -0.025121052 0.048811547 0.12206046 -0.08771305 -0.13574412 0.27754915 0.2900624 0.052629795 -0.0016393529 -0.017386623 0.061736867 0.040177997 0.1813151 0.17075193 0.3114256 -0.03311913 -0.16855678 -0.20622326 -0.11754304 -0.29016492 -0.06891683 -0.15460767 0.09234286 0.0075801383 -0.018468468 0.034591597 0.011072106
2430 0.09945833 0.084662184 0.16513596 0.06568971 -0.15469678 -0.11921766 0.0022882016 0.25443605 -0.06473469 -0.0054323818 -0.13832794 0.030253166 -0.12252313 0.056042053 0.06899086 0.081826314 -0.00758264 0.1870615 -0.008884949 -0.07853806 -0.05651248 -0.10864037 -0.20074995 0.24248771 0.0301084 0.059143547 0.29520237 0.09873324 0.17789689 0.103370376 0.13050283 -0.4146414 -0.34457958 0.011074329 -0.09246573 -0.19561464 0.08126102 0.045575272 0.15376519 -0.019176703 0.08839184 0.38808545 -0.08332908 -0.07237542 0.15012857 0.068952546 -0.099335805 0.044665296 0.16043292 0.21182473 0.076638944 -0.03033734 -0.28694397 0.06892555 0.07370969 -0.05769823 0.10053446 -0.2237767 0.08480268 -0.051469725 0.069671914 0.057907183 0.06263607 0.102925904 0.023587145 -0.054898884 -0.15868007 -0.16461655 -0.25306827 0.047968496 0.015263721 0.118091956 -0.014439675 0.0072112395 -0.0054056877 0.017106913 0.0906172 -0.24939393 -0.02572145 0.05826275 0.3326447 -0.34112296 -0.14473107 0.044224802 0.17785302 -0.033362452 0.20100392 0.118346736 0.06448298 0.12766172 -0.031699676 0.1674013 -0.15633833 -0.080381736 0.030410519 0.14140907 0.0038218421 0.010614007 -0.041970838 0.11080469 0.018280594 0.0043937485 0.12819424 -0.12800537 -0.090272576 -0.08935106 0.107683495 0.0228652 -0.0040601525 0.124987036 -0.28124127 0.19046488 0.089156024 0.31756496 0.0934019 0.034179065 0.094207875 0.07104082 0.04173286 -0.124011904 0.12821788 -0.033170313 0.06344037 0.28667518 -0.041973155 -0.14260727 -0.11367251 -0.2351562
881 -0.11596484 -0.10834254 0.11559666 -0.17273742 0.1221687 -0.123433955 0.19389147 0.16793887 0.00053615955 -0.036897656 -0.11291459 -0.0015238146 -0.047845967 0.030339744 0.070205204 -0.020117782 -0.10951903 0.0053498307 0.1889174 0.10623306 0.10369619 0.12822454 -0.12134363 0.33765832 -0.23384483 0.101263255 -0.024978701 -0.028097235 -0.14093009 -0.056399442 0.26071385 -0.208589 -0.06687662 -0.038708124 -0.010374365 -0.32319683 -0.021749208 0.049904823 0.09557335 0.0498767 -0.12504883 0.07266454 0.24012776 0.13934952 0.13892092 -0.09147422 -0.087599546 0.05899464 0.18536946 0.14758684 -0.044729434 -0.0015798508 0.042274304 0.088994324 0.026370084 0.09059485 -0.051727675 0.06995701 -0.031463686 0.064864784 -0.2616435 0.11957239 -0.1252545 0.19699408 -0.013070498 0.011391079 -0.040222395 0.027489178 -0.055116106 -0.08484514 -0.011031274 0.19030932 -0.02264322 -0.16249835 -0.037230436 -0.18450092 0.0340152 -0.03248066 -0.2958297 -0.063364625 -0.07368616 0.045915578 -0.05691664 -0.025855223 0.031396262 -0.17838193 0.0793874 -0.101906486 0.17865063 -0.06075085 -0.037525557 -0.19651474 -0.0004087349 0.022145988 0.0839531 -0.12631944 -0.0146563435 -0.008717821 0.0042389147 0.14594008 -0.08663021 0.14696667 0.22781639 -0.113826476 -0.09500084 0.080920756 0.11133528 -0.10840754 0.037302867 -0.018301293 0.08199249 0.1548545 -0.11777137 0.1180339 0.09630302 0.23030846 0.13689348 -0.0355908 -0.23208171 -0.0012501507 -0.012794108 -0.09276841 -0.10184385 0.19671732 -0.039344825 0.06891699 -0.030940868 -0.16799374
849 -0.17001261 -0.06303373 0.19779438 0.1062049 0.14982224 -0.18790555 0.10458474 0.056964673 -0.20845485 0.07104273 0.044989254 0.032490537 -0.061315633 0.053331323 0.40385565 0.05489725 0.15357558 0.10930123 0.20978822 0.056902755 0.08890154 0.07387961 -0.24407497 -0.05243323 -0.15067127 0.15990959 0.10649946 0.0067106546 0.0077913245 0.16006155 0.19558395 -0.34307653 0.0093347905 0.1238639 -0.17588408 -0.19552736 -0.069240525 0.09313591 0.18138823 -0.010653802 0.031388663 0.18510194 0.15895024 0.08946687 -0.02654544 -0.11108664 0.03451762 0.10018707 0.12958197 -0.13781492 -0.121183164 -0.2732071 0.009754332 0.12286128 -0.12165316 -0.05069523 -0.16877447 0.13977331 -0.09582894 0.060776412 -0.16702677 0.20381734 -0.07599589 0.09828061 -0.0020524492 -0.31294972 0.100220375 0.06815809 0.13801013 0.15994002 -0.030981032 0.0134786805 -0.021927403 -0.21474662 -0.33411205 0.005820882 -0.12766114 -0.18154956 0.035695467 -0.17581153 0.0054745553 -0.31166953 -0.091461994 0.08218257 0.051781498 0.06108686 -0.10774384 0.08911565 -0.008470772 0.027503215 -0.1058998 -0.1246762 -0.13610919 0.14685746 -0.0869393 -0.026376538 0.26167777 -0.09393315 -0.09951961 0.024095852 -0.15302986 0.20849581 0.0577162 -0.2345817 -0.17613861 0.16205646 0.11175225 0.073081225 -0.010410989 -0.061912686 0.005836406 -0.030257164 -0.010394532 0.1684948 0.045016922 0.26838136 0.2849878 -0.10579164 -0.007587253 -0.13094701 -0.02328147 -0.18637104 -0.0067447163 -0.1763443 0.023991762 0.05641593 -0.20506276 -0.137029
2614 0.13888639 -0.050444167 -0.12331718 0.0277022 -0.11547723 -0.21994688 0.10740128 0.06454723 -0.009641803 -0.046497975 -0.00013033627 0.24080922 -0.13126 0.13234648 -0.04342 -0.27289328 0.3925512 0.34426662 0.03149325 0.07575726 -0.093474016 0.25492388 -0.06725063 -0.03212187 -0.07135732 0.1316096 -0.0031958048 0.056959078 0.17655964 -0.10919261 0.26445112 -0.22278006 -0.18791063 0.10520099 -0.030507889 -0.30585235 0.28012604 -0.15343535 -0.1229534 0.14119244 -0.07388126 -0.049109157 -0.11665445 0.15021026 0.2311502 -0.124750085 -0.119683646 0.14095427 0.17557265 -0.3037278 -0.29693228 0.10652549 -0.23848598 0.063401096 0.012471105 -0.016710779 -0.069082946 -0.07165032 0.08952584 0.050069146 -0.18030372 0.14723055 0.082092166 0.31482768 -0.275718 -0.13073412 -0.105436005 0.07592404 -0.13927244 -0.20710988 -0.06478738 0.0075394143 0.09850977 -0.1089663 -0.19054264 0.059857722 -0.011401162 -0.2482191 -0.055720635 0.14522749 0.274171 -0.2248264 -0.07531898 -0.31981716 0.13737836 -0.09023662 0.19878784 0.2453891 0.04281393 0.3120978 -0.26384896 0.020815235 0.15721026 0.077473536 -0.012568309 0.2528707 0.42181742 -0.14332283 0.019207798 0.379233 -0.16662575 -0.35850564 0.03454342 0.03249662 -0.24383286 -0.11118127 0.08266885 0.14372234 -0.14203715 -0.08996635 -0.1920953 0.04937564 0.23324963 0.078192264 -0.013112749 0.353281 0.103936605 0.10275425 -0.16498156 0.12769903 0.040060293 -0.096343726 -0.18876806 0.071294025 -0.01814837 -0.017536025 0.14227049 0.07267398
2593 -0.06875905 -0.098414995 -0.11646872 0.12770553 0.08080614 -0.15457916 -0.1390771 0.16924354 -0.02581802 -0.089277215 0.0107303355 0.14509228 0.017520119 0.073280565 -0.12713233 -0.05370312 0.12002041 0.22894442 -0.22640337 -0.21142353 -0.2396856 -0.04731141 0.028808532 0.20764616 -0.25782564 -0.1371268 0.3138451 0.100535825 -0.05456543 -0.06002325 0.5143041 -0.23259735 -0.05172015 -0.12823562 -0.18995313 -0.03697502 0.085228965 0.1380213 0.18309887 0.0758887 -0.0598652 0.05122926 -0.045755923 -0.025949977 0.29764217 0.119453706 0.10323659 0.012462704 -0.17359473 0.019337395 0.04779797 -0.052599426 -0.13579555 0.21249367 0.09779942 -0.16098557 0.035856485 0.07706335 -0.09177059 -0.2824616 -0.17087165 -0.06280433 0.11083894 -0.10058275 -0.101950064 -0.049022257 -0.21446922 -0.081976764 -0.13266882 0.14228074 0.092962354 0.12028658 0.16700207 -0.16176686 -0.03196934 -0.0180145 -0.25252596 -0.1488914 -0.09453567 0.27140817 0.19039623 -0.23086362 -0.26822746 0.046153687 0.04021229 -0.1750703 0.2737845 0.14584178 -0.00971795 0.30080563 -0.12779792 -0.033265807 -0.004378393 0.01839666 0.12447757 -0.003769086 0.21098132 0.12305879 -0.16543794 0.3541872 -0.1917573 -0.007992415 -0.023853825 0.039901983 -0.3450059 -0.11518024 0.08497452 0.15219788 -0.050247323 -0.1957714 -0.060861487 -0.04584973 0.17853326 -0.011928779 -0.32669526 -0.16705708 -0.06534047 0.10931928 -0.5271157 -0.009055047 -0.03586683 -0.13904314 -0.084865235 0.034225803 0.06407962 0.04750162 -0.056287948 -0.0872348
2511 0.14416659 0.07197296 -0.08052788 0.041016873 -0.08560444 -0.19585162 -0.07304137 -0.007066095 -0.17418279 -0.09103797 0.13350286 0.035775214 -0.06875722 0.14741376 -0.047826506 0.40213296 -0.13235433 0.11867873 0.16503425 -0.17114362 0.005321788 0.23018992 -0.25053817 0.004616162 0.05069822 -0.18989794 0.17775169 0.063838 -0.011597723 0.011791577 0.06407925 -0.52267414 0.04289856 0.03880394 0.034907095 -0.11601725 0.11367439 0.07006217 0.03409954 0.22481523 0.23704597 0.11868988 0.069770925 -0.24317716 0.09928786 -0.02443476 -0.013328523 0.0043186434 0.23518787 0.077839546 0.07575285 0.14108963 -0.14203845 0.03420768 -0.08517621 -0.08482348 0.019304449 -0.1281957 0.1724737 -0.08751464 -0.009072517 0.06650817 -0.0018969033 0.023033341 -0.16128753 -0.0253425 0.113462515 -0.01665831 0.031789158 0.017337749 -0.0055165375 0.16729948 0.19108355 -0.20253658 -0.056622315 0.05499957 0.06322501 -0.16767752 -0.059461575 -0.023869222 0.15631779 -0.30786422 -0.05869749 -0.07357055 0.1643941 -0.19294952 0.09869832 0.27435905 -0.066532776 -0.096599504 -0.16796106 0.18382086 -0.14173763 -0.17948464 -0.012999069 -0.008432026 0.070517585 0.1296021 0.024610698 0.19625218 -0.06365391 -0.1251239 -0.038398772 -0.16897656 -0.16529137 0.12787786 0.019196222 0.27208713 -0.19652492 0.045292113 -0.00040756346 0.107212715 -0.09522475 0.037410192 -0.14485121 0.06994167 -0.09225717 0.027154457 -0.23204182 0.27103916 -0.22566861 0.19399692 -0.36206478 -0.02951794 0.01575314 0.014529566 -0.42754143 -0.17888384
2596 0.102710485 0.12527594 -0.07360141 0.044315107 -0.2175451 -0.07947271 0.0003345449 0.15971392 -0.033728976 0.2539492 0.03795263 0.31478783 -0.018073237 -0.044619396 -0.021575587 -0.026294647 0.07016625 0.27200922 -0.014064684 0.124778345 -0.12537226 0.037875585 0.08784098 0.14881998 -0.08252875 -0.04774603 0.24739549 0.09766101 -0.023122491 -0.16155496 0.33499458 -0.17419799 0.03919167 -0.055633172 -0.021578113 -0.29934588 0.07973025 0.044980325 0.1605207 0.075983554 0.10892843 0.10279785 -0.24761185 -0.052930325 0.032339565 -0.17936727 0.026087562 -0.07045361 0.15068926 0.011648698 0.05590952 -0.15340076 -0.18193084 -0.116491236 0.075108685 0.07037049 -0.09149161 -0.005650917 0.10345936 -0.2944435 -0.030460909 -0.10536071 0.011496247 -0.026293304 -0.21662267 0.015171361 -0.031097919 -0.27587616 -0.16750091 0.021623084 -0.22881407 0.057104312 0.17812984 -0.15384375 0.22685197 -0.04558612 -0.09979853 -0.045676067 0.016668625 -0.065671265 0.30156755 -0.34888995 0.054726623 0.14187172 0.1741142 0.17732772 0.20882173 -0.085724495 0.17640376 0.15774724 -0.08449738 -0.071900345 0.24906391 -0.095086046 0.09222206 0.15973845 0.31182143 0.18691923 -0.059733152 -0.06866218 0.092204064 0.22999045 -0.17162898 0.012248925 -0.122694775 -0.28513533 -0.113133326 0.15256917 0.13631654 -0.018614102 -0.1273742 0.18649058 0.06970954 -0.053936135 -0.2863121 -0.06026422 0.11152864 -0.14206696 -0.09380477 -0.15830159 -0.021253526 0.08530787 -0.24933702 -0.091254376 -0.29215264 -0.14793946 -0.3078122 0.03201903
2508 0.3290983 0.24231069 0.08848069 -0.15904407 -0.20575692 0.2354859 -0.052407358 0.0071914606 0.0032247945 -0.0726078 0.2315165 0.26819038 -0.14799102 -0.18007381 -0.22261678 -0.074273735 0.02072279 0.49231595 0.06456349 0.055380315 0.18896438 -0.37616307 -0.07803518 -0.11776844 -0.017286167 -0.025248112 0.14928761 -0.08709869 -0.018784763 -0.028711699 0.18523777 -0.33926308 -0.13859211 -0.0055792974 -0.006169528 -0.3453225 0.10394676 0.18722583 0.2578962 0.10673858 -0.08154201 0.30088243 -0.05528901 0.063278995 0.1947272 -0.103171594 -0.16541535 -0.120265074 0.12554587 -0.13589686 0.081589386 -0.4290798 -0.1987675 0.09884362 0.077819034 0.10988058 0.1675919 0.1178566 0.076387346 -0.16407746 -0.05020515 0.36112764 0.27210784 0.040552236 -0.37158164 -0.30548263 0.21311902 -0.034086596 -0.17330438 0.0743121 0.17559434 -0.22059324 -0.1348261 -0.09624552 0.03499551 0.041733675 0.21511962 -0.102840036 0.08726295 0.1627978 -0.02348102 -0.22645475 -0.15008451 -0.1388734 0.114200726 -0.09126309 0.124814875 0.08925162 0.16071573 -0.24172471 -0.106210575 0.22351247 -0.1221978 0.041011307 -0.22092152 -0.20655788 0.41788656 -0.12713657 0.10657671 0.03648396 0.09838058 0.20383127 -0.2156595 -0.012796894 -0.16924126 0.13176025 0.2355259 0.1296931 0.080639765 -0.040323015 -0.23768342 -0.009290995 0.38087353 -0.041538402 0.050699417 0.10620556 0.110213526 -0.10172701 -0.029799128 -0.019378087 -0.1814605 0.16246752 -0.07706263 -0.0023056425 -0.1260787 -0.122124776 -0.4552959 0.025647946
2561 -0.41425702 0.61693335 0.299618 -0.21174605 -0.045014504 -0.07352281 -0.010202858 -0.13505067 -0.33501425 -0.2681777 0.4877532 0.14669767 0.19187017 0.21536854 -0.22938804 -0.1474239 -0.141612 0.07678936 0.25177723 0.23970157 0.095918134 -0.06621669 0.07285208 -0.30487728 0.12385903 0.1255993 0.36503807 -0.11088624 0.09121434 -0.33261624 0.3626693 -0.09953522 -0.4200102 0.18036167 0.028761849 0.08660873 0.40463933 -0.069006495 0.02135289 -0.32159317 0.28153226 0.17804906 0.18334161 -0.04964938 0.42187744 0.15919885 0.07124973 -0.26823333 0.12505275 0.24697123 -0.0027119075 -0.0802013 -0.6248823 -0.22392277 -0.052110642 0.41587496 0.027470883 0.15728837 0.02408554 0.07256897 0.1078152 0.10124312 -0.1912285 -0.16285941 0.18618444 0.024693877 0.29495624 0.07145091 0.039320145 0.032327875 -0.080268696 0.3739265 0.47151807 0.29776153 -0.35345584 -0.17609543 -0.26182538 -0.08270281 -0.1922133 -0.08653803 0.11132659 -0.47001928 -0.6240289 0.3430578 0.031014077 0.038918383 0.058974553 0.13654268 0.057862725 -0.3909995 0.10500575 0.12161194 -0.05608758 0.17733158 0.06851943 -0.07639507 0.15666105 -0.1137242 -0.13826334 0.22947001 0.17427446 -0.13787346 -0.010378177 -0.08137625 -0.30309784 -0.24739309 0.08222812 -0.0062581124 -0.27192461 -0.28498322 -0.005097916 0.0661771 0.22546019 -0.1910966 -0.03845703 0.36234435 0.39703003 -0.3090206 -0.047163222 0.18449908 0.0032107278 0.12002714 -0.13412888 0.039583337 -0.20094186 -0.3679679 -0.1859328 0.05935427
2425 -0.116039835 -0.077540584 0.029421398 0.14647293 -0.16921793 -0.001013736 -0.1212346 -0.11780691 0.13382755 -0.09472764 0.15844026 0.13425328 0.17755349 -0.30635387 -0.1357155 0.096216105 0.13022935 0.0014732761 0.043380518 0.23862983 -0.14747846 0.01788307 -0.4222554 0.07529283 0.18199001 0.30328637 0.3583232 0.012473199 0.12863205 -0.09005242 0.3851387 0.14658605 0.059940763 0.098146476 -0.3498423 -0.25802258 0.19039589 0.13388364 0.05346984 0.32282442 0.43347532 0.2470141 -0.043480657 0.3054083 -0.053245015 -0.27431864 -0.28425023 0.24613935 0.2854323 0.015253978 0.09140492 -0.03410887 -0.03373764 0.07910764 -0.07310507 0.08369066 0.16069314 -0.07335255 0.14885153 -0.21623686 0.17942436 0.020719605 0.1997864 0.09235554 -0.08921002 -0.010352895 0.07969776 -0.05978218 -0.062053226 -0.116387986 -0.0553277 -0.116936296 0.19571115 0.12018025 0.25971022 -0.16289395 -0.053083614 -0.23495671 0.056525603 7.3276624e-06 0.4613214 -0.23690453 -0.15294218 -0.04543534 0.09893652 -0.20889276 -0.17672966 0.21551214 0.40944895 0.048104655 0.07003815 0.26312852 0.013857194 -0.06672287 0.004029575 0.05042812 0.017360795 -0.051623434 0.10752429 0.10629151 -0.1135521 -0.15711886 0.07244999 -0.05663336 -0.44522792 -0.1776752 0.13215347 -0.12477157 0.021450223 -0.2422839 -0.078030966 0.13614388 -0.0949426 0.10365345 -0.009167367 0.08470697 -0.008255633 -0.10315506 -0.13577442 -0.06587738 -0.2521671 0.05020043 -0.32035995 0.15726185 -0.004708595 -0.07966026 -0.16217898 -0.23403977
87 -0.13852252 0.14278466 -0.028636117 -0.15947059 0.029911626 0.15198214 0.15927215 0.117121354 -0.3540798 -0.12758401 -0.1447718 0.085590266 0.07914055 0.013424439 0.097620025 -0.12987304 0.026848985 0.17258534 0.023946468 0.016787574 -0.17364627 0.12870194 -0.10182456 -0.008081535 -0.008686009 0.16362411 0.20046996 -0.23066907 0.09124675 0.13999835 -0.004828949 -0.003969852 -0.057057496 0.1907843 0.07059322 -0.19378808 -0.04480183 0.09612105 0.11389649 0.031788945 0.2423487 0.045769934 -0.069075294 0.12768486 0.09873383 0.04047766 -0.11512222 0.1939732 0.08399653 0.0075310795 0.024494806 0.19993424 -0.003504893 -0.18924758 0.15884961 0.32500854 0.10313848 -0.075331666 -0.0036345338 -0.22594436 -0.14479476 0.08436169 -0.015980382 -0.123273425 0.0759515 -0.28046277 0.058433577 -0.0060527157 -0.25301614 0.29103738 0.14107728 0.074394 -0.2189109 -0.039856445 -0.12602994 -0.03302294 0.005973313 -0.04261145 -0.25012895 -0.10948696 0.19329616 -0.19474845 -0.010208565 -0.1672613 0.14014821 -0.09053891 0.08295662 0.025272613 0.085486926 -0.13353156 -0.1594055 -0.0046754596 0.25350514 0.04419639 -0.05752649 -0.18164425 -0.038205475 -0.022686211 -0.2558779 -0.057754092 0.097322725 0.062430568 0.12853278 0.088626295 -0.15000524 0.20377024 0.17205508 0.10668638 -0.2905904 -0.16293736 -0.019791119 0.15792017 -0.038129862 0.10820467 0.0059110774 -0.16460241 -0.08046367 -0.11951471 0.05023234 -0.061061706 -0.23893964 0.26944458 0.06841327 -0.31539482 -0.2305422 -0.0100879455 -0.05958916 0.16228458
359 0.22249673 0.4231841 -0.04854487 -0.35104266 -0.13671505 -0.19222248 0.19352835 0.06756531 -0.18240106 0.08096503 0.33462334 0.14509109 0.03074511 -0.38440615 -0.04469225 -0.022820814 0.26599702 -0.17429526 -0.009229621 0.061355464 0.23600398 -0.015037954 -0.044534378 0.026572667 -0.11342051 0.014407845 0.016614873 0.02939386 0.2075309 -0.08924791 0.17303741 0.05097544 -0.078032814 0.16927262 -0.4690462 -0.23550175 -0.06984146 -0.0045680786 0.07266979 0.013951198 0.049743254 -0.061649457 -0.22222362 -0.3025828 0.19264393 0.013164222 -0.14233588 -0.025154881 -0.08423426 0.101898454 0.067402236 -0.1577425 -0.19353767 -0.0041474467 0.0032974603 0.047705844 0.005128518 -0.05895204 0.07372854 0.03721902 0.05669916 0.08865531 0.07839349 0.2132697 -0.116839714 -0.1872282 -0.23954634 0.03816033 0.18313214 0.22071388 -0.29029375 0.23717463 -0.0015923979 -0.16147943 -0.0050087404 -0.13613804 -0.060449842 -0.09984242 -0.34872863 0.003305576 0.26887602 -0.116182074 0.15816823 0.038237456 -0.04984716 0.33407784 -0.037257954 0.0020313356 -0.05375195 -0.074210614 0.03491368 0.008006528 -0.11475477 0.07069222 -0.013855361 -0.21113993 0.17957649 0.21346933 0.050117444 0.15434556 -0.061743945 -0.2372671 0.21301576 0.38711047 0.041910928 -0.0043085627 0.29948896 0.24198446 -0.22696103 -0.10960745 0.16203776 0.30281577 -0.031144684 0.03546911 -0.12157587 -0.08554604 0.03392962 0.14533412 -0.05031265 0.15833098 -0.0083299475 0.08432494 0.031745892 0.13687076 0.16282424 -0.021641018 -0.30576095 -0.22153366
278 0.12989362 -0.25853142 0.14689219 -0.12467767 0.3006837 0.035970785 -0.3762721 0.3590489 0.0046721664 0.12064149 0.1468224 0.19491635 0.08091068 -0.09931211 0.29861277 -0.1554293 0.14663526 0.32652432 0.08697793 -0.022689424 0.025147302 0.042660948 -0.50669014 0.10820706 -0.34205556 0.06493711 -0.039424893 -0.052787434 -0.2044851 -0.0031785641 0.23164378 0.24076135 -0.1675266 0.003941665 0.055085264 -0.14604907 0.023163011 -0.058536816 0.20041692 0.40645325 0.017546326 0.27979472 -0.09063735 0.016734546 -0.14892109 0.25563678 -0.1624176 0.08683715 0.10661433 0.087307304 0.26151007 0.18233934 -0.12522501 -0.3184197 -0.016906828 0.28055742 0.07908478 -0.0038746092 -0.30988145 -0.009753601 -0.05891577 -0.013904875 -0.12740627 0.2035371 0.102664635 -0.029191853 -0.12687409 0.36964697 -0.34736067 0.2897964 -0.288027 -0.118926406 0.117179684 -0.034073405 0.07030139 0.14447188 0.08495273 0.13919002 -0.08005137 0.23332089 0.3934147 0.084903285 -0.267741 0.035965353 0.16549647 0.0017178326 0.16872692 0.061435316 -0.100057416 -0.07907077 -0.11481504 -0.23374009 0.022771778 0.08671543 -0.14929263 -0.01485493 0.31864443 -0.14133441 0.2018758 -0.08861538 -0.036839798 -0.23070602 -0.17896101 0.15634528 -0.1352041 0.17296398 0.41083196 0.24774662 -0.15368658 0.02719679 -0.12265363 0.06343326 0.08191397 -0.29185236 -0.023365797 -0.11110627 0.1893777 -0.121735215 -0.107525125 0.016309772 0.018976366 -0.07425357 -0.31541824 0.16944818 0.00626592 -0.0826749 -0.35604525 -0.13390939
164 -0.07769448 0.1772754 -0.058398657 -0.041236874 0.05661631 0.07395983 0.15243584 0.16202982 -0.29375115 -0.075159274 -0.06149847 0.06841875 0.035301793 -0.059925888 0.09259536 -0.06106665 0.018429672 0.105190635 -0.0019074406 -0.013473405 -0.15010591 0.11294095 -0.028343607 0.007486353 0.09327892 0.30159426 0.20774129 -0.12350081 0.017706525 0.11714174 0.10055533 -0.07939267 -0.05988889 0.14214273 0.104853526 -0.14867531 -0.080256395 0.084192246 0.03911808 -0.004007561 0.21541694 0.036387034 -0.029863315 0.1100921 0.05914363 0.08800725 -0.018855719 0.18969269 0.081688486 0.021541815 0.005730661 0.2417263 0.028252862 -0.08793009 0.15557274 0.38332453 -0.018448569 -0.036523893 0.0037220058 -0.19749075 -0.14983892 -0.008076965 0.01609175 -0.12238324 0.09572369 -0.18425381 0.08370179 0.054059017 -0.27599356 0.2326863 0.18204296 0.036344737 -0.06262775 -0.043497037 -0.089279026 -0.059527498 -0.056485992 -0.0796333 -0.21144609 -0.091763884 0.22186072 -0.14068317 -0.08343772 -0.09039516 0.15669854 -0.088362 0.12488195 0.001982074 0.07681738 -0.10797376 -0.10581607 0.06651017 0.22427167 0.033914205 0.074432716 -0.1776411 -0.099225245 0.023590643 -0.21887393 0.011635359 0.059540525 0.03372159 0.16713746 0.027113387 -0.23699005 0.1862444 0.23599319 0.114804275 -0.3940998 -0.08229979 -0.038860887 0.21624394 -0.10267282 0.12145273 -0.037285924 -0.26638746 0.0111786565 -0.08654876 0.045341548 -0.071781665 -0.2285232 0.19915228 0.1236968 -0.33163536 -0.1948641 0.020606998 -0.11069602 0.16236717
2532 -0.16613732 0.27771047 -0.0002633109 0.00049655995 0.12485941 -0.032709006 -0.12197223 0.34615207 -0.12896824 0.23272066 0.119256645 0.23961231 -0.27462813 0.056799788 0.2322222 0.054962147 0.008870251 0.3982726 0.20848204 -0.10801549 -0.07821282 0.005501599 -0.11090044 0.11474224 -0.22910847 -0.055207945 0.05984077 0.10741046 -0.41238573 -0.008405759 0.0691149 -0.41519788 0.07630724 -0.05661967 -0.33122444 -0.07073426 0.15169786 -0.17564934 -0.038996514 -0.012907592 0.15527348 0.2416859 -0.2787951 -0.02536199 0.14354816 -0.29969805 0.29339433 0.3233089 0.22327144 0.02634381 0.12854075 0.13944289 -0.23421697 0.1460641 -0.08441249 -0.4591249 0.48715618 -0.047359563 0.08061728 -0.09748613 -0.23648518 -0.24028632 0.23463526 -0.09498949 0.16113406 -0.3936441 0.20420772 -0.018030962 0.11126099 0.064958535 -0.088824145 0.02940603 0.32113174 -0.23822212 0.25904295 -0.36037803 -0.3367683 0.059816033 0.12804404 0.015405641 0.17800754 -0.22409639 -0.24442592 -0.083546326 0.20948784 0.034945372 -0.13866751 0.33157524 0.033210985 -0.1261676 -0.13173985 0.121264756 0.1717031 0.04133232 0.12534879 -0.09088288 0.16674612 -0.057115152 0.04857474 0.27917898 -0.12220878 -0.0641671 0.2179265 0.065943904 -0.017556185 -0.092812695 0.2914751 0.049254876 -0.07707499 -0.043460265 0.17169905 0.26878873 -0.20057218 -0.11089236 0.1131646 0.40173748 -0.009928617 0.23466873 -0.08314582 -0.0040643564 -0.19021662 0.16776524 -0.06303132 -0.066503346 0.2443511 -0.08777729 -0.15497193 -0.19682108
716 -0.08034158 0.07688253 0.11682262 -0.04094809 -0.04180457 -0.3106473 0.27525914 0.17054294 -0.15627167 0.06330417 0.22025609 0.315239 0.3525298 0.04305529 -0.11446203 -0.09156117 0.040276665 0.074075595 0.30100968 0.07824942 0.029252365 0.17585926 -0.06442128 0.15121268 -0.08113935 0.11574664 -0.10996737 -0.15092243 -0.0030484712 -0.51155746 0.08389073 -0.31919405 -0.06345614 -0.018945089 -0.105453156 -0.27335396 -0.0074259653 -0.006299375 0.059796594 -0.037262063 -0.122116156 -0.03534489 0.022774396 0.013223113 0.06893668 0.014245712 -0.072924785 0.08920123 0.09614569 0.18699954 0.010324395 0.004189945 0.07448872 0.13303484 0.13214114 -0.24688295 -0.2230154 -0.084851615 -0.02108375 -0.12625015 0.004485809 -0.13726719 -0.13496234 0.026574064 -0.1490726 -0.19930385 -0.070165604 -0.30546796 -0.009108825 0.15950331 -0.16396669 -0.09225897 0.076937094 -0.10309493 0.22066739 0.033189345 0.052118905 -0.11941572 0.07691617 -0.028845578 0.020207213 -0.108933434 -0.1522713 -0.18569066 0.08038577 0.052449226 0.08932804 0.040864643 0.08407785 -0.31103852 -0.12550884 -0.30742905 0.39114657 0.028579995 -0.14619514 -0.026930224 -0.09593036 -0.08863065 0.0017362273 0.28952533 -0.046311475 -0.12797673 0.25658 -0.34303156 -0.05256212 -0.0014539113 0.15832762 -0.043011397 0.07475227 -0.15032375 -0.064049385 0.13589774 -0.13800661 0.06719731 -0.12838887 0.06754199 -0.13387023 0.014375651 -0.1923337 0.20828173 0.17948407 -0.19390488 -0.043581907 0.20709477 -0.06562143 0.06603444 -0.20115493 -0.08874615
1109 0.07051978 -0.28033924 -0.068922706 0.06509992 -0.16230686 -0.06613001 0.10556803 0.14542264 -0.28943437 -0.12718442 0.043981645 0.22588119 0.089731604 -0.20930083 0.049382888 0.12331678 -0.063843556 -0.10577928 0.33253434 0.30863416 -0.0314553 0.09555772 -0.045913097 0.28345555 -0.14337915 0.20354998 -0.017764218 0.035892338 0.15091552 -0.1203334 0.097139604 -0.14794385 0.1131598 -0.16679905 -0.47742292 -0.15553442 -0.15727696 0.17301391 0.10494822 0.12457774 0.11606461 0.16731785 -0.069003575 0.089040056 0.04389159 0.04505851 -0.13625346 0.028256664 0.15463884 0.28232813 0.09099681 0.25058106 0.12541759 -0.0021680996 0.032252222 -0.13970643 0.08136551 0.005574862 0.16300875 0.17766275 -0.20532894 0.0022419023 -0.05808929 0.07920564 -0.22261125 -0.22699985 0.25860444 0.112840585 -0.23838264 -0.008326244 -0.123091094 0.13417019 -0.17690842 -0.20219992 -0.14662196 -0.021811575 0.047502004 -0.3348869 0.11292167 0.23344931 -0.1680327 -0.19510998 -0.17393944 0.30955863 -0.11503669 -0.13591146 0.07262103 0.028380485 0.13251138 0.1557591 -0.116102464 -0.34790865 0.23429288 0.22048086 -0.12972544 0.019755028 0.14141624 0.025422104 0.0783755 0.2701826 0.061368253 0.074036814 0.12540975 -0.12579702 0.01001916 -0.023405463 0.028631011 0.06690629 -0.035193756 -0.12188746 0.2396384 0.24679027 0.0815134 0.18011786 0.11292955 0.09061158 0.17741704 -0.07844512 -0.3454768 0.27631563 0.15146807 -0.17210461 -0.16926284 0.059429795 -0.11291067 0.14471604 -0.24125926 0.034729708
720 0.13157482 0.038480412 0.0660199 0.10586814 0.13953096 -0.1411073 0.233526 -0.21062306 -0.2204951 -0.21509732 0.18044226 0.23543969 0.3683192 0.022641785 0.23535477 -0.30720082 -0.25270373 0.17800847 0.30682236 0.14882573 0.017711123 0.13025591 0.038432296 0.20999932 0.21202058 0.3284333 0.091957435 -0.089125134 0.22758679 -0.163089 0.1261258 -0.015593974 -0.12636688 0.108339325 0.111605436 -0.08018746 0.19908261 0.10064825 0.057152625 0.2886472 0.12651488 -0.10517875 0.30165693 -0.18135588 0.20500322 0.26036465 0.0011793085 0.022358678 0.10408647 0.050175548 -0.005237496 -0.21918176 -0.12752026 -0.055046253 0.2379429 -0.21827951 -0.11268538 0.09729451 -0.13419762 -0.0863984 -0.13749026 0.037957583 0.19817328 0.26023826 0.060795438 -0.26854452 -0.28539795 0.19803703 -0.34604236 0.1075244 0.26033297 0.02825734 -0.04817899 -0.011736881 -0.021970393 -0.2632802 0.16523492 0.033858348 0.18079795 -0.20627871 0.026767634 -0.16842678 -0.14742497 -0.31855443 0.24839194 -0.09337965 -0.31739953 0.04740104 0.3732737 -0.3584292 -0.24486329 0.06422177 0.39634344 0.24082872 0.005655361 0.14979547 0.14025697 0.33210188 -0.14569174 -0.14156838 -0.14550878 -0.22834496 0.011492313 -0.03827379 -0.17894289 0.12036793 0.123254105 -0.023803165 0.04965383 0.012746206 -0.060798552 0.23266159 0.029902391 -0.100307316 0.0627964 0.2714752 0.027729178 -0.011157578 -0.48721972 0.072399616 0.060004804 -0.049448647 -0.35508108 -0.3697816 0.20339625 -0.17489609 -0.27331793 0.051025562
637 -0.0835629 0.06563297 -0.036440115 -0.20205295 0.14947611 0.04574451 0.16239403 0.15017805 -0.29074165 -0.025759798 -0.044432566 -0.013211915 -0.1198336 0.029669264 0.17252003 -0.027872516 0.12897058 0.114165306 -0.0017734627 0.010919126 -0.22697447 0.10999201 0.039075207 0.14336672 0.13629521 0.33436474 0.08930445 -0.08566561 0.035586424 0.17138694 0.13119493 -0.2301749 0.08189362 0.2024642 -0.059880186 -0.096452236 -0.150949 0.0048456695 0.077470094 -0.08641971 0.1649539 0.17038819 0.07837696 0.16629763 0.14257656 0.058185562 -0.15276296 0.2610794 0.07863937 0.04639005 -0.06255521 0.21904263 0.1241868 -0.065996975 0.15845655 0.3624727 -0.12366044 -0.0509253 -0.021855965 -0.11176354 -0.10409661 -0.041368578 -0.044868637 0.088652104 0.03212636 -0.14353967 0.023168009 0.12111827 -0.17630987 0.31130958 0.1255933 0.11928477 -0.094038986 0.10880551 0.031820226 -0.03751054 -0.019992353 0.09203644 -0.00824208 -0.10434986 0.12400149 -0.032892082 -0.038511984 -0.03892579 0.15882663 -0.020314232 0.15245579 0.002106497 -0.019780558 -0.14360757 -0.16865389 0.051609237 0.20991926 0.0661099 0.009976693 -0.12487513 -0.014422944 -0.02076118 -0.2137139 0.012720282 0.07892743 -0.0071843257 0.16221982 0.043203376 -0.24257463 0.24408132 0.21434216 0.023680422 -0.2251029 -0.14225465 -0.074828185 0.23194517 -0.06470523 0.020357642 -0.08754859 0.013265466 -0.12366147 -0.03008424 0.12608722 -0.16056795 -0.19813454 0.23275334 0.14745985 -0.2701936 -0.20999183 0.012924437 -0.17651646 0.10603136
137 -0.08897263 0.12226006 -0.054253984 -0.18665303 0.13690759 0.04960524 0.095994905 0.10803944 -0.36367348 -0.1631708 -0.03670501 0.049357317 -0.08458602 0.055242687 0.103049144 -0.11601017 0.16572757 0.083654106 0.004950093 0.002443915 -0.25495324 0.05530417 0.022325605 0.113533854 0.10637431 0.4004109 0.11127751 -0.17760415 0.062484205 0.06434717 0.1851522 -0.08759668 -0.026949644 0.24500066 0.011936916 -0.1503949 -0.18922126 -0.12578546 0.124697685 -0.047874387 0.27176598 0.14086202 0.010064876 0.16802894 0.13484588 0.062656164 -0.11961432 0.16067283 0.072789624 0.011962377 -0.11228046 0.18175809 0.1341365 -0.16593623 0.08030121 0.39302891 -0.07659845 0.008273011 0.059784222 -0.13454568 -0.0981905 -0.019390931 -0.04467923 0.030657608 0.01724356 -0.22295284 -0.012270175 0.08542456 -0.2188994 0.24146417 0.1419734 0.09510745 -0.1098993 0.043358814 0.020478271 -0.08486587 -0.05749823 0.14541455 -0.034953628 -0.16073602 0.20724589 -0.11305194 -0.07857912 -0.05376498 0.17140922 -0.07528161 0.2061438 0.012301298 0.051290143 0.018108446 -0.23684426 -0.0064646304 0.25141692 0.08068449 0.039032754 -0.069558635 0.001660248 0.0064553404 -0.1841783 -0.025321724 -0.009424536 -0.0044912347 0.2014202 0.04598147 -0.2123733 0.14129184 0.13517372 0.011825461 -0.17051375 -0.1293601 -0.11362751 0.15724571 -0.022320662 0.068123 -0.119052686 -0.0021745432 -0.048981827 -0.09519638 0.111252315 -0.1525602 -0.18464278 0.24343546 0.14096001 -0.31709772 -0.24280545 0.034740683 -0.12492752 0.121521376
120 -0.106910355 -0.09545053 0.20304102 -0.07392538 -0.123841904 -0.38366336 -0.18113823 -0.04026764 -0.16154914 0.05009448 -0.18613623 0.29343036 0.13674603 -0.05320647 0.15349962 0.24980448 0.03120283 -0.07852939 0.07196094 0.2541199 -0.025084624 0.11864719 0.13255198 0.0949907 -0.07502255 0.14679901 0.054111663 -0.1077124 -0.048619643 -0.07608333 0.067721084 -0.31297988 -0.17318243 -0.13994017 -0.33403397 -0.22071496 0.06433622 0.11756671 0.100085534 0.21838027 -0.23551199 -0.021117043 -0.1450779 0.11997046 0.38229254 0.02431661 -0.12649238 -0.07496674 0.16138849 -0.2108946 0.14103632 -0.015863424 -0.15772851 -0.33141038 0.21617092 -0.013177152 0.24221066 -0.08124372 -0.10197232 0.27994084 0.09136582 0.077364735 -0.012652093 0.02463303 -0.16053824 -0.06931179 -0.1511082 0.034917854 -0.14690459 0.4349338 -0.024547894 0.08730715 0.10742599 -0.3427441 0.3308637 0.12546735 -0.055807386 0.024313642 -0.23608752 0.0066548763 0.24879338 -0.006558919 0.2946873 0.24045354 -0.1740922 -0.036556933 0.06618379 -0.08528243 0.029593484 -0.1912149 -0.29286835 0.10216236 -0.06404557 0.1102177 -0.28241712 -0.11150707 0.12668869 0.08048387 0.12883154 -0.03936617 -0.048257206 -0.1668483 0.10173145 -0.035267156 -0.356747 -0.11022807 0.2664149 -0.06336094 0.06001217 -0.01226528 -0.03297812 0.30896047 0.3267721 0.023553321 -0.16030768 -0.062874734 0.2135948 -0.26851246 0.024820555 0.029127698 -0.09234847 0.02825024 -0.108219646 -0.12343494 0.18210804 -0.046626106 0.027628407 0.008787723
138 -0.05465213 0.10807083 0.0025610952 -0.19028257 0.13563615 0.046046086 0.17070855 0.1259153 -0.31468946 -0.07700085 -0.03764472 0.020914722 0.026889313 -0.051479496 0.13064964 -0.08875768 0.086837225 0.087555096 0.08486328 0.120342955 -0.25032753 0.10757853 0.12294618 0.12985733 0.08827954 0.30690426 0.23337202 -0.13918145 0.023228362 0.045101475 0.11959084 -0.20241499 0.05142145 0.25234678 0.011948997 -0.13891518 -0.09923928 0.004967555 -0.08802804 -0.11368803 0.17134973 0.23173988 0.012115273 0.2871812 0.04905162 0.20273705 -0.12502848 0.24875362 0.063668765 0.03839631 0.061297085 0.1619395 0.09088943 -0.1897034 0.076882586 0.37053424 -0.08430977 -0.051172934 -0.011557787 -0.11930681 -0.10650638 -0.11301853 0.09298429 0.03824267 -0.00707566 -0.16429737 0.09892202 0.19201264 -0.29380497 0.31164607 0.17973733 0.09596086 -0.038304813 0.17042367 -0.055951726 0.027476586 0.032593086 0.07925226 0.029213164 -0.17001724 0.13510731 -0.023279231 -0.023933219 0.03150952 0.11299672 -0.055223588 0.13824876 0.031405207 -0.04326119 -0.12778996 -0.13135089 -0.019455748 0.17806719 0.091553025 0.018709308 -0.2010039 0.021344228 -0.030098144 -0.21204719 -0.021980206 0.15035857 -0.05711323 0.20911846 -0.0112297535 -0.28316122 0.22849831 0.12670842 -0.03983218 -0.29550594 -0.19174087 -0.102941185 0.14738381 0.008770056 0.055084866 -0.12446264 -0.0312847 -0.046924423 -0.0054687723 0.008914188 -0.09474137 -0.26536325 0.14698105 0.12345484 -0.31906292 -0.17766322 -0.011715449 -0.14145191 0.07628987
1067 -0.2526746 -0.20253098 -0.23644857 -0.023160642 0.07611559 -0.19375695 0.09738413 0.18900248 -0.14407524 0.054905333 0.015111178 -0.015463373 -0.058935903 0.07889509 -0.054629464 -0.047828767 0.089004055 0.11337019 0.040692538 -0.041355606 -0.08314122 0.03572724 -0.08009663 0.14323564 0.06843573 -0.013725805 -0.043005303 -0.034112092 -0.112157464 -0.18373142 0.26587257 -0.24793382 -0.0665932 0.061248172 -0.13982232 -0.47152197 -0.10404205 0.21888368 -0.005959206 -0.10124697 0.120499544 0.28587362 0.1330914 -0.12069959 0.022017028 0.17996559 -0.120251216 -0.020272177 0.090058066 0.092120945 0.10571307 -0.033973895 -0.30331954 0.13520227 -0.0007788698 -0.029293938 0.07362627 0.12536709 -0.062171932 -0.07704566 0.015091865 -0.04818481 -0.009708893 0.037078276 -0.18998376 -0.0060674846 0.11398123 -0.04512985 0.043771364 -0.01749114 -0.13979127 -0.18785541 -0.217774 0.15318793 0.1875044 -0.16964719 0.07404953 0.025373297 -0.16527574 -0.2809269 -0.029998876 -0.20217767 -0.15503173 0.13685083 0.23040089 -0.107026115 0.037000783 -0.02654054 -0.16412283 -0.09508275 -0.02317836 0.03466856 -0.07737609 -0.11100361 -0.012579756 -0.020091137 0.1828227 0.15285236 -0.005445376 0.09735017 -0.018737752 0.19854173 -0.008246459 -0.11446796 -0.07636315 -0.0305481 0.057665836 0.05091593 -0.07637728 0.09850988 0.11631367 0.122952886 -0.17525275 -0.1488448 0.13565491 0.18149734 0.00481637 -0.20899023 -0.06492252 0.0028273412 -0.06928603 -0.034602594 -0.1747696 0.0012686929 -0.07339323 0.10282655 -0.116510406 -0.011046799
12 -0.2647599 -0.014416811 -0.012371128 -0.34184402 -0.036212344 -0.10512632 0.19361584 -0.13281958 0.19897683 -0.07247495 0.0036221386 0.1240411 0.254294 -0.18629703 0.04917045 -0.013148264 -0.08277506 0.26590917 -0.13278322 -0.050020576 -0.16839913 -0.030067997 -0.28646517 0.012133147 -0.15035076 0.14220536 0.17223278 0.012570011 0.22583558 0.16841365 0.015531656 -0.061725482 -0.11756881 -0.18775277 0.056540992 -0.17143582 0.3173609 0.29584378 0.06953919 -0.059320375 0.10842467 0.08062607 -0.09638999 0.11027635 0.099857084 0.12295755 -0.40834025 0.09982339 0.07796876 0.12251711 0.14551964 0.23010907 -0.2443402 -0.2732946 -0.15547447 -0.2424683 -0.060225297 -0.45826456 0.11205167 0.0922153 -0.16858672 0.32044154 -0.14382142 0.011171384 0.14586747 0.18971746 -0.37303704 0.14445278 -0.15862367 0.03985225 0.19970007 -0.100456774 0.09167778 -0.13895851 0.14668728 -0.009678821 0.08026874 0.035046518 -0.030012937 -0.4724733 -0.045989405 -0.24113396 0.17444749 -0.3253082 0.11005747 0.20125729 0.2776814 0.0051545654 0.03890726 -0.3649487 -0.12024828 0.088774905 0.21155944 0.1421562 0.11854613 0.16049676 0.15629941 0.11945398 -0.30454296 0.2831696 0.048265222 0.33282542 0.0037643192 -0.1833016 -0.026605071 0.08391356 0.28319433 0.024921231 0.045123026 -0.32465768 -0.058899686 0.09218848 -0.14789058 -0.035504483 -0.09169314 -0.023724645 0.12421782 -0.07347861 -0.14011768 -0.054602563 -0.045784064 0.10885743 -0.055531662 -0.04301945 0.12701935 0.118053615 -0.13731357 0.00060505775
22 -0.007686701 0.34821472 0.26722255 -0.42013806 -0.12818891 -0.11650709 -0.26234305 0.40525633 0.0684333 0.05894171 0.05654494 0.12856215 0.15144072 -0.15989809 -0.16064368 -0.23096749 0.47970936 -0.13925049 0.121367976 0.07457761 0.17272606 0.28165013 -0.0036065464 -0.26001665 -0.18664065 0.3372464 -0.2394326 -0.3618388 0.0034874128 0.5319325 0.21042179 -0.3369737 -0.21809636 -0.24654669 -0.44724104 0.18587296 0.23073219 0.4896974 0.14518332 -0.102290094 0.11116934 0.18908884 0.052730665 -0.13258566 0.13222325 -0.24752963 -0.24314427 0.043156404 0.5004082 -0.17662793 -0.06660771 0.06173499 -0.10513132 -0.22927512 0.026697934 -0.029762223 0.0863455 0.23930909 0.18586567 0.09854304 0.070949875 0.13071969 0.10498733 0.19212396 -0.08203629 -0.0075710076 0.17115894 0.082324624 0.3341509 0.069426626 0.023860069 0.05387615 0.20299989 0.13370614 -0.26757097 -0.10314514 0.10620843 0.4178057 0.29151258 -0.108194835 0.018717 -0.16864002 0.05386189 0.19384393 0.14876018 0.01905775 0.039956734 0.13882853 0.19162476 -0.021559333 -0.049385194 -0.26108766 -0.13732012 0.04107218 0.12445348 -0.16124873 0.073787495 0.19645466 -0.20307869 0.15163453 -0.43737674 -0.0197491 0.2612365 -0.33482265 0.20080633 0.0095380675 -0.10761916 -0.0024064449 -0.31088132 0.004484016 -0.053285606 -0.0512025 -0.21309203 -0.24382135 0.0034114714 -0.3778687 -0.32404625 -0.120768614 -0.35726282 -0.12521808 -0.077498555 -0.1705808 0.017924052 0.23378776 0.14907801 -0.025316834 -0.26113865 0.12831123
397 -0.01017131 0.14228915 -0.11368482 -0.113747574 -0.13855334 -0.32646888 -0.23365316 -0.05624567 -0.2465525 -0.018275913 0.26464358 0.5506984 0.2718005 -0.069329806 -0.03176448 -0.058409 0.007900012 0.028835062 -0.022671634 0.1959482 -0.093642645 -0.10176708 0.072846495 -0.12332244 -0.35073346 -0.13031018 0.017960737 -0.12548786 -0.20272183 0.12432709 0.079178564 -0.2533428 -0.00958978 -0.12688729 0.17846426 0.07141016 -0.2308436 0.17325962 -0.06389829 0.20584267 0.028166613 0.08679065 0.21160269 -0.0312953 0.036856525 0.005085261 -0.18504007 0.19321336 0.13548192 0.16853671 0.02775277 -0.0975144 0.0682019 0.025001377 -0.27650562 0.13827224 0.15303281 -0.3625664 -0.1072196 0.38077524 -0.15005386 -0.30398 0.13940948 0.14471203 -0.201518 -0.07072958 0.11822092 0.17850262 -0.17418864 0.33650592 0.25953072 0.28514516 -0.12914774 0.11046258 -0.024764448 -0.11686916 -0.08155643 -0.22568795 0.11251254 -0.069273055 0.27539423 -0.03461553 -0.21849376 -0.18229438 0.26723865 -0.29104656 -0.020836366 -0.32697475 0.077146575 0.08877851 0.042850837 0.0828544 0.16066512 0.0642425 0.07030792 0.071182996 0.14295906 0.13314782 -0.071967445 0.09875645 0.13642733 -0.15655039 0.1886541 -0.10715927 0.061211072 0.1667904 0.13935453 0.20809294 0.35516393 -0.022115793 0.01611723 0.29143685 -0.032386858 0.109487556 -0.14098154 -0.17178029 0.08806651 -0.054009143 -0.2612381 0.053175945 -0.04475033 0.017284565 -0.13650335 0.20528422 -0.3950468 -0.10396649 -0.02241649 -0.28453898
2622 0.1464656 0.22206879 0.07245092 0.2893384 0.15952787 0.0063596144 0.0040472983 0.061423693 0.099634245 -0.0017520669 -0.05298886 0.24471018 -0.0761396 0.085827224 -0.15850708 -0.29929277 0.2773094 0.16711333 -0.032484103 0.056544114 -0.18092607 -0.017112842 0.4063655 -0.06302838 -0.06270962 -0.27431467 0.27821857 -0.07766997 0.01745035 -0.24297854 0.29521304 -0.04751022 0.104845606 -0.061280757 -0.054658793 -0.19084607 0.2850304 0.23965521 0.3720153 0.03994241 0.034447953 0.2157328 -0.25332287 0.11881189 -0.24554123 -0.008054156 -0.19407892 -0.007908493 0.24166812 -0.05149472 0.019061595 0.10749705 -0.1626828 -0.21695077 -0.1231581 -0.15243937 0.13842957 0.06212674 -0.2704196 -0.18861493 -0.16909575 0.054919876 0.26410526 -0.032019917 0.17237832 -0.10953857 -0.14789924 -0.030004496 0.004172544 0.13880634 -0.05577827 0.3681399 -0.017726611 -0.056744825 0.015067412 -0.24673796 0.005039443 -0.17131627 -0.14889558 0.025751814 0.017460825 -0.31735975 -0.13006452 0.11639044 0.22961876 -0.13720104 -0.1863536 0.10766026 0.12934889 -0.07627254 -0.31590796 0.13107109 0.024125071 0.07481331 0.1120115 0.086364314 -0.0060483674 -0.25029716 -0.033968534 0.026371587 0.06914508 0.060602896 0.07015564 -0.13503513 -0.18277197 -0.15696453 0.28022155 0.28355777 -0.41171226 0.041449107 0.0033574253 0.25325266 -0.010859109 0.06981094 -0.05003201 0.109156854 0.16461472 0.08803577 0.0731732 0.12798856 0.19747391 -0.06845328 -0.27717325 0.3731639 -0.07672413 0.06506027 -0.15228608 0.047136053
2419 -0.068336256 0.18150365 0.072324924 0.1570562 0.08437687 -0.20246223 -0.2300492 0.13073522 -0.018768387 -0.04695917 0.22353025 0.095560215 -0.29155794 -0.032788735 -0.31261352 0.1332792 0.04510249 0.19458766 -0.012308926 0.28167 -0.10082599 -0.11334262 0.008771977 0.1751508 -0.07950584 0.13700396 0.099850476 -0.08787968 -0.08946004 -0.20702459 0.30420178 -0.3137315 -0.12869743 0.14352943 0.029405687 -0.22860101 -0.16456684 -0.11564943 0.31775567 -0.06958113 0.13977955 -0.0018613386 0.08173092 -0.041794013 0.30866435 0.1415794 -0.22522022 -0.17304842 0.29413104 0.17366116 0.31118295 -0.1894853 -0.035870552 0.16482627 -0.25857764 -0.15238352 0.33439806 -0.0019403573 0.1345107 -0.18745929 0.05267772 -0.047334015 0.19617908 0.22383344 -0.023032531 0.044121508 0.08553781 0.11321261 -0.05209299 0.20813243 -0.17131749 -0.11952832 -0.008705171 -0.07673062 0.111204855 0.04236203 0.19306938 0.045534305 -0.19186807 -0.11155118 -0.04507586 -0.33427504 -0.07109667 0.25178006 0.16990446 -0.05118991 0.11527647 0.13495605 -0.13062692 0.17577508 0.073010325 0.016158588 -0.0015830545 -0.03598136 0.051937032 0.22123821 0.27873245 -0.12207327 -0.035198994 0.05816119 -0.07765541 0.10226969 0.24233446 -0.1616552 -0.27115127 -0.02263599 0.0043292646 0.1385443 -0.041577376 -0.12642972 -0.39455077 0.25866926 0.12925307 -0.12920907 0.048492644 0.044269465 0.026512314 0.018534344 0.099003024 0.27281734 -0.19093198 -0.17561069 -0.027675333 -0.028502105 0.0139224045 -0.06682562 -0.33891812 -0.074145496
56 -0.075736314 -0.13431658 -0.05518422 -0.060404375 -0.048325304 -0.17782657 0.05681836 0.15596451 -0.18002607 -0.23093176 0.11263765 0.1886324 -0.18273821 -0.008931272 -0.14073265 0.116110064 -0.062663 0.080460235 0.10266153 -0.03615791 0.110537015 -0.11959023 0.089446224 -0.04017462 0.0069198096 0.14697744 -0.061673194 -0.016048048 -0.06502984 -0.06009479 0.21804714 -0.17152682 -0.080427036 -0.31595346 0.09457483 -0.32061353 -0.16908772 0.036417495 0.07810483 0.2554541 0.14516607 0.17616212 -0.14286849 -0.16962095 -0.18053868 0.11589852 -0.08398874 0.036371555 0.20527036 -0.049965486 0.14342603 -0.10527121 -0.11940961 -0.19111563 0.03442324 0.20851302 0.07861275 0.044093814 -0.14744358 0.106340036 0.06340589 -0.3103763 0.05805631 0.26316574 0.19091666 -0.0753961 -0.0754162 0.06043044 -0.009407546 0.2192002 -0.11227405 0.18360889 0.0147842225 -0.1563349 -0.14171712 -0.16915448 -0.16813818 -0.059877057 0.0329107 -0.2040274 0.20114909 0.03559759 0.0050855516 -0.041172728 0.14228466 0.032495763 -0.16363601 0.08849753 -0.29259157 -0.07937695 -0.21012355 -0.23157398 -0.3094929 -0.051537193 -0.0017565134 -0.091023065 0.12733743 0.033691976 0.11078274 -0.033773523 -0.104220636 0.05932877 0.19534108 -0.14565998 0.07391621 0.17622031 0.36658898 0.19222036 -0.02576526 -0.3996858 -0.37814015 -0.14699143 -0.08530233 0.23191434 0.027046753 0.04990204 -0.28741038 -0.0752107 -0.18791203 -0.04947607 0.029700056 0.09809285 -0.31834894 0.289741 0.07419483 -0.22574398 -0.015989076 0.105056375
424 0.20922491 0.16289434 -0.26640117 -0.24305342 -0.14779706 -0.12410809 0.016210428 -0.08168158 0.15751745 -0.35510495 -0.0875564 0.04021146 0.1749937 0.024176631 -0.4082123 0.04596524 -0.15957002 0.24230991 0.3544449 -0.11477281 0.018969476 0.02051768 -0.38948852 0.1778066 -0.21295416 0.34027612 -0.063641265 0.42627805 0.05096848 -0.023820292 0.004961373 0.08017347 0.24436584 -0.34427956 -0.20199335 -0.11677723 -0.11098051 0.32899183 -0.10667457 0.2574598 0.06977596 0.32223916 0.04828351 -0.04528133 0.02527081 0.04219277 -0.039039537 -0.07672193 -0.02599103 -0.24039333 -0.0005965327 0.035279084 -0.13505548 -0.20885673 0.07954374 -0.038021736 0.008422297 -0.10192908 -0.03715326 0.24136035 -0.215801 -0.14380462 0.0145949675 0.16526917 -0.38732475 -0.09551104 0.27707455 -0.15643305 0.21539961 0.41938138 -0.20069364 0.19875573 -0.10789948 -0.00096804777 -0.019606264 -0.08508244 0.030254014 0.27664253 -0.20608643 -0.2875119 0.46682975 0.0360055 -0.33140683 0.11238729 0.25861686 0.16600917 -0.04873725 0.22891088 0.30718935 -0.20148559 -0.032021016 -0.17201865 -0.13432518 0.04767446 -0.035667006 0.27307668 0.30925772 0.0004918323 -0.25899473 -0.0961266 -0.38928354 0.22760777 0.24158457 -0.11786255 -0.34918058 -0.037574142 0.23529938 -0.018261056 0.032413024 -0.005710978 0.1383887 -0.029376041 0.20298591 -0.051266715 0.11613509 0.28945646 0.23821576 0.018662857 0.23951052 0.20690575 -0.0456005 -0.45485467 -0.10984366 -0.39021555 0.054506056 0.005091974 0.13144054 0.32024366
166 -0.1360299 0.1386832 0.040536173 -0.20159261 0.15598787 0.11822845 0.15279414 0.18596816 -0.32676506 -0.12024756 -0.0017934096 0.08189112 0.0005702716 -0.02002202 0.06738546 -0.074838385 0.13433792 0.120405234 -0.035037037 -0.011829136 -0.2186562 0.07681738 0.041656226 -0.0009370903 0.048084747 0.31038833 0.059303604 -0.15733948 0.06878145 0.04780309 0.19471009 -0.17711167 -0.052711684 0.27056098 0.11959889 -0.14755687 -0.1964578 0.017503621 0.028592048 -0.11825157 0.27883756 0.13276288 0.043414224 0.13054761 0.17169386 0.13667803 -0.11921986 0.19859979 0.101013504 -0.05259131 -0.023593832 0.12124079 0.20747128 -0.11079857 0.1282344 0.42087898 -0.051947787 -0.03641585 0.0019762798 -0.1444265 -0.1798958 0.02873282 0.06145188 0.031998374 -0.019472176 -0.28140068 0.12804283 0.08566067 -0.24849471 0.29603928 0.16782342 0.074021205 -0.11129779 0.11940391 -0.10326556 -0.09312262 0.09937206 0.07091348 0.017781364 -0.18673858 0.00022981534 -0.033009928 -0.117443 0.035370227 0.18756627 -0.15759185 0.15767522 0.06224304 0.010098295 -0.12474826 -0.09704648 -0.018471166 0.2799875 -0.014135261 -0.046324886 -0.1918841 0.0050906404 -0.08028479 -0.29477873 0.04806444 0.11784727 -0.0041830004 0.12258489 0.043298278 -0.22051066 0.22657663 0.2181056 0.051227465 -0.3385785 -0.06709585 -0.14876723 0.19679502 -0.020286232 0.07462146 -0.13383159 -0.05579721 -0.08873719 -0.055322763 0.079818755 -0.07589535 -0.32675222 0.22267465 0.13556834 -0.2712084 -0.15426157 0.017762873 -0.07897261 0.1564857
289 0.21538822 0.14687327 -0.27751225 -0.095249824 0.10327338 -0.30894 -0.3140274 -0.18443824 -0.20771427 -0.10566306 0.11038535 -0.01746256 -0.09864815 0.05755084 -0.10815436 -0.016985437 -0.18824035 0.32327443 0.14460953 -0.058005765 0.21685246 0.16494784 -0.16298115 0.27759114 -0.09946931 0.08243488 0.13408571 0.13180603 0.10879286 -0.08139179 -0.01728333 0.0931094 0.049732577 -0.24075997 -0.30309403 0.014911756 0.09885387 0.2622421 0.045803457 0.26087478 0.00037717016 0.2546569 -0.22088878 0.15545696 0.2247676 0.22303902 -0.093712166 0.08558128 0.047040824 -0.11865531 0.23897582 0.12207005 -0.054229263 -0.26661423 0.10941102 -0.082065724 0.068156645 -0.2785269 -0.034628775 0.0005055621 -0.036746763 0.0036018281 -0.09388786 0.15678687 0.17182392 0.019286463 0.042502094 -0.13460964 -0.049428508 0.33026534 -0.2991408 0.006496139 -0.060094073 -0.1438498 -0.106380865 -0.04743664 -0.03889378 0.19047266 -0.3848427 0.10616699 0.6006136 -0.18042971 -0.095763184 0.061362296 0.055741835 0.28517514 0.09019202 -0.008257524 -0.006650929 -0.2154746 -0.08661334 0.16746913 -0.14622197 0.036678437 0.010923867 -0.12721059 0.100438476 0.06175669 -0.053935967 -0.1596931 -0.20814672 0.13230094 0.25228503 -0.14248186 -0.30268085 0.09196721 0.29012784 0.18983972 0.16296962 -0.32243195 0.15701841 0.16379447 0.30136126 -0.13790399 0.044240873 0.1898822 0.14133564 0.15024973 -0.037770756 0.08897246 -0.15352687 -0.13109328 -0.13844873 -0.03753313 0.20174123 -0.20861618 -0.17786123 0.15570316
161 -0.0026052347 -0.030913807 -0.12854822 -0.16293292 -0.078132614 -0.0054628025 0.1355222 0.12299972 -0.036973014 0.05997786 0.037808217 0.26642182 0.010777103 -0.023962924 0.04435868 0.009935698 0.055104535 0.21542776 0.30001467 -0.045488328 -0.1294126 0.51461864 0.23467183 -0.13782226 0.100174025 0.09454564 0.37430322 -0.08602751 -0.28528014 -0.13493505 0.16226223 -0.029131085 -0.2235176 -0.14578761 0.10722262 -0.06925521 0.18762076 -0.08085959 0.1894629 0.00088548235 0.015805917 0.06457642 -0.31845108 -0.29256868 0.19201824 0.32346848 -0.26047593 0.20232794 -0.056759264 0.24907254 0.12212378 -0.053788256 0.1387066 -0.035741925 0.06380256 -0.018887436 -0.11875958 0.019204617 -0.114910066 0.18276212 -0.12667897 0.19358511 -0.19207528 0.11180915 -0.07649595 -0.2673694 0.10155242 0.04070927 -0.24377462 0.011569756 0.15995541 0.22429673 -0.29690126 0.41145888 -0.013934365 -0.052879423 -0.23647702 -0.026570525 -0.2787985 -0.10344346 0.29950917 -0.23338613 -0.27159065 0.057235558 0.22648236 -0.11160132 0.10606716 0.022141375 -0.052216012 -0.14633746 -0.019844122 0.11249587 -0.12134453 0.17261353 0.001186263 -0.2130105 0.11235034 0.3036754 0.12792186 -0.23055646 -0.44237682 0.080001876 -0.25992343 -0.17851123 0.03729702 -0.13739498 0.05148417 0.12041391 -0.27034068 -0.4331503 -0.09151383 0.14495468 -0.054506287 -0.015872035 0.023102928 -0.13819079 0.09936832 -0.053568497 -0.06486775 0.14438035 0.010021993 0.11093273 -0.21637414 0.22374462 0.25346354 0.18506843 -0.16037159 -0.047868397
13 -0.23261377 0.00049559993 0.034375284 -0.3022022 -0.023633793 -0.089602925 0.24257618 -0.19611795 0.13878149 -0.124346115 0.09830296 0.17338988 0.3236519 -0.16800012 0.0069344956 0.054760266 -0.10744494 0.1656192 -0.08860121 -0.18749464 -0.18710954 -0.0145171 -0.30252612 0.026179673 -0.14996114 0.19293277 0.17963246 0.054496024 0.2226169 0.16371198 0.066124715 -0.07937264 -0.08861586 -0.15936874 0.07204104 -0.17935996 0.3024773 0.2985374 -0.0018631272 -0.070905685 0.09412154 0.091918714 -0.0355444 0.1592187 0.021365166 0.13178374 -0.3470946 0.047214564 0.05148807 0.1829595 0.14465061 0.18573175 -0.24279478 -0.3002849 -0.14705436 -0.20231472 -0.13348919 -0.27384603 0.08443892 0.09046588 -0.07370928 0.2647721 -0.14037757 -0.060772806 0.21410798 0.11265002 -0.3109069 0.15559046 -0.12140068 0.039723203 0.2900878 -0.09418943 0.09692966 -0.11012514 0.11848967 -0.015810786 0.05961356 0.0071683675 -0.04535805 -0.5186898 -0.06782274 -0.2501798 -0.015689407 -0.27802217 0.10143073 0.15032464 0.2510573 0.057498496 0.051715583 -0.30720806 -0.13551699 0.03339664 0.1683037 0.13578042 0.21393952 0.18484633 0.08688648 0.10264786 -0.3425276 0.3482391 0.11066853 0.19084474 0.07676999 -0.23803344 0.012871285 0.1267858 0.2768963 0.0074018533 -0.035547674 -0.27971438 -0.06739696 0.18279298 -0.16187976 -0.094680324 -0.13505185 -0.017938277 0.117078 -0.14851877 -0.10881805 0.054393064 0.024271514 0.070823036 -0.0414062 -0.019615458 0.1484479 0.16905877 -0.11190332 -0.049295206
1286 -0.35322902 -0.0027487513 0.18329082 0.08095412 -0.0903533 -0.31913343 0.088701844 0.1827427 0.009523363 0.23143366 -0.018566687 -0.05493551 -0.0043300833 0.0880292 -0.17662221 0.17945452 0.3140977 0.13843402 0.20662254 -0.12731878 -0.10661774 0.27884692 -0.08314839 0.060954843 -0.2587526 0.30882466 0.029523956 -0.01161773 -0.22547229 -0.090964496 0.21467747 -0.18093017 0.04030089 0.077252686 -0.15051335 -0.2556114 -0.08794981 0.14709696 -0.046599124 0.09994617 -0.048155762 -0.04172761 0.018530458 -0.20459574 -0.008607398 0.1058383 0.10658605 0.118201815 0.24772641 0.028856164 0.1097683 -0.18348905 -0.07130704 0.16605227 0.07925744 0.16693366 -0.15057881 0.13693993 -0.09527955 0.20966172 -0.08721824 0.40909937 -0.14081568 0.064014986 0.09253641 -0.07030814 -0.08269061 0.28472805 0.012155303 0.19017729 0.13531652 0.122104175 -0.08239899 0.0214425 -0.0504603 -0.0661036 0.03035863 -0.012351345 -0.087276414 -0.050187126 -0.0064337235 -0.29397398 -0.056900095 -0.3146488 0.1112492 0.07918583 -0.15062742 0.23861681 0.0619045 -0.02289273 -0.10690349 -0.30007416 -0.12546888 -0.034642592 -0.1553189 -0.048043407 0.33612978 -0.1803062 -0.08441296 -0.25617418 -0.009961579 0.16420424 0.004991294 -0.18285559 -0.16721804 0.014028824 0.077601805 0.3671147 0.11910153 0.023288647 -0.06932255 -0.1450029 -0.105095915 -0.10721171 -0.15316446 0.2641927 0.3247219 -0.07828619 -0.10679944 -0.1180611 0.17562184 -0.16871122 -0.08586818 0.03712916 0.17563611 -0.03583945 -0.08671645 -0.21707298
2623 -0.10850089 0.06555515 -0.013820905 -0.078021884 0.0018421233 0.019909933 -0.33841044 0.10228184 0.03061167 0.21364634 0.27447277 0.07049464 -0.28774092 -0.06549056 -0.3300256 -0.17238967 0.045721315 0.34486392 0.34091395 0.2125474 -0.10719716 0.2337298 -0.10200634 0.010670277 -0.114092916 -0.115026094 0.07946712 0.038114607 -0.052666843 -0.2313412 0.38935676 -0.5955154 0.040574312 0.03992571 -0.19651712 -0.0701665 0.1454335 0.10849008 0.0062167863 -0.010986973 0.0004822461 -0.08921849 0.058365278 -0.023324039 0.08487405 0.0781973 -0.38753638 0.17422795 0.026358908 0.30041695 0.16407861 0.12904611 -0.17213881 0.07056092 0.002938204 -0.14544764 -0.16233249 0.03562732 -0.086047016 0.0018272458 0.034649044 -0.019691657 0.2466059 0.110542685 -0.089321874 0.32287833 -0.13463724 0.089015506 -0.08504977 0.36286828 -0.04498296 0.095304884 0.16663425 -0.0583774 -0.008493212 -0.27204618 -0.13215384 0.18855293 -0.33398533 0.13961937 0.37869278 -0.230357 0.30270013 -0.026697837 0.28366667 0.11532331 -0.115810364 0.011834441 -0.062167067 -0.034107756 0.099741995 0.1653628 0.04918452 0.14518167 -0.04082701 0.06416372 0.064620465 0.085737325 -0.16422917 0.050732624 0.11217633 0.11001681 -0.086000055 0.043181084 -0.19998923 -0.09235657 0.12261359 0.047762696 0.0405707 -0.0903746 -0.31886792 -0.24591188 -0.29024777 0.075136535 -0.10521422 -0.07143313 0.1524858 -0.023198955 -0.056222748 -0.044746477 -0.26411867 -0.13012789 -0.10682242 0.0450647 -0.07164354 -0.0032401523 -0.13630635 0.098022535
163 -0.0027412751 0.015776176 -0.09354331 -0.13422674 -0.09266291 -0.0012377535 0.19218297 0.16665694 -0.09540927 0.10046656 0.12603946 0.29235825 0.036965813 -0.095600575 0.018085195 0.07449698 0.19128393 0.11225968 0.15362395 -0.016052352 -0.1100863 0.45919305 0.20036316 -0.120384395 0.11890715 0.13953783 0.42540336 0.06793053 -0.37159267 -0.09228386 0.2503861 0.028178036 -0.038424104 -0.27662465 -0.02897503 -0.16175136 0.26031828 -0.17432241 0.16089943 -0.09113575 0.021024555 0.08243805 -0.22955377 -0.12131078 0.10833568 0.38251194 -0.4200615 0.1378275 -0.08040299 0.2986467 0.16071637 -0.09752706 0.078073956 -0.04819403 0.09680787 -0.033994418 -0.16335334 0.09494173 -0.029630296 0.21657537 -0.10691649 0.13222699 -0.15719122 0.13959013 -0.15750368 -0.33044717 0.06890839 -0.054006577 -0.23362105 0.030753735 0.24945839 0.29186404 -0.17921814 0.39627594 0.009205709 -0.15297389 -0.15877004 -0.073103 -0.24885014 0.0130297495 0.38385388 -0.22642386 -0.19307017 0.06130058 0.21283731 -0.18624833 -0.089697085 0.20770508 -0.14117317 -0.15836544 0.08174264 0.18555613 -0.11800556 0.17633863 0.17064847 -0.16847451 0.029485404 0.26805678 0.1504216 -0.14779767 -0.3004771 0.071942754 -0.30313215 -0.17060857 -0.053517036 -0.13316159 0.046687268 0.14130655 -0.20656638 -0.2948849 -0.057704665 0.17840801 -0.1181065 -0.0459135 0.0154444445 -0.060804408 -0.007054598 -0.15007322 -0.039393105 0.041284394 0.08258282 -0.06639897 -0.17810829 0.15790898 0.20275642 0.22096431 -0.044718333 -0.11744389
2320 -0.32176012 -0.20131116 -0.029894378 -0.0027626932 -0.27895468 -0.18782122 0.031843692 0.19047426 0.15247503 0.002629151 -0.0321373 0.1458558 0.2002531 -0.042718038 -0.11388995 0.089715436 0.07597343 0.121207856 0.19802576 -0.06943626 0.21444951 0.017934566 -0.08357749 0.14832936 -0.12177707 0.09340387 0.06834503 -0.005930363 -0.12528689 -0.12148587 0.36138865 -0.3183803 0.04950997 0.051602542 -0.26829916 -0.22580686 -0.13659711 0.26906773 0.29470474 -0.019855877 -0.002312562 -0.14612871 0.115274094 -0.012326954 -0.12482381 0.032592427 -0.012961369 0.1316325 0.3242005 0.21098459 0.19803594 -0.18780664 0.12884487 -0.047405604 0.1253254 0.06059394 0.22257541 0.023049887 -0.16190949 0.18652923 0.0124540385 0.13406739 -0.025746161 0.19949622 0.032295078 -0.14507173 0.1419087 0.010506966 -0.062388938 -0.16311945 -0.13851191 0.07719201 -0.030919375 -0.22433837 0.09581369 0.27017918 0.14261459 0.100639306 -0.018418046 0.053682752 -0.026666136 -0.20586288 -0.18045746 -0.015836202 0.07908731 -0.040584836 0.0014585452 -0.13445455 0.19383076 0.004153895 0.029217813 -0.1791605 -0.017666271 0.16378543 0.072876774 -0.038001202 0.47554132 0.052610777 0.11722531 0.1613072 0.08777114 0.0732719 0.35678998 -0.046873454 0.0071905097 -0.06433929 0.03135836 0.1932944 0.057077266 -0.08226438 -0.011967075 -0.07532429 -0.1032193 0.18248571 -0.10487501 0.11185337 0.0028010542 -0.34273937 -0.06217959 0.13772573 0.0109137045 -0.19012526 0.019673934 0.05508908 -0.0142337205 0.030032981 -0.020811548 0.42449728
1489 -0.15011975 -0.18668832 -0.042291973 -0.087827936 0.04694099 0.03927351 0.0705649 0.14192855 -0.13111255 -0.08207208 0.07926977 0.22063911 -0.09948174 -0.12211925 0.18552609 -0.034462895 0.15766978 -0.07129352 -0.08293356 0.19645098 0.1736996 0.31056216 -0.25960344 0.08834712 -0.19546089 0.21585646 -0.066926345 -0.2049881 0.25758973 -0.07835293 0.23987228 -0.122565895 0.05655353 -0.15030545 -0.09685298 -0.1575239 -0.02915398 0.11893862 0.11698013 0.0013496464 -0.12828673 0.18823667 0.2062951 -0.011066385 0.09576496 -0.15175253 0.19885445 0.23383419 -0.0052248947 0.1047055 0.06995283 -0.044501167 -0.09756221 0.0335384 -0.0002825602 0.15210919 -0.072721645 0.077830896 -0.19815244 0.23442474 -0.12337204 0.05493073 0.2074406 -0.07469535 -0.26253122 -0.02417598 -0.09928924 0.29203475 -0.22229593 0.1771596 -0.0037789403 0.35512435 -0.039890166 -0.054993797 -0.032531705 -0.23384926 0.014880173 0.00028187083 -0.16711718 -0.05602728 -0.07695215 -0.08229794 -0.07736702 -0.16619195 -0.067075126 -0.010711347 -0.08392567 -0.07506367 -0.004403875 -0.03240305 -0.04779283 0.010115551 -0.2545464 -0.111669295 -0.20554851 -0.12577918 0.25538987 0.043225873 -0.034455426 0.27952537 -0.008167851 0.1516757 0.24256688 -0.050670534 0.059894852 -0.055395138 -0.10632533 0.03423057 -0.021276824 0.2183794 -0.34336388 0.09606634 -0.005975699 0.077929966 0.16957574 -0.012117635 0.21353701 -0.18465239 -0.26311117 -0.12894328 -0.11709043 0.085231975 0.13068117 -0.108977035 0.21618162 -0.10836748 -0.29850858 0.08279762
420 -0.11631921 -0.036039315 0.18577918 0.044940528 -0.08698754 -0.37401846 -0.0108101 -0.094656944 -0.014709941 -0.12515624 0.27744886 0.081788525 0.022937875 0.011154478 -0.08466253 0.011294982 0.13503516 0.19320488 -0.06991129 -0.09664371 0.059231263 0.09020127 -0.12910439 -0.122234546 -0.14313415 0.1473361 0.023021033 0.009408962 -0.21068002 -0.17440903 0.29018953 0.10512638 -0.002651936 -0.057121895 0.1672401 -0.15178189 0.18874703 0.13799581 -0.03758064 0.3292599 -0.051001422 0.019984847 -0.079162434 -0.023363832 0.32906345 0.006296895 0.17023803 0.10981483 0.3680588 0.2164294 0.2930428 -0.10300775 -0.019972542 0.037067242 0.1874969 -0.0664782 -0.10002228 -0.026070789 -0.093893014 -0.008918658 -0.30402213 0.057458807 0.10481667 -0.08098963 0.1744873 -0.19010171 -0.014380832 0.2164645 -0.0090716025 0.098597035 -0.3585577 -0.013120458 -0.1553871 -0.13196677 -0.49383104 0.080551945 0.10043685 -0.16153972 0.17684238 0.1196177 0.123061776 -0.0047987164 -0.2241251 0.21772283 0.050021857 0.120022126 0.13826558 0.04998753 0.15586768 -0.17490663 0.025454566 -0.038830314 -0.1956113 -0.18602599 0.07677138 0.13206154 0.14446817 0.15467149 -0.15553077 -0.12217477 -0.40027508 0.29731393 0.09671919 -0.08469324 -0.1639844 -0.05703151 0.43999967 0.27274272 -0.37582883 -0.18047291 -0.0951229 0.20895696 -0.012139196 -0.14983395 0.05902357 -0.08665769 -0.07706655 0.2011479 0.175672 -0.23429056 0.075533256 0.36238277 0.117951386 0.02178032 -0.4202363 -0.17391735 0.09702996 -0.20718472
141 -0.08057849 0.0882169 -0.016900428 -0.13517502 0.06441321 0.13266529 0.299751 0.13272537 -0.1623216 -0.10169958 -0.11939434 0.034713674 0.03110659 -0.054245044 0.16763626 -0.18760352 0.15921563 0.09765934 0.013141844 -0.013728103 -0.30068004 0.08112883 0.062112335 0.10586042 0.08568445 0.36800736 0.144205 -0.17773 0.06259906 0.13552493 0.21173474 -0.15470482 -0.015892938 0.28788918 0.04737616 -0.17716423 -0.18211097 0.03160294 0.03908608 -0.04644774 0.16501862 0.11044628 0.032241113 0.08498085 0.029977163 0.04788034 -0.106109746 0.22811313 0.10895859 0.015876854 -0.0212925 0.18054248 0.14501496 -0.09753361 0.15371394 0.42223325 -0.066944614 0.0449539 -0.034142103 -0.15365049 -0.17749374 -0.019494608 0.051087342 -0.04748741 0.023038726 -0.24682595 0.0929789 0.08959347 -0.2344156 0.286086 0.1654172 0.02653652 -0.084695466 0.06914832 -0.038615085 -0.05916739 0.029907752 0.045755897 0.014304999 -0.208261 0.102327846 0.032119755 -0.2068881 -0.12541895 0.18260513 -0.101921566 0.15724757 0.10394109 0.01545316 -0.11074441 -0.17051892 -0.037243202 0.22805965 0.037733737 -0.045252245 -0.16298531 -0.043294843 0.029541332 -0.32752857 0.059292834 0.07368011 -0.07885695 0.20690566 0.050618168 -0.13873428 0.28514886 0.15139042 -0.102394216 -0.3490945 -0.055370685 -0.15676169 0.24044573 -0.017971331 0.13900419 -0.11808897 -0.14193948 -0.011612043 -0.1321831 0.039289776 -0.12851673 -0.24989969 0.20192301 0.16937827 -0.3529463 -0.19789301 0.059255403 -0.13122018 0.18115722
651 -0.1079091 -0.031247647 -0.13246095 0.057275705 0.18119997 -0.12012134 -0.11447794 0.08856417 -0.1396699 0.027833734 0.20388612 0.030179655 0.30777097 -0.124807574 -0.08294643 -0.105003566 -0.021889959 0.07358915 0.044523545 -0.111391805 -0.084668025 -0.11487096 0.13009195 0.12335338 -0.055515762 0.060306113 -0.059362035 0.4098217 -0.3260497 0.040967856 -0.19586785 -0.14624669 -0.17001791 0.080356136 -0.20605816 -0.2689773 0.32179648 0.24988675 0.19838805 0.008620072 -0.13077815 -0.085870266 -0.09359859 0.18936867 -0.07393601 -0.3617491 -0.07577564 0.0982786 0.35451 -0.030124066 -0.0053130747 0.106669694 0.021918127 -0.083854884 -0.027329294 0.39110503 0.040397644 -0.04093851 -0.018465796 -0.08622505 -0.096228965 0.02867961 0.21162252 0.4526698 0.0045324964 -0.04732535 -0.107339546 -0.066537954 0.0028585908 0.2516486 -0.19074973 0.11333925 -0.18170314 -0.0844286 -0.19117998 0.45063457 -0.0851434 -0.029336765 -0.0373123 0.09804646 0.12731248 -0.38823944 -0.35203302 0.02632812 0.082853764 -0.22680819 -0.065656565 0.008801875 0.039786935 -0.10622556 -0.21561234 0.36751023 -0.21906519 -0.04653201 0.2024112 -0.15114161 0.20610647 0.2681192 -0.28042027 0.17778443 -0.12755041 0.24931754 0.18688156 0.11685956 0.1620787 -0.17761897 0.25250202 -0.08970885 -0.027786363 -0.1292606 0.017239457 0.05355224 0.14309518 -0.035444483 -0.048835 0.37687907 0.010476963 -0.002388712 -0.08587869 -0.21239373 0.23321934 0.043380674 0.003165804 0.12155602 0.10599874 0.23085685 -0.25961044 -0.1019309
162 0.00028229615 0.017538808 -0.039593123 -0.25577697 -0.093407474 0.093425155 0.16267319 0.12810716 -0.08382575 0.15255404 0.08254918 0.23856862 -0.04533691 -0.09876288 -0.012304265 0.029926516 -0.0012490189 0.18866919 0.23814707 -0.075375386 -0.012074809 0.47907424 0.1266774 -0.16965479 0.08314565 0.051591396 0.38253996 -0.03680645 -0.34932396 -0.015182295 0.15440099 -0.082942754 -0.20102176 -0.22918676 0.047404725 -0.105669655 0.18768005 -0.15606329 0.18169083 -0.114950225 0.023679761 0.10817368 -0.30286744 -0.35474902 0.114953086 0.37463626 -0.30415577 0.19055294 0.014650557 0.34246388 0.115930274 -0.014871776 0.13856575 0.06176697 0.11347464 0.04945328 -0.15372066 0.0071660522 -0.046050828 0.23831 -0.17716411 0.19089611 -0.118225925 0.054601036 -0.24567242 -0.3633076 0.12336746 4.1216044e-05 -0.23016663 0.031236226 0.24359702 0.14677477 -0.16070339 0.377341 0.09581037 -0.12229826 -0.27256018 0.023806054 -0.26350608 -0.05886856 0.34183362 -0.26611376 -0.1680393 0.04513989 0.3282005 -0.10611385 0.07523847 0.07653496 -0.043834016 -0.22625212 0.14713416 0.22494741 -0.09278945 0.17837915 0.034562774 -0.18717423 0.09895739 0.28925052 0.22360562 -0.19276993 -0.3876396 0.14819856 -0.33596796 -0.18416575 0.01566104 -0.17119847 0.10578627 0.10475212 -0.13408616 -0.26424983 -0.12931573 0.1389367 -0.0068428884 0.046336815 0.11406059 0.033030313 0.06604439 -0.21718912 -0.082864836 0.03297513 0.025277836 0.07779212 -0.12884894 0.096738376 0.24647269 0.14321502 -0.2039908 -0.13155176
213 -0.20578736 -0.18949519 -0.11916026 -0.15494877 0.016443357 -0.12437926 0.08613402 -0.038721908 -0.18580483 0.433918 0.31292728 0.20590341 0.15890723 -0.2505268 0.16747068 -0.031095216 0.07200295 0.20609987 0.012300756 0.214222 -0.04678057 -0.1330312 0.0752272 0.021191105 -0.17240848 -0.02825821 0.10780845 0.15211642 0.025962953 0.03917732 0.2717718 -0.34156317 0.033975888 -0.11954679 -0.14190859 -0.21042845 0.12991911 0.19573578 0.04431374 -0.09982876 0.3911331 0.08986774 -0.16225265 -0.2639106 -0.06468457 -0.2492224 0.023909343 -0.09898492 0.028607748 0.10099804 -0.20993975 0.19564457 -0.01991948 -0.4389819 0.6268338 0.06811574 -0.14126988 -0.023353508 0.122392595 0.40871665 -0.34731156 0.30888468 0.007189337 0.123665035 0.15176569 -0.0089372415 0.35752732 0.052501153 -0.018828483 0.20236032 0.21251976 0.091605514 0.152747 0.26789156 0.08380219 0.16776331 0.116891116 0.15732467 -0.048330117 0.22140251 0.07041088 0.05068187 -0.33591458 -0.147901 0.019776156 -0.028418237 -0.13117698 -0.041074693 -0.14982305 -0.16534832 -0.24602975 -0.14722745 0.032912042 -0.14045587 0.07016318 -0.09901551 -0.11733824 0.09247364 0.26407146 -0.10282857 -0.12143581 0.047724467 -0.025852026 0.013029836 -0.05746544 0.022159964 0.046416134 0.18875167 -0.060161628 0.013623061 -0.2382435 0.15012357 0.14447202 0.23423669 -0.19777149 -0.0024342404 -0.09144792 0.124798074 0.3055422 -0.092312664 -0.18352865 -0.03810092 -0.4521725 -0.13003078 -0.24693742 0.09724863 -0.28349832 0.18089081
613 -0.2281739 -0.2508375 -0.061159052 0.20504184 0.0645019 -0.028796747 0.030357622 0.28080967 -0.25981 0.030154688 0.2208397 0.20594384 -0.14911872 0.30317733 -0.17982115 0.05268849 -0.07791869 0.073242106 0.31040034 0.087714896 -0.01813458 -0.040471103 0.17397223 0.2635105 -0.09298278 -0.34771973 0.11598017 -0.027844073 -0.039632373 -0.104862355 0.13402176 0.04500721 0.27100492 0.10155207 -0.13872264 -0.35351485 0.10995624 0.15642366 -0.047656797 0.08344862 0.09984041 0.21509479 -0.29827887 0.028152104 0.19354133 -0.22150657 -0.10620832 -0.053221744 0.2243112 -0.0030491382 -0.041009635 0.2597937 -0.21834086 -0.051653948 0.057962257 0.023261921 0.15143305 -0.09625912 -0.045650177 0.30185947 -0.056274563 -0.18926653 0.07590576 0.079160154 -0.04693437 -0.24203864 -0.18665831 0.12876615 0.09506409 0.042684726 -0.042860214 -0.24794789 0.02880351 -0.20242922 -0.021931242 -0.08597208 -0.10251385 0.025230806 -0.22970293 -0.12232409 0.1450403 -0.061579097 0.13618602 0.21377763 0.24365227 0.06216188 0.2533341 0.08746857 0.16236314 -0.2725425 -0.08769854 -0.1108948 0.00339727 -0.03502402 0.035455752 0.04674764 -0.0018401907 0.19808266 -0.12780173 -0.026941324 -0.055375233 -0.1211296 -0.0065565985 -0.22419643 0.10482987 0.022113211 0.2796935 0.20707051 -0.09101039 0.08073198 -0.11800453 0.20924252 -0.039211307 0.020030478 0.16909038 -0.17850691 0.32402882 0.3634884 -0.1771145 0.07790611 -0.1035555 -0.21166492 0.034148138 0.20549475 -0.13798912 0.071030565 -0.3644359 -0.035803176
652 -0.10019072 0.07332546 -0.094346516 0.0840008 0.13830933 -0.08699635 -0.22574219 0.181602 -0.08211751 0.0816981 0.27800807 0.041713655 0.29080418 -0.23352325 -0.10370623 -0.091068305 -0.015831033 0.075251795 0.021474602 -0.08271844 -0.058156416 -0.06836238 0.11407891 0.1621339 -0.1444977 0.09809907 -0.081073575 0.31828606 -0.40360227 -0.046580944 -0.115312114 -0.0404235 -0.15904303 0.008688713 -0.16988133 -0.35932305 0.33100596 0.25227726 0.17086297 -0.0096485205 -0.12913585 -0.022759866 -0.09141377 0.07021147 -0.051493656 -0.40720525 -0.06028707 0.05865935 0.3772659 0.0638026 -0.0057267607 0.09354415 0.09810462 -0.007423655 -0.015046966 0.33113208 0.08611882 -0.082019985 -0.044963986 -0.090949826 -0.08044949 -0.0027839853 0.2950027 0.3519026 -0.025289578 -0.11859701 -0.122026786 0.010655319 -0.071685344 0.15247932 -0.21071777 -0.013416066 -0.20577647 -0.09655492 -0.13917722 0.36890662 -0.15068027 -0.008439677 -0.012916679 -0.0023706993 0.19860382 -0.40818742 -0.39082545 0.025170866 0.16973618 -0.26787624 -0.106855005 0.00041433665 0.0769259 -0.018174846 -0.16178371 0.38005003 -0.057400092 0.025300905 0.2741165 -0.17251079 0.31683826 0.29586104 -0.20639415 0.16391693 -0.17395987 0.29572436 0.13464782 0.1353016 -0.0088982005 -0.16288537 0.19142763 -0.06651238 0.008195093 -0.07517914 0.020513706 -0.07771823 0.18455319 -0.030996514 0.07743509 0.3943147 0.047189258 -0.02816592 0.013287037 -0.29196748 0.23135789 0.054262005 0.004104147 0.03291105 0.11875371 0.30882272 -0.24405977 -0.10956243
337 -0.18384013 -0.13419926 -0.01563227 -0.05695549 0.12703028 0.08107449 0.08659454 0.29021022 -0.19278905 -0.085676946 0.19946763 0.29992217 -0.04235038 -0.068733424 -0.17680554 -0.046081834 -0.09418009 -0.12436636 -0.19830525 -0.016900891 -0.28782582 0.10131468 -0.24164517 0.10187412 0.09572191 0.11444921 0.030803246 -0.13942958 0.022757532 -0.05108969 0.22394143 -0.005016599 0.07087172 0.11254536 -0.018334597 0.10224526 -0.16195984 0.031782158 -0.13504875 0.050563976 0.19870138 0.3998575 0.23633122 0.18136467 0.104535155 -0.12543198 -0.017262291 0.2147005 0.19490519 0.09973173 0.06078006 0.18340169 -0.0014815243 -0.17700815 0.38629586 -0.021569062 -0.029224582 0.055396024 -0.05095615 -0.12664764 -0.053806115 0.13934344 0.04302615 0.21120925 -0.020343604 -0.075512454 0.03192128 -0.060980517 0.021755371 0.016162843 -0.023561206 0.253899 0.012451607 0.07882888 -0.034816697 0.07678495 0.16977978 0.09149405 -0.038233534 -0.08115184 0.23220259 0.033875786 0.12952417 -0.11194797 0.15447323 -0.009200997 0.21399118 0.10067105 -0.13786134 0.046758205 -0.1643045 0.109348595 0.019563919 0.05056619 -0.0923776 -0.01621909 -0.027511008 -0.06872614 -0.22876559 0.08653989 -0.099639416 0.21408053 -0.017662592 -0.15759616 -0.30127206 0.15551314 0.13023877 0.074428566 -0.14414258 0.12449174 0.09084565 0.096927255 0.10130753 0.0072337687 -0.035528574 0.04449469 -0.038208686 -0.028650837 -0.079822294 -0.03312019 -0.002946831 0.110978365 0.29143235 -0.06182557 -0.04474067 -0.065395676 -0.21676725 0.13077088
338 -0.1544642 -0.13304739 -0.020743115 -0.036240835 0.15423791 0.0838712 0.09343737 0.29044828 -0.14573242 -0.03400224 0.23538716 0.30669498 -0.0337248 -0.111090854 -0.10355381 -0.12395304 0.05388503 -0.113282025 -0.123629294 -0.031164825 -0.20324211 0.12927523 -0.20157054 0.1942058 0.0587071 0.07777897 0.06865414 -0.09000747 -0.028116025 -0.12364248 0.3170187 -0.030420015 0.019804884 0.12692803 0.04013712 0.083455935 -0.094119236 0.0035380903 -0.17226374 0.11308093 0.07451769 0.40896463 0.15390386 0.2643306 -0.022177143 -0.16148351 -0.0244128 0.13462608 0.14867653 0.17398067 -0.040851366 0.098539114 -0.029129751 -0.25797072 0.23070616 -0.09341377 -0.004845879 0.03594198 -0.073551364 -0.126396 0.03352296 0.13868864 0.09642804 0.21855918 0.0019476134 -0.010545447 0.024922565 0.011649443 -0.081735834 0.0794984 0.041670892 0.24285986 -0.088662565 0.04515741 0.068808936 0.027929088 0.07510424 0.1251261 -0.116452664 -0.12981547 0.2448662 0.057063498 0.09965233 -0.1042267 0.117237404 0.022072006 0.21510608 0.04458299 -0.12016455 0.14093412 -0.17989287 0.10709671 -0.03608101 0.0042451853 -0.058513366 -0.04174639 -0.0379064 -0.22910051 -0.28673196 0.01004416 -0.12049123 0.23206039 0.09045325 -0.15877101 -0.3091846 0.13787633 0.15282722 0.02535751 -0.17161913 0.061455708 0.105443835 0.11918942 0.01612513 0.065203555 -0.09563625 0.035874516 -0.028236106 0.010867263 -0.07396854 -0.061093174 -0.0046589063 0.094605595 0.26863557 -0.13672099 -0.012364779 0.024486497 -0.16755539 0.20062904
