2634 128
2633 -0.33050904 0.0573365 0.030164432 0.17952405 -0.118474044 -0.22671671 -0.35770598 0.09221238 0.17354284 -0.13005328 -0.3383455 0.37831563 0.15840045 0.14765076 0.023591315 -0.07709399 0.070901155 0.06279385 -0.15975793 -0.06063515 -0.094024114 -0.10410041 0.08242918 -0.2163853 0.026586758 0.04288657 0.09082311 0.047918145 0.053765345 -0.0710688 -0.09971491 -0.18796586 -0.23213711 0.025549648 0.15826501 -0.07417678 0.07195978 0.22026879 -0.016104508 0.11406455 -0.17811316 -0.0046164673 0.021458304 -0.08910219 -0.18834214 0.10618032 -0.1124327 0.08221246 0.06634662 0.10823538 -0.22391115 0.113612264 -0.2581411 -0.17043152 -0.110445514 0.009924023 -0.005525688 0.26299432 -0.18387112 0.047716305 -0.41322693 -0.025544474 0.07830775 0.08144586 0.1289062 0.02514845 -0.10137498 0.24611999 0.15236102 -0.03236664 -0.10106312 -0.13962862 -0.007586769 -0.11741822 -0.20888083 0.2669119 0.08682219 -0.19348373 0.070286945 -0.13770913 -0.046979446 -0.11371241 0.12378876 0.38812843 -0.069292545 -0.072706476 0.0109176 -0.1771192 -0.09546368 -0.07072706 0.36911115 -0.18709616 0.17016686 -0.23882826 0.056066256 0.06437069 0.019198755 0.08473947 0.09163407 0.04323216 0.19566184 0.006593837 0.07841897 -0.007708383 -0.2527469 -0.19037518 -0.08174404 0.20329705 0.12704566 -0.06558239 -0.13220075 0.20618528 0.22448973 -0.09877265 0.0328273 -0.07143785 -0.071222946 0.3018823 -0.08492944 -0.12454882 -0.075549915 0.028528884 -0.07048158 -0.15672985 0.024828514 0.2221068 -0.020042315 -0.07726421
2550 -0.0018199353 0.0024649578 -0.0868029 -0.23962666 -0.11090922 0.20008874 0.058487985 -0.1010488 -0.13110717 0.09114247 -0.05807858 0.05903331 0.07193036 0.16143057 -0.0069594346 -0.15744822 -0.055169627 0.03004195 -0.24797724 -0.039782394 0.23088278 0.024497584 0.111509025 -0.0038382795 0.021466747 0.082127765 -0.023860252 0.20950736 -0.10184891 -0.14251715 0.120186016 -0.04846281 -0.16695344 0.22176538 -0.056337632 -0.13354304 -0.091344856 -0.20048378 -0.18849006 0.10293433 -0.25360563 0.0037486614 0.008687321 -0.01693446 -0.072531745 -0.038159586 0.029003227 0.055750992 0.1959724 0.09206191 -0.025588095 0.24586095 0.10138158 0.022173153 0.04444271 -0.06603328 0.01050938 0.08387893 -0.24996974 0.25112984 -0.20746486 0.28422114 0.13550545 -0.33842248 0.006440031 0.10093412 -0.042906582 0.12427775 0.043801855 0.063393556 -0.16796897 -0.17487942 0.038037673 -0.28219226 -0.28103447 0.084988885 0.14473198 -0.11553462 0.06384121 -0.05292377 0.20067842 -0.064698555 -0.18599036 0.13480078 0.16689062 0.05376677 0.16380157 -0.07432665 -0.01845866 -0.11170571 0.0014529557 0.120676145 -0.04533506 -0.24894904 0.021894097 -0.07092362 -0.06512065 0.02338488 0.16888566 0.13747703 0.17688884 0.19142784 0.057487354 -0.1314419 0.105048664 -0.15295938 -0.034819894 0.18980806 0.4387984 -0.37358811 -0.13925798 0.1704258 0.18124664 0.17167817 0.21143049 -0.22511075 -0.03686322 0.40095004 -0.09044614 0.15396094 0.2788601 0.031998612 0.13925122 -0.021738423 -0.19522877 0.19033723 -0.030629111 0.14552097
2568 -0.16921388 -0.07305427 0.060099907 0.069605194 0.07906256 0.08207094 0.0069566434 0.077055514 -0.045776363 -0.12810844 0.069000326 0.014220329 0.028635124 0.19899435 0.08016266 -0.10393895 0.24799123 0.2756305 -0.17125487 0.16977802 0.10713354 -0.011374145 0.062068276 -0.22525212 -0.0023032862 0.042891968 -0.05928431 -0.15482345 -0.013521416 -0.18673256 -0.012685389 -0.04736163 -0.18140572 0.111782774 -0.0632726 0.038075592 -0.2637548 0.07682973 -0.06456583 -0.025066543 -0.12771073 -0.14994545 -0.1660819 0.01628721 -0.025517795 0.19973305 -0.030605508 0.010175196 0.19880915 0.17073198 -0.16105157 0.26374188 0.06050688 -0.08662797 0.10507665 0.05127236 0.1259377 -0.03209516 -0.091799386 -0.056537822 -0.31710804 -0.12837714 0.14697468 -0.050045714 -0.2705202 -0.081025444 -0.02746311 0.30742118 -0.09315789 -0.06434577 0.17223065 0.0903556 0.023056833 -0.0743621 0.13494037 0.23630492 0.12779091 -0.017208468 0.06757301 -0.10145259 0.038939834 0.031122895 0.021711163 0.36816394 -0.10237534 -0.002904728 0.27183792 -0.132158 0.06473671 0.11673245 0.047828503 0.077219166 -0.09325236 -0.04425451 -0.037392378 -0.07966598 -0.03081951 -0.079474494 0.25019383 0.04365719 0.27748135 -0.16708009 -0.036522392 -0.3932356 0.056468543 -0.19128536 0.13760948 -0.15948366 0.29954737 -0.017598297 0.037375525 0.110239945 0.073036976 0.023130963 -0.040695146 -0.17757855 -0.21803771 0.118530944 0.06906616 -0.033600695 0.01224833 0.16530016 0.002614436 -0.07223887 -0.14900182 0.2254002 0.034224514 -0.20866677
2604 0.018405437 0.0066435677 0.004937249 0.114151776 -0.054701973 -0.12285492 0.012977391 0.18260022 0.04298668 -0.05905772 -0.16247763 0.052330103 -0.03199023 0.0012367622 0.036047265 0.16396022 -0.052042086 0.32147953 -0.12709977 0.071863346 0.043571953 0.06988255 0.022456031 0.010527825 -0.018926892 0.0059900586 0.019668171 -0.0793442 0.110600255 -0.11156153 -0.023378361 -0.12210149 0.009641252 0.12782075 0.15635775 -0.0487946 -0.0452786 0.053699363 0.018121297 -0.069519356 -0.13433085 0.20423077 0.2194008 -0.25178453 0.100398324 0.29155496 -0.07385841 -0.12818179 0.0062074778 0.23896942 -0.18269506 0.042207427 -0.15949509 -0.05275303 0.018057643 -0.12597811 -0.05856903 0.0021812022 -0.09690655 0.03635388 -0.050981652 0.34758303 0.00041844737 -0.41487393 -0.109547295 0.007865688 -0.040675357 0.22163966 0.09638499 0.008682841 -0.25026596 0.023078194 -0.13474785 0.1877511 -0.2923945 0.072066724 0.06394357 -0.11058675 0.13296925 0.055667628 -0.071451046 -0.08158322 0.17688961 0.36774498 -0.19672912 -0.30958128 0.24963269 -0.24776772 0.039418623 0.100151256 0.17591621 0.009280669 0.028436914 0.036026914 -0.20387512 -0.03317548 -0.03829533 -0.17161131 -0.09679055 -0.3066057 0.16228853 0.013405306 -0.12480638 -0.14454342 -0.07116585 -0.19095586 0.12244087 0.16567443 0.16553788 -0.30866075 0.02104609 0.15098035 0.1739369 0.10068487 0.09737164 0.005629934 -0.023709575 0.21154095 -0.1940957 0.07366068 0.018518344 0.096151225 -0.081986204 -0.16365449 -0.23508431 0.37866995 0.08996886 -0.15166548
2610 -0.2006024 -0.043599207 -0.304632 -0.064325884 0.005874231 -0.10131253 -0.19002506 -0.19264798 0.06014044 0.11432762 0.08690217 0.39088976 0.22475407 -0.08661205 0.30009487 0.14841571 0.19509836 0.056453004 -0.005150768 0.107511304 0.2789142 -0.16359797 0.015981501 -0.0035187213 0.017601388 0.1086218 -0.18602358 0.079034396 -0.058263943 0.02998419 0.15697984 0.07571279 -0.05019942 -0.23333982 0.008596352 -0.16252223 -0.1743529 0.030644424 -0.025182372 0.04613606 -0.13535158 -0.11516164 -0.17897409 -0.032058463 0.16778159 0.1818513 -0.3351797 -0.1848817 0.0023844135 0.17937446 -0.124236405 0.14397393 -0.034216713 -0.00039176544 0.37232852 0.049864363 0.18090701 0.1622215 -0.27194256 0.11932416 -0.26882404 -0.124280415 -0.03828544 -0.005446899 -0.30381244 -0.110356964 -0.24340707 0.34402984 -0.11806473 0.022710428 -0.028831232 -0.16269018 -0.17096609 -0.15471163 -0.20625927 -0.04621728 0.2572564 0.0015826653 0.1781486 -0.16940293 0.22127463 0.021324586 -0.13812925 0.25192398 -0.07691549 -0.27547625 -0.13053757 -0.18712321 0.028753445 0.22389464 0.05339156 -0.0397675 -0.088479444 -0.0070656035 0.112886295 -0.05731299 0.08199328 -0.001842157 0.16063112 0.09535622 0.3038885 0.17779991 -0.035955507 0.09684642 0.21396992 -0.1563849 -0.029775195 0.09883515 0.13606726 -0.29869255 -0.20363377 -0.14950897 0.0939945 0.027865896 0.063453875 0.03576593 0.07890687 0.17239885 -0.003873269 -0.27521566 0.28268492 -0.05850399 -0.192636 0.07436766 0.0113509735 0.10003531 -0.12656836 -0.082462944
686 0.01658699 -0.03422026 -0.006818834 0.11318127 -0.014460006 -0.12119667 0.053086814 -0.0006070827 0.12441338 0.10697865 -0.043357942 -0.010145143 -0.039336257 0.07733954 0.12048237 0.12772033 0.18808812 0.15764847 -0.13289598 0.045733996 0.01996788 -0.0850519 0.00016478827 0.06942068 0.037093237 0.24035802 -0.076041065 -0.041744113 0.02839946 -0.038530152 0.10132403 0.040724143 0.012405715 0.12049839 -0.077171244 -0.1554735 -0.14188913 0.035295982 0.10258835 0.080258004 -0.1343083 -0.084638715 0.08533242 -0.031271953 0.008449373 0.16552696 0.054085333 -0.13059476 0.21184075 -0.028964058 -0.05386322 0.04791736 0.09557774 -0.19867933 -0.009534278 0.052190058 0.008969723 -0.009365429 -0.005486315 0.0018272626 -0.20873833 0.07154923 -0.18180633 -0.017421668 0.04006041 -0.08962924 -0.034981478 0.02413303 -0.029709604 -0.03860929 -0.16457981 0.10893395 0.07412902 -0.17670834 0.033674456 0.06430188 0.20129049 -0.34547144 -0.064607695 0.1206215 -0.0665118 0.059811603 0.080062985 0.04408846 -0.07523883 -0.05670345 0.017421674 -0.08803308 -0.030664768 0.13670617 0.08234437 -0.11081949 0.09047228 -0.13013195 -0.04807503 0.103595585 -0.064539775 -0.08704245 -0.048331596 -0.079221494 -0.07751995 -0.019769242 0.13512316 -0.10864445 0.04967641 -0.11119128 0.09745934 0.1270456 0.14181992 -0.14853193 -0.02333248 -0.003301467 -0.044774666 0.14429143 -0.1844251 -0.07848648 -0.26035115 0.03248331 0.013378722 -0.115769014 0.15697636 0.02310961 0.023806933 -0.023488194 -0.059213366 0.012079612 -0.122615695 0.13748433
2454 0.16667694 0.09879127 -0.025591167 -0.16090728 -0.106231295 0.05617101 -0.090078086 -0.09330646 0.09322516 0.13829976 0.04789292 0.2324746 0.1251282 0.19235641 0.09476431 0.07967204 0.08517744 0.20647155 -0.23989813 -0.058806356 0.10231217 -0.1314671 -0.0022493927 -2.0695323e-05 -0.10236216 -0.046766263 0.1891411 -0.03046811 0.4483702 0.015550265 -0.055712987 -0.04158936 -0.1274994 0.14433914 0.18323268 0.006575319 -0.046148326 0.12196776 -0.07079397 0.08820361 -0.120265976 -0.015192558 -0.14790767 -0.27980277 -0.28126296 0.2666348 -0.34822148 -0.033163454 0.27908862 0.286386 -0.1724307 0.07468435 -0.08721353 0.04308011 0.12739293 0.031679448 -0.0744439 -0.1096181 0.08003256 -0.021414993 -0.101177216 -0.005247414 -0.0020925854 -0.034875527 -0.21209887 0.10326974 0.1544956 0.36439458 -0.03240923 0.041059054 0.0025539524 0.1319995 -0.002327093 -0.07493982 0.13894446 0.30158627 0.25756016 -0.26376402 0.07127998 -0.1399852 0.034195695 0.16196713 -0.04897138 0.13043886 0.045886368 0.15953845 0.11891138 -0.0971039 0.16729641 0.22346087 0.18027902 -0.01562326 0.042215798 0.025555057 -0.23335151 -0.017570807 -0.26520652 -0.071776 -0.122445084 0.033573195 0.09559284 -0.019124852 -0.14805783 0.00243516 0.16684331 -0.10111647 -0.008743669 0.1894983 0.17315198 -0.29719058 -0.11264409 -0.08329583 0.082419254 0.0075112698 0.33153647 -0.11186144 -0.0340269 0.08130104 0.035010424 -0.025231205 0.07039004 0.12759587 0.024350824 -0.15200184 -0.12840821 0.22224478 0.048239503 -0.2732427
2464 -0.31875932 0.25940648 -0.25176135 0.02805913 0.1978019 -0.1261984 -0.12633418 -0.016478041 -0.24021734 -0.076558866 0.5590205 0.5748914 0.15258376 0.06277539 0.09041331 0.15295738 0.029347055 0.07062979 -0.50001764 -0.061174035 -0.41549823 0.2559386 0.05609241 -0.21378578 0.26010844 0.013831189 0.22594112 0.06646836 0.049737643 -0.2285605 -0.13904196 0.1643042 0.10543888 0.1700595 -0.043055028 -0.17639694 -0.31402764 0.30827552 -0.18539408 0.39936912 -0.4877948 0.18936597 0.30392718 -0.31227705 -0.27356496 -0.07272064 0.043563236 -0.12527516 -0.14953394 0.0883069 -0.22963159 0.4988336 0.24364612 0.14697398 0.44545618 0.13521725 -0.066615984 -0.009342184 -0.2064365 -0.050916325 -0.042149357 -0.0011756743 -0.36408392 -0.2253261 -0.1109196 0.21684195 -0.06722717 -0.112599306 0.42594635 -0.0024398393 -0.19330072 0.28062686 0.1643145 -0.56121176 -0.01986053 -0.14649913 0.4794559 0.08467678 0.17517145 0.1974287 0.010656614 -0.019032432 -0.20004031 0.16015983 -0.32923684 -0.5038468 -0.37856305 -0.28076398 -0.03440664 -0.20796943 0.124605455 -0.07595841 0.16397883 -0.046947286 -0.12877297 -0.15922906 0.2744845 -0.040411316 -0.4619032 -0.2655184 -0.11977789 -0.19830504 0.20106266 -0.5547411 0.4934944 -0.09751429 -0.7657806 0.11686393 0.25560123 0.035762202 -0.11441616 0.50305206 0.7308073 0.4781935 -0.16236423 0.054466695 -0.14027303 -0.025812348 -0.10623254 -0.010338843 0.10479308 0.17939076 0.14960137 0.13048077 -0.38410485 -0.263472 0.16228251 -0.09101785
2431 -0.15617266 0.0655284 -0.024963103 0.050964333 -0.15620494 -0.018381286 0.08045713 0.0080829635 -0.071218036 -0.1932429 0.13843317 -0.036657866 -0.11206148 0.21313165 0.064220235 0.12849416 -0.11002431 0.23711118 -0.12572259 0.119248785 0.07346971 -0.047942244 0.081793 -0.28509343 -0.24434336 -0.050896518 -0.025429944 -0.16552863 0.030516144 0.0077571208 -0.05128396 -0.06509757 -0.023558035 -0.0921575 0.103756346 -0.28919083 -0.15165862 -0.25222337 -0.2454164 0.23567884 -0.27333605 -0.08804474 -0.16802868 -0.05782848 0.1442003 0.26307672 -0.04452503 -0.095780134 0.08519787 0.049025062 -0.15556507 0.037086576 -0.019800369 -0.25074893 0.029100297 0.15310787 -0.37664142 0.16009146 -0.2262862 -0.1904269 -0.017962813 0.00354788 0.11093099 0.046733834 -0.06919168 -0.105871506 0.0016073441 0.15023662 -0.039353743 0.06032152 -0.03302574 0.02128982 -0.021553816 -0.13912955 -0.008960395 0.19044487 0.003788997 -0.089963056 0.11951818 0.069910124 -0.19189654 0.23457435 0.019300433 0.2882576 -0.08022396 0.026224302 0.29640734 -0.3822954 0.019225793 0.071768135 0.19357228 0.011669604 0.25838116 -0.04999477 -0.14644462 -0.055948485 0.09079578 -0.31726742 -0.14335498 0.35002375 0.18601961 0.17710418 0.2777361 -0.10544492 0.13351946 0.071339905 -0.035872065 0.15815906 0.060488515 -0.22147076 -0.08646564 0.043593913 -0.21903217 0.09565329 0.32255918 0.01958324 -0.13396926 0.31596398 -0.16716462 0.05293175 0.26917484 0.27221876 0.22503056 0.03310702 -0.11777376 -0.100312814 0.19351311 0.09199597
249 -0.14315124 0.095748775 0.029836945 0.16734186 0.18146506 -0.016096734 -0.00022997425 0.19141208 -0.14812368 0.0023731918 -0.0810298 -0.14040291 -0.11859356 0.0029749963 -0.0057216496 0.2760947 -0.03816945 0.2353115 -0.5023387 -0.10827172 0.23361292 0.15069099 -0.20439273 -0.07078722 -0.016389832 0.312847 -0.085060686 -0.035341315 -0.06916855 0.065211184 -0.119308375 -0.18532798 -0.093718216 0.18428575 -0.028304372 0.04005822 -0.0727114 -0.20285341 -0.0012507247 0.16911201 -0.24937998 0.13673326 0.12827185 -0.26499298 0.040517747 0.02807556 -0.201172 -0.04217091 -0.026345838 0.12328747 -0.021576695 -0.065327615 -0.13316698 0.09988357 -0.030764751 -0.2263906 -0.04025382 0.070956275 0.055461656 -0.14237979 -0.117981724 -0.23449312 -0.4022257 -0.10671283 -0.21028796 0.007109208 -0.101744704 0.26094285 -0.16752963 0.13901581 -0.19030899 0.11270814 -0.03632181 -0.10195132 0.05362368 0.265084 -0.018239113 -0.09244971 0.0712093 0.019719744 0.25760397 -0.22796908 -0.022451645 0.08953605 -0.19150984 0.08964726 -0.34884647 0.07066025 -0.1537406 0.06673471 0.09995476 0.23240066 -0.017238038 -0.021130383 -0.052535594 -0.24919224 -0.21558163 0.07063635 0.063743696 0.09339017 0.17475769 0.07858782 0.052143075 -0.09000002 -0.09067259 -0.10972732 -0.10205948 0.037397254 0.13184567 -0.19592206 -0.24187602 0.20821492 0.010411393 -0.023813548 0.052334342 0.14404683 -0.11808218 -0.048851628 -0.09094186 0.0010828027 0.23597707 0.0015672309 -0.14759566 -0.18935777 0.15712205 -0.1794179 0.08334286 0.08944475
36 -0.12455053 0.09968984 0.022976179 0.12781808 0.14167126 -0.057318326 0.012530839 0.27018318 -0.1100337 0.013496884 0.035340752 -0.204858 -0.1495033 -0.0040075844 -0.016073868 0.34867877 -0.039023962 0.20662518 -0.4452044 -0.1288456 0.24132971 0.10156212 -0.11546612 -0.06902282 0.07248707 0.3045196 -0.034065902 -0.08223163 -0.021482976 0.092658065 -0.06552646 -0.12941533 -0.056999736 0.15727565 -0.081017986 0.0029170802 -0.13752323 -0.21711408 -0.09792617 0.1809034 -0.20392992 0.120350935 0.08636347 -0.3069573 -0.013180814 0.014589346 -0.1743202 -0.07068906 0.09392771 0.122763336 -0.06283139 -0.12738423 -0.14057226 0.09242717 -0.015545053 -0.21507885 -0.036916424 0.09726778 0.004591914 -0.1649638 -0.07690791 -0.3199074 -0.2917178 -0.14791523 -0.1046301 -0.09324425 -0.10073609 0.20521224 -0.14002894 0.119990714 -0.16557239 0.110879004 -0.003972311 -0.06365571 0.054103218 0.27089024 -0.048713144 -0.13439186 0.015706016 -0.028087605 0.23223199 -0.25729036 0.08479159 0.107877515 -0.20581873 -0.005679705 -0.3095386 0.06584337 -0.17285594 0.042111866 0.09913226 0.3268556 -0.11919945 -0.09719971 -0.054154597 -0.21705759 -0.25083303 0.1316187 0.08780954 0.117639124 0.18206164 0.06971175 0.087926805 -0.088968076 -0.0814181 -0.05912947 -0.061446022 0.097279325 0.08811709 -0.07832523 -0.24094993 0.22485366 0.003764936 -0.037741713 0.13965051 0.1313021 -0.08363472 0.048425876 -0.062126495 -0.01926382 0.17961055 0.010522378 -0.17568323 -0.12344908 0.2318241 -0.2751676 0.080485746 0.07969902
88 -0.16383786 0.08432636 -0.054759093 0.16877748 0.10533308 -0.0011528124 -0.024393946 0.16950864 -0.18483973 0.01744266 0.026043134 -0.12783743 -0.14573152 0.035149064 0.06891995 0.24098718 -0.009710578 0.25048226 -0.4634652 -0.08303755 0.23655605 0.083487235 -0.074832864 -0.011428506 0.054337498 0.31975782 -0.09673218 -0.04102744 -0.07611921 0.068851635 -0.105717994 -0.20241469 -0.1121246 0.20568065 -0.057795092 -0.015773918 -0.102032736 -0.21525443 -0.032542195 0.20406684 -0.16089958 0.084192224 0.09601967 -0.31612048 -0.03513083 0.041404426 -0.22628708 -0.05998652 -0.0052327425 0.1513173 -0.007979119 -0.12030389 -0.12509318 0.08406435 -0.03473467 -0.213627 -0.031980217 0.080654204 0.019596307 -0.115304664 -0.10303043 -0.27984792 -0.33547005 -0.08366877 -0.18123716 -0.1157879 -0.14736812 0.20323929 -0.13703685 0.21351126 -0.14011177 0.08991882 0.018481892 -0.14561085 0.08610842 0.24351549 -0.0037607013 -0.06529658 0.009137651 -0.014963696 0.16304444 -0.18926492 0.03830906 0.11262006 -0.22964151 0.011298703 -0.33873716 0.124305084 -0.11206841 0.01195701 0.10518273 0.22887963 -0.08120104 -0.060222305 -0.093780726 -0.15919098 -0.15511999 0.09024202 0.12722851 0.09868341 0.17710754 -0.035142127 0.07880793 -0.1283143 -0.11448985 -0.07482867 -0.124826394 0.13752085 0.121974155 -0.09417847 -0.2513145 0.24268949 0.013856822 -0.036621116 0.09565717 0.1577062 -0.18215935 -0.106746115 -0.0426853 -0.014538864 0.22284414 0.021693854 -0.21363732 -0.14878257 0.1469144 -0.23221153 0.04335663 0.13621613
236 -0.13579212 0.07288428 -0.0052499035 0.13209954 0.12084943 -0.0769219 -0.048330516 0.2184819 -0.109427564 -0.031298682 0.02764046 -0.16595267 -0.22193669 -0.013037396 0.0054386784 0.20551638 -0.02886809 0.21659565 -0.466181 -0.09057164 0.23600854 0.0730243 -0.11315148 -0.003445847 0.055876646 0.32287434 -0.03518812 -0.06709799 -0.062322903 0.15067233 -0.097665414 -0.18435216 -0.10671812 0.18418351 -0.09643493 0.014734464 -0.12939449 -0.18909524 -0.048506435 0.13167858 -0.16695188 0.14357993 0.08239557 -0.26085016 -0.029191406 0.077116296 -0.18562223 -0.123682626 0.059190325 0.11987936 -0.007415133 -0.121123716 -0.11659891 0.0876902 -0.0017227863 -0.24639156 -0.080130026 0.10458289 -0.0066157198 -0.1515126 -0.11099497 -0.31276754 -0.32550606 -0.081511915 -0.11946567 -0.16907935 -0.12368018 0.19959247 -0.2145211 0.08397699 -0.1944214 0.07009431 0.026428128 -0.09600652 0.06848765 0.24134246 0.018943045 -0.038539406 0.07232839 -0.027323127 0.15988885 -0.18938151 -0.021951837 0.0032503104 -0.10092958 0.014026615 -0.33148977 0.15287271 -0.12589523 0.08833618 0.14469339 0.28500608 -0.14262147 -0.05994971 -0.07772969 -0.23316784 -0.14796604 0.032297626 0.06063 0.13541597 0.14711867 0.022337932 0.11170293 -0.19612871 -0.13620684 -0.09439404 -0.122682475 0.09077165 0.17900448 -0.16346318 -0.24897596 0.24225652 0.017903978 0.030232687 0.04467582 0.11295811 -0.060662705 -0.037135776 -0.08342383 0.031614393 0.23058228 0.027492559 -0.1518353 -0.15869881 0.20395859 -0.2207793 0.05635203 0.19726947
2482 -0.40534067 -0.21978879 -0.21274225 -0.17567945 -0.21825153 0.28255156 -0.35916653 -0.20362964 -0.13110161 -0.34833393 0.037798893 0.106310494 -0.03382193 -0.18907727 0.03023397 0.3352777 -0.15043038 0.3385116 -0.4945386 -0.093809746 -0.13231756 -0.25954682 0.16760857 -0.017092064 0.18090352 0.04635993 -0.06295138 0.18582943 0.14340934 -0.026879009 -0.32550552 0.013691138 0.14002317 -0.0031131213 -0.21129055 0.002054721 -0.2000264 0.25838637 -0.12916203 -0.16459715 -0.32171863 0.06315588 0.25347576 -0.38790315 -0.072143376 0.025205148 -0.08592513 -0.04443349 -0.07341454 0.0805721 -0.26415733 0.46029308 -0.021864658 -0.27225918 0.025025858 0.023886293 0.13368903 0.0008874591 0.26750994 -0.0017488991 -0.17565481 0.14575642 -0.09193306 -0.27260002 0.2919133 -0.060153786 -0.000753433 0.016083714 0.13295738 0.13672197 -0.08058336 -0.031960417 0.0006961117 -0.2130321 -0.5130515 0.09419362 0.053205587 -0.051179472 0.25554305 -0.087177135 0.09550287 0.050046444 0.1731071 0.27090856 -0.01961082 0.039856005 0.13647667 -0.34286526 0.12625001 -0.02284091 0.3325115 0.0068518845 0.08724772 -0.115397826 0.23895445 0.08175907 -0.20884112 -0.3353609 0.22078326 0.107715376 -0.041226484 0.15360186 -0.03797389 -0.19953808 0.0869462 0.0069723455 -0.32392934 0.49873292 0.102002315 -0.06374895 -0.12507246 -0.09478477 -0.32253176 0.08547381 -0.28130078 0.10294938 0.09708089 0.05602733 0.032683313 -0.122829065 0.38843542 0.30234972 0.29126376 -0.065981686 0.021926112 0.2730738 0.091328226 -0.15569806
250 -0.25886992 0.135563 -0.044461954 0.15170388 0.20782521 0.008184875 -0.0060002883 0.22345842 -0.18135758 -0.041603103 -0.05900213 -0.14227949 -0.13929257 -0.049290206 -0.011075596 0.27033842 -0.014779995 0.18788224 -0.43860304 -0.11788286 0.17644702 0.091698125 -0.14898331 -0.05042677 0.03710799 0.3468567 -0.035766833 -0.00948465 -0.11408615 0.059656814 -0.13319355 -0.154575 -0.10196021 0.1324803 -0.079337925 -0.0045645437 -0.08030676 -0.16330326 -0.017775726 0.25296763 -0.23544341 0.08589849 0.13159825 -0.30078894 0.0710955 0.012180766 -0.1743186 -0.100338265 0.047974583 0.117681526 -0.011545347 -0.063470386 -0.15648332 0.0009922145 -0.05307671 -0.25190154 -0.0013742346 0.09517613 0.007728825 -0.1796128 -0.17990975 -0.26558056 -0.28659 -0.1656075 -0.17164308 -0.08698929 -0.1443917 0.121058196 -0.19173515 0.06842746 -0.17075954 0.070630156 0.024842551 -0.09471913 0.12874992 0.20194906 -0.017805906 -0.074503675 0.023041107 -0.028089406 0.24323402 -0.24037862 0.016664749 -0.0073004295 -0.16775794 0.0021629573 -0.31075254 0.16753879 -0.14000092 0.035418663 0.11297962 0.32450405 -0.035473634 -0.109602004 -0.09822074 -0.27419138 -0.22018388 0.10762476 0.108977474 0.14011826 0.22514038 0.0019884454 0.08658552 -0.048041604 -0.09622811 -0.08834718 -0.11933575 0.00013561203 0.13561577 -0.1494748 -0.21109746 0.28316003 0.012111343 -0.06434465 0.1744841 0.13985068 -0.12037992 0.016625628 -0.0021224732 0.010449483 0.29539034 0.00069434365 -0.14597386 -0.15800151 0.18840083 -0.2380263 0.06481983 0.08258194
2499 0.0352935 0.07320681 0.1759174 0.10014215 -0.17128326 -0.22011685 -0.3725147 -0.22783817 0.15832144 0.0938508 0.062042505 0.0056420686 -0.07714322 -0.078772925 0.07078662 0.22035483 0.18066251 0.009869923 -0.17512147 -0.12428907 0.08860757 0.09352771 -0.14978682 0.24727648 -0.113922335 0.049593188 0.021607356 0.0768319 0.085377075 0.015257369 -0.059153233 -0.24958402 -0.16865927 0.03276881 0.2365904 -0.31439745 -0.22571337 0.009109991 0.108792 -0.02325708 -0.19704434 0.03125528 0.015316927 -0.1800311 0.029969111 0.20181978 0.0161868 0.12718943 0.2425702 0.122573316 -0.086776935 0.132046 0.23697907 -0.020961305 -0.15407166 -0.09207717 -0.07685163 -0.14974326 -0.06120109 0.16424853 -0.040192097 -0.017599821 0.072221346 -0.028653972 -0.4196445 -0.03014728 0.27338016 0.30178532 0.093578406 0.22090419 -0.04794761 0.14662142 0.034304503 -0.40308723 -0.18023282 0.08046667 -0.038333647 -0.09602149 -0.016789531 0.07064199 0.21657054 0.27384412 0.10917263 0.2596213 -0.07798329 -0.15351102 -0.033489376 -0.44091076 0.08964104 0.120596915 0.06631886 -0.16511035 -0.16418265 -0.12776554 -0.016349724 -0.0034418933 -0.10016398 0.3165829 -0.017516438 -0.12453977 0.22535159 0.032680325 0.1467781 -0.090289965 0.04341732 0.21721174 0.111397795 0.14314507 0.34961858 -0.21756572 0.027409878 0.19145605 0.042691253 -0.069900714 -0.09472791 -0.22312625 -0.074863404 0.24134344 -0.05196279 -0.08578822 0.13414514 0.080952466 0.14251176 -0.056570034 0.16404325 -0.004187483 -0.13514103 -0.2237344
195 -0.18341406 0.091673635 0.024780285 0.13501243 0.081699654 -0.010110739 -0.03229192 0.15908934 -0.15319188 -0.015059753 -0.046694644 -0.19910702 -0.116212204 -0.03357744 -0.0031911333 0.25392932 -0.037213694 0.2463317 -0.47861677 -0.071108766 0.30198509 0.09938761 -0.13614446 -0.06200943 0.072492644 0.30596292 -0.039951276 -0.086093344 -0.14760767 0.07402994 -0.09923764 -0.16293442 -0.10976878 0.20839295 -0.048095044 -0.020193353 -0.15395258 -0.28731266 0.022561783 0.22531769 -0.16331661 0.10504335 0.10491504 -0.29761434 -0.017052874 0.12930447 -0.22616833 -0.071127266 0.018022668 0.11026093 0.0037325674 -0.0819714 -0.11078161 0.07656181 -0.023896609 -0.21530288 -0.081073456 0.0628014 -0.00648704 -0.1368522 -0.12448747 -0.25569424 -0.3058662 -0.12207868 -0.17677748 -0.15852267 -0.12000827 0.16986908 -0.23666166 0.1003379 -0.19992517 0.11897412 0.038214404 -0.13524742 0.052831262 0.2529816 -0.02106505 -0.068101116 0.072016306 0.009944256 0.2086097 -0.2748957 0.02858207 0.1138946 -0.1622493 0.018485801 -0.37176853 0.12183781 -0.20777908 0.01682961 0.047771525 0.24256523 -0.061975013 -0.041845385 -0.08352664 -0.18028425 -0.23543954 0.0668779 0.1086672 0.105132364 0.18268758 0.039541062 0.10068345 -0.15819255 -0.039546724 -0.0768606 -0.13480319 0.11911579 0.15832229 -0.118759155 -0.23498341 0.25692672 0.010172398 -0.03028796 0.15799938 0.15521912 -0.10751303 -0.0049735727 -0.07321262 -0.026693292 0.15600663 0.0083558 -0.13389117 -0.13367201 0.25492334 -0.19094731 0.032276258 0.13913427
2617 -0.041355938 -0.13104974 -0.040119346 -0.08717572 0.11387219 0.13737817 -0.22282453 -0.21580157 0.11245262 0.0184967 -0.23031256 0.13143876 -0.06599619 0.18214531 -0.122344725 0.121217266 0.20746057 0.048300598 -0.26862562 0.012074491 0.13661581 -0.16261546 0.059765667 -0.24063513 -0.25807208 0.18326224 -0.016020609 0.032968827 -0.1982108 -0.40827647 0.14195739 0.076318905 -0.22966765 0.019392261 -0.10127799 -0.13082261 0.026352825 -0.11948541 0.12631911 -0.039857667 -0.08488852 0.06827215 -0.097430386 -0.31373903 0.11695606 0.119610555 -0.43856287 -0.11723051 0.14826074 0.26563647 0.051478196 0.27479473 -0.21898624 -0.1684727 0.07543585 0.04606623 -0.13361192 -0.042568482 0.0019965505 0.17922986 -0.48369938 -0.12964109 -0.088437386 0.11788094 -0.21298082 -0.031564865 -0.14816348 0.010168395 -0.0055931346 0.057121336 -0.27235162 0.13551499 0.072974086 -0.10214895 -0.06818188 0.20189981 0.3094487 0.0035720412 0.10898429 -0.12170221 0.08342787 0.21062985 0.04474533 0.18125896 0.048506554 -0.114266194 -0.024228986 -0.15574878 0.19884807 0.28350618 0.15292822 -0.032128513 0.07239693 -0.054285493 -0.090099424 -0.015676958 -0.12538213 -0.10178331 -0.08456669 0.1115013 0.06726332 0.07217156 -0.10712593 -0.060832366 -0.02484383 -0.082755424 0.15560727 0.12360984 0.009402527 -0.085188046 0.058451127 0.18882991 0.19957243 -0.008052891 0.050518513 -0.20316961 -0.19146626 -0.08145563 -0.03769971 0.08479444 0.04380409 0.1813367 0.09750456 0.00035103987 -0.18754064 0.13943572 0.09632896 -0.007829944
881 0.056013383 -0.14433554 -0.04609755 0.0054229978 0.12884125 -0.1626208 -0.009638868 0.0013505166 -0.019874303 0.01208715 -0.024837233 0.06804776 -0.17957586 0.186504 0.17607176 0.18891306 0.15323445 0.13615961 -0.24928732 -0.056538705 -0.022592904 -0.10249629 -0.17791018 0.16448025 -0.056012012 0.24306701 -0.089138076 -0.006097623 0.007181233 -0.14198366 -0.044671685 0.003947109 -0.04345058 0.3338517 -0.06292921 -0.15962182 -0.031780057 -0.09642818 0.027463695 0.11063111 -0.095943674 -0.21498185 0.15184519 -0.12394443 -0.14485429 0.19327937 0.07013298 -0.1452554 0.23095046 0.16748282 -0.1027795 -0.040809114 0.07639874 0.14377072 0.080439664 0.08144328 0.083093494 -0.046733964 -0.011937554 0.010465598 -0.26250207 -0.06589505 -0.17066076 -0.033476986 -0.016095974 0.009786998 0.069575734 0.010850808 -0.058958497 0.009799221 0.010053872 0.01820428 0.03894578 0.09815922 0.065882534 0.025259376 0.13427968 -0.10919312 0.006602724 -0.025728393 0.0109142205 0.13463107 0.3019818 0.11118257 -0.026879404 0.016587393 0.16420145 -0.0053093163 0.15744816 0.053584736 0.11284799 -0.14957874 0.09555198 0.0012596806 0.21952507 0.024457043 0.0043902304 -0.065002434 -0.14925757 0.023497004 0.18818016 -0.021276424 0.13834539 -0.021053074 0.21628013 0.07097578 -0.03170972 -0.14436434 -0.058395624 -0.056480136 -0.05102764 0.09259447 0.08840803 0.17428954 0.009568162 -0.1211385 0.05363017 0.076216966 -0.21136527 0.019464478 0.23307516 0.073700234 0.16664529 0.0012966617 -0.11273224 0.06481647 -0.15787384 -0.035818186
849 0.1536914 0.05338787 0.12043791 0.032223206 0.15998165 0.090389356 -0.06641929 0.0015085328 0.07971476 -0.07949123 -0.24461226 -0.09317083 -0.1805487 -0.12943147 0.31395468 0.12432466 0.181657 0.16113575 -0.4441561 -0.047112357 0.058101382 -0.10083723 -0.056981623 0.18762188 -0.054717943 0.07809119 0.026928077 0.07513391 -0.0006244056 -0.17035636 -0.014727064 0.038135972 0.02180204 -0.05563258 -0.0026102955 -0.026564334 -0.28474954 -0.08526806 -0.16646048 0.24556452 -0.008646056 -0.12652351 0.14318667 -0.0034805816 -0.10218228 -0.019693136 -0.22346953 0.25733718 0.10096666 -0.09286052 -0.22870271 -0.010833084 0.17523552 0.056400523 0.086298406 0.20687088 -0.043324903 0.28540453 -0.2631405 -0.069255486 -0.26720348 0.21590643 -0.19006191 0.12989488 0.0024123357 0.11597473 -0.07904259 0.029157316 0.06017201 -0.062183656 0.029338367 -0.00090303854 0.19822772 0.017841026 -0.08511883 0.18614319 0.021775596 -0.0869482 0.12666519 0.21912938 -0.07347908 0.13252307 0.21989855 0.17451946 -0.0452344 -0.11586669 0.09465252 -0.19164234 0.10065882 0.20271242 -0.110200256 0.07316522 -0.08364216 -0.0229814 0.18995504 0.10223983 -0.052786723 0.005407853 -0.034580957 -0.12537633 0.043188814 0.13605563 -0.118757986 0.1586494 0.2162025 -0.025189511 -0.11400316 0.17334084 0.14032163 -0.11285007 0.0046007712 0.1767975 -0.00083011837 0.30043465 0.017440228 0.012564981 -0.13060051 0.029495796 0.01122446 -0.15686595 0.06585857 -0.0041853925 0.1492705 -0.1466879 -0.11244754 -0.050867654 -0.15726937 0.15188555
2430 -0.18841252 -0.20811796 -0.14074914 0.034078766 -0.06977815 0.025795348 -0.15439434 0.02777428 0.09888189 -0.100471266 0.15483701 -0.0187995 -0.25713345 0.057066344 0.23949166 0.027629858 0.15206514 0.1629668 -0.17148988 0.0921683 0.09424549 -0.22624357 -0.10599784 -0.025574656 -0.015305291 0.08254812 0.030672261 -0.009889847 0.13187991 -0.11215254 0.21368442 0.0032853647 -0.010824684 -0.010808043 0.094513364 -0.14388144 -0.1944887 -0.04614156 0.11021683 -0.034707557 -0.22685057 -0.06583794 -0.10334077 -0.20378648 -0.23832531 0.22766103 -0.09885407 0.16895139 0.20910572 0.10768953 -0.0937513 0.29115206 -0.028072543 -0.14496215 0.13405237 0.011658348 -0.007923828 0.07024083 -0.2833283 0.10002313 -0.33144468 -0.17765601 0.14163321 0.12509583 -0.14223517 0.12688677 -0.097492866 0.17398603 -0.06671684 0.12822258 -0.12825613 0.25968817 -0.021554781 -0.101560265 -0.24153888 0.043901555 0.10777792 -0.27202743 -0.16709466 -0.2460329 -0.07888049 0.014891537 0.0504431 0.1553398 -0.10444461 -0.06628642 0.014330779 -0.25276995 0.14291057 -0.024239644 -0.21226844 0.21878326 0.015270051 0.02804291 -0.3346808 0.26638204 -0.10126498 -0.07172072 0.04125848 0.07288187 0.16188164 0.05683089 0.03245769 -0.13539557 0.12871061 0.08272972 0.053087667 -0.106569536 0.21528426 -0.1197627 -0.17215383 0.065900736 0.008978649 -0.012894597 0.12023122 0.28425524 0.02338239 0.1867956 -0.13989964 -0.08302734 0.0478954 0.019239945 -0.046808027 -0.0088543575 0.13413186 0.078404196 -0.0005307293 -0.13721858
2614 -0.1394947 0.22780555 -0.034499675 0.056915537 0.020193763 0.06668289 -0.048430756 0.055368625 0.23439364 -0.0783228 0.018039614 -0.08337046 -0.18328321 0.07027334 0.096961394 0.53100634 0.11631667 -0.07261619 -0.21069786 0.12391283 0.056435816 -0.10556007 0.17165835 0.20282105 -0.04749582 0.11470988 0.12784663 0.19282012 0.02116266 -0.22329286 0.04865867 0.08671758 -0.090770885 -0.22921067 -0.1366636 -0.13725042 -0.26653254 0.017497782 -0.103496484 0.07611705 -0.13619623 -0.13335426 -0.27065676 0.12547557 -0.04302368 -0.014994442 -0.12031054 -0.11814452 0.29385138 0.2968007 -0.09466261 0.17444433 -0.06327542 -0.08029503 -0.06529277 0.026976498 0.0828606 0.027658138 0.058570627 -0.17370442 -0.140517 -0.26286477 -0.14514633 -0.1288569 0.05877471 0.19832967 -0.2504045 0.05781176 -0.073875666 -0.0583148 -0.1491827 0.27967444 -0.0035183514 0.030712174 -0.18456331 0.25424087 0.006063869 -0.29361275 0.1372146 0.07337762 0.01299697 -0.09179661 -0.105793804 -0.038918857 -0.044410445 -0.16561177 -0.034272924 -0.4086497 0.4250841 0.061797533 0.05481369 0.07364518 0.20420633 -0.33697075 -0.15947704 0.1829105 -0.041056506 -0.024530405 0.2210283 -0.025803065 0.058483254 -0.19747733 0.22380531 -0.1024008 0.15982999 0.018637279 0.04885273 0.22949007 0.36092356 -0.0022707353 0.030724876 0.11445088 0.10897459 -0.14434838 0.12073784 -0.22842811 -0.24121392 0.39734283 -0.024251612 0.015115335 0.07225747 -0.008422361 0.19317429 -0.028698452 -0.11374955 0.22575344 0.20903903 -0.08320256
2593 -0.090820946 -0.022785306 -0.08332465 -0.12995462 0.17616369 0.14634398 -0.18480246 0.05279129 -0.0011406314 0.20947514 0.13851872 -0.0062420066 0.12162803 0.2144176 0.042905297 -0.12096464 0.008433631 0.21249834 -0.13198501 -0.0011213846 0.30023667 -0.20355181 -0.00858621 -0.027897665 -0.26409563 0.023284873 -0.22445711 0.24673125 0.17494248 -0.14266846 0.075558774 -0.027717618 0.027176097 -0.18759902 0.124754526 -0.24004959 -0.4193934 0.07213831 -0.031681903 0.21713428 0.029467028 -0.012529413 -0.11066595 -0.13850127 0.23302472 -0.035442676 -0.18650468 -0.14417127 -0.061429627 0.34670448 0.04106493 0.039625898 0.032500036 -0.15541504 0.078711554 0.07413274 0.0050211255 -0.07601301 -0.01994081 0.23807356 -0.27463728 0.039355412 -0.011178424 0.14697178 -0.2812378 -0.041499298 -0.21447577 -0.047403254 -0.052843556 -0.08739247 -0.085778035 0.16585073 0.028415278 -0.20034198 -0.25373632 0.18310556 0.17521217 -0.12433076 0.10496808 -0.005595312 -0.15177222 -0.23833734 0.18440786 0.07255553 -0.13353002 -0.2565155 0.0017261457 -0.11634282 -0.12536259 0.19991887 0.11986026 0.06731847 0.4079504 -0.17203808 -0.124265894 0.051742412 -0.15204331 0.10299468 0.114278406 -0.13235931 0.29761678 -0.10981585 0.07288164 -0.3491845 0.0022275299 -0.03810082 0.032298062 0.20802847 0.21028775 -0.001200872 -0.22121517 0.04207922 -0.019266525 -0.040056992 0.08782306 0.13611312 -0.07317476 0.0057704244 -0.2034723 -0.22049057 -0.07119956 -0.07494162 0.12813416 -0.25471705 -0.37502873 0.3003435 0.008722797 -0.20722611
2511 -0.04960614 0.002884195 0.040912554 0.036356676 -0.27024657 -0.15279041 -0.24634452 -0.05501168 -0.110677205 -0.11712263 0.3081835 -0.0339398 0.12564819 -0.02248378 0.18890908 0.045608334 0.18733476 0.25316012 -0.16394514 0.17572497 0.12298064 -0.062554374 -0.18692634 -0.14448647 -0.13561286 0.08370739 -0.079539575 0.22253455 0.22394407 -0.17927027 -0.15917982 -0.013217591 0.0052953004 0.00985869 0.09127563 0.14396304 -0.104810365 -0.005897716 0.03668828 -0.010720844 -0.12764014 -0.083516054 -0.09681516 -0.17694154 -0.029037228 0.037287667 -0.15031661 -0.045863356 0.34128362 0.16868566 -0.23873499 0.00164856 -0.07426732 -0.20312786 0.12092202 -0.117825724 -0.16907817 0.02935118 -0.115738206 -0.038060706 -0.36012465 -0.19474319 0.054044325 0.059091467 -0.24455251 0.043823767 0.012282324 0.26953632 0.21914849 -0.09098223 -0.026143927 0.15126272 -0.11161439 -0.067990325 -0.12785871 0.34318724 0.004464367 -0.15872239 0.05959093 0.006838053 0.14615488 0.021752296 -0.12852561 0.30765116 0.108315796 0.011121067 0.15040211 -0.35384306 0.11884162 0.11077297 0.11544015 0.22887146 -0.20161511 -0.076523684 -0.12661786 -0.09923963 -0.15991677 -0.25191605 -0.067058146 -0.014285225 -0.12111557 -0.008368464 -0.048682056 -0.14346038 -0.06879112 0.012508565 0.1527454 0.35263425 -0.09646763 -0.1056865 0.08102796 0.062387794 0.018358104 -0.0976679 -0.044205792 -0.06365569 -0.19626504 0.011117261 -0.08100029 -0.077872686 0.027519662 0.079384305 0.18391639 -0.23384745 -0.20713586 0.048469197 -0.13686348 -0.007919059
2596 -0.04565935 -0.050145235 0.04799294 -0.04988559 0.012711396 0.18193407 -0.04194258 0.14693293 0.100055695 -0.20096423 0.000996565 0.19197366 -0.15888186 0.13910054 0.0012416905 -0.10076737 0.053934142 0.055492353 -0.2806661 0.14396375 -0.118710965 -0.058016367 -0.06218806 -0.11328968 -0.16084789 0.36770618 0.0006080225 0.14603662 -0.06861964 0.22484805 0.1367158 0.086985484 0.04591455 -0.13715051 0.1132897 -0.025200674 -0.08684558 -0.080953136 0.1507089 0.09951287 -0.11280656 0.08052084 -0.09686114 -0.04155361 0.123851135 0.015469502 -0.27537167 -0.08135932 0.2222449 0.33416104 -0.021734139 0.16135967 -0.023106078 -0.27971533 0.061291587 0.052116808 0.0080712885 -0.087286524 0.031925626 0.017210323 -0.25263634 0.12839806 -0.07262862 -0.15429057 0.029796757 0.14515135 0.028451923 0.39131656 -0.14667326 -0.13834697 -0.1716951 0.05434565 0.029070418 -0.16708165 -0.23864095 -0.12098813 0.20381008 -0.25947928 -0.019289916 0.120853685 -0.08411827 0.062548414 -0.08983137 -0.048445757 -0.10772676 0.051630083 0.05383638 -0.4781717 0.03536411 0.023565207 0.003511044 -0.13421465 0.034840174 0.042918447 -0.014219887 0.10678702 0.24705099 0.040317852 0.07641379 0.13081855 0.33421794 0.02996609 -0.10404433 -0.24192367 -0.014653882 -0.1483943 0.009876074 -0.0036217927 0.2615051 -0.104561515 -0.29582962 -0.06900814 -0.043001685 -0.038172737 0.0905727 0.11883429 -0.020684695 0.09190181 0.05013418 -0.22239994 0.17587408 0.107579835 -0.17829165 -0.26557943 -0.39473417 0.0463348 0.10655019 -0.0037048133
2508 0.17395246 -0.20964009 0.2331342 0.12828952 -0.105106615 0.11277791 -0.08220846 0.2270819 0.27947572 0.12704317 0.25741655 0.08576509 -0.32453716 -0.16070308 -0.068097785 0.1435954 -0.121455446 0.27235466 -0.07689493 0.17383401 -0.1082826 -0.06308322 0.132376 0.017396914 -0.0009306837 0.077588595 -0.07193838 0.31882092 0.029935814 0.19301428 0.25167522 0.044656362 0.21164732 0.059183463 -0.3094213 -0.34239703 -0.098367535 -0.0848243 -0.022424953 0.06634267 -0.09172332 0.16898298 -0.100959234 -0.2284168 0.010361502 -0.0058732703 -0.19202338 0.067449205 0.1433343 0.117600754 -0.008520628 0.040909104 -0.26413086 -0.0153978495 -0.063732624 -0.13942394 0.09939697 0.20581383 -0.27161697 0.17038018 -0.08954143 -0.08904922 0.001968999 -0.18304832 0.031814273 0.02152481 -0.060783528 0.26814345 0.17327909 0.048795454 -0.019688131 -0.21547833 0.3617722 -0.098869234 -0.21616969 0.32755286 0.5328227 -0.24776438 0.147786 -0.09380775 0.061775133 0.14483956 0.16884542 0.37952352 0.23282976 -0.06535907 0.04465436 -0.5245475 0.0032786333 0.23613647 0.007663699 0.2352234 -0.10662355 -0.03748175 -0.16688046 -0.019422347 0.17259294 0.14223337 0.0019195784 -0.043214142 0.13898666 0.08307274 0.14271393 -0.014910143 0.13315159 -0.012114787 -0.17392075 0.042910304 0.17322716 -0.24267381 -0.010692135 0.026848242 0.20090987 0.08249879 -0.08880615 -0.09749563 0.0654603 0.21687222 0.22186638 0.052808903 0.13641052 0.0013813579 0.22809103 -0.10727916 -0.0788103 -0.15760542 0.058684472 -0.11074985
2561 0.15331669 -0.04330959 0.09635499 0.48660427 -0.27453 0.2719899 -0.024852563 0.15473165 0.020843353 -0.28865182 -0.47834247 -0.24428703 -0.21856403 -0.10160008 0.04535247 -0.16223128 -0.38036126 0.019524422 -0.4097731 0.1790723 0.20213991 0.28208253 -0.5132801 0.040219784 0.06696121 0.025285665 0.18162657 0.06676095 -0.26341686 -0.32026386 0.100617416 0.028018331 0.026302151 0.14363365 -0.26204827 -0.14766064 -0.36707202 0.08774029 0.07093736 0.07309783 -0.15142028 0.09199472 -0.09797076 -0.24332668 -0.22986484 0.46621677 -0.18416429 -0.12206917 0.10646201 0.19757 -0.27424437 0.21231875 0.2845772 -0.08983868 0.28193122 -0.151053 -0.13140595 0.3781625 -0.052849375 0.1296615 0.0061182384 0.13131884 -0.29129225 0.06765375 -0.1596177 -0.3842635 -0.26877102 0.518132 0.17165081 -0.5314757 -0.17765047 -0.14742737 -0.010480005 -0.42654124 -0.35656607 -0.18677491 -0.12915176 -0.35890308 0.4783461 -0.121714495 0.061857414 0.07200046 -0.2356295 0.108471796 -0.028548248 0.3594333 -0.03604331 0.034581564 -0.11393995 0.3442695 0.27178365 -0.08872334 0.27292922 0.13499533 -0.035897087 -0.16746593 0.1413401 0.038650345 -0.2888756 -0.15134886 -0.16906148 -0.037289172 0.22035542 -0.25528392 -0.057933275 0.40754426 0.035502955 0.023627533 0.41146225 -0.69278556 -0.3243031 -0.118757986 0.11750571 0.03371589 -0.24567308 -0.21137717 0.18225121 0.062752895 -0.1460949 0.09281384 -0.16008525 0.01870561 -0.0042743073 0.12569857 0.022240669 -0.19316444 -0.17406061 -0.29113305
2425 -0.007956293 -0.27559492 -0.06380621 0.23160344 -0.0053592883 0.030777391 0.010326282 0.04657724 0.20887303 -0.11662067 -0.18143557 -0.09178881 -0.10437223 0.14767034 0.08068535 0.4802958 0.13197042 -0.072900735 -0.21128586 0.03892853 0.23369287 -0.16234519 0.10831869 0.047149252 -0.005910382 0.1950316 -0.11770372 0.3385177 0.22573653 0.1909672 -0.015584325 0.040460896 -0.13756588 0.20764275 -0.028052013 0.1542381 -0.20256662 0.25200036 -0.028517185 0.0725432 0.25126573 0.060408305 -0.11954074 -0.20096442 0.0056676785 0.3424181 -0.18511261 -0.011372303 -0.057595454 0.1363459 -0.12780863 0.31056422 0.06567349 0.022777505 0.19749966 0.0027691077 -0.22348562 -0.16838819 -0.41566265 0.08147619 -0.17044502 -0.10051963 0.101646036 -0.06150547 -0.13632242 0.14006878 -0.0026606368 0.16187702 -0.21172827 -0.2210708 0.28608692 -0.12062755 0.29943228 -0.26844335 -0.13053763 0.019973867 -0.027122332 -0.10162177 -0.22250901 0.04375071 -0.061173666 0.081032 -0.27044946 0.20230693 0.038015503 -0.090370305 -0.39138493 -0.5786027 0.18593688 0.08839318 0.12533624 0.08559872 -0.046530843 -0.1607338 -0.13407537 -0.05601286 -0.1286542 -0.41327214 -0.26811114 0.029702729 -0.039415274 0.006171194 0.1120486 -0.15220344 0.024086677 0.10578582 -0.20544611 0.2935511 0.18658426 -0.15676564 -0.010086123 -0.03724852 0.34165093 -0.08366025 0.21258195 0.13947769 0.21911067 0.23012662 -0.18015322 -0.15895106 0.10952507 0.13534962 -0.017761376 -0.23122323 -0.094872475 0.2345206 0.02289096 0.16209304
87 0.16696924 -0.26920524 0.0017525587 0.14987919 0.05068043 -0.15677123 0.10685186 -0.11397189 0.13990217 -0.12636416 0.011562297 0.09738601 -0.09665952 -0.09929003 0.15777859 -0.00063670933 -0.07885567 0.15937959 0.075883985 0.09872041 0.031961817 0.093642555 0.07756638 0.24261528 -0.04537381 -0.0003505666 0.29368392 -0.18016416 -0.10403166 0.08892223 0.08887235 -0.11245351 0.09802943 -0.011711091 -0.02807895 0.04817473 -0.09089574 -0.1506112 0.066955805 -0.033833202 0.014660085 -0.12243118 0.09460341 -0.08582428 -0.09731095 -0.1587579 -0.24674481 0.23995937 -0.01847832 0.18045859 -0.004557499 0.020984905 0.2149512 -0.12766714 0.07594046 0.2134772 -0.13276693 -0.18964541 -0.13642195 -0.06700014 -0.32392275 0.021450782 -0.119593844 -0.0068171066 0.018466651 0.23110268 -0.08402388 0.18057008 0.087318674 -0.09591232 0.14824544 0.27600762 -0.00081045064 -0.10253637 -0.09665188 0.07834996 -0.07320151 -0.29770434 0.39666402 0.010133373 0.022543237 -0.08446108 -0.0040217293 0.14994484 0.0037669232 0.0071998974 -0.01023158 0.028782658 -0.21259467 0.057976566 0.2643006 0.09459282 -0.20009792 0.08238598 0.05755936 -0.27807853 -0.0033396303 -0.15052249 -0.09051706 -0.03859487 0.22241719 0.10980386 0.24349786 -0.15829958 -0.063121594 -0.058983877 0.04212968 0.15959226 0.080574 -0.13906765 -0.13958101 -0.13604705 0.38233244 -0.18804674 -0.0466108 -0.00019951555 -0.08083797 0.023038778 -0.041502908 0.04001769 0.33178875 -0.07277367 0.09132062 -0.13210747 -0.08200138 -0.056197587 -0.023962516 -0.064763896
359 -0.12675157 -0.012656237 -0.17097323 0.10730005 0.038308956 -0.037695073 -0.05339194 0.033421237 0.013354646 -0.22247136 0.06742846 0.19976027 -0.09607793 0.18084493 0.09748281 0.103257604 -0.1780714 -0.11639295 -0.26554266 -0.10614539 -0.09300773 0.052665584 0.006733509 0.07329799 -0.1767799 0.20951724 -0.014990745 0.021766165 0.15707135 -0.024162252 0.0021557533 -0.004607013 0.11916196 0.16781104 0.01674648 0.074903645 -0.14346525 -0.42059156 -0.032150578 0.10400459 -0.017637663 0.19230063 -0.1315753 -0.1689953 -0.062880784 0.25134966 -0.0687457 -0.18115507 0.07771334 0.05850982 -0.12276006 0.25877118 0.029665366 -0.1516797 0.06288137 -0.1832168 -0.2734741 -0.07540975 0.09108997 0.2218651 -0.011782779 -0.13985139 -0.321369 0.026423063 0.23185797 -0.29194286 -0.12581499 0.15170462 0.31271094 -0.3551252 0.09666276 0.03473198 0.20335443 0.04569659 0.09013717 0.41411102 -0.03570428 -0.2969179 0.08899218 -0.22861058 0.111075394 0.1464921 0.07204822 0.16832456 -0.03435094 -0.32442543 0.20863321 -0.118088 -0.104082614 0.05529384 -0.10254418 0.45245856 -0.24340354 -0.26160517 -0.09321786 -0.4298602 -0.04962715 0.213647 0.27920026 0.14670011 -0.04843964 0.09885741 -0.012962957 -0.13806884 0.14204171 0.073153205 0.05279641 0.037236765 0.11976753 -0.39137676 -0.22292638 0.06824932 -0.19536255 -0.03121315 0.0024314884 0.13409697 -0.064482145 -0.04092852 -0.1275584 -0.14065957 0.015673283 0.08994971 -0.33851898 -0.067828715 0.01836619 -0.04547505 0.07946073 0.08952114
164 0.09222323 -0.30836642 0.07268696 0.13843872 0.0457518 -0.1859951 0.044593547 -0.22539471 0.0889421 -0.07580823 -0.019015683 0.08815838 -0.09509432 -0.061472714 0.19067428 -0.05008863 0.011359347 0.18614896 0.12525941 0.07392047 0.088144325 0.14292063 0.118489936 0.21903953 0.019248318 -0.006068706 0.32428956 -0.15060653 -0.10623389 0.06492693 0.071215846 -0.06913146 0.03815679 -0.05479635 0.008124678 0.07812021 -0.1688249 -0.1355852 -0.027369352 -0.041089997 0.04895933 -0.11952404 0.121973366 -0.14580022 -0.050126407 -0.074709065 -0.1800697 0.18825452 0.051380407 0.09055528 0.0101206675 0.029943904 0.19923608 -0.15885586 0.106131434 0.26342827 -0.26724896 -0.13306116 -0.121494524 0.008654446 -0.29106706 -0.0038420476 -0.046365544 -0.04626206 -0.058282506 0.2203695 -0.16622928 0.20151113 0.13455288 -0.15299793 0.06690443 0.23970127 -0.0047636186 -0.1251915 -0.086880594 -0.049835145 -0.014102035 -0.21479474 0.3674242 0.08463715 -0.026404835 -0.069940194 -0.0068777516 0.1029737 0.022113187 -0.016379429 -0.009805955 0.08708329 -0.15108855 -0.0023076055 0.21843727 0.04203853 -0.22442959 0.054219197 -0.026532289 -0.20679764 -0.050718177 -0.043820497 -0.094567224 -0.053533 0.20708029 0.038511697 0.26296324 -0.20659675 -0.14638786 -0.016663706 0.056040496 0.1654078 0.10254347 -0.15515575 -0.18258913 -0.051652674 0.24440506 -0.13581179 -0.030557178 0.039426897 -0.10231139 -0.034001574 -0.07716688 0.017573554 0.36661512 0.041237824 0.052056205 -0.22487229 -0.101925895 -0.06652798 0.059863366 -0.030471904
278 -0.34246883 -0.24314122 -0.03385747 0.26335195 0.3373891 -0.11853789 0.16172846 -0.0033273902 0.021203855 0.05910637 0.11153923 -0.020732626 -0.21569204 -0.045485903 -0.07744873 0.06706203 -0.11917162 0.29649943 -0.4052842 -0.12780625 -0.02243626 0.05794523 0.16323623 -0.030590395 0.053929035 -0.08844743 0.3488721 0.29114446 -0.060806282 -0.1370456 0.2050629 0.065218784 -0.20598188 0.26075268 0.3655866 -0.18341239 -0.06503565 0.25645253 -0.33176726 0.15390658 -0.20635156 0.3415584 -0.18928297 -0.33323285 -0.05433924 -0.22254176 0.083013535 -0.031624656 -0.095016144 0.6650102 0.17263806 0.070318386 0.07625323 0.07359847 0.040234186 0.06837216 -0.14585988 0.12413457 0.111749165 0.3193684 0.042163614 -0.17917971 -0.1201517 0.23576683 0.2237814 -0.23169287 0.04348267 0.12258345 -0.08920877 0.04127044 -0.14384963 0.20776641 0.16489139 0.016991531 -0.05671547 -0.031751793 0.10890069 -0.056036137 0.06546238 -0.09349657 -0.04970457 0.042115726 -0.114218555 0.17624742 -0.0016984781 -0.25506246 -0.04255274 -0.24774513 0.08276182 0.137824 0.17907384 -0.010677813 -0.077081025 -0.15994139 -0.004528219 -0.15628517 0.24490947 -0.3334524 0.2776862 -0.09963177 0.09696761 0.22446749 -0.025432713 -0.11588388 0.053194806 0.37730238 -0.01733387 -0.10121493 0.21744515 0.2715026 -0.024377266 -0.087654166 -0.034018517 0.07857593 -0.030798797 -0.24738038 -0.09567086 -0.024226932 -0.06666256 -0.14538465 0.25499874 -0.13000984 0.060015026 -0.15050755 -0.3043649 0.029025592 -0.0051972754 0.020216221
1109 -0.0052069086 -0.1980443 -0.046032317 -0.14996535 0.25036758 -0.032249372 -0.1525853 0.20536774 -0.042313393 0.1440899 -0.07401357 0.12081853 0.27566585 -0.020640885 0.2133425 0.33921123 0.13404582 -0.15207674 -0.12974732 -0.16467549 -0.005943677 -0.324824 0.1675098 0.08219721 -0.1467671 0.33223364 -0.07440288 0.0345743 -0.027584095 -0.12192934 -0.04442356 -0.038569305 -0.13406736 0.24015683 0.047451228 -0.14742412 -0.19229771 0.10376822 0.08045108 -0.016124712 -0.31099653 0.037175544 0.1822847 0.17668277 -0.1883471 0.28669077 0.017876994 -0.08207592 0.14062323 0.010534951 -0.117550805 -0.01791482 -0.09162572 -0.3579573 0.15867773 0.11360705 -0.014982035 0.077732824 -0.14692692 -0.047732357 -0.06042137 0.034270357 -0.20052941 -0.032051336 -0.0052058063 -0.13295999 -0.08432728 0.017287843 0.18297186 -0.03585802 -0.13272342 0.10386553 0.14349549 0.057693426 0.0023054334 0.1509068 0.2692374 -0.18038158 -0.14973369 0.3085005 -0.080584124 -0.0066153486 0.1817813 0.06675621 -0.15841831 -0.010446133 0.10989171 -0.17945877 0.13580942 0.08562849 0.17397387 -0.1875606 0.050968334 -0.013110533 -0.05686377 0.0050944723 -0.032028627 -0.22908048 0.26106963 -0.057848282 -0.07550326 0.1349301 0.43583044 -0.15285063 0.37148568 -0.1297826 0.0017093859 0.006653937 0.009062313 -0.25934732 -0.009322817 0.055262443 0.03312965 0.025295045 -0.04797688 -0.2894817 0.09978435 -0.22799288 -0.28102583 -0.016861828 0.34278196 0.061149277 -0.16255581 -0.21520822 -0.07944388 0.05166519 -0.16942757 0.15438537
2532 -0.25289896 -0.004430462 -0.04908964 0.0712701 -0.06855195 -0.28780073 0.116182804 -0.20750593 0.09042947 -0.07372061 0.2271667 0.02121026 0.017603042 -0.10882903 -0.020015007 -0.015707372 0.177869 0.33399162 -0.0980755 0.2996921 0.2734287 -0.21472861 0.28238922 -0.2873648 -0.113378055 0.4441107 0.028638607 -0.017143259 -0.109960265 -0.25146878 -0.15655056 0.08152015 -0.23470409 0.19666928 0.03236795 0.16181041 -0.12693156 -0.22690414 0.1681298 -0.08431475 -0.26218715 -0.10502166 0.20489748 -0.2803791 -0.06262052 -0.076919325 -0.37787217 -0.028515404 -0.09531026 0.037477028 0.10688654 -0.016601533 0.07673114 -0.2448662 0.09916349 0.1356134 -0.17625983 0.2578109 0.05433179 0.37995416 -0.12422114 0.15913 0.04908394 -0.08823414 -0.23988663 0.1102394 0.006110225 0.017799705 0.13774733 -0.36241812 -0.13304211 0.12589557 0.24752818 -0.27104405 -0.102575615 0.083483346 0.0069147376 -0.30145174 -0.0083447285 -0.1400648 0.16893058 0.18462186 -0.008185355 0.3902798 -0.08520126 0.11397461 -0.17605573 -0.4269559 0.19894725 0.3448832 0.18681239 -0.01843354 -0.072746575 -0.4375896 0.22336881 0.063271135 0.29529998 -0.07162314 0.2818708 -0.039405342 0.146471 -0.3422312 -0.23110361 -0.061190367 0.17423582 0.30790162 -0.12849836 -0.020039422 -0.20479968 -0.3119097 -0.18926148 0.3689837 0.09349005 -0.124801956 0.28753808 -0.0004928217 0.13665684 -0.1464373 -0.020053549 -0.1678099 0.011221668 0.20682913 0.22240037 -0.31068864 -0.099899635 0.3123339 -0.0041769254 -0.050706025
716 -0.19218001 0.15558355 -0.32492995 -0.02591617 0.021669643 -0.00174613 -0.01739522 -0.026248371 -0.13924278 -0.06663588 -0.054064475 -0.07893121 -0.0024675378 0.048804518 0.34451976 0.09110206 0.2584466 -0.03377906 -0.16022825 0.16740815 -0.05224798 -0.17735767 -0.15259136 -0.18546385 -0.12987116 0.29690585 -0.2118286 0.03080029 0.12872867 0.10501898 -0.13531207 0.22082353 0.014006085 0.09206975 -0.035805218 -0.09483948 -0.07337901 0.1542863 0.1162326 -0.0709239 -0.24077366 -0.20696421 0.15668198 -0.10482703 -0.051985968 0.09927208 0.099765755 -0.14438425 0.038007554 0.36353713 -0.10736558 -0.029583827 0.22755784 -0.18147221 0.2878128 -0.24694385 -0.059884433 -0.042176977 -0.22408976 0.06995008 -0.0683081 0.3188711 -0.059101492 -0.071118526 -0.053426065 -0.08237914 0.066645235 -0.18131544 0.18797788 0.13306554 -0.085081086 0.09710814 0.15368822 0.117889695 0.16121216 0.117564686 0.08312999 -0.32352376 0.02163101 -0.1198555 -0.08319488 -0.12738337 -0.054736253 0.16297278 -0.05225591 -0.15607724 0.063937865 -0.111816645 0.01909898 -0.031410087 0.17161784 -0.0942348 0.10744185 -0.04122022 0.26568785 0.14976317 0.25136253 0.22041783 -0.07897023 0.06968243 -0.1415476 0.004375501 0.34746018 -0.059129752 0.17314656 -0.0172272 0.139278 0.062447254 0.31887922 -0.27542007 -0.094115354 -0.053511225 0.16234055 -0.11622007 0.122032814 -0.1761881 -0.18744999 -0.08730152 -0.08397408 -0.20853417 0.30414063 0.07918856 0.016616452 -0.20141219 0.045058645 -0.02031235 -0.13200536 -0.004836304
720 0.1335186 -0.1452288 -0.21714285 0.38566643 -0.031966712 -0.10875959 0.37011087 -0.30330795 0.12090958 0.006916168 0.062022828 0.26125368 -0.0120641105 -0.025188953 -0.06748354 -0.13554738 0.017110022 0.14023587 -0.23883592 0.4027928 0.05080124 0.2785927 -0.050283905 -0.11415911 -0.02846497 -0.061558343 0.06730178 0.018152166 0.2324939 0.034048975 -0.2176845 0.07107292 0.33419028 0.064673126 -0.1157432 0.010077358 -0.16175385 0.21021871 -0.0060758423 0.10063802 -0.106280506 -0.3427096 0.018631827 0.037677787 0.10219826 0.20880227 -0.016918994 0.085787855 -0.17528738 0.4813016 -0.27065653 -0.10694039 -0.0068206275 -0.36399525 0.30573806 -0.17326576 -0.25794598 0.37226015 -0.08026109 -0.26032224 -0.49759978 0.06821652 0.066280805 -0.43606025 -0.066169254 0.010817457 -0.18386385 -0.19209774 0.07856094 0.052255385 -0.25679028 0.221623 0.16176897 -0.105458535 -0.17806754 0.10451348 -0.04586216 -0.1811633 0.037983924 -0.10100856 -0.14898072 -0.072801836 0.12577693 -0.045203917 0.22614285 -0.09422046 0.007808562 -0.42443123 0.08949759 -0.08508597 0.08635408 0.05962354 0.18032493 0.1618482 0.16144322 -0.120943315 -0.23511271 0.086125776 -0.08026008 -0.09467317 0.09018363 0.28601348 0.37110206 0.21005611 -0.12614335 0.19685782 0.07223147 0.14705718 0.28420347 -0.23232889 -0.04797142 0.22102325 0.33466676 0.02944935 -0.27523598 -0.2988483 0.16801994 -0.078112625 0.18752395 -0.15144154 0.39518732 0.2445614 -0.16531482 0.02296333 0.069365725 -0.20235533 0.06392934 0.23617017
637 0.10598216 -0.30702633 0.044644807 0.027085457 -0.0024996335 -0.15653633 0.04722459 -0.28012764 0.07892636 -0.1104298 -0.06866131 0.12807767 -0.16302216 -0.01069664 0.103297934 -0.042824097 0.15797164 0.20779674 -0.001408475 0.08433519 0.034906533 0.06274354 0.1429023 0.17529733 -0.066329286 -0.0110028805 0.35920846 -0.021663882 -0.085510574 -0.025940001 0.131368 0.037354954 0.030416867 -0.07464946 -0.04616111 -0.08421907 -0.102118276 -0.14064667 -0.08768773 0.013309158 -0.0860172 -0.03859393 0.17574139 -0.10985164 -0.040871456 -0.15774578 -0.13022518 0.12432385 -0.0804659 0.0017274731 -0.11092154 0.15064767 0.1946733 -0.09693942 0.009280326 0.2272094 -0.07595544 -0.040263414 -0.0051259357 -0.040024195 -0.2793041 -0.018021569 -0.09541417 -0.057612266 0.019364387 0.33761543 -0.16616976 0.06574012 0.08971107 -0.044441998 0.06602484 0.29716483 0.037604716 -0.10809825 0.044722695 -0.041488178 -0.031499587 -0.21612886 0.42455834 -0.0069155055 0.010271303 -0.06607871 0.11896815 0.1939691 0.03423747 -0.0038910478 0.08182184 0.13861749 -0.13990287 -0.12976274 0.23517111 0.09798384 -0.1702854 0.02711452 0.077072546 -0.2541336 -0.16585733 -0.11323458 -0.02454151 -0.05233503 0.01077074 0.088757254 0.20740214 -0.119340256 -0.06982837 -0.09693921 -0.035930097 0.19510302 -0.027586391 -0.114505894 -0.068285376 -0.078747086 0.06664403 -0.07961671 0.038921323 0.038090326 -0.099046044 0.021669237 -0.13363199 0.073247924 0.5120253 -0.05493081 -0.028033108 -0.24426736 0.030569697 -0.2820684 0.2914752 -0.04815332
120 -0.09747226 -0.251516 -0.22886622 -0.098877676 0.23354311 -0.13860898 -0.15718262 -0.021922361 0.15440169 -0.039696727 -0.10156701 -0.062458806 -0.11355851 -0.053860728 0.14004697 0.12711704 0.0149592655 -0.1408949 -0.09843823 0.45195672 -0.29695034 -0.27064228 -0.12741701 0.009430869 -0.08195939 0.27380896 0.0934255 -0.07310146 0.16994686 0.08115552 -0.083045125 0.0007597175 -0.2248892 -0.113262 -0.10601455 0.10976723 -0.100606754 -0.10889798 -0.37109593 0.3471075 -0.3158796 0.31838593 0.06768115 -0.22516769 0.19468747 -0.025641864 -0.13224752 -0.027426122 0.16767353 0.2689476 0.0046178037 -0.03367893 0.002166828 -0.08281696 0.15830477 0.106964774 -0.06675379 0.10034563 -0.0045885937 0.121676944 -0.12881431 0.1681589 0.1377225 -0.049832925 0.20553899 0.01827184 0.10542278 0.13702671 0.16232045 0.19126575 0.22389519 0.058842774 -0.37206286 -0.30820194 -0.08512996 0.21845046 0.14307891 -0.15110677 0.081460066 -0.15509817 -0.0930412 0.2063268 0.20623156 0.1807296 -0.36814097 0.19228111 -0.060533725 -0.27483198 0.13399236 0.14241415 -0.046665408 0.09987167 0.01915977 -0.25137383 -0.14594759 -0.35037482 -0.02700845 0.10435539 0.10832784 -0.0012433354 0.15078191 0.31910378 0.19750558 -0.24572803 0.19199687 0.08336585 0.076715186 0.10667558 0.24476871 -0.02727701 0.09387319 -0.014760428 0.029082492 0.04062109 -0.07277952 -0.33172205 -0.001970497 -0.09963364 -0.086498775 0.0012848377 -0.08825631 -0.20628111 -0.20289792 -0.05329681 -0.12763171 -0.10469222 0.019845502 -0.13574208
137 0.16733648 -0.25876772 -0.0029888684 0.09580656 -0.06294246 -0.09932082 0.062036034 -0.28757638 0.10446246 -0.1486409 -0.10894268 0.09148473 -0.18702003 0.012355117 0.13574137 0.035257574 0.09890185 0.1381982 0.016980447 -0.002647859 0.097770706 0.013904955 0.11577812 0.22473902 -0.06373098 0.094769746 0.3912133 -0.06431765 -0.14258154 0.067431524 0.15070593 0.10227962 0.038601916 -0.06524035 -0.005748527 -0.16156442 -0.121624716 -0.08980765 -0.050879486 -0.032378126 0.034259066 0.0010214148 0.123221256 -0.09157237 -0.09605422 -0.1885379 -0.18595785 0.0750223 0.020672202 0.16139233 -0.058178414 0.16585803 0.22411756 -0.12440628 -0.024552241 0.26955894 -0.052104995 -0.010055849 -0.13977322 -0.05664137 -0.29702732 0.008564782 -0.23184675 -0.10274393 0.00422947 0.30779725 -0.14900517 0.04275925 0.013592333 -0.13871677 -0.019409785 0.24218023 0.09969373 -0.05557674 -0.0136430105 0.009446192 -0.09527534 -0.20558015 0.4664945 -0.08564025 -0.07933202 -0.17668268 0.01068556 0.013222722 0.018697033 -0.016316233 0.058043752 0.1068314 -0.16931996 -0.07255186 0.20938928 0.18935475 -0.102183685 -0.035739623 0.071784295 -0.24331409 -0.082761526 -0.17802364 -0.09585427 -0.13966462 0.01018655 0.06749014 0.24734712 -0.14985105 0.0030202416 -0.06696507 0.036617268 0.13065268 0.055803295 -0.0494181 -0.16912046 -0.13660471 0.19176511 -0.124582596 -0.035360646 -0.0009516249 -0.04980251 0.030331343 -0.109250106 0.086361654 0.39236525 -0.046916433 0.025019737 -0.16553889 -0.006522523 -0.11892342 0.17177853 -0.03622753
138 0.1892697 -0.29479182 0.078581125 0.06641612 0.034981932 -0.11118325 0.096856 -0.11077706 0.033474434 -0.038671974 -0.19274093 0.07698158 -0.100218676 0.034262713 0.10990277 0.10449048 0.09505357 0.11904085 -0.011643585 0.06508895 0.09883589 0.09763467 0.10087977 0.14978339 -0.060381148 0.033555783 0.3897601 -0.061274834 -0.0004362817 0.016464945 0.112365 -0.044426743 0.06344021 -0.07266144 -0.019855188 -0.039172903 -0.26214126 0.018263439 -0.09194714 -0.028248245 -0.047710154 -0.07421404 0.12555121 -0.11758934 -0.05322857 -0.18736638 -0.024955766 0.09994655 0.002132862 0.13045792 -0.14717604 0.17089106 0.22803663 -0.12529299 -0.056842227 0.19226266 -0.23631571 -0.011856081 -0.17364956 -0.060658 -0.29646176 0.07312198 -0.05105191 -0.16948606 -0.042118467 0.322635 -0.15387614 0.15040858 0.12584558 -0.078540385 0.1599769 0.21673909 0.036702562 -0.021969365 0.093378425 -0.04737222 0.036433294 -0.25198498 0.38079157 0.015650747 0.018064955 -0.035454597 0.035860624 0.13828251 -0.0017681995 0.07535868 0.002804282 0.10438503 -0.14451319 -0.13427576 0.20221902 0.16835478 -0.15359396 0.12850289 0.07030876 -0.29114667 -0.05854397 -0.16175374 -0.009058873 -0.058497384 -0.034478378 0.15372722 0.19516942 -0.1611701 -0.0535975 -0.11133825 0.04385714 0.0066902232 0.021380313 -0.14823656 -0.019463312 -0.13781619 0.16752677 -0.08562627 0.07555976 0.07364537 -0.0764819 -0.003825896 -0.08690149 0.20196654 0.39402008 -0.09081309 -0.032904215 -0.23956588 -0.032412246 -0.2153002 0.2636147 -0.1454104
1067 -0.07195009 0.03822638 -0.03666079 0.15491885 -0.29453757 0.26452705 -0.067494266 -0.114921056 -0.050566126 0.09157309 0.109189585 -0.15958297 -0.3139505 0.15076822 -0.007745828 -0.014345856 -0.020450316 0.15196617 -0.043236636 -0.00025606266 -0.16495895 -0.09185456 -0.09112335 -0.15071157 0.07291785 0.17277595 -0.112466626 0.0025411178 -0.12010389 -0.14934057 -0.1437096 0.051973004 -0.13039592 0.23644789 0.08415601 -0.12941255 -0.3009544 0.04822483 -0.2260459 0.0037093996 -0.03527068 -0.005457061 0.23253383 -0.008935522 0.05549081 0.010310225 -0.08593425 -0.3607238 -0.067355864 0.03643709 -0.10067271 -0.07671499 0.060254525 -0.10805347 -0.077396914 -0.09521209 0.14763863 0.18101278 -0.13436487 -0.04242537 -0.1944569 -0.06187254 -0.06819458 0.040849466 0.0056024706 -0.12039848 -0.029342923 0.15179591 0.0063788006 -0.028706415 0.17340341 0.06425673 0.046042632 -0.01951151 -0.10059801 -0.061837185 0.15081087 -0.3096364 0.003413464 0.12132556 0.0054837214 0.11825569 0.12931758 0.17648079 0.16660373 0.004202952 0.042776644 0.01148678 0.19903901 0.05498589 -0.016223261 -0.13785107 -0.077268034 -0.026682692 -0.041999944 -0.048317656 -0.09029333 -0.2429716 -0.3008339 0.004912419 0.17367828 -0.11323299 -0.12621324 -0.077577606 0.082834326 -0.09602431 0.08986768 0.06303444 0.05720206 -0.059329662 -0.19858642 0.16018398 0.17245084 0.10277778 0.111724526 0.12076131 -0.11323257 0.053522024 -0.10942406 -0.26041403 0.37104836 -0.06704161 -0.03602837 -0.090453185 -0.2257538 -0.15320624 -0.09129785 0.015797077
12 -0.09026214 -0.04545482 0.19644348 0.304373 0.093255825 0.058310077 0.2612188 0.06776927 -0.23801929 -0.099414155 0.07625838 0.237566 -0.051951695 -0.39085054 0.3370841 0.12862441 -0.020730585 0.28734437 -0.115448244 0.12936316 -0.206256 0.039160207 0.024857134 0.21676502 0.12120642 0.2596653 0.37146756 0.10871108 0.3018412 0.10049493 0.14038804 0.23231591 -0.13496877 0.20677349 -0.07523239 0.100271545 0.061997533 0.04048228 0.070645295 0.25752836 -0.20424998 -0.0295196 0.2405305 -0.14180149 0.39207417 0.172975 -0.07414029 0.17646007 0.22988938 0.166322 0.11696271 0.001864349 -0.014984043 -0.12395114 0.07017695 -0.23677112 -0.10047006 -0.13589942 -0.07706599 -0.07513768 -0.28739977 -0.03720434 -0.15132649 0.06907031 -0.058023512 -0.042217072 0.07320146 -0.24615933 0.047091104 -0.0003483612 0.019641051 0.046473667 0.0148461675 -0.115133 -0.34805602 0.20834449 -0.15258197 -0.2649734 0.015875392 -0.07866156 0.02434825 0.28093383 -0.04826149 0.34553808 0.034620054 0.17013606 0.2806567 0.019220466 0.124717034 -0.0027576592 0.005093218 0.08917297 0.110369734 0.09997124 0.3420698 -0.17638005 -0.29584503 0.042931918 -0.041040517 0.1045868 0.17019239 0.1570623 -0.03927672 -0.13043109 -0.2471097 0.05120101 -0.10478934 -0.10145615 0.19230503 0.02836876 0.1487594 -0.22247426 0.5432604 0.032356206 0.23914117 0.17865857 -0.16979907 0.2129946 -0.1979484 -0.06441691 0.09523905 -0.10498295 -0.09639116 0.09087068 -0.054450393 -0.046783093 0.01720041 0.031236794
2622 0.15051244 -0.15483223 -0.07736333 0.14771335 0.025210144 0.09715838 0.14973581 0.18103954 -0.001167563 -0.29021016 0.1591496 0.07631769 -0.11701688 -0.029526928 0.044744685 0.006994937 -0.15239298 0.1229589 -0.23239867 -0.14488196 0.10063771 -0.16951779 0.012216644 -0.09357119 -0.22296456 -0.023208681 -0.0044605066 -0.10215229 0.12659624 -0.005675031 0.26363337 0.075522736 -0.09070532 -0.090793364 -0.12244416 -0.14772794 -0.4093126 0.22228596 0.06571473 0.18466005 -0.24853939 0.13847181 0.16114655 -0.27030048 -0.07695326 -0.25918475 -0.2001612 0.008584522 0.1486703 0.017211216 -0.026361037 -0.1597752 0.090562135 -0.27927616 0.13800965 -0.35359424 -0.08927048 -0.15999502 -0.03417264 -0.1644968 -0.24422948 0.014029354 0.34685224 0.19391686 -0.05661153 0.18280414 -0.06682722 0.19587304 -0.26489896 -0.33196506 0.03049771 -0.1813235 0.046145197 -0.011693309 -0.087085344 -0.14982024 0.14094412 -0.1691761 0.05301154 -0.25432724 -0.05155145 0.14553194 -0.10152988 0.0725276 -0.19863668 -0.41548902 -0.17768538 -0.21263665 0.124246664 0.19658461 0.12052763 -0.102639094 -0.3377803 -0.18581234 0.065585755 0.10960377 0.13441673 0.17232138 0.14340104 0.1451078 0.2671291 0.13402446 0.10530757 0.09848973 0.051519204 0.0554852 -0.07854986 0.11312879 0.26318866 -0.2631112 -0.4098694 0.16615057 0.17945084 0.11567511 -0.10170379 -0.25375906 -0.06129343 0.05431565 -0.17556524 -0.13148847 0.07316011 -0.035855323 0.049338184 -0.06977652 -0.20735039 0.27206314 0.17378302 -0.19729842
22 -0.1943217 0.06685389 -0.013217668 0.18067458 0.056588046 0.5163579 0.05615729 0.227744 0.29711494 0.061794724 -0.3700023 0.29863638 -0.13154002 -0.2345458 -0.013275009 0.118915476 -0.019799905 0.081560194 -0.33182287 0.3112512 0.05008707 0.2300135 0.03399575 0.3657542 -0.12992488 0.19076692 -0.06439899 0.019639505 0.14619578 -0.027337614 -0.48432982 -0.0731672 -0.07423707 0.08111945 -0.17317297 -0.108631365 -0.15744306 0.018940922 -0.07213878 0.28854877 0.116692245 0.009114367 -0.3189916 -0.3605157 0.037934713 0.03919862 0.03960462 -0.11257146 0.26134056 0.075194135 0.048941653 -0.13750312 -0.1828712 -0.44897637 -0.0506079 0.15153891 0.51606125 -0.14308426 -0.18144602 -0.17408259 0.18590671 0.23139477 -0.03649487 0.28466168 -0.33511636 -0.24515341 -0.077825956 -0.16318348 0.27522576 0.13199271 -0.09149884 0.16300648 0.2916984 -0.18463334 0.2911648 -0.20886236 0.057052884 -0.018206494 0.04299376 -0.18490905 0.003407524 0.049952712 -0.15337853 0.6614501 -0.3240157 -0.04312612 0.18691197 0.092718385 -0.10196242 -0.04255739 -0.066645734 0.0517755 -0.22409788 -0.004066254 0.21023943 -0.22165157 0.11489463 -0.3184383 0.18047413 0.06158732 -9.399625e-05 0.06857348 0.022174817 0.15618546 0.12991178 -0.15436769 -0.23264739 0.27358085 -0.016060846 -0.37352175 -0.2886839 0.18797104 0.051100384 0.12011923 -0.2347066 0.061494615 -0.05463369 0.47685415 -0.40681273 0.16434509 -0.19311987 -0.33325136 0.013879682 -0.60283035 -0.10563674 0.09968272 -0.061122634 0.17021713
397 -0.25819787 -0.11713606 0.075808086 0.21834254 0.27337256 -0.27418697 0.114714324 0.23113829 -0.27095518 0.109708354 -0.21486533 -0.03957056 0.018219596 0.029525215 0.028105438 0.10627258 0.30903006 0.087135985 -0.32171363 0.31208012 0.18309426 0.22917023 0.022218505 -0.056025576 -0.09006271 0.13948925 -0.32275668 0.37889886 0.13976619 0.10358202 -0.08534088 -0.050934143 0.13046277 0.06466553 0.073874965 -0.25002047 0.0063277152 0.15358527 -0.09679029 0.16484855 -0.41541728 0.1281051 0.0419914 -0.11139622 -0.10011979 0.09927599 -0.12975572 -0.11746098 0.09486831 0.17789683 0.012459089 -0.09177133 -0.028080208 -0.19624 -0.087342866 -0.061876725 -0.12232499 0.05301599 0.07878582 0.008726217 -0.29219776 0.037105303 0.08207369 -0.090308264 -0.122779965 -0.06295583 -0.0869572 -0.074866526 0.108446606 0.032952815 -0.31805816 0.15453766 -0.022032302 0.1359343 0.051630445 0.4009019 0.0023953891 0.07868155 0.23102792 -0.07197285 0.17995293 -0.10259947 0.072261214 -0.23343788 0.09337032 0.071557365 -0.17290422 0.20603602 -0.10272576 -0.10959495 0.16662534 0.13112253 -0.29918718 0.06407315 0.052521076 -0.020350616 0.065129295 -0.3866595 -0.020847015 0.3706449 0.43855226 0.03404043 0.07124831 -0.092465445 0.21512273 0.12504901 -0.110363245 0.14983405 0.4132323 -0.05303598 -0.054602537 -0.036474902 0.1180899 -0.05349796 0.15175761 0.08201352 -0.102993205 -0.19668084 -0.2753536 -0.07929249 0.16480388 -0.13667676 -0.24911092 -0.268582 0.12016203 -0.15328175 -0.106272556 -0.26255095
2419 0.15494482 0.20622794 0.07416034 0.17400225 -0.35151303 0.14701806 -0.008163251 0.27310285 -0.075489655 0.07058064 0.05959558 -0.11311961 -0.17784624 0.2381942 0.20333488 0.16394123 -0.028563028 0.004171652 -0.07520465 0.07821771 0.12629089 -0.21075298 0.24178681 -0.07442306 0.054118223 0.25225794 -0.041217998 0.1390123 0.07182674 0.122334905 0.16552757 0.037388794 -0.25459176 0.13681804 0.19276538 -0.15565765 -0.30577803 -0.062351953 -0.11393314 0.009109848 -0.07362346 0.057450064 -0.05921182 -0.29254636 -0.2460903 -0.1142747 -0.051328722 -0.050367035 0.10495024 0.35039416 -0.17323424 0.14223722 0.21792106 -0.29466337 -0.1456236 0.11452323 -0.014650764 0.13166489 -0.16321121 0.14056337 -0.1779246 0.04233598 0.20267065 0.09680306 -0.09215694 -0.16835731 0.038750272 0.27039444 -0.16725565 0.079553984 -0.17986289 -0.09681232 -0.023541192 -0.06444272 -0.29516798 0.1532068 0.35487556 -0.13617192 -0.05601104 -0.18085054 -0.23621246 0.19200848 0.25274473 0.3665827 0.04888645 -0.028621862 -0.063397944 -0.20954013 0.025754482 0.22189142 0.1005512 0.3550363 0.081613116 -0.088932075 0.09068415 0.06289077 0.05897043 -0.07150995 -0.17694485 -0.20263492 -0.098352455 0.07151629 -0.1519652 -0.28426662 0.20861247 0.025236528 0.032593716 0.0895392 -0.06085592 -0.17958663 -0.08796911 0.27856457 0.024061844 0.0350435 0.042412467 -0.015577134 0.0542134 0.02432 -0.13205063 -0.036999483 0.15288495 -0.027206896 -0.09167188 0.047930166 -0.054541707 -0.19742486 0.06840906 -0.14871475
166 0.14198962 -0.27003908 0.08773174 0.071624786 -0.018828785 -0.13259992 0.15664774 -0.17280193 0.12698595 -0.040662862 -0.10803241 0.088793576 -0.21106566 0.039957784 0.10040015 0.044394016 0.13028906 0.14239922 0.054928638 0.083542846 0.058166474 0.06493358 0.13522246 0.14063664 0.035601247 -0.03836591 0.4081924 -0.11114421 -0.14306198 0.050971813 0.07900701 0.07200667 0.17944135 -0.024891524 -0.07767706 -0.17573714 -0.16716605 -0.046941116 -0.08167013 -0.11805476 0.009930164 -0.09153271 0.10828087 -0.15251935 -0.13739 -0.11309358 -0.08209398 0.15851308 -0.03254139 0.090091 -0.08055622 0.09718656 0.26113978 -0.20915635 -0.06355598 0.1507154 -0.18733104 -0.06800965 -0.09289298 -0.06840508 -0.28191403 0.05092197 -0.14113244 -0.07612134 -0.07454098 0.2875795 -0.14202416 0.08131538 0.03313468 -0.06854517 0.046360895 0.18286546 0.09777805 0.00034417273 -0.033177372 -0.028617846 0.0046943747 -0.20173845 0.40135425 6.9243295e-05 0.019457854 -0.17177919 0.024519576 0.2508892 0.039311975 0.054925434 -0.011202667 0.09333455 -0.24616438 -0.14989018 0.20299464 0.26184344 -0.17881577 0.08021849 0.04320466 -0.24592082 -0.09460255 -0.07412766 -0.06646025 -0.12613188 0.052496422 0.078380466 0.26296988 -0.25947687 0.05850123 -0.06345165 0.03862133 0.115391836 -0.058377888 -0.15918209 -0.11784185 -0.09464701 0.2207501 -0.044864655 0.0739383 -0.05632784 -0.03998086 0.02804987 -0.09525612 0.16921766 0.36692518 -0.13513355 0.042521186 -0.2621362 -0.055099383 -0.10941681 0.14486653 -0.10065831
56 -0.29843295 -0.040294565 -0.06457688 0.23503795 0.30831832 -0.16435324 -0.004192715 -0.21709217 -0.17273949 0.12549336 0.07091087 0.10860055 -0.08540778 0.12220367 -0.0780028 0.1702948 -0.3073667 -0.022667719 -0.0775823 0.0445633 0.08915922 -0.34463656 -0.11898456 -0.027629161 0.059640568 0.13484648 -0.05349256 0.26229867 0.14288166 0.043741696 -0.017743832 -0.09109583 -0.017762367 0.014099206 0.02371378 -0.1501412 -0.23333436 0.12753803 0.06277248 -0.14005944 -0.19585745 -0.004283387 -0.08710177 -0.2689689 -0.18802026 -0.16249987 0.07520286 -0.048956394 0.18645743 0.09527515 0.17896214 0.025076525 0.28364986 0.106517695 0.18618852 0.06287547 -0.17513451 0.178801 -0.1505121 -0.21039253 -0.03770572 -0.2150482 0.2196509 -0.08948725 0.13873321 -0.17418309 0.0464438 0.26082695 -0.027030827 -0.10020884 0.0099407025 0.197039 0.14975423 -0.16393495 -0.015434322 0.05832971 0.12988068 -0.19629619 0.07094545 -0.0710315 -0.066041455 -0.19515383 0.23461348 0.17090678 -0.08054638 -0.15409784 0.15119916 0.12638836 0.0037630312 -0.061366115 0.15182102 -0.0054219626 -0.0995666 0.1180657 0.10383983 -0.12172666 -0.048768327 -0.13691911 -0.07421231 0.2315312 0.10426104 0.29336935 -0.15954591 0.16219935 0.32574874 -0.056611292 0.0018212375 0.08829925 0.20821366 -0.22569601 0.22633982 0.26444408 0.08090292 0.07773215 -0.15852398 0.077415235 -0.25696158 0.04811601 0.083923526 0.0151942335 0.055615164 -0.0667699 -0.07842913 -0.18638 -0.38061696 0.061564557 0.054654695 -0.044794302
424 -0.11620866 -0.031818856 -0.23349965 0.13298067 0.008890048 -0.11653878 0.07497497 -0.20629932 0.028968744 -0.13060704 -0.064882554 -0.11167436 0.29653162 -0.10313985 -0.17233616 0.046937563 0.2287246 0.11176353 -0.47304222 -0.1324659 0.028453257 0.08757334 0.19942728 -0.046127994 0.15524842 0.071019374 -0.12083453 -0.0028218343 0.14370762 0.21124218 0.13251765 -0.19037637 -0.3443942 0.11183968 -0.22248843 -0.046292305 -0.23233731 -0.0719419 -0.47086886 -0.09875627 -0.08377236 -0.023056235 -0.08025228 -0.39975348 -0.020013606 0.033700936 -0.27898848 -0.21303843 0.06894443 0.11724975 0.008170383 0.08567834 0.1872923 -0.15644854 -0.09779928 -0.033018246 -0.112149194 0.13197327 -0.3312142 -0.27493733 0.05574211 -0.06999862 -0.081188686 -0.06801634 0.50106585 0.07616091 -0.13156162 -0.03741737 0.05042824 0.36564165 -0.042329483 -0.32642034 0.22488585 0.014323323 -0.049998354 0.1225165 0.4438707 -0.10862729 -0.14223447 0.22926559 0.282716 -0.13414039 0.29956615 0.25589707 -0.37462988 -0.08981718 0.031775434 0.107036024 0.46948436 0.1747191 0.23609981 -0.27561247 -0.11576184 0.05910876 0.2221416 -0.11260924 -0.5104586 -0.21493869 0.0074553164 0.09835677 -0.2501962 -0.25533256 -0.1409837 -0.17711145 0.113852665 0.19677474 0.055637468 -0.2260981 0.2830911 -0.07274789 -0.08487223 -0.29555547 0.30431867 -0.21476959 0.058992293 -0.003130898 0.10532731 0.4170249 0.042495444 -0.21619679 -0.00088168884 -0.033905335 0.13559559 -0.23383346 -0.1750869 -0.3769692 -0.2445373 -0.017809883
289 -0.021701703 0.0028408447 0.023190642 0.10375879 -0.06409404 -0.15552968 0.082002446 -0.022065964 0.023035144 0.051628444 0.08946216 -0.033021398 0.12916964 0.11858704 0.207772 -0.06985863 0.089993425 0.21777877 -0.29738507 -0.20218688 -0.05650525 0.072475396 0.17928989 0.13633329 -0.1753612 0.299974 -0.15920131 -0.03512162 0.1704595 0.15081172 0.28840548 0.010364664 -0.14763793 -0.044910155 -0.07407586 0.2704585 -0.14868462 0.044740867 -0.19276117 0.28312322 -0.23898385 0.22347632 0.08527931 -0.25714874 0.15886918 -0.07479132 -0.20453477 -0.005055745 0.04838727 0.43639502 0.25389197 0.28688523 0.08340081 0.0016690365 0.23718885 -0.06465579 -0.2670522 0.20766139 -0.091489375 0.056528848 0.009762706 -0.22313814 0.1652154 -0.106481 0.36416754 -0.01536236 -0.17713201 0.27467388 0.17976438 0.15442152 0.176679 0.11305683 -0.010968267 -0.15762034 -0.14080717 0.08884997 0.22428295 -0.30772072 0.11644269 -0.06486146 0.25189084 0.013934589 0.1277351 0.16552772 -0.3249373 0.01328905 0.2356838 -0.1137391 0.26078224 0.22554693 0.26398778 -0.16978438 -0.029442389 -0.18213367 0.005474982 -0.11572189 -0.19148345 -0.13666451 0.2065629 0.069694206 -0.058643024 0.036620647 0.02370558 -0.08901658 0.034821115 0.5231606 0.11975879 0.04129096 0.21053757 0.0101156905 -0.11002913 -0.00022470891 0.21118562 -0.14892387 -0.16564213 0.12882929 0.048774675 0.1191696 -0.25746015 -0.20790723 -0.16833714 0.065923125 -0.09696756 -0.022009507 -0.2893697 -0.33652094 0.06460005 0.062853545
13 -0.049198836 -0.104868725 0.20413741 0.26613268 -0.01406848 -0.023659293 0.18724152 -0.0044524292 -0.2633959 -0.059350148 0.09721066 0.19323133 -0.035765864 -0.41413882 0.35888952 0.1806986 0.017941818 0.29541475 -0.0838922 0.031167466 -0.042733178 0.03380616 -0.0857459 0.1891293 0.22767083 0.23020616 0.36018133 0.051648118 0.3446487 0.09977162 0.07808161 0.19115369 -0.20252071 0.30638522 -0.08950332 0.08284388 0.0025229182 0.14638607 -0.038547087 0.18086962 -0.18506034 -0.1416763 0.23527893 -0.054981433 0.36050662 0.2743829 0.04239562 0.13231927 0.2206354 0.08855364 0.05986684 -0.016421061 -0.0014250608 -0.17199653 0.09344825 -0.18552944 -0.15853675 -0.06759816 -0.13550606 -0.03920542 -0.26837242 -0.07642842 -0.17375085 0.09123014 -0.16724996 -0.14836794 0.049305752 -0.26877183 0.08292862 -0.07661 -0.008705824 -0.018501103 0.024863714 -0.09332758 -0.33472645 0.1548349 -0.15452527 -0.26303437 0.12677528 -0.10687224 -0.050445218 0.25271848 -0.14601402 0.3404412 -0.012931999 0.17453893 0.1795089 0.14117536 0.1414168 -0.0429343 0.031981844 0.093455985 0.10395393 0.13215503 0.38543633 -0.14886867 -0.3303956 0.1019393 -0.07191201 0.03694203 0.14666016 0.20092884 0.017710531 -0.12814151 -0.23097283 0.06688449 -0.014523872 -0.12791118 0.2742568 -0.06065947 0.11483326 -0.2678351 0.45969722 0.070292085 0.19435188 0.06319719 -0.12402135 0.21201363 -0.19060099 0.0066244453 0.08045084 0.012636586 -0.08231835 0.038339056 -0.00966863 -0.041893005 -0.02251705 -0.021646416
161 -0.054717407 0.058051065 -0.19101833 0.05042802 0.1911706 -0.20967934 0.10151777 -0.1657336 0.11503171 0.15476298 0.090671495 -0.31027943 -0.24321853 -0.06829841 0.10043155 -0.2772806 -0.35117364 0.3745391 0.03015805 0.0063879234 -0.30616337 0.33028027 -0.16615182 -0.046083372 0.05283295 0.2787193 -0.14633173 0.15676002 -0.12274378 -0.071331136 0.052420154 0.0019651179 -0.19551444 0.10190802 0.032541934 0.076780386 -0.2674248 0.2524845 0.09137403 0.11931892 -0.20031422 -0.25776714 -0.11108474 -0.11050761 0.14029181 0.15402539 -0.0806947 -0.123221 0.24534017 0.04809722 -0.16934471 0.05438323 -0.14672048 -0.0888212 0.031454597 -0.03895221 -0.2151802 0.13390775 -0.06274102 -0.09566213 -0.15612943 -0.059439003 -0.16294439 0.026917076 0.09221735 -0.16307276 0.111529484 0.002215424 -0.12999505 -0.100903206 0.3062588 0.31699106 0.11078035 -0.04328559 -0.23977298 0.048359398 0.21444803 -0.16384508 0.21844684 0.057094976 0.12959194 0.12771519 -0.1268491 0.15493095 -0.10310177 -0.22073059 -0.05109804 0.11833829 0.108488604 0.10341896 0.081926696 -0.03265263 0.07586434 -0.040476758 -0.13641717 -0.3297228 -0.06730727 0.0072438703 0.15447676 0.0025295806 0.09096969 0.3235554 0.32260892 0.19542415 0.07592504 -0.12540236 -0.25110593 0.25539634 0.1063131 -0.16668352 -0.32225102 0.018730776 -0.007931903 -0.33964774 0.12003947 -0.24842148 0.0044355616 0.3258108 -0.1094943 0.044985995 0.0005471061 0.13980828 -0.19644484 -0.18351358 -0.18918921 0.004015616 -0.059481945 -0.5788765
2623 -0.110758245 -0.033572808 -0.16298799 0.019386264 0.09552091 -0.09370773 0.25998068 0.15219457 -0.039683167 0.026655104 0.13954738 0.122618526 -0.05349839 0.08250499 0.17216097 0.08064239 0.08059844 0.14979044 -0.3257089 0.19004509 0.026283365 -0.12505053 0.1812281 -0.06534062 -0.057907782 0.1738338 -0.061607823 0.18586886 -0.058232468 -0.3326959 0.25138018 0.048759714 0.013731882 0.26919293 -0.0332821 -0.20099261 -0.20766763 0.13411315 -0.18923801 0.15562128 0.049367387 -0.056200247 -0.1699149 -0.051224563 -0.06041122 0.00052619056 -0.10865808 -0.44478163 0.05373428 0.22688936 -0.10917183 0.10642555 0.08447985 0.21317992 -0.22610052 -0.10435177 -0.12789066 -0.021761646 0.16306506 -0.11672019 -0.24156012 0.008536141 0.2078367 -0.05157069 -0.23177518 -0.20954461 -0.020324364 0.38159618 -0.013636801 0.09998826 0.073212065 0.16608478 -0.23637345 -0.3467422 -0.025066087 0.06436365 0.19466193 0.068883225 0.027218457 0.045188107 -0.18483174 0.17355978 0.052733082 0.39668566 -0.011909426 -0.0234344 0.21699429 -0.14109603 0.023002306 0.36701143 0.16360627 0.037132394 -0.04385386 -0.053224914 0.07057659 0.05264719 0.07831254 0.126208 -0.0542223 0.08375935 -0.14285856 0.05926365 -0.20638233 -0.086760506 -0.15286437 -0.1661769 -0.17676486 0.26159722 0.09552529 -0.11230534 -0.006193102 -0.13211767 -0.03167878 -0.03796192 0.45464984 -0.02451651 -0.10516031 0.0679336 -0.2799388 -0.21980949 0.12368707 0.14478362 -0.36997676 -0.19167645 -0.14003004 -0.12778184 0.14954977 -0.07006544
1286 -0.024830556 0.08419235 0.003516158 0.26202604 -0.007107726 -0.2324022 -0.17465147 0.27701893 0.08064715 0.0014500287 0.13538384 -0.09003961 -0.19445948 -0.13843738 -0.04977185 0.073025554 0.12725648 0.27270734 -0.17809199 0.09712841 -0.07881025 -0.114571005 -0.10955516 0.08284075 0.113865726 -0.06265393 -0.057465643 0.0062122312 -0.051939685 -0.25587854 -0.03308893 0.08751411 -0.11122522 0.046608757 0.09158214 -0.055672724 -0.14907041 -0.05721097 -0.054220665 0.22134162 -0.23356761 -0.1905264 -0.08406965 -0.07758697 -0.06900694 0.16974887 -0.37267256 -0.09087969 0.30633986 0.1708782 -0.17475575 -0.18101418 0.34711248 0.057596352 -0.0031128395 0.21523692 -0.026559727 -0.0369098 -0.09451036 0.25542995 -0.33587456 0.10796034 -0.351801 0.0016976064 0.17501244 0.013944059 0.0021739658 -0.0051685986 -0.23503786 0.11852499 0.048186973 0.009022401 0.16508639 0.12601587 -0.16113195 -0.10943563 0.17396913 -0.03973152 0.09035392 0.0883288 -0.24986137 0.17217556 0.090135165 0.14517646 -0.011669699 -0.17265953 0.17907737 0.051394314 0.14784361 0.05924058 -0.0763808 -0.078607544 -0.026210366 -0.13934398 0.079238884 -0.06687274 -0.16364965 0.16413808 0.16083921 -0.15112919 -0.08569364 0.03622843 -0.1536414 0.3192592 0.07937432 0.08449106 -0.35692975 0.11915364 0.35525444 -0.24066962 0.07358856 0.24799988 -0.13668899 0.27119598 0.3062814 -0.10725616 -0.25989732 -0.0058686747 0.12713796 -0.070958905 0.019550085 -0.19569921 0.08624579 -0.27155256 -0.21095079 -0.061963882 -0.06163547 0.1798036
163 -0.064840496 0.061213985 -0.16445705 0.13699287 0.25267795 -0.20112464 0.13744311 -0.02867946 0.25914815 0.16349304 0.1046984 -0.34959036 -0.2949397 0.048723627 0.02992744 -0.3073494 -0.19027618 0.26562506 -0.007648541 -0.054467667 -0.23961407 0.3616732 -0.10079527 -0.049096283 0.039816324 0.23434734 -0.1201247 0.29047447 -0.18463658 0.0127152745 0.022055497 0.020305987 -0.3174231 0.23018189 -0.081909716 0.08541275 -0.39062053 0.2853251 0.14768757 0.10735228 -0.13055198 -0.20512192 -0.14334989 -0.12717764 0.06450453 0.18384017 -0.20173688 -0.20202318 0.06094183 -0.07138171 -0.22964104 0.017298548 -0.12609382 -0.16397797 0.13702571 0.023198465 -0.19319707 0.15459041 -0.06731583 -0.06792561 -0.27103227 -0.043715276 -0.0992183 0.018040719 0.111975275 -0.03846626 0.07003028 -0.079843156 -0.0826084 -0.0316658 0.22495602 0.25862613 0.19710205 -0.10358599 -0.07415149 -0.008452948 0.1600729 -0.075535 0.14525916 -0.13065009 0.14721394 0.13060285 -0.10586064 0.122586 -0.10176248 -0.32601893 0.106288895 0.084 0.15387611 0.037369072 0.14210533 0.10862055 0.0901682 -0.06646547 -0.09028788 -0.3233084 -0.16853306 0.046484098 -0.01911082 0.03471536 -0.032141235 0.33308086 0.14928833 0.115448885 0.041521817 -0.21079186 -0.19436991 0.1431572 0.12952043 -0.15609251 -0.3552401 0.03771733 -0.0639323 -0.3211281 0.18431903 -0.25622728 -0.04236261 0.28270695 -0.18672751 0.028757187 0.038250066 0.24998891 -0.22395052 -0.1699911 -0.12647147 0.07752062 0.027002824 -0.5535608
2320 -0.16063452 -0.27288985 0.14467172 -0.14214787 -0.108521774 -0.11167801 0.057122387 0.13244848 0.061973274 0.20564058 -0.06337331 0.22288081 -0.05640955 0.078325346 0.05508853 0.290065 0.114216894 -0.05044518 -0.02105003 -0.13334961 0.014572399 -0.13988446 -0.06331111 0.22892374 0.05936649 0.1774402 -0.10871649 0.19302042 -0.092588 -0.018834203 -0.3104021 0.0913051 -0.18568519 0.10818038 -0.20689847 -0.26641342 0.04172356 -0.17824306 -0.017129155 0.028387092 -0.24566025 0.16097629 -0.048608236 -0.08321204 -0.135023 0.19776702 0.07943763 -0.3087238 0.055492483 0.118481115 0.04186543 -0.19640365 0.024567282 -0.11742155 0.08668814 -0.055170592 -0.0008834524 -0.071801975 -0.24052975 -0.005861617 -0.16016467 0.043182 -0.13692188 0.096086815 0.1591662 -0.008185154 0.011711752 -0.0865925 -0.23992804 0.20786205 -0.004843947 0.2890053 0.09423366 -0.12656297 -0.00748568 0.10726281 0.37966698 0.011318191 0.013563361 0.20123117 -0.4320556 0.101230554 0.10329952 0.19004288 -0.21984497 0.20903404 0.16840279 0.016006311 0.13072923 0.1663677 0.13145843 0.05936029 0.04237183 -0.1915024 -0.074581824 -0.10409804 -0.040517796 0.04643997 0.09955703 -0.07870443 0.26812044 -0.0018497598 -0.19778983 0.06581351 0.16228688 0.036117602 -0.044603664 0.13044511 0.19291161 -0.329854 -0.29096276 0.21609934 0.17187405 0.17890273 0.017217493 -0.1344431 -0.12211671 -0.18964541 0.20788029 -0.11972405 0.05526301 0.12065235 -0.0066258498 -0.2337345 -0.1935593 -0.18575841 -0.17672879 -0.07185941
651 -0.1202526 -0.25933444 0.15959582 0.025965428 -0.09100832 0.1608595 -0.06630024 0.15334389 0.18852581 0.09505626 -0.053320125 0.09751789 0.00033954298 0.09264473 0.064776495 0.12662546 0.10373758 0.10697703 -0.20042478 -0.30916995 0.22462757 0.28520888 0.15453027 0.10381107 0.23254596 0.1615059 -0.011478049 -0.2851917 0.105265684 0.034651328 0.38766244 0.21048102 -0.3557413 0.02335035 -0.43314293 -0.35907707 0.0890989 -0.15043913 -0.26950997 0.08734846 -0.14862497 -0.19573353 0.18991971 -0.025597163 -0.08656437 -0.1568878 0.009158939 -0.24716389 -0.07577962 0.09000281 0.0062886053 0.28836977 -0.014832271 -0.12550588 0.13208891 -0.26548558 0.12672445 0.23465906 0.12845527 -0.12609892 -0.19349012 0.045933552 -0.097873814 0.085709706 -0.3198098 -0.0850978 0.055391517 0.07532202 -0.012643703 -0.019209558 0.002551092 0.19122276 0.10648853 -0.15768448 -0.01191618 0.36988896 -0.24112749 -0.33623928 0.0463046 -0.10888975 -0.040824823 -0.02969749 0.48584884 -0.07594105 -0.03607436 -0.24755093 0.017155835 -0.13850044 0.3127218 -0.07565781 -0.13141438 -0.0011279875 -0.13592827 -0.08565813 -0.08174333 -0.013437207 -0.16479085 -0.006496371 0.04224995 -0.0336651 -0.0006722835 0.21396764 -0.033208013 0.14206865 0.00300199 0.15172572 -0.44520852 -0.05641256 0.19362503 -0.27463293 -0.28458238 0.065015346 0.03100624 -0.019615402 -0.11792097 0.07175724 -0.10909116 -0.017757675 0.008243336 -0.09148263 0.060692333 -0.23958333 0.22798392 -0.14269918 -0.34147993 0.09261361 -0.038576998 -0.38245562
420 0.06490025 0.08448137 0.17399041 0.11100897 -0.06751226 -0.0034142998 0.13944939 -0.03541231 0.35840347 -0.09189694 -0.011256831 -0.14298323 0.0072738677 -0.363117 0.10217584 -0.104935795 0.24071252 -0.020228863 -0.07310228 -0.2124891 -0.005036201 -0.11074474 -0.012792264 -0.14620851 -0.24384192 -0.2571246 0.07482176 0.047963418 0.053734142 0.14677463 0.07022105 0.08182966 0.040295374 -0.12012992 0.033748157 0.09385667 -0.03163976 -0.20100681 0.087692425 -0.06287611 -0.2536615 0.01759473 -0.29407552 -0.35275248 -0.1046604 0.048493396 0.016697524 0.024122275 0.16794492 0.12516834 -0.16409269 0.13922009 0.025256185 0.10138757 0.1950696 0.078717716 -0.11002716 0.27771905 0.4011335 -0.02212857 -0.2373192 0.0037568586 -0.0779932 0.15009093 -0.14667356 -0.2830428 -0.29537237 0.23449145 -0.22726409 0.12829298 0.05452869 0.01707527 0.010161213 -0.25130805 -0.37834492 0.2326423 0.1109382 -0.21948086 -0.047368083 0.11932013 0.07137265 -0.08476105 0.17102572 0.06483274 -0.1824248 -0.24108997 0.10893291 0.33714232 -0.021329846 -0.0605365 0.32390714 0.041407995 -0.12689394 0.020128524 -0.0065182108 0.21115695 0.1904395 -0.1586654 -0.069350235 -0.3161458 0.060401663 0.20700786 0.110989444 -0.12543876 0.34714356 0.2110795 -0.27255628 -0.083591 0.23178816 -0.061747026 -0.16339679 0.10564252 0.3389528 0.059413638 0.13172422 -0.03242382 -0.049101934 0.31279966 -0.015340749 -0.08454884 0.24704124 -0.06926445 -0.012241088 -0.41335553 -0.26458678 -0.028740361 -0.007519977 0.053543024
1489 -0.051419873 0.044784103 -0.21133697 0.122259066 0.094683304 -0.23610513 0.20530412 0.08525766 0.3057774 0.24072665 0.04863628 0.08569351 -0.017268509 -0.00034366382 0.19409801 -0.041984502 0.012853037 -0.08597762 -0.2218701 0.014882276 -0.0019313288 -0.15912321 -0.1296544 0.0027939363 0.09499809 0.13695018 0.05264225 -0.16411605 0.2933548 -0.15170243 -0.12931468 -0.16834621 0.18798941 0.3354033 -0.053773295 -0.06018917 0.07012254 -0.1095986 -0.2855024 0.31469402 0.05346324 0.19212657 0.087415546 -0.044196915 -0.11022634 -0.19621788 0.08104289 -0.123341046 0.056178574 0.050537553 -0.12647153 -0.21701266 0.21658649 -0.046686556 -0.23135036 0.23669846 -0.102396265 0.08361247 -0.084379174 0.16412763 -0.11526086 -0.15379815 -0.23810612 0.0069994694 0.090014175 -0.0069088847 -0.18269795 0.012170637 0.04917342 -0.033035647 0.07213501 0.16213386 0.16297622 0.022469964 -0.044535886 -0.08722865 0.23210777 0.00035149767 0.079296835 -0.036729723 -0.05781303 0.1014942 0.27543944 0.007673321 0.18546449 0.12741412 0.09884685 -0.10024137 0.027853964 0.1342609 0.086100504 0.1759285 0.047316827 -0.084907375 0.015733276 -0.03942631 -0.16955958 -0.1357961 -0.13718963 -0.07829181 0.29787776 -0.051934417 0.23129517 0.044390813 0.20416754 -0.1752649 -0.19749586 -0.09370739 0.21674961 -0.19864191 0.039280675 0.15552758 -0.13331124 0.2744117 -0.04368378 -0.18290786 -0.16149467 0.110593535 -0.1685343 0.08898844 0.17533322 0.0135832075 -0.064123966 -0.3330091 0.064131506 0.11332038 -0.1440484 -0.06631993
141 0.15288045 -0.2369366 -0.003528112 0.07974783 0.0787943 -0.10013909 0.089138895 -0.23468 0.08155995 -0.09095579 -0.061632868 0.14965743 -0.13123037 -0.0076983594 0.14281541 0.006849167 0.11880671 0.20938295 0.088380136 0.12622121 0.0057984134 0.07517781 0.14610502 0.24817348 0.04471885 -0.015197099 0.41275758 -0.17505999 -0.0438564 -0.029869562 0.05450931 -0.08190254 0.10648495 -0.03305005 -0.023300262 -0.20794997 -0.11680189 -0.09352029 -0.079304986 -0.09610729 -0.0068441853 -0.06551351 0.15735853 -0.06137702 -0.017798407 -0.11548609 -0.0658716 0.14890444 -0.07276701 0.064967565 -0.13366029 0.07051232 0.2551811 -0.19565141 -0.13288626 0.18053064 -0.16405283 -0.1309319 -0.21767779 -0.103610545 -0.27616158 0.046000056 -0.20443006 -0.05497043 -0.028928692 0.3010492 -0.08353355 0.06422963 0.05189168 -0.11881481 0.13383505 0.23462185 0.042334102 -0.09084008 0.045014165 -0.03815532 -0.00430458 -0.250402 0.38304442 0.08865885 -0.074761726 -0.14141944 0.12653671 0.18227547 -0.0489191 -0.052652374 0.0153129455 0.09429644 -0.22064294 -0.12594421 0.280405 0.16872384 -0.18799837 0.18402249 0.044389732 -0.21545121 -0.041867793 -0.048414953 -0.099122666 -0.12967138 0.10320533 0.029259428 0.23546082 -0.19193296 -0.047281012 -0.12373238 0.08855352 0.16776732 0.10144265 -0.14696124 -0.13773496 -0.1349582 0.17944929 -0.17912854 0.034424294 -0.023199257 -0.09213992 0.035656683 -0.0010231253 0.10999212 0.44005594 -0.08190478 0.07365523 -0.2578926 0.0644206 -0.13545051 0.1465357 -0.098179355
162 -0.053732067 -0.020670658 -0.0272135 0.06095994 0.19669418 -0.21777514 0.09073965 -0.13131118 0.2661465 0.04020961 0.12591732 -0.25600523 -0.34985593 0.06587457 0.08804014 -0.37596482 -0.36221865 0.35921714 -0.028580375 0.0012908744 -0.26801515 0.36744225 -0.15053004 -0.04737329 0.13603844 0.34104234 -0.18037596 0.18344593 -0.19754599 -0.006760402 0.12273714 0.057223722 -0.24917136 0.24259758 -0.07082675 0.04361051 -0.265965 0.1884644 0.13986982 0.030656766 -0.18322662 -0.30428058 -0.15226588 -0.091862306 0.09599156 0.16523041 -0.18692869 -0.21956696 0.16585359 -0.043353114 -0.11738077 0.0712515 -0.19902655 -0.055532653 0.07894451 0.11923638 -0.16628473 0.2527255 -0.043553807 0.012454466 -0.31249693 0.045311347 -0.13880648 -0.030141555 0.14073463 -0.17098366 0.06578276 -0.004977796 -0.05709712 -0.1514223 0.19451958 0.3960484 0.23900618 -0.04489327 -0.113678604 0.03627077 0.22271644 -0.07695182 0.15765564 -0.031009523 0.19964051 0.13874066 -0.062524654 0.19048092 -0.0152568985 -0.25985506 0.044092238 0.00792652 0.17930336 0.059014026 0.10511382 0.12704504 0.035550218 -0.040072583 -0.18203793 -0.33124992 -0.06681594 0.03179921 0.055344626 -0.00020466771 0.03504199 0.28247553 0.16253342 0.11428019 0.05954394 -0.15751651 -0.29305702 0.23721455 -0.025506727 -0.22789541 -0.26135418 -0.042091902 -0.03934384 -0.32253623 0.16561185 -0.24807623 0.009630232 0.25674903 -0.09677215 0.12017012 -0.011526011 0.18018107 -0.19459112 -0.13482164 -0.12895027 -0.010975874 -0.028734835 -0.48457095
613 -0.110047735 -0.08359018 -0.30490863 0.06904216 -0.25454426 0.054905143 -0.039332896 -0.032737654 -0.39018106 -0.10482712 0.013035839 -0.024900878 -0.12282359 0.034053117 -0.0808984 0.016519083 0.21529922 0.21991055 -0.044784263 0.043383908 0.099480115 -0.03355586 0.1236326 -0.12873979 -0.06472523 0.12620878 -0.10158761 0.047550064 0.045643583 0.16440195 0.111068375 0.03376348 0.05961349 0.09957392 0.41527572 0.08321816 -0.4062079 0.12669589 -0.04747195 0.0023456446 -0.23345345 0.22084835 -0.011383085 -0.24162152 -0.13017066 -0.28353554 -0.096195586 -0.30748254 0.15783621 -0.032209948 0.12911731 0.17796405 -0.18487604 0.06509933 -0.13053988 0.08463207 0.24518588 0.112692624 0.29544896 -0.06540418 -0.35936794 0.17935063 0.0414749 0.15981278 -0.047578976 -0.043092594 -0.022361448 0.12341122 0.2901516 0.021564635 0.050546583 0.14145899 0.11250946 -0.2082182 -0.20422578 0.1273812 0.0425973 -0.2820502 -0.20009722 0.010004032 -0.18994679 -0.11143893 0.12102189 0.06553366 -0.34970328 -0.017810887 0.02914569 -0.21946254 0.13521917 0.04728921 0.1472258 -0.22643739 -0.13323876 0.112028874 0.13991128 -0.14681223 0.09660966 0.08099225 0.14237937 0.12425783 0.23418744 0.08149514 0.2819271 0.053095378 0.12692444 0.32668766 0.20378351 -0.044314478 0.20910908 -0.38341212 -0.039683037 0.029070094 0.16364111 0.105935164 0.08895782 -0.04419947 -0.106183045 -0.13637619 -0.3212379 0.0481447 0.20979218 0.14869519 -0.009315001 -0.05118436 -0.10284761 -0.0015305068 0.19204286 0.085466
213 -0.10371609 -0.15117982 0.06048858 0.10495169 -0.037911616 -0.11809359 -0.18721382 -0.0007290529 -0.025193406 0.16997755 0.19249624 0.12520719 0.044476036 -0.2499583 0.0363229 -0.13941325 0.09959646 0.14017382 -0.24848552 0.21370222 -0.117717594 -0.08163847 0.2880624 0.013896111 0.49050966 0.02106949 0.0768323 0.14343575 -0.41082484 -0.22589722 -0.06956754 0.37631297 -0.25018242 -0.16216159 -0.25021216 -0.052882135 0.084431015 0.11870538 0.036681265 0.0049151015 -0.15252134 -0.04522435 0.11268258 -0.08497813 -0.16973661 0.13600612 -0.18904535 0.08580641 0.09206213 0.1393023 -0.1626905 -0.24551919 0.014852842 -0.046065193 0.010687458 0.032945592 -0.1076934 0.022148417 0.20864192 -0.1657168 -0.13664679 -0.17368782 -0.1695746 0.0021388782 -0.109286465 0.22805834 0.030334754 0.26864442 0.04941724 0.22224516 0.305739 0.12407225 0.30132014 -0.06970668 -0.16302946 0.14040232 0.20906945 -0.28556052 -0.19026819 -0.23440638 0.16221645 -0.030808995 0.12190659 0.1718743 0.021507166 -0.118833974 -0.08479705 0.104789115 -0.15082027 -0.28115064 0.3704628 0.13154288 0.17602582 -0.12947485 -0.10993966 -0.24533443 0.15306738 0.11101606 -0.05439032 0.35753778 0.10774814 -0.13530317 -0.14413886 -0.19633116 -0.04913243 0.09583834 0.16727424 0.25566143 0.08578957 -0.21857849 -0.13873576 -0.35742557 -0.15898344 0.30220598 -0.18682763 -0.28789216 0.19798931 0.0750154 -0.04472597 -0.029328955 0.1781316 -0.21290696 -0.4137995 -0.43148646 -0.16413175 0.06598135 0.1078008 0.2002818
338 0.106989816 -0.06458236 -0.008343689 0.05330038 -0.10714302 -0.28802556 0.039984602 -0.22387947 0.1529543 0.060277034 -0.13046657 0.13408877 -0.077704504 -0.080193706 0.05555879 -0.110340826 0.1356441 -0.005720485 -0.07772188 0.012783055 -0.0538093 0.111891985 0.23800488 0.20710282 0.027294658 -0.14823425 0.05006809 -0.24288754 0.19954807 -0.07879168 0.09578877 0.2950927 0.059083473 0.07737919 -0.089594685 0.017077418 -0.2585243 0.025502285 -0.25103137 -0.007875874 0.10756552 0.17483908 0.02061722 -0.23995271 -0.103683196 -0.060906306 -0.11853214 -0.19033118 0.08684077 0.17782773 0.03718795 -0.020984305 0.14065911 0.06503684 0.12484094 0.033482857 -0.07282667 -0.022441892 -0.22067255 -0.060525857 -0.4314005 0.08612156 -0.09179573 0.10071594 -0.046455503 0.047269903 -0.057600293 0.02822855 -0.055691905 -0.047631398 0.24764022 0.010814905 -0.08851594 -0.1888108 -0.031803597 -0.17080341 0.16434346 -0.28317577 0.120633885 -0.041130174 -0.0040006703 -0.30045977 -0.023872584 -0.025573986 -0.019370487 0.01587346 0.09580493 -0.21360412 -0.051939614 -0.15516227 0.33419225 0.014524963 -0.05825184 0.018017666 0.16436435 0.03937276 -0.100754716 -0.08252318 0.12548356 0.11397434 0.07555163 -0.013313601 -0.022855803 -0.20915063 -0.057534494 -0.15630631 0.056261603 -0.1841036 -0.018205816 0.05633849 0.003343695 0.14509007 -0.01506839 0.03591341 -0.0153900795 0.06378502 0.028316386 -0.020069063 -0.17891283 0.14285202 0.24673073 -0.0974608 -0.042780362 -0.18963747 -0.030798182 0.052375324 -0.09597629 -0.19456524
337 0.05375853 -0.049983043 -0.005471987 0.06576088 -0.054830775 -0.24201795 0.04295983 -0.28313324 0.2305372 -0.020995917 -0.10009743 0.09095994 -0.11168417 -0.11593778 -0.027320538 -0.09566837 0.15400106 0.034679696 -0.04672063 0.03334102 -0.07420296 0.09777507 0.19151102 0.19747415 0.025551258 -0.18112752 0.0073015806 -0.1763016 0.12588781 -0.15372974 0.031769007 0.19452015 0.058289498 0.11107158 -0.08902167 0.046210963 -0.19935513 0.011525774 -0.24037483 -0.033398252 0.06748173 0.21711925 0.034231108 -0.197658 -0.12410281 -0.0086369915 -0.07208534 -0.21999173 0.049986813 0.17103115 -7.191081e-05 0.02420436 0.10946229 0.06717744 0.088509485 0.01899211 -0.03729158 -0.09785095 -0.19478932 0.0024819723 -0.34571525 0.2168451 -0.18024325 0.03989934 -0.049280167 -0.038274474 -0.13765198 0.025206072 0.011633582 -0.0055447924 0.1905029 -0.014746791 -0.02786091 -0.19862911 -0.14744964 -0.19638336 0.08770218 -0.20929335 0.1545638 0.030398056 0.075343035 -0.38447794 -0.034315187 0.06494565 0.04774682 0.054097638 0.1505795 -0.233685 -0.08537113 -0.19876151 0.3915947 0.04881247 0.021123772 0.0048547755 0.07523953 0.01671356 -0.23621628 -0.15360405 0.10443263 0.08975626 0.12435274 0.019885186 0.06844183 -0.23868954 -0.100130945 -0.1325776 0.07824016 -0.061210852 0.013131504 0.13716038 0.024457501 0.14076221 -0.028011281 0.047379866 -0.02759568 0.1535835 -0.04581056 -0.016993823 -0.20212263 0.1831904 0.24152337 -0.029890968 0.03430617 -0.20472252 -0.1014139 0.037655752 -0.036193334 -0.12513399
171 -0.10268872 0.018034453 -0.18187004 0.13700522 0.06257093 0.17745778 -0.042985316 -0.0075928806 -0.07493486 -0.36330336 -0.024478499 0.30531508 0.004955561 0.2562877 0.10664698 0.12491497 -0.20725335 -0.14862978 -0.26063815 -0.09222917 -0.14929642 0.06020584 -0.04576502 -0.050227236 -0.08784279 0.11965355 -0.062164143 -0.06585246 0.11281656 0.06664046 -0.110115334 -0.11785834 0.15552598 0.3078829 0.06327536 0.047157772 -0.12545305 -0.5442817 0.055783626 0.09459554 0.09801113 0.057714384 -0.1465118 -0.17356925 0.012953341 0.39825767 0.112113036 -0.18918692 0.013825068 -0.109771945 -0.19215763 0.046453774 0.038195748 -0.20185558 -0.047613014 -0.25561914 -0.20658952 -0.23532876 0.026437895 0.052191917 -0.13387433 -0.09193383 -0.5092565 0.08063109 0.16053823 -0.2097336 -0.1814957 -0.014263413 0.29164284 -0.40681696 0.046386506 -0.06317584 0.36784777 0.08113681 0.24698952 0.4431935 -0.09343787 -0.38260302 0.066856176 -0.15969625 0.028399695 0.10618809 0.11114376 0.115869656 -0.17810537 -0.4666538 0.14086562 -0.13624835 -0.14974482 0.058479235 -0.09764906 0.43121007 -0.124996394 -0.16202112 -0.12574595 -0.40879118 -0.1416793 0.26075947 0.27053913 0.1839447 -0.025482671 0.030862438 0.05322108 -0.33810794 0.16128017 -0.028633097 -0.103499085 -0.032322664 0.10463631 -0.454243 -0.15955944 0.119562164 -0.18703604 0.011076908 0.19035764 -0.022647848 -0.14608267 0.046192445 0.012962714 -0.17628686 0.11725109 -0.034553144 -0.4654769 -0.17244914 0.03978848 -0.08435624 -0.033116188 0.043921925
