2634 128
2633 -0.36208913 0.016022412 -0.036944095 0.0059569385 -0.088368356 -0.0570325 0.056045435 0.30817467 -0.042379566 0.13661458 0.24452512 -0.086992115 0.053677924 -0.09408196 0.11901519 0.13716288 0.20158261 0.08481047 0.0021373846 -0.0675688 0.12382369 0.17953657 -0.20715591 0.09991554 -0.07223354 0.09906275 0.14194153 0.081958316 -0.36316407 -0.14000359 -0.070109054 -0.056210827 -0.06769651 -0.09528071 0.3066999 -0.102513514 0.054722983 0.20542052 0.030787813 -0.04907419 -0.046770953 -0.1986252 0.1763703 0.18557154 -0.016082598 0.10480863 -0.24819435 -0.018087894 0.008516274 -0.009922879 -0.40554807 0.2589206 0.089755215 -0.23026764 -0.22284533 -0.26501623 -0.12100634 -0.0060907267 -0.23307125 -0.10797611 -0.2355056 0.28091678 -0.12813634 -0.05948998 0.067548 0.15946789 0.17142485 0.16518916 0.009720407 -0.29428267 -0.10872776 0.012524351 0.011386013 -0.41406083 -0.118538156 -0.14204054 0.09650202 0.0010059116 0.0053412756 -0.09716573 0.038420115 0.043959793 -0.101143576 -0.006691348 -0.09837117 0.06747806 0.12669374 0.2906495 0.0018752809 0.019636752 0.112930976 -0.07188968 -0.25032493 -0.054421235 0.12565926 -0.23808385 0.10366801 0.16248497 0.01381197 -0.09851129 -0.16670078 -0.07143464 0.10776757 0.0046331696 0.11317043 -0.094243534 0.006845352 0.0025557883 0.1488452 -0.30465755 0.115967885 0.012026805 0.10791973 -0.089319095 -0.09927425 -0.31140846 0.07750639 -0.052564964 -0.13123882 0.24791571 -0.36538863 -0.10291542 -0.11568307 0.15088458 0.008274197 -0.0018131537 0.040519577 0.0076479823
2550 -0.18508907 -0.18026091 0.29626665 -0.038374905 -0.34735334 -0.009398077 -0.11796834 0.016109373 -0.34003264 -0.014516361 0.17789052 0.2746495 -0.011168182 -0.031736366 -0.055259615 0.05131653 0.19658642 -0.053777345 -0.28040165 0.09753553 -0.047553666 0.032495677 -0.063467555 0.15006498 0.09506371 0.093011 -0.032271486 0.049275372 -0.41654176 -0.09386354 0.0034520128 0.041065723 -0.04896999 0.120321825 0.0697918 -0.019167138 0.045343984 0.17466749 0.2999885 -0.10494994 -0.2498881 0.069749825 0.18185657 -0.075344704 -0.14000586 0.22306721 -0.16142462 0.30614793 -0.08798676 -0.04826771 -0.43842947 0.09868945 -0.03649091 -0.07767 0.025429916 -0.15074311 -0.20204556 0.055091158 -0.010893053 0.03367726 -0.091292754 -0.058161613 -0.27893996 0.004583086 0.031322937 -0.053676788 0.39933836 0.0011566781 -0.1878829 -0.0015100299 -0.12526931 -0.06835051 -0.026766164 -0.312274 0.010440435 0.012612295 -0.13635723 0.028376563 -0.132895 -0.045964595 0.03910569 -0.2714055 -0.08427829 -0.00045118039 -0.04001683 0.23304251 -0.16127439 0.034104373 -0.053511888 0.048491046 -0.024821734 0.1580648 -0.013908596 -0.09057707 -0.101161815 -0.14700167 0.23252685 0.011700143 -0.06774945 -0.08722388 -0.01919073 -0.017772356 0.32496563 -0.2699301 0.058115486 0.08235022 0.005688999 -0.041581687 -0.10274582 -0.05541693 -0.19783388 -0.15739712 0.17022094 -0.052686714 0.1972644 0.048673723 -0.27494636 0.02540044 -0.025532639 -0.102863654 0.09778259 0.008816374 0.13701905 -0.17617862 0.011554793 -0.072832435 0.27602562 0.16694449
2568 -0.03400833 0.1258468 -0.06447643 -0.07257439 -0.14645548 -0.12804933 -0.050744686 -0.06127398 -0.03954071 0.07376917 0.26842 0.07311953 0.22378086 0.08257417 0.055773713 0.41251805 0.011235662 -0.015521306 -0.056601226 0.050430976 0.095455736 0.048267204 -0.19700849 -0.12704292 0.14025432 -0.23666276 0.07505919 0.03525657 0.03485335 -0.178069 -0.037383597 0.068292074 0.0055448166 -0.17994165 -0.15205172 -0.19621621 -0.07430516 0.08301084 0.177467 0.03426501 -0.12991668 -0.09437726 0.0009577732 0.06930167 0.175074 0.24714187 0.0044488474 0.07939229 -0.08633065 0.085584655 -0.4257391 -0.005783782 -0.023516895 -0.133149 -0.040122963 -0.09440931 -0.093280725 0.06494934 0.07485493 -0.14182216 -0.04580801 -0.2672135 -0.22876008 0.12953982 0.20045221 0.14789075 0.11621599 0.05595315 -0.084797874 -0.25332263 -0.27897918 -0.06775927 -0.028370159 -0.20650318 0.08086596 0.021058256 0.06822246 -0.13290116 -0.10706218 -0.124904156 0.18934248 0.1332899 -0.2521968 0.10144569 0.09282886 -0.049365915 -0.07219058 -0.10349708 0.0018174063 -0.10420857 0.17183048 -0.0047227065 -0.14324954 -0.037233423 -0.21206278 -0.13501853 0.10668213 0.26065463 -0.037781704 0.08592038 -0.23497556 -0.23889367 0.049321484 -0.21490264 -0.1225698 0.004584499 0.079637334 0.06874249 0.06560955 -0.22994757 0.042763997 -0.13588858 0.10592099 -0.27098033 -0.11109936 0.07782115 0.12157815 0.032117188 0.07844087 -0.016933983 0.020410853 -0.16666684 -0.12515202 -0.14182481 0.23766607 0.07666176 0.05866595 0.20740943
2604 -0.1764712 -0.2656655 0.04263557 0.17515567 -0.15283532 -0.29254198 -0.059334382 0.12078035 0.09223535 0.08932242 0.17886706 -0.14834861 0.21526083 -0.043772552 -0.098729916 0.037554048 0.11539802 -0.076265596 0.006625636 0.043142706 -0.07380096 -0.040439375 0.0116428295 -0.044048782 0.027551524 -0.24690446 -0.009225482 0.08339729 -0.32578546 -0.06184449 -0.098337844 0.22681925 0.057388738 -0.09862057 -0.07294296 0.035396185 0.016231287 0.2318101 -0.017031776 0.050423402 -0.065425 -0.06936128 0.21272667 0.068758406 0.00856071 0.11922709 -0.10645191 0.10919528 0.0061821784 0.04471039 -0.06470723 0.26314038 -0.01903436 -0.086457916 -0.21344386 -0.15050066 -0.043632485 0.023875708 0.02289755 0.18024945 -0.33491373 0.15054165 0.06964363 -0.071544364 0.08925933 0.018648649 0.06325982 0.19033653 0.045558758 -0.16460961 -0.14909631 -0.08288683 0.075297646 -0.028526679 -0.11449476 -0.17601024 0.0825944 0.004105468 -0.15340857 -0.14735371 0.030776199 -0.14694627 -0.08939251 0.07024921 0.061065946 0.21760619 0.011314852 -0.0149942385 -0.0002455062 0.10477825 0.06309824 0.0071156905 -0.16869639 -0.11684427 -0.27684137 -0.2650714 0.29210487 -0.03922609 0.061520033 -0.0031227074 0.03624832 -0.2268641 0.088453926 -0.052634418 -0.043506864 0.08535071 0.27169314 -0.037190016 0.20256162 -0.47821265 -0.16708364 -0.024072712 0.32827035 0.105403066 0.28687873 -0.11604134 0.09124065 -0.04815797 0.16108419 -0.04088068 -0.11541008 -0.33678523 -0.22317652 0.12090696 0.16340104 0.18744846 0.092204906 -0.20461959
2610 -0.251731 -0.08387269 0.008055243 -0.049182817 -0.04918571 0.13519137 -0.06986489 -0.07114916 -0.079709396 0.1669542 0.043344565 0.28132302 -0.24632101 -0.025886886 -0.0028715748 0.29432026 0.061261717 0.024515096 0.0046343817 0.27970597 0.1446292 -0.17927133 -0.024083324 0.109067276 0.27219585 0.076366074 0.06541844 -0.077779055 -0.022870893 -0.17005198 0.2733446 -0.029130438 0.055698223 -0.028796723 -0.015963433 0.12014229 0.17020278 0.16177122 0.36310232 0.33192727 -0.11917562 -0.1286491 0.10230782 0.015424527 0.041128762 0.2569513 -0.055676144 0.13909039 -0.21281226 0.09602806 -0.502013 -0.14172673 -0.057332296 -0.123439096 0.13551088 0.018146489 -0.043732516 0.052179653 -0.1255023 0.081968024 -0.2139736 0.060175247 -0.06685178 -0.049830522 -0.05063377 0.055664275 0.017026918 0.28822646 0.073405534 0.017275073 -0.05744261 -0.34074876 0.029103106 -0.101997964 -0.42538545 -0.05086134 -0.08757653 -0.068900496 -0.06675866 -0.16670653 -0.0024927277 -0.17309852 -0.1269072 -0.19895117 0.22726178 -0.13010705 0.112228386 -0.014686162 0.014242833 -0.05609641 0.108132735 -0.06705446 -0.004258545 -0.023094324 0.033616535 -0.060244344 0.12996726 0.2396561 -0.2843919 0.04043732 -0.007992685 0.047545105 -0.16172294 -0.035492796 -0.013315812 -0.09130767 0.05397152 -0.062016696 0.11047131 -0.21507056 -0.067757964 -0.07127124 0.50520885 0.00048689166 -0.3370832 -0.08018614 0.27801204 -0.042822246 0.091040485 0.24267785 0.05061455 -0.091110185 -0.20327291 -0.0056410213 0.030829867 0.037299838 0.18964918 0.088413835
2454 -0.17883119 -0.005195878 -0.11122939 -0.14138342 -0.2173795 -0.106108174 -0.12016226 -0.15905851 -0.17324525 -0.14176293 0.058228236 -0.048696972 -0.039985348 -0.01633332 -0.17735116 0.23982702 -0.045782898 -0.007765006 0.030720698 -0.090293676 0.0859778 -0.100371666 -0.007923284 0.0664288 0.033201557 -0.20122723 0.18618977 0.2102218 -0.096686624 -0.07657828 -0.04774029 0.07968063 0.18148805 -0.030981299 -0.0024472987 -0.20489235 0.022593226 0.058972366 0.2674086 -0.1126316 -0.041338425 -0.12482056 0.2087791 0.12346506 0.31097263 0.15715641 0.24687895 0.18689194 0.083270274 -0.06715895 -0.15525965 0.22519459 -0.03239326 0.15043505 0.0303485 -0.077158764 -0.14824136 -0.03169772 -0.12289048 -0.035640467 -0.19481054 0.17832765 -0.10626303 0.24284829 -0.08855317 0.045872636 0.07738133 0.32843882 0.014846474 -0.16073185 -0.073787324 0.08181334 -0.052201472 -0.09109358 0.061793625 -0.2713275 -0.015068366 -0.0082388185 0.026072467 -0.25015074 0.21676534 0.031896822 -0.113864325 -0.07940448 -0.21473196 -0.050800953 0.17588943 0.07730682 0.16116072 -0.10452387 0.0021054717 0.14342691 -0.06019626 -0.08066943 -0.076850794 -0.25747728 0.20718566 -0.028019324 -0.18192518 -0.0065831775 -0.21671619 -0.112914294 -0.18028732 -0.13407172 0.08628846 0.09660838 -0.06942162 0.07526132 0.17338715 -0.3666878 -0.07462853 0.09983112 0.28455788 -0.18575312 0.25868148 0.023153553 0.19689581 0.008089597 0.024068197 -0.0015026297 0.22494411 -0.18438753 -0.10827287 0.18301782 -0.048559643 0.17639282 0.2354725 -0.022435807
686 0.1116695 0.09803801 -0.009376477 0.057128754 -0.038573455 -0.11139345 -0.10185812 0.11752403 -0.04382152 0.06299647 0.10176131 0.04050051 0.027302634 -0.08764089 -0.20655231 0.02307863 -0.09224558 0.16486607 0.027434295 -0.23878261 -0.079584144 -0.042112924 0.018006278 -0.05286827 0.11886364 -0.15115957 0.03779132 0.17193837 -0.092195466 -0.15085116 0.14905755 0.03393274 -0.05165663 0.09857157 -0.16506645 0.049692392 -0.06405853 0.008389703 0.06771744 0.0069257445 0.13956623 -0.07901166 0.14175862 0.07454393 -0.05909254 0.11898807 -0.019167805 0.037016436 -0.008511749 0.010235762 -0.33427417 -0.062576935 0.12054426 -0.090014204 -0.08689234 -0.10083604 0.00703586 0.03272888 -0.12700231 0.11429928 -0.036791816 -0.028361302 -0.022415757 0.087857634 0.02108458 0.09670101 0.13232031 -0.010513075 0.0123034 -0.0052730646 -0.15122674 0.03007777 0.022733206 -0.06745458 0.003539946 -0.18969297 -0.12958239 0.0061293617 -0.12952791 0.022410376 -0.15576759 -0.20643477 -0.009956677 0.073689505 0.010369705 0.09895739 -0.09154087 0.1289669 -0.06324103 0.18902192 0.2297625 0.041592747 0.06475108 0.07264629 0.036471598 -0.057187513 -0.018661767 -0.119269624 -0.08362727 0.0055955923 -0.16294537 -0.12499115 0.058996443 -0.14972354 0.04201171 0.14983736 0.05001995 0.11569197 0.060524836 -0.0857574 0.034252662 0.013702505 0.16643831 -0.09463097 -0.06878126 -0.0137006035 0.2509615 -0.06618069 0.023618039 -0.07067886 -0.09110887 -0.023175701 -0.010390213 -0.20830217 0.15207131 -0.02937778 0.116256684 -0.12643361
2464 -0.4574149 -0.22448538 0.050506752 -0.0020476657 -0.15495954 0.043718584 0.06998914 -0.12653226 -0.06632666 0.12498449 -0.010527157 0.35270068 0.49488214 -0.37506294 0.049698256 -0.15789706 0.14440528 0.42160666 0.102150396 -0.50263655 0.07472518 0.092714936 -0.16910426 0.16305363 -0.046641935 -0.3142322 0.390831 -0.21383223 -0.028281273 -0.29813284 -0.10362835 0.25509125 -0.098092705 0.51868266 -0.24954757 0.107471384 -0.18339849 0.16528375 0.39908415 0.40320984 -0.37910196 -0.39191046 0.715194 -0.2487129 -0.3087306 -0.061130278 -0.22974053 -0.030415455 -0.103140585 0.20097214 -0.019289363 0.16634323 -0.25893524 -0.13553871 0.40564135 0.12223659 0.108983874 0.5732695 -0.6010973 -0.10627907 -0.06070798 -0.16668102 0.066390425 0.19598317 -0.09265708 -0.34923366 0.17699058 -0.016512785 -0.19427527 -0.21491663 0.2990259 -0.8391744 -0.59169763 -0.41498056 0.30008295 -0.044447806 -0.0916312 0.116680376 -0.06271065 0.06724388 -0.09441507 -0.42782825 -0.016409801 0.34091157 -0.10874453 0.26409474 0.31365207 -0.35500312 -0.074947536 -0.071864255 0.15278882 -0.055607207 -0.027609492 0.108777694 0.4519088 0.0071175382 0.07738314 -0.024117637 -0.51487374 0.13806199 0.5073603 -0.39917943 -0.29549417 -0.15370904 0.34811157 -0.08824619 -0.030036135 0.031773794 -0.042496935 -0.43980545 -0.004451637 0.06332847 0.040764462 -0.33288583 0.15524694 0.38363993 -0.033611055 0.041146833 -0.10765802 -0.02173376 -0.055370282 -0.15960819 -0.10076211 -0.0070222 0.2376365 0.003704296 -0.09857917 0.014543362
249 -0.06857678 0.24495241 0.18125993 0.072676085 0.0010184081 -0.08468811 -0.026401868 0.12775311 -0.20417207 -0.06651868 -0.016591925 0.30572656 -0.19386947 0.09175449 0.13897419 -0.104869775 0.08082318 0.009743045 -0.045292363 -0.065885335 0.016495226 0.0034124353 0.100211084 -0.17514421 -0.010689758 -0.019474577 0.056299433 -0.08190791 -0.121811904 -0.15924232 -0.0636362 -0.10922216 0.11352812 0.23146723 0.09729423 -0.11915549 0.09551969 0.0003449985 0.014284449 -0.024965154 0.10544479 -0.14069204 0.0053792642 0.060105793 0.28283384 -0.09363927 -0.08372499 -0.071664594 -0.023872038 0.08334192 -0.13244568 0.064587474 -0.021658355 -0.09715012 0.21081232 -0.09965249 0.09125653 0.08384915 0.046092816 0.11197513 -0.033695444 0.1279835 0.2611197 0.35427922 -0.20432255 0.04396022 0.034312587 0.14425221 0.12959154 -0.40115103 0.027541019 -0.007512504 0.097557835 -0.068513796 0.08198301 -0.1910689 -0.103804395 -0.07015094 -0.05539707 -0.15718216 0.06584776 0.00382417 0.1655571 0.011519647 0.21747713 0.25045982 0.050713435 0.07766966 -0.012040332 -0.24378751 0.063402265 -0.15124065 -0.14715058 0.058262784 -0.12705992 -0.30784252 -0.16123162 0.07680481 -0.23992224 0.20766127 0.25449157 -0.32061046 0.329479 -0.19521116 0.13745843 0.14820248 -0.0025105726 0.30949074 -0.17059998 -0.17337956 -0.1623894 -0.0031267551 0.2805097 0.12894441 0.07057487 -0.183194 0.10317762 0.2990537 0.059731744 0.04446089 0.105874635 -0.12006477 -0.08631212 -0.047580075 0.29990438 0.0021086338 0.124336354 0.07267317
2431 -0.114616334 -0.13372535 0.12543108 -0.082690336 0.18858463 -0.24229129 -0.27390197 -0.05717979 -0.29025775 0.10092029 -0.015259227 -0.21439831 -0.04022956 -0.060419418 0.041431732 0.08977403 0.041229904 0.11470987 0.36019534 -0.07101586 -0.016349288 -0.15481435 0.011490576 0.052939456 0.41093966 0.14053583 0.22594288 0.03432251 -0.15192775 -0.08368358 0.14306688 0.13549145 -0.007014791 0.18208537 -0.113650925 -0.039216485 0.14635263 0.13386078 0.40648812 -0.20472698 0.0033865273 -0.16192272 0.0422401 -0.06951331 -0.10804385 0.16595535 -0.14579703 -0.12721568 0.2776736 0.20090936 -0.24055864 0.3463354 -0.10326286 -0.14358346 0.087347224 -0.09489063 -0.15640691 0.09156533 0.28344104 -0.41539487 -0.1721724 -0.011645646 0.13044403 -0.06316016 0.2366174 0.24867272 0.07685092 0.31231079 -0.25232452 -0.14698195 -0.046013556 -0.10916193 0.0041543185 -0.1545266 0.15098047 -0.18277009 -0.026585093 -0.07912582 0.02457973 0.09873376 -0.023411073 -0.040893804 -0.2601209 -0.06349773 0.09747298 0.066082545 -0.03525061 -0.16001822 -0.23787995 0.3105391 0.042784244 0.17705818 -0.09336803 -0.0831165 -0.17575179 -0.10832371 -0.008176103 -0.043451015 -0.13982908 0.12553427 -0.03114797 -0.23478773 0.16316369 -0.0038736116 -0.08085516 0.0015114447 0.06915418 -0.22358818 0.25686595 -0.11963445 0.15616854 -0.25570107 0.2525282 -0.06009816 -0.00895167 -0.09678996 0.10197628 0.067107216 -0.11780678 -0.018090054 -0.08134924 -0.24876277 -0.0792583 -0.121103734 -0.033898998 0.037272472 0.031802934 -0.08284382
36 -0.03503904 0.2208499 0.24018 0.031612698 -0.022320352 -0.11054086 -0.023116965 0.18105277 -0.20766465 -0.05591283 0.0044539073 0.27596167 -0.16137476 0.09237621 0.15305094 -0.06647462 0.12368658 0.041958544 -0.039832335 -0.054929323 0.049180098 -0.050193246 0.05475933 -0.16975452 0.037154704 -0.01603961 0.17298709 -0.118102565 -0.02649076 -0.17730413 -0.014284058 -0.13999921 0.13540804 0.15171865 0.015851613 -0.06789962 0.085720494 0.013999114 0.008096784 0.013888164 0.15974665 -0.11281123 -0.010977537 0.006024726 0.19105195 -0.09407161 -0.15732078 0.0018827831 -0.049148697 0.14781089 -0.19432047 0.093048856 0.008634845 -0.08396956 0.20842336 -0.26198223 0.12558895 0.13614534 0.031024234 0.09541271 0.03739893 0.14866047 0.18810357 0.37634385 -0.14777246 0.08910554 0.06984222 0.20427127 0.094111785 -0.35704905 0.103009254 -0.0010266897 0.15305881 -0.023268232 0.13762957 -0.17093377 -0.10145544 -0.048713647 0.04761323 -0.16075194 0.05634781 0.060311195 0.10431953 -0.0007807746 0.18206505 0.29764378 -0.030252876 0.039954975 -0.027736982 -0.23977564 0.081939064 -0.14516732 -0.14582323 0.08096415 -0.024230989 -0.30614424 -0.17175235 0.02021931 -0.1779579 0.23821925 0.20049527 -0.26555508 0.3092311 -0.23175962 0.16749524 0.09786819 -0.006771676 0.20567858 -0.17333955 -0.1481824 -0.27247328 -0.008479263 0.19536331 0.1613868 -0.005301795 -0.17569433 0.058958463 0.38735417 0.005846048 0.011097575 0.13564101 -0.07878618 -0.08258972 -0.04411614 0.24538027 -0.016630238 0.10651729 0.035783455
88 0.030143986 0.29411075 0.18282548 0.06726247 0.0078476295 -0.06801933 -0.006891699 0.15911254 -0.1518446 -0.06257456 -0.0822743 0.32182324 -0.21846516 0.09114649 0.15873483 -0.075237475 0.05254166 0.044929136 -0.07111954 -0.08965154 0.017487004 -0.03135781 0.053688895 -0.1993735 0.05679273 -0.048302077 0.042142335 -0.10110047 -0.057362176 -0.183756 -0.0023714474 -0.14846711 0.130135 0.17253546 0.048664074 -0.12237547 0.081817284 -0.020604879 0.059788253 -0.029137176 0.11385528 -0.04221339 -0.0031052409 0.047451925 0.22667924 -0.12990089 -0.11008934 -0.03576089 -0.050409403 0.15848848 -0.12427487 0.090851635 0.0005822379 -0.024216127 0.23284034 -0.2150264 0.10885967 0.14792661 0.04196189 0.08957234 -0.024631286 0.14292854 0.20839705 0.38146865 -0.1470312 0.07272694 0.08711681 0.21961531 0.09423252 -0.40024623 0.105082475 -0.007451435 0.09199017 -0.047854707 0.110977456 -0.1907348 -0.18275997 -0.051423304 -0.019746745 -0.13771793 0.09671988 0.09433824 0.0694811 0.04182177 0.15217485 0.26808485 0.02177542 0.05826467 0.030138487 -0.18953685 0.092759825 -0.16953778 -0.12805624 -0.017155217 -0.06989473 -0.22730272 -0.10622348 0.02834474 -0.21416745 0.14919949 0.24641652 -0.32158098 0.3272779 -0.19310565 0.17229888 0.1353184 -0.058124978 0.2662429 -0.14066806 -0.22784191 -0.2006344 0.07577052 0.2578379 0.14263158 -0.030610396 -0.20566162 0.123021305 0.39614743 -0.06941446 0.014298288 0.11259494 -0.22018255 -0.03911166 -0.02130892 0.21173006 -0.06443076 -0.0017819796 0.08181426
236 -0.05842448 0.25414523 0.15237695 0.10494879 -0.032417737 -0.04110655 -0.044173807 0.108013354 -0.19961555 -0.024587886 -0.09059894 0.3493353 -0.16547005 0.080883965 0.10718377 -0.08901774 0.087390855 0.07816421 -0.013310504 -0.06718456 -0.012414355 -0.021860056 0.05402722 -0.21696158 0.015812024 -0.057243917 0.11575666 -0.09972445 -0.06654038 -0.15797086 -0.028918644 -0.07185621 0.08011764 0.2024182 0.0808973 -0.10564678 0.0025385523 -0.0074998387 0.011008647 0.0147923445 0.18118462 -0.037837896 -0.037718635 0.035441667 0.2573979 -0.100187294 -0.14405617 -0.04795603 -0.010422781 0.16934237 -0.14953636 0.039307535 0.029213728 -0.051979467 0.23750283 -0.23333421 0.0751639 0.13418725 0.04075876 0.05445698 -0.0074081924 0.12306592 0.22053684 0.40142608 -0.18989187 0.07517986 0.12511437 0.23972128 0.09413704 -0.35194737 0.077476084 -0.053923868 0.078179546 -0.06974387 0.119048946 -0.16477391 -0.09691197 -0.02267546 -0.071120255 -0.14179362 0.02089193 0.049027286 0.09956485 0.026820306 0.14740019 0.29132962 -0.040708102 0.07573799 -0.0036579275 -0.14841966 0.08828764 -0.21300195 -0.15770976 -0.0139163975 -0.148399 -0.28121695 -0.12774773 0.069786236 -0.19164759 0.1940976 0.27846256 -0.29016846 0.3661454 -0.24820389 0.15275401 0.1720748 -0.036394294 0.16969286 -0.1153896 -0.10741469 -0.15075786 0.02965563 0.284839 0.1837768 -0.021530725 -0.16969354 0.12960196 0.32500732 0.028138842 -0.03681825 0.09102172 -0.10938812 0.011436495 -0.08386833 0.17614146 -0.040729165 0.03828658 0.0702231
250 -0.048029423 0.20358944 0.17747368 0.038648065 0.0013434147 -0.118146986 0.012062381 0.13437031 -0.23694384 -0.03046399 -0.018579245 0.36340877 -0.20245059 0.10077577 0.12262875 -0.08886247 0.059149154 0.10511673 -0.03535877 -0.043003526 -0.024334215 -0.020297837 0.020172266 -0.1696326 0.04941207 0.028379697 0.03536736 -0.09985425 -0.10174409 -0.20262408 -0.08867571 -0.111646295 0.14175 0.19369 0.04303922 -0.048993416 0.0790439 -0.03364881 0.024306266 -0.03032326 0.041485045 -0.096361004 -0.029171923 -0.0063818614 0.23263274 -0.12226505 -0.14580946 -0.06783658 -0.07449259 0.13754801 -0.10323226 0.039201546 0.036006056 -0.068729214 0.16612016 -0.15922712 0.15571582 0.1335278 0.056774363 0.10268174 0.013193539 0.16181797 0.23264104 0.38034478 -0.17294061 0.12249677 0.13688545 0.22009392 0.11705942 -0.34509552 0.050728995 -0.0060005574 0.05016235 -0.07144535 0.11276617 -0.16952243 -0.11937325 -0.025842628 -0.023410471 -0.16005808 0.04487635 -0.04281021 0.14069776 0.005117998 0.18976308 0.23866734 -0.027917828 0.12419819 -0.05764289 -0.21736236 0.091577224 -0.19907762 -0.15951222 0.092169024 -0.08658655 -0.3116755 -0.23216978 0.11646914 -0.20471202 0.17177056 0.23950502 -0.3217412 0.38166797 -0.20949717 0.14910835 0.11196068 -0.008746577 0.18845922 -0.16530618 -0.19683559 -0.22097492 0.0146447895 0.28643903 0.14631496 0.063514635 -0.18278314 0.096586555 0.34746355 0.047884125 -0.00883719 0.1129664 -0.08501968 0.006701239 -0.06383864 0.29000583 0.0058070566 0.08282246 0.053538088
2499 -0.24141937 -0.15523788 0.14439602 -0.28942946 0.20235458 -0.005491349 0.11778861 0.08780023 -0.1849251 0.079779215 0.0011311799 -0.024842925 -0.073338434 -0.3377981 -0.07680286 0.03851386 0.11066987 -0.01687776 0.007442134 -0.22543657 0.27260825 0.07363677 0.086572684 0.10777756 -0.0019539073 -0.0052942396 0.24695171 0.29931912 0.071900986 -0.11902076 0.10573911 0.10604811 0.18656085 0.10989872 0.027231313 -0.14933638 -0.0015749972 0.35456088 0.01941241 -0.07936463 0.07822071 0.07289095 0.32077935 0.049175106 0.01363959 0.2299019 0.19025914 0.31702316 -0.29792574 -0.04999478 -0.33317333 -0.10446415 0.081914864 -0.3185117 -0.07483545 -0.31259248 -0.09331953 -0.06505002 -0.02172136 0.14128895 -0.10637 0.23523454 0.13967529 0.16788928 -0.06955775 -0.21490015 0.11974226 0.13699278 0.01139357 -0.16003157 -0.26407844 -0.027369607 -0.015434698 -0.03975594 -0.28130934 -0.26785 -0.08932233 0.24366248 -0.03208022 0.033110265 -0.026676979 0.18219425 -0.32522008 0.027207537 -0.011370912 0.07724506 -0.03452563 -0.14643787 -0.037341353 -0.18540482 0.08382331 0.03166401 -0.20131572 0.018324357 -0.26907563 -0.06232965 0.3226718 -0.065702915 -0.060808197 0.15277414 -0.018961301 -0.10542149 -0.18966289 -0.074181125 0.23827933 0.020012852 0.17346162 -0.13365813 -0.0007122284 -0.055697203 -0.0047539943 -0.26883647 0.25383985 -0.20568028 0.042861406 -0.0047214595 -0.012399566 0.02306136 0.11337305 0.045950033 0.17646551 -0.10786964 0.09165382 -0.13466142 0.14710031 0.16074994 0.12142637 0.2482913
195 -0.04580627 0.2924095 0.17031871 0.1281837 0.04501459 -0.093025364 -0.08784352 0.18262415 -0.17315035 -0.062438052 -0.11298087 0.3215423 -0.19120397 0.06555622 0.14502199 -0.082720555 0.119646534 0.046479166 -0.04455977 -0.04996187 0.009025 -0.040514432 0.05671867 -0.23379579 0.034556907 0.0094777495 0.11610222 -0.14007565 -0.096260205 -0.15322913 0.0067954566 -0.14404276 0.13037474 0.24419832 0.042846832 -0.14175887 0.057033855 0.0014076551 0.014154502 0.029722359 0.16490206 -0.09652144 -0.027614146 0.032490045 0.2642399 -0.060743906 -0.14234318 -0.05155778 -0.011028942 0.1566293 -0.16084501 0.11015039 0.033018805 -0.10006926 0.2185777 -0.18316312 0.14902025 0.12815562 0.09911312 0.10164635 0.02060239 0.103435256 0.21189767 0.34523484 -0.1388219 0.03128654 0.10577416 0.19870983 0.1118831 -0.3282478 0.10354504 -0.077071175 0.15518743 -0.07840107 0.054317605 -0.14799549 -0.08987575 -0.0084473835 -0.010174431 -0.20655696 0.038414724 0.043761723 0.10768676 -0.011147576 0.1592511 0.21128017 -0.00043545023 0.107639894 -0.021760028 -0.15715756 0.06791432 -0.15715314 -0.1290745 0.0029594805 -0.078790694 -0.23793457 -0.17555629 0.059366442 -0.20409119 0.160079 0.15882121 -0.27849373 0.3548072 -0.2721236 0.2044235 0.13381341 -0.009529607 0.22879677 -0.21732277 -0.18675597 -0.17418927 0.07435069 0.30001432 0.14041469 0.06858059 -0.17921656 0.11280564 0.35797647 0.0061461693 0.0077559925 0.15950964 -0.18022004 -0.11650193 -0.0013749587 0.2791174 -0.02749385 0.0625783 0.062057346
2482 -0.49947885 -0.3899839 -0.52516556 0.12639108 0.14426577 0.02424151 -0.44249737 -0.11800766 -0.35969645 -0.044439886 0.3989546 -0.01769713 -0.0015514586 0.080487005 -0.27786562 0.16340192 0.114080496 -0.21415003 0.17912816 -0.35551867 0.09166999 0.14643493 0.14021735 -0.05480956 0.024951888 -0.0062200646 -0.19836351 0.032237224 -0.3052742 0.07703326 0.0327803 0.009190708 0.037780557 -0.022616703 -0.042536464 -0.030791987 -0.089324966 0.07636114 0.43697485 0.094673686 -0.110245876 -0.42255217 0.14783533 0.24162078 -0.44967988 0.17057711 -0.052750047 0.07644204 -0.21847321 0.30952576 -0.1928353 0.2834705 -0.14754932 -0.23109733 -0.037053972 -0.31719595 0.053329166 0.05936045 -0.27704027 -0.1877884 -0.12470066 0.34048468 0.051535368 -0.08130517 0.43705237 -0.07958721 0.2683368 0.27241623 -0.2281451 0.062167194 -0.21127231 -0.2552328 0.02266901 0.19961768 0.057383507 -0.12112755 0.002130097 -0.13494743 -0.024772856 -0.092545 -0.0661661 -0.042568393 -0.094213225 0.010040075 0.07266218 0.1623754 -0.06387886 0.047000006 -0.05277201 -0.11323439 -0.18457805 -0.034180902 -0.191045 -0.31189713 -0.022260338 -0.20307085 0.16261487 0.22801878 -0.008547587 0.29719514 0.15899739 -0.113997266 0.11969149 -0.29801664 0.48072255 0.0054948893 -0.0416426 0.47731918 -0.048107415 0.046812285 -0.07397622 0.1769454 0.1322599 0.081106976 -0.13685188 0.0016897973 -0.1017878 -0.10350946 0.079272054 0.1483272 -0.30128986 -0.07102375 0.18916857 -0.18388407 -0.0730845 0.013224989 0.25011677 0.0067082616
2617 -0.112845115 0.17093123 -0.0021166285 -0.19858792 -0.26297417 -0.225454 -0.14922838 -0.299639 -0.22916669 0.16648309 0.010298978 0.15161622 0.08220321 0.062580235 0.060511965 0.13103542 -0.0077328426 0.06654654 -0.24964345 -0.3789156 0.18781732 -0.104561694 0.29839447 0.096375406 0.090238295 0.17074876 -0.028579721 0.030473158 -0.25271362 -0.041889068 0.112617776 0.11018803 0.117951676 -0.0239892 0.057500366 -0.27765533 0.07341231 0.3205541 0.050283644 0.13019805 -0.0708558 -0.010240896 0.047257405 0.05675366 0.0671955 -0.016382232 -0.10278719 0.14121929 -0.043050542 -0.15575673 -0.2945129 0.104596265 0.026288046 -0.14872216 -0.029441144 0.12294555 -0.11167524 -0.19830555 -0.16648847 -0.04403202 -0.13605942 0.0171348 -0.20084307 0.052088276 0.044090465 0.023272395 0.16961837 0.15761314 0.16063325 -0.060816467 -0.15753178 0.19629526 -0.15757644 -0.23294331 0.11548538 0.055081163 0.12084709 -0.048473872 -0.04268735 -0.123539515 0.002449237 -0.16594619 -0.039321266 0.11464967 -0.03716162 -0.1991939 -0.044903982 -0.0742445 -0.21152656 -0.16080292 0.14513212 0.02750205 -0.0702889 -0.043920852 -0.19015335 -0.11789742 0.10569875 0.10884953 -0.26065683 0.018439276 -0.11656776 -0.35295147 0.0221587 -0.22110814 0.007462645 0.07165594 0.0324112 0.0666961 0.081646115 -0.41942638 0.23966043 -0.006336391 0.28171197 0.010628625 -0.07474686 0.055546246 0.16469596 0.059200205 0.12815551 0.053962145 -0.25581965 -0.06762521 -0.2764784 -0.2543576 0.07529347 -0.10352476 0.2048668 -0.1328783
2430 0.015124253 -0.012589925 -0.0917749 0.065299645 -0.052776735 -0.31085208 -0.069055185 -0.10821498 0.13399503 -0.0627472 0.05685441 -0.0196205 0.16050488 0.12065265 0.11115741 0.32647604 -0.06727318 0.07094109 -0.089929655 -0.0203939 0.21395259 -0.10025573 -0.05578204 0.30929515 0.37792036 -0.10411523 0.027727496 0.10128495 -0.0026619888 -0.0961771 0.20128793 0.17701083 0.053428363 -0.026058845 -0.07231868 -0.20979588 0.20423317 0.15225016 0.20374152 -0.061248437 0.13194226 -0.010028543 0.031952653 0.18174557 0.079158984 0.13614824 -0.10176784 0.15109462 -0.10355992 0.29048842 -0.27442387 0.025123073 -0.05639784 -0.071795434 -0.033720847 -0.119018644 -0.0014313718 -0.03772507 -0.13515079 0.022380255 0.11271632 0.043713544 -0.069025844 -0.031156307 0.041802913 0.18882602 0.20806776 0.18673663 0.16351609 -0.080743305 -0.15660073 -0.10327402 -0.120760664 -0.24318546 -0.1155051 -0.24895427 0.02908594 -0.03545434 0.18030575 0.014837447 -0.074101634 -0.053433806 -0.2814583 0.0074376343 0.05370659 0.006968541 0.14822058 0.13802196 -0.12570794 -0.046048246 0.09406715 0.019326912 -0.25312242 -0.042680588 -0.09800348 0.008483776 0.16005819 -0.1685192 -0.18152589 -0.10443468 0.032107875 -0.091962874 -0.0029613953 -0.13032718 0.044977367 0.04915304 -0.045858942 -0.16678445 -0.09837427 -0.30975342 -0.29322666 -0.13007918 0.18915376 -0.025219902 -0.1130393 0.07629935 0.017309904 0.12233295 -0.04028104 0.17070581 0.20087822 -0.35331547 0.09846057 -0.12859614 0.08562253 0.21386781 0.19225357 -0.0005019554
881 0.0137847075 -0.14206733 -0.03897916 -0.0349441 0.15633965 -0.22889546 0.15074354 -0.0054497835 -0.15611912 0.2084008 -0.03573669 0.030495001 0.016286224 -0.011162409 0.046757407 0.0013204692 0.11019606 0.014140378 0.05301286 0.005863513 -0.039987613 0.014418553 0.12737577 -0.04305839 0.08636623 0.02497797 0.0770828 -0.05386359 -0.10309991 -0.13079605 -0.053074375 0.028640557 -0.06705922 0.06666281 -0.18260422 -0.26121974 -0.0494253 0.15001862 0.051911294 -0.0097812265 0.19490436 -0.09155656 0.20400909 -0.03189439 -0.017002443 0.11760118 0.072977364 0.23841508 0.033915482 -0.07695312 -0.13488173 -0.114178464 -0.0710719 -0.015561705 0.0590375 -0.18839766 0.025262922 -0.07752286 -0.09745046 0.16178368 0.09779861 0.061536103 -0.0741561 -0.118299484 -0.058666226 0.23749828 0.24039595 0.043115534 -0.1206632 -0.016608357 -0.03695223 0.0025048745 -0.11784774 -0.032805335 -0.12008285 -0.26271752 -0.1047836 -0.16209137 -0.07792252 0.038371995 -0.13362046 -0.17944261 -0.021160236 0.27088758 0.07711157 -0.018896483 -0.06643544 0.043123562 0.16531236 -0.12752126 0.19997354 0.04346552 0.10415965 0.0031616024 0.07018242 -0.18892744 0.014598683 0.045185745 -0.087460876 -0.027856587 -0.033625897 -0.24791107 0.02911621 0.020152718 0.055443753 0.11628115 -0.043972857 0.12798487 0.25841004 0.0036613706 -0.058169596 0.1331843 0.18725991 -0.2009303 0.22246358 -0.07672121 0.203253 -0.16738798 0.011580043 0.018073844 -0.09820045 -0.15125212 -0.0024195847 -0.121971376 0.17072217 0.08176323 0.10679368 -0.020210091
2614 -0.41733208 -0.08536122 0.031945776 -0.16447541 -0.016019307 -0.22637537 0.09580178 0.13020556 -0.058678303 -0.18478924 0.21941392 -0.20183727 0.025378138 -0.1373687 0.024903161 0.25805557 -0.21258184 0.29878798 -0.1312099 -0.24186276 0.08590176 0.081642255 0.2357768 0.023959266 0.17165036 -0.21364252 0.25610945 -0.123459175 -0.18062258 -0.15544929 0.098398656 -0.2814133 0.10071887 -0.022681104 0.059312783 -0.06140171 0.13762163 -0.029902423 0.18231267 0.08417329 -0.09121332 -0.21363033 0.4864032 0.077217355 0.024872888 0.09974452 -0.13481414 0.032143265 -0.118749686 0.2634846 -0.549518 -0.120420866 0.1814046 0.023511883 -0.1865641 -0.120753564 -0.0029514355 -0.044869483 -0.04239631 -0.35970467 -0.05097361 0.19961908 0.10938813 0.096148446 0.13350749 0.060544636 0.17762724 0.04365106 0.09668988 -0.02541437 0.032362174 0.10874484 -0.27663505 0.020222787 0.061416607 -0.18852988 -0.043669164 0.046046678 0.11547019 -0.013320988 0.036675368 -0.16238128 0.03265789 -0.23647009 -0.13525748 -0.06152038 -0.26997587 -0.18703532 -0.02857769 -0.16673589 0.13140441 -0.24464937 0.104378484 0.08437816 -0.21633072 -0.17550844 0.11098263 0.042119727 -0.17179993 -0.22624907 -0.030982235 -0.18307479 0.02781614 -0.20818707 -0.29955727 0.04523504 0.100238845 -0.22399804 0.083245 -0.12591986 -0.17014992 -0.03144072 0.2910775 0.032582995 0.16244939 0.00087772374 0.20227547 -0.03970769 -0.20210417 0.12852445 -0.016353043 0.062430527 0.07018157 -0.16496238 -0.041910626 0.1927856 0.29515582 -0.11760771
849 -0.050243493 0.07954558 -0.011690175 -0.2189178 -0.058650527 -0.056572646 0.042725313 0.15444733 -0.009400528 0.27027547 0.17583232 0.07879648 -0.094434455 0.040155686 0.1981819 -0.08501949 0.11588475 -0.11033858 -0.044405185 -0.26028425 0.06277976 -0.07287054 -0.021719424 0.029030537 0.19685452 -0.041910093 0.106657654 -0.0075115017 -0.055716828 -0.22276473 0.084469035 -0.22563116 0.07061497 0.03421912 -0.2779271 -0.10412656 0.18631998 0.06385837 0.092996895 0.038887385 -0.11857258 -0.15648286 0.3729069 -0.073994726 -0.17440923 0.014774246 -0.30843756 -0.0033666715 0.035171214 0.13301264 -0.06463072 -0.008966242 -0.15297572 -0.12641229 0.1329995 0.031199085 0.07437429 0.0984062 -0.03754855 0.023453344 0.15638883 0.0301722 -0.07730157 0.11189422 0.19041125 -0.016313415 0.2669958 0.07640238 -0.07070721 -0.046648603 -0.22437257 -0.37923005 0.069938436 0.20998773 -0.062314436 -0.2009867 -0.06758229 -0.15216556 -0.088472664 -0.31496513 -0.1636241 -0.19975196 -0.12942494 0.24196656 -0.07340423 0.040124252 -0.11729007 0.2507321 0.07284821 0.11495158 -0.00046959505 0.07636006 -0.013409917 -0.07012212 -0.17930314 0.10614625 0.12886235 -0.29869887 -0.113635406 -0.09164578 -0.0982412 -0.038841467 -0.084959544 -0.026848894 0.22089939 0.19104677 -0.12910599 -0.089013614 0.10893571 0.03992607 -0.017840652 0.013696186 0.22468328 -0.0873543 0.06535967 -0.08402526 0.08862719 -0.057471745 -0.07456114 -0.07931398 -0.051568657 -0.017296294 -0.023814196 0.03788413 0.11572891 0.135535 0.16620457 0.02921664
2593 -0.043789595 0.10264428 0.09051706 0.29105702 -0.16758776 -0.29609644 -0.061939165 0.049356196 -0.16699809 -0.082493894 -0.05962296 0.02525954 -0.052855164 0.039567146 0.16965105 0.25256416 -0.11437236 0.085393846 -0.21434706 -0.12797832 0.23925136 -0.24499401 -0.02541029 0.0710161 0.11013852 -0.1916239 0.073643185 0.065561675 -0.17144965 0.04470311 0.16953774 0.110795684 -0.0660069 -0.08440728 0.028764233 -0.25796196 0.04040917 0.19068119 0.15635322 0.2626673 -0.16625157 -0.23198712 0.33058947 0.08851863 -0.11260869 0.24970819 -0.1400754 -0.012985804 -0.07954005 -0.027755693 -0.033473793 0.14337018 0.14916396 -0.1090679 -0.21089262 0.15056661 -0.102370486 0.03928438 -0.091185376 0.094209075 0.03781006 0.119134195 0.06512072 -0.020757344 0.13001975 -0.102792 0.18210104 0.23067854 -0.16821001 -0.11921166 0.17099099 -0.07223925 -0.12634191 0.09056134 -0.11138859 -0.22220458 -0.090839535 0.06267261 -0.19685471 -0.26745078 0.17541578 0.010987682 -0.10724219 -0.24290979 0.0029427456 -0.00080890633 -0.055629384 -0.19853738 0.03345215 0.2200892 -0.00027585993 -0.017360857 -0.076976374 0.12593412 -0.107500054 0.1037843 -0.12907156 0.14076805 -0.062120732 -0.06894813 -0.1253074 -0.29810426 0.15878429 -0.06770897 -0.04628614 0.039754767 0.0035519083 0.07919306 -0.22517438 -0.28376216 -0.083376534 -0.020347664 0.26611242 -0.36967847 -0.077913694 -0.056152128 0.33528832 0.1591181 0.019209588 -0.023769261 -0.14550166 -0.176746 -0.24216063 -0.2902916 -0.02055265 0.3361615 0.19111198 0.14207606
2511 -0.10044685 -0.021980546 0.12770496 0.049628858 -0.17907801 -0.12867829 -0.16303276 -0.20591012 -0.036335524 0.018032715 0.26005864 -0.044280495 0.022737524 0.15261617 0.1375236 0.04982508 0.04803405 0.180947 -0.045787543 -0.22089754 0.29371533 0.05078918 0.040490907 0.19923958 0.18134555 -0.26271603 0.226844 0.22817679 0.09370899 -0.12828924 0.24345897 0.0570478 0.26624283 0.076670006 -0.084968 -0.020700585 -0.0051295757 0.013809697 0.33578855 -0.043776084 0.06862779 -0.025935022 0.132212 0.28506696 0.05134368 0.18685788 -0.019375812 0.056473624 -0.07658928 -0.20753463 -0.19245854 0.23050025 -0.076223604 -0.2499687 -0.15687333 -0.18952617 -0.047856376 -0.091983944 0.042255126 -0.2630839 -0.27663293 0.040218424 0.0017939364 0.09275565 0.13623668 0.15581894 0.24899092 0.12356163 0.060528554 -0.22286604 -0.09724667 0.034123614 0.11741815 -0.06442612 -0.15036838 -0.1371641 0.053557158 0.13491224 0.094418935 -0.037545323 0.16989435 0.100565955 -0.005695546 0.13022387 -0.014415303 0.05097971 -0.24409385 -0.061766915 -0.028203405 0.1796043 0.015971567 0.17571913 -0.23884547 -0.12767516 0.023763722 -0.122971915 0.26087943 -0.1350297 -0.041741125 0.098413125 0.08072568 -0.1483572 -0.19653626 0.074211664 0.048761774 0.1072898 0.026208933 0.14246897 -0.056104675 -0.2053921 0.05633344 -0.029091822 0.062754355 -0.04046437 0.00077762356 0.040454336 0.18572457 0.16350041 0.28608993 0.09837944 -0.05664798 -0.115851946 -0.20914023 -0.04169238 0.109717175 0.053799678 0.20178242 0.06404065
2596 -0.021880787 -0.046692617 0.09671083 -0.030742465 -0.1313585 -0.014555433 -0.27017587 -0.12776755 -0.1353876 0.21513681 0.24291275 0.21956348 0.33676493 0.12908207 -0.10575619 0.062263083 -0.14201532 0.07127214 0.0121922875 -0.17559808 -0.027371878 0.021210993 0.04369266 0.18661572 0.18331225 -0.13581084 -0.09787466 0.19134809 0.011178842 0.297928 0.21813568 0.06266837 -0.038302675 0.027489554 0.0900569 -0.07119471 0.24300247 0.057968292 0.023527022 0.1548181 -0.08284409 -0.24869289 0.06362616 0.058665056 0.06123272 0.11423809 0.015905995 0.062298696 -0.04624116 0.10286864 -0.30704725 0.14540005 0.11444774 -0.04584513 0.026445858 -0.06860347 -0.0802681 -0.10631437 -0.06555949 0.00804589 -0.023247423 0.067953184 0.16311784 0.11462175 -0.038710456 0.029564606 0.11147221 0.2532018 0.02736479 -0.08871915 -0.31853256 -0.2785282 -0.015081421 -0.26430678 0.1568428 -0.3381279 -0.12388904 -0.09381598 0.0132543165 -0.33136088 0.095283836 -0.062337127 -0.21162394 0.081393726 -0.14219373 0.22658789 0.1847642 -0.09757233 -0.11165223 -0.073178224 -0.095289424 -0.046952207 -0.19168025 -0.16634034 -0.048622776 0.24819773 0.13169819 0.28062576 -0.095158435 -0.31985468 -0.063986264 -0.32585302 0.25114247 -0.10039801 -0.24392821 -0.117951274 0.028093947 -0.16155489 -0.09396614 -0.14481679 0.07820857 0.06593636 0.30487636 -0.047471814 0.05768318 -0.13190433 0.3016907 -0.10805227 0.11880563 -0.15214562 -0.0018123087 -0.08907616 0.08414061 -0.10903982 -0.19399507 0.1067272 0.0134545 -0.051225703
2508 -0.08686197 0.10073361 0.16043271 -0.014037245 -0.2474489 -0.09638598 0.013994067 -0.060731426 0.16815591 -0.17258976 0.22327283 0.3049388 -0.27834973 -0.18930934 0.04702451 0.038250364 -0.27760172 0.198909 0.1299847 0.0670827 0.24647829 -0.10726415 0.38458374 0.074803345 0.17623958 -0.031069826 0.13951558 0.02364526 0.25770256 0.013541716 0.14260204 0.11320835 -0.015754277 0.0009195943 0.028026253 -0.0155081395 0.16276383 0.065143056 0.28954956 0.09168111 -0.1340457 -0.062789306 0.33206138 -0.102086864 -0.0074000484 0.31922168 -0.21132158 -0.030310124 -0.05048999 0.011403392 -0.14581165 0.21957062 0.03697244 -0.12425665 0.18058562 -0.4619991 0.047900736 -0.16644046 -0.0008365871 0.002055521 0.044874582 0.14265978 -0.07910718 0.10556871 0.05327962 -0.10850722 0.23560959 0.033321213 -0.21835086 -0.23855343 -0.15202962 0.062893026 -0.14763439 -0.12097577 -0.022605976 -0.1947473 0.094670236 -0.21108161 0.13648358 -0.048036862 -0.05565399 0.07176219 -0.35102955 0.13885996 -0.06663471 0.5029268 0.14748888 0.21493247 0.06607177 -0.054625288 -0.12475514 -0.09103652 -0.20237303 0.03782206 -0.04293905 -0.02629948 0.26325646 0.1710561 -0.17091964 -0.22199035 0.20596914 0.13940483 -0.005858953 -0.091001764 0.051989973 0.0060291705 -0.15861888 -0.14498465 0.3722536 -0.15193363 -0.14575656 -0.097460836 0.3712241 -0.07618231 -0.032376293 0.12001022 -0.08462537 -0.08893958 0.0084471805 -0.051630706 -0.15340659 -0.004486974 -0.11457081 -0.40673584 -0.017025908 -0.19222255 0.17884049 -0.3054088
2561 -0.36465263 0.3592248 -0.09787362 0.38483405 -0.043285582 0.2314981 0.076900885 0.00021870057 -0.20920455 0.20479006 0.1503797 -0.2728487 0.08437372 -0.103043705 -0.38854656 0.08865379 0.14417584 0.26123145 0.20134558 -0.26049158 0.26655486 0.1268791 0.29575568 0.15862449 0.27745846 0.16067259 0.40557322 -0.23597583 -0.29537773 0.33476278 0.32913864 0.04528835 -0.01799625 0.32074356 -0.028689723 -0.15526988 -0.16726117 -0.04243001 -0.05482898 0.15436007 -0.066053845 -0.4439546 0.10449366 0.30868712 0.32977957 0.29030487 -0.24193905 0.038234416 0.29788944 -0.015796317 -0.20275927 0.024771852 0.09082547 -0.3084955 -0.019694032 0.120439276 -0.53618217 -0.031095948 0.27783465 0.08089774 -0.19637105 -0.059989188 -0.050751682 0.38896617 0.08415446 -0.32124102 0.1923799 0.102127984 0.082116425 -0.0987816 -0.04556561 -0.32937682 0.2962454 -0.36425158 -0.110056534 -0.019934148 -0.49153987 0.25529233 0.121005416 0.012852775 -0.22016451 -0.33655778 -0.19962405 0.20708127 0.36565575 0.28200686 0.07450273 -0.041937724 0.12816365 0.10334963 -0.36808372 0.03967976 -0.15441817 0.16101769 -0.4973513 -0.27712184 0.34823346 0.024734333 -0.35781935 0.018595306 0.29712543 0.054489076 -0.1134227 -0.18451835 0.14592443 0.13434815 -0.21319558 -0.024386968 0.18883388 0.0927931 -0.19538717 0.06905109 0.026932823 -0.18442914 0.31690547 -0.05108531 -0.20723654 0.04341231 -0.149657 -0.055253986 0.046581525 -0.43657267 -0.12721273 0.08505143 0.31822392 -0.27076295 0.08999092 0.08615747
2425 -0.10595026 -0.09438524 0.06694521 0.07144907 -0.023156038 0.2953382 -0.1265401 0.15060003 0.113456786 0.0017694347 -0.17828657 -0.15124372 0.004172745 0.13860504 -0.13068551 -0.21336798 -0.2608929 0.10705598 -0.09449754 -0.034218725 0.45180935 0.23090015 0.08513904 0.12317344 0.25777513 -0.23745857 0.30075362 0.079166815 -0.23466939 -0.072862476 0.07288323 -0.08753451 -0.010334408 0.03895128 0.102121 -0.18951593 0.2395163 -0.18602258 0.1057139 0.30120495 0.18199673 0.23275875 0.21920706 -0.06875215 -0.0129765235 0.28998005 -0.11788239 -0.10434515 -0.17188926 0.14039004 -0.13115533 0.01994884 -0.30028585 -0.29290545 0.028521396 -0.108569875 -0.22747216 -0.18603101 -0.34644666 -0.13582638 0.15854417 -0.2049649 -0.14511456 0.39617655 0.010206891 -0.024018135 0.31047055 0.35489538 -0.07637492 -0.19950211 -0.13089731 -0.07831636 0.048673425 0.077844046 -0.11274317 -0.46192548 0.203528 -0.19845743 -0.044038232 -0.006654601 -0.007958015 -0.09493641 -0.1756232 -0.11696514 -0.00040746527 0.00327499 -0.077105924 -0.3077396 0.04782855 0.25731367 -0.00032614951 0.112483874 -0.01507021 -0.29345733 0.12699875 -0.25523916 0.05738896 0.13773187 -0.43712685 7.477956e-05 0.0014606261 -0.30673838 0.14600855 -0.14406206 0.036656726 0.10314023 0.02905163 -0.059968807 -0.037213236 -0.33591232 -0.06412668 0.027800575 0.089906834 -0.041672505 0.18450415 -0.14376236 -0.08299112 -0.12957676 -0.072204195 0.2600921 -0.061696246 -0.08216685 0.030403225 -0.05860209 -0.09331348 0.025890552 0.21445748 0.08730889
87 -0.13195221 -0.15043312 -0.045174975 -0.04842081 -0.17569683 -0.025723288 0.26948866 0.1309523 0.051691245 -0.03704956 0.28011733 0.19170459 0.10247261 -0.070709094 0.043278992 -0.044503953 -0.03742311 0.16955292 -0.046219055 -0.05597518 0.1982796 0.01109352 -0.19293047 -0.1580672 -0.09427079 0.27109724 0.1701788 0.19696714 0.03657984 0.032130834 0.14279737 -0.09667613 -0.0072820634 -0.03473317 0.14956845 -0.23904097 -0.04853717 0.086525284 0.33320153 0.056906775 0.013060336 -0.10408734 -0.18322256 0.013286559 0.034580342 -0.19493024 -0.051923722 0.108553305 0.16277659 0.19114268 -0.09243566 -0.183856 0.12020251 -0.31674582 0.14966466 0.073246635 0.08370348 -0.017312247 0.15367883 0.0052747414 -0.019306501 0.084003285 0.11085063 0.091728866 -0.0015583894 -0.05027055 0.23868358 0.1368919 -0.12236725 -0.053760033 -0.07844923 -0.0863069 0.20468809 0.065738134 -0.026461245 -0.16951115 -0.23376451 -0.10870051 0.045605652 0.05348095 -0.053555563 0.11247717 0.030468678 -0.18130948 0.009943975 0.2563982 -0.021519564 0.2907408 -0.07443078 0.16659318 -0.19982931 0.08062918 0.027160361 -0.07586806 0.13636087 -0.205628 0.25368163 0.11712209 -0.3089178 0.10554768 0.17954344 -0.21004607 -0.08515179 0.16555908 -0.11329614 0.20051119 0.019946635 -0.054127157 0.1145578 -0.22872 -0.08915242 0.030005725 0.12325075 -0.20991339 0.17581366 0.11984145 -0.07026488 -0.37895706 0.13746187 -0.015708376 0.17993736 -0.24818252 -0.18155661 0.021081466 0.027777918 0.05962602 0.0022972154 0.0012928157
359 -0.21781117 0.37813118 0.23505886 0.13367032 -0.094195925 -0.06336886 0.009117477 0.09945634 -0.2580806 0.13060614 0.15174222 -0.22018602 -0.15683673 0.11481019 0.15640196 -0.13184327 0.0057355375 -0.056725595 0.22991996 -0.0792944 0.10020896 0.20482273 0.042350266 -0.018362163 -0.15122262 -0.039536107 0.053790998 0.14555424 -0.067897 -0.021382114 0.30125505 0.18064986 0.12500833 0.11135337 -0.3314617 -0.22479354 -0.19932489 0.068051584 0.17774394 0.08817114 -0.023537632 0.06505777 0.11619999 0.04938134 0.031520657 -0.08940957 0.046209246 -0.30386603 0.03551043 0.2741987 -0.49379444 0.13229027 0.07087436 0.115291156 0.3949035 -0.103306174 -0.054806057 -0.26316944 0.01727571 0.07856545 -0.096508175 0.06135951 0.068606056 0.24745254 -0.041268528 -0.015622379 0.11708095 0.013733697 0.16222812 -0.018002996 0.29034013 -0.04543611 0.10450065 -0.06018444 0.011237748 0.07198915 -0.15255134 -0.052246276 -0.046674013 -0.2581785 0.036598682 0.08183925 -0.1994878 0.227361 0.2814843 0.28415537 0.15918101 0.010857924 -0.26396012 0.116397455 0.19804507 -0.16986112 0.06397573 -0.1702022 -0.060102846 -0.051718615 0.21413477 0.24574773 -0.029882306 0.008541538 0.047647435 0.041356683 0.2995251 -0.1608525 0.22727524 0.01847367 0.08861329 -0.1053697 -0.02881462 -0.3008905 -0.26775783 -0.061951768 -0.1855885 0.11547467 -0.020295912 -0.026247857 0.12918727 0.10412048 0.04340346 -0.06372372 0.11843633 -0.0197116 -0.3625441 -0.13255377 -0.19976476 0.12358798 0.37115225 0.043220643
2532 -0.3343691 -0.18218878 0.42195737 -0.15206203 -0.18496943 -0.18818583 0.025526632 -0.26200303 -0.079769336 0.09119585 -0.060787152 -0.08204889 0.12311102 0.08444922 0.11085699 -0.095198445 0.065230444 0.06720791 -0.11985684 0.021774406 -0.08088904 -0.13806517 0.3117059 -0.23355122 0.26237395 0.06173042 -0.110905595 -0.18446925 -0.20967633 0.17218754 0.26644257 -0.32684237 0.048165344 0.11836618 -0.19717756 -0.038908992 0.30038178 0.20913754 0.19982404 -0.17504373 -0.10023781 0.09598818 -0.1213804 0.21688302 0.051852647 0.11736288 -0.024525203 0.10126044 -0.008609622 0.10595184 -0.2792366 0.23192936 -0.025502382 -0.28094324 -0.08913517 -0.059319388 0.12492184 -0.16528416 -0.2860597 -0.13299394 -0.4166137 -0.17381887 -0.10670495 0.32788062 0.122964725 0.059467357 0.2149963 -0.12584975 0.0016093405 -0.028664405 -0.053200424 0.055418145 -0.16312422 0.06582161 -0.2992751 -0.1561888 -0.20545419 -0.02962854 0.08966095 -0.28588367 0.29531312 0.11682094 -0.25724533 0.3546988 -0.17671421 0.12428589 -0.2588981 0.2811839 0.005379296 0.3091744 -0.0610126 -0.08569417 -0.18800634 -0.17853117 -0.18686162 0.0005952884 0.30012903 0.22112498 -0.32443658 0.023580857 0.04640794 -0.38542926 -0.19580354 0.0064306897 0.22975425 -0.16926824 0.02994044 0.21572424 -0.024046315 -0.11679881 0.16486491 0.17891613 0.08316857 -0.3994199 -0.1939617 -0.035805855 0.08956495 0.17541943 0.1623592 0.14302495 -0.24405769 -0.36192775 0.041781023 -0.110078834 -0.13588557 0.28511494 0.21766725 -0.073118806
164 -0.05989649 0.0586666 -0.013996927 -0.056798745 -0.07763144 -0.040994477 0.25543633 0.04523847 0.0030714497 0.11611814 0.2273824 0.21967556 0.12829229 -0.07221157 -0.020525672 -0.021913191 -0.03326235 0.116351135 -0.034641623 -0.07004434 0.14456019 -0.023935802 -0.21143289 -0.15450332 -0.027498636 0.19732468 0.18987185 0.25455436 -0.06267226 0.04584056 0.12849659 -0.155893 0.04724719 -0.007924725 0.10658982 -0.23334658 -0.0016959261 0.077208094 0.27270442 0.113481745 0.021776743 -0.10183345 -0.14178738 0.13131104 -0.025945682 -0.22942111 0.03688294 0.14539105 0.1255441 0.2111335 -0.03999499 -0.1180027 0.035378255 -0.34401083 0.08629586 0.08193368 0.028145196 0.117718555 0.19208203 -0.06375872 0.0020811462 0.1110568 0.121527955 0.078110375 0.018695084 -0.078988284 0.21566978 0.21144679 -0.0035868373 -0.15535519 -0.10792219 -0.08525569 0.15903464 -0.00927472 -0.07643219 -0.1945231 -0.16568947 -0.06506781 -0.13437247 0.09432819 0.011655918 0.03329213 0.049173936 -0.17817877 0.017752232 0.15383677 -0.059429105 0.3045296 -0.08464974 0.18811803 -0.18873152 0.018033931 0.101545274 0.031437635 -0.0139003955 -0.21631105 0.2595138 0.13010791 -0.2313418 0.09598461 0.22173852 -0.14053316 -0.10801483 0.13969119 -0.086367354 0.31448677 0.06447736 -0.062174298 0.07552773 -0.18504713 -0.04431953 -0.031462792 0.13538209 -0.16921711 0.109803565 0.063878156 -0.019937733 -0.3538874 0.041106127 0.047611825 0.10953489 -0.29963887 -0.18115516 0.014058794 -0.026107365 0.05641305 -0.09065982 0.06827315
1109 -0.12877879 0.0040785377 0.17687549 -0.053342253 -0.23477975 -0.16952097 -0.17915793 0.11117886 -0.2534119 0.15395185 0.18039498 -0.018927114 -0.0059455284 0.102478944 -0.06923041 -0.09864336 -0.22656819 -0.01763198 0.26219875 -0.17939135 -0.17737976 -0.1480731 -0.04602144 -0.18186599 0.10011092 0.18653278 -0.20161329 0.24584989 -0.1307743 -0.22327112 0.06833168 -0.08514727 -0.10739519 0.05955396 -0.30591014 -0.06707918 -0.18771464 -0.035160236 0.024960944 0.117711835 -0.05180341 -0.17716928 0.4685698 0.15403253 -0.16219497 0.108695164 -0.13691634 -0.20985368 0.18954426 0.16829117 -0.1442917 -0.16530184 0.2832253 -0.04539108 0.05339611 -0.19351843 -0.10664757 0.04194338 -0.14969893 0.19941577 0.07029471 -0.19896945 -0.1333079 -0.050785672 0.00740616 0.069705516 0.11567552 -0.20707648 0.10735179 -0.09744743 -0.16119681 0.047268163 -0.0040704 -0.16056761 -0.35782427 -0.46531233 -0.03650408 -0.039756577 -0.03765367 0.10854631 0.15732086 -0.06199578 -0.18492326 0.083213136 0.20701058 -0.10091438 0.04328441 0.026746163 0.13099265 0.14416327 0.19619335 -0.055215288 0.2832165 -0.029412076 0.17414325 -0.056401525 0.05045047 -0.073499925 -0.30615565 0.10053712 -0.1960838 -0.31927606 -0.059026085 0.11117302 0.17206272 -0.33770028 0.07625146 0.10638444 -0.072499774 -0.18336287 -0.18369941 0.07777816 0.41628277 -0.0017790683 0.123604834 0.02173202 0.2325086 -0.28449884 -0.0050251186 -0.020648718 -0.15034677 0.026953988 0.105501756 -0.19693083 0.31309107 0.06770653 -0.068955444 -0.005877586
278 -0.18076693 -0.023028826 0.16728008 0.13713364 -0.10540236 0.24185623 -0.4943465 0.023002172 0.098793626 -0.039395247 0.06333678 0.29481146 -0.05733415 0.018879985 -0.17104231 -0.18177186 -0.1773315 0.10666858 -0.27474597 -0.0035544746 0.32850364 0.12839238 0.2641845 -0.30810863 -0.13731562 0.124990776 0.20303917 -0.19532327 -0.24706014 -0.06997933 0.18924648 -0.08031842 0.19512355 0.022890816 -0.054105967 -0.14576714 -0.16655624 0.18316984 0.122536235 0.062630124 -0.11865223 -0.2868209 -0.07874766 -0.061711047 -0.26573786 -0.13702957 -0.0489199 -0.15973644 -0.27773878 0.23782723 0.13081387 0.033312917 -0.1469352 0.14178658 0.28875902 -0.54544836 -0.27185518 -0.069087975 -0.14963683 -0.08117252 -0.23956807 -0.044436507 0.0894459 -0.18876252 0.049546834 0.31575033 0.13961303 0.15024507 0.07334133 -0.18321422 -0.39785528 0.08422367 -0.13279031 0.14611854 0.07100625 0.098166525 -0.17605601 -0.02806902 -0.28166226 -0.07544452 0.15737845 -0.30618003 -0.048748806 0.22209108 -0.049924027 0.32075426 -0.046217687 0.013529489 -0.21219586 0.15505995 0.14382811 -0.3237258 0.07348689 0.16990532 -0.17000641 0.02473502 0.052683897 -0.07288253 -0.125315 -0.29257303 0.05550708 -0.19469385 -0.12604164 -0.07763892 -0.09336276 0.106819436 0.107062094 -0.33384314 0.08473288 -0.24975751 -0.009275877 -0.112222105 0.26154092 -0.31573886 -0.30211008 -0.07676959 -0.07284916 -0.05045063 -0.088725194 0.084734835 -0.112294875 -0.18463585 0.02837177 0.11404881 0.08372842 0.21911593 0.15519425 0.3115814
716 -0.2141809 0.05488707 0.2387839 0.113066934 -0.10716261 0.17239447 -0.33287022 0.20839396 -0.08208721 0.14564925 0.2446299 -0.01167691 -0.09253833 -0.11603 -0.0011835122 -0.09787599 0.0066687 0.06908869 0.069603205 -0.25088704 -0.13437094 -0.18897112 0.06262623 -0.02448682 0.09922763 -0.16743846 0.07415442 -0.20393264 0.057068475 0.028358582 -0.099135354 0.19153133 0.009731955 -0.1950543 -0.1665816 0.091949366 0.1536305 -0.2203349 0.11240278 -0.17299895 0.15670171 0.043390438 0.37448472 0.13825896 -0.09022114 0.09159808 -0.13872735 0.06813583 -0.21332271 -0.08152197 -0.3729311 -0.10209969 0.15515387 -0.11253217 -0.02220189 -0.087591946 -0.043622192 -0.068157926 -0.022493077 0.0077628447 0.09301593 -0.0715681 0.07818546 0.09314651 -0.18441091 0.042778336 0.40502962 -0.1717363 0.1031906 -0.021330124 0.35776496 -0.244453 -0.18637066 -0.018341605 -0.08333407 0.06307485 -0.056921978 -0.122540176 -0.081000485 -0.048609145 -0.083585106 -0.17027143 -0.073948525 0.11653366 0.11665255 0.09666439 0.040004846 0.07351146 -0.21546377 0.113317095 0.03508927 -0.046626844 -0.049006008 0.047910884 0.07025635 -0.24462456 0.37905103 -0.0032119087 -0.03914937 0.08724249 -0.21001635 -0.25405613 0.03875668 0.09991707 0.19422515 -0.032547235 0.12874788 -0.01872466 0.040431093 -0.08298564 0.02899955 0.09536571 0.18333963 -0.035493292 0.13739146 -0.031887226 0.44360957 -0.269276 0.16616276 0.1274714 -0.061380766 -0.3284362 0.1299195 -0.24509452 0.2829701 0.23687436 -0.11671942 0.14553997
720 -0.14646375 -0.19166638 0.22598857 0.43963906 0.039347526 0.23376973 -0.22053634 0.08473388 -0.17857192 -0.44046682 0.12800522 -0.017662881 0.30953473 -0.36872151 -0.08416751 -0.13937104 -0.062427137 0.004379324 0.12651324 -0.2505837 0.28631067 -0.04643244 -0.10732249 -0.060099114 0.22172613 0.32798034 0.32068712 -0.0685286 0.10713945 -0.1514125 0.039061278 -0.09176649 0.017865753 0.056895968 0.0817125 -0.06061009 0.12999323 0.31043038 0.3507007 -0.047858097 -0.012566799 0.05981034 0.14360286 0.059565395 -0.26201576 0.11373395 -0.11657644 -0.20971222 -0.18774012 -0.00022929978 -0.32952443 0.017259367 0.03256615 -0.32126552 -0.22214976 0.019911442 0.06612771 0.26793194 -0.25148204 -0.10489022 -0.32899842 0.053648643 0.091343656 0.3473914 -0.03841725 -0.23500606 0.61366266 -0.017999906 0.11758521 0.11294176 0.11933466 -0.07532781 0.45133835 -0.17645097 0.10072593 -0.13720487 0.1308814 -0.31135345 -0.2561636 -0.3057886 -0.15139335 -0.3218537 0.18502235 0.005042538 0.0136452895 0.049495738 -0.020685554 0.12718378 0.013834121 -0.10134466 0.17464672 0.11403639 -0.0154588 0.21385764 -0.03556295 0.083648324 0.37301567 0.15272692 -0.10348717 -0.18851133 0.0024488226 -0.29162058 0.18612531 -0.05114962 -0.11303287 0.09366696 -0.10417593 -0.039505012 0.13249953 0.13591088 0.06034488 0.21759208 0.085130505 -0.035762217 0.083575204 0.14214717 0.10618302 -0.39580923 -0.01242596 -0.09455575 0.25973567 -0.023261832 -0.10966257 -0.22002299 0.10959062 -0.16740145 -0.089830145 -0.257479
637 -0.11070907 -0.1360077 -0.044593137 -0.18408693 -0.0066940333 -0.15763353 0.2384863 0.10191829 -0.07215709 -0.011557837 0.21204951 0.26085663 0.040767666 -0.0865092 -0.007668721 0.035765316 0.05284025 -0.04552564 -0.06388028 -0.13938627 0.04876568 -0.10676501 -0.11760282 -0.07065421 -0.13469866 0.3346882 0.11560171 0.21117516 -0.1698391 0.07273746 0.13469884 -0.058394726 0.036407113 -0.07456509 -0.017852066 -0.0659844 -0.021049445 0.03868791 0.30225065 0.066093564 -0.0055390755 -0.0227733 -0.15433763 0.1290154 -0.050015662 -0.27363512 0.012151772 0.13594978 0.16004173 0.22970939 -0.103003405 -0.17046486 -0.02210673 -0.40088668 0.10863502 0.11326239 0.07396257 0.1711838 0.062640674 -0.11116904 0.07220793 0.20405827 0.2551166 -0.05795673 -0.03628079 -0.14048873 0.25392145 0.11636721 -0.03362757 -0.015606121 -0.17903572 0.003669992 0.18965377 0.040500987 0.074905455 -0.08874471 -0.047362752 -0.21520644 -0.046703126 0.0050953184 0.03858342 -0.071251854 0.044957362 0.014897033 -0.00663678 0.22583225 -0.12525417 0.25820038 -0.101654515 0.19861409 -0.16937163 0.005478514 0.072451 0.0075245313 0.05570701 -0.23357227 0.20146723 0.061648186 -0.3065824 0.056888934 0.22410662 -0.1631683 -0.06576049 0.23846771 0.07850399 0.30163822 -0.08442666 -0.04168471 0.059386287 -0.20918646 -0.066017635 0.036003716 0.045071304 -0.13804123 0.0061552417 0.1818541 -0.06733564 -0.24748595 -0.03837804 0.10011606 0.11816076 -0.17915872 -0.16463263 0.008934258 0.0870649 0.032176323 -0.027656263 0.026286868
120 -0.22270465 0.084098525 -0.024200546 -0.0120914355 -0.25743532 0.06523305 0.109312065 -0.06469215 -0.15162441 0.15821059 0.41305503 0.018243838 0.02815549 -0.21081993 0.003705868 0.36424932 -0.1550279 0.07819846 0.09505523 -0.3107419 0.16065542 -0.14059104 0.08041449 -0.11665544 -0.10024403 0.17596072 0.15538506 -0.06238873 -0.06721487 -0.07290928 -0.037183445 0.17569396 0.066842884 0.09447953 -0.026988113 -0.12343968 -0.13716525 0.08852311 0.022731187 0.06944 0.14959209 0.2416993 0.1830492 -0.4018041 -0.18310587 0.023873786 -0.1366011 -0.1662431 -0.05115902 -0.046322484 -0.3634949 0.14386824 -0.17871684 0.11084342 0.22707415 -0.18559779 -0.20730327 -0.018483488 0.050705068 -0.03858402 -0.11944491 0.08181361 0.32446313 0.03228631 -0.23145498 0.26946074 0.0944364 0.12972075 0.27362016 -0.17406885 -0.17767659 0.15176906 -0.19608283 0.01771211 -0.0934795 -0.26082876 -0.26276112 0.06765085 -0.094396904 -0.19236888 0.07943642 -0.2328772 -0.19084002 -0.12812477 0.44890642 0.34844097 0.05947708 -0.13079846 0.16658947 0.091943145 -0.06779205 0.19441226 -0.10153905 -0.1766409 -0.078604475 0.21481284 -0.04105496 0.14838827 -0.039609615 0.014133413 -0.12635878 -0.23020105 0.057842854 0.06189774 0.13669355 -0.09210839 -0.10225284 0.05536273 0.028559892 -0.17853385 -0.040592503 0.15877666 0.0022114736 -0.09177256 -0.067283824 0.24078594 0.04981918 -0.22472154 -0.04127041 0.03043727 -0.033571433 -0.039709754 0.12966727 -0.09151893 0.12329239 0.5267818 -0.017700892 -0.04873907
137 -0.113265984 -0.05127799 -0.15132326 -0.09458842 0.018262887 -0.06716627 0.19173115 0.12738971 -0.022029547 0.084808506 0.24934837 0.23458636 0.03545374 -0.06698299 -0.099258155 -0.021276899 -0.052026592 0.0057285996 -0.10539443 -0.13505955 0.055873968 -0.0146797085 -0.12265501 -0.12313638 -0.11402781 0.2647606 0.20664902 0.09559328 -0.16263808 0.085042566 0.114188604 -0.08976607 0.0781119 -0.09621425 0.029610852 -0.10261887 0.025601855 0.055121914 0.25846148 0.16775842 -0.07045412 -0.116876766 -0.13647869 0.08557891 -0.040800005 -0.24628256 -0.041329246 0.1192906 0.10794886 0.26340023 -0.16538054 -0.18594345 0.054300603 -0.34978372 0.0004768538 0.1839634 -0.026719317 0.10980039 0.099351704 -0.107442304 0.060169324 0.12604454 0.2502515 -0.023628792 -0.0037024457 -0.11214453 0.26845998 0.17926115 -0.09733132 0.031874727 -0.109056346 -0.03502535 0.2103868 0.07309214 0.07517165 -0.019097246 -0.12066071 -0.22446144 -0.0024197826 0.029294532 -0.053305786 -0.099529505 0.06852676 -0.21690132 0.02661965 0.23742959 -0.059582274 0.21826611 -0.07289485 0.1796771 -0.1997684 0.07588824 0.113986485 -0.02088278 -0.0046600047 -0.29845497 0.1519902 0.057668313 -0.32796174 0.04176942 0.24992244 -0.18325917 -0.06742884 0.2576361 -0.020957626 0.25340572 -0.03497623 -0.18774675 0.09662633 -0.28496626 -0.113965824 0.028922452 0.08599708 -0.13387528 -0.029253537 0.10776176 0.04136364 -0.29157293 0.023526477 0.040784843 0.12230367 -0.24117275 -0.10238318 -0.0491929 0.04848021 -0.053651605 -0.038895816 -0.013832582
138 -0.14816111 -0.048521407 0.019699013 -0.16745394 -0.11346896 -0.018587323 0.19942997 0.13470483 -0.018878145 0.02595641 0.32241154 0.21555336 0.0046482156 -0.038671523 -0.048432175 0.0062576956 -0.0028090375 -0.017298505 -0.05449344 -0.123683676 0.007858144 -0.020834085 -0.20404376 -0.08373123 -0.12491605 0.23030378 0.21137886 0.32940775 -0.14534764 0.19402064 0.10243858 -0.09658785 0.09836094 -0.045715842 -0.024833834 -0.110052645 0.023853593 -0.099364914 0.24347779 0.06348107 -0.037876576 -0.047619753 -0.08373064 0.1163618 0.06403678 -0.28924805 -0.08690457 0.0333894 0.1632882 0.15608692 -0.08811382 -0.262831 -0.15824819 -0.4465098 0.021669636 0.09207491 -0.08126102 0.124514006 0.05338338 -0.025611507 0.12177612 -0.016608182 0.27936304 0.0025244204 -0.067769006 -0.09726801 0.29373905 0.23055097 -0.067301124 -0.08464118 -0.17944801 0.028720032 0.18791762 0.07011439 0.06493579 -0.25230426 -0.058565464 -0.28524125 -0.015794944 0.031357646 0.039916452 -0.069329135 0.086345635 -0.09710726 0.10387317 0.21507816 0.034126613 0.16415797 -0.03261106 0.10543942 -0.14806637 0.084483415 0.13119647 0.11741446 0.027746752 -0.18609545 0.17565727 0.08934997 -0.26250106 0.024245394 0.19570732 -0.12380344 -0.06727929 0.1407526 -0.09425221 0.3179442 -0.02553814 -0.08450815 0.077436954 -0.23522444 -0.10217692 -0.02760095 0.02198049 -0.11282648 0.098751426 0.16687517 -0.07275142 -0.31755465 -0.07455362 0.009132824 0.14210968 -0.32168 -0.19613928 -0.02829135 0.15035851 0.005361133 -0.14738254 0.056635536
1067 -0.12993719 0.2587995 0.11829267 -0.028326219 0.08774693 0.075673394 0.0064953077 0.0020727296 -0.20805632 -0.02060295 -0.028662192 0.053478148 0.06297274 0.12817648 -0.11692071 -0.1341773 0.02349405 0.0965117 -0.14098896 0.026388625 -0.26605764 -0.2698897 0.048675045 0.024914851 0.23077396 -0.09059951 0.06542077 0.09009892 0.025095357 -0.04012168 0.21608667 0.27707043 -0.040693343 0.11619575 -0.3469444 -0.016403746 0.10412114 -0.15683988 0.074515924 0.09595366 0.031273946 -0.27257365 0.013089278 0.065864824 -0.14303413 0.022903437 0.021696117 0.012997211 0.026292922 0.08994571 -0.06389561 0.029480912 0.009020903 -0.18656963 -0.08441252 -0.096450366 -0.08231817 -0.04307835 0.043074336 -0.11207849 -0.12915556 -0.016903877 0.0059069656 0.072571784 0.0067095603 -0.12447979 0.3475864 0.030634038 -0.0067703654 -0.09262084 0.052909948 -0.111976705 0.0041195475 -0.0716129 -0.0018095474 -0.2342626 0.033014223 -0.2887031 0.008483878 0.06708911 -0.11060504 -0.031324204 -0.062126346 0.1640034 -0.06655127 0.21786103 -0.20580815 0.101847135 0.27621442 -0.054654054 0.05672939 0.15209709 -0.13118035 -0.06581297 0.16228439 0.0985638 -0.12436805 -0.084278174 0.01189526 -0.051099848 -0.030969907 -0.18302506 0.08259581 -0.014709612 -0.06862268 0.09150947 -0.012708865 0.15589382 0.21283557 -0.24114577 0.03712197 0.11921883 0.13670191 -0.29245675 -0.069321714 -0.19249122 0.07117209 -0.00272301 0.040215574 -0.20343225 -0.014423983 -0.12999044 0.200453 -0.01799424 0.19958003 -0.05096453 0.30836394 -0.03914437
12 0.093669005 -0.01356969 0.077366754 0.29030547 -0.007855022 -0.22930525 -0.005671591 0.1303021 -0.0133071365 -0.22381474 0.34884563 -0.08726069 0.100288436 0.038662475 0.32382274 -0.039707996 -0.11330062 0.18301807 -0.21387093 -0.08550086 0.09132012 -0.0061446284 0.2622005 0.18408215 -0.10016374 0.1802552 0.0878586 0.39960155 0.1847196 -0.1620918 -0.11034448 0.2501411 -0.109033 0.25937784 0.42507347 -0.056042448 0.00025690894 -0.041381426 0.56236285 0.15600431 0.12767392 -0.087856196 -0.022237679 -0.020593168 -0.011660075 0.24815044 -0.054859035 0.18546432 -0.08558353 0.1112789 -0.3019533 -0.024110772 -0.20284659 -0.08922235 0.29662117 -0.23176438 0.121762514 -0.069890685 0.23162805 -0.038460523 -0.20934337 0.14968912 -0.13897318 0.2800422 -0.16962577 -0.13079894 0.01144629 -0.066015534 -0.04554687 -0.03145092 -0.17642681 -0.12804742 -0.076859616 0.011949318 0.08206001 -0.18780842 0.022174349 -0.33460912 -0.15046519 -0.020961456 0.012836473 -0.11975547 -0.25942063 0.20362121 0.0848717 0.099582575 0.034246754 0.12007971 0.12686422 0.25767195 0.14260575 -0.051486492 -0.056800734 0.2850119 -0.06512301 -0.04001832 -0.21514273 0.0189355 -0.22096421 -0.016107121 -0.135752 -0.33703068 -0.21227996 -0.08719521 0.10775089 0.051307693 0.17493178 -0.15452377 -0.08363952 -0.025668085 -0.09088637 0.20447057 -0.09726985 -0.101823345 0.1084754 -0.044735413 -0.0929591 -0.24556352 0.23095478 0.25497732 0.17029044 -0.21010134 -0.0032483833 0.4090164 0.18438795 0.03978996 -0.022426162 -0.15661882
22 0.1312812 0.2509104 -0.03658612 -0.0337442 -0.28473777 0.40459722 -0.0066862674 0.17668329 0.03017982 -0.09861246 0.2245804 0.15338367 -0.2050398 -0.008677559 0.43504465 -0.1967566 0.105694465 0.03586897 0.27248323 0.1535783 -0.24983017 0.31344175 0.36665514 -0.30290753 0.16068815 -0.1956066 -0.02288106 0.42846942 0.058727752 0.022846224 -0.25264412 -0.05874686 -0.32164022 -0.08920211 -0.0915485 0.19575231 0.22651146 0.41128516 0.26409876 0.03570201 -0.106041566 -0.15247896 0.52079374 -0.09871711 -0.24545069 0.01608695 -0.12500806 -0.081253804 0.3996781 -0.0827538 -0.4467261 -0.08505409 0.033571262 -0.0012160556 0.038903758 -0.25482875 0.21351515 0.2638883 0.15780206 -0.009759176 -0.044191256 0.064433455 0.183016 -0.12298579 0.0476762 0.11625071 0.3341072 0.2952955 0.18155286 0.08094665 -0.11559396 -0.045282427 -0.1337114 -0.26920924 -0.17963405 -0.0026073542 -0.048305225 0.15482579 0.10553668 -0.09496586 -0.037645318 -0.23170684 -0.035860565 0.038178965 -0.045953155 0.034706436 0.0906497 -0.29273617 -0.24166474 0.06990525 0.20322405 -0.008367834 -0.08540282 -0.037768304 -0.6685911 -0.20578103 -0.16877086 0.30278543 -0.17621213 0.03210827 -0.13590851 0.052330427 -0.08595996 0.2571989 0.5134614 0.258027 0.07115667 0.15026574 -0.05383202 -0.15259111 0.023572642 0.26707244 -0.098242916 -0.10143556 -0.22845495 0.006528131 -0.17981744 0.16334176 0.20209464 -0.25752315 0.15997851 -0.27255738 -0.046683196 0.0747183 0.415518 -0.22504014 0.33890063 0.06741402
397 0.051848587 0.10378372 0.12756985 0.0075614695 0.030122897 -0.20052885 -0.3683317 -0.0755005 -0.41808107 -0.023480328 -0.021014724 0.23944855 -0.19420779 -0.026215607 0.3887891 -0.19381145 0.01014759 0.1413429 0.19088773 0.011787987 0.15356581 -0.0828282 0.011943917 0.04254983 -0.112259716 -0.23565716 0.04691322 -0.036896657 -0.33156922 0.0066044843 -0.12822309 -0.09409586 -0.015769972 -0.16792166 0.024123237 -0.15079282 -0.01882456 -0.22630605 0.20097254 0.065557696 0.027896266 -0.1592533 -0.09277879 -0.11820217 -0.04985652 -0.13989966 -0.3511973 -0.1349272 -0.3518624 -0.062096454 -0.21599111 -0.059317913 -0.17174149 0.034515902 0.0041008955 -0.051391818 -0.116789475 -0.118048824 0.07278528 0.20992082 -0.3026656 0.08921771 0.09986904 0.14273171 -0.15489192 0.06623712 0.5949481 -0.045220528 -0.079680994 -0.037505396 -0.13138899 0.06861041 0.2699414 -0.2465434 -0.048104018 -0.2145442 -0.07838487 0.066404924 0.0853032 0.03581671 0.35976315 0.06630098 0.13063146 0.13441344 0.27345058 -0.11066574 0.17077495 0.11323574 0.0066961753 -0.014896786 0.15813823 -0.35437483 -0.003580982 -0.1151463 -0.003556815 -0.17444818 -0.22359568 -0.120542094 -0.19820929 0.22307833 0.21893781 -0.20615534 0.022856966 -0.18758774 -0.13105018 0.09838499 -0.36238262 0.0028749118 -0.07767969 -0.05882371 -0.051788572 0.0060542864 0.39413533 0.017960297 -0.0067853406 0.062339 0.06547562 0.02766156 -0.05885346 -0.0046837972 -0.014473429 -0.21334656 -0.08533425 -0.17217931 0.39721888 0.2855667 -0.275422 -0.1099794
2419 -0.031785868 0.15898329 0.1005822 -0.08326809 -0.105291575 -0.05973218 -0.2090125 0.22620554 0.2174321 0.05877976 0.019938514 -0.14090212 -0.053953193 0.0383876 0.06390361 0.18829672 -0.04763505 0.09424646 -0.10309166 -0.039484736 0.023396201 -0.27853552 0.19792576 0.05838128 0.15564898 -0.013224445 0.2306666 0.049886722 -0.05943815 0.20416358 0.18608786 0.10008158 0.27127096 0.05347425 -0.20269942 0.017592264 0.03998501 0.16119598 0.0420362 -0.012626671 -0.33252698 -0.063577645 0.1290966 0.02845529 -0.13436857 0.10996018 -0.25109276 0.019631198 -0.04296606 0.09087905 -0.21565399 0.21615458 0.06250826 -0.021371968 0.028788483 -0.4276316 -0.3756621 -0.12764934 -0.38510147 -0.035531312 0.017972978 -0.19354287 -0.03297594 0.17579164 0.038159706 -0.10156498 0.03253899 0.19146553 -0.2166032 0.12459575 0.09027671 0.15592015 0.06393658 -0.09654475 -0.09651501 -0.28119636 0.027699187 -0.060010497 0.011002854 -0.13391744 0.033600543 0.26191208 -0.48285136 0.029355345 0.07399992 0.18217012 -0.04315361 0.051509373 -0.04585363 -0.053812467 -0.036737736 0.25014585 -0.3259163 -0.16472575 -0.07205687 -0.25981274 0.09396651 -0.03229067 -0.021817982 -0.20902775 0.31973803 -0.20435545 -0.027533853 0.014417446 0.089566246 0.17881887 -0.063189134 -0.27372414 0.17114612 -0.33726412 -0.07368572 0.20040354 0.17153211 -0.2639985 -0.09195779 0.0046357294 0.25154835 0.023983017 -0.11687306 -0.04392118 -0.1423062 -0.055578794 0.013779785 -0.24662787 0.27967504 -0.09231489 -0.13051203 0.059052408
2622 -0.20956233 -0.4016789 -0.046974298 -0.0601922 -0.18659127 0.046332408 -0.05878071 -0.21451227 -0.030989366 0.17392386 0.12635392 0.23471308 -0.048493914 0.1734681 -0.14409441 0.044171695 -0.02403951 0.35211957 0.1277608 0.065218695 0.19950841 -0.028792955 0.025897339 -0.008293768 0.10709951 -0.1340463 0.092363566 0.011092022 0.022167642 0.1486587 0.1544445 0.068192095 -0.26006433 -0.013925489 -0.098769 -0.16488701 0.09498928 0.17146923 0.033192407 0.1610002 -0.37673002 -0.008390252 0.08991937 0.22210442 -0.016632617 -0.102830924 -0.31976283 -0.027828068 0.044170115 0.104265936 -0.17628853 -0.13693689 0.20336209 -0.097712345 0.06837795 -0.32868075 -0.37267825 0.29800975 -0.24505843 -0.038035993 -0.17727734 0.1312238 -0.07049546 0.13207497 0.021965781 -0.01882126 0.07223464 0.16613874 0.037884723 -0.26680312 0.17896548 0.0040106466 -0.046096656 -0.055036247 -0.21394446 -0.33294612 -0.1389181 -0.009433871 -0.09690365 -0.25403994 -0.073665455 0.15448934 -0.323656 0.020842643 0.032530915 -0.021233317 -0.3740177 -0.007536279 -0.13170587 -0.10204087 0.17197731 0.0124521265 -0.36316782 0.19599538 -0.23584604 -0.19334888 0.17265227 0.0930735 -0.009603596 -0.009621355 0.051159047 -0.13113272 0.14288785 -0.2904905 -0.081408076 -0.23577158 0.040316943 -0.13090608 -0.116355546 0.1371706 -0.30128753 0.028280534 0.181239 -0.27066854 -0.062477622 -0.062128022 0.24063642 -0.080345586 -0.045152143 -0.2935375 0.22608009 -0.25950137 -0.11792066 0.28909335 -0.057729274 0.21031131 0.02493867 0.12624304
424 -0.23119414 0.19986582 0.12145646 0.011175537 -0.057673335 -0.18673399 0.23953931 0.22053309 -0.4353036 0.20263754 0.10543241 -0.03950705 -0.017852414 -0.20698683 -0.1423385 0.14319602 0.06722841 0.22555311 -0.20198663 0.055160686 -0.049164925 0.20228936 0.19580367 0.024706293 -0.080069765 -0.161441 0.13454014 0.074298576 0.40462434 0.056703717 -0.12851036 -0.5777958 0.0664068 0.13390195 -0.30639353 0.059395295 -0.06387517 -0.20140602 -0.01017672 0.21843539 0.08648199 -0.067825496 -0.076181464 0.07925393 -0.5001475 0.22343788 -0.062186595 0.06941108 0.18792188 0.024084007 0.005996586 0.013562938 -0.009355174 0.026651185 0.4905166 -0.2713515 -0.11264637 0.17537726 -0.00074520934 -0.10866492 -0.18856588 -0.1304122 -0.21825814 0.07910181 0.01711948 -0.05167132 0.36387256 0.2999069 0.19414446 0.21898311 -0.34077758 -0.037458107 -0.04464463 -0.04610502 0.09411008 0.12645064 0.09114898 -0.28508872 0.0002911466 -0.23683311 -0.17339997 -0.05056329 -0.0015114968 -0.12330917 -0.38908195 -0.24753721 0.1365445 -0.23704149 0.2832339 0.15676805 -0.09504349 -0.13194034 -0.44302762 0.045884278 0.1419876 -0.21123837 0.10094809 -0.0847823 -0.38945705 0.041771814 -0.07418546 -0.1973157 0.38967457 -0.2470755 0.28268 0.10740023 -0.21621096 0.24104874 0.21331796 -0.42112663 -0.045150913 -0.2730998 0.10955672 0.05230688 -0.16711189 -0.012264414 0.18945988 -0.10986541 -0.11226058 -0.116531186 -0.14959921 -0.06579896 0.2420895 0.16167922 0.25774685 0.3001701 -0.009007844 -0.25969565
166 -0.10811346 -0.036382236 -0.009439085 -0.15149668 -0.1096585 -0.07450252 0.20928004 0.17341119 0.087223254 0.03878569 0.22697532 0.2773148 0.11182325 -0.04529648 -0.009507023 0.09744468 -0.07878486 0.053404853 -0.10698413 -0.14405447 -0.049136795 -0.035400152 -0.13241722 -0.1279059 -0.064854786 0.20409414 0.26397416 0.20286776 -0.07937331 0.122358695 0.1643112 -0.09627814 0.09350267 -0.030029127 -0.031844594 -0.086042926 0.06574343 0.10591396 0.2572032 0.13101996 0.0044819843 -0.05045213 -0.11863875 0.032827567 -0.008530628 -0.28718948 -0.063545346 0.13162164 0.151079 0.11674671 -0.119166456 -0.21305834 0.021857126 -0.41723445 0.032811638 0.06721952 0.076986566 0.120081805 0.08449043 -0.06344741 0.037616774 0.120055966 0.17220132 0.029189264 -0.031016506 -0.16050316 0.34314004 0.069897726 -0.16150331 -0.06998054 -0.12634361 -0.0013940419 0.2343522 0.03136477 0.029947748 -0.049356993 -0.030524855 -0.23290506 0.0049999724 0.0043719076 -0.021785162 -0.10340603 0.015772823 -0.06046053 0.027768798 0.21773076 -0.030364446 0.29881424 -0.092733756 0.13134545 -0.15067172 0.14872019 0.21874964 0.024015822 0.044672977 -0.30794019 0.14369217 0.11113716 -0.15941316 0.09236801 0.30275783 -0.06402966 -0.014835264 0.27019894 0.017348161 0.34345788 -0.008244612 -0.034936424 0.054065146 -0.1889131 -0.07942833 0.0053031724 0.16552731 -0.17367984 0.08420775 0.22223632 -0.14141724 -0.31681055 -0.043100826 0.04734967 0.13372062 -0.26404673 -0.23053326 -0.05256593 0.16747078 -0.07006142 -0.06103994 0.015151985
56 -0.0912193 0.076820485 -0.026978068 0.0034274599 -0.2141791 -0.069505975 -0.18285958 -0.07551071 0.0590864 0.30511412 0.043918345 0.06711404 -0.24289455 -0.010157372 -0.24599445 -0.090173766 0.04823232 0.23962602 -0.007408768 -0.085922025 0.10343615 0.03633667 -0.31081286 0.09060586 -0.08651784 -0.03182859 -0.073887564 0.1305587 0.11635899 0.04348256 -0.009550249 -0.056101017 -0.037147205 0.05300634 -0.04985657 -0.05832779 -0.00955441 0.18234007 0.1828981 -0.16086878 0.020459354 -0.28951794 0.11841158 -0.37545905 0.09962432 0.124735184 -0.06834337 -0.08830225 -0.054625273 0.0026877199 -0.21669333 0.22281711 -0.2878444 -0.064662695 0.2574676 -0.16021433 -0.12926012 -0.06949 -0.24428287 -0.17422618 -0.19093147 -0.025950113 0.12392365 -0.2521989 0.14280015 -0.11952798 0.2934943 -0.051770736 0.12728941 0.039580386 0.20680232 -0.050544575 0.057735633 -0.2815105 -0.089091964 -0.16883488 -0.27842513 -0.21746199 0.019023094 0.021632234 -0.043759026 -0.20766273 -0.20883124 0.02840452 0.05399816 0.04854557 -0.19764183 -0.024639025 0.1513352 -0.08020461 0.118492864 -0.17774124 -0.07882665 0.14667352 0.17690247 -0.33617166 -0.044832505 0.016121613 0.14970468 0.10407528 0.06538921 -0.2403753 -0.12099157 -0.000264235 0.05869835 0.32462355 -0.07876597 0.027041202 -0.006463796 -0.20971811 -0.023465741 -0.043111395 0.07222124 0.10984414 -0.3033658 0.19532475 0.1758188 0.16198047 0.017291976 -0.29044488 0.0054055424 -0.038142875 0.02224406 0.14081334 0.17302844 0.13871641 0.16715907 0.07865873
289 -0.1234311 -0.119827166 0.17848718 0.24530865 -0.31054187 -0.1905042 0.13865511 0.19626254 -0.10203191 0.12552904 0.25071242 -0.22960424 0.047411535 -0.14295535 -0.023982272 -0.13553366 0.09754785 0.11561299 -0.31543794 -0.20210458 0.27850643 -0.07291597 0.1669208 0.10265508 0.055445902 0.14291999 0.14176145 -0.019098762 0.2653051 0.21092202 0.06722971 -0.28216296 -0.068752386 -0.020877937 -0.1691915 -0.1650876 -0.24915361 -0.26124123 -0.019453395 -0.10026593 -0.04060919 -0.112402886 0.09292545 0.11071224 -0.2605726 0.0840689 -0.1489838 0.015480128 -0.0039211796 -0.050480552 -0.15651973 0.121128395 -0.15191196 0.011569741 0.3153642 -0.39977056 -0.17768213 0.15657629 -0.025521139 -0.097539 -0.34474915 0.012100711 0.066575855 0.15107074 0.15869294 0.075805046 0.22275949 0.32310387 0.37794217 -0.08905037 -0.10196072 -0.028559372 -0.09366402 0.01897585 0.2462784 0.008313516 -0.05417291 -0.020645196 -0.34071442 0.034909546 0.071417175 0.011590852 -0.19543315 0.0017650863 0.02311653 0.25125077 0.09216797 -0.29309788 0.11041399 0.22222346 -0.18985246 -0.21326184 -0.25573254 0.18127333 0.036649946 0.21600917 -0.088424206 0.01903341 -0.40511966 0.18725812 -0.07351568 -0.08534026 0.06370222 -0.116076276 0.0997033 0.083372764 -0.014190672 0.13523719 0.15586981 -0.4380359 -0.25354406 -0.117024116 0.03085206 -0.2538057 -0.32259193 -0.09778605 0.19994195 -0.09040849 -0.07776828 -0.011895556 0.20964698 0.036903832 -0.055358242 -0.031104075 -0.10281599 0.20431417 0.108934455 0.0743314
161 -0.2187457 -0.025287546 -0.119435355 0.09266987 -0.2357945 0.08685188 0.24387792 -0.13295797 -0.06167296 -0.1650077 0.2217679 -0.042202268 -0.05897733 0.09890387 -0.23776293 -0.13911578 -0.012213441 0.07545608 0.1634358 0.083853886 -0.01707733 -0.10284207 0.09397605 -0.04389139 0.4917086 0.16336682 0.256813 -0.10081137 0.20285536 -0.13657562 0.016551439 0.15067741 0.09513414 0.13693328 -0.010879788 0.016842384 -0.027073942 0.07477734 0.34167188 0.10635935 -0.08447721 -0.15176532 -0.044805113 0.029465968 0.24426478 0.2995388 -0.041529603 -0.30367678 -0.0037316857 -0.17441593 0.024583625 0.0035136857 0.03431826 -0.25974682 0.23736028 -0.13216151 -0.35763633 -0.049295902 -0.0484692 0.1418581 -0.159288 0.36505127 0.15723485 0.09104586 0.09125288 -0.18815367 0.35043722 0.25718498 0.20327131 -0.11403204 0.053201932 0.038188588 0.16136032 -0.23828731 0.07447011 0.09013627 -0.30970857 0.07340687 0.1314104 0.21932706 0.27695516 -0.0496019 -0.033418417 -0.016608406 -0.14503513 0.099019565 -0.19126436 0.005206873 -0.25692967 -0.056426544 0.16295712 -0.10546827 -0.12338287 0.04661672 0.07499292 -0.046593267 -0.119015284 0.14175892 -0.103129365 0.07979547 -0.26525426 -0.20848006 0.11393589 0.12696858 0.1416433 0.27064684 0.17314383 -0.18747884 0.039897013 0.10935841 -0.10323639 0.048436165 0.23392725 -0.1751522 0.2105227 -0.38865772 -0.14018628 -0.0011055626 -0.24096908 -0.06823305 -0.1365239 -0.015967926 -0.21088769 -0.0723027 0.23989667 0.586939 0.18693905 -0.020218907
13 0.027276324 0.042145357 0.065310635 0.30580333 0.071535 -0.16350596 -0.0455223 0.1577439 -0.1443688 -0.16671483 0.32242787 -0.0868869 0.11473495 -0.051224347 0.15710352 -0.0314847 -0.13547364 0.20045458 -0.1570099 -0.0924748 0.11841418 0.07568868 0.20581388 0.16318241 -0.09355172 0.07693217 0.16137195 0.3911689 0.10892456 -0.2310269 -0.12954494 0.14537306 -0.14287896 0.26032248 0.43160877 -0.15328245 0.04190188 0.026398553 0.523867 0.1823429 0.15890169 -0.12270619 -0.015975688 0.042536918 -0.04348984 0.2790273 -0.006937542 0.15152878 -0.053076714 0.21094412 -0.22697666 -0.022543492 -0.25530705 -0.10554346 0.1980769 -0.20086148 0.008035489 -0.02884656 0.27093086 0.03289277 -0.17100625 0.0947981 -0.18916814 0.30522284 -0.2553884 -0.14871298 0.051470246 -0.068430044 0.011163722 -0.008085269 -0.103590354 -0.21834445 -0.07174876 0.011626116 0.011526302 -0.1577974 0.12079577 -0.28748938 -0.15847117 -0.00860389 -0.0035263794 -0.17112911 -0.21766566 0.16200356 0.09257978 0.037272066 -0.02966786 0.20561032 0.17035027 0.24057466 0.16992614 -0.046530362 0.071142405 0.30824235 -0.05018995 -0.08288908 -0.1715628 -0.069179036 -0.12909023 0.04653956 -0.13791734 -0.21408385 -0.27242965 -0.085484184 0.18546411 0.10593661 0.14449483 -0.1323159 -0.08425501 0.078202784 -0.12024435 0.28556228 -0.1283039 -0.09204161 0.018106192 -0.05971474 -0.08316895 -0.31260514 0.20584285 0.25576657 0.15836073 -0.3484663 -0.030880924 0.36377576 0.22510712 -0.0017697212 -0.006203981 -0.0057307067
2623 0.16655108 -0.10170119 0.18531297 0.118255265 -0.00660304 0.037299033 -0.093999825 0.08752884 -0.109380744 0.13056816 0.2522978 0.04772245 -0.044999126 0.10263324 0.057816196 0.060953803 0.14545342 0.1278181 -0.06456701 -0.20897473 -0.0032114137 -0.30748245 0.13572596 -0.22963709 0.07116659 -0.15876694 0.15376069 0.26525763 -0.102020234 -0.013708383 0.0068259197 0.2047176 0.082749434 -0.090949975 -0.24483399 -0.034977596 0.23634356 -0.19496909 0.33967 0.23148632 -0.06834743 0.028697545 -0.010385674 0.023320433 -0.16688576 0.14221315 -0.18467605 0.13835181 -0.129311 -0.16205248 -0.2461669 0.22560473 -0.31090307 -0.020590618 0.021374324 -0.06132098 -0.046895243 -0.29617554 -0.16690755 -0.07601998 -0.06877669 0.22437313 0.011400809 0.06194679 0.07305383 -0.26549894 -0.13432553 0.15865669 0.048008446 -0.15366119 -0.028424175 0.13314104 0.10945076 -0.21880782 0.055667598 -0.14971222 -0.25474727 0.055899296 -0.18889539 -0.10182093 0.25107002 -0.0030230565 -0.18745895 0.13545178 0.07806701 0.06049736 -0.19327696 -0.30743906 -0.16177902 -0.22763379 0.06087029 0.089177035 -0.15596749 -0.20950298 -0.26807365 -0.031936392 0.16792484 0.22823106 -0.25726357 -0.013127019 -0.058518115 -0.2011037 0.108262554 -0.16845039 -0.12467635 0.21446878 -0.10008127 -0.11023135 0.106075756 -0.21762586 0.14025523 -0.15540971 0.08516006 -0.31011364 -0.08797 -0.008156513 0.41019097 0.2530868 -0.2788457 0.11052791 0.12504692 -0.030577531 0.06724288 0.46310818 0.23446922 -0.11110224 0.006284481 -0.07471139
1286 0.05057593 -0.028297331 0.047098033 -0.12568557 0.09271366 -0.008664061 -0.037441883 0.12974688 -0.075588085 0.12734397 0.1529794 -0.10612957 -0.11353884 0.04458586 -0.075329475 -0.0019294423 -0.040599678 -0.12185754 -0.1762881 -0.20593686 -0.014425957 0.045806915 0.2133288 0.18304008 -0.09052835 0.052895844 0.030669577 0.0029258623 0.07587682 -0.43388855 0.17647389 -0.06028159 0.062076002 0.075384036 -0.35988703 -0.16274762 0.28835064 0.020972194 0.30093545 0.2128341 -0.033805497 -0.16900441 0.017960208 -0.27829987 0.23652312 0.1263244 -0.19052169 0.086150795 -0.081573926 -0.06682305 -0.02903779 0.2567017 0.10630414 -0.052364312 0.007134168 -0.33081144 0.14141576 0.078748085 -0.012477907 -0.04365578 0.06647217 0.030504188 0.10625764 -0.021527812 0.07758567 -0.27146727 0.23489611 0.15243089 -0.019108694 0.052593518 -0.13987368 -0.22720383 -0.20094363 0.034570027 -0.17137682 -0.14938389 -0.24856186 0.14201152 0.25142184 -0.31081766 -0.016354099 -0.2520967 0.007429034 0.20394237 0.026551964 0.055404756 -0.193082 0.23887554 -0.06375445 0.0337055 0.3467085 0.03275169 -0.03795581 0.22452581 -0.29373044 0.02859214 -0.032885488 -0.18876095 0.059503216 -0.20605853 -0.032919347 -0.21240981 0.10318396 -0.062161878 0.1918088 0.1866741 -0.155259 0.17232944 0.13544971 -0.053831533 0.26020214 -0.13316962 0.2693457 -0.17951943 0.1997392 -0.2523294 0.17026494 -0.24503313 -0.1449848 -0.05272223 -0.008964438 0.18775155 -0.078623 0.16691291 0.21249288 0.18767618 0.01859679 0.16209224
163 -0.13625522 0.06808819 -0.1219373 0.1238682 -0.27869824 -0.07684635 0.24189374 -0.039291725 -0.08285032 -0.1719826 0.09755105 -0.067889094 0.02667866 0.23505916 -0.38222298 -0.2638592 -0.002044719 -0.015482311 0.2105815 0.1273359 0.0049383403 -0.12981401 0.12852736 -0.13669464 0.4172704 0.09241651 0.1764322 -0.080556214 0.1484991 -0.15893249 0.050663576 0.18538976 0.07642397 0.07131757 -0.11948315 -0.013797946 0.034850612 0.10541926 0.34195626 0.21952686 -0.114802346 -0.10236033 -0.01411414 -0.0006872634 0.18913512 0.2647518 0.018584942 -0.308337 0.06879958 -0.1503222 -0.11994238 -0.008808751 -0.0700417 -0.3475282 0.20035154 -0.08498223 -0.4153448 0.07745649 -0.13291714 0.14817962 -0.062454965 0.28732225 0.08111633 0.19636169 -0.0012521832 -0.2627908 0.2923212 0.1313722 0.071334004 -0.07060928 0.04771915 0.08795373 0.24363364 -0.30183133 0.07613539 0.18634501 -0.23436035 -0.024519242 0.0492347 0.26726452 0.20017773 0.018230604 0.0007560883 -0.03285036 -0.14318065 -0.034023132 -0.09712477 0.07266329 -0.24195443 -0.10552003 0.32569957 -0.072096884 -0.15672624 -0.024184627 -0.03407951 -0.106360145 -0.055690963 0.1002453 -0.20394248 0.09521194 -0.23911846 -0.32597768 0.12475292 0.076049246 0.12113007 0.2738391 0.09422351 -0.21811523 -0.08981367 0.07894261 -0.06148772 0.0369028 0.13157097 -0.27266753 0.14951995 -0.34224954 -0.08166432 -0.045432556 -0.25540218 0.02470714 -0.21129124 0.00070294994 -0.22924642 -0.049692087 0.22466107 0.56942374 0.18689197 0.1629761
2320 -0.010088817 0.081798606 0.19940177 -0.07708419 0.0078031947 0.03153879 -0.12162851 0.28299737 0.100116536 -0.048301235 0.09730303 0.05635513 -0.1472179 -0.29294798 -0.036590457 0.15394251 -0.18811758 -0.15770827 -0.03345706 -0.27480772 -0.14007029 -0.2974001 0.08472156 -0.051145285 0.11825037 -0.15350439 -0.1308395 0.08542106 -0.15073231 -0.10299016 0.11685977 0.049796365 -0.069591984 0.43047526 -0.14914475 -0.2957186 0.029734021 -0.07859914 -0.015909227 0.08846902 0.2565938 -0.1001435 -0.124726474 -0.19177504 -0.14473462 0.16592644 0.044836134 -0.15019302 0.10397959 -0.1655929 -0.21491686 0.06949062 -0.0010764649 0.10067017 0.34062362 -0.39933375 -0.16690674 -0.09048943 -0.09693855 0.14321959 -0.034443725 0.0530364 0.03804197 -0.062540926 0.18201032 -0.034199674 0.39245316 0.015666218 -0.22526075 -0.039676145 0.017012425 -0.14556783 -0.34728748 -0.16245185 -0.17232637 -0.2551883 -0.027142214 0.18103564 0.009687223 -0.3233655 -0.028134938 -0.14595094 0.06264133 -0.019465271 -0.11826791 0.016312705 0.042972855 0.15496795 0.064946786 -0.124775335 0.18600462 -0.07617482 0.123528905 -0.26317793 -0.056076862 -0.15680428 -0.17352937 -0.0249613 -0.060810033 0.032446984 -0.20249102 -0.27933607 -0.0018746854 0.108344406 0.1585116 0.0081739705 0.02406511 0.069849156 0.2528651 -0.14160164 -0.001532444 0.15606016 0.2948136 0.01637231 0.0066057583 -0.023514125 0.14253516 -0.032950595 -0.066642106 -0.32062203 -0.14253967 -0.064131126 0.020079654 -0.09553308 0.139109 -0.062458113 -0.038896978 0.10396298
420 0.04198007 0.020604588 0.13818678 -0.16635972 -0.13612147 0.07571056 0.04053634 -0.073172614 -0.02032551 0.10872674 0.15111208 -0.19876967 0.24509363 -0.09941252 0.23179433 0.0808983 -0.120965876 0.09782261 -0.2076459 -0.00074470026 0.067380354 0.029968565 0.09809503 -0.07397984 0.1172769 -0.073473446 0.19546132 -0.0013183341 0.054886248 0.13243948 0.19765377 0.04697289 -0.40095308 -0.07774605 -0.3087271 -0.008174378 0.058470115 0.20553607 0.04877383 -0.23463003 -0.33917838 -0.34034607 -0.08901917 -0.042590328 0.077465616 -0.101970494 -0.07598396 -0.19643562 -0.33264253 -0.16447052 -0.09499903 0.19048627 0.05980346 0.03876341 0.3071442 -0.23453742 -0.40555686 0.14924882 0.1481064 0.19278388 0.042996027 0.15967822 0.021059273 -0.27422568 0.10124983 -0.15286209 0.23378481 0.23906106 0.4067112 -0.15265755 -0.11814735 -0.23751903 0.10105647 0.039165117 0.13927168 -0.15928188 -0.018760154 -0.016230531 -0.1331113 -0.1932692 -0.14040047 -0.0321903 -0.25926557 -0.13514209 -0.019611016 -0.017329076 0.040300623 0.32669443 0.16941361 0.3910592 0.07074054 -0.07225779 0.081220955 0.13450524 0.035193056 -0.3307788 0.015929377 0.059109595 -0.21219486 -0.14771017 0.28456223 -0.12832613 -0.106905304 -0.12840265 0.093371555 0.15447304 -0.21618852 0.024966089 0.15819925 -0.00085659995 0.028839605 -0.17653732 0.27943516 -0.038169466 0.2111423 -0.013610162 0.11178283 0.08321877 0.19402623 0.3656958 0.14419033 0.042763043 0.019455973 -0.058651954 0.0955433 0.1379977 0.020598795 0.18757482
1489 0.033544924 0.15981781 -0.19358827 0.12884083 -0.0056968667 0.06521404 0.23044042 0.16530663 -0.14726293 0.022189867 -0.18450744 -0.014881794 -0.032346804 0.0033701318 0.24621403 0.0025156687 0.075350516 -0.103679694 0.13495253 -0.095700674 0.13276762 -0.08222369 -0.026781527 0.015675846 -0.07631686 0.20654744 0.12721492 0.24251835 -0.12638013 -0.19440119 -0.01064972 0.02788458 0.14503361 0.15550987 -0.10543218 -0.15898623 0.10145386 0.054308467 0.061334986 0.05449502 0.11645684 -0.11300737 0.10136807 -0.1628632 -0.24558182 0.13343537 0.24118918 -0.19258611 0.09018554 0.15126005 -0.1407337 -0.030552281 -0.10763905 0.07613905 0.07351212 -0.3396004 0.026343359 0.051478587 -0.12921263 0.094348 0.17763105 -0.11922982 -0.032481585 -0.14344163 0.0030110518 0.23416917 0.22135462 0.11373777 -0.10982124 0.013434112 -0.014078413 0.035018295 0.060655788 -0.13484974 -0.02932748 -0.28780618 -0.2956237 -0.02686353 -0.06530186 -0.08161075 -0.061543204 -0.14829458 0.2712915 0.16562936 -0.0038356155 0.19341175 0.0629668 0.18694453 -0.031813335 0.19317037 0.25494286 0.07289734 0.15489346 0.077246 -0.2253632 -0.18213016 0.16014443 -0.0062273913 -0.003961595 -0.032112505 0.1644883 -0.027141996 0.025901055 0.08392985 -0.13735513 0.12098497 -0.28951493 0.14681327 0.100523785 0.01932202 -0.0520275 0.08205894 0.3420891 -0.35292172 0.13254969 0.22071283 0.17299493 0.10670581 -0.21586868 -0.01996667 0.10688741 -0.083912864 0.033742744 -0.124968655 0.11124076 0.25335902 0.28309646 -0.16356398
651 0.05663108 -0.026158826 0.10196749 -0.14808957 0.09029257 -0.23663373 0.08157254 0.1746828 -0.07267443 0.0003023535 0.31928873 0.21989305 0.09743118 -0.37778893 0.10120991 -0.031305503 0.053250354 -0.06964043 0.12995324 -0.09665264 0.15571937 -0.17667584 0.045727283 -0.11250188 0.48618993 -0.12860149 -0.19491409 -0.11197985 -0.022816172 0.06190819 0.26666337 0.072125524 -0.26690543 -0.039324284 0.0028952586 -0.08764944 0.17592175 0.0044790884 0.21037742 0.2320452 -0.115348905 -0.19473 -0.14993806 -0.12902966 -0.09317377 -0.086545184 -0.14657372 -0.01381176 0.122774 0.29150376 -0.011178724 -0.1194164 -0.08606313 -0.29564813 -0.00859833 -0.25265428 -0.34174713 0.09428837 -0.0640081 0.3729137 -0.16580221 0.26742446 -0.1429696 0.1433124 0.20235515 0.023643894 0.4497782 0.09868635 0.07543952 0.07142943 0.04224186 0.2473038 -0.20006399 0.13477875 0.14871714 -0.10270316 -0.1859507 -0.08792703 -0.0856655 -0.3294517 -0.033451382 0.13002226 -0.16532588 0.2198828 0.14989653 0.105233155 -0.08367627 -0.23359422 0.12607251 -0.076873146 0.2414359 -0.078724414 -0.04174972 0.29449567 0.03599118 -0.39569122 -0.18314701 -0.25721526 -0.12912847 -0.1283833 -0.14005312 -0.051077638 0.049133472 -0.078672245 0.25363344 0.09945959 0.0490593 0.10720738 0.22529759 -0.095566586 -0.4016175 -0.18112867 0.015979303 -0.027127493 -0.14893508 -0.0025304968 -0.0390641 0.030730093 0.29764026 0.040253915 -0.14022078 0.03323395 0.060137272 0.021897333 -0.35870272 0.02661684 0.20531976 0.040227916
141 -0.11703185 -0.02632706 -0.049585782 -0.12862591 0.07433156 0.020274146 0.27275556 0.19605967 -0.06733719 -0.010571463 0.21317665 0.22838597 0.14910118 -0.12616429 -0.015594578 0.10573633 -0.08045578 -0.004016519 -0.017344242 -0.14442895 -0.012969903 0.03147809 -0.23115838 -0.18531288 -0.059254307 0.28805083 0.23750867 0.23500222 -0.050895553 0.020283246 0.035328038 -0.09614952 0.07946994 -0.08830831 -0.09247566 -0.10532069 0.057623528 0.00891928 0.27813563 0.15049131 0.04572057 -0.078803815 -0.0791854 0.077893704 -0.063115075 -0.22601445 -0.0082537355 0.08546475 0.14018822 0.260614 -0.10035534 -0.23606642 0.09411586 -0.43145546 0.022557942 0.15752313 0.05715741 0.172365 0.22614147 0.006195795 0.051914062 0.0749077 0.2303955 0.015923286 -0.066181995 -0.0914458 0.2921359 0.11167588 -0.15595663 -0.08041291 -0.121553496 -0.022068858 0.16529521 0.038326073 0.019338887 -0.112552874 -0.08982362 -0.19505142 -0.007220348 0.03957352 -0.070574425 -0.14918646 0.03144935 -0.097492106 -0.06519618 0.19239005 -0.099972926 0.26823926 -0.13958201 0.22011025 -0.13441847 0.016196351 0.16796033 -0.011897677 0.046457138 -0.23939084 0.20958802 0.1091147 -0.16603164 0.073298104 0.21312386 -0.13351607 -0.084947705 0.22160143 -0.04401388 0.39105502 0.020194631 -0.06315704 0.11891342 -0.1741202 -0.08684274 -0.0060970276 0.08772957 -0.14588784 0.094191946 0.1357513 -0.055837158 -0.26091012 -0.028494978 0.0031810694 0.13877289 -0.39953482 -0.109602995 -0.025277026 0.07852193 0.01812618 -0.08154797 -0.023415208
162 -0.15547994 0.025498198 -0.14090586 0.10136495 -0.32686752 0.03494366 0.30240026 -0.16980793 0.06775349 -0.07735484 0.20001765 -0.022535658 -0.019723265 0.24104308 -0.2305012 -0.2079362 0.078122914 0.0640864 0.14578323 0.018023275 -0.030059077 -0.13791282 0.1861699 -0.12526219 0.4467354 0.12889878 0.15044883 -0.13029668 0.148616 -0.31145936 0.06701328 0.22597377 0.07084934 0.073361106 -0.07281604 0.03481785 0.05486208 0.12898453 0.37202418 0.08157183 0.036418773 -0.084284425 -0.16809432 0.045286074 0.22582118 0.2808466 0.08192045 -0.3284275 0.039343126 -0.10830373 -0.001497567 0.0140364645 -0.12666807 -0.34218657 0.20243913 -0.063111514 -0.23535082 -0.08342405 -0.1769289 0.013112853 -0.09478158 0.3804207 0.0364194 0.17092833 -0.04035866 -0.28259054 0.35184395 0.21204898 0.20192286 -0.09184722 -0.030883616 0.12217899 0.2804697 -0.29743963 0.014846505 0.20760866 -0.33169675 0.053229578 0.11548588 0.14310195 0.24236757 -0.049653757 -0.1206173 0.103154 -0.13332804 0.087620184 -0.05659996 0.0258809 -0.35677657 -0.056958128 0.228518 -0.090652905 -0.098557994 -0.06149317 -0.0012315712 -0.12126449 -0.023231955 0.11369526 -0.12460498 0.06379993 -0.2389771 -0.34947824 0.15470013 0.028412048 0.11021949 0.30488765 0.11537293 -0.18346702 0.007952682 0.061089296 -0.053610228 -0.050468408 0.1531682 -0.2660798 0.16268416 -0.23107022 -0.15137514 -0.027965523 -0.1799193 -0.07820967 -0.28022423 0.06325612 -0.19380932 -0.121003225 0.25410575 0.43764874 0.11861421 -0.0490694
613 -0.21132395 -0.16861336 0.27840286 0.09570519 -0.091522634 0.27259594 -0.24632896 0.10236218 -0.34760785 0.26225448 0.097499505 -0.0021841938 0.25414285 0.024563111 0.007495588 0.09520607 0.08484622 0.15188356 -0.09390064 -0.08489456 -0.18958324 -0.15093946 -0.015462164 -0.16479637 -0.037888218 -0.0026907767 -0.13172016 -0.008637155 0.10527284 -0.01994215 0.11374624 0.0899501 -0.12616095 -0.17657736 -0.11118459 -0.14741646 0.24093004 0.24829331 0.28060135 -0.2830033 -0.027413644 -0.24338517 0.060056835 0.35325256 -0.01727776 -0.27853373 -0.20724359 0.123186514 -0.17147994 0.09422905 -0.20574693 0.18157111 0.07642288 0.23854196 0.26047447 -0.033662744 -0.2599307 -0.12117924 -0.07709948 -0.14705212 -0.03223549 0.1644539 -0.002361778 -0.123238094 -0.09981043 0.097846545 0.23430102 0.1259657 0.11526364 0.0053562955 -0.166603 0.12305636 -0.08445066 0.11803922 -0.030052228 -0.29893038 -0.20189855 -0.07207326 -0.07604155 0.17982611 -0.12583867 0.02682454 -0.22280164 0.09071953 0.30471742 0.022162046 0.09600181 -0.1796698 0.42704976 0.033377197 0.24551864 0.05681615 -0.11063238 0.015755957 0.014616169 0.035449997 0.2847559 -0.09398552 -0.0035841225 0.13430387 0.04981748 -0.40741768 0.011024028 0.09120893 0.046696775 0.062238183 0.11642347 0.08745381 -0.15905991 -0.26335168 -0.019863345 0.13998836 0.14144652 -0.12701574 -0.13786308 -0.2159199 -0.035031427 -0.10208036 -0.17718141 -0.116190694 0.03916811 -0.29441577 -0.25310776 -0.14051504 -0.06236575 -0.03908825 0.06098465 -0.10250266
338 0.13808802 -0.04077326 -0.12483235 0.073597215 -0.094118394 0.08661895 0.26010135 -0.011229117 0.10824997 0.09944932 0.037039075 0.07977193 0.24300218 0.060125936 -0.0293466 0.087621965 0.010449095 -0.04371395 -0.10771925 -0.10760275 -0.009203506 -0.06988443 -0.10482497 -0.103321135 0.017327124 0.04786961 0.20430917 0.14569831 -0.15406783 0.28780025 -0.118043005 -0.20199421 0.09874092 -0.16885908 -0.12536581 -0.24069923 0.047317695 0.02126197 0.34001344 0.24125484 -0.08918569 -0.036991194 -0.14099853 0.16518545 -0.2785438 0.0803674 -0.053701457 0.11127113 -0.04202428 0.30696186 -0.25362068 -0.22393888 0.08169603 0.028403955 0.121640146 -0.08759224 -0.24912594 0.07630894 -0.021070335 -0.13745598 -0.118734874 0.011765994 0.10296861 -0.05243544 -0.22347496 -0.12673864 0.14122827 0.13494898 -0.14113618 -0.120114915 0.086665064 -0.027010934 -0.06012998 0.0335923 -0.018038925 -0.17741428 0.071631186 -0.20164563 0.0066007567 -0.11507111 -0.16751182 -0.12769303 0.02725695 -0.031233089 0.020532412 0.30315435 -0.10258316 0.008785065 0.060024742 0.006769061 0.121997185 -0.060708627 -0.0007357202 -0.03911487 0.117922515 -0.2025309 -0.078994095 -0.06794432 -0.251759 -0.013836238 0.024251798 0.15321961 -0.11271767 0.18986656 -0.17166817 0.251863 0.05917556 0.230762 -0.22590142 -0.18936229 0.16770636 -0.17457189 0.18802315 -0.33050737 -0.00064523733 0.08360379 -0.07059082 -0.19644853 0.060279198 0.013987659 -0.032320887 -0.073417164 -0.066541664 0.06893431 0.048355058 0.19430403 0.01797056 0.012050531
213 0.0054673622 0.08228072 -0.20321691 -0.052476972 0.14114255 0.0015039039 -0.08715855 0.11505608 0.10395763 0.025640221 0.31006938 0.18337673 0.14764014 0.016687542 -0.10339847 0.10201086 -0.24389145 0.29438087 0.085899696 0.009032016 0.025936417 -0.014831277 0.11368179 -0.34535164 0.26574564 -0.27343693 -0.05257012 0.21849358 -0.10626413 -0.0390378 -0.06578698 -0.16144878 -0.073336594 0.2203488 0.037744086 0.07055168 0.110401645 -0.10789739 -0.15961398 0.33474934 -0.09062772 0.09231891 -0.09385396 -0.09542227 -0.047750384 -0.14803354 0.2359924 0.35529104 0.109124675 0.03539406 -0.3484417 0.006098047 -0.054233212 0.115029596 0.107547455 -0.27518523 -0.2143414 0.30603027 0.048989873 -0.026919154 -0.12101128 0.49129897 0.0062068347 0.0143088065 0.1949 -0.41429967 0.57232785 0.14983879 -0.12252997 -0.14157252 -0.1774227 0.15550125 0.044635102 0.040186003 -0.020091532 0.06840548 -0.11760032 -0.033882022 0.08199855 0.26421285 0.21441159 -0.5489262 -0.27099207 0.13782564 0.09126244 0.18299456 -0.15016674 0.24436621 -0.2672559 -0.101295315 0.14147213 -0.18109971 -0.14296533 -0.03741717 0.2913245 0.079271555 0.084972866 0.26696846 0.20276092 0.15406771 0.14719965 -0.17240109 -0.16714482 0.1522701 0.035122175 -0.1752167 -0.23365535 0.24198672 -0.067384236 -0.28553694 0.08870816 0.05639786 0.1019844 -0.044748317 -0.034916997 -0.10851815 0.00879323 0.17070612 -0.1820967 0.14858074 0.28649586 0.1029013 -0.18441929 -0.043978717 0.1739619 0.08519329 0.11505104 -0.030593764
581 -0.066149436 0.23878497 0.20537767 -0.19411872 -0.16255489 -0.051044676 0.18085891 -0.054302853 0.044578247 0.26575303 -0.0022219731 0.17866242 0.07594643 -0.072721 -0.0031010746 -0.27652958 -0.27463692 -0.12898467 0.18996507 -0.09497162 0.34001592 -0.1890124 0.046861056 0.102916956 0.30492678 0.03354902 0.05438638 -0.1143952 -0.14673251 0.12715757 -0.11054991 0.16333944 -0.63792413 0.3640007 -0.14296255 -0.16589291 -0.13240324 -0.20609677 0.25866774 0.07971946 -0.06934023 -0.02149044 -0.010413875 0.18902911 0.0531958 0.05392733 0.14717594 0.12273988 0.12425568 0.07996489 -0.2647248 0.036021903 -0.089496695 0.15977247 -0.22911836 -0.086083025 -0.39152905 0.10007189 -0.25806305 -0.12542225 -0.288823 0.1439282 0.17567942 -0.026781043 -0.10297034 0.14708944 0.37636343 0.38020545 -0.02639229 -0.110114954 0.10700512 -0.14130723 0.1357961 -0.03511974 0.12784347 -0.28293064 -0.1448431 0.21213801 -0.062505096 -0.035857476 0.04759333 0.070154116 -0.014864286 0.11903725 0.12604487 -0.12178094 -0.058715004 -0.15058658 0.028684592 0.24279816 -0.011654718 -0.09997342 -0.06397083 0.09329684 0.1576768 -0.019454455 0.123306945 -0.09170737 0.22053973 0.06723311 0.051445607 -0.32228914 0.010945393 -0.15168726 0.19574495 -0.0024509719 0.1956444 0.08695558 -0.051490348 -0.26356784 -0.24946311 -0.013537457 0.096244074 -0.06799724 -0.1343833 0.064499125 0.25516483 -0.2109396 -0.11984742 -0.12071144 0.03685283 -0.12875307 0.011761921 -0.0953952 0.17980349 -0.0764305 -0.13355544 0.388475
171 -0.23860198 0.41747501 0.22625896 0.066633806 0.07232407 -0.08064831 0.020972908 0.029949581 -0.3497056 0.122954726 0.061970595 -0.15610856 -0.07866291 0.056527335 0.17020744 -0.09859347 -0.011341834 -0.008934388 0.35002902 -0.07294491 -0.059608735 0.32841906 -0.027872732 0.021742651 -0.1210788 -0.24505949 -0.013563972 0.26905403 -0.07393131 -0.21897818 0.22097942 0.06380382 0.14127094 0.1098942 -0.4173138 -0.12052665 -0.1731984 0.05408469 0.26401493 0.13659392 0.05305418 0.12875374 0.20189899 0.055315427 0.06253001 -0.1791267 0.2175186 -0.38497147 0.1150134 0.36175603 -0.46379364 0.019458655 0.26664788 0.18474875 0.32739204 -0.13436191 0.0042433287 -0.23289627 0.056808773 0.09234908 0.07633932 0.12453666 -0.061774388 0.2693562 -0.13603583 -0.12735225 0.08621795 -0.07421534 0.06312746 -0.047555584 0.28914225 0.03526552 0.11567418 -0.2133283 -0.1348312 0.029382769 -0.25713092 -0.16842169 0.00914488 -0.45613867 0.0032254031 0.10530196 -0.095818475 0.17472365 0.24510255 0.17821234 0.22111127 0.13184345 -0.37058717 0.18680586 0.33394918 -0.054699507 0.18072264 -0.07492629 -0.010210107 -0.14703928 0.1977847 0.3708291 0.058909267 -0.05109269 -0.03910365 0.032137915 0.42995888 -0.17296918 0.231528 -0.0104376 0.14017598 -0.09187153 -0.07175638 -0.33586448 -0.19867408 -0.059385173 -0.15863642 0.12588827 0.054130748 -0.052345328 0.12543076 0.16521046 0.016901951 -0.11223962 0.04207573 -0.10096814 -0.40311283 -0.10982027 -0.057787225 0.019052692 0.27804446 0.065174535
