2634 128
2633 -0.17514424 0.29959902 0.062762626 0.123741545 -0.03282777 -0.27554324 0.002839308 -0.16985627 -0.05825838 -0.3023587 -0.07631028 -0.055245183 0.12344223 0.10039102 0.12578776 -0.054358285 -0.028107101 0.051836673 -0.0029115514 0.2683355 0.04639736 0.25172126 0.17958862 0.16445078 0.049249616 0.08304502 0.0015543753 0.15756825 0.0016120618 -0.06829847 -0.31174552 -0.21242648 0.08463552 -0.031021519 0.0769392 -0.008316377 0.04878806 0.077683836 0.1536816 0.22589742 -0.12800862 0.21858466 -0.104724094 -0.026374519 -0.22495572 0.025864363 0.14400893 -0.061271857 0.02106646 0.24486117 -0.2205151 -0.13702622 -0.12776777 0.17193937 0.053999722 -0.17085601 -0.08525564 0.27246365 -0.088103116 0.06086201 0.078857586 -0.30618587 -0.107245274 0.24780706 -0.03984042 -0.076751225 0.24674758 0.08493854 -0.05466135 -0.009601181 0.07969994 0.12518933 0.05518127 -0.07410923 -0.1684165 -0.09366707 -0.18760401 0.032932006 0.111915804 0.275232 0.1589577 0.0087968735 -0.13091244 -0.17489614 0.071504734 -0.2117194 -0.15651383 0.34994948 -0.19060175 -0.17348574 0.106270716 0.046444625 -0.38919413 -0.17547809 -0.13993135 0.020821221 -0.17376639 -0.037585855 0.1547037 0.04465044 -0.050162226 -0.0138939135 -0.015860923 -0.28602448 -0.06332373 0.08319671 -0.019642001 -0.09066624 -0.08199888 -0.37377015 -0.13851567 0.05328463 -0.10139299 0.011074199 -0.194566 -0.20700033 -0.111586414 -0.023388747 0.019919556 -0.056445885 0.11622786 -0.24640383 -0.15353337 -0.078191735 0.07095525 0.30395415 0.31532127 0.041619178
2550 -0.20679903 0.047582973 -0.12802982 0.01163024 0.09502454 0.025133174 0.058189012 -0.116548546 -0.017796952 -0.24212287 0.035785984 -0.16175178 -0.36866394 0.099794306 0.044514515 -0.023949705 0.03388265 0.069304354 -0.026586974 0.31667045 -0.019354988 0.05921469 0.03256079 -0.029022241 -0.08934741 -0.104233816 -0.09547189 0.18372494 -0.04831615 0.13769719 -0.049482517 -0.19341248 -0.2683919 -0.121815115 -0.09834082 -0.120531805 0.43219706 0.028686473 0.095147364 0.16894 -0.15855269 -0.012329078 -0.21663876 -0.2588348 -0.30860233 -0.33254725 0.06770255 0.17759866 0.04158307 0.27079535 -0.07535828 0.26722503 -0.2774229 -0.16410318 0.13332874 -0.085556746 0.09286106 -0.058521844 -0.058547627 0.021584779 -0.03286817 -0.02960376 -0.12511319 0.017705321 0.07982158 -0.290799 0.17349385 -0.04320591 0.017633663 -0.33119756 -0.102523915 0.043346312 0.054086246 -0.0838477 0.05214767 -0.19338487 0.010677746 -0.114759654 0.036266424 0.027243828 0.10447413 0.028307911 -0.40293568 -0.19625856 0.011899698 -0.3158754 -0.05591619 0.06222409 0.039289523 0.13215053 -0.066253036 0.019561268 -0.0022276482 0.0017708786 0.122399665 -0.033555042 -0.038373683 -0.030136691 0.042229738 -0.07277795 -0.04006675 -0.00083052204 0.08943363 -0.008424718 -0.06127945 0.27509412 -0.25092354 -0.07036121 -0.12187684 -0.06885173 -0.0119040655 0.1816577 0.27115297 0.075227104 0.084528364 0.24826251 -0.23131986 0.09931783 -0.11810382 -0.09534408 0.11092497 0.10057733 -0.21588597 -0.014069116 0.18274161 0.05771451 0.29477143 0.10732145
2568 0.07675426 0.08860768 -0.012796519 -0.21695001 -0.046464093 -0.058742944 -0.0763488 -0.12184842 -0.12723581 -0.124483995 -0.046836086 -0.09800583 0.20367275 0.10573177 0.24091399 -0.023786863 -0.11061002 0.01570108 -0.106451385 0.0090476265 -0.24980922 0.2377907 0.101253554 0.05213118 0.13770977 -0.11806902 -0.058196053 0.051694624 -0.21402918 -0.053543366 -0.25765687 -0.034977764 -0.072389826 0.016337285 0.07381999 -0.09092103 -0.04437459 -0.07697457 0.14859155 0.05061121 0.10203676 -0.33547598 -0.009235774 -0.27521253 -0.19718535 -0.07543447 -0.062321894 0.04849961 0.057487555 0.18697713 -0.117714636 0.13514836 -0.11975424 0.05795321 0.021908322 -0.08435427 -0.07911303 -0.17696613 -0.09159808 0.17817849 0.15981421 -0.21086368 -0.046823926 0.14032269 0.33689326 -0.04683276 0.28730655 0.13418879 0.09971393 -0.053604096 -0.21644749 0.0339449 -0.050079703 -0.06008045 -0.028027687 -0.016834643 0.034206342 -0.18062922 0.028637428 -0.32839796 0.06683173 -0.1315247 -0.02696732 -0.3135974 0.204551 -0.091438614 0.21033156 0.12515485 -0.17889713 -0.106146455 0.055667825 -0.15048936 -0.19324553 0.08529271 -0.031473566 -0.0666013 0.06451053 -0.07900323 -0.054952648 0.11092719 0.23235685 0.12163894 0.11845305 -0.121198535 -0.10553339 0.0816764 0.0793762 -0.03398121 0.05207267 -0.50930345 -0.15031275 0.3277066 0.0025995302 0.19009086 -0.030624386 0.06472938 -0.26868862 0.14300725 -0.041645404 -0.12415346 0.025957562 0.105456755 -0.003765428 0.053347837 0.11471736 0.042962957 0.11266327 0.08635178
2604 0.047488093 0.056983735 0.023539875 0.12510064 -0.10696946 -0.14776997 -0.039457433 0.2275197 -0.22863428 -0.43419027 0.15258904 -0.21945742 -0.06974172 0.2850258 0.004292813 0.071989864 -0.16024727 -0.17095776 0.027782606 0.29175583 -0.064859025 0.16250369 -0.016082292 -0.041980736 -0.022146475 0.07998433 -0.042539537 0.20766509 -0.23090535 -0.15709274 -0.26636016 -0.13356377 0.10062755 -0.05780534 0.21010774 -0.21859325 0.012787236 -0.104727015 0.18370044 -0.08670605 0.0056719477 0.1929948 -0.035527784 -0.12687436 -0.042808283 0.06548068 -0.002254733 -0.15607107 -0.037712917 0.22023213 0.011495248 -0.14489299 -0.16589005 -0.18672508 0.19609399 -0.11985036 -0.08580438 -0.21530753 -0.087221116 0.21067007 -0.027768183 0.025911575 -0.36842707 0.24941593 -0.084343754 -0.110998765 0.23955825 0.21463552 -0.051690444 0.028907156 -0.27673736 0.063202776 -0.09247758 -0.029071365 -0.10189301 -0.087300956 0.041388236 -0.12269156 0.25124466 0.09987333 -0.024721378 0.16994661 -0.06717664 -0.13004434 0.16659448 -0.21257167 -0.18399103 -0.016230002 -0.019523434 0.042441122 0.01934678 -0.029827587 0.106572755 -0.037824843 -0.07973239 -0.14406076 -0.1980492 0.0931549 0.1317589 0.13264845 0.033503994 0.08616406 0.1270559 -0.15364651 -0.16650397 0.034725197 0.026040914 0.10317204 0.22460307 -0.17209922 -0.034780364 -0.036810353 -0.12728958 -0.13580456 0.20131955 -0.02405159 -0.0567937 0.1523393 0.10147088 -0.19099946 -0.00689298 -0.12139436 -0.14760149 0.100948066 0.19182785 0.17417972 0.32836843 -0.120547146
2610 -0.09532117 0.20497297 0.047698136 -0.07360436 -0.0049969913 -0.26511982 -0.20482476 -0.3640547 -0.21469495 -0.024969088 0.13822897 0.051995568 -0.026882248 0.3534803 0.10553514 -0.024747279 -0.012439976 -0.28663215 -0.049064077 -0.08058895 -0.28803787 -0.014205125 0.19509357 0.14363454 -0.042278584 -0.0070714415 0.15451124 0.06449918 0.068750605 0.24958895 -0.26677358 -0.26584393 -0.34398055 -0.15797788 0.0019422441 -0.20729251 0.10130669 -0.019945748 0.0133916475 0.086653195 -0.045955308 -0.16224453 0.060804877 -0.23750022 -0.29315194 0.04103827 0.09605717 -0.09050041 -0.032874707 0.26672575 0.03624021 -0.15030229 -0.07391367 0.10982001 0.15698284 -0.18671238 0.050738342 0.17170635 0.12366984 0.092203245 -0.21554825 -0.008383592 -0.31567773 -0.21345001 0.1741711 -0.21746288 0.20104106 0.08252094 0.075997576 0.09727956 0.16981028 0.121232666 -0.050888114 -0.12093675 0.100570895 -0.03489584 0.027204376 -0.20452677 0.34533793 0.08512397 0.14927655 0.18097056 0.17361459 0.023920838 0.060155947 -0.20837587 0.087415636 0.19023658 -0.1385371 0.015686994 0.0074406336 -0.2323073 0.002712272 -0.23088525 0.19234571 0.048446555 0.025441334 0.1416213 -0.03692842 -0.022275792 0.11779889 -0.23841828 0.29054037 -0.14205205 0.24140315 0.1074255 -0.009217041 -0.16635014 0.1722828 -0.35455084 0.13412985 0.24349362 0.13364826 0.30038187 0.11053891 -0.072012976 0.2085594 0.075825386 0.23817362 -0.0582892 0.30474532 -0.015143236 -0.12700781 0.14355546 0.001497801 -0.035602633 0.09585169 -0.008003955
686 -0.06368709 -0.00040018494 0.03507205 0.056731123 -0.0012461998 -0.052319117 -0.12974893 0.09197328 -0.24323681 0.04447815 -0.068019755 -0.20214157 -0.02257891 -0.03637214 0.03771825 -0.010873776 -0.12194316 -0.011653579 -0.0735322 0.178178 0.035312302 0.099688865 0.22353728 0.12580591 0.004424232 -0.068774045 -0.035597317 -0.05822142 -0.1279461 0.077922024 -0.05037282 -0.076714985 0.09651095 0.10582207 -0.07049082 -0.05476653 -0.020775061 0.09857678 0.090548426 -0.057337433 0.09350505 -0.16854389 -0.23031832 -0.112901054 -0.062366255 -0.06325962 -0.13888003 0.0058903936 -0.06096641 -0.12048285 -0.13293366 -0.18273254 -0.038941782 0.0769381 0.12601501 -0.03921173 -0.069467425 0.008591016 -0.18712674 0.08899305 -0.09008481 0.20007811 -0.10690446 0.030086653 -0.10626978 -0.08942485 0.025529692 0.14744623 0.06093037 -0.069011785 -0.11866453 -0.13767293 0.06935508 0.009226815 -0.013814637 -0.08644245 0.06441362 -0.089095846 -0.117739886 0.034065537 -0.16488439 -0.22534391 -0.039208747 -0.08743413 -0.048524965 -0.1563566 -0.09428694 0.13873443 -0.0146953445 0.063725494 0.048286002 0.054310936 -0.09041297 -0.10123478 0.18913591 -0.06921277 0.00027489525 -0.022054113 0.049472116 0.0739265 -0.050627295 -0.032994043 0.16643877 -0.15310125 0.07916215 0.23781022 0.05554618 0.0012039604 0.044932418 -0.16864331 -0.058713503 0.16103175 0.13768817 0.0139666945 -0.022841563 0.049986035 -0.1829589 0.118050955 0.07802647 0.03624859 -0.035592157 -0.052306857 -0.03623542 0.23363706 0.11939101 0.006954438 0.0323436 -0.0541186
2454 0.049435712 -0.07415607 -0.06285156 -0.17696093 -0.19292581 -0.071508214 -0.13613763 0.030440789 -0.072597 -0.22558618 0.16067813 -0.1874955 -0.0070246384 0.26243204 0.11212196 0.021848701 0.09944017 -0.07221129 -0.17692289 0.059811976 0.26237518 0.25498572 -0.24585137 0.25521994 -0.12091027 -0.028057702 -0.040507212 0.13643137 -0.14244162 -0.09208514 -0.29765594 -0.0067974254 0.06046389 -0.010336351 0.03603985 -0.25975916 -0.0134959705 -0.0769462 -0.26015818 0.20238799 0.046230733 0.16751802 -0.37698457 -0.30514264 0.084681384 -0.14370434 0.13100441 -0.20316054 -0.04242547 0.16445805 0.022021975 -0.08864613 -0.14980246 0.022776889 0.095587276 -0.060908966 -0.18892772 -0.20365363 -0.012610358 0.014088595 -0.025177585 -0.16448095 -0.10380462 -0.05420255 0.1358882 0.111427166 0.20681457 0.14979868 -0.16420245 0.06127938 -0.07123426 0.0996267 -0.04539439 0.011042784 -0.03465375 -0.09968685 0.17979729 -0.15424065 -0.021293214 0.07737637 -0.0722769 0.039353117 -0.08892099 -0.001249549 0.061498664 -0.20131081 0.14891309 0.20914482 -0.30443543 0.23030858 -0.06063252 0.13931282 -0.13111101 0.10016049 -0.015166822 -0.07991718 -0.10502695 0.09441702 0.0011382309 -0.020140678 0.0029066154 0.18451507 0.056363806 -0.10605664 0.033358883 -0.19350612 -0.00057128863 -0.05385863 0.08292528 -0.48446754 -0.091099575 0.3189289 0.18783583 0.102456786 0.09908203 0.025167892 -0.030648047 -0.06636242 0.17077272 -0.14880255 -0.025252413 0.02560358 -0.21116772 0.06475193 0.046844155 -0.011982442 0.19090706 0.23649113
2464 -0.5667338 -0.2352129 0.025871042 0.014107283 -0.31825975 -0.25443596 0.01798655 -0.12142213 -0.54391474 -0.1881522 0.13133088 -0.095627636 -0.10105011 0.2914235 0.29819512 0.18884677 0.33271724 -0.28157037 0.16845909 0.45820498 -0.43247408 -0.39290303 0.16388774 -0.2130127 -0.009059558 -0.006517338 -0.33024937 0.2973442 -0.032405622 0.09653323 0.064323485 -0.013341028 0.0520494 -0.10454271 0.28565675 -0.025735516 -0.009142073 0.29481044 -0.092744336 -0.06465808 -0.6288682 -0.14294906 -0.22915624 0.26759574 -0.46468517 -0.3141947 -0.082744114 0.07334986 -0.101065375 0.055015028 -0.04412976 -0.02465031 -0.6471615 -0.055323552 0.10808457 0.069665655 -0.28093174 -0.16314347 -0.24252568 0.017686231 0.06710248 -0.17621279 0.011716179 -0.016881865 -0.123517096 0.08929427 0.13843173 -0.24731879 0.5304366 0.09134811 -0.35880885 0.06437282 -0.012768324 -0.15739918 -0.32489294 -0.2855923 0.14733922 0.108222015 -0.05327306 0.12637785 -0.2655263 0.08426272 -0.020489693 -0.058800455 -0.16870585 -0.40835768 -0.26565412 0.30112204 0.07979325 -0.42732084 -0.18781514 -0.47626474 0.16417298 -0.32725883 0.22298436 0.0069382656 0.022736821 -0.18348032 -0.04446383 -0.06787646 -0.22423403 0.0254658 -0.13501827 0.11505448 0.6082106 -0.4245881 -0.45560926 -0.02170067 0.3921244 -0.44846106 -0.16598666 0.30032703 0.16772836 0.06934575 0.19846275 -0.52386165 0.008804053 -0.031356215 -0.039794337 -0.18366279 -0.42099968 0.037130397 0.074154966 -0.12623808 0.59447825 -0.30237854 0.05865928 0.25216988
249 -0.22721696 0.34089667 0.027287543 -0.009079462 -0.15246393 0.08441781 -0.16073535 -0.33987078 -0.09395528 -0.23988299 -0.16422646 -0.08293724 -0.12569849 -0.03635048 0.11583692 0.032274377 -0.17482425 0.07539915 -0.027624121 0.00025033142 0.1066551 -0.05432545 -0.14064446 0.07747754 -0.23539244 0.29001662 -0.026529701 -0.12272755 -0.0012848491 0.14320979 0.12816937 0.44298622 0.071625255 0.08329788 -0.10665758 -0.23789744 0.037440836 0.14626864 0.03769818 0.028480414 -0.05267374 -0.034700423 -0.02480359 0.10997915 -0.1874757 -0.10358686 -0.046093192 -0.07074747 0.1169085 0.23114201 -0.10625575 -0.066899866 -0.024518749 -0.1045628 0.14704598 0.039867587 0.03973829 -0.11800983 0.09790506 0.053636234 -0.08641309 -0.025883924 0.00436323 0.13977106 -0.089776844 -0.18146034 0.22310631 0.03195263 0.0076275663 0.13346517 -0.27636072 0.07285751 -0.05496843 -0.11421194 -0.35664767 0.09927815 -0.0972354 -0.014144025 -0.07694882 0.07688262 0.051962744 -0.015668865 0.45915112 -0.26821327 0.14885403 0.026428306 -0.10854732 0.3319538 -0.17285939 0.35517463 0.068736956 0.032897454 -0.09840396 0.21977782 0.07024212 0.058322333 -0.046818223 0.11011604 0.087660305 0.2265038 0.09823275 0.09721047 0.20815332 0.06976597 0.15460435 0.017136885 -0.023682037 0.033376448 0.012268067 -0.053255394 -0.29957 0.074526265 0.048281576 0.25610226 0.23769665 0.19067392 -0.05791469 -0.25456062 0.015632205 -0.010040925 -0.05295614 -0.024766706 0.01167986 -0.050777566 0.25124195 -0.026372824 0.19033433 -0.0354374
36 -0.27708963 0.29265383 -0.05485787 0.0075267563 -0.23068726 0.05889477 -0.11291772 -0.32245675 -0.12929964 -0.20597307 -0.18451275 -0.15567617 -0.11903395 -0.010190398 0.18794554 -0.03893472 -0.20721868 0.06846361 0.051407076 0.014698657 0.07721304 -0.13122478 -0.13080725 0.036099225 -0.22771586 0.2690718 -0.08219883 -0.11285419 0.09601872 0.20285718 0.13809285 0.33082077 0.054924313 0.06868802 -0.17213245 -0.19324037 0.037988305 0.11289884 0.06136767 0.09791716 -0.08512086 0.01108593 -0.022466956 0.04473165 -0.12660262 -0.100537255 -0.072217345 -0.12899171 0.09348006 0.17660049 -0.04679196 -0.04938666 0.028400466 -0.06549659 0.08718973 0.0562121 0.021676764 -0.043634195 0.11192788 0.10932993 -0.0488316 -0.089998774 0.019222366 0.13365424 -0.09873849 -0.18209311 0.25949153 0.14557903 -0.0734999 0.1838799 -0.22690639 0.08683192 -0.12737787 -0.14024805 -0.31092545 0.0647911 -0.124856226 -0.05932926 -0.027480254 0.13454686 0.039759398 -0.09844376 0.4351632 -0.23337041 0.18466699 0.014568683 -0.078731745 0.24255507 -0.105120316 0.26055616 0.09434283 -0.0023906792 -0.087748826 0.18914986 0.19261199 0.06813445 0.00492174 0.06651521 0.065141775 0.25566676 0.099757455 0.05117434 0.2611222 0.08233208 0.15153669 0.0909302 -0.005850459 0.062936515 -0.03389938 0.07174354 -0.31149226 0.050034743 0.07554668 0.22971042 0.16268854 0.16004223 -0.04238731 -0.22849095 0.026761668 -0.038111266 -0.1405139 0.019583771 -0.03358211 -0.058109928 0.29780242 0.06533215 0.15054022 0.012491279
88 -0.27841863 0.34450394 0.010335917 -0.006388966 -0.16492824 0.103356875 -0.14411992 -0.3198292 -0.113132276 -0.2144935 -0.23600203 -0.14281826 -0.10833357 -0.014575148 0.16544941 0.027675591 -0.24621427 -0.0117507875 0.007253124 -0.05551104 0.1668266 -0.14476426 -0.09613768 0.058312863 -0.20371678 0.26962763 -0.011281221 -0.09636005 0.034045182 0.20005012 0.0845588 0.2846635 0.03864554 0.09932612 -0.080135815 -0.21563034 0.036327537 0.09830389 0.045220166 0.018200079 -0.08651885 -0.0020716607 -0.09191938 0.13426669 -0.18936591 -0.06493103 -0.09892826 -0.06293599 0.16379379 0.22037145 -0.07637764 -0.0642646 0.038789928 -0.13138276 0.1423154 0.069111854 0.041209612 -0.091535196 0.03458771 0.1040169 -0.04215088 -0.0370975 0.0409825 0.1327565 -0.08365219 -0.14240211 0.2564176 0.11097547 -0.009456706 0.23055172 -0.2340752 0.12517889 -0.061284482 -0.11530833 -0.41046453 0.042001132 -0.17285728 -0.028542701 -0.0895877 0.122182205 0.059324883 -0.1085548 0.44185022 -0.21798004 0.09195537 0.036241878 -0.004344137 0.24750982 -0.01974446 0.36640808 0.14626764 0.008943246 -0.11276861 0.15616065 0.10674176 0.026271775 -0.0032650528 0.094110645 0.06969204 0.26673043 0.020590294 0.036444258 0.2405991 0.06749877 0.16747606 0.057071608 -0.025193624 0.017930962 0.03292555 0.0042589917 -0.23188625 0.09184425 0.12273259 0.2027108 0.20559108 0.20145854 -0.068629645 -0.2470722 0.017055709 -0.078783974 -0.07259911 0.041130044 -0.019895868 -0.0611367 0.30660388 0.04599023 0.12448618 -0.049078114
236 -0.34434423 0.40758067 -0.024305694 0.034418095 -0.123827145 0.09426271 -0.1915988 -0.30252826 -0.075524874 -0.21474491 -0.22507247 -0.13709022 -0.09387769 -0.055111177 0.1004782 0.012800627 -0.18693523 0.071682714 0.0062109865 0.033574622 0.11303078 -0.15152043 -0.13784832 0.048349634 -0.22042802 0.3039074 -0.054209184 -0.12598282 0.047600877 0.11458196 0.057374705 0.35600463 0.015890373 0.056149103 -0.15671605 -0.19793603 0.14603354 0.115584046 0.0072722 0.06135816 -0.11879412 0.0025285105 0.040594473 0.08979123 -0.08132505 -0.119902976 -0.10271377 -0.12866078 0.11712256 0.20801643 -0.03719232 -0.13223253 -0.052953117 -0.063113995 0.14032403 0.070929274 0.004066193 -0.16340111 0.113488235 0.10816204 -0.11919461 -0.025214892 -0.018205494 0.10671366 -0.013874577 -0.20145158 0.22152515 0.11356316 -0.025638342 0.17458065 -0.2144404 0.101794444 -0.048283283 -0.12926853 -0.36470893 0.0076082344 -0.15467173 -0.06824826 -0.12769473 0.11424271 -0.02136853 -0.15633978 0.48689353 -0.18641216 0.11912547 0.08207083 -0.059013188 0.24350667 0.010047953 0.34688386 0.060234755 -0.012414649 -0.12610969 0.16425486 0.13468331 -0.0079438165 0.02163742 0.03263224 0.108038016 0.193417 0.09664276 0.06257434 0.2620499 -0.008284789 0.17669067 0.031628545 -0.026493188 0.079591505 -0.007494042 0.002967534 -0.22856818 0.052962262 0.11304141 0.26486132 0.16907363 0.14519896 0.00096436654 -0.25103912 0.035666533 -0.06872754 -0.09469656 0.03611864 0.029984217 -0.04100906 0.34154338 0.10006631 0.12361918 -0.046730574
2431 -0.20783122 0.24300678 0.20191063 -0.21333481 -0.13829644 -0.098174654 -0.019992637 0.04599307 -0.30414775 -0.05361791 -0.1599542 -0.24968998 0.0012970865 0.1251572 0.22505462 -0.10136698 0.09766546 0.14069223 0.24518405 0.23015024 -0.18186182 0.30996957 -0.020751404 -0.168769 -0.10130708 0.09179129 0.056571193 -0.053272314 -0.109108135 -0.07564452 -0.03279749 -0.06577572 -0.08997445 0.2078019 0.013802485 -0.28174922 0.08245594 -0.06855743 0.35901928 -0.12135906 0.10530511 0.027802449 0.13381033 -0.20534635 -0.17819688 -0.2987551 0.31382906 -0.3057582 0.25170404 0.06738091 0.059316453 0.026496662 -0.1000715 -0.09495982 -0.0024855766 -0.21432269 -0.14338034 0.017597234 -0.04608961 0.065263614 -0.09980856 -0.061101753 -0.020349948 0.08535846 -0.048316117 -0.32021037 0.22781365 0.082021676 -0.3269182 -0.07208351 -0.08756895 0.09197728 0.13894886 -0.18826614 0.23828927 -0.18106565 0.0053495807 -0.39204648 0.051940504 0.1751572 -0.05185627 -0.13885245 0.027936703 0.0938807 0.16276607 0.06508382 0.3250898 0.018495021 0.054535214 -0.2685264 -0.28231442 -0.14392179 0.019272603 0.0363382 -0.018061426 0.056753617 -0.16544443 -0.07551833 0.003318054 -0.007142981 -0.1560759 0.12528697 -0.12666629 -0.055915415 0.17953537 -0.0112344185 0.09478024 0.15220176 0.22498772 -0.037772544 -0.1084509 0.16340412 0.058097657 0.07043466 -0.076364815 0.061669227 -0.2420466 0.17407405 0.0788874 -0.08264704 0.008178273 0.23830666 -0.23302607 0.22481751 0.12381755 -0.04537238 0.3203391 -0.020950064
250 -0.28397855 0.3419312 -0.018633902 -0.044660624 -0.1350643 0.059072975 -0.12143822 -0.34350267 -0.05355365 -0.16324852 -0.20828666 -0.1262762 -0.13585459 -0.04791936 0.109358996 -0.034016386 -0.20774116 0.09508055 0.02134234 -0.020796282 0.094642214 -0.13576628 -0.13198349 0.01196558 -0.25741947 0.3100462 -0.08154838 -0.0862737 0.022948952 0.16262186 0.16295014 0.40299794 -0.013458308 0.0061381515 -0.09523202 -0.19268727 0.06444627 0.119027734 0.011027404 0.032470554 -0.0893517 -0.035126377 -0.028753968 0.053994104 -0.15469092 -0.14216761 -0.13614212 -0.102412544 0.122898474 0.2430264 -0.055450752 -0.07056508 0.035417076 -0.05339974 0.08587568 0.05956362 0.04193868 -0.072500505 0.03936758 0.02723476 -0.07845595 -0.04329635 0.03462712 0.11423061 -0.083684385 -0.2055026 0.24372657 -0.018436883 -0.027094595 0.14646727 -0.23743965 0.1048148 -0.10229139 -0.10766992 -0.32190555 0.09433115 -0.08604055 -0.076502874 -0.05473046 0.11449885 -0.0421513 -0.06640891 0.4457079 -0.21315524 0.11256085 -0.04632691 -0.09698503 0.26571557 -0.12328763 0.19781587 0.16857502 -0.038219437 -0.14365856 0.19500619 0.22865346 0.013322151 -0.01935015 0.17297447 0.06632009 0.27054843 0.10526952 0.018268166 0.25063935 0.08230625 0.10400389 0.10421668 -0.01246488 0.020317202 0.014828623 -0.011448772 -0.23793712 0.059595868 0.07490338 0.18664855 0.25371003 0.117525265 -0.09283282 -0.24882776 -0.027981848 -0.025905937 -0.07490873 0.036705025 -0.012759772 -0.008613403 0.32642463 0.039842676 0.1942727 -0.019152062
2482 -0.12485761 0.22611912 -0.117570065 0.20605612 0.22338074 -0.11484933 0.11286233 0.16674852 -0.44230962 -0.3992008 -0.12726827 -0.18078783 0.04171853 0.060533635 0.122492455 0.0698327 0.07102063 -0.1972398 0.18803678 0.11743248 -0.11894691 0.02518476 0.0024175127 0.027422264 -0.3231333 -0.15035215 -0.19226767 0.072038144 0.13817841 0.015220095 -0.0847457 -0.12854566 -0.1070997 -0.056075986 -0.099334136 0.059101947 0.05610583 0.26545578 -0.118132524 -0.1640857 0.006046508 0.29624167 -0.08138405 -0.010261818 -0.29234278 -0.44188565 0.046305828 0.006714073 0.0832374 0.34259108 -0.03218938 -0.109167576 -0.2207322 -0.23631069 0.5700223 -0.10028565 -0.24632098 -0.106569864 -0.18096812 -0.048711523 0.2040665 -0.30749106 -0.22959079 0.11440999 0.20254953 -0.07432591 0.23514634 -0.09739015 -0.18572564 0.079399616 -0.25991154 0.09691603 -0.03543879 0.04656255 0.07374449 -0.121364586 0.12484938 0.005777897 -0.09293652 0.114336364 -0.14263278 0.12058678 -0.20599607 0.20664681 0.21181792 0.17522725 -0.28750354 0.32001027 0.35278344 -0.207165 -0.13628775 0.13341804 0.026918631 0.16945538 -0.04142638 0.14542699 -0.14178438 -0.34680262 0.010393679 -0.024095463 0.009023874 -0.1987239 0.3219565 -0.30115965 0.16991156 0.22521219 -0.05324775 -0.032934617 0.19618629 -0.3794178 0.04570117 -0.037121497 0.08683579 0.18045297 -0.3141671 -0.07970147 -0.14465003 -0.24249929 -0.039640233 -0.3069417 0.49634853 0.11316748 -0.00051904604 0.48283944 -0.060162935 0.14012733 0.2575838 0.08587199
2499 -0.19368857 -0.044796217 0.26381284 0.1038919 0.02035986 -0.17412443 0.1353237 -0.03889357 -0.35395038 -0.23837385 0.06465922 -0.05153109 0.23501451 0.36442325 0.2516697 0.03841851 -0.14984171 -0.22797579 -0.16741762 0.3392858 -1.4190791e-05 0.089012735 0.10556579 0.28596267 -0.038710803 -0.23874092 0.015626375 0.12772389 0.002353702 0.075760454 -0.14853221 -0.11612598 -0.029042868 -0.082637295 -0.13239826 -0.09386005 0.24259545 0.17373118 0.2204994 0.11602769 -0.31848085 0.06583592 -0.31204793 -0.17020613 -0.037538983 -0.25815725 0.20442738 -0.093874335 -0.0263483 -0.042039387 -0.068203144 -0.08286578 0.16210696 -0.05620003 -0.108209155 -0.09686994 -0.1953633 -0.2468087 0.14702785 0.08700155 -0.057737436 0.05337863 -0.38227433 0.19096926 -0.030381436 -0.03207491 0.26646665 0.12044965 -0.14397669 0.17948176 0.1774813 0.14563498 0.019277323 0.012885767 -0.031107733 -0.23684786 0.3524786 0.051106054 0.06622021 -0.021289788 -0.10681311 0.109833926 -0.1593123 -0.14134252 0.12707445 -0.039581012 0.2248604 0.037766647 -0.14574495 0.34504613 -0.03707733 -0.24214724 -0.14117701 0.14348094 0.014341467 0.1569037 -0.111423224 0.116951816 -0.06133172 -0.06141125 0.17348659 0.1682927 -0.06548421 -0.2796617 0.212136 0.098345675 0.10020982 -0.24663337 -0.14496674 -0.16007186 -0.08736167 0.027213534 0.032761686 0.12485795 0.12749842 0.11459985 -0.03296767 0.0447496 0.057373844 0.21654777 -0.10656421 0.060954794 -0.11298762 -0.0064133164 0.1729411 -0.018354667 0.20375523 -0.037235137
195 -0.30762514 0.34187388 -0.016021924 0.0077554225 -0.18319978 0.10289628 -0.15304968 -0.2768335 -0.08363965 -0.20986961 -0.21039033 -0.110023156 -0.09501234 -0.037138052 0.19428383 0.010564654 -0.19414091 -0.003585947 -0.0030661668 0.030943405 0.1374686 -0.11529794 -0.087506555 0.09730529 -0.21240522 0.28717074 -0.07910738 -0.15677018 0.03715544 0.2135876 0.09739184 0.3002626 -0.0021486594 0.09915176 -0.08482913 -0.24648152 0.016697459 0.15278059 0.047404982 0.043753006 -0.06334435 -0.024366532 -0.025568966 0.07303763 -0.17361705 -0.10953988 -0.07149023 -0.045084737 0.18086593 0.1800696 -0.15024197 -0.091422744 0.0063210633 -0.05887166 0.09019112 0.047639977 0.042702183 -0.11231639 0.087658994 0.054405153 -0.051495265 -0.04184435 -0.013566939 0.18839033 -0.11252786 -0.16063716 0.28063354 0.09242609 -0.035948128 0.2179221 -0.30569634 0.10022357 -0.0739466 -0.103679635 -0.35244104 0.06636237 -0.121843204 -0.0757951 -0.10728857 0.07197099 -0.006770806 -0.101091035 0.47990876 -0.2075302 0.11032892 0.008597372 -0.043286175 0.2384984 -0.09936381 0.36281535 0.0598258 -0.008940299 -0.16251399 0.1771988 0.09263878 -0.0010696169 -0.095418744 0.06335986 0.084493764 0.23993462 0.08347682 0.029746896 0.2524483 0.07829258 0.13523473 0.10210868 -0.016450768 0.03438895 -0.022708686 0.0063600508 -0.26074752 0.12860367 0.023833722 0.25193745 0.20913684 0.108623564 0.014805456 -0.24246521 0.06981234 -0.008996954 -0.16437535 0.00093997095 -0.01773014 -0.040225327 0.2925382 0.017891698 0.1538008 0.0013878398
2617 -0.047240306 0.13163906 -0.11544423 -0.1964498 0.10496942 -0.112341285 -0.2834142 -0.15443106 -0.31985104 -0.21870881 0.24410805 -0.10799485 0.022354828 -0.02629584 0.32168213 -0.11026852 -0.05857164 -0.04236236 0.013056221 0.018560167 0.092993446 0.2940826 0.07318749 0.20324124 -0.08913105 -0.29081658 0.07560491 0.20832837 -0.3871502 -0.085376605 -0.08346938 0.09948719 -0.070278876 0.20595995 0.030552085 -0.22350931 0.17378262 0.07120174 0.0088334605 0.08423013 0.02741018 -0.11175029 -0.2774787 -0.3079868 -0.0502732 -0.19561173 -0.042419694 -0.1580473 -0.043335855 0.17820182 0.028666437 -0.024442913 0.107882544 0.1312005 0.14717516 -0.17060259 0.08241402 -0.068040416 -0.14498383 -0.07557591 0.058202494 -0.027683454 -0.2424387 0.02980614 0.10347339 -0.30213442 0.1084742 0.09160898 0.18167508 0.07067485 -0.28569472 -0.22012034 0.15581834 -0.03231527 0.18780129 0.07574271 -0.16454603 -0.18738195 0.142584 0.0066204076 -0.08142345 -0.021548454 0.09475423 0.021391992 -0.032203276 -0.14429642 -0.059685633 0.18844785 -0.020425372 -0.1622684 0.062394112 0.13861936 -0.16419762 0.0003871289 -0.016244207 -0.026645087 -0.13283311 0.026275141 0.06725343 0.16752048 -0.1847706 0.031600058 0.15557061 -0.10530315 0.16646391 -0.023646625 -0.11387894 0.031770885 0.11539188 -0.39320874 0.12719758 0.28850296 -0.027585784 0.06411667 0.24788688 -0.027561001 -0.017826822 0.16717431 -0.06749695 0.16428192 0.158244 -0.025724454 -0.100275055 -0.24937212 -0.05141062 -0.07617794 0.3351169 0.15382291
881 -0.04156438 0.030971427 0.026096562 -0.02444222 -0.043282695 -0.15200987 0.04531412 -0.03961681 -0.088358186 -0.15957575 -0.08438224 -0.017422883 -0.07860139 0.27699366 0.03971971 0.026485894 -0.14335178 -0.17325069 -0.0064680884 -0.00413489 0.035027664 0.104419366 0.073066086 0.044007763 0.037149478 -0.14912033 -0.08566626 -0.1623994 -0.10127814 -0.042707417 0.121847615 -0.031956453 -0.121448345 0.061797544 0.0012868729 -0.18283854 -0.037742138 0.16525 0.08897482 0.24291444 0.123300135 0.10433472 -0.17195427 0.14511302 0.023840554 0.02776189 -0.2570668 -0.006321375 0.0023510782 -0.08246307 0.019253124 -0.060673036 -0.024156455 0.09668667 0.035421394 0.1202429 -0.023245985 -0.017378056 -0.1342613 0.050841615 -0.06684574 -0.003202392 -0.02435418 -0.007177502 -0.034067765 -0.16843143 0.056104094 0.022193708 0.17494945 0.13521232 -0.1513802 -0.1652812 0.07470675 -0.017763311 0.2151269 -0.039859198 -0.031152481 0.035363395 -0.27144706 0.22900237 -0.1356728 -0.02935048 0.08530046 -0.10138619 0.035248376 -0.18865812 -0.09005151 0.09972386 0.0005510783 -0.08253538 -0.010604729 -0.10024835 -0.03888197 0.015554271 0.02708293 0.049824618 -0.0989664 0.07307672 0.06921065 0.034021053 -0.0016041659 0.14479609 0.16248582 -0.22038221 0.21513747 0.13473804 0.16138509 -0.09405616 -0.009151506 -0.28405163 -0.1803432 0.27468202 0.23131187 -0.08746785 0.05240803 0.036598694 -0.020558538 0.20232278 -0.024629815 -0.010365944 -0.082664005 0.15333283 -0.30550164 0.37090072 0.1253143 -0.013900884 -0.100553915 0.012399103
2614 -0.085834146 0.033740092 -0.114537545 0.003973988 0.006271797 -0.2982907 -0.043703116 -0.03274093 -0.34660244 -0.06608761 0.1977758 -0.14076643 0.27597895 -0.23690484 0.2269623 -0.18901198 -0.16469552 0.24229877 -0.14076415 0.24551287 0.08715781 0.35718498 0.038157783 0.1064629 -0.16146344 0.0580794 0.13746788 0.14367954 0.037834484 0.034678068 -0.07935145 0.13757941 -0.18946573 -0.06914524 -0.13172467 0.064743415 -0.050840326 0.07636145 -0.0093357 -0.0053081126 -0.22289455 0.08146044 -0.38775754 -0.062561736 0.025517695 -0.12542625 -0.109518945 -0.1010066 0.10807659 0.14662611 0.036516853 -0.11594147 -0.05756816 0.11872868 0.14667736 -0.12958819 -0.034078956 -0.051029023 -0.0042909817 -0.07172144 -0.0028156354 -0.1818341 0.20091933 0.038823333 0.3233179 -0.14716086 0.21185507 0.2097552 -0.08793462 -0.20466116 -0.24824394 0.032894216 -0.066215746 -0.2610855 0.27477536 -0.34812784 0.2553997 -0.24754167 0.23336618 0.17884833 -0.13947871 0.045083344 0.16497032 -0.23672168 0.19203424 -0.18191881 0.065141685 0.13762033 0.19312853 -0.19129822 0.0028390172 0.05398622 0.2885743 -0.06949531 0.25116816 -0.09177947 -0.027033838 0.006922704 -0.15474841 0.018325921 -0.073420666 0.23183416 0.26865762 -0.06893842 0.00063338387 0.079872005 0.11270593 -0.5141078 -0.006049381 -0.08735313 0.044082943 0.2511859 0.05700574 -0.05820135 -0.05814779 -0.101704426 -0.054929078 0.15490207 0.05754611 0.009719768 -0.007145502 -0.10563784 -0.2460561 0.10152584 0.46728253 0.115530774 0.07320553 -0.15743633
2430 -0.07906528 -0.019007219 0.24104472 -0.37557304 0.08238305 0.13410038 -0.13291623 0.009703023 -0.17339191 -0.32228845 0.0005654983 -0.18741907 -0.0017665527 0.13300169 0.3128793 0.009436283 -0.15875436 -0.29873946 0.14026563 0.18943608 -0.006967425 0.044067618 0.117024355 0.29487118 0.047324635 0.09985148 0.10072507 0.18152368 -0.1724053 0.03661694 -0.09400456 0.12385848 -0.13270435 0.00483947 0.0007753379 -0.05074996 -0.08394249 0.159594 0.119670704 0.19071019 -0.01752993 0.052617848 -0.14970002 -0.22301567 -0.065219894 0.059968505 0.17415418 -0.088368416 0.05241288 0.059083335 -0.11203919 0.1089363 0.083570085 -0.06847836 -0.043069374 -0.19108975 -0.21512985 0.117076345 -0.029773328 -0.03386584 -0.007058871 -0.14373098 -0.027017279 0.057914063 0.08745078 -0.18397166 0.3843096 0.12269844 -0.09784969 -0.023579063 -0.03098055 -0.08596661 -0.22074425 0.24354003 -0.0033494835 -0.22465748 0.10779826 -0.19813596 0.090758264 0.045150433 -0.012377033 0.086265996 0.06008012 -0.2231192 -0.03159143 -0.15897194 0.10673426 -0.038143337 -0.011580237 -0.14071962 0.02457848 0.020433437 -0.09328579 -0.24149436 0.006356136 -0.10934996 -0.07482444 -0.21516198 -0.043525 0.1342202 0.29043046 0.14786991 0.065256976 -0.04180952 0.15612958 0.17883207 -0.07511767 -0.2648843 0.10654182 -0.209013 -0.20337191 0.19207022 0.025903676 0.05101266 -0.053172562 -0.091343515 -0.04535895 0.10491346 0.10484657 -0.2649806 0.09570504 -0.06782962 -0.1916101 0.08888664 0.019773783 -0.062343597 0.033081688 -0.05631554
2593 0.038615733 0.10274597 -0.0023498293 0.01796066 0.03789518 -0.013116776 -0.2643312 0.08538007 -0.11079097 -0.06388601 0.15774876 -0.28031734 0.08214507 -0.0010154529 0.13470371 -0.20020096 0.032341145 -0.07337768 -0.071782306 0.16737658 -0.119803794 0.33405855 -0.08425081 0.19198227 -0.24538305 -0.18229643 0.0503376 0.11629205 0.09111231 0.05709475 -0.021754084 -0.071159475 -0.0060449513 0.12998316 -0.039799012 -0.26041532 -0.041430164 -0.024147645 0.023960942 -0.31263605 0.097945765 0.02902901 -0.2465341 -0.30062377 -0.1938231 0.036969278 0.06286553 0.10816029 -0.14067453 0.27270904 -0.07663314 0.046155635 -0.08298175 -0.08045213 -0.114709936 -0.1915275 0.19715755 0.21034239 -0.09735925 -0.11499195 -0.20340502 0.15581323 -0.3346729 0.21493618 0.12523471 0.044761017 0.40487355 0.10058083 0.24575223 0.1321479 -0.29177403 0.01962925 -0.12296858 -0.041209538 0.07646556 -0.44093016 0.20978014 -0.105268724 0.09239588 0.08700346 -0.10819302 0.02783762 0.115191996 -0.23872618 -0.13903712 -0.12927124 0.07917339 0.11707426 0.11587407 -0.016868599 0.21266212 -0.040185988 -0.23737225 -0.07845378 -0.020511152 -0.035809096 -0.13919191 -0.039824806 -0.022229513 0.016991042 0.16141614 0.14545825 0.28822535 0.16237424 0.011224653 -0.1275505 0.12841184 -0.06628716 0.29475865 -0.16907991 0.023417037 0.08136006 0.15202728 0.31228828 -0.12818913 -0.13242397 -0.12744948 0.02109753 0.034916893 -0.041160226 0.20753668 0.027175304 -0.19984879 0.00809016 0.38920644 -0.1469211 0.045420576 0.06693982
849 0.14022875 0.101759866 0.23209997 -0.009039178 0.0050559607 -0.1915976 -0.05674829 -0.07692208 -0.2963834 -0.0034646462 -0.058718167 -0.13312112 -0.036255088 0.078495905 0.041558225 0.12389941 -0.0093854675 0.05901868 -0.20441958 -0.02723649 -0.059914395 0.080359034 -0.12853645 0.10224855 -0.067378156 0.09479273 -0.10140628 -0.15397663 0.059507176 0.057087492 0.15680414 -0.090722054 0.011321078 -0.25085783 -0.07768857 -0.045602262 0.06872249 0.23937406 -0.010563862 0.13751419 -0.016674107 -0.015904013 0.000147421 0.072747566 0.097458445 -0.20444965 -0.12063507 -0.15034837 0.26914445 0.13572323 -0.22701654 -0.09534954 -0.12213573 -0.14058389 -0.0859001 -0.12757264 -0.041862383 -0.09994507 0.106523946 0.023750687 -0.17737149 0.13364166 -0.20609805 0.25113657 -0.09726687 -0.0716559 0.1621426 0.2534633 0.14491993 0.038458373 -0.2461509 -0.012878445 0.019904858 0.23067409 0.16458353 -0.11664975 0.12928517 0.014350573 0.08574406 0.058621157 0.035854097 -0.037519887 -0.15411967 -0.14701813 0.018285727 -0.25209308 -0.0805125 0.034878567 0.054712333 -0.020987302 -0.11785794 -0.21471328 -0.02757738 -0.055103626 0.05453723 0.026336689 -0.38420188 -0.2060194 -0.113322474 0.0097242715 -0.16094793 -0.12525244 0.24403135 -0.010866455 0.24868731 0.13873424 -0.11938475 0.06925236 0.012590244 -0.28161243 0.05232123 0.08285985 0.13030739 -0.14597599 -0.040256344 0.060340274 -0.12546454 -0.036707774 0.18773608 0.13616264 0.09159056 -0.12678652 -0.36812612 0.09070666 0.12498213 -0.15289192 -0.25809667 0.11263468
2511 0.062109813 0.13309583 0.034907814 -0.04717333 -0.10199489 -0.10154863 0.051164236 -0.16621464 -0.19876772 -0.04758681 -0.12176152 -0.12743586 0.20021762 0.26427546 0.2597089 0.019722547 -0.21289048 0.040659163 -0.005615209 0.09250998 0.054861333 0.16668122 -0.16600227 0.31783134 -0.16404139 -0.083054386 -0.06019013 -0.11106747 -0.15221325 0.04758411 -0.4222497 -0.036226165 0.2608605 -0.1207918 -0.04516009 -0.039383624 0.20492367 0.006365793 -0.070551276 -0.081237495 0.042461764 -0.009378372 -0.06492792 -0.08301052 -0.21648894 -0.019259842 0.13333042 -0.07841043 -0.1310356 0.22993697 0.020143332 -0.0915726 -0.022065064 -0.21471432 0.11414019 -0.15613039 -0.20206474 -0.41274315 -0.083010085 -0.041721553 -0.18963148 -0.030998139 -0.113905236 0.17528133 0.08101558 -0.069026954 -0.026964003 0.25953123 -0.21928295 -0.06994221 -0.15859191 0.06690082 -0.08444387 0.0062857554 -0.0051226877 -0.35273165 0.0012776643 0.008051568 0.26111433 -0.2969459 0.009292893 -0.005251782 0.015937163 -0.09118422 -0.17920399 -0.08249417 -0.08857161 0.15656245 -0.07178336 -0.11720209 -0.10210987 0.10499501 -0.06641705 0.034657408 -0.038318403 -0.047216572 -0.009196058 -0.2645043 0.060931742 0.0146157 -0.039476667 0.32121816 -0.05780673 -0.15013058 0.27048495 0.11718674 0.030610472 -0.018111376 -0.04859946 -0.209122 -0.092123345 0.21666142 0.011374711 0.17221078 -0.1390379 -0.10384037 -0.05251164 0.09641362 0.18252149 0.038943794 0.05908849 0.06551266 -0.21102169 -0.09323202 0.07685508 -0.17093411 0.274986 0.12697767
2596 0.03724326 0.006748438 0.031680834 -0.38628888 0.012360286 0.027552485 -0.14784467 -0.15587047 -0.23309621 -0.062110677 -0.12012296 -0.16849904 0.09017258 -0.02769641 -0.035270486 -0.04578816 0.046642944 -0.2494274 0.008887724 0.31909883 0.12402532 0.19774084 0.032789573 0.23785469 -0.075901054 0.17743772 0.02712825 0.045170564 -0.007886997 0.06300494 -0.17156142 0.17468643 0.096463725 -0.005894807 0.0041643707 -0.011451304 0.14601952 -0.1196113 0.1561172 -0.104589656 0.08592281 -0.114725195 0.039812073 -0.07554455 0.06893702 -0.16239865 0.14509445 0.0006378751 0.16478205 -0.08848508 -0.050697707 0.15071161 -0.22634214 0.086098164 0.15334609 -0.15058231 0.06889956 0.032475125 -0.28359455 0.08435089 -0.045953326 0.20989254 -0.16717978 -0.23231354 0.29696634 -0.11517055 0.56397676 -0.12293861 -0.014504522 0.039886508 0.08519446 0.002807849 -0.124326475 0.1046108 0.1559192 -0.21841326 0.17505826 -0.1518052 -0.00511965 -0.084189154 -0.082175545 -0.025755404 -0.074815296 -0.07277588 0.1690025 -0.25751275 -0.04474401 0.316043 0.13995329 -0.026080268 0.21108422 -0.0550458 0.11835406 0.029142736 0.16067879 0.09876731 -0.236295 0.04077001 0.16755448 0.21589525 -0.01169583 -0.1077151 0.14631698 -0.136461 0.007874784 -0.13951664 0.0027195134 -0.018374693 0.14182921 -0.36419463 0.06201137 0.049047664 0.021342874 0.10987485 -0.0018417955 -0.08454147 -0.12993468 0.05312328 0.11225103 0.00298296 0.14446232 0.21004005 -0.22895983 -0.07505824 -0.0015395125 0.25045502 0.29622608 0.10055434
2508 -0.21579552 -0.03869986 -0.08596095 0.0819785 0.3193073 0.10853975 -0.21597971 -0.21000679 -0.36036506 -0.11546346 -0.06757167 -0.13119353 0.0975757 0.35275227 0.15997839 -0.04580584 0.045510657 -0.04182136 -0.07140366 0.23108941 -0.075369775 0.16520849 0.03853993 0.005930437 0.12911667 -0.1277843 0.32850197 -0.07200789 0.12492242 -0.020508666 0.051251788 -0.031604297 0.06743935 0.13078997 -0.13882752 0.1285037 0.20765983 -0.02078796 -0.04361595 0.09890818 -0.2647437 -0.12264841 0.006713324 -0.15037116 0.058297027 -0.26937598 0.18462694 -0.1690141 -0.0593437 0.1433022 0.22263232 -0.018117916 -0.21563739 0.09022699 -0.02576561 -0.07862646 0.0005902962 -0.19537292 -0.2518083 -0.007000041 -0.068834126 -0.3064739 -0.16524786 0.029023776 -0.2536419 -0.059510548 0.3568401 0.26950762 -0.21050389 -0.14314331 0.07940818 0.13776566 -0.15999033 0.12587488 -0.10499058 -0.31360996 0.20250157 -0.39180684 0.33508766 0.19693144 -0.05962352 0.0060931933 -0.18951546 -0.26748943 0.21915452 -0.1261182 -0.21037859 0.29021415 0.33433834 0.091150306 0.16996412 0.0026963912 -0.12808071 0.04101455 0.25681627 -0.18685533 -0.075745285 -0.07227289 -0.01612419 0.3419604 -0.26650906 0.1599497 0.34024438 0.09905717 0.07955608 0.10984701 -0.054161686 -0.050936107 0.053754687 -0.29122758 0.17475387 0.19398056 0.03956206 0.32229456 -0.16903476 0.11647809 -0.06631369 -0.014859152 0.038930923 -0.17276393 -0.4089951 0.028782532 -0.14635143 0.12545942 -0.3133259 -0.04107275 -0.0010436794 -0.059936658
2561 -0.18176916 0.18581845 0.4365209 0.12694754 0.058079604 0.022125704 -0.1569606 0.024436943 -0.32694572 -0.23379864 -0.11532529 -0.061461784 -0.080025434 0.14437263 -0.037921913 -0.15721557 0.018330997 0.17819335 -0.109088324 0.2481162 -0.046944216 0.15970963 -0.084093735 0.18264788 0.3917994 0.29279414 0.22380759 0.025661089 0.04137023 0.014110075 -0.041635435 0.005673399 -0.04491287 -0.00056235486 -0.22834444 -0.25763968 -0.1386878 0.14182305 0.050632965 0.28323507 -0.16811165 -0.24379444 0.13274036 0.0021899603 -0.14378984 -0.24218088 0.160419 -0.02654291 0.21938425 0.1124089 0.050932005 -0.149042 -0.14100568 -0.06198395 0.39739755 -0.28080258 -0.180942 -0.33020547 0.00872941 0.019585997 -0.2510311 0.12083513 -0.4244438 -0.4197634 -0.12702921 -0.36565465 0.26669252 -0.063131735 -0.29873753 -0.26927188 0.1827984 -0.52017635 0.013005534 -0.4681213 0.2411578 -0.381982 -0.056936607 0.4935511 0.10658496 -0.17318264 -0.1908114 0.062044136 -0.13881226 -0.5340378 0.23462224 -0.24009809 -0.119493276 0.024956424 0.17118368 0.36068466 -0.4323112 0.046952583 -0.09165111 -0.17954944 -0.39464122 0.060476985 0.124242455 -0.0002603339 0.23941389 0.06109951 -0.22733706 0.09678663 0.64051354 -0.055542998 -0.06505989 0.036779005 -0.13936827 0.15769145 0.29540622 -0.30928242 -0.24342333 -0.07244972 -0.12357414 0.04994138 0.1274564 -0.29485786 0.21880983 -0.2155858 0.119636856 -0.24216284 -0.14111969 -0.3728971 0.16689827 0.46578646 0.31820872 -0.13777338 0.30747843 0.34832576
2425 -0.08734823 0.10089559 0.35293058 -0.18352664 -0.055875868 -0.33439103 -0.18484665 0.011934725 -0.39784276 -0.25794017 -0.09554733 -0.16996302 -0.008999153 0.1462369 0.26365128 -0.22664735 0.033112876 -0.2550633 -0.04791831 0.13942656 0.06626427 0.27296817 -0.2692062 -0.0976276 -0.17818587 -0.27819538 -0.031725295 -0.15412872 -0.026814345 -0.013278634 -0.105979964 -0.14189202 0.14224486 -0.18440902 -0.39342126 -0.11086803 0.24050112 0.07615643 0.12278001 -0.016371893 -0.009767765 0.07338652 -0.089142755 0.01304705 -0.036390163 0.058585588 0.0176855 -0.1861011 -0.012736932 -0.023009665 -0.1848366 0.2054618 -0.29967314 0.14134964 0.029937232 0.10149121 -0.07730256 -0.041420735 -0.018477878 -0.15372778 -0.060134258 -0.2109211 0.060823075 0.2550289 -0.0594 -0.17881732 0.23457609 0.19858678 -0.022117062 -0.41886005 0.037283033 -0.030308079 -0.09015576 -0.15536918 0.18183069 -0.119882695 0.10219508 -0.27796564 -0.017243864 -0.008022045 0.018463977 -0.17624971 -0.022577057 -0.26495126 0.28161964 -0.09799848 -0.21801235 0.18085313 0.04845175 0.26947227 0.015944343 0.21257411 0.10172516 -0.30145854 -0.09357497 -0.062993824 -0.21396534 -0.17999136 0.08597599 0.032863516 -0.11282703 0.08875816 -0.02428951 -0.33175293 0.08768818 -0.2727875 -0.23474765 -0.3784352 0.5204416 -0.12815648 -0.09257356 0.020197334 0.0919661 -0.022988835 -0.016309367 0.2632505 0.37340203 -0.034568943 0.045691025 -0.07519782 0.31484643 0.09611882 0.09815351 -0.13870823 0.08340752 -0.035546217 0.21085554 0.09234348
87 0.013491264 0.09701411 0.22574854 -0.063039005 0.17553172 -0.20226045 0.3182304 0.15770198 -0.14772147 -0.20343813 -0.26697338 -0.14006774 0.15952465 -0.05135276 -0.08909326 -0.2907828 0.0022140562 -0.028251924 -0.025344642 0.16408755 0.115297206 0.09631649 0.0059702727 0.259878 -0.079919115 0.053347487 0.010424358 -0.17640135 -0.258404 -0.06434862 0.14096576 0.11593136 0.008255283 -0.28597486 0.25454837 0.06744739 0.21709539 -0.020498266 0.13392292 0.12333735 0.028781198 -0.27140066 -0.055651467 0.09529581 -0.17272297 0.157379 0.10505478 -0.07216004 0.06658241 0.13969953 -0.0092735505 -0.1204106 0.05368429 0.0777345 0.16952568 -0.17997487 -0.0684341 -0.1861841 0.00026322776 0.20502675 0.0010872434 0.039327167 -0.065555796 -0.1441317 -0.29175004 -0.037325975 0.16964778 -0.032736912 -0.04919875 -0.054445766 -0.04514615 0.12113977 0.27552062 0.01852481 -0.21891218 -0.09351577 0.21393916 -0.05607127 0.063243456 0.029584898 -0.044860628 0.031908676 0.051796917 -0.31000093 0.053760473 0.045652725 -0.18884969 0.08448119 0.039171077 -0.0064827786 -0.055330154 -0.111946024 0.048477314 -0.24870837 -0.024171475 0.05208436 -0.018538872 0.18354328 -0.04875661 -0.19872421 0.09502202 0.08823142 0.060526937 0.07460047 -0.0070193494 -0.24783151 -0.2425201 0.15505166 -0.09532919 -0.20854877 -0.008655751 0.36798772 0.14415425 0.19067037 0.098223425 0.23059233 0.07373122 -0.094504714 -0.07982723 -0.05215112 0.025996126 -0.03007422 -0.12226639 0.060070574 -0.019598925 -0.09919453 0.096150726 0.2176941
359 -0.103852786 0.38375163 0.10869773 0.0049417233 -0.0876921 0.026772855 -0.19390675 0.16632287 -0.267268 -0.11103245 0.028575726 -0.16802265 -0.058243662 0.062412314 0.18579428 -0.09996601 -0.19040115 -0.110646315 0.02992 0.1581028 0.0013159856 0.22092345 -0.053156365 -0.07322556 -0.08947904 0.31782207 -0.15644588 -0.013303473 0.39130214 0.2771766 0.07312662 0.083625935 0.3208573 -0.13940428 -0.15350017 -0.3687576 0.24879129 0.262575 0.068587944 0.19970524 -0.07205398 -0.022078417 -0.20597197 -0.21500209 -0.18029894 -0.05164807 0.019354688 -0.14083979 -0.037967388 0.06706538 -0.02670499 0.017547803 -0.014473268 0.09104585 0.62722266 0.08884441 -0.14671953 -0.116160266 0.046079762 -0.05732097 -0.11857585 0.06651258 -0.0942598 -0.0017405801 0.16762286 0.0319055 0.49515828 0.03983105 0.17208439 0.06664918 0.05422394 -0.19377981 -0.05002926 -0.03051955 -0.18783307 -0.08342176 -0.035511427 0.083449274 0.18602979 -0.038268484 0.11209474 -0.09181068 0.19363783 -0.1601019 -0.023134088 -0.045099955 -0.005677726 -0.009280845 -0.15867618 -0.11410873 -0.015060051 -0.0903734 -0.024652017 0.27548406 0.21892342 -0.18404792 0.30117944 -0.0687999 -0.17112179 0.14306307 -0.07992403 0.011573841 -0.053442135 -0.25702128 0.016765134 0.13474658 -0.08738503 0.3758965 -0.033613443 -0.038252823 -0.2796307 0.085999206 -0.02872818 0.18315217 -0.112963855 0.06523283 0.089956924 -0.035481907 0.14015111 -0.16446121 -0.111084804 0.019615803 0.056217015 0.016899763 -0.30418938 0.11680918 -0.24082784 0.07938684
2532 0.07890336 0.2089527 0.16521142 0.009147218 0.23820432 -0.21966664 -0.34406152 -0.13385859 -0.17279495 0.015015352 -0.28542227 -0.07743896 0.40594724 0.19878292 0.3043927 -0.18460405 0.13668685 -0.24526711 0.03317155 0.2544081 0.026357485 0.012158924 -0.13502179 0.050367624 -0.25837183 -0.22373825 0.17328109 -0.05931121 -0.20745036 -0.19644995 -0.04709928 0.117296286 0.016140984 -0.19443747 0.0700271 -0.15173566 0.4050461 0.20203534 0.18070066 -0.11616209 -0.15579188 0.13291106 -0.23116858 -0.19350486 0.026896719 -0.12473235 -0.020224337 0.3400511 0.16307203 0.21486036 0.1167887 -0.015922265 0.4104583 -0.34686866 0.34461948 -0.19993408 -0.00412714 0.14691328 -0.182189 0.24473834 0.06311336 -0.20893845 0.07556587 0.15170236 0.11894501 -0.13051334 0.20963144 -0.07577122 0.045882754 -0.12388014 -0.13641168 0.15933266 -0.11126117 0.18895738 -0.08948569 -0.1497588 -0.14293477 0.45273006 0.20250002 -0.23811756 0.021051483 -0.109602556 0.038716882 -0.09675116 0.25759026 -0.25667468 0.11281285 0.08314849 -0.111676656 0.059069928 -0.10118456 -0.07171497 -0.09622354 0.10334483 0.04741281 -0.2860572 -0.22510578 -0.13233303 0.10905038 0.093900986 -0.42063797 0.1295995 0.21071915 -0.04763477 0.16118598 0.070450485 0.076406136 0.17309064 0.37051007 -0.30157143 0.12346523 0.2533869 0.008861634 -0.073082685 0.035310965 -0.05530884 -0.20445898 0.30936217 0.0019287121 0.20629014 0.143355 0.14153871 -0.45066792 0.02201599 -0.036187463 -0.170011 0.10294734 0.10352254
164 -0.07038415 0.032594483 0.23976876 -0.031003507 0.09235555 -0.20613836 0.2685396 0.21834104 -0.12156141 -0.22785845 -0.2488334 -0.18981038 0.17955147 -0.09152473 -0.08026284 -0.27207863 -0.0553764 -0.08357811 -0.046437602 0.11523865 0.073343456 0.107837036 0.0064163404 0.17071405 -0.09878303 0.033817563 -0.024837296 -0.11809775 -0.2812542 -0.014511244 0.08128405 0.10574346 0.075281 -0.25657743 0.2083427 0.023041196 0.17151059 -0.013427531 0.08380544 0.08879839 -0.0053161336 -0.18113132 -0.040113915 0.008833329 -0.1603976 0.14465913 0.04035894 -0.09622648 0.11532261 0.2249947 0.04005833 -0.07393894 0.14756739 0.019038847 0.107706055 -0.21992826 -0.11531495 -0.14347658 -0.045709815 0.15259701 -0.053187806 0.08756043 0.026006958 -0.22904491 -0.19895133 0.013132432 0.24118623 0.0136947865 -0.0616918 -0.026123805 -0.08435023 0.038824506 0.2845326 -0.076174214 -0.17021939 -0.06992726 0.1410323 -0.024687994 -0.002405952 0.011866717 -0.04355933 -0.019597307 0.042354163 -0.35657948 0.00038379832 0.041504763 -0.10468775 0.13488021 0.0905458 0.016364338 -0.039046522 -0.12012676 0.03824913 -0.25907648 -0.0116998 0.18963845 -0.05779014 0.21777998 -0.09700746 -0.15403892 0.13626711 0.038355872 0.030162683 -0.015405413 0.07841111 -0.24717425 -0.2508577 0.18046518 -0.12042211 -0.21124364 -0.0149570415 0.36416903 0.1334668 0.06062334 0.009909645 0.24334629 0.050773963 -0.06610383 -0.08946289 -0.05165049 0.053750165 -0.0034163964 -0.07246499 0.02594561 0.055064905 -0.15306638 0.058142 0.13753419
1109 -0.024678161 0.19357748 -0.039323647 0.10954541 -0.16463202 -0.11889159 0.0046744077 0.36589357 -0.10904138 0.28730842 0.0016422498 -0.023253748 0.17545268 0.032578323 0.10620363 -0.14513335 0.010401805 -0.14523254 -0.075453825 0.094986 0.0058118417 -0.050872732 0.30508423 -0.19524308 -0.11091796 -0.07033696 -0.031442877 -0.018449062 -0.058472022 0.14358452 0.13773204 0.059633486 -0.13845228 -0.22649583 0.07274715 -0.092790924 -0.044936173 0.050297458 0.350476 0.078562655 0.05676468 0.16703409 -0.13590546 0.015087243 -0.02873155 -0.13190849 -0.22263734 0.103570394 -0.10915507 0.035495985 -0.40633652 -0.17133462 -0.14533871 0.14051756 0.13903625 0.03449724 -0.120378345 -0.42593125 -0.00022226288 0.03206096 -0.19152416 0.08133081 -0.24997856 0.051987704 -0.023439653 -0.05456356 0.13395244 0.14142717 0.15865926 -0.19588856 -0.049533714 -0.14332716 0.12175524 0.33125684 0.037594482 -0.045813657 -0.042942133 -0.11426225 0.18295595 0.30795 0.10673445 -0.08066095 0.022940712 -0.15529524 -0.14540827 -0.07249372 -0.23716633 0.21425931 -0.08038137 0.06629193 0.3664039 -0.010831818 0.1171387 -0.17837459 0.3104137 0.09729648 -0.0825317 -0.25978893 0.06474465 -0.00607828 -0.031432252 0.13614158 0.1452855 -0.18284759 0.26234448 0.009268409 0.102232575 -0.11161642 0.29313177 -0.42256978 -0.35077703 0.24029855 0.14590403 -0.035826582 0.040608127 -0.18854022 -0.21862596 0.090138435 0.08214138 0.0968395 0.026392672 0.12848735 -0.06634674 0.4037055 0.02339091 0.08896935 0.13032979 -0.20008841
278 -0.20626949 0.2475369 0.100080766 -0.06425523 -0.024099385 -0.44143727 -0.024868805 -0.09038581 -0.5068499 -0.16904159 0.17792256 0.01401384 -0.09462682 -0.076246254 0.0617922 -0.16987789 -0.02406011 0.11754337 -0.25725925 0.20035246 -0.34891602 0.27584752 0.25697404 -0.056387506 -0.20141228 0.16773653 0.14063166 0.12766927 -0.27110696 0.12122543 -0.16624326 0.007585451 -0.14908193 -0.2805495 -0.23748828 -0.19163257 0.1634144 0.2235822 0.08446726 -0.24479042 -0.09992137 0.045980398 0.018327417 0.042247172 0.08088261 -0.07667227 0.17029986 -0.325912 0.22295238 0.11910698 0.21435186 0.3820892 -0.1582992 0.16954406 0.22072817 0.17136924 0.007881034 -0.09999067 -0.1793113 0.07601281 0.10984299 -0.09920297 0.11265146 -0.18089819 0.32493106 0.24919851 0.108230546 0.2878112 0.0124218 -0.18413417 -0.26260188 0.053448793 0.009640792 0.135129 -0.33737734 -0.40428588 -0.13489942 0.38013595 -0.13237579 -0.06451997 -0.077560425 -0.006686434 0.11322304 0.25129944 -0.13237652 -0.0364743 0.11901461 0.05534177 0.26171488 -0.01927409 0.32435656 -0.09412187 -0.34464884 0.03190263 -0.14961372 0.116426595 -0.04601386 -0.077388555 0.086094595 0.1691797 -0.08031874 0.0013385761 -0.064247966 -0.022885758 -0.04688895 -0.10578549 -0.32709363 -0.051826715 0.29261088 -0.08134933 -0.11667691 0.36932993 0.2806612 -0.124580555 0.02680047 0.061931737 -0.07750265 -0.2901054 0.04683679 -0.13103521 0.04564605 0.073529966 -0.2885063 0.08599903 0.065096475 0.111856125 -0.16349268 -0.3375476
716 -0.12224204 0.11161055 0.10558974 -0.070536524 0.25827911 -0.01929665 -0.17074081 -0.102411814 0.05779268 -0.08543459 -0.022694249 -0.09199393 0.24089617 0.09180937 0.021002332 -0.015338697 -0.15752047 -0.02483347 0.19630215 -0.102344826 -0.015546041 -0.03977384 0.045697268 0.07597872 0.031884637 -0.13088384 -0.22479255 -0.056426656 0.0329148 0.19127628 -0.027950319 -0.18552847 0.030351877 0.07925831 0.11156784 -0.12274304 0.19903238 0.09999873 0.21795939 -0.16373692 -0.18086652 -0.015792072 -0.3124775 -0.10333532 -0.050146025 0.055129893 0.08887709 0.0824258 0.1680484 -0.024377478 -0.12494334 0.039270647 -0.2242246 0.16716784 0.1853969 0.042945914 -0.13270997 -0.23707944 -0.06357362 0.089525335 -0.030115306 0.43891054 -0.098787636 0.061675567 0.16990851 0.013155556 0.07817999 0.05904378 -0.09689093 -0.22264281 -0.123342834 -0.0856167 0.07986586 -0.10145286 0.025390333 -0.09829066 0.039848544 0.2565608 0.022853663 0.3213897 -0.16106158 -0.056058567 0.14699192 0.052957747 -0.14035733 -0.07987321 -0.25957105 0.10916337 -0.3210208 0.012319425 0.09785734 -0.23525266 -0.0059876726 -0.17770712 0.22915053 -0.15682334 -0.086509004 -0.08848748 0.073646344 -0.19362086 0.04707295 -0.100649476 0.18527341 -0.68886846 0.27628845 0.15926132 0.09555635 0.069758646 0.1747354 -0.010034226 -0.21616873 0.13043109 0.1866873 0.10160318 0.22974257 -0.024437428 -0.0987354 0.22333339 0.08719745 -0.11979385 -0.1862348 0.11829555 -0.13902272 0.29212117 0.23802339 0.07166576 -0.023187699 0.0012068928
720 -0.21015179 -0.083396286 -0.15035617 0.116863675 0.31125548 -0.20995387 0.008558812 -0.062868215 0.0037830935 0.04170211 -0.0020718407 0.07472493 0.39959526 -0.019783342 -0.12000742 -0.2571805 -0.45596713 -0.03818346 0.03709974 0.3488697 -0.13826098 -0.10047556 -0.27540836 0.18844478 0.23910704 -0.21158251 0.0020776142 -0.14271842 0.0092194555 -0.09415607 -0.10778553 -0.10713269 0.38843367 -0.13517554 0.2839686 0.022245746 0.05373724 0.2228537 -0.082751274 -0.14887944 -0.1386473 -0.23305935 -0.20136498 0.12182982 -3.9809922e-05 -0.14318353 0.23574212 -0.12852333 -0.002403627 0.19119465 -0.2792591 0.22315733 -0.22244349 -0.14543816 0.22857793 0.121436715 0.108224094 0.07504449 -0.23145773 0.08355414 -0.035300445 -0.235608 -0.19614449 -0.015924504 -0.1311139 -0.27078575 -0.12442659 -0.039917536 -0.077748865 -0.11670138 -0.20621584 0.010699925 0.19606128 -0.2828008 -0.18317625 -0.3233003 -0.2104242 -0.30899373 0.24055207 0.14510012 -0.252579 0.08754228 -0.123847514 -0.1366229 0.11834351 -0.023065876 -0.10462788 0.33787024 -0.21641913 0.1949907 0.011610107 -0.21240044 0.14848281 -0.050583426 0.09492316 0.23495969 0.1370431 0.106610306 -0.17642553 0.15472057 -0.07622048 -0.34195814 -0.07727525 -0.48218003 0.16345125 0.0020558443 -0.507166 0.039671015 0.19024518 -0.28885555 -0.29858994 0.24594915 -0.018058732 0.08341183 -0.00988784 0.026649408 0.08891849 0.1476076 0.24152322 -0.081039116 0.1167195 0.043118943 -0.18484272 0.34243983 0.48733255 0.11545231 -0.27309307 -0.11927518
637 0.020053938 0.057419084 0.092639685 0.0843893 0.08357976 -0.10682394 0.2733706 0.20150708 -0.19100688 -0.23152535 -0.2418666 -0.08787549 0.02065017 -0.01765455 -0.02671904 -0.23562685 0.14874715 -0.13492435 0.0066066184 0.022974264 0.10628729 0.036716554 0.01058077 0.13709928 -0.08382259 -0.08811463 -0.07300229 -0.03411867 -0.37162682 0.10181782 0.07101731 0.23758905 0.027457181 -0.2993144 0.22334446 -0.019294277 0.103561744 0.02450311 0.08186887 0.10717628 0.068549275 -0.13911398 0.051343743 0.079717204 -0.2743815 0.062397398 0.076798886 -0.09458391 0.110346586 0.23749289 0.029299939 -0.033007395 0.17361793 0.02612145 0.22259152 -0.23225662 -0.07492892 -0.09191706 -0.09329853 -0.020767529 0.090944625 -0.039520875 0.09142851 -0.23687695 -0.28533804 0.058609053 -0.019254588 -0.05667749 -0.06381372 -0.0587616 -0.17394385 0.008449068 0.29298168 -0.061542153 -0.1674175 -0.022513825 0.16709213 -0.031815697 0.05259647 0.12009121 -0.016406797 0.0071799546 0.06946193 -0.28287944 0.1762992 -0.017776854 -0.19842523 0.11680636 0.12622778 -0.11389462 -0.13311861 -0.18475816 0.11968935 -0.19214968 -0.030476322 0.16224054 -0.050486658 0.06010344 -0.187833 -0.009781609 0.08379629 0.013204561 0.07587876 -0.16846119 0.0386187 -0.06526373 -0.23885052 0.15571481 -0.1681493 -0.11716938 -0.14016506 0.34081638 0.11410966 0.09606987 0.11967912 0.23758163 -0.1277604 -0.11632814 -0.17534918 -0.035722483 0.1381037 -0.10011459 -0.19705263 -0.007242297 -0.027028691 -0.19477509 -0.028654534 0.13245293
138 -0.011578064 0.096041486 0.13828634 -0.08550766 -0.017869782 -0.086290844 0.26204354 0.16014922 -0.15575765 -0.17837305 -0.21066327 -0.10806819 -0.0102777695 0.048691444 -0.1144176 -0.25556988 0.14284064 -0.07492721 0.024491528 0.0062882104 0.08623995 -0.043512147 -0.040312152 0.11804775 -0.008847691 -0.030087195 -0.03576603 -0.09281052 -0.36325184 0.11099438 0.082815595 0.29370943 0.15637317 -0.26904067 0.07854363 -0.05737067 -0.015948445 -0.06833719 0.08455189 0.053639907 0.09244446 -0.18011896 0.074429 0.08565735 -0.19448587 0.13241707 0.08266202 -0.17985159 0.07244435 0.21846381 0.070996515 -0.003980836 0.07674797 0.017618738 0.16631609 -0.1686948 -0.06521226 -0.13149616 0.0024275526 0.043583255 0.031683173 0.13149059 0.10766968 -0.20026082 -0.2363618 0.11502392 0.06737849 0.004194977 -0.095543504 -0.15756583 -0.10797731 -0.06635295 0.34788278 -0.10529385 -0.19911912 -0.056583256 0.23678626 -0.11944891 0.14348094 0.09129365 0.014919148 -0.03349515 0.00041831037 -0.3766887 0.119040735 -0.049237903 -0.2560914 0.0636451 0.0767278 -0.018224623 -0.137568 -0.15928555 0.08177969 -0.22979854 0.0058781556 0.14499977 -0.10310783 0.090342596 -0.1413283 -0.0042564133 0.09111304 -0.056673724 0.0886238 -0.1202458 0.013398157 -0.16852929 -0.3017717 0.03259517 -0.054727595 -0.16015163 -0.16889797 0.34432375 -0.014369209 0.08103405 0.09145678 0.34434435 -0.0862866 -0.12387656 -0.124731146 -0.12780382 0.08464494 -0.110538065 -0.12937899 0.12325607 0.03571833 -0.20427968 -0.02886729 0.0896131
120 -0.0053638583 0.14052182 -0.1478689 -0.13246806 0.33847028 -0.39068246 -0.12825839 0.09308671 -0.18381682 0.24200623 -0.004259835 0.053294625 -0.2702452 0.19024307 0.17817333 -0.11571617 -0.22487918 -0.082935914 -0.07308707 0.52813554 -0.004954347 0.23033638 -0.20410451 0.040177483 -0.2763974 0.29490164 -0.29413596 0.06852686 0.05636362 0.027876455 -0.08247976 -0.17924765 -0.045311287 0.09760776 0.09708895 -0.2826344 0.1532919 0.10793736 -0.03837324 0.071669064 -0.25577468 -0.12835781 -0.2183949 -0.111583866 -0.08447882 -0.07547151 0.11021912 -0.107648104 -0.06520905 -0.0764022 0.088730514 0.026064362 -0.061647024 -0.11593266 -0.029075762 0.09207595 -0.034050934 -0.22383836 0.0060253534 0.21651094 0.055638943 0.09039592 0.023269372 -0.10709114 0.26185516 0.20370963 0.25860408 0.033609103 -0.12789088 0.278014 0.11718276 -0.21704103 -0.051015142 -0.1665796 -0.0912853 -0.019330556 0.1704219 -0.141514 0.035355188 0.28319958 0.19305804 -0.16654508 0.13237111 -0.114612184 -0.001651842 0.08214671 -0.21880352 0.05266847 0.053488255 0.004877185 -0.095238656 -0.17432666 -0.031157827 -0.29335088 -0.0848173 -0.0006927134 -0.07501449 -0.16556658 0.18496266 -0.041539263 -0.14378966 -0.10364792 0.00814245 -0.06192915 0.07964384 0.026618809 0.06856633 -0.24432561 0.10675708 -0.33934796 -0.30749366 0.09604595 0.0966804 0.19205888 0.16810928 -0.026914846 -0.44274485 -0.024789574 -0.082026154 -0.123134516 0.16891132 0.053905226 -0.10216819 0.23603253 -0.26878163 -0.12917297 -0.10882844 -0.14981607
137 -0.025845641 0.14589421 0.062062927 -0.060175426 0.044745225 -0.15721636 0.31658855 0.19719702 -0.14658803 -0.16765754 -0.15979043 -0.18835132 0.061026238 -0.028651893 -0.03930791 -0.27022836 0.19676481 -0.14010489 -0.012391552 0.055312157 0.11034204 0.06757092 -0.042145956 0.07472873 -0.029892916 -0.019020952 -0.034441255 -0.05722412 -0.29146343 0.20068358 0.0746821 0.16609779 -0.0017885427 -0.23748861 0.25293642 0.028280212 0.11010024 0.011880209 0.0374413 0.06905718 0.10884844 -0.23967284 0.038459923 0.063929416 -0.22329813 0.1135906 -0.020972287 -0.15586679 0.08931135 0.13803555 0.052189022 -0.031416744 0.07559787 0.13247454 0.22719519 -0.1598244 -0.0625301 -0.06299581 -0.044431586 -0.060133766 0.032505956 0.047090475 0.06887434 -0.19815323 -0.32853857 0.118823215 0.06673382 -0.055214103 -0.064049065 -0.08012426 -0.17448743 0.042129137 0.2552523 -0.12727685 -0.08477872 -0.12863344 0.14440596 -0.022804271 0.07639451 0.11448596 -0.11483365 0.058134988 0.14146425 -0.2301637 0.13243434 -0.036732335 -0.3007197 0.0421908 0.14840966 -0.08049079 -0.10650811 -0.12200459 0.026492175 -0.29687378 -0.0040814416 0.13042249 -0.014732475 0.10556685 -0.19225913 -0.09065185 0.11001637 0.048897505 0.17817402 -0.1367123 0.006886864 -0.113919206 -0.26245236 0.10978359 -0.16297424 -0.07287087 -0.0799506 0.3937577 0.10373119 0.019919073 0.058336217 0.28752452 -0.09012441 -0.108136795 -0.07017352 -0.051547874 0.19584212 -0.087451264 -0.18053733 0.08479239 0.06886812 -0.121763945 -0.016380586 0.16424073
12 -0.21736822 -0.054176588 0.22378314 0.0918389 0.10263286 -0.05734105 0.17946114 -0.20131423 -0.11293178 -0.1423452 -0.3689146 0.30409962 0.1400284 0.0073279995 0.18800485 -0.064793885 -0.34959412 0.013577465 -0.110676534 0.23594423 0.020013519 0.09336081 0.07513468 0.4472659 -0.3646177 0.11526556 -0.15149462 0.09611 0.25250646 0.039768204 -0.0054758773 0.21431069 -0.18719354 -0.27434084 0.07425594 -0.086728014 -0.16617411 0.24054082 -0.21674412 0.030702626 -0.058835644 -0.124869086 0.12539972 -0.07388132 0.043419447 0.005800147 0.22526395 -0.17413701 0.053287372 0.1696884 -4.121036e-05 0.028116062 -0.17821735 -0.15671225 0.25462463 0.1004957 0.094528966 0.07306967 -0.12556648 0.058801517 -0.0030157485 -0.06372938 -0.0866873 0.0949785 0.0013785872 -0.14525296 0.09516947 0.14978698 0.09632739 0.0647228 -0.20758186 0.068924196 0.14430888 -0.087626666 -0.0766657 -0.060444176 0.08220811 -0.08925697 0.109366 -0.19964883 -0.31517145 -0.16219383 -0.23199898 -0.3120962 -0.16140454 -0.044153117 -0.10839546 0.18060902 -0.124772705 -0.19258295 0.0048402976 -0.008986553 0.10434691 -0.34258738 0.058460344 -0.09860443 -0.05290488 -0.060107715 0.1513751 0.0009110389 0.17166974 0.18585072 -0.23769559 -0.052582685 -0.061616983 -0.113641284 -0.044788197 -0.18310355 0.21207628 -0.11625998 -0.08974066 -0.13993415 0.15699604 0.005625527 0.26615644 0.5988917 -0.16529882 0.2570824 0.1008088 -0.154948 -0.27968976 -0.01841501 -0.16503392 0.26611146 -0.21871819 -0.005956164 0.12379763 0.092823505
1067 -0.038657807 0.029772814 0.16589206 0.10147932 0.027332915 0.12159286 -0.16636555 -0.06146829 -0.07510627 0.1932125 -0.250975 -0.2284657 -0.10463167 0.1540367 0.07251763 -0.014642725 -0.17850274 -0.14187057 0.025100138 0.0019830002 -0.017470539 0.060721725 -0.07165598 -0.12645355 0.18983977 -0.015322091 -0.22778842 -0.13446325 -0.21099207 0.1068262 -0.043387264 0.17056073 -0.034591198 0.14245862 0.04393042 -0.06528195 4.2157448e-05 -0.0420636 -0.06746438 0.082082644 0.2885017 0.21664764 -0.018816454 -0.030224932 -0.12972881 -0.22102354 0.0056254035 -0.11042974 0.13295062 -0.12556009 0.12136448 -0.14141294 0.03377774 -0.02654105 0.123992205 -0.110844105 -0.045939274 0.15861657 -0.05937309 0.07726008 -0.001669159 0.056897264 -0.034040857 -0.081546456 0.099097416 -0.32389688 -0.002963779 0.26431775 0.24742363 -0.067014255 0.03780845 0.097538464 -0.042044796 -0.024805175 -0.06357687 -0.2301816 0.0808558 0.06584134 -0.12634984 -0.15736242 -0.17689538 0.1315178 -0.05396099 -0.0876679 -0.07791861 -0.1635161 -0.2011325 0.28190333 0.09113819 -0.058431692 0.08404569 -0.05174654 0.015106469 -0.061849054 0.07048869 -0.070146784 -0.11489526 -0.22237526 0.0956931 0.121520326 -0.0031844594 0.022493292 -0.07913023 -0.13090426 0.11003346 0.13304205 0.07946059 0.04160711 0.23989794 -0.1188701 -0.07230409 0.23795342 0.21307513 0.14697354 -0.14881949 0.13379815 -0.10086314 -0.031996477 0.09288327 0.06847248 -0.06949207 -0.22172813 -0.2825394 0.12382752 0.24673142 -0.030635586 0.04477393 0.06444144
22 0.29315108 0.33000952 -0.019384375 0.15815565 -0.25587004 -0.08926906 0.080117784 0.04886222 0.24010482 -0.2607871 -0.23522396 -0.063080564 -0.11391245 -0.016686926 -0.23564275 -0.0728615 0.078968436 -0.09604424 -0.01854294 0.40842766 0.11939511 0.038281243 -0.04950856 0.2930949 -0.34603903 0.112553686 -0.09667642 0.043978862 0.031489003 0.017148271 -0.02365011 -0.17076476 -0.5394907 -0.00044169184 -0.42774126 -0.18270141 0.24433596 -0.07786003 0.0362213 0.11932428 0.11659642 -0.08757202 0.012484373 -0.015066847 -0.03884117 -0.23197174 -0.22486733 -0.44750616 -0.039007187 -0.24210632 -0.6157286 -0.043289836 0.013515853 -0.17827348 0.10997241 0.6340458 -0.19941758 0.05331176 0.23373364 -0.09470964 0.34026864 0.07928095 -0.28086966 0.24513881 0.02059594 -0.10664108 0.33128846 0.35616484 -0.16955316 -0.023883944 0.11977095 -0.04848209 -0.12609239 -0.21498126 -0.40454707 -0.009455954 0.021103356 0.16580452 0.0813277 -0.042255644 -0.11158072 0.05176688 -0.09003299 0.05606937 0.11968119 -0.1323381 0.1432625 0.14394884 -0.19634086 -0.47941154 0.3170627 -0.31437665 0.19272219 0.041600198 -0.061801866 -0.21106447 -0.17051281 0.24555895 -0.1668719 0.10184622 -0.38892743 -0.005269832 0.29549468 0.044128023 0.05644252 0.19002177 -0.37086886 0.13537942 0.06897191 -0.33061764 -0.07696758 0.26989597 0.059061103 0.10101633 -0.06280515 0.048042137 -0.19706072 0.19857624 -0.04572152 0.1341533 -0.28453225 -0.12679672 0.13173823 0.048845217 0.22200805 -0.24507274 0.16604061 -0.007373841
397 -0.19111843 0.05804736 -0.26870757 -0.13949323 -0.21874458 0.118560344 -0.3828134 -0.45924315 -0.07677989 -0.099490486 -0.06338839 0.4181931 0.06562042 0.13662677 -0.07232318 -0.054260887 -0.22870333 0.16834138 0.07108749 0.25677037 0.2265653 -0.11964871 -0.060667377 0.04195402 -0.4589824 0.09058269 -0.10644366 -0.16654806 -0.2388419 -0.034244977 0.12910192 0.07167931 0.29585052 -0.041470658 -0.065900035 -0.16829109 -0.007883367 0.16176514 0.17610754 0.0035105075 0.07887981 -0.08032618 0.000658605 0.048526734 -0.053372543 -0.1529285 -0.16812092 0.10067734 0.028661707 0.33999193 0.051437665 -0.2347846 0.11438853 0.13836904 0.060717862 -0.138582 0.13712491 -0.108241804 -0.01943338 -0.2665333 -0.14206894 -0.06350827 -0.05402544 0.0017411412 -0.17264894 0.14358112 0.39798084 0.008136725 0.04140198 -0.24235217 -0.14720753 0.066548206 0.13908805 -0.14408149 -0.24283865 -0.04242765 -0.026328383 -0.22627907 -0.061966933 0.03742076 0.060669232 0.16202903 0.15301825 0.2527459 -0.15760309 -0.03258902 -0.052251037 0.18954054 0.06146501 0.054706175 0.106525935 -0.33006582 -0.063643694 -0.18087973 -0.09972506 0.1350092 -0.04232293 -0.06608589 0.14053825 0.21409872 0.32723942 -0.052344568 0.29205146 -0.05105087 0.0105160065 0.12963356 -0.04231359 0.071679935 0.30984733 -0.15271986 -0.48697376 0.23183197 0.29827216 -0.039143614 0.17393579 0.08199611 0.03397706 -0.14295621 -0.11894668 0.025027767 -0.16970716 0.114129394 -0.13854869 0.10273038 0.06810575 0.1287047 0.3055137 -0.22444254
2419 0.036138415 0.0895494 0.098537646 -0.1612737 -0.2452546 0.023032721 0.033617135 -0.021627897 -0.22779784 0.012283348 0.08628397 -0.18954998 0.004865899 0.22727898 0.2267452 0.03678073 0.08966121 -0.19632512 0.12599482 0.28547373 -0.004405335 -0.0904095 -0.074371345 -0.06866903 0.08859018 -0.062365517 0.15483393 0.123821035 0.07025646 0.052919444 -0.2306178 0.35808983 -0.066253625 0.33789918 -0.17204505 -0.046892703 -0.01853568 -0.15654972 0.18445745 0.03795701 -0.12036319 0.035651144 0.027212184 -0.24358006 -0.062229805 0.013259229 0.25641346 -0.3683403 0.103825256 0.040125594 0.00030440948 -0.20231763 0.27861395 0.06769912 0.07954241 -0.18352397 -0.044754874 -0.033583242 -0.084604934 -0.01460955 -0.09048562 -0.0078212675 -0.16698515 0.0103855105 0.18529779 0.11657758 0.4508804 0.11573444 -0.16798201 -0.14370541 -0.13329294 0.14064129 0.101370126 -0.20848654 -0.004353381 -0.23065817 0.03527137 0.01806741 0.043263797 -0.08642781 -0.06919049 -0.15559478 -0.12027332 -0.22484772 -0.005319029 -0.14560382 -0.4475303 -0.05757164 0.025084723 0.20564803 0.11474179 -0.02802019 -0.038536165 -0.085133635 -0.185324 -0.3520129 0.101978846 -0.19894136 -0.13459787 0.19052412 -0.14817393 0.12985772 0.08637214 -0.04532747 0.29449534 0.25679195 -0.04337996 -0.05028013 0.23606853 -0.277315 0.063124515 0.16674961 0.13091546 0.01647455 -0.21075124 -0.01212734 -0.185567 -0.07682329 0.11456405 -0.15538664 -0.10164668 0.04188029 -0.5562003 0.05993529 0.1432471 0.046660274 0.036924098 -0.14500052
2622 -0.1283811 0.23497027 0.15235306 -0.39969864 0.036647346 -0.14426187 -0.060026422 0.18085124 -0.10612537 -0.029776689 0.07994758 -0.06930753 0.14031625 0.066175774 0.2055322 -0.0696789 -0.15197688 -0.23225325 -0.0028197316 0.20890464 -0.3911664 0.19882122 -0.13092211 0.12041227 -0.24057704 -0.10314406 0.12945823 0.013204854 0.12313327 -0.24207471 -0.026806809 0.092473604 -0.021456813 -0.2557711 -0.39132273 -0.0013807295 0.12138665 0.039708547 0.18565328 0.25832012 -0.34729588 0.03855721 -0.028001819 -0.1691838 0.29921982 0.045428522 0.113469034 -0.017880546 0.0557802 0.14350128 0.1894186 -0.019693853 -0.35664862 0.011387209 -0.117935866 -0.13467392 -0.39299732 0.2304861 0.027617758 0.1694924 -0.029806437 0.1461678 -0.12694843 -0.28361 0.23151933 0.040486626 0.18782726 0.08999617 0.1497908 -0.20679426 0.15711933 0.18597963 0.080888964 -0.13882962 -0.104225054 -0.07791168 0.042766094 -0.0022518875 -0.036876567 -0.09255708 -0.1360958 -0.029887674 0.004305859 0.022651978 0.04781098 -0.23147018 -0.1693686 0.05897944 -0.003842178 -0.010390639 0.17677563 -0.12702554 0.06217197 0.07301903 0.09006864 -0.25512934 0.08340956 -0.09435603 -0.017642932 -0.061908726 0.062615834 -0.0840302 0.3202531 0.043601844 0.087147444 -0.13629778 -0.001422318 0.17799456 0.092663735 -0.13049129 -0.1682878 0.057264227 0.14160237 0.17399345 0.0058926214 0.019601947 -0.2623998 0.039825756 0.067277364 -0.01510915 0.26083457 -0.06368211 -0.23932025 -0.00061559904 0.5132379 0.16359383 0.40416372 -0.028319722
56 -0.2991407 0.13526858 -0.15094131 -0.24361649 0.078797214 -0.19898172 -0.17649834 -0.053498384 -0.2575079 -0.1157835 0.3212603 -0.013805805 0.18709144 0.08781483 -0.053657677 0.17806515 -0.010993828 -0.17160957 -0.005336578 0.07340558 -0.1965107 -0.20243675 -0.20177822 -0.0074861394 -0.047436226 0.18656883 0.01078391 -0.10941108 -0.37783167 0.009419008 -0.04550962 -0.13079663 -0.10341955 -0.20253989 -0.27441177 -0.18531288 -0.02647655 -0.16198818 0.23344456 0.29551595 0.021205693 -0.21459289 0.022760045 -0.04062128 -0.14683731 0.09314454 0.04538461 -0.08661177 -0.16637574 0.20207421 -0.14452305 0.0025260982 0.018596249 -0.08280209 0.4787673 0.057075687 -0.21775015 -0.052385762 -0.07108692 0.025084903 -0.042770743 -0.020845601 0.1948439 0.05237466 0.17852333 -0.045426045 -0.04380302 0.21932162 0.11494175 0.14099559 0.0486949 0.086560644 0.041098066 -0.18503453 -0.17136373 -0.08002146 0.12860289 0.03747986 0.056051813 0.21731992 -0.008894802 0.018880635 -0.16726127 -0.050210617 -0.30855188 -0.22042683 -0.07694108 0.076341055 0.11242018 -0.07039751 -0.03982864 -0.051531266 -0.1564508 0.008029222 -0.0046001016 0.0616244 -0.20062281 0.06865473 -0.035789087 0.21057212 -0.045280144 -0.05973324 0.046577703 0.010458583 0.11765537 0.031790912 -0.03604495 0.30107674 0.099056415 -0.0030149156 -0.17381382 -0.1213502 0.29818347 0.35754764 -0.33483526 -0.040466815 -0.12886989 -0.07073074 -0.056782838 0.10094514 -0.17015393 -0.011927257 -0.27251583 0.2784273 0.07265102 0.1909215 0.04987424 0.019388836
166 0.013487794 0.06707606 0.06498884 -0.009815993 0.07444307 -0.01840255 0.30988204 0.17279172 -0.16533695 -0.2945567 -0.2836814 -0.06746646 0.046216674 0.0058734003 -0.052694693 -0.27115664 0.11935654 -0.0940254 0.03299579 0.12486315 0.02028753 -0.0075766486 -0.035149578 0.04321044 0.06994715 -0.058802232 -0.013907008 -0.06154836 -0.32765326 0.13670859 0.12530428 0.18052763 0.07056993 -0.27083215 0.16875155 0.115454964 0.12870714 -0.108656876 0.010122148 0.072235234 0.03912475 -0.2855778 -0.031045826 -0.020356946 -0.28748333 0.18063284 0.040215608 -0.09485959 0.16012077 0.16871692 0.07378094 0.00445362 0.17701337 0.098651394 0.13123909 -0.20376003 -0.09698238 -0.11491237 -0.014934608 0.07579799 0.028959459 0.031829596 0.03300699 -0.25692886 -0.3124218 0.08668703 0.05690735 0.100827575 -0.09000151 -0.065185204 -0.17728576 0.015435833 0.28575128 -0.12725312 -0.20800059 -0.021287538 0.23178935 -0.11238708 0.10258558 -0.0020337214 -0.078023955 0.008856076 0.0121087935 -0.35894805 0.06801589 -0.060467664 -0.21043268 0.07405836 0.109582104 -0.035663858 -0.078794286 -0.19355646 0.14939037 -0.21433678 -0.0009000144 0.078665875 -0.06342478 0.19177641 -0.12993027 -0.1094083 0.10342084 -0.053381238 0.27700257 -0.18828666 0.005951577 -0.14988935 -0.25600782 0.15064417 -0.16197361 -0.0679379 -0.1215663 0.4000586 0.049306616 0.02493348 -0.038096838 0.23542146 -0.05952612 -0.13672759 -0.1128775 -0.07965737 -0.046833 -0.043732677 -0.19933845 0.06230599 0.16132854 -0.2514674 0.062930524 0.1061835
424 0.0592423 -0.011111224 0.06960431 0.19119358 0.15093777 -0.17358673 -0.18860687 0.22653972 -0.3670904 -0.09645938 -0.2880177 0.0021475255 0.14987576 -0.06257125 -0.084667325 0.12183087 -0.15179586 0.35540158 0.00239996 -0.0034169327 -0.24458186 -0.17674588 0.09824135 -0.22306438 -0.22458044 -0.0494042 -0.19534303 -0.3565767 -0.25847566 0.30836132 0.12559266 0.11440866 -0.33311248 -0.042764153 -0.24902397 -0.14741889 -0.122815505 0.24523892 0.11406245 -0.10486998 -0.10282691 0.2423934 -0.058945436 0.019810364 0.03324854 -0.39814043 -0.01102172 -0.4316011 -0.38468048 0.021978395 -0.46440646 0.11077941 -0.19017148 0.2867154 0.055287484 0.15126407 0.08689249 0.19310887 -0.034487303 0.12228466 0.022839935 -0.30139568 0.19796437 -0.12525085 0.017734025 -0.14957406 0.11390865 0.055291988 0.21964389 0.30596706 0.07817256 0.25660047 0.041675434 -0.06901708 0.11538382 -0.1388471 0.38480115 -0.25118136 0.15596798 -0.013078915 0.041368946 0.1740967 0.17012413 -0.08249355 -0.02675448 -0.52641857 -0.38945755 0.25689113 -0.21380718 -0.03130374 -0.387266 0.13114329 -0.11926945 0.06893505 -0.18782522 0.041106127 -0.09794974 -0.09544144 0.254829 -0.30298513 -0.0516245 0.31548992 0.2028006 -0.14900693 -0.06913881 0.094223484 -0.017353788 0.13918719 0.35493368 -0.4706883 0.09558627 -0.063142024 0.3354902 0.15555616 0.1871586 0.0640393 -0.28814816 -0.037908923 -0.050281446 -0.19447985 -0.089834884 -0.22664443 0.042967394 -0.15249664 0.072802976 0.15142696 0.053314473 -0.031225648
289 0.14413053 0.13029948 0.058707405 -0.051848195 0.03852717 -0.36786166 -0.14166047 0.16340508 -0.41897485 0.0015998961 -0.18065631 -0.25100678 0.0812142 0.07673383 0.22515032 -0.07061652 -0.06326151 0.31145886 -0.25760427 0.075843684 -0.2527403 0.027490305 0.15585278 0.14811918 -0.1362739 0.10029 -0.012509081 -0.1581669 0.060450137 0.40377477 0.042653814 0.06686191 0.058601756 -0.067123644 -0.36653015 -0.2350427 0.06459286 0.030636495 0.12675051 -0.1043926 -0.29994226 0.21121228 -0.12056446 -0.05902332 0.13419347 0.045724094 -0.0790008 -0.25715435 -0.31296816 0.21167068 -0.012554561 -0.020764854 -0.17242266 -0.058724392 0.44790015 -0.04066348 0.0031167292 -0.05087095 -0.2225425 0.13719758 -0.06677691 -0.095148474 -0.03725316 -0.13070917 0.2588733 -0.00054197904 0.09019823 -0.17374457 -0.0023097054 0.26676908 0.019763622 0.12061553 0.0443752 -0.19845243 -0.03959974 -0.22575764 -0.10080137 -0.08234958 0.116114385 0.13365321 0.037974983 0.19062507 0.020045541 -0.27148798 0.031422477 -0.2530056 -0.16160747 0.18086362 0.11341183 -0.016411956 -0.17381352 -0.12119721 -0.21886048 -0.053783115 -0.34967563 0.12956451 0.18294115 -0.077960595 0.1498114 0.085058235 -0.13029484 0.32999876 -0.10876561 0.038465414 0.042665895 -0.06900901 0.010131696 -0.0032089269 0.4035853 -0.0012342972 -0.083380714 0.03404302 0.2502845 0.3616413 0.29186666 0.09909441 -0.36579338 0.07457055 -0.08240111 -0.22657853 0.11472562 -0.046246774 -0.17776409 -0.20137623 -0.066517666 0.19694513 -0.09939045 0.04409844
13 -0.27312958 0.0040706405 0.22831741 0.12277125 0.05735733 -0.055268664 0.21236853 -0.17716527 -0.060434047 -0.12954703 -0.31735954 0.3061957 0.16697958 0.05029929 0.1297378 -0.019243278 -0.3246356 0.012610083 -0.1407769 0.13615018 -0.05580366 0.109778054 -0.032953043 0.3696932 -0.2776925 0.0901919 -0.26317352 0.0013526849 0.16507588 0.004487772 -0.07667013 0.1903472 -0.16148296 -0.32799754 0.06244338 -0.07983111 -0.22699924 0.302093 -0.28674135 0.06736315 -0.078444995 -0.1493073 0.1870938 -0.101432666 0.036840938 0.025657337 0.1453858 -0.17390192 0.10882169 0.22897172 -0.027267355 -0.017242428 -0.18926373 -0.26782143 0.27160498 0.061571624 0.08301205 0.10681907 -0.06274929 0.037312727 -0.09843543 -0.059086677 -0.1113153 -0.06486981 -0.09909301 -0.12263886 0.051796567 0.1903687 0.02995292 0.00563598 -0.2439136 0.0007124808 0.15151633 -0.20072995 -0.09026631 -0.05390725 0.03587077 -0.040196132 0.046315387 -0.26213294 -0.3132024 -0.18396752 -0.1664355 -0.26484817 -0.20101131 -0.007994824 -0.058832135 0.19797109 -0.17653802 -0.089999326 -0.0270476 -0.060705446 -0.02218264 -0.38083592 0.010852538 -0.12217082 -0.07754219 -0.032905124 0.13029726 -0.15015824 0.24878791 0.08930512 -0.22307487 -0.10094269 0.023347195 -0.016917003 -0.07254994 -0.16041727 0.17019413 -0.15992595 -0.12960187 -0.0755627 0.1395849 -0.037198137 0.20037295 0.6329393 -0.059583478 0.20904325 0.14853908 -0.21716163 -0.26319084 -0.07102452 -0.11346015 0.34605452 -0.16601989 -0.06920431 0.17946893 0.099415086
161 -0.12509781 -0.13438809 0.54894966 -0.04756994 0.16874571 0.08958915 -0.035111193 -0.23420243 -0.2986914 0.03562049 0.023945456 -0.029130828 -0.0076652803 -0.24219018 -0.17491053 -0.006529469 -0.1606514 0.19458137 -0.22499792 0.3809183 -0.19082357 0.09183846 -0.1546402 -0.25875258 0.03379891 -0.10739394 -0.0758461 -0.008868408 0.15418714 0.017343663 0.20109767 0.022004377 0.101688206 -0.1704801 0.0023590815 -0.5534818 -0.06992728 -0.01479952 -0.0439693 0.023497423 -0.086595654 0.06464022 0.08074685 -0.03327883 -0.21017568 0.21472193 0.11879353 -0.5313434 -0.0016548088 0.14492515 -0.03981543 -0.18298744 0.16534556 -0.4624525 0.001432575 -0.0006192968 -0.31675452 -0.12706488 -0.109471954 -0.08945582 0.01665937 5.9445087e-05 -0.2429868 -0.0017776717 0.13950524 -0.010251003 -0.0052116113 0.120069794 -0.014228721 -0.14479198 0.11356645 0.0055293506 0.14184055 -0.0695221 0.03060083 -0.12699814 0.061625123 0.014628754 0.03405447 0.09295607 -0.18423642 0.10182768 -0.044030108 0.01062097 0.0351203 -0.05982668 -0.09994267 0.28634787 -0.011842829 -0.10862691 0.10831024 0.17161728 -0.18063867 -0.015309442 0.24662791 -0.08868044 0.035334524 0.15215911 -0.12851916 0.071770586 -0.009844452 0.029165495 0.25775653 -0.17549926 -0.19359653 -0.13238649 -0.03648461 -0.12046154 0.11980859 -0.107791476 -0.13724746 0.27336162 0.16665442 0.5969143 0.25126156 -0.18692547 -0.11404218 0.091443 -0.18844308 0.13686237 0.0020309165 0.16160053 -0.25410447 0.12694141 0.10623969 0.12138778 0.16823101 0.12451302
2623 0.033000123 -0.048988257 0.029507834 -0.0019316394 -0.24066578 0.12557621 -0.24390279 -0.18214291 -0.32894197 -0.26209843 -0.07224607 0.020126898 -0.02662648 0.09756483 0.20256361 -0.0533362 -0.11261151 -0.19912829 0.033866484 0.024056857 -0.10350871 0.062524214 -0.030818533 0.05887461 -0.16209431 0.12830038 0.18593262 0.3511674 0.054251626 -0.12835701 -0.10325458 0.10783884 -0.060066983 0.24713638 -0.24440639 -0.47725472 0.13827977 -0.35695603 -0.09595428 0.20770347 -0.032706577 0.101049125 0.015249785 0.0058837174 -0.05839682 0.01879906 0.12447331 -0.035677742 0.05476469 0.12675124 0.042628303 0.12930323 -0.18376029 0.040871948 0.2205732 -0.35898584 -0.13548777 -0.045027148 -0.12836692 0.1097054 0.14529942 0.06782974 -0.14217408 0.00094898086 0.015298469 -0.14994994 0.08885802 0.34373504 0.19127254 -0.1929026 -0.04853232 0.055148073 -0.06251547 -0.14591685 -0.08819279 -0.15014224 0.27024534 0.046980035 0.15302746 -0.07776815 -0.021204049 -0.3279964 -0.066656075 -0.03267625 0.09024554 0.115912855 -0.04495451 0.28627554 -0.22203563 0.07676488 -0.09053621 -0.1784094 0.13675627 -0.008875923 -0.19165668 0.12314933 -0.06923912 -0.11247276 -0.074439436 0.36865938 -0.14570984 0.04325142 -0.099190995 -0.31376433 -0.12193144 -0.111529335 0.18047115 0.11562353 0.11199044 -0.40053087 0.030144207 0.08859946 0.355116 0.21004477 0.19422136 0.0765298 -0.18563534 0.14959824 -0.06289135 -0.03847959 0.2632367 0.17530198 -0.17013566 -0.080865696 0.24691348 -0.039459817 -0.17560759 -0.3247486
1286 -0.058401268 -0.013506625 0.23309459 0.10802187 -0.042340677 -0.019444626 0.072481506 -0.114361085 -0.34386158 -0.18305439 0.26483425 0.05924754 -0.03912372 0.073429026 0.010261795 0.1363969 -0.09741838 0.115662634 -0.26042512 0.06914162 -0.07082041 -0.08878984 -0.14402555 0.32810235 -0.02679743 0.2169171 -0.23070893 -0.16908646 -0.09198569 0.2264429 -0.061390445 -0.046843294 -0.14231518 -0.10587278 -0.1761497 -0.29851532 -0.0006124445 0.2932661 0.009257646 -0.015234617 -0.11733648 0.030665318 -0.080582544 -0.011787064 0.18190679 -0.111512326 0.05886066 -0.24138744 0.30546382 0.11984158 0.12888579 0.069479756 0.14230444 0.017439025 -0.014132755 -0.07321533 0.15548697 0.035026137 0.096301265 -0.06307692 -0.10549443 0.049544986 -0.21177784 -0.13492556 -0.15750112 -0.16755415 0.10191897 0.27219003 0.1428781 -0.06616134 -0.20322607 -0.025132764 -0.34419265 0.11536619 0.21726616 0.09044212 0.04909861 -0.08179356 -0.15332037 -0.009184823 -0.15595528 -0.082513705 -0.151351 -0.11223308 -0.024790796 -0.194237 -0.11663383 0.09352841 -0.12520759 0.011016268 -0.06259096 -0.07281561 -0.14316498 0.010357553 0.26720202 -0.103429474 -0.17418054 -0.20333114 -0.043436985 0.15827133 -0.071911 -0.103836 -0.14832103 -0.01622565 -0.06801295 -0.011300531 0.012552258 0.09234181 -0.10681356 -0.36298686 -0.071654186 0.14731668 0.12805638 0.07994246 -0.22009505 -0.16766526 -0.38832426 0.13716327 0.012402425 0.42440414 -0.030645236 0.07826243 -0.28348237 0.31585383 0.354686 -0.058067884 -0.24776831 0.023318566
163 -0.074903816 -0.08090147 0.45573696 -0.09189308 0.05280755 0.052633382 -0.082849436 -0.24235682 -0.29707196 0.02179023 0.1359391 -0.07336272 -0.027144682 -0.27544928 -0.07511889 -0.03373297 -0.075851455 0.10528286 -0.21857074 0.32684135 -0.29434314 0.12618367 -0.13549747 -0.2899139 0.03518081 -0.21780868 -0.09043113 0.06852184 0.04024992 -0.08278759 0.1928657 0.06707981 0.18588734 -0.0924242 -0.09236086 -0.5863221 -0.06882639 -0.005128322 -0.006597417 -0.004937408 -0.023856055 0.0033131042 0.1761915 -0.19652145 -0.19211139 0.19990684 0.2023484 -0.5420233 -0.138575 0.16446078 -0.109376304 -0.06056875 0.17148764 -0.42516747 0.034479693 -0.026299281 -0.3182963 -0.03260799 -0.030008996 -0.24615066 -0.011712232 -0.07944731 -0.22464028 0.11567491 0.06494386 -0.12787753 -0.04768276 0.049900964 -0.005836361 -0.101396374 0.060882196 -0.081706494 0.19303943 -0.05871457 0.1599281 0.029729273 0.10371768 0.015528574 -0.07192282 0.05522199 -0.099168 0.048710257 -0.030313116 -0.044843353 0.11142683 -0.08896516 -0.15879418 0.4125394 -0.18415102 -0.116102606 0.16700752 0.19169737 -0.16548014 -0.041775465 0.25885943 -0.13305618 0.15118875 -0.038646296 -0.15542047 0.11084288 -0.010271109 -0.009496386 0.28975913 -0.25437585 -0.37110454 -0.06900298 -0.21053363 -0.10469991 0.10888731 -0.100937106 -0.29176605 0.20285977 0.16149162 0.49297822 0.28485024 -0.19683564 -0.04070968 0.1332329 -0.13548522 0.07600988 -0.047583144 0.05926732 -0.27464032 0.10107381 0.18037824 0.0030182705 0.09419148 0.017411897
2320 0.0361444 -0.0039307615 -0.12309894 0.20202613 -0.34166834 -0.003562643 -0.08374895 -0.07815993 -0.06407262 0.042940125 -0.030565184 -0.07047289 -0.11179313 -0.038085993 -0.01352071 -0.06569288 -0.13488553 -0.10435158 -0.05026741 -0.052061155 0.032171547 -0.033071753 -0.09963888 -0.15004362 0.062492564 0.21162754 -0.1468895 -0.12782502 -0.28023356 0.0645606 0.32205316 0.15615192 -0.4253292 0.13138425 -0.18829374 -0.14053589 0.052038196 0.08026128 0.22802188 -0.07830331 -0.0913442 0.1478425 -0.23498827 -0.27630207 0.015338448 -0.062548555 -0.21456563 -0.20761181 0.30059502 0.03728147 0.052165613 -0.17542267 -0.23020585 0.06474647 0.2744484 0.07293291 -0.060245905 -0.0010536603 -0.21899574 -0.09411656 0.047599964 -0.08430402 -0.31297836 0.04449512 -0.07750376 0.066267796 0.118092924 0.099283986 0.087501496 0.13254313 0.031698238 0.046546083 -0.17597948 -0.05139538 0.10186815 -0.27560562 0.06476042 -0.1758073 -0.09113357 0.13398604 -0.048393223 -0.42850372 0.039831672 -0.054099895 -0.10977938 -0.13627861 -0.076394536 0.011301711 0.025557496 0.20793052 0.23020056 -0.09855926 0.02898298 -0.22263509 0.11123611 -0.075831495 -0.2038558 0.064062834 0.216295 -0.061014455 -0.08528477 -0.09499008 0.191865 -0.16286223 0.18932435 0.114367105 0.10455811 -0.02148396 0.09303053 -0.4551651 -0.17524414 0.103154995 0.08853541 0.17442448 -0.28605554 -0.11462113 -0.18201192 0.19219281 -0.06262335 0.13558365 -0.16149445 0.104468524 -0.1951954 0.15527324 -0.09108169 -0.023441782 -0.0048431293 -0.06232789
420 -0.058021918 -0.056150317 0.13681898 0.07975726 0.16720363 0.241259 -0.23941018 -0.056747492 -0.33497366 -0.1927934 -0.044768885 -0.14532933 0.22383855 -0.070109546 0.06105224 0.017435955 -0.05674898 0.1740809 -0.13444902 0.21667328 -0.049793344 0.09218331 0.15882893 0.111059494 0.0635723 0.2733271 0.11362793 -0.08604672 -0.043637052 -0.14295635 -0.06726279 0.062816724 -0.3111499 -0.32643557 -0.19806068 -0.22764148 0.1035966 -0.012585015 0.29410964 0.059773125 -0.08242618 -0.20494373 -0.08398016 -0.02585232 0.09871046 -0.40677682 0.10292513 -0.25644618 -0.27086747 0.16958764 -0.2111154 0.1424021 -0.04204503 -0.12870972 0.11755139 -0.092357345 -0.12595218 -0.051450595 0.044987414 0.036032725 -0.19426273 0.10859521 0.06857885 -0.11384145 0.043577507 0.0023703366 -0.19758698 0.07196294 -0.20462689 0.042470243 -0.17528152 0.10104784 -0.3425783 0.027963378 0.064379774 -0.07012241 -0.02436243 -0.17454812 -0.19143148 0.16400786 0.18021384 0.3011153 -0.0777933 -0.19401553 0.092591204 0.02396526 -0.27811265 -0.072626755 0.18747514 -0.06471359 0.056045707 -0.22323619 -0.29733136 -0.274755 -0.22467229 -0.20535594 0.08112213 0.23069753 0.0021931385 0.04532971 0.1718244 -0.14220692 -0.018706191 -0.19699144 0.2335022 -0.10293391 0.38480723 0.34283635 0.1862409 -0.22817403 -0.14369118 0.3439367 -0.08859453 -0.00884874 -0.048084944 -0.04110707 0.108389966 -0.18630268 0.0329696 -0.15035932 -0.09662557 0.08725209 -0.3887687 -0.13510112 0.26153028 -0.10116863 0.054453094 0.26946652
1489 0.1501847 -0.16774294 -0.0028320376 0.13790795 -0.008895273 -0.2687633 0.06402987 -0.23728754 -0.013548125 -0.18612204 -0.1461135 -0.013967267 -0.3997217 0.31230953 0.115417056 -0.23382683 -0.0056580515 0.08876368 -0.06415249 0.15051658 -0.02297469 0.21363726 0.041457627 -0.14915976 0.035161156 0.102514856 -0.04364302 -0.050109793 -0.18034539 -0.1236647 0.029064877 0.13766491 0.09255284 -0.026500307 0.043223802 -0.17301628 0.08854276 0.12403648 -0.059412044 -0.01740296 -0.00052481063 0.074264474 -0.1709991 0.17794563 -0.060957827 -0.1740717 -0.14314158 -0.25457233 0.08439987 0.13407913 -0.33714345 -0.12211664 0.0075378288 0.0499172 0.032750208 0.0021463512 0.08694119 -0.0762428 0.18014878 0.08971418 -0.2506162 -0.015152325 0.1281311 -0.026480371 -0.15532048 0.06937859 0.09996091 0.2034996 0.08454314 0.09482354 -0.023466513 -0.20087115 0.12517111 0.053064086 -0.11729134 -0.104955494 0.08071558 -0.021698106 -0.1531808 0.2777509 -0.17492718 -0.060602393 0.20352024 -0.1453246 -0.079311326 -0.08559441 -0.045967802 -0.113232896 -0.12366022 -0.0076347645 0.10181995 -0.050887078 -0.038024403 -0.15559152 0.05383517 -0.14727327 -0.09130088 0.09607372 -0.13629109 0.43536022 -0.09515891 -0.010185636 0.09934934 0.15796381 0.08780423 0.054230858 -0.13998562 0.11454893 -0.0443153 -0.0686622 -0.15530504 0.2616916 0.36584085 0.1387763 -0.33372638 0.04123289 -0.1048128 0.18170343 -0.026316222 0.13493414 0.116382934 0.23972733 -0.07592716 0.4479919 -0.016333917 -0.16961189 -0.21591912 -0.16436997
651 0.07051252 0.17619014 -0.23859884 -0.12022099 -0.17809178 -0.17789374 -0.0830524 0.23562281 -0.14079753 -0.111662276 -0.10552867 -0.17495386 0.20483357 -0.11895367 0.23889539 0.14488794 -0.36353958 0.038488522 -0.07704147 0.06596248 -0.31282693 0.13166583 -0.008187382 0.1605036 0.2614512 -0.15928937 0.0016072677 -0.14610375 0.04965489 -0.085722685 0.011173328 0.23323695 -0.090330206 -0.11703569 -0.13774648 -0.36671636 -0.040398207 0.16878948 0.1854878 0.087507665 -0.05431942 -0.23866163 -0.2170807 0.054949235 -0.003895827 -0.5225235 -0.15705085 -0.20909238 -0.23352309 0.057297345 0.30913574 -0.09476335 -0.093469195 -0.23075461 0.09974491 -0.3170088 -0.14407341 0.4762772 -0.077028826 -0.07116917 0.0076150624 0.021099254 -0.2653653 0.036359664 -0.06420493 0.07684817 -0.0025017445 -0.038263556 -0.16566914 0.061682943 -0.07140229 0.2809618 -0.07725292 0.08721219 -0.24667507 0.022891287 -0.04262682 0.19195576 0.015047951 0.08178731 0.009307902 0.112434044 -0.045087814 -0.2103215 0.25085253 -0.24105756 0.010610853 -0.20619869 0.2098302 -0.07341175 0.2268751 0.018460954 0.012313379 -0.18597516 0.3418839 0.17187099 -0.32088125 -0.1630231 0.046088096 0.123894736 -0.0038135871 0.16363628 0.14630312 -0.13010943 -0.07153404 0.3239864 -0.0817468 -0.1383824 -0.014381455 -0.20807701 -0.27043074 -0.10618124 0.33159047 0.36218888 0.2029297 0.046027917 -0.021192836 -0.27835447 -0.022659823 -0.16253771 -0.123832755 -0.05261971 -0.08470509 -0.009447873 -0.04069339 0.083090775 -0.10936316 0.08683476
162 -0.12460737 -0.06876559 0.51106143 -0.11616979 0.14927657 0.08351681 -0.17539032 -0.2979962 -0.21949027 -0.02546869 0.04794583 -0.05581915 -0.0039503383 -0.1739935 -0.19610581 -0.004409561 -0.17461249 0.21981905 -0.15823272 0.36292103 -0.16708633 0.0712859 -0.13562979 -0.28694874 0.10727491 -0.08188635 -0.023722786 0.0034115228 0.05517712 -0.11514677 0.28551692 0.025115693 0.14655368 -0.089324795 0.00791636 -0.49600893 -0.055668376 -0.03917159 -0.06547854 0.104489855 -0.0644279 0.03954923 0.14320502 -0.108765006 -0.3088843 0.19849889 0.17202578 -0.48435923 -0.01910611 0.10606494 -0.022226678 -0.069229186 0.26832077 -0.44638374 0.10075412 -0.061469786 -0.31083637 -0.21944079 -0.24714369 -0.12613864 0.12058804 -0.05668299 -0.24029343 0.060232963 0.048655313 -0.13550086 -0.00154765 0.08913869 -0.009612367 -0.16768356 0.09711044 0.038470473 0.19368525 -0.05707382 0.07115854 -0.064376436 -0.0033473428 0.024981074 0.077708766 0.039462287 -0.18911257 0.06300213 -0.07987025 -0.08569369 0.2688149 -0.11507918 -0.18713014 0.34976226 -0.07699698 -0.13185284 0.14014682 0.19241825 -0.25026658 -0.048607606 0.30885062 -0.07732782 0.096201636 0.04825161 -0.18068418 0.12697113 -0.059765622 0.037958946 0.29050788 -0.2582158 -0.1845589 -0.05565809 -0.0967321 -0.01471555 0.098173045 -0.079968154 -0.17174964 0.26212335 0.17069337 0.51569366 0.2614568 -0.2078844 -0.02312307 0.24558005 -0.117589384 0.14501859 -0.03447586 0.114383936 -0.2026692 0.0066076443 -0.0020578187 -0.049039472 0.03389374 0.06939697
141 -0.027927319 -0.048503447 0.20474729 0.07124503 0.08839051 -0.12028041 0.32471734 0.21657023 -0.12045938 -0.21587978 -0.24197799 -0.09900089 0.013742445 -0.09482615 -0.09325089 -0.33719987 0.094221815 -0.20828673 0.071828626 0.07202654 0.036274705 0.072995365 0.027810331 0.035946988 -0.03329151 -0.0016115782 -0.017073695 -0.12437161 -0.34358665 0.117085315 0.039883338 0.22638758 0.07437654 -0.28405517 0.268199 0.040201493 0.052495204 -0.04913522 0.0688289 0.05800274 0.045613796 -0.27080387 -0.0508591 0.045805957 -0.23807964 0.17742802 -0.0010194964 -0.06854264 0.17378578 0.22832432 -0.02392812 -0.05754154 0.17525657 0.0674442 0.0887537 -0.15121292 -0.13960917 -0.018546158 -0.022261752 0.08110778 0.0035869684 0.08348859 -0.009028439 -0.25609136 -0.37165672 0.0896557 0.10708454 0.118705586 -0.101964906 -0.103486046 -0.14178027 0.058396626 0.30157566 -0.10259685 -0.22739641 -0.09570304 0.22988786 -0.075385734 0.031991664 0.056893032 -0.1659109 -0.008554489 0.10181206 -0.27195695 0.11126304 -0.009203997 -0.14563258 0.015557277 0.03417419 -0.060714636 -0.09908735 -0.21492341 0.22061144 -0.19990641 0.070618935 0.15777406 -0.13751751 0.16675256 -0.18477015 -0.10958296 0.17234509 0.03602224 0.16082986 -0.13502282 0.12857169 -0.117883936 -0.19217911 0.1994428 -0.1691809 -0.22427887 -0.03421317 0.3577199 0.0825788 0.062452566 0.0117748035 0.24772112 -0.04866013 -0.08473653 -0.080629624 -0.1237364 0.06256112 -0.10707439 -0.11471291 0.110902116 0.098735236 -0.16288044 0.037058104 0.06292964
613 -0.25127244 0.45733288 0.10994495 -0.021876309 0.023111572 0.0484645 -0.14525516 0.051311165 -0.17936988 0.23976438 0.17051302 0.11780299 0.24981566 0.15014212 0.20834316 0.12587039 -0.09197696 -0.0883552 0.049070742 -0.11376097 0.04371696 0.03757029 0.117371865 0.17161518 -0.049808368 0.070666686 0.14543304 0.08135552 -0.15035118 0.12748401 -0.21075065 -0.08067756 0.22509204 -0.12371466 0.26580825 -0.20669672 0.0058575557 -0.3604248 0.045156114 0.101834245 -0.08122247 0.24899039 -0.23041286 0.098466344 0.12623465 -0.21538876 -0.052528054 -0.31828937 -0.039221946 0.007999166 -0.041292634 0.10104727 -0.06090847 -0.13374823 0.13407461 -0.05139124 -0.001995903 0.0356891 -0.18503925 0.32066756 -0.094825014 0.27322304 -0.1316485 -0.028259838 0.1558711 -0.2202685 0.28311408 -0.027995713 0.04550087 -0.053363014 -0.21757786 -0.079535864 -0.023481427 0.001188956 -0.25387207 -0.2724727 0.037895977 0.03630262 -0.1805861 0.0038669175 0.086968884 0.2751405 -0.07018466 -0.03221538 0.23973832 -0.043385226 -0.08886456 0.094554305 0.078378364 -0.18535125 0.041650027 -0.021484675 -0.053852476 -0.041951172 -0.03283972 -0.042245485 0.028031383 -0.18829101 0.0519756 -0.17787334 -0.0071422644 -0.15482876 0.09995284 0.013322483 0.25742713 -0.014742985 0.27527013 -0.056279436 0.24081706 -0.19136806 -0.15462123 0.17740394 0.19418047 0.21154706 -0.13839068 0.25313187 -0.25854856 0.08409053 -0.23359644 -0.093085125 -0.0020692982 0.4281171 -0.2034307 0.14756136 -0.044599146 0.022160633 0.22828856 0.03907345
213 0.07152305 0.014109726 0.07330931 0.16545364 0.33432418 -0.1517594 0.051706623 0.10013149 -0.13055079 -0.31108624 -0.2501843 -0.05729214 -0.075938046 0.044638366 0.011519946 0.23052731 0.04536023 -0.16233703 0.039055627 -0.20561057 0.18494613 0.08282291 0.32661903 0.122154675 0.23112632 0.24282497 -0.12380979 -0.092365 0.25079057 -0.023735985 -0.0045304266 -0.05690968 0.041421283 -0.032689493 -0.078787334 -0.17593068 -0.12216429 0.14357904 0.2324363 -0.15840319 -0.23770747 -0.16412383 -0.007603591 -0.03932444 -0.101515144 -0.097328655 -0.20161523 -0.30330124 -0.06361696 0.2968181 0.0012021895 0.37849972 0.48782358 -0.082817 0.24702455 -0.20061164 -0.037863605 -0.17848755 -0.30655584 0.05190144 0.05379671 -0.05519086 -0.16730057 -0.18743244 -0.026475774 0.07398718 0.001059325 0.13982026 -0.09668651 -0.022755478 0.15216209 0.05505446 -0.18235263 0.014091863 -0.34777144 0.0064263544 0.16996385 -0.23038314 -0.09956843 -0.047514066 0.21778993 -0.33676264 0.11911028 0.16295302 -0.27634612 -0.12775035 0.027712425 0.29990977 0.19823045 -0.29740086 0.16201776 0.11410406 0.15393189 0.09428769 -0.08257153 0.2855528 0.17431664 -0.045321528 0.20975198 0.10710726 -0.18246996 -0.25543892 0.37120163 -0.26029408 -0.07951363 -0.18096808 -0.0940711 -0.27030256 -0.12517305 -0.19500463 -0.2868831 0.10752555 0.4091996 0.21902004 -0.020743845 0.01850469 -0.101615645 0.12078041 0.08479337 0.08006557 -0.007193185 -0.12232394 -0.15312964 0.04903065 0.3192787 -0.16469058 0.30677497 0.024533983
171 -0.15640956 0.44772762 0.23697834 0.03263824 -0.2790117 0.036529496 -0.077054836 0.20780729 -0.08859844 -0.06945894 -0.006427284 -0.13545057 -0.07579184 0.036602557 0.105773725 -0.015736027 -0.32474807 -0.018432934 0.1292005 0.11975594 0.060046155 0.31889868 -0.09580161 -0.17901857 -0.24675158 0.3719019 -0.22766508 0.08433111 0.3764176 0.1957791 0.15037675 0.029621627 0.31875232 -0.07929994 -0.06441081 -0.34615818 0.11775613 0.24352269 0.07232569 0.2001005 -0.14666794 -0.02369714 -0.22389206 -0.21451357 -0.28918406 -0.12699234 0.027618047 0.046849757 0.10438604 0.01748328 -0.18809457 0.002851632 0.019210208 0.20226115 0.51358306 0.27557036 -0.17427099 -0.01858548 0.08094009 -0.104901314 -0.11752061 0.09165883 -0.033868674 -0.07670854 -0.06476775 0.06319539 0.5829415 0.09414732 0.29888558 0.10263164 0.03303474 -0.16166185 -0.06341027 0.019693233 -0.19908147 -0.05446756 -0.08616045 -0.11475938 0.1746048 -0.14325418 0.20952831 -0.056891315 0.24368896 -0.27590787 -0.020297792 -0.05376312 -0.09572295 -0.043168396 -0.29210904 -0.17597473 0.09960689 -0.08267736 -0.02794941 0.35514542 0.5241743 -0.27865 0.18855046 -0.10144114 -0.23467906 0.18122557 -0.06656342 -0.03311989 0.006972208 -0.33251607 -0.08942533 0.13396655 -0.14104697 0.4304961 -0.12051507 -0.061597582 -0.33378556 0.1352413 -0.007926621 0.12105234 -0.097139105 0.023169035 0.18109526 0.05011018 0.19982883 -0.20880929 -0.18645535 0.078731254 0.008215018 0.025987288 -0.20045334 0.10496792 -0.1560026 0.14064866
338 -0.0143172555 0.011039187 -0.17568506 0.09925498 0.044987265 -0.06417184 0.08897564 0.08898591 -0.14465342 -0.23178762 -0.046770945 -0.08970446 -0.1172635 -0.005686533 -0.0857512 -0.13524488 0.30321315 -0.04897758 -0.28918895 0.046855286 0.0088576265 0.051334962 0.17091085 0.19881558 -0.1988268 -0.26930767 -0.09928567 -0.16820964 -0.13888426 0.06582023 -0.0074220398 0.20382285 0.021526001 -0.048159793 0.2741072 -0.2412856 0.04818485 0.0024232103 -0.10424084 0.11393354 -0.08605497 0.12139309 -0.117850736 -0.18743731 -0.04801877 0.1991624 -0.035431948 -0.2054826 0.11285553 -0.051757917 -0.09565059 0.14654996 -0.10239143 0.12526204 -0.0069886907 -0.1737659 -0.16251807 0.11439028 -0.04732112 -0.044762556 -0.11142297 0.04024109 0.12194411 0.0061060344 0.035016794 0.06206843 -0.044119205 -0.04992947 0.031246403 0.16165677 0.15070757 0.22861436 0.18764126 -0.1742154 -0.14319001 -0.26634398 0.1402765 0.010666544 -0.058229107 -0.22070289 0.1352239 -0.16116707 0.14703536 -0.38236648 0.04739397 -0.11976838 -0.23861477 -0.054134466 0.076806724 -0.2049701 0.038151838 -0.15919025 -0.069870085 -0.2197476 -0.10193921 0.0015401714 -0.035319988 -0.041378655 0.03739945 0.13808568 0.07165025 -0.05657748 0.13062692 -0.15638034 -0.14797385 -0.022991478 -0.067656614 0.25792843 0.040480327 -0.10436854 -0.04309778 0.21856424 0.2806343 0.0029342943 -0.055353455 0.12970112 0.12218769 0.03714861 0.084637366 -0.01540751 0.2392492 -0.054335445 -0.10173553 0.15230559 0.12407395 -0.17004628 0.03933804 0.008625344
337 0.07945059 -0.041535534 -0.21550892 0.19570944 0.0815086 -0.03157143 0.14532416 0.045863528 -0.23415035 -0.30403113 -0.08472808 -0.12314557 -0.17139053 0.00080283085 -0.11701677 -0.10602723 0.24869752 -0.018864615 -0.25859442 0.10134368 0.042677257 0.11527955 0.19161782 0.23443982 -0.17192379 -0.19383323 -0.12621833 -0.16493665 -0.18080382 0.07348367 -0.011852552 0.20035474 0.023101075 -0.017477771 0.32222494 -0.1868025 0.015597863 0.0123934075 -0.06611083 0.054142952 -0.14898618 0.085024096 -0.14487904 -0.16646248 -0.15919134 0.15014741 -0.0068549756 -0.115632966 0.05631666 -0.0875271 -0.13828632 0.21638276 -0.051446646 0.06690688 -0.016188245 -0.16428454 -0.109845534 -0.0025430627 -0.06342153 -0.021568097 -0.085329816 -0.030506197 0.015581078 0.13516796 0.011549164 -0.019720789 -0.05624192 -0.07481119 -0.023106901 0.18821861 0.009014393 0.1565065 0.17151242 -0.13616738 -0.16207962 -0.26003972 0.08023885 0.033393223 -0.0022281252 -0.22279416 0.073332064 -0.12083882 0.12610534 -0.32573122 0.10249519 -0.1834046 -0.2099133 -0.03570492 0.13699302 -0.26992208 0.07369931 -0.15058953 0.027799703 -0.15390939 -0.09612483 -0.04080094 -0.08530507 -0.07891083 0.070324965 0.122140355 0.12630884 -0.055530947 0.090281315 -0.13902381 -0.0313425 0.03595633 -0.07481184 0.30829987 0.035279904 -0.0492429 -0.0069203964 0.23378456 0.20662706 -0.06176961 -0.040686768 0.16552867 0.18833591 -0.012414087 0.078335546 -0.036692806 0.22112404 0.0010715829 0.004831672 0.20156497 0.15250307 -0.20082279 0.13734242 0.013675746
