2634 128
2633 -0.070417136 0.108244345 -0.083946824 0.06222484 0.056675576 -0.29558265 0.15106069 -0.06870869 0.028593764 -0.16301052 -0.08577445 0.25738716 0.16306284 0.14890786 -0.26523355 -0.12469979 0.092228614 -0.11670158 -0.2511968 -0.06076906 -0.016933117 0.1529937 -0.23865832 0.1783999 -0.21458785 -0.08731581 0.34362513 -0.010238567 0.31953177 -0.060490932 0.19174653 -0.024520878 0.04846647 -0.36104408 0.028088994 0.11201244 -0.006263378 0.0054777926 -0.14130819 -0.074178785 -0.06709729 0.061443698 0.09326898 0.009559069 -0.1440348 -0.15748382 0.015189802 0.039601833 0.20136425 0.1006572 0.11303257 0.13863924 -0.05382881 -0.019505331 0.15044785 -0.11568703 0.02043175 -0.10665758 -0.47527573 0.06315634 -0.112104714 0.036533628 -0.31335643 -0.0074913967 -0.28074992 -0.15024403 -0.029492054 -0.041635264 -0.0411437 0.041321445 0.14147742 -0.17050257 -0.10292397 -0.07290012 0.1646449 0.13234814 0.03591064 0.08310258 -0.25241074 -0.12935135 -0.13756104 -0.06521163 0.09708779 -0.07747689 -0.25507975 0.003968071 0.3066395 -0.005112723 -0.0699728 0.08449765 -0.13272317 0.2312201 -0.12316779 -0.14977098 0.03632511 -0.031510234 0.15092975 0.13527778 0.06442655 -0.29213655 -0.05114738 -0.07870457 0.11145246 0.19078922 -0.10335311 0.04886311 -0.07264685 0.23076473 -0.028183026 -0.25691807 0.23293193 -0.38311356 0.10353389 -0.1262239 -0.26049462 -0.13878416 0.07318613 0.078838594 -0.21263388 -0.014532132 -0.020841459 0.037219536 -0.020274473 0.0073964507 0.016778914 -0.17171656 -0.15846185 -0.100614175
2550 0.079088435 -0.119939305 -0.0049503087 -0.19427517 0.25974625 -0.018375795 -0.044759337 0.007256235 0.015632465 -0.08671478 -0.10540324 -0.15447643 0.11606066 -0.22816543 0.032648608 -0.20799738 -0.14572787 -0.10031422 -0.13790432 0.081953846 -0.2375605 0.4372755 0.072784424 -0.2806839 -0.039223354 -0.063570045 0.100035764 0.07842205 0.06012632 -0.12660332 -0.032245804 -0.17762253 -0.18013638 -0.13453892 0.07431401 0.09538281 0.0814946 -0.0855823 -0.3526765 -0.15459237 0.13368197 -0.056858663 0.1384549 -0.3503075 -0.06772183 -0.11544964 0.013923124 0.19005446 0.2269399 0.011119265 0.03789485 0.052431345 -0.2011215 0.19376989 0.1279052 -0.04344793 0.26313338 -0.19170347 -0.090709314 -0.2072393 -0.14445679 0.008982941 -0.45142266 0.081485875 0.024348984 -0.04916018 0.18489644 -0.08561532 -0.019570945 0.0066218036 -0.26412207 -0.2731056 0.24723543 0.02749064 -0.20793706 0.13440424 -0.09186476 -0.14763857 -0.059858914 0.052563976 0.041660585 -0.16773775 0.09549052 -0.0313032 -0.21328898 0.0002528038 0.3383898 0.111979 0.049625646 -0.24275683 0.03135889 0.17926054 0.13596657 -0.051973555 0.10500069 -0.25460678 0.06328274 0.16333964 -0.22935396 -0.14681052 -0.15347317 0.13672905 0.059375573 -0.06191923 -0.20221215 -0.055939104 -0.121822186 0.052702546 0.06969542 -0.1775745 -0.20425874 -0.016794208 0.22450282 0.06468716 -0.078002386 -0.07193658 0.06810789 -0.005987405 -0.010979496 -0.083262384 0.13572268 0.09426274 -0.16943459 -0.096713826 -0.021510735 -0.23842217 -0.18717223 0.23644046
2568 0.110083416 -0.18883392 -0.12142891 0.16151758 0.041353755 0.23244676 -0.09796504 -0.06106269 0.09742112 -0.019606939 0.3320385 0.12958516 0.008589724 -0.077424586 -0.14064573 -0.09292781 0.23001724 -0.03483853 -0.017710082 0.09604356 0.04284173 0.17239395 0.08087675 0.102456816 -0.23381332 -0.23396714 0.2885646 -0.09544606 0.08498356 -0.18073134 0.40741524 -0.053495403 -0.19881658 -0.30538157 0.073544756 -0.18996985 0.14123099 -0.013984502 -0.06741596 -0.065323465 -0.036298987 0.027744519 0.16613266 -0.2800945 -0.11538611 -0.104566924 0.046598412 -0.07600661 0.06827146 -0.020593278 -0.25050732 0.07142913 -0.066385075 0.04336649 -0.11736075 0.03330392 0.024000293 -0.114523694 -0.18747725 -0.044177435 -0.25406155 0.10181202 -0.027262606 0.039920785 -0.14335538 -0.19705065 0.19115336 0.051939376 -0.21554706 -0.13329923 -0.20517299 -0.043658424 0.1688785 0.12909807 -0.130863 0.08929671 0.07669278 -0.112671584 0.022492858 -0.12117695 -0.2089925 -0.2333374 0.18803394 0.032245856 -0.009064444 0.08652396 0.34640208 0.074494824 -0.047861397 0.13149667 -0.056998644 0.073020875 -0.3275079 -0.0818135 0.034631297 -0.12910132 0.21470861 -0.020420952 0.09636308 -0.10342802 -0.023989154 -0.015924688 0.082924895 0.03846767 0.055800524 0.11646258 -0.17841455 -0.17286016 -0.12048815 -0.077405296 0.0663513 -0.22059038 0.2542236 -0.059536964 -0.029399967 -0.05362299 0.025452713 -0.0064978427 -0.05572144 -0.099487714 -0.12551244 0.06384816 -0.14302687 0.067579836 -0.0072851637 -0.014083058 -0.064666994 0.22157234
2604 0.117369585 -0.0926354 -0.13510332 0.075885385 0.14812364 0.11925565 -0.038025875 0.026978128 -0.2730425 -0.14809906 0.1491729 0.039145965 0.1548902 -0.20991242 -0.15704334 -0.02246621 0.03569911 -0.20219585 -0.13633049 0.088296466 0.06551234 0.11715981 -0.015873909 0.067931384 -0.058789678 -0.3256895 0.09628014 0.13494143 0.11635725 0.038195312 -0.05947058 0.14147991 -0.2771458 -0.097892456 -0.03220973 0.038242385 -0.010389475 0.15159026 -0.2049591 -0.14398861 -0.11268582 0.11096286 -0.03794982 0.11513761 -0.06722962 -0.06346677 -0.038281918 0.18560517 -0.16164006 -0.18348493 0.1390872 0.09451338 -0.09457355 -0.0959586 -0.12996082 -0.3021954 0.07616896 -0.26456526 -0.13525833 -0.13496926 -0.19672048 0.15009105 -0.26283848 0.062546216 -0.2706273 0.027082209 -0.06866519 -0.024456985 -0.04919362 -0.16469057 0.004572673 -0.10964796 -0.036965866 0.20936 -0.021519413 -0.040373195 0.20085767 -0.11859564 -0.06303858 0.014005019 -0.029929224 -0.257514 0.10175834 -0.36880973 -0.2829047 -0.11201533 0.16921033 0.14108853 -0.04883225 0.15290599 0.10744208 0.19051528 -0.10305043 -0.33236942 -0.062561095 -0.2173584 -0.014472807 0.14091931 -0.012111682 -0.03598715 -0.0043539014 -0.24953146 0.10552508 0.13513686 0.02468748 -0.123285875 0.15772936 0.08660367 0.298634 -0.21521828 0.053331263 -0.33234757 0.22164856 0.065313086 0.050476104 -0.028013509 -0.052348513 -0.044207737 -0.074087754 0.0437177 -0.28538284 0.027853325 -0.045220762 0.14682023 0.18332773 -0.13432412 -0.041046888 -0.018662885
2610 0.12038559 0.0021222683 0.24438792 0.019957881 0.3593898 -0.032009266 0.2858976 0.08004292 -0.08329112 -0.2232969 -0.09573424 -0.03428428 -0.0896777 -0.295865 -0.11633999 -0.20985012 0.17265137 -0.27063572 -0.2849133 -0.030021826 -0.095326066 0.2683735 0.17657843 0.095270745 -0.20186067 -0.20959589 0.21034086 0.010919127 -0.037069038 -0.09764173 0.27171618 0.03574584 -0.15662527 -0.2935046 -0.11629023 -0.14726676 0.18819898 0.024050469 -0.16195911 -0.14075117 -0.054097578 -0.07597743 0.17316638 0.062050562 -0.16592702 0.10682348 0.3462571 -0.2436 0.002723943 -0.2167744 -0.055933245 -0.065115266 -0.14133246 -0.04639516 0.046052307 -0.16527025 0.0029915394 -0.1271223 -0.1396475 -0.09973242 -0.37935534 -0.089040995 -0.23692101 -0.10899844 -0.30195734 -0.24631731 0.12659921 0.09509173 0.23802146 0.00448992 -0.024520788 -0.10252556 -0.084558725 0.020922072 -0.072007835 0.25052324 -0.15049821 0.11915117 0.1873918 0.019010555 -0.17542183 0.10122788 0.4122278 0.14244421 0.0059985192 0.12033775 0.08833822 -0.05439045 -0.06457023 0.010416947 0.046532474 0.10757212 -0.20124526 -0.13154185 -0.0027792116 0.17380324 0.07596424 0.03031139 0.15628088 0.069306836 -0.17438485 0.09824261 0.04480193 0.06783144 0.022540053 -0.062773414 0.19389918 -0.01408355 0.0024126975 0.021295251 -0.16229734 -0.12641396 -0.01045884 -0.0059692645 0.009863357 0.21207519 0.52472574 -0.021664647 -0.037963167 0.07258128 0.041168362 -0.098038256 -0.031906888 -0.011141019 -0.17776155 -0.13907477 0.055323694 -0.10164935
2454 0.053500123 -0.20923324 0.036065273 0.08769403 0.15285689 0.2652784 -0.019179044 0.022996778 -0.30247405 0.18441802 -0.07535964 0.1447261 0.23567341 0.03269839 0.20173822 -0.03438373 0.14820026 -0.082825005 -0.04331941 0.048682526 0.09183527 -0.06969466 -0.102984466 0.06471502 -0.054655917 -0.07514748 0.15117425 -0.039595477 0.19543944 0.048371516 0.092701584 0.13688608 -0.1369338 -0.18687329 0.4025021 -0.048096996 0.21780334 0.08275151 -0.04794077 -0.07952333 0.09784186 0.13457611 0.10306162 -0.11652447 -0.012487231 -0.061137367 0.19293807 0.11523087 -0.005225394 -0.26168126 0.14268647 0.14700484 0.051362887 -0.019367011 -0.10799508 -0.06382928 0.023385145 -0.05986486 -0.34950128 -0.28442577 -0.14077011 0.07149725 -0.38047576 -0.08276379 -0.32272157 -0.10129174 0.04985979 0.023609264 -0.13284251 -0.0622017 -0.21590605 0.09251646 0.039911933 0.0698625 0.18858606 0.049361464 0.17732015 -0.08603259 0.094594136 0.20515993 -0.018597232 0.030620696 -0.03318073 0.061373796 -0.13558225 -0.02545922 0.4699172 0.16475636 0.014090869 -0.00895269 -0.08368739 0.01586855 -0.15154646 -0.27655593 0.20328066 -0.23549508 0.032487277 -0.155173 0.059160706 -0.044371597 -0.087383114 -0.06669929 -0.012847186 0.17797282 -0.11917443 -0.058652714 0.17465264 0.010986452 0.03730458 -0.16015002 -0.015170227 -0.12054078 0.3369849 -0.054339305 0.051527824 -0.02821635 0.112148665 -0.17522176 -0.018090019 -0.06730475 -0.017101366 0.10931024 -0.049307935 -0.17375231 -0.16522737 -0.17696676 -0.1935444 -0.10004616
686 0.09213593 -0.046457864 0.023297563 -0.03619967 -0.047016848 0.0975105 0.044093747 -0.1636561 -0.05416902 -0.0655072 0.040478185 0.2083677 -0.085850425 0.015778048 0.07481435 0.056726452 -0.038539696 -0.11537126 -0.14667115 -0.042776752 -0.1523737 0.2025876 -0.036598995 0.081567846 -0.071463704 0.14645945 -0.023209607 0.15341058 -0.012125496 0.077297054 0.14723241 0.034633767 -0.031356703 -0.082721874 0.21177036 -0.08182243 -0.05515504 -0.0004945724 0.11221524 -0.16741483 -0.05491107 -0.057986394 -0.075840704 -0.07454144 -0.13386184 0.007137709 0.10630797 0.21396014 0.047044735 -0.07793014 -0.055203576 -0.27708226 -0.09792005 -0.017419817 -0.017809348 -0.10866242 -0.010326877 -0.040700626 -0.14125644 -0.03797208 -0.1031533 0.11092896 -0.129258 0.064880714 -0.15073329 0.14699063 0.2141929 0.21111631 -0.08004403 0.017086921 -0.15230465 -0.110400125 0.017180754 -0.044847555 -0.09654466 -0.0031977247 0.05044608 -0.11247792 0.16755025 -0.08897266 -0.057812825 -0.26159263 0.049536467 -0.13878576 -0.06253949 -0.030062787 0.1695783 0.05074688 -0.13008866 -0.0846979 0.051694933 0.024820952 -0.032677833 0.19840772 0.21984398 -0.056741513 0.037277814 0.0383454 -0.00025581164 0.015787996 0.04385629 -0.074532606 0.083927825 -0.0835629 0.08300295 0.11788708 0.15021461 0.04330807 0.05195543 -0.10404569 0.17409006 -0.18552044 0.05223416 -8.75397e-06 -0.19806543 0.038460396 0.06604714 0.022062544 0.0028455148 0.09232998 0.0035771322 0.13975412 -0.12915576 -0.00131909 0.020055946 0.0064954534 0.022766797 -0.021717088
2464 -0.19794214 -0.4694159 0.07793494 0.31695947 0.08342397 -0.124266334 -0.0349426 0.32599053 -0.43048254 -0.3098335 0.26854023 -0.016235968 0.042502303 0.012688133 0.054547492 -0.16411963 -0.28651276 0.11183559 -0.20309037 0.32449043 -0.043821607 0.03342968 -0.09614915 -0.12392829 -0.03652812 0.07377891 0.051759265 0.108620204 0.3222096 -0.22556703 0.016620476 -0.36010104 -0.09359089 -0.14164758 0.092660286 0.37251115 -0.021722322 -0.54268765 -0.55149907 -0.11504451 -0.40639973 -0.14797917 -0.05648895 0.0896898 -0.051648647 -0.22494112 0.33756936 0.022332797 -0.14876993 0.071693376 -0.028431019 0.14688942 -0.46278292 -0.11121331 0.08230813 -0.61511016 -0.05612976 0.24393797 -0.0342191 -0.070465006 -0.3904421 0.12043899 -0.4726425 -0.09188 -0.1629008 -0.10173593 0.21284743 -0.0009273712 0.029158082 -0.005340197 -0.25115928 -0.1369409 -0.3602722 -0.3629841 -0.38842222 -0.027164191 -0.00987915 -0.054213893 0.444877 -0.19255783 -0.09662455 -0.2149911 0.31646872 0.16686487 -0.32531455 -0.45960948 -0.06295923 -0.26568902 -0.3041536 0.053325158 -0.41587293 0.24155788 -0.26809675 0.3430587 -0.1434973 0.2599147 -0.30251613 -0.21990897 -0.58383495 0.12985317 0.21546166 -0.026796136 0.06461128 -0.09314356 0.22062126 -0.46287897 0.15227482 -0.29598632 0.22246401 -0.035244714 0.54985106 -0.106396854 -0.10971073 -0.0826599 -0.337179 0.06790267 0.07139957 -0.68509895 -0.15126802 -0.3126587 0.0059286244 0.34999081 0.2999472 -0.2923337 0.056562115 -0.252346 -0.32949355 0.29732677
2431 -0.063245066 0.0012629805 -0.00046804643 -0.008296004 0.1664318 0.047999166 -0.11069702 -0.032464243 -0.13367502 -0.16684014 0.080028005 0.049639277 -0.26546028 0.0018024299 0.3833295 -0.087995 0.166294 0.020226214 -0.037592243 0.02911974 0.03692696 0.38368142 0.2115931 -0.26523066 -0.22956555 -0.046618823 0.4168466 0.37228954 0.12915832 0.12043832 0.16012111 -0.07700262 -0.32987732 -0.16022812 0.04211302 0.11837035 0.21112329 -0.07810145 -0.25015828 -0.045134563 -0.30529374 -0.24027917 0.10020581 0.03854583 -0.048765756 0.08911409 -0.12278316 0.08489962 0.06104911 -0.16601487 0.050689798 0.07244484 -0.01683504 0.03886057 0.07326522 -0.2563255 0.18164217 -0.11663906 -0.09857926 -0.054771226 -0.37482995 0.049254984 0.13651186 -0.27725807 -0.13382955 -0.02419702 -0.10819833 0.18263415 -0.1566389 -0.143249 -0.1782469 0.012001349 0.28299907 0.027481189 -0.01884699 -0.13317566 -0.08285674 -0.026412347 -0.17482051 -0.10412332 0.10191303 -0.2760397 -0.102842905 0.1964079 -0.029087426 0.35313722 0.016400365 -0.06530369 -0.13770567 -0.039986715 -0.05267283 0.18496418 0.03909704 -0.017688233 0.22243468 -0.29572055 0.27048856 -0.122714005 0.10683087 -0.008171032 -0.15399003 -0.2150086 0.111768655 0.10814955 0.0743797 0.11910983 -0.04484014 -0.1519174 0.13598788 -0.06269922 0.05107538 -0.15954818 0.2708398 0.07014277 -0.16445191 -0.064619265 0.15458801 -0.3563695 -0.18922211 0.06662136 -0.17476152 -0.22124599 -0.18374531 -0.06629695 -0.0028227472 -0.20896819 -0.07997464 -0.10145362
36 0.02297187 -0.041426145 0.22172502 0.08444369 0.23247574 0.12839599 -0.17501417 -0.11815885 -0.19078185 -0.04315108 -0.20958348 0.19129594 0.015288159 -0.021080831 -0.0024701657 -0.09623819 -0.045691386 -0.0899749 -0.09362985 0.05547572 -0.06711533 -0.009065661 -0.35285082 0.046203148 -0.10154206 -0.11894229 -0.032173548 0.36206147 -0.10175769 0.07112269 0.09834308 0.047924347 -0.19598877 -0.0049032723 -0.036100656 -0.04164938 0.25461844 0.099633284 -0.16500066 -0.21169929 0.13338365 -0.051054146 0.09298272 0.038578637 -0.17611858 0.27569047 0.37448543 0.05946949 -0.17612077 0.10455991 0.21269792 -0.2066525 0.016919177 0.056151688 -0.041469872 -0.03127842 0.15311831 -0.10630416 0.098087996 0.10450036 -0.052254632 0.048105944 0.1872777 0.010052916 0.090089925 -0.1513208 -0.10264495 0.14586507 0.20511918 0.04285837 -0.006350485 -0.08852058 -0.13531248 0.16354915 -0.0095308395 -0.026462171 0.25412783 -0.16747427 -0.08867678 -0.24842496 0.020662978 -0.100118704 0.1401709 0.15791263 0.07231147 -0.059149846 0.3151135 0.07157059 -0.15286061 0.010806165 -0.004663376 0.21923691 -0.21901459 -0.013348387 0.15425609 0.13594444 0.12168405 0.011484757 -0.111469604 0.0030067523 -0.13485236 -0.07250356 0.050441884 -0.011181507 0.038266655 -0.14894614 -0.29068282 -0.102996305 -0.20684357 -0.29185107 0.048731543 0.004548826 0.010992391 0.17000102 -0.18788569 -0.016859438 -0.16877615 0.06438861 -0.26856914 0.03708295 0.025769284 0.45607764 0.07369714 -0.18721597 -0.105375595 -0.10476684 -0.1842441 0.023017576
249 0.02143878 -0.07289517 0.20710033 0.13733794 0.2505518 0.10420974 -0.12048143 -0.20017348 -0.19889386 -0.042789843 -0.21604928 0.27304518 0.044072468 -0.054992218 -0.021030838 -0.1050782 -0.11566742 -0.117127776 -0.044334922 0.09506162 -0.11476386 -0.023182373 -0.33127525 0.020271879 -0.094063886 -0.1774089 -0.001739165 0.33152226 -0.11840754 0.06582499 0.1296915 0.047211464 -0.2054937 0.035877336 -0.049463883 -0.06812954 0.22226314 0.06751284 -0.17912391 -0.18834151 0.06399317 -0.04917237 0.0693971 0.03565245 -0.07760446 0.26817966 0.35998362 0.07031138 -0.2637163 0.17398863 0.1664698 -0.21217191 0.07765344 -0.005746203 -0.13776933 -0.013307168 0.14870995 -0.13159618 0.10438914 0.03236961 -0.046497803 0.09784291 0.17693208 -0.001673082 0.040922724 -0.13433309 -0.17762883 0.12792887 0.27463323 -0.02987879 -0.03137405 0.019113036 -0.088069946 0.08585804 -0.040697575 0.01105231 0.24755931 -0.1727039 -0.06371047 -0.24154866 0.11780185 -0.12526928 0.0706444 0.10294043 -0.014296527 -0.10303912 0.2705378 0.08812324 -0.045448467 0.010096199 -0.05826748 0.17076579 -0.27223969 -0.030135166 0.10226732 0.115945205 0.17871433 0.08741293 -0.119616166 -0.015701707 -0.05398634 -0.070800394 0.085790716 0.1277975 0.022527047 -0.13911809 -0.18830849 -0.13051878 -0.19227415 -0.33202925 -0.04090879 0.07414281 0.06617847 0.16786799 -0.15847589 -0.06361527 -0.18205503 0.020034986 -0.32003772 0.07913183 -0.07289848 0.46691155 0.06725044 -0.1563992 -0.13053699 -0.14818409 -0.15368451 0.07275351
236 -0.012482915 0.0065791453 0.2348917 0.14323023 0.20910531 0.12691373 -0.13523991 -0.07817623 -0.20543158 -0.049599472 -0.22602715 0.1421602 0.002594423 -0.0072612106 0.034691904 -0.06704341 -0.05952142 -0.12840955 -0.0031650204 0.048743334 -0.12789096 0.011392497 -0.3766174 0.019188646 -0.06967231 -0.10836787 -0.016405445 0.35943124 -0.050479494 0.02248767 0.11887265 0.047411077 -0.24857742 0.024439866 -0.03470104 -0.0068768845 0.22527193 0.087893225 -0.16506986 -0.16454239 0.155164 -0.089900956 0.08135023 -0.034757864 -0.019477626 0.18882427 0.39361912 0.0748683 -0.25285503 0.12004068 0.15182975 -0.24126942 0.02662563 0.06397523 -0.1285814 -0.017518416 0.077155754 -0.10626774 0.1790498 0.032484993 -0.03181086 0.07085223 0.23239098 -0.023909552 0.084769994 -0.18807735 -0.12700647 0.17794037 0.17278083 0.048396286 -0.014750465 -0.035778873 -0.117374994 0.15912463 0.008248402 -0.00018450362 0.24848057 -0.14648595 -0.080612935 -0.27481383 0.05550163 -0.1230158 0.16077101 0.12839675 0.09491775 -0.060789943 0.3483623 0.024342049 -0.07000549 0.020184109 -0.053874426 0.20819435 -0.22859709 0.01674229 0.1500977 0.1188142 0.15212417 0.030698545 -0.16959167 0.02129914 -0.044623323 -0.0670829 0.11094447 0.091857255 -0.02709598 -0.09715878 -0.24205714 -0.13805921 -0.21267888 -0.36792526 0.02453732 -0.023402624 0.017078662 0.14080942 -0.19889437 -0.04350713 -0.1337736 0.05800532 -0.32003725 0.112663254 -0.023429668 0.37762806 0.011647755 -0.20031781 -0.10999332 -0.17581028 -0.19560075 0.12619029
88 0.007029018 -0.079737626 0.19111413 0.095579326 0.22017968 0.115612514 -0.11091268 -0.097004846 -0.20217226 0.014815433 -0.19011846 0.2123566 0.010134713 -0.047763832 0.029415527 -0.11460961 -0.060788535 -0.17475908 -0.0521275 0.09924206 -0.058316678 0.031477008 -0.40525547 0.03921707 -0.1291471 -0.13834655 -0.0037580498 0.34275714 -0.060676765 0.029398054 0.115511514 0.04591159 -0.24205576 -0.06707786 -0.012122034 -0.04946446 0.1777534 0.097509325 -0.066358946 -0.13293947 0.062139653 -0.060276497 0.09857305 0.025596144 -0.08523471 0.22212379 0.40431127 0.13776018 -0.24808548 0.23234126 0.17144452 -0.19759123 0.029567031 0.06815025 -0.05074532 0.012354486 0.15544452 -0.11700564 0.13901426 0.011222868 -0.052918125 0.052479915 0.1939429 0.03705171 0.13167252 -0.11417805 -0.14825489 0.20090844 0.24854209 0.060544245 -0.019404763 -0.016759187 -0.057424795 0.13450104 0.050333377 0.04013388 0.21587536 -0.14434172 -0.0028657457 -0.18009001 0.06352234 -0.051703915 0.104900815 0.19525999 0.06358585 -0.13047108 0.2783419 0.10099081 -0.053096194 0.007810087 -0.08516431 0.20988709 -0.23484676 0.014717894 0.14950454 0.12519301 0.13617013 0.046421327 -0.11188959 0.046554573 -0.08144588 -0.07028253 0.15820391 0.12852068 0.06538127 -0.10922285 -0.21421127 -0.1298253 -0.20276324 -0.38859078 0.07060099 0.004505018 0.011763835 0.13374673 -0.1683745 -0.045841098 -0.15883964 0.10241323 -0.31227058 0.063151576 -0.03915222 0.40549892 0.040804867 -0.20117599 -0.18511836 -0.21178307 -0.22696461 0.11584742
250 0.049352586 -0.08092722 0.21813688 0.07664401 0.2446467 0.060224425 -0.12168341 -0.119405456 -0.13635902 -0.040201485 -0.24399775 0.21395749 0.0318421 -0.044341262 0.043735933 -0.11195252 -0.13849951 -0.12792835 0.01099278 0.035054497 -0.14633101 -0.01576026 -0.33503053 -0.019417869 -0.10625477 -0.17431381 0.0065032383 0.3719605 -0.10571979 0.06558077 0.13449298 0.1535643 -0.22312209 -0.013090623 -0.08269826 -0.032567058 0.24747774 0.02375875 -0.1733191 -0.23470436 0.08942907 -0.055295676 0.054449763 -0.00050572626 -0.10322362 0.31008375 0.40388858 0.08152351 -0.23957635 0.12542687 0.16220026 -0.20857038 0.10864917 0.08507498 -0.13264197 -0.045599602 0.23101938 -0.11120463 0.10084057 0.035876077 -0.042155538 0.07263848 0.19370309 0.00981811 0.009227551 -0.082395785 -0.075346895 0.15990537 0.2602561 0.08152526 -0.037701048 0.02026405 -0.095058985 0.016166203 -0.04919472 0.075917415 0.24523002 -0.14822458 -0.13315825 -0.26736414 0.039987072 -0.08331457 0.12552314 0.18497004 0.05306016 -0.12466395 0.26660517 0.06734287 -0.08860998 -0.010844458 -0.040854163 0.18718316 -0.29068625 0.013472698 0.1112 0.13261406 0.07950812 0.021940459 -0.10666864 0.026468528 -0.14042968 -0.07086794 0.100759245 0.033453297 0.052814666 -0.08058848 -0.24340148 -0.09890842 -0.18513282 -0.37835822 -0.0024256224 0.07487085 0.04576804 0.15240726 -0.21607956 -0.08452717 -0.1828877 0.082007 -0.29117966 0.078360245 -0.0062321853 0.43990314 -0.00854156 -0.12366338 -0.1410409 -0.11333208 -0.1906322 0.13017885
2482 -0.052341778 0.072427616 0.047565874 -0.014133002 0.37172392 -0.039326645 0.28506276 0.11267012 -0.37916467 -0.46451727 -0.14986835 -0.018039448 -0.27803916 -0.054594073 -0.20087564 0.050761413 0.023627436 -0.010702175 -0.13149942 -0.11232329 -0.18564372 0.09815629 -0.25898787 -0.042495117 0.17136875 -0.18242304 0.1665166 0.15015629 -0.042678624 0.047686674 0.114780165 0.069344446 -0.16170867 -0.41289532 0.33816585 0.07769244 -0.19648027 -0.25180575 -0.35599747 0.017683234 -0.35984594 -0.2820749 0.32836127 0.03774915 0.036898315 -0.040717725 -0.1548701 0.007680118 -0.1784526 0.037578512 -0.15828668 -0.14470018 -0.04943773 -0.10308239 0.27970663 0.033692386 0.093234904 -0.4173244 -0.3287667 -0.26268452 -0.15977247 0.36653984 -0.0579702 0.057350658 -0.31030497 -0.15845215 0.28594002 0.26938206 -0.004276009 0.03420815 -0.35748127 0.018382145 -0.16906413 0.051872842 -0.009649273 -0.15956777 -0.20655923 -0.20286608 -0.3623033 0.13192444 0.05310314 -0.03204359 -0.19925335 -0.16023692 -0.06415667 0.16104226 0.2448494 0.08172999 -0.14060159 -0.07979532 0.09138279 -0.0024999778 -0.26509902 -0.02978539 -0.091592 -0.38506344 -0.17121476 -0.017154705 -0.14966178 0.08731276 0.23226725 0.16253342 0.24587853 -0.1684361 -0.11680987 0.07991305 -0.034180436 0.19653009 -0.023243476 0.089511275 -0.04155212 -0.2827542 0.06116902 -0.07707658 0.08439963 -0.081931405 -0.005912201 -0.2571563 0.09403494 -0.059617467 0.07929187 0.42158777 -0.16350101 -0.35819653 0.3406955 -0.13217977 -0.20855373 0.035148147
195 0.01646365 -0.035401966 0.1934807 0.086902425 0.18236086 0.07753239 -0.11272368 -0.16914827 -0.2124222 -0.05213857 -0.19972688 0.20163968 0.012533733 0.016220743 0.033477135 -0.14956628 -0.09302074 -0.16861469 -0.050733306 0.041694157 -0.09565576 0.011852114 -0.37395772 0.026414746 -0.1550771 -0.14321472 -0.009022136 0.4288811 -0.06377237 0.09617632 0.07573295 0.048310723 -0.17600423 0.032565586 -0.036459617 -0.059574403 0.263206 0.09000288 -0.11240929 -0.21465 0.11880417 -0.072464034 0.06954238 -0.025444178 -0.08945409 0.25244188 0.3825411 0.12838784 -0.26797602 0.15146533 0.1566847 -0.23745602 -0.00078023615 0.064875506 -0.056403257 -0.03806516 0.22412175 -0.11062744 0.11792632 0.06885706 -0.09633356 0.044409648 0.17737366 -0.011311455 0.10932116 -0.15524329 -0.12490559 0.13196641 0.23157328 0.021260034 0.0031914834 -0.06397004 -0.12447215 0.12061566 -0.065259755 0.084784694 0.2129088 -0.1328521 -0.07912573 -0.1708887 0.09428398 -0.09992272 0.12685171 0.10542391 0.112842955 -0.10710928 0.31701288 0.07553746 -0.17481041 0.07080692 -0.05357034 0.21585104 -0.25105298 -0.027489921 0.13605164 0.13508014 0.14690311 0.031438194 -0.1510192 0.060844414 -0.100256026 -0.077685066 0.07677109 0.10329136 0.046106383 -0.045484714 -0.22149563 -0.118714355 -0.17555943 -0.33814994 0.04540738 0.06489251 0.037793025 0.11421132 -0.15712315 -0.050553113 -0.15878183 0.05456658 -0.3236858 0.03612138 0.027848799 0.40275124 0.081008546 -0.19173548 -0.13049789 -0.15523441 -0.21662903 0.044955276
2499 -0.021923648 -0.020016402 -0.10272622 0.13871436 0.27851743 -0.07013358 -0.010120184 0.108968295 -0.058907337 0.034745988 -0.046416212 0.20591508 0.19860844 0.10757791 -0.0683218 -0.045518633 -0.014392822 -0.18779762 -0.09852556 0.09096694 -0.2171668 0.15441626 -0.16446753 -0.0932719 -0.17647974 -0.24018742 0.04539656 -0.038120862 0.349871 -0.13707468 -0.09052698 0.3298715 -0.20563255 -0.15526848 0.3794084 -0.17898525 0.31422043 0.15181829 -0.12716962 0.11002416 0.0092732 -0.06750228 0.16578357 0.22150582 -0.13927333 0.14583105 -0.042066075 -0.035261862 -0.015429054 -0.20001984 0.10839836 0.0009579733 -0.13234474 -0.10394356 0.049096696 -0.058757093 0.094709754 0.18461347 -0.106220305 0.067083 -0.20577066 0.23213989 -0.1482736 -0.18370363 -0.17356904 -0.05214665 0.020615112 0.10777619 -0.29922134 -0.05748909 -0.066821225 -0.22257592 0.0041276836 0.29026 -0.15878676 0.15477659 -0.049539037 0.030841602 0.2497616 -0.0012308593 -0.0544525 0.0231739 0.07645256 -0.17320031 -0.07859241 0.078386076 0.10874543 0.06322799 0.06041601 -0.36565015 0.23091699 0.12882105 -0.13046585 -0.2883577 0.22826287 -0.031187858 0.3073869 0.14192392 -0.18463244 0.10435718 -0.14850669 -0.17288241 0.26171967 0.18346563 0.25447136 -0.072140425 0.30807936 0.05334565 -0.14016588 -0.12007398 0.09931463 -0.2162741 0.121044226 -0.0945188 0.22637531 0.20414515 0.03309919 0.022459585 -0.051140174 -0.08925581 0.12390698 0.033249855 -0.08083671 -0.12836097 0.088781536 -0.28482118 -0.19413929 0.2607203
2617 0.042410325 -0.098316506 -0.07974908 0.21547292 0.17694534 0.030417584 0.16935293 -0.23115394 -0.16529848 -0.12751582 -0.22160733 0.12561634 -0.0016584697 -0.20725428 -0.03964969 -0.1725322 -0.08671602 -0.0040646875 0.012053858 -0.115085945 0.095466025 -0.012136385 -0.024307037 -0.11077034 -0.14904822 -0.107342765 0.14418808 -0.09580433 -0.16304235 -0.25071257 0.39058968 -0.03971116 -0.0019652804 -0.060255654 0.17916904 -0.016770251 -0.04982733 -0.08842487 -0.37345243 -0.14254223 -0.06418271 -0.19071491 -0.004404851 -0.0035403043 -0.32173878 0.1307857 0.14319144 0.20915808 0.0014415506 -0.16192782 0.037729222 0.053039268 0.016070133 -0.1326465 0.013494508 0.0539053 -0.06963865 -0.017529503 -0.2298286 -0.038119618 -0.37721807 0.14911453 -0.107752144 0.01872926 -0.16470057 -0.30949023 0.09987115 0.03853974 -0.16126713 -0.17484787 -0.16900682 0.03247588 0.004328503 0.02410403 -0.110206045 0.31604987 0.009309297 -0.089722835 -0.025868628 -0.06560212 -0.1619912 -0.06126453 -0.039765578 0.14039949 -0.15079108 -0.0694178 0.3021025 0.3257361 0.012705021 0.14695068 -0.18729751 0.116231695 0.11739229 -0.036947932 -0.122025706 -0.21852735 0.18627359 0.23275769 0.15759495 -0.11354915 -0.17994879 -0.2282454 0.04954793 0.1914198 0.120869644 -0.07827733 0.2595462 -0.11192573 -0.0032400773 -0.14144234 0.19643816 -0.13305464 0.10688268 0.08266858 -0.11054091 -0.05711524 -0.019168532 0.06419572 0.20717561 -0.07417319 -0.18231156 0.0212746 -0.2778175 -0.25962713 -0.23436701 -0.028685842 0.004423968 0.04008429
849 0.331415 -0.055527676 -0.0634915 0.19732507 0.13258249 -0.054365348 -0.16794427 -0.13406806 -0.14961489 -0.15174794 -0.16140842 0.071240135 0.19116883 -0.22260594 0.110195875 -0.060501155 -0.08998838 0.12384041 -0.08900425 0.029206157 -0.0808863 0.2548403 -0.20363896 0.074627236 -0.071115114 0.1304431 0.21354063 0.049833532 -0.0054826313 0.1507434 0.17406021 0.1828789 -0.02032199 -0.17502503 0.042582765 0.13103677 0.016336175 0.0120152 0.10683938 0.28852412 -0.11209876 -0.013944391 0.08051775 0.099173166 0.019944848 -0.05230237 0.053321127 0.10981331 0.037238292 0.0006020068 -0.025183965 -0.24464647 0.0026407528 -0.082398914 0.09219633 -0.009502817 0.018507618 -0.14829275 -0.110470735 -0.04601786 -0.38534987 -0.068040706 -0.10862189 0.1233276 -0.1082333 0.013800181 -0.1587555 0.08615331 -0.29878086 0.023302501 -0.29350162 -0.11304917 -0.070685536 0.1485827 -0.14551032 -0.0800075 -0.09897106 -0.058780413 0.3504076 -0.026809374 0.104886785 -0.015993744 0.22517343 -0.21890636 -0.26717058 -0.06608487 0.02964271 0.07139657 0.013356655 0.07264946 0.018894795 -0.03197597 -0.012744438 -0.023071816 0.15779485 -0.05018961 -0.14104922 0.08046129 0.1550717 0.16316144 0.010309623 0.112095125 0.06687899 -0.1028216 -0.011474628 0.006991771 -0.25442827 -0.04481075 -0.1077199 -0.080192596 0.24572442 -0.06593665 -0.12785146 -0.1138643 -0.1234458 0.16136333 0.1593424 -0.21228355 -0.31029558 -0.038764566 0.051288314 0.15165175 -0.08754076 -0.1277634 -0.033897307 -0.11766517 -0.023627017 0.023632241
2430 0.09298784 0.017479936 -0.11066917 0.18818107 0.088621214 0.13688742 -0.053775664 0.012960981 0.020449689 -0.26759297 0.006682173 -0.022286803 -0.15156983 -0.0048000095 0.07699524 -0.25734478 -0.07199397 -0.09398119 -0.04876621 0.2254882 0.05748212 0.20434056 -0.0058174147 0.12953179 0.0040543834 -0.07968364 0.15548712 -0.046862893 -0.01012334 0.18376069 0.010379982 0.042269424 -0.056400366 -0.31896225 0.23935199 0.0045112846 0.1964184 -0.053372685 -0.22656551 -0.0061556273 0.12904964 0.0065037087 0.14304128 -0.18976294 -0.13126491 0.043707605 0.019583901 0.0593605 0.0016976759 -0.26072598 0.0019503108 0.13442978 -0.06091015 0.22231618 -0.023688914 0.024209136 0.05245854 -0.24810952 -0.3306957 -0.1179267 -0.3434293 0.15929417 0.16336012 -0.006067477 -0.2508825 0.08002148 0.07587347 0.03907498 -0.105254054 -0.05605523 -0.06976544 0.006012976 -0.07145297 0.1601623 -0.08140084 0.22794905 0.034326825 0.04843292 0.19619326 -0.087548375 0.028421933 0.16128969 0.08679129 -0.049522374 -0.03842921 -0.26404965 0.18480852 0.07192028 -0.012636086 -0.18953355 -0.052992206 0.21791501 -0.2664442 -0.052595153 0.021314252 0.08276661 0.12656671 -0.27172545 0.04908552 -0.16581273 -0.22537845 -0.22732763 0.17722201 -0.02252157 -0.020942973 0.09362479 -0.13093905 -0.064987995 -0.16342168 -0.22167985 -0.018529752 -0.38826227 0.22371654 -0.09367868 -0.048141435 0.22673005 0.14787278 0.034054615 0.12398835 -0.2388224 0.047649257 -0.047014225 -0.19970797 0.094278015 -0.11336065 -0.06626043 -0.1278731 -0.0060827867
881 -0.0044195144 -0.22736034 0.028919484 0.054619834 -0.06973493 -0.013942151 -0.038076255 -0.02547384 0.06629256 -0.104176514 0.025496919 0.25714788 -0.06209999 -0.17206012 0.08349822 0.13381502 -0.025801305 -0.008909002 0.02432791 0.042629562 -0.013992365 0.03797659 -0.0438413 0.039889097 -0.08851868 0.08682268 -0.01451448 -0.04270359 0.1869702 0.04797096 0.05211028 0.17690581 -0.037267637 -0.21710259 0.11974261 -0.12470069 -0.06753157 0.0150331035 -0.10720412 -0.0567535 -0.07389328 -0.046121348 0.020732287 -0.029124552 -0.032331802 -0.024884954 0.17539066 0.1432529 -0.08531454 -0.07053195 -0.1573168 -0.08212749 -0.13398841 -0.11704089 0.12643275 0.0044512027 -0.01905347 -0.015505181 0.03959624 -0.28302398 -0.11538635 -0.040029462 -0.13383158 0.014232783 -0.17168544 -0.013516427 -0.07207609 0.23620075 -0.011227162 -0.009882273 -0.24531688 -0.0066697234 -0.015532421 0.08166253 -0.06988471 -0.025496416 -0.18551219 -0.1982932 0.090263136 -0.16301368 -0.019252673 -0.20879614 0.14888623 -0.09240588 -0.24975184 -0.056609966 0.057500824 0.14002094 0.119759776 0.003670187 0.33389714 0.047920052 0.120129004 -0.03231641 0.07649131 0.08690615 0.08921441 -0.097121656 0.11786151 0.26109898 -0.13698518 -0.07106174 0.12356176 0.005599239 0.10383434 0.0060713235 0.09688425 -0.15510151 0.06384049 -0.28622538 0.10306275 -0.21408626 0.037768576 0.019595537 -0.0060463212 0.02518261 0.05822057 -0.02084564 -0.20770654 0.06946338 -0.0068667894 0.2508002 -0.114381425 -0.1350664 0.06880292 0.056971148 -0.113975964 -0.12549627
2593 0.4524183 -0.08565344 -0.1691116 0.16013251 0.3724211 -0.029584551 0.2607203 -0.11289488 0.17891087 -0.049171425 0.1518696 -0.0939646 0.164879 0.09918691 -0.057123527 0.05549767 0.053245742 -0.076738976 -0.073930055 0.020794053 0.074419074 0.0029575566 -0.11547082 -0.16295226 -0.14804764 -0.16374917 0.2509156 0.1976018 -0.25844175 0.06282359 0.34154472 0.07953005 -0.09888379 -0.23532075 0.0039797793 0.00294663 0.085805506 0.09412773 -0.11620133 -0.31954536 0.021529006 -0.035651248 -0.048517548 -0.08004215 -0.23138207 -0.063215055 0.14056535 -0.05431502 -0.045736533 -0.09595535 -0.19060676 -0.036778364 -0.20215526 0.04246263 0.13297857 0.027953701 -0.09953589 -0.10769765 -0.14089316 -0.032201115 -0.24262926 0.02878307 -0.15137105 0.058133673 -0.3547068 0.047924414 0.10439368 0.15775925 0.14609249 -0.0014798385 -0.19808131 -0.021643845 0.06580641 -0.07575293 -0.20719329 -0.05325156 0.18453588 0.0075637223 0.1414163 0.13098112 0.15853634 -0.039194044 0.0940823 -0.077285305 -0.009507471 -0.31371766 0.17726922 0.13020577 -0.30949548 0.005983018 -0.09773054 0.24249808 -0.05673248 -0.07229342 0.08853987 0.092380606 0.028607164 -0.051447086 0.03295972 -0.33043307 0.07787327 -0.27079746 0.21726131 0.020086497 -0.099988714 -0.11092015 0.23484689 -0.109732315 -0.1885234 -0.2403151 -0.028984709 -0.10359559 0.4044138 0.022774164 0.24130891 0.038422674 -0.03852984 -0.23701622 -0.052339356 0.05159166 -0.059110872 -0.12468351 -0.37818414 -0.2982311 -0.17610636 -0.02366113 -0.085551344 0.08644224
2614 0.26309744 0.18841588 -0.03217494 0.18840367 0.2646102 0.13952428 -0.012256112 -0.10217101 -0.11654874 0.11446552 -0.08626572 0.05516883 0.27690312 0.09640653 0.15156987 -0.06594032 0.015614624 0.10923408 -0.045189913 -0.008999995 -0.024434984 0.21054052 0.22089164 -0.15873565 0.030940201 0.12938784 0.10905001 -0.006014153 0.17144956 -0.110848 0.36897257 0.17633492 -0.34035712 0.0509276 0.035547383 0.15958975 0.2221676 -0.20618181 -0.14833122 0.12860323 -0.013731492 -0.0022727887 0.23677067 -0.12517604 -0.09974356 -0.044545695 -0.041480556 -0.08471694 0.07909793 -0.24988513 -0.16385765 -0.13112693 -0.10702747 0.09344277 -0.033397958 -0.18953161 0.069411725 -0.41772062 -0.3288975 -0.09188258 0.065403335 0.26585448 -0.19452775 -0.024790196 -0.3295758 -0.0022152152 -0.15606637 -0.060691684 -0.05734677 0.1542875 -0.022290254 -0.15283312 -0.24932764 0.13948776 -0.1276368 0.08118386 -0.12129556 -0.10815105 0.0063880933 0.018312717 -0.09495853 -0.24717323 -0.0562178 -0.05890439 0.0893594 0.08076565 -0.021664938 0.22274332 -0.3918832 -0.00068377564 0.06480497 0.2351517 0.006394142 -0.10822837 -0.029016502 -0.06977202 -0.04365807 -0.0813326 0.19715723 -0.05813625 -0.25380775 0.009461437 0.06331791 -0.2038323 0.15140456 -0.22667234 0.16429158 -0.20458949 -0.20744856 -0.20784795 0.34158888 -0.22879921 0.23468643 0.10381523 -0.26195192 0.18393186 0.20222573 0.15200217 0.111072 0.16103064 -0.31773797 0.23457927 -0.31031123 -0.16089983 -0.113505185 0.084879644 -0.40230742 0.18688105
2511 -0.071689084 -0.13077837 -0.049559046 0.3239063 0.15041141 0.20238099 -0.0049549495 0.03817202 -0.44349056 -0.05955746 0.030708207 0.1461749 0.022051387 0.19306627 -0.11199045 -0.1284537 -0.0069492836 -0.026129154 -0.07693611 0.17812872 0.15750556 0.17046925 -0.17218523 -0.01754085 -0.04432628 -0.26582563 0.027768437 -0.050320514 0.1293645 0.064127795 0.060337253 -0.15561146 -0.14872149 -0.09376926 0.113928266 -0.20837933 0.27820617 -0.03938247 0.017166879 -0.06490249 0.08592067 -0.042690933 0.24357308 -0.03764968 -0.27110705 -0.060621087 -0.12811735 -0.029531347 0.002659677 -0.08718551 -0.15386337 -0.082929365 0.008139667 -0.05251179 0.1708361 0.01436032 0.1404662 0.037984133 -0.20032848 -0.02555384 -0.21982537 0.07731616 -0.12526703 0.11826943 -0.11036142 -0.05484582 -0.046822816 0.016198091 -0.2088434 0.018285593 -0.19646575 -0.0095510585 0.041468687 0.16723587 -0.013975878 0.06384612 0.0590361 0.15807489 0.11596595 -0.15242437 -0.048058163 0.1594476 0.027819272 -0.057175178 -0.044769164 0.021060182 0.30675918 -0.026792064 -0.1306953 -0.0002449416 -0.0011481851 0.21465254 -0.23437655 -0.04554032 0.116309844 -0.3184566 0.1275272 0.13074589 0.13000675 0.007948006 -0.2705161 -0.22251344 0.06279519 -0.023792678 -0.15785132 -0.08679332 0.18181624 -0.04719578 0.052155036 0.23608045 0.1403881 -0.3568085 0.16586968 0.12683949 -0.08941711 -0.039874487 0.13169175 -0.01853102 -0.023955375 -0.10446151 -0.016090488 0.1357103 -0.27324626 -0.27946788 0.00032653322 0.06704944 0.006755047 -0.15486246
2596 0.22130895 -0.022551646 -0.001138638 -0.060487203 -0.017056191 0.025845569 0.05601768 0.0180524 -0.06761142 -0.105127074 -0.21825218 0.04564931 0.09080517 -0.19635487 0.07410087 -0.11379218 -0.013172479 -0.077627584 -0.20563751 -0.11554635 0.060520157 0.052519917 0.117147356 -0.2606338 -0.06366247 -0.086471386 0.17991231 0.004125415 -0.10718182 0.19266239 0.31569004 -0.22637425 -0.09116354 0.006254011 0.14802931 -0.09345711 0.24875847 0.11251418 -0.24668992 -0.064300336 -0.067544445 -0.0012279244 0.01430527 -0.031510327 -0.26136458 -0.019856779 -0.13555495 0.15672193 -0.09996902 -0.1085222 0.020238735 -0.04133865 -0.024129504 0.1317958 -0.13116778 -0.34360826 -0.11564555 -0.28008878 -0.32847974 -0.17810771 -0.36104968 0.15153745 -0.29726672 0.17623912 -0.3496712 -0.05688853 0.09941547 0.09212892 -0.005696723 -0.022688085 -0.32487953 0.004635476 0.14793713 -0.07768814 -0.020367645 -0.04406175 -0.141192 -0.12250609 0.1784647 0.08402754 0.07227558 -0.012101055 -0.024848035 0.19131714 0.101445675 -0.012565666 0.110954225 -0.24813308 0.024854876 -0.044179134 -0.00678666 0.09164341 -0.35206875 -0.03361062 -0.016550584 0.07990771 -0.1255476 0.07469255 0.09506757 -0.26179892 0.09659552 -0.25552025 0.04117143 0.17551023 -0.07172706 0.06698194 0.0586356 0.058064513 -0.17675757 -0.080300465 0.006049289 -0.21111993 0.36444762 0.03444451 -0.073531 0.10105464 -0.009944153 0.043202896 0.03775593 -0.011484671 -0.07911119 0.23582481 -0.020530576 0.21255682 -0.062004715 -0.11985595 0.026753176 0.054071467
2508 -0.0986115 0.12202666 0.01952624 0.15466489 0.09588439 0.15738302 -0.03182118 0.055519603 -0.1291506 -0.10225019 -0.15462674 0.15343723 0.014290679 -0.2324553 0.20113824 -0.29533955 0.33523712 0.20717463 -0.43755352 0.23774883 0.10549621 0.16545956 -0.26935685 -0.2606255 0.14781168 -0.094976105 0.073185824 0.26105052 -0.3575116 -0.07339678 0.27320132 -0.13773233 -0.075514495 -0.053506296 0.13316782 -0.08062024 0.18440597 0.07389362 -0.1636436 0.13463597 0.062053617 -0.19273625 0.24948396 -0.0756171 -0.40829876 0.04324295 0.03259027 -0.07903788 0.23566888 -0.27955434 -0.010934826 -0.13336506 -0.21601112 0.08178459 0.047162503 -0.014989181 -0.0909595 -0.31225637 0.10462614 -0.11125396 -0.040298518 0.22692865 0.0633168 0.0050725746 -0.18187067 -0.10412304 0.14264923 0.15583307 -0.1520687 0.07021612 -0.038097166 -0.25978056 -0.10733935 0.055989128 0.13026369 -0.24294235 0.047123402 -0.12498998 0.19039202 -0.054740775 -0.14849555 0.14231963 0.1477433 0.06686622 -0.3510998 -0.20332895 0.09860476 -0.07658015 -0.0664991 -0.27652812 0.12575793 -0.079914734 -0.057104804 -0.22045009 -0.008062625 -0.25584376 0.0904744 0.041582346 -0.022971641 -0.09526649 0.36721256 -0.1871521 0.06856172 -0.072187416 -0.02056004 -0.08256835 0.0918482 -0.10819371 0.04766492 0.14870326 0.26125497 -0.3929695 0.10323275 0.010912271 -0.15518828 0.08939604 0.40745232 0.26763248 0.058323056 0.0023115333 0.042882103 0.1560262 -0.06744094 0.01676641 0.034008734 -0.45382595 -0.24142562 -0.19725488
2561 -0.18569191 0.2666468 0.3547984 0.19736348 -0.044153746 0.36460897 -0.30203056 -0.38920113 -0.35129896 -0.31864578 -0.122370236 0.26305044 -0.22110029 0.026032213 -0.025472537 -0.10609997 -0.3654848 -0.11616708 -0.24354547 0.26663586 0.3022166 0.32713103 0.065534346 -0.056240845 0.11746722 -0.15167226 0.5607209 0.3321651 0.14198218 0.30315262 0.18340544 -0.09114127 0.15903582 -0.18236503 0.021179209 -0.24775738 0.27264574 0.43461326 -0.051222537 0.30272943 0.25539988 -0.53796774 0.20951802 0.004452972 0.16247845 -0.039908126 -0.32685432 0.07081912 0.12457387 -0.25755298 0.15362768 -0.34611258 -0.5109548 -0.22522503 0.2001664 0.036454663 0.0018513474 -0.14317206 -0.2576233 0.16139637 -0.3142121 -0.21168558 -0.21357276 0.027472202 -0.17802751 -0.38361245 0.3042033 -0.21663453 -0.018516595 0.18496312 0.070515126 -0.0914825 0.023298454 0.1556088 -0.34337738 0.18403442 -0.11812598 -0.15041889 -0.053904187 -0.15155247 0.095747955 -0.23635301 -0.051960643 -0.10292435 -0.14806175 -0.16564868 0.110145435 0.01888198 -0.13089813 -0.039167818 -0.37032068 0.1348564 0.10772041 -0.07218837 0.030538598 0.0084203025 0.29777092 0.17624585 -0.11985563 -0.086999096 0.21509759 -0.04897694 -0.31476924 0.11050041 0.05222353 -0.01867103 0.249933 0.21054098 0.15005812 -0.28463846 -0.23373164 0.031997114 -0.08052239 -0.33117536 0.009750728 0.020083824 -0.023342099 -0.1391187 -0.037336417 0.06670514 -0.3028497 0.45310175 -0.12972006 -0.24683766 0.68522847 -0.49310377 -0.22629623 0.08802132
2425 -0.22216366 0.031902812 0.058459025 0.34527043 0.008498454 0.245291 0.19607471 0.09615023 -0.18557136 -0.021311503 -0.21124142 -0.04143966 0.1635624 -0.10832018 -0.052298605 0.082691774 -0.010253664 -0.0128104845 -0.25589895 -0.086351484 0.07184845 0.2784747 -0.120827414 -0.2874292 0.15291941 0.08803245 0.29440296 0.07423973 0.19594574 0.34757432 -0.059569925 -0.05444518 0.0045939647 -0.10195811 -0.17729641 -0.0011314384 0.106084615 0.32816306 -0.1297269 -0.32634437 0.13807741 0.20183268 0.0061194897 -0.22516415 -0.11509933 -0.0821438 0.18142655 0.09691273 -0.15929762 0.115456045 0.12846078 -0.12413716 -0.0045807012 -0.017191134 0.22934236 -0.0066139805 0.17737623 -0.26016617 -0.037746485 0.0392842 -0.37558126 0.1095081 -0.1214808 -0.20008548 -0.22286549 0.08321523 0.03091256 -0.04982893 -0.031284045 -0.5691373 -0.28198552 0.23056485 -0.22683123 0.15880632 -0.002351917 0.18933392 -0.309849 -0.02928921 0.16685818 -0.031656995 0.07732345 -0.16079652 0.2077938 -0.22282033 -0.12610595 0.238608 0.15004991 0.11798659 -0.16671573 -0.2768325 -0.06978131 0.15474102 -0.31499952 -0.07572772 -0.09316467 -0.10372408 -0.08603908 -0.02732062 -0.1718348 -0.28256175 0.014029433 0.12224107 0.059017275 0.13448383 0.019788846 0.08666618 0.10822965 -0.009237947 -0.12437898 -0.19892865 0.14616883 -0.37418488 0.23060887 -0.046417177 -0.14067852 -0.07455699 0.29877508 -0.103103295 0.11596598 0.20049998 -0.21283273 -0.03475272 0.13256873 -0.30132198 -0.22705184 -0.16245483 -0.17693034 0.09255505
87 -0.084183216 -0.06277167 0.1884122 0.2178847 0.13509004 -0.13156033 -0.07983179 0.12067423 -0.08562165 -0.110160224 -0.026706621 0.10892617 -0.0040620593 -0.23396835 0.0063998518 -0.24917874 0.028906247 0.020393861 -0.11903141 0.06634564 -0.02378447 -0.032347787 -0.18800515 0.03349751 0.11876257 -0.0746447 0.43682906 0.12797971 0.02918644 0.13929999 -0.16344242 -0.016580898 -0.05035372 0.039935693 -0.051324822 -0.10767349 -0.14113325 -0.34861872 0.0014520767 0.010772243 0.024381738 -0.05664805 -0.046457723 -0.024761965 -0.08230783 -0.030102152 -0.04136965 -0.10327929 0.124489166 0.15816902 0.0886696 -0.02223353 -0.036063474 -0.26432583 0.14201652 -0.33746955 -0.04338993 -0.23330629 -0.03661286 -0.07874179 -0.18569508 -0.114620924 -0.05467316 0.055635106 -0.23136197 -0.26230192 0.03894761 0.053570095 -0.21318366 0.18170072 0.043161906 0.011342513 0.072469845 0.3055441 -0.25668925 -0.16972208 0.17878006 -0.0942996 0.29557747 -0.11963806 -0.14636122 0.012929891 0.011546837 -0.195969 -0.13640964 0.04061989 0.19752535 -0.09155063 0.0391038 -0.039207645 0.080740295 0.10438618 -0.26214078 0.11289979 0.013556952 -0.11316578 0.22431068 -0.09955078 0.05447877 0.009532724 0.06519906 0.024202691 -0.17997661 0.2373562 -0.021082029 0.17935495 0.2657107 0.22350752 -0.14565292 -0.22409931 -0.04257967 0.16054109 0.044816274 0.27264634 -0.012561566 0.097758956 0.0138382735 0.1214515 -0.028334303 0.18826242 0.06318737 0.114678204 0.071831875 -0.12116056 -0.112637766 0.05740647 -0.15040088 0.083438694
359 0.048995905 -0.07018002 0.37544492 0.1587545 0.15044814 -0.088348486 0.00803784 0.0138802 -0.46582264 -0.27719 0.30292052 -0.019700019 -0.2681342 -0.043293536 -0.024642205 -0.15048988 0.034096956 0.047618937 -0.15326038 0.019912506 0.17065513 0.15435944 -0.0072331186 -0.20642331 -0.2561749 -0.076223955 0.08630158 -0.045870066 0.0074520856 0.05180448 0.0423857 0.103976324 -0.20216767 -0.135032 0.11553031 -0.11266736 0.15181285 0.510996 -0.25862792 -0.10590986 0.01495229 -0.31040335 -0.19808055 -0.21154484 0.071524635 0.10155757 0.07167749 -0.08023325 0.13954721 0.21844666 0.23390645 -0.20185426 0.16001002 0.04254909 0.09059607 -0.13855623 -0.05104819 -0.09615264 -0.10746156 0.008721602 -0.2538775 0.22766246 0.014888931 0.06623745 0.0016347555 -0.12691371 0.11786316 0.26837578 -0.094705656 0.07265708 0.2795985 -0.13837421 -0.16320698 0.06783865 0.2394182 -0.056762792 0.19707277 -0.14561734 0.29469642 0.07235468 0.3295892 -0.01824651 0.064077005 -0.08287744 0.18548004 -0.07479454 0.2583297 -0.0381908 -0.104830705 0.18764442 0.028719682 0.052255858 -0.011977642 -0.047226503 0.29023734 -0.04747481 0.13773584 0.1816613 -0.21106505 -0.09559018 -0.15469575 0.037876636 0.34101218 -0.10837505 -0.090761766 -0.082449935 -0.2675482 -0.03235132 -0.16451274 -0.12967347 0.32087332 0.16833305 0.14554408 0.022132687 -0.10770635 -0.07624572 0.187082 0.09670993 0.14382334 0.04232451 -0.10735881 0.121562734 0.17618787 -0.0458496 0.18164353 0.04167379 -0.03242442 0.040949084
1109 0.23542087 0.03180894 0.19187878 0.22262776 0.15308154 -0.09787722 -0.08278286 0.062193863 -0.30433315 -0.159351 0.13848269 0.07015839 0.04554396 -0.09201762 -0.18970977 0.18012278 0.027944788 -0.14844546 -0.21930414 -0.42738515 -0.24013883 0.16199957 0.1742547 -0.12471533 -0.0029974494 0.022498138 0.12390011 -0.043798123 0.06920077 0.27383342 0.27401116 0.056577794 0.09865798 -0.21167842 0.10352086 -0.011323844 -0.114545606 -0.23485547 0.1461641 -0.15609778 0.05537119 -0.11735896 -0.10197151 0.038419805 -0.12917331 -0.051028233 0.18836263 0.1627761 0.07235012 0.15309581 -0.25740626 -0.13667081 0.07306831 -0.09905836 -0.16565572 0.08314709 0.12578905 0.015379952 -0.08456865 -0.19304004 0.041101888 0.23189802 -0.1099909 0.03286233 -0.36637855 -0.23436077 0.15398781 0.3298475 0.040652376 -0.18530113 -0.25156763 -0.29297328 0.07714573 -0.006519203 -0.0644876 0.15975852 0.29532704 -0.20948672 0.04733388 -0.11458177 0.10539181 -0.06331086 0.23095337 -0.04354222 -0.2105435 0.05901252 -0.07491881 -0.038761374 -0.025785848 -0.26995084 0.17267112 0.044937983 0.14228612 0.05474151 0.10134831 0.028326856 -0.12637973 0.047630947 -0.15834463 0.10702306 -0.24903567 -0.18819013 0.21099296 -0.12094342 0.26700044 0.11497622 0.08744203 0.015157741 0.111898616 -0.27548748 0.1342156 -0.36797094 0.004611924 -0.06155201 -0.03163214 0.017017987 0.30610391 -0.2528122 -0.10176247 0.21713442 -0.08454699 0.31976554 0.06731979 0.14442259 -0.021091314 0.19216323 -0.08710078 -0.054932907
2532 0.040138338 0.013513919 -0.03405139 0.013004778 0.20629956 -0.045372732 0.07714336 0.36984402 -0.38550723 0.02731033 -0.08446313 0.15280022 0.022443185 -0.08895267 0.1310187 -0.09155118 -0.14057854 -0.022120005 -0.05120203 -0.24342933 0.112356655 0.22074476 -0.27758083 -0.08247095 -0.01845859 -0.1640188 0.014123368 -0.08621941 -0.028101457 -0.13669842 0.51181954 0.06814225 0.3188423 -0.3962515 0.22627294 -0.07616492 -0.0011870092 0.08611665 -0.16038102 -0.02134172 0.16837086 -0.1872154 0.33393747 -0.034845594 -0.1886712 0.031400092 -0.24171646 0.097576305 -0.32615417 0.088910766 0.058354046 0.21898209 -0.002362742 0.18074428 0.12257291 -0.08711978 0.32871836 -0.20936455 -0.15047811 -0.12447594 -0.6736505 -0.15686294 -0.062517285 -0.08190725 -0.058967274 -0.12784457 0.08160574 -0.03647774 -0.15128429 -0.33337426 -0.011912356 -0.047662508 0.18798894 -0.14560284 0.049466558 -0.0122720115 0.078099094 0.17005455 0.43459788 -0.27673325 -0.053324644 0.1042242 -0.010865877 -0.28815678 0.028024007 0.30754486 -0.09468797 0.057946973 -0.18526359 0.25477538 0.0031021417 0.28258213 -0.011722066 0.039730396 -0.21265824 -0.3238188 0.26726583 0.22274072 0.2708291 0.10393148 -0.026777035 -0.42971876 0.18958221 0.043711107 0.029575802 0.07027486 0.029263383 -0.064770766 0.06904385 -0.029099245 0.25175926 -0.030261347 0.3274872 -0.072496235 0.043284547 0.07532224 -0.089350566 0.2286694 -0.21366662 0.14447542 0.03470963 0.16398196 -0.19580664 -0.25706276 0.0075657405 -0.00798811 -0.23170175 0.31637627
164 -0.076996475 -0.022926848 0.09557359 0.2679376 0.099960215 -0.089296095 0.06447627 0.19819061 -0.009992475 -0.04899581 0.062476996 0.04260253 0.00076163857 -0.20403662 -0.05045127 -0.20644681 -0.006666178 0.034224447 -0.056746636 0.045512576 -0.06397511 -0.0025088235 -0.14813006 0.05072707 0.099768005 -0.016954144 0.42090753 0.14010774 0.013563132 0.1344514 -0.12536876 -0.044262208 -0.105528966 -0.0403383 -0.061732683 -0.03505985 -0.079782605 -0.21789962 0.07376643 0.023113925 0.02757538 -0.05445266 -0.03146914 -0.005208053 -0.028198332 -0.072626255 -0.1356827 -0.03697298 0.16287988 0.13213852 0.037185885 0.0058078864 -0.002655174 -0.26586744 0.15988393 -0.35612231 -0.03250731 -0.18890513 -0.06542863 -0.008228852 -0.17894982 -0.20381162 -0.012998445 0.0962193 -0.16192752 -0.17813718 -0.032142527 0.099004105 -0.26552817 0.10692425 0.067012794 -0.05733776 0.07809074 0.24192229 -0.20026095 -0.16535236 0.19618285 -0.12222063 0.28164658 -0.17609648 -0.22361965 -0.04644836 -0.011012331 -0.24657774 0.018094461 0.006292439 0.1727803 -0.034397233 0.069902785 -0.031642415 -0.037160862 0.0727602 -0.22231586 0.12756003 0.098063685 -0.09983379 0.2123548 -0.10231791 -0.0075078513 0.10544671 -0.0037876898 -4.5604647e-05 -0.16310376 0.24039465 -0.05875026 0.13668543 0.33827445 0.143004 -0.16343863 -0.33084252 -0.015409079 0.05819572 0.100202166 0.15216376 0.012107508 0.10243259 -0.04080744 0.07621444 -0.054005235 0.21344148 0.14550178 0.13479827 0.026791386 -0.17525001 -0.1272288 -0.011139363 -0.14526424 0.10412133
278 -0.28715375 -0.028319273 -0.03750428 0.1341845 0.2962549 0.12653786 0.30862772 0.19747923 -0.17145011 -0.3805301 0.035346214 -0.123589255 -0.24310204 -0.060778208 0.2219575 -0.13533975 -0.021826813 0.22909163 0.03077631 0.07336027 -0.3843168 0.17548706 0.006453246 -0.075919524 -0.2525031 0.15717149 0.111559786 0.1600013 -0.08736114 -0.16738684 0.39903218 -0.22392376 -0.2350072 0.13149583 0.26903304 -0.008404896 0.032209948 -0.36493734 -0.12035013 -0.04961099 0.02439768 0.1335108 0.09611459 -0.009065102 0.06465224 -0.10998282 -0.11993676 -0.00241692 0.100137465 -0.17307764 0.07513358 -0.05088488 0.2977379 0.00017258016 -0.20646101 0.28667513 -0.34532633 0.099412814 -0.059380636 0.11837955 -0.25161278 -0.16662137 -0.13412714 -0.07240271 0.22313961 0.092949435 0.19343506 0.021048794 0.21873505 -0.17275861 -0.1843642 0.036384355 -0.11642885 0.23126717 -0.059628457 0.014411372 0.12053356 -0.16990535 0.40367255 -0.11371051 0.06432431 0.2333394 -0.10145386 -0.13633607 -0.24117419 0.08019885 0.29091802 0.14546853 -0.13846935 0.2529694 0.07025861 0.24986039 -0.073262155 -0.14146449 -0.12495501 0.0840192 -0.22631718 -0.21758732 -0.124323875 -0.13072042 -0.08985067 0.058269303 0.33326706 0.120654315 0.093617775 -0.028191905 0.1411202 -0.15930457 -0.19527104 -0.26058406 0.16228184 -0.20362025 0.28507498 0.04460694 -0.144509 -0.45436403 0.22152646 0.10396471 -0.066048294 0.40046456 -0.18476187 0.15259549 -0.07804619 -0.017584972 0.2431056 -0.25832626 -0.13985056 0.20640318
716 0.30475357 -0.17889148 0.098838836 0.1387086 0.08407038 0.00054876803 0.22180006 0.083843715 -0.23129575 -0.13214804 0.12116527 0.112216 0.03150122 0.07744783 0.05498921 0.07167501 0.24638182 -0.3040638 -0.06292591 -0.20029452 -0.002143267 0.3171353 -0.002267273 0.01738099 -0.06769692 0.12392056 0.082719065 0.08205662 0.40352678 0.056936815 -0.034441836 -0.013505707 0.18600763 -0.044785473 -0.063950494 -0.027213076 -0.066643484 0.0038490565 -0.09719451 -0.15756461 -0.16812758 -0.34513074 0.21939258 0.05332461 0.08893903 0.05760895 0.288308 0.17916583 0.15792365 -0.14205553 -0.03952204 0.034263715 -0.21457963 0.045524094 0.21068487 0.048514705 0.02565556 -0.08674101 -0.03089954 -0.16628623 -0.04952091 0.14036849 -0.21002491 0.06961734 0.052861057 0.06650555 0.02799304 0.2322044 0.01258133 0.037413593 -0.12342668 -0.07283847 0.15785067 -0.13930139 -0.20550373 0.17142001 -0.017904358 0.009921232 0.25898582 -0.118787244 0.011618323 -0.0033549552 0.06444339 -0.038945213 -0.08170284 -0.28747568 -0.11100569 -0.14490569 -0.22480218 -0.02177148 0.036526166 0.095520936 -0.24611016 -0.053913314 0.28225958 -0.08861453 0.08078631 0.019163378 -0.12824543 0.27975306 -0.06105777 -0.008021136 0.17900857 0.11069631 -0.031042663 -0.17072698 0.050169177 0.14665568 0.09200217 -0.20052251 0.11609818 -0.20956948 0.2590738 -0.041966803 -0.2600736 0.1483839 0.12323669 0.14061128 -0.20142955 0.36980584 -0.24374768 0.20970005 -0.16714507 0.2695571 0.23933856 0.19087799 0.123008184 0.15844385
720 -0.13338242 0.15253708 0.028551696 0.31456554 -0.017443437 -0.10850353 0.19467537 0.12360587 -0.18913525 -0.15510796 0.13137414 0.23714371 -0.0026947977 -0.25561613 -0.011103804 -0.17631021 0.27072394 0.07238952 -0.31481883 0.26803246 0.052449748 0.1153927 -0.164341 -0.07130176 0.18609731 0.032542396 0.10110244 -0.013679065 0.22878598 0.14660025 0.22791581 -0.012410215 0.04645277 0.034297474 -0.37507904 0.1044413 0.24061656 -0.3489987 -0.16910204 -0.19726203 -0.030514024 -0.4802732 0.15868913 0.026167173 0.26312917 -0.08824726 0.089627504 0.12721689 0.2787696 0.16644739 -0.11426879 -0.28071684 -0.27526757 -0.18682353 0.013514587 0.02020716 0.21288446 0.07896024 -0.4697307 -0.15204807 -0.38753968 0.003327687 0.048657328 0.27537128 -0.019850573 0.20980558 -0.34281683 0.021224763 -0.14064237 0.27217075 0.004745741 -0.14497687 0.2959491 -0.10866394 -0.36840472 0.16077757 -0.2714645 -0.10020288 0.24165854 0.23337413 -0.3538323 -0.22136122 0.2750824 -0.114124164 0.05783308 0.070133984 0.28461313 0.13101327 -0.12056448 -0.2922551 0.007072475 0.18048812 -0.11572529 -0.13157389 0.0027600103 -0.11291332 0.004346915 -0.10104416 0.16890682 0.057081107 0.3131395 -0.09791897 0.031523805 0.11579092 -0.17005499 -0.16531563 0.054032534 -0.019380756 0.23211901 -0.14040753 0.21096943 0.01573722 0.23566283 0.19043864 -0.31131902 -0.06823327 -0.01668383 -0.115259066 -0.08009765 0.36272845 -3.734072e-05 0.1819011 0.14194591 -0.1144965 0.34153995 -0.15125267 0.24239871 0.20479596
120 -0.26986322 -0.10990016 -0.037783038 -0.080349386 0.044105116 0.1136493 0.22753038 -0.03908196 -0.3950041 -0.26814938 0.14329985 -0.07361414 0.14041926 -0.26426008 -0.119547285 0.13847293 -0.11173382 -0.1417136 -0.14126082 0.26950485 -0.021744061 0.11864846 -0.08454643 -0.08423558 -0.082389764 0.0848837 0.07192981 -0.10823267 0.14541432 -0.20264135 0.03702424 -0.086783625 -0.17001794 -0.16084722 0.04205125 -0.413224 0.11605237 0.06378761 -0.18695799 -0.06433216 -0.10944485 -0.2103905 0.18345283 0.010302698 0.05380259 -0.08705741 -0.23332117 -0.06903948 0.10200929 -0.07109283 -0.011302807 0.04907996 0.14658837 -0.17055514 -0.005584634 -0.09951802 -0.12289717 -0.067607395 0.1443554 0.17269732 -0.22532594 0.41832548 -0.16045372 -0.1086342 -0.3270747 -0.15033935 -0.04681274 0.19780725 0.06179873 0.008212185 -0.17765178 -0.3662202 0.10987553 0.04570002 -0.15578894 0.101514764 0.040081277 -0.36907992 0.11010997 -0.046898484 0.43227538 -0.01815161 0.08122234 0.29162788 -0.18133028 -0.015583385 0.039337903 -0.029195119 -0.07925704 -0.036606096 0.036694374 0.31104094 0.08056971 -0.08881641 0.27623877 0.033833906 -0.06759539 -0.33827758 0.2860066 0.04577063 0.19531238 -0.1242897 0.16289951 0.0011814418 -0.13681513 0.10827693 -0.09191129 0.29149175 -0.061434425 -0.17522599 0.40555835 -0.07012338 0.02110363 0.0030393426 0.122812115 -0.063126214 0.16592982 0.093984 0.07523138 0.24932414 -0.074457236 0.031655617 -0.175932 0.082112 -0.2605644 0.17021504 -0.18219972 0.023469761
637 0.05196915 -0.12986779 0.07309712 0.17853974 0.19593085 -0.07124722 0.09560123 0.07057239 -0.013973121 -0.083319776 0.049565192 0.10128193 -0.008609432 -0.14072123 -0.040692125 -0.48160112 0.011950541 0.038392358 -0.08844677 0.10882586 0.017901985 0.010198447 -0.06671075 0.032178987 0.045590986 0.008332826 0.36973685 0.12604868 -0.029110108 0.1484516 -0.2053148 6.586308e-05 -0.11654623 -0.03508249 -0.0021719912 -0.054228917 -0.08563464 -0.43279043 0.038643617 0.10989519 -0.03621762 -0.0905876 -0.064194724 -0.0034076835 -0.060540874 0.04929869 -0.12537739 0.045747798 0.12303388 0.19425458 0.09864986 0.016508441 0.11539916 -0.18971643 0.2089972 -0.25319684 0.0080175 -0.13773991 0.04571146 -0.17070912 -0.23973325 -0.09739635 0.040866952 -0.0011176441 -0.015659472 -0.2965179 -0.045657314 0.15308145 -0.14707357 0.053457104 0.09200681 0.004335536 0.0518617 0.15327208 -0.16000332 -0.2513536 0.15960094 -0.27808326 0.12014828 -0.15742104 -0.218348 -0.088196896 -0.040262654 -0.22974764 -0.069004096 -0.06721765 0.039024994 0.0659043 0.17943871 -0.07524963 0.035669852 0.08847585 -0.23283707 0.18941829 0.12390894 -0.17828852 0.07450013 -0.097172014 0.009672076 0.19149543 0.019544348 0.18405549 -0.12276405 0.21892169 -0.049359784 0.14950824 0.17663592 0.14200851 -0.17642288 -0.1718638 0.05483607 0.0470337 0.009283893 0.14114642 -0.06845438 0.014562465 -0.0811341 0.043074667 -0.0032107844 0.10084746 0.23289593 0.19298482 0.008314462 -0.18703777 -0.06777451 0.060161345 -0.2130244 0.1705131
137 0.09780057 -0.068614945 0.0788715 0.19269231 0.18402511 0.03741051 0.102604106 -0.064509176 0.03532454 -0.10198059 0.045807693 0.04651724 -0.018314525 -0.09001264 -0.00027707877 -0.35230815 -0.043385647 0.03582178 -0.12343134 0.070650585 -0.0019694548 -0.044213515 -0.030903911 -0.07045731 0.09460438 0.028796809 0.34691858 0.1247592 -0.011356441 0.0897384 -0.17463315 -0.026385494 -0.05042503 0.057594832 -0.04198956 -0.04417326 -0.15168406 -0.41777357 0.019471128 0.074764796 -0.039717358 -0.16042954 -0.022833332 -0.0013924639 -0.03359477 0.07363202 -0.0038061128 0.043647297 0.15910976 0.15636304 0.11399605 -0.08243794 0.09087737 -0.15970235 0.23265865 -0.37161028 -0.010391891 -0.21489319 -0.005077976 -0.094151795 -0.20651697 -0.073072486 -0.024826953 -0.08010716 -0.13208134 -0.26628348 -0.018442683 0.18476959 -0.1236214 0.06652976 0.09634802 0.08167624 0.06567486 0.20738126 -0.2051832 -0.2733846 0.043897092 -0.24139391 0.20866302 -0.08075639 -0.2513922 -0.0062741875 -0.025333274 -0.3138335 -0.1127449 0.010771062 0.12096363 0.088201955 0.057592887 -0.0060274056 -0.0658366 0.1729958 -0.13295735 0.15990353 0.103661396 -0.124802604 0.06910374 -0.10347918 -0.00088185124 0.09811173 -0.016120128 0.14711843 -0.17347948 0.17881186 -0.034676567 0.16622151 0.22690849 0.23894027 -0.20440781 -0.2666708 -0.010966134 -0.005054286 0.033634577 0.13357744 0.013284638 0.040165395 -0.054036554 0.073201 0.022998702 0.23991445 0.13140842 0.26432943 -0.00538732 -0.11050258 -0.03297064 0.09101961 -0.16412807 0.15186477
138 0.11807558 -0.116123684 0.08052254 0.23163852 0.17534694 -0.0022104222 0.00423169 0.07856094 0.08662896 -0.011996387 0.06644763 0.13807724 -0.029128842 -0.16302831 -0.010059931 -0.37077066 0.010004053 0.06740192 -0.12382716 0.21661903 0.046531547 0.022876102 0.012917955 0.0066962736 0.12303572 -0.026835503 0.34447986 0.0796365 -0.00714288 0.1531907 -0.29354304 -0.13895166 -0.036195196 -0.055849332 -0.10647285 -0.06173837 -0.0883813 -0.29988217 0.08726421 0.14347377 -0.020548178 -0.15820909 -0.016280629 0.024344997 -0.0071094995 0.019246366 -0.123073116 -0.01861569 0.17411682 0.15834089 0.08535397 -0.03847792 0.11862253 -0.2559174 0.038421784 -0.26162425 -0.049642254 -0.19508602 -0.066295505 -0.110515155 -0.17594594 -0.11083334 0.09357206 -0.035452973 -0.07081174 -0.26017746 -0.09349384 0.1663571 -0.15275218 -0.091190994 0.051819082 0.037425175 0.049126487 0.1862628 -0.22722201 -0.19973828 0.21467513 -0.4255147 0.2820842 -0.12995973 -0.16424376 -0.13292582 0.0007851133 -0.19863683 -0.11740736 -0.045215305 0.1143094 0.0666186 0.17469722 -0.12040383 -0.055196296 0.07961562 -0.28044176 0.2313852 0.21350048 -0.0860695 0.015994867 -0.03350295 -0.041707844 0.103182726 0.09747996 0.13482107 -0.10735043 0.22449058 -0.04636425 0.031023072 0.275794 0.1247984 -0.107292436 -0.33819675 -0.036848456 -0.024445854 0.012021102 0.13840412 0.014568149 -0.092200905 -0.022166016 0.006660915 -0.04383539 0.20530239 0.11315881 0.12849694 0.07485117 -0.13865742 -0.06478855 0.049318355 -0.19332281 0.13502027
12 -0.17206295 -0.1967217 -0.021492582 0.40096173 0.004837225 -0.20303032 -0.1955377 0.25149012 0.01038496 -0.04680406 0.10556084 0.3142888 0.17491294 -0.10232178 -0.009583513 -0.29180926 -0.10878605 -0.006978465 -0.1487497 0.125625 -0.072990164 0.017099004 -0.2957083 0.03264989 0.01271066 0.08203603 0.22075291 -0.0064374055 -0.11857978 -0.05809763 -0.08822048 0.3732581 -0.106900014 -0.15178287 0.2513332 -0.2666915 -0.12405662 -0.05833373 -0.05108928 -0.24800335 0.06803707 -0.20873885 -0.17711194 -0.1112783 0.19114208 0.40386555 -0.122326456 0.1709813 0.0359752 -0.0134438565 0.001096732 0.023363825 -0.25542063 -0.1283659 -0.094430566 0.041228335 0.25932136 -0.16027744 -0.10572182 0.126778 -0.1819343 -0.07287617 -0.052130297 -0.026711384 0.20637621 0.013792232 0.035649978 -0.06928288 0.16171819 0.20883945 -0.053491514 -0.12242095 0.13731897 0.23577143 -0.34631896 -0.11374626 0.01331817 0.016371429 -0.015139068 -0.12358624 -0.032801792 -0.21273068 -0.08208052 0.2796649 -0.20482533 0.06988895 0.41646552 -0.37371513 -0.014346303 -0.11885778 0.14054018 -0.05321436 -0.3348486 0.012401853 -0.08087598 0.14742364 -0.17082645 -0.09262952 0.15562268 -0.041192923 -0.019467983 0.29237214 0.09798846 -0.113339126 -0.27894604 -0.19107288 0.091576174 0.06563342 0.09974063 0.0080492245 0.1578851 -0.19820003 0.5283263 -0.059728727 -0.061391387 0.14863098 0.096391045 0.18438107 0.23579803 0.2535355 -0.30324063 0.07252647 0.052680667 -0.17766148 -0.1288687 0.014123292 -0.17619789 -0.26439875
22 0.3330782 -0.03771289 0.065884545 -0.03193195 0.07716429 0.15088466 0.40334398 -0.48352268 -0.493677 -0.1436277 -0.0824443 -0.2193812 -0.18651442 0.06554641 0.28590235 -0.043091528 -0.15655775 -0.10361574 0.013779639 0.25614265 -0.2186008 0.001286189 -0.30330312 0.25171056 0.03660448 -0.26616734 0.52007294 -0.17284611 0.056810346 -0.20961584 0.027415598 0.14442353 0.18276308 0.1332088 -0.07671568 -0.22314362 0.023320703 0.17143914 0.07134321 -0.27878723 -0.116812736 -0.03728403 -0.122963786 -0.28518918 0.039853286 -0.25295857 -0.047413167 -0.038871143 0.060852498 -0.2529763 -0.119604915 0.06279439 0.07580625 -0.1832814 -0.13753954 -0.14206974 0.41247016 -0.10247291 -0.18749131 -0.14735314 -0.19612025 0.097102 0.32771292 -0.14459188 0.15510254 -0.25307578 -0.12286415 0.005207403 0.17252272 0.16989438 -0.18606141 -0.53997153 -0.009438652 -0.20696442 0.15201116 -0.21092573 0.036728512 0.07254503 -0.110950485 -0.25223103 0.2309429 -0.382055 0.310865 -0.047551848 -0.393395 0.03179391 0.04548693 -0.34666792 -0.010221024 -0.20343286 0.037824918 0.14715557 -0.22971128 -0.09776512 0.09025063 -0.20200427 -0.3743254 0.34435412 -0.047845177 -0.009215175 -0.28055477 -0.010913577 0.20180142 -0.15625681 0.31775668 0.08348847 -0.14152396 -0.12092561 -0.023898764 -0.34751636 0.026247388 -0.04766857 0.081674166 0.041294318 -0.14860733 0.16211031 0.15165336 0.2826613 -0.12053122 -0.09127099 0.099298656 -0.22954217 0.113997065 -0.2994266 0.044521537 -0.50729066 -0.059295535 0.06523279
1067 -0.02856565 -0.19306318 0.012050528 0.076639175 0.13095726 -0.17568608 -0.11902934 0.0035650805 -0.061115947 -0.08829363 -0.1957563 0.18424936 -0.23822744 0.030526137 -0.11641601 -0.020569038 -0.099465035 0.101965524 0.06521089 -0.06587882 0.077677704 0.20435934 0.1803078 0.012607691 -0.19974662 -0.06998036 0.12293674 0.048504245 -0.13705145 0.19518526 0.16945753 -0.060538623 0.011276274 -0.14342178 -0.034907926 -0.036615513 0.071612835 0.02683418 0.10303444 -0.38171592 0.14341061 -0.019705335 0.0842407 -0.07248939 -0.062095985 0.2308323 0.12998049 0.13703603 -0.07492146 -0.0543851 -0.07645893 -0.22926114 -0.18575245 -0.12042403 0.021626301 -0.17177215 0.06725576 -0.10085804 0.08507771 -0.39217597 -0.0017535603 -0.08212343 -0.09542139 0.040994078 -0.16458426 0.16345397 -0.0066701937 0.049271043 -0.058117762 -0.29953918 -0.23734258 0.0034317083 0.13996741 -0.008763082 -0.048592247 -0.12771542 0.013693659 0.00950234 0.120857954 -0.14724132 0.093122676 -0.101712815 -0.07548273 0.080859296 -0.17461912 -0.14570475 0.17901841 0.08878061 -0.026225872 -0.038258694 0.099144235 0.08276061 -0.061291307 0.08965028 -0.004433353 -0.112602934 -0.025538526 -0.20783646 0.19171198 0.021069208 -0.12183092 0.051818736 0.12244374 -0.01087691 -0.11600463 -0.10312166 -0.025284145 0.10044518 -0.050979532 -0.1829069 0.26379687 -0.22835656 -0.20239843 -0.098346084 -0.07955325 0.15701953 -0.116628796 0.089391746 -0.05610295 -0.041261 0.055412333 0.057629786 -0.13104902 -0.056536578 0.19486782 -0.118165605 -0.1275179 0.14684689
397 -0.056462336 -0.15561076 0.1782971 0.09512517 0.28830463 0.07439489 0.13456023 0.1602011 -0.42296115 -0.51158375 -0.10212313 0.26278025 0.45398837 0.23540366 -0.11603354 -0.12106744 0.056167938 -0.11518205 0.07262872 -0.16721891 -0.038285103 -0.050152626 0.07796672 -0.087035544 0.18335558 -0.12791008 0.105157934 0.44303095 0.019251853 0.06425581 0.04029099 0.018292379 -0.11513344 -0.07320172 -0.07339941 -0.13096507 0.20631135 -0.166741 -0.28621987 -0.035756353 0.21520454 -0.18573657 0.07340218 -0.22020821 -0.06819538 0.012577625 0.3771629 0.16534968 -0.23271665 -0.009066737 -0.11073529 0.030959122 -0.0188863 0.04507243 -0.30198383 0.34504396 0.17455673 0.1856402 -0.041573424 -0.051363885 -0.14304045 -0.22082256 0.11033292 -0.090891406 -0.10039339 -0.31707862 -0.118058115 -0.054468464 0.1899309 0.28210405 -0.1701783 -0.0027725834 0.060297135 -0.12722163 0.033540938 0.0020379664 0.15010835 -0.38685137 0.22167447 -0.23159228 -0.038945995 -0.058240328 0.10634982 -0.020124977 0.013058378 -0.123842 0.32238293 0.05138353 -0.15947439 -0.061568316 0.19308835 0.035605017 -0.16224262 0.30458838 0.109951034 0.030929076 -0.20524842 0.05922536 0.1382457 -0.18095703 0.08540125 0.11597303 0.11369307 0.22625625 -0.009938755 -0.069247514 0.0340867 -0.12686804 -0.09464672 -0.2216518 -0.116961055 -0.1271254 0.13299146 0.113193244 -0.2660032 -0.27582675 -0.21622922 0.141926 -0.057323944 0.088740215 -0.013501938 0.13041295 -0.19076082 0.16928922 -0.1399135 0.07001539 0.014463723 -0.22871228
2419 0.03689584 -0.14909641 -0.12932955 0.24503373 0.19243331 0.3432672 -0.10880574 -0.015082363 -0.08136149 -0.18776217 -0.08112122 0.126797 -0.17942421 0.25571474 0.0023869034 -0.06760008 -0.30931064 -0.04870597 -0.1400497 0.076524526 0.14404581 0.028340625 0.09568493 -0.11365913 -0.08196892 -0.033368506 0.10760254 0.15412325 -0.18441106 -0.30511138 0.12905194 -0.0591456 0.15039706 -0.20656943 0.259901 0.003755374 0.1997534 0.12247969 -0.13615513 0.033816714 0.02311332 -0.26191983 0.13071704 0.033941973 -0.14184864 0.10934706 0.17140986 0.25100195 0.0876626 0.05034384 0.095045745 -0.12824969 -0.02192376 0.2555966 0.21398585 -0.22956629 -0.07844822 -0.017628834 0.05767567 0.01782627 0.037431266 0.19694841 -0.13501711 -0.11661235 -0.2282948 -0.12999964 -0.06657878 0.18650869 -0.21436259 -0.4460534 -0.17945424 -0.10579933 0.104153015 0.26505733 0.036187515 -0.3976231 0.118367 -0.01771628 0.13798983 0.15126942 0.010214851 -0.029426867 0.23014913 -0.08566647 -0.27288225 -0.016282437 0.04624628 0.058677446 -0.037108067 -0.11358847 -0.05292209 0.21640325 -0.12217869 0.10219059 0.024158843 -0.052165613 -0.13153112 -0.029930739 0.16565701 -0.15059686 -0.15342917 -0.23624805 0.016886212 -0.022996208 0.14457254 -0.29978368 -0.038289953 0.20035765 0.016317181 -0.19029558 0.18043417 -0.4246887 0.18771775 -0.12485597 0.13219053 -0.11399172 0.23469037 0.23396534 -0.023207989 -0.029828383 0.08134336 0.12934823 -0.3323629 0.18258132 0.042226158 -0.29433465 -0.003184744 -0.039809987
2622 0.3207885 -0.15525621 0.05236928 0.095088765 0.08465563 -0.048457872 0.10807185 0.19233978 -0.01696197 -0.15063727 -0.3745515 0.18740799 -0.17108838 -0.15533273 0.17610857 0.33456066 0.019061254 0.16679507 -0.03868067 -0.19757329 -0.2969472 0.054834403 -0.05910763 -0.14121708 -0.15603153 -0.24228613 0.17101318 -0.08089324 -0.0268412 -0.019765327 0.1105749 0.25371787 -0.1586269 -0.43239877 -0.044035684 0.0032055576 0.1286813 0.25508803 -0.22957826 -0.20520364 0.23328152 -0.111076295 0.25960362 -0.29995853 0.059139285 -0.037116244 -0.095317885 0.023371276 0.0030979537 -0.22570227 -0.22598353 -0.16420054 0.03173184 -0.0044450313 0.034756552 -0.25820348 -0.22168638 -0.005837747 -0.12098454 -0.14161374 -0.17096494 0.09565804 -0.4580547 -0.17954615 -0.032698646 -0.1879404 -0.057536885 -0.20979142 0.01508023 0.048745126 0.065227255 0.0017974247 0.2363825 0.37606817 -0.060917318 0.00016219913 0.03687732 0.013773625 0.041909244 -0.022450512 0.00028391668 -0.006705225 0.040743478 -0.108359635 -0.12270842 0.05325354 0.12857138 0.20269875 -0.19502129 -0.057694916 -0.27281255 0.4478732 -0.26988032 0.17756832 -0.03207804 0.18824561 -0.057008125 -0.056583356 0.01525189 -0.066996284 0.14061733 -0.3313078 -0.1140893 -0.056412015 0.12102261 -0.20692982 0.08057781 0.21946333 -0.07711533 -0.15973702 -0.011165963 -0.07665053 0.2268852 0.13908295 -0.18757182 0.047529373 0.3164266 0.0041988012 -0.11974289 -0.00521825 -0.12847464 -0.11105955 0.09363538 0.03362761 -0.044478487 -0.07889251 -0.19176488 0.16994666
56 -0.20074244 -0.15289041 -0.15568647 0.00023535546 -0.023015324 -0.033896167 0.066009834 0.1682082 -0.18633121 0.03163431 0.12518997 -0.04091815 -0.16287881 0.070772864 -0.06065759 -0.28107217 -0.03996495 0.19277923 0.020510938 -0.11441273 -0.3053229 0.07818828 0.062496472 -0.09548563 0.18452038 -0.25798216 -0.038277198 0.2194341 0.0019700634 0.14957647 0.11748757 -0.14467669 0.08570134 -0.24724177 0.116747275 0.053688 0.037482593 0.19205394 -0.30905417 -0.07574867 -0.21235995 -0.14823605 0.031677265 -0.240525 0.028188152 0.05647892 0.14889704 -0.017837537 0.14037639 -0.27817798 -0.011823131 -0.09281193 -0.075532965 -0.35965124 -0.10784862 -0.07898171 -0.24580358 -0.18474355 -0.08499995 -0.0021723553 -0.19318423 -0.020137755 -0.26196545 0.012590336 0.027047891 0.038256638 0.043510083 0.06641219 0.16487326 0.13974214 -0.26424184 -0.11946817 -0.11761812 0.0560569 0.036149643 -0.08216497 0.1257595 0.0048527545 0.17662029 -0.20222843 -0.052868158 0.07970194 0.26676935 0.028671905 -0.08721431 -0.021461954 0.3160418 0.046155922 0.11199706 0.0713233 0.2119446 0.42403233 -0.12969361 0.1736253 0.317336 -0.21825998 0.042148143 -0.17756537 0.11696503 -0.009460227 -0.2973513 -0.1957567 0.31244394 0.033982176 0.16840413 -0.09712949 -0.16113444 0.19286203 0.07135896 -0.12894873 0.11331656 0.16679697 -0.17000596 -0.029704737 -0.06050357 -0.23334946 0.16574538 -0.012183594 -0.1624384 -0.22405164 -0.1159597 0.019086938 -0.0029662866 -0.06610941 0.015428756 0.06638959 0.11824077 0.046648327
424 -0.2699002 0.010932906 0.17592813 0.093627125 0.22769232 -0.06415723 0.16744912 -0.16358106 -0.10247875 0.057821833 -0.4150581 -0.336167 0.085579604 -0.097301684 -0.39304912 -0.26689145 0.14645787 0.13921554 -0.09910833 -0.026795033 -0.3464793 0.24305446 0.039396066 -0.044361185 -0.49636972 0.105809696 -0.1975749 0.6184628 -0.024565885 0.19929269 0.033152353 0.12615752 0.025940021 -0.035186432 0.10170436 -0.16608275 -0.12628227 -0.06479021 -0.04576193 -0.22048102 0.03818088 0.070577 -0.2883392 -0.07806638 0.123786196 -0.15681496 0.15418543 -0.02336246 0.010063901 -0.0032253636 -0.15768366 0.014544202 -0.036510497 0.01837524 -0.056048185 -0.038801156 -0.2015393 -0.20057438 -0.2474486 -0.07406903 0.014296891 -0.4333026 -0.05986286 -0.17702506 -0.19796154 -0.25175363 -0.30340853 0.17835501 -0.23587373 0.10540709 -0.020812852 0.04018993 0.115230285 -0.017588714 0.03357003 0.08014959 -0.18274093 0.041721214 -0.21098478 0.14338605 0.3852122 -0.366294 0.3215262 -0.18986124 -0.17749877 0.01401076 0.23654374 -0.11705727 -0.10079134 0.014885634 0.0110615 0.07580396 -0.4318091 -0.036183365 0.033108197 -0.39407668 -0.14201726 -0.19421713 0.17553136 0.14576761 -0.116075985 -0.13731152 -0.06431769 -0.3321397 0.12693109 -0.120586015 -0.17758875 -0.06774425 0.1540946 0.22121145 0.40648398 -0.099790566 0.09168959 -0.53088206 -0.0043456294 -0.09557197 0.110734746 0.07118388 -0.014957493 -0.001964392 -0.16615497 0.5128154 -0.0639413 -0.0049057654 -0.07670127 -0.018940711 -0.53337103 0.4122284
166 0.032385416 -0.08716987 0.09593109 0.14663713 0.1906258 0.010218919 0.050751086 -0.0015313129 0.033353854 -0.007741118 0.07749354 0.110573426 0.067722335 -0.15223026 0.018840713 -0.33866248 0.06877234 0.050811537 -0.10886783 0.1592313 0.09065858 0.046324223 -0.0040373243 0.040872306 0.13152719 0.09988179 0.36113977 0.15461877 -0.18706584 0.12010265 -0.24879417 -0.0564469 0.016695365 0.029795006 -0.064848706 -0.048640218 -0.04868854 -0.36013973 0.10331882 0.0699672 0.005823119 -0.15717255 0.058216494 0.010500326 -0.09285772 0.08249097 -0.01252449 0.0015232618 0.21405968 0.11167699 0.08534142 -0.07463682 0.0539716 -0.21918896 0.180411 -0.3444896 0.015408795 -0.15100712 0.11816495 -0.1233423 -0.1718261 -0.091672495 0.06279407 -0.06361832 -0.15195946 -0.28670007 -0.004703659 0.11949938 -0.19378558 0.0689541 0.05420483 -0.0044314424 0.032244 0.26189134 -0.17779295 -0.2881359 0.154309 -0.29891306 0.18088982 -0.16520838 -0.25019085 -0.08772941 -8.3656705e-06 -0.35434696 -0.10046778 -0.11095507 0.18096024 0.059656393 0.10063739 -0.20796745 0.09425531 0.14231141 -0.23246014 0.20821765 0.06421482 -0.21546358 0.072394766 -0.01343272 0.0098553635 0.2032069 0.035781026 0.17841418 -0.18019034 0.22702737 -0.033901136 0.097613506 0.2611154 0.13680284 -0.14640012 -0.2997487 -0.066857696 0.1186978 0.037644625 0.17356052 -0.014883227 -0.02992276 0.056560133 0.09752174 -0.03930433 0.103948504 0.059668478 0.15445048 0.106303595 -0.11006855 0.01560156 -0.009973041 -0.15319394 0.15280986
13 -0.15628992 -0.15852095 0.030240692 0.36951438 0.030329429 -0.14092346 -0.0956178 0.17007016 0.06064727 -0.053448834 0.095873035 0.2517591 0.13440013 -0.091347665 -0.1086583 -0.22235975 -0.13310392 0.03510363 -0.08744733 0.124996744 -0.09218412 0.15292343 -0.27900863 0.10326383 0.006353733 0.08497774 0.28931618 -0.010388156 -0.03298035 -0.005594891 -0.08991734 0.35016948 -0.11396183 -0.23553626 0.23604459 -0.31352374 -0.12684141 0.047818676 0.09297026 -0.16285579 0.10450468 -0.294245 -0.051482473 -0.15800905 0.29293442 0.3470642 -0.1324281 0.18157339 0.08689786 -0.07150999 -0.04676015 -0.011002071 -0.35096467 -0.25582552 -0.0989152 -0.02101205 0.293317 -0.06512174 -0.016372586 0.17830014 -0.109411955 -0.122105576 -0.06424139 -0.07144777 0.19831766 -0.027147224 0.0076182154 -0.07328216 0.22128339 0.09145401 -0.089528434 -0.099025205 0.11476133 0.18391041 -0.4701238 -0.09783235 0.0014871407 0.06715245 0.00868104 -0.13330854 -0.114441924 -0.13935554 0.003511658 0.098108195 -0.11655112 0.06614931 0.42790008 -0.34243885 -0.00042551893 -0.052361075 0.14644638 -0.13302608 -0.17579241 0.031709015 0.022887513 0.1934728 -0.067870215 -0.049432956 0.15806378 -0.016380837 -0.12302898 0.26839975 0.08733032 -0.11014309 -0.3350615 -0.16665982 0.20222706 0.00865769 0.09436576 -0.080688946 0.11008941 -0.1431848 0.42462108 -0.06208374 -0.06932015 0.18722813 0.12029645 0.05439962 0.19377443 0.24698637 -0.37746266 0.2063415 0.14015588 -0.18654102 -0.11128907 -0.030762017 -0.07178732 -0.28910333
289 -0.29029912 -0.005244204 0.25938165 0.19474521 0.035185598 -0.00352963 -0.11997804 0.15881218 -0.22929224 -0.17419708 -0.10543893 0.017563503 -0.021919483 -0.26244012 -0.22964999 -0.27286056 0.06519687 -0.08155041 0.05869455 0.17365794 -0.10219979 0.016430084 -0.2341572 -0.114013165 -0.44076946 0.0030221976 -0.09682373 0.109785885 0.2676546 0.10292489 0.13875052 -0.05399842 -0.10819445 -0.1650707 0.09973803 -0.2645348 0.30689692 -0.054812774 -0.15395264 -0.25587875 0.07766792 -0.16162021 -0.31133962 -0.13314566 -0.20784117 -0.15966764 -0.23245366 -0.059759382 -0.05966031 0.15052839 -0.023420248 0.113670416 0.013711162 -0.04849962 0.08975174 0.07560684 -0.3276392 -0.28351036 -0.16352545 0.17844743 -0.102868386 -0.17832802 -0.13713321 -0.05935256 0.059597176 -0.18958072 -0.04119979 0.028005715 -0.10583783 0.11458524 0.07083718 -0.078114204 0.12252642 0.015141267 -0.10445709 -0.100354746 0.05674142 -0.09130352 0.20663932 0.18448001 0.25796923 0.06808536 0.071396716 -0.034677997 -0.2023125 -0.051866442 0.087495714 -0.14014855 -0.018374154 0.025170738 -0.20720692 0.13581474 -0.31719646 -0.07674261 0.28649318 0.07518156 -0.10086732 -0.26422617 0.19566739 -0.0016644549 0.004661164 -0.22337927 0.20165011 -0.24239734 0.13367328 -0.26185045 -0.0339293 0.1443898 0.018054549 0.12913935 0.11532472 -0.2102166 0.1292346 -0.1217197 0.12213647 -0.27091447 0.24925277 -0.06723151 -0.035644468 0.2034166 -0.25862673 0.18010591 -0.41114137 -0.2763308 0.06877571 0.08834673 -0.46958855 0.26464373
1286 0.031358067 -0.16907583 -0.25968686 0.10630898 0.00719357 -0.059058405 0.1950316 -0.26408845 -0.13611127 0.00070679607 -0.17980729 -0.025140338 -0.025922045 -0.1587332 0.21348082 -0.3453709 0.15238817 0.06969909 -0.24793616 0.014602541 -0.35318252 0.1011892 0.045215573 0.03021744 -0.13784134 0.059949838 0.33351776 0.114109196 0.0069940966 0.02569704 0.00083659845 0.033462565 0.045842808 -0.31578612 0.28009826 0.01612871 0.1212766 0.21640597 -0.03785067 0.29198098 0.12899259 0.09431519 -0.05042292 0.038504884 0.16719675 0.07222905 0.08417876 0.16757213 0.048645128 0.022108663 0.08191203 -0.30307993 -0.059480462 -0.15932328 -0.08052166 0.109790705 0.10143311 0.080327824 -0.0012204249 -0.046090934 -0.054629676 0.1184586 -0.04986461 0.0059702066 -0.16305712 0.3827992 0.09168508 0.0750433 -0.049561094 0.16199629 -0.26098076 0.0695122 0.12546149 0.1266703 -0.16203265 0.14752735 0.08740708 -0.05630156 0.30733144 0.029528705 0.25347424 -0.13235095 0.058556207 -0.14036654 -0.17589535 -0.19845918 0.11018409 0.03816765 -0.06366522 0.27417764 0.24658655 0.08383636 0.07557965 -0.103092894 0.09443834 0.09249073 -0.045475263 0.19831993 0.34169725 0.3302895 -0.05130909 0.0071270405 0.0121226655 -0.12699626 -0.19049056 -0.27579507 -0.009648186 -0.026816076 -0.13263175 -0.11457638 0.19982414 -0.15410383 0.08204145 0.25833505 -0.14545077 0.10418223 0.11175948 -0.1873791 -0.30992994 -0.17375487 -0.018790482 0.19665195 -0.19963658 -0.10521107 0.06878936 -0.13989586 -0.06482905 0.22788967
161 -0.197415 -0.20991123 0.1647358 0.22641866 0.20790687 -0.14858633 0.2204411 -0.12414193 -0.3945328 0.13806696 -0.05591733 0.09575921 0.08357554 0.03678028 0.20575891 -0.33483773 -0.28597337 0.1630301 0.026903626 0.009145917 -0.16115573 0.17346404 -0.41075107 0.26066086 0.14404307 -0.22377363 0.24357422 -0.08878446 0.048714593 0.07754885 0.16330203 -0.09125394 -0.103130154 0.049607866 -0.16008534 -0.09391896 0.317364 0.18354662 -0.29474926 -0.20993952 0.059698682 -0.07851275 0.005485829 -0.0057819746 0.22215882 0.35403734 0.16599177 -0.100026526 0.18731081 -0.09503639 0.030384306 0.05210085 0.07633449 -0.007928126 -0.16554807 -0.19554451 -0.1736076 -0.11821002 0.0754746 0.09150108 -0.064169124 0.0643039 -0.19424298 -0.052051052 -0.13713594 0.2086139 -0.022337295 0.0026465626 -0.1631033 0.11364868 -0.12687135 -0.10676812 0.50704646 -0.11844185 -0.09168089 0.09767634 0.20842794 -0.25433606 -0.04215699 -0.17505115 0.07239493 -0.19722277 -0.017322302 -0.063422084 -0.22317655 -0.12857279 -0.05641024 0.11709991 -0.24209924 0.018591255 0.111569546 -0.02664565 -0.1803915 0.023310715 0.004874384 0.08354901 0.45257884 -0.31728426 0.021328274 -0.16066107 -0.10719193 -0.024533754 -0.08090825 -0.09428186 0.16847445 -0.053666405 0.041032676 0.16139758 0.25590697 -0.063445926 -0.14826262 -0.09889639 0.038267862 0.19324793 -0.114593044 0.060595855 0.3907466 -0.24215326 0.16141868 0.15571576 -0.09075582 0.2498688 -0.4167388 -0.08878414 0.11378883 -0.093385585 -0.0033374713 0.093208954
2623 0.14570759 -0.27221355 -0.089036286 0.09822715 0.110320926 0.27523205 -0.0027937184 0.11642039 -0.041014895 0.04207643 0.109988034 0.3398447 -0.17353357 0.17383926 0.21500446 -0.20064655 0.11926543 -0.15308964 -0.25330648 -0.036535475 0.020921383 -0.037399407 0.30842015 0.021334738 -0.104311146 -0.022803783 0.064705975 0.019261777 -0.13725646 -0.33084905 0.17116237 -0.26779467 -0.2275615 -0.30194995 -0.05173534 -0.060108464 0.15122135 0.16162483 -0.083075 0.020188635 0.059886854 -0.2615076 -0.065977074 0.06290229 -0.054293733 0.114547595 -0.10822266 -0.035652272 0.00036674706 0.16825533 0.058674626 -0.2119323 -0.025078913 0.022110885 -0.02115637 0.16360441 -0.09545832 -0.108776875 -0.21540125 -0.23656313 -0.34981248 -0.020284873 -0.30358335 0.010669488 -0.07051026 -0.033910215 -0.14480329 0.11384031 0.081474975 -0.12990011 -0.24433547 0.10003432 0.20874697 0.34857756 0.25842673 -0.01849331 0.086169586 0.054757785 0.12467286 -0.115286 0.2514138 -0.2601681 0.16988307 0.11604454 -0.015255062 0.053967133 0.07092016 0.17120005 -0.19034782 0.10988212 -0.1897433 0.055153433 -0.31349894 -0.012227746 0.04395802 -0.031272776 -0.22188632 0.06671643 0.12718645 -0.085550494 -0.049855933 0.20219544 0.22070129 0.25348192 -0.017549979 -0.23362677 0.018976562 0.3102685 0.22166881 -0.1700541 0.030861842 -0.107855566 0.18837573 0.04376292 -0.07124452 0.046650343 -0.10790542 -0.05655678 0.111362375 0.026453014 -0.1893958 0.034098536 -0.45841283 -0.115167275 -0.1975019 -0.34564924 -0.3869889 0.06438094
2320 0.0074597625 -0.041919377 -0.25250068 0.1197524 0.07181324 0.10284387 -0.12128233 -0.17798856 -0.08215626 -0.023308804 -0.032614544 -0.12803967 -0.1261189 -0.24433197 -0.06530986 0.052290834 0.048103057 -0.06827575 -0.0544445 -0.33707833 -0.17496707 0.04601978 -0.16885957 0.18896464 -0.1188833 0.30671793 0.062766515 0.22955571 -0.05994346 0.03769922 0.07022127 -0.19111478 -0.020450536 -0.3439491 0.14574622 -0.3253731 0.15027045 0.030872768 0.038019884 -0.14381114 0.15599337 -0.13253918 -0.047908004 -0.11459989 0.10138446 -0.1185555 0.30668512 0.12005777 0.052268725 -0.075261205 -0.16208223 -0.2941302 -0.21928252 0.028875321 -0.11214043 -0.16207036 0.24019824 -0.04325666 -0.046511386 -0.10230804 -0.043204296 0.1644403 -0.06650586 -0.25514272 -0.13680772 0.12800975 -0.056908827 0.19722494 0.004374611 0.0722235 -0.41834873 -0.015324371 -0.10813123 -0.2157709 0.0059621995 -0.006787334 0.29337788 0.059035305 0.10715774 0.023207126 0.20023721 -0.1933347 0.052085765 0.29828024 -0.25245228 -0.093398534 0.027335951 0.08354288 0.05359204 0.037925214 0.26158664 0.13665242 0.18333583 0.050894927 -0.053075828 -0.18755217 0.018376384 0.05992052 0.03422276 0.11294359 0.11053459 -0.12655742 0.30534068 0.31416097 0.17613159 -0.1386779 -0.004664747 0.04843356 -0.18719314 -0.30685166 0.22341074 -0.11733673 0.09813573 0.005307504 -0.037368156 0.124157816 0.27750397 -0.025272872 -0.014994257 0.006794568 0.12377207 0.26301605 -0.012835874 0.005460151 0.010939456 0.01626518 -0.16495429 -0.080534786
163 -0.115841955 -0.26929387 0.12196812 0.23170872 0.15030022 -0.12978223 0.28558937 -0.15360896 -0.29248428 0.07912688 0.040324803 0.04156914 0.00430842 -0.033405956 0.12835495 -0.37026948 -0.15835693 0.1970241 0.010517499 -0.0026993111 -0.12492879 0.1939464 -0.307584 0.21178102 0.11381154 -0.11714901 0.2701756 -0.15463531 0.010831751 0.17762743 0.1815727 -0.0257641 -0.0493219 -0.04907386 -0.16095982 -0.012067378 0.23451027 0.31667766 -0.29961246 -0.1673214 0.08890873 -0.090525374 -0.0067462446 0.112489 0.21404426 0.34699675 0.15595585 0.014946936 0.11003584 -0.08503795 -0.004729516 0.034167092 0.1464943 -0.16416627 -0.2322849 -0.16281417 -0.22744925 -0.00064914336 0.10655665 0.050469805 -0.10306137 0.17389305 -0.2370735 -0.1094613 -0.033457585 0.19329315 -0.06231765 -0.14680742 -0.22998369 0.07324319 -0.12080334 0.0006108138 0.5868967 -0.1562548 0.010490585 0.18090555 0.34744853 -0.34875375 -0.053922396 -0.21724412 0.036816124 -0.28084868 0.056131937 -0.13948098 -0.2399805 -0.030735087 -0.058679473 0.23139694 -0.3075592 0.004740404 -0.029922482 -0.09089826 -0.1742677 0.044577844 0.03920957 0.01994069 0.3928135 -0.27023622 -0.015030209 -0.27289632 -0.14556195 0.09482208 -0.10376331 -0.024600053 0.09967921 -0.05915743 -0.07578038 0.03545205 0.17775723 -0.07807529 -0.15994795 -0.19679545 0.13757901 0.072704524 -0.20290372 0.109424114 0.25962308 -0.2810712 0.11395343 0.10269887 -0.05432994 0.25032634 -0.3787663 -0.15697397 0.08649661 -0.10347138 -0.080342405 0.21553296
1489 -0.023070237 -0.27679768 0.21995623 -0.0055468525 0.1207444 0.13266078 0.12696543 -0.064871885 -0.32698986 0.022297101 0.055558465 0.09926395 -0.08892196 -0.031555608 0.11859668 0.036007 -0.06154598 0.02758561 -0.22523396 0.27309707 -0.055648033 -0.0074034096 -0.024368746 0.06598609 -0.037727978 0.30262753 0.006350355 0.030399924 -0.11819811 0.24847196 0.07371349 -0.09233337 -0.023722662 -0.18099679 0.06667361 0.103607334 0.31026673 -0.11166333 -0.09345037 0.016112931 -0.09868619 0.09767261 -0.05454489 -0.2969462 0.005136472 -0.24073198 0.052072264 0.13243933 0.067858554 0.14012258 -0.01898455 -0.14828128 0.22617564 -0.120806545 0.14488427 -0.0060780626 -0.12920901 -0.024822596 -0.106123716 -0.03151064 -0.04733033 -0.20011188 0.060412385 -0.025484 -0.4614411 0.03008094 -0.15890203 0.12983847 0.018440662 0.052014105 -0.16483599 -0.048878886 0.30021748 0.14482786 -0.03187114 0.0038103347 0.15176019 -0.035786252 0.06390499 -0.24976212 -0.15092964 -0.15449108 0.0031245118 -0.022876788 -0.08909191 -0.15479371 0.042694494 -0.045701053 -0.05971479 0.075057 0.2888555 0.24694116 0.37085688 -0.06461379 0.07809071 0.026029179 -0.07005898 0.0139709115 0.1603881 0.22959183 -0.05950254 0.16135217 0.26996142 -0.008016257 -0.028261967 0.086576365 -0.106263556 -0.19127536 0.16266215 -0.3696014 0.14342003 0.02970251 0.045352608 0.05273628 -0.19984724 0.082911775 -0.0059364396 0.014466876 -0.08539444 -0.053330775 0.28292608 0.20114805 0.05554233 -0.012958376 -0.09326981 -0.2115623 -0.17692381 -0.15223396
420 0.11371334 -0.077025004 0.25712398 0.025573328 -0.14325209 0.13368846 0.025852297 0.17306806 -0.341474 -0.23161457 0.09808553 -0.094555564 0.25307736 -0.19541818 -0.06539314 -0.46896887 0.2828388 0.0020989513 0.20427378 -0.01019739 -0.21886623 0.2542435 -0.24375433 0.008244225 -0.26221135 0.10863826 0.22650492 0.28624243 -0.04708062 -0.18864058 0.19594295 0.09355851 0.30579758 -0.11228669 0.20048244 0.26552188 0.38796085 0.10356777 0.0685418 0.07791315 0.039817154 -0.062847905 0.059167054 0.14954136 0.16368832 0.06693648 0.031654585 0.034985386 0.0021499782 -0.12601694 -0.06184807 -0.18697052 -0.11386059 0.2511538 0.075940795 0.060654126 -0.34180266 -0.11184032 0.018271536 -0.1829899 0.041183848 -0.1049993 -0.29484093 -0.22965106 -0.25763428 0.06393325 0.14405988 0.012712493 -0.2695488 0.04196506 0.075339064 -0.18569504 -0.21235299 0.46717066 -0.20275012 -0.10644103 0.017777067 -0.07829003 0.020185905 -0.22460781 0.11381737 -0.16427332 -0.00028102766 -0.20148233 -0.1478994 -0.15482873 0.17753924 -0.26871467 0.3210366 -0.14105341 -0.017849915 0.044821486 -0.12859021 0.12160781 -0.1727996 -0.038536545 0.014700441 -0.08316685 0.23772198 -0.04932056 -0.12615302 -0.3608299 0.09090744 0.08921639 0.12349731 -0.26727858 0.103710964 -0.059170578 -0.06823137 -0.08104511 -0.057134062 0.16677453 0.12248108 0.13652964 -0.068426184 -0.16949074 -0.019793583 -0.25847396 -0.05121586 0.035024207 -0.11623721 0.1737525 -0.06684901 -0.18610662 -0.2130396 -0.118638724 0.1504916 0.17999282
141 0.11956804 -0.11571773 0.061367583 0.19425772 0.2625993 -0.08108838 0.037823007 0.06647904 0.04564606 -0.010898114 0.09883447 0.082667775 -0.01982057 -0.14882809 -0.0022929055 -0.2979926 0.014387303 0.06542278 -0.13577062 0.09318168 0.02707303 0.03942355 0.008433699 0.09697503 0.027350152 0.023830852 0.4119372 0.18723693 0.031454515 0.18069191 -0.2553663 -0.026138026 -0.07048448 0.01196232 -0.09683997 -0.120965004 -0.07287325 -0.36526954 0.17658378 0.10278132 -0.1096144 -0.068625666 0.028024107 -0.064491965 -0.04303945 0.03664508 -0.028040428 -0.055349324 0.2108083 0.07504354 0.08335281 -0.022843659 0.0028640267 -0.22537284 0.15992087 -0.34757993 0.020982534 -0.1501606 -0.04781225 -0.10928962 -0.22825404 -0.10440862 0.06392335 0.02485869 -0.10914004 -0.1444594 -0.14383629 0.22878422 -0.121165074 0.029664235 0.09303874 0.024629684 0.054904643 0.11416193 -0.22672649 -0.23104367 0.16617312 -0.22923586 0.15556812 -0.18025927 -0.23343527 -0.13557339 -0.0585493 -0.33068603 -0.045436896 -0.041243427 0.121715374 0.043390602 0.1340157 -0.12287049 0.10262012 0.08610785 -0.19723669 0.20065415 0.11914613 -0.14339204 0.13387844 -0.113731004 -0.06391923 0.29408485 0.0503074 0.07982762 -0.16690683 0.23838405 -0.010665308 0.12503226 0.26256895 0.114039026 -0.14632584 -0.3606499 0.047411248 0.13808095 0.026118707 0.15889566 -0.08410566 0.06155412 -0.03884599 0.06238379 0.0041372967 0.20231822 0.1621847 0.1150163 0.15358487 -0.047446534 -0.029901111 0.04285356 -0.20113245 0.16838606
651 0.38663316 -0.23127659 0.15638418 -0.031006217 0.085682675 0.05682257 -0.17823362 -0.1299909 -0.010570145 -0.0062525626 0.008013947 -0.02052454 0.017951228 -0.2985686 -0.18046859 0.09837991 -0.121527955 -0.0060072686 -0.27978665 -0.26019913 -0.1756372 0.11130675 -0.17114915 0.20957424 -0.21885589 -0.14961098 0.029838119 0.057668816 0.124030575 -0.13187312 0.30322105 0.049184225 -0.14808068 -0.28462765 0.0104665905 -0.103044964 0.13071118 -0.10232884 -0.35417113 0.027996173 0.34000617 -0.31705707 -0.13496563 0.14471854 -0.13412987 0.050707024 -0.12442466 0.19131869 0.09883821 -0.37638518 -0.09763447 -0.20205642 -0.014587545 -0.20174898 0.33798516 -0.24780582 -0.09856829 0.026733225 -0.0495814 0.042696793 0.004883559 -0.3818933 0.21270578 -0.37085053 -0.07241075 0.2998902 0.029312205 0.20219657 -0.055813175 0.045529965 0.11435531 -0.15137798 -0.2811851 -0.07995754 -0.004037515 -0.14555986 0.07736277 -0.34758824 -0.03413689 0.059373304 0.080173954 0.22455429 -0.21318863 0.11875195 -0.23112202 0.1192429 0.2923872 0.2013796 0.10638523 -0.10917119 0.2957448 -0.05884338 -0.42615223 -0.06581804 0.03736557 -0.112786144 -0.085359536 -0.25938633 0.17444295 -0.1404036 0.11658904 0.035563167 0.17206228 -0.028177753 0.18913673 -0.12655511 0.016052451 -0.23606017 0.12628531 -0.07907311 0.013415608 -0.0582977 0.08704241 -0.055615183 -0.30960643 -0.041577287 0.19649938 0.0055883294 0.06898449 -0.0225064 0.03515827 0.14544913 -0.022224985 -0.095541894 -0.14139903 -0.11579648 -0.07313855 0.28286815
162 -0.24296804 -0.18813488 0.1589833 0.15648295 0.060713783 -0.13423826 0.19284573 -0.1008328 -0.37298784 0.13281374 0.058697395 0.18086168 0.016470555 0.02997136 0.15490302 -0.35581166 -0.23861411 0.22803397 0.01712285 0.028519414 -0.036861923 0.27645025 -0.4575488 0.2066682 0.21327102 -0.12333122 0.22147028 -0.08877727 -0.025034174 0.05186244 0.2083268 -0.19641969 -0.045759052 0.0013594994 -0.11259887 -0.09345897 0.14487764 0.22994654 -0.3103889 -0.09519296 0.04147968 -0.21305671 -0.083238594 0.077416144 0.1701143 0.3835454 0.19831556 -0.09029578 0.16454054 -0.14869712 0.06382647 0.068342246 0.11241488 -0.025583787 -0.1912659 -0.10044891 -0.1106462 -0.11931626 0.15206687 0.044205155 -0.19038616 0.027526315 -0.11156328 0.042725652 -0.09003353 0.2507413 0.013732174 -0.042171836 -0.3968189 0.052559994 -0.05633721 -0.114598095 0.45985818 -0.1695208 0.042704016 0.089760594 0.20896661 -0.3060616 0.009864146 -0.22331882 -0.034913562 -0.18033794 0.016431121 0.0073153377 -0.3019364 -0.063772805 -0.03153245 0.19724049 -0.2867672 0.10882649 0.07676709 -0.09293429 -0.15263304 0.07018442 0.0054272544 -0.0016994446 0.46888274 -0.23333724 0.024371961 -0.2297041 -0.12206611 0.06368412 -0.10987079 0.041159153 0.14597917 0.04186473 -0.03185457 0.11847008 0.2460046 -0.13403451 -0.13637167 -0.184942 0.13983108 0.12597859 -0.112117104 0.17206223 0.31040385 -0.21079841 0.168704 0.07344866 -0.07881785 0.26437178 -0.38859856 -0.09685352 0.12843671 -0.20001893 -0.11706953 0.20352289
613 0.14442722 -0.06625664 -0.0041691004 0.17199044 0.17055123 -0.09496479 0.02054003 0.13135481 -0.13111898 -0.17812239 0.035874348 0.3434581 -0.22660014 -0.124093555 -0.10299688 -0.013324874 0.047642644 -0.085815966 -0.011442585 0.085729696 -0.06315828 0.1996686 -0.12614794 -0.27463794 -0.22947168 -0.17821817 -0.015719565 0.026472533 0.26487812 -0.1469395 -0.01324057 -0.09317378 -0.0518778 -0.3447167 0.0011283477 -0.23302448 -0.11512934 -0.01497316 -0.05189682 0.0674217 -0.049975432 -0.095537275 0.082103215 0.19851252 -0.05227568 0.02102643 0.174178 0.20707129 0.08438464 -0.14286044 0.08742144 0.2564043 -0.06043076 -0.005619043 -0.13975151 -0.0681538 -0.2189092 -0.3356632 -0.31003225 -0.5116029 -0.053809322 -0.13683957 -0.16186766 -0.24828713 -0.09145481 -0.011377128 0.08491986 0.087434016 -0.0075001162 -0.19445352 -0.16388734 -0.2402491 0.3731954 -9.874655e-05 0.17992795 -0.089213975 -0.062323797 -0.23377317 0.08566837 -0.1811857 0.19112541 0.21428967 -0.010002271 0.12997776 0.1727491 -0.11163325 0.12553082 -0.1749924 -0.14846553 -0.073809 -0.016771035 0.18226363 0.06235172 0.40540162 0.019137688 0.012787501 0.014565593 0.11444371 0.206339 -0.1889342 -0.28128973 -0.14762262 0.19021171 -0.30931368 -0.18272372 -0.004728528 0.20296155 0.065487824 -0.15732169 -0.086069986 0.053753283 -0.24592265 0.005397905 0.1730888 0.13579951 -0.14490895 -0.1865375 -0.08402419 -0.07672392 0.1328647 -0.13603885 0.22298662 0.06314302 -0.11929405 -0.01954546 -0.22488064 0.0007842075 0.16074428
213 -0.19142878 0.03383664 -0.07945383 -0.13115743 0.0377507 0.29153085 0.217037 0.23412588 -0.1568719 -0.24866335 0.18048187 0.045863643 -0.09291856 -0.19104622 -0.18112269 -0.3324689 0.023251379 -0.068813294 0.12713204 -0.2647805 0.00043449612 -0.027645273 -0.12632081 0.16371177 0.11557175 0.14315724 0.30604485 -0.043229643 -0.037124407 -0.21449496 0.07429829 -0.043765854 -0.18095098 0.05753982 0.24683416 -0.13816242 0.2811047 -0.159041 -0.089196935 0.062419683 0.03831176 0.21515681 0.23096567 0.07182224 -0.22748719 0.22283866 0.060085002 -0.08163807 0.13751957 0.12684746 -0.26133272 -0.34092557 0.009702164 -0.2954721 0.08565251 -0.13340902 -0.052790437 -0.103668265 0.020556888 -0.19259554 -0.24013045 -0.09361664 -0.04365923 -0.15335752 0.10195191 -0.060567986 0.040846776 0.32057202 0.05945313 0.13164502 -0.119315565 -0.021458538 0.23339671 -0.2673341 0.05231309 0.16349825 0.054165848 -0.23670037 -0.119165525 -0.16756278 0.11737022 -0.31558523 -0.110816255 -0.023851667 -0.06918283 0.036004853 -0.03819614 0.24268542 0.17083861 -0.061176382 0.18451098 0.17815126 -0.21279591 0.19029346 0.34673092 0.1564531 -0.23173569 0.07707185 -0.21507156 -0.1884187 -0.32685754 -0.13562109 -0.15549472 0.14318307 -0.021342611 0.120426424 -0.0081451945 0.37207142 0.1434709 0.23300187 0.42524186 0.09283138 0.24296781 0.09043941 -0.27353948 0.20522979 0.18636094 0.101650745 -0.15046562 -0.078065276 -0.11880398 0.15323876 0.12729247 -0.09304171 -0.18396364 -0.3514438 -0.20017289 0.17395835
171 0.16500133 -0.25999945 0.3871617 0.13256632 0.14879686 -0.127863 0.117030166 -0.08593304 -0.4148752 -0.1848357 0.28218597 -0.06905182 -0.3503924 0.12612863 -0.024839971 0.05323752 0.041874856 0.049051903 -0.17136729 0.04588085 0.27473494 0.17031631 0.004603658 -0.18749596 -0.30281523 -0.058203634 0.26262328 0.041297942 -0.01241569 0.14226747 -0.06157426 0.15211493 -0.20017979 -0.178158 0.14248042 0.02584052 0.025783595 0.58364064 -0.06938635 -0.05781398 0.050067928 -0.2597942 -0.24618685 -0.2654785 0.013920727 0.22052208 0.21963796 -0.11560993 0.031472288 0.24849688 0.24926943 -0.2048756 0.16451973 -0.00215351 0.050106212 -0.1980894 0.20226283 0.044669773 -0.10998232 -0.070433065 -0.24845526 0.28323928 0.057771336 0.12463185 -0.07076397 -0.08036847 0.04355294 0.42609686 -0.00049196125 0.100701354 0.3823026 -0.24158214 -0.09518638 0.0070800567 0.23845385 -0.07862331 0.1835273 -0.14674477 0.1507815 -0.004426051 0.23739725 -0.14485404 0.15085621 -0.06406855 0.2001771 -0.124172635 0.37624106 0.061679214 -0.08243176 0.11934016 0.15405019 0.051704872 -0.04469205 0.00538613 0.22954167 -0.06382571 0.116763435 0.29442188 -0.24283831 -0.11229479 -0.13359402 0.04269178 0.25351548 -0.18776278 -0.062905945 -0.05783965 -0.24353312 -0.17627452 -0.17446128 -0.1969526 0.34866455 0.31410906 0.32397524 -0.03214203 -0.26105243 0.05515876 0.16589992 0.1343574 0.18201773 0.040184513 -0.1384516 0.18455608 0.33623296 0.01983198 0.1940778 0.11641447 0.04632501 0.04361059
338 0.18012439 -0.11999656 0.32136267 0.14009133 -0.024427654 -0.1238638 0.13155611 0.063281015 0.04748183 -0.07880653 0.11850317 0.0017226124 -0.06530135 -0.2383522 0.054762583 -0.119508184 0.01757255 -0.024160711 -0.25241792 0.07475758 -0.09198457 -0.073230945 -0.11875852 0.057193115 0.010022698 0.30764562 0.028999517 0.13252285 0.13817754 -0.042027097 0.0055957446 0.0067895544 0.10108551 -0.010726584 -0.016275035 0.058189042 -0.072183184 -0.108171485 0.01497478 -0.11443803 -0.048948437 -0.016277693 0.1342935 -0.06714955 -0.120242715 -0.06115254 -0.24575959 -0.044914145 0.08475534 0.0035743904 -0.17588404 -0.02484073 0.04020784 -0.10373843 0.1254699 -0.28573716 -0.08960636 -0.07921049 -0.0718618 -0.041194666 -0.13094255 0.0699963 -0.049397893 -0.25261158 -0.032351114 -0.11121022 -0.038893152 -0.13509339 0.008773325 -0.090954155 0.20778267 0.07285782 0.2672396 -0.003682357 -0.15796801 -0.19540097 0.15342806 0.0807714 0.2835185 -0.1354859 0.016117103 -0.36077347 0.107325524 -0.15756606 0.10632973 -0.16381624 0.28062788 0.22728665 0.10753322 0.095366664 0.15626368 0.12014817 -0.2191058 0.0951964 0.01998207 0.09845274 -0.17962965 -0.12414135 0.14020279 0.07980185 -0.21799575 0.14372754 0.085353404 0.11217527 -0.17185654 0.16294739 0.23986158 0.0097012175 -0.2525715 -0.1993274 -0.06362999 -0.18770367 0.010474015 -0.08726373 0.17198578 -0.04139158 0.080238365 -0.042669326 0.03664668 -0.04832114 0.13349654 0.114956535 -0.06676927 -0.19173758 -0.08065694 -0.15404427 -0.07022481 0.06246744
652 0.41737732 -0.26482517 0.16618395 0.019559506 0.087560326 0.06547507 -0.15238878 -0.0578776 -0.056833204 0.048036736 -0.03294052 -0.13064916 0.0813366 -0.37373358 -0.04262584 0.032590028 -0.29397425 0.106308304 -0.27198926 -0.36933163 -0.05754905 0.1336162 -0.13603243 0.16052297 -0.1323928 0.010624036 0.07015202 0.041716374 0.112443574 -0.16700894 0.33182272 -0.08658366 0.0011325169 -0.2831979 -0.022024676 -0.0830253 0.10892523 -0.13546824 -0.3517856 0.029777015 0.32168198 -0.23681156 -0.099059835 0.13466433 -0.15208434 0.058183424 -0.025447678 0.18778533 0.12379147 -0.32852748 0.049833182 -0.2032061 -0.11428574 -0.1585084 0.28047365 -0.26816377 -0.0037118045 -0.048387043 0.055922814 0.0867096 -0.07350849 -0.4622057 0.25370798 -0.4225642 -0.05641362 0.28083006 0.0033984762 0.050557617 -0.114747584 0.0072506056 0.07904369 -0.14452133 -0.101978466 -0.021837035 -0.06811123 -0.14162306 -0.02718477 -0.29218456 0.033715263 0.07953758 0.13726367 0.20262404 -0.2294548 0.11445955 -0.15313381 0.14260878 0.24172983 0.11898108 0.055468075 -0.06000891 0.3219211 0.008310906 -0.4120332 0.0062794215 -0.043005064 -0.10425046 -0.05298649 -0.19519812 0.23590901 -0.25922447 0.112608664 -0.035987552 0.10632913 0.028972935 0.0940693 -0.14504868 -0.06665033 -0.3160895 0.07127152 -0.14469187 -0.0010412615 -0.12279808 0.102644384 -0.08006442 -0.30466798 0.030062236 0.31452358 0.024413742 0.086818844 0.104258716 0.0044836085 0.06753889 -0.12089828 -0.10701175 -0.20269099 -0.036581915 -0.10821196 0.4039865
