2634 128
2633 -0.36662814 0.06642423 0.16200456 -0.038190275 -0.06894927 -0.076372184 -0.048697677 -0.034608975 0.2628863 -0.20399329 0.25241697 -0.12803884 -0.21518485 0.19983205 -0.20798321 -0.112464644 0.008231272 -0.0126575995 -0.1008463 -0.06461581 0.34206554 -0.18062095 -0.026534382 0.21405718 0.13109776 -0.057466045 0.056880213 0.08769958 0.07187853 0.19464111 0.21448253 0.02412511 -0.16345906 0.03425226 0.11784378 -0.037838377 -0.035898916 -0.045019113 0.19317286 0.23512457 0.17450036 0.038732417 0.041810688 -0.18264402 0.04209349 0.029914346 -0.011932014 -0.06716203 -0.09349379 -0.090093665 -0.19683042 -0.08343565 -0.18164164 -0.10898209 -0.09290506 -0.051489145 0.30608568 0.32116997 0.045467466 0.1265332 -0.14969337 -0.22022301 0.090017006 0.043264173 0.1070154 -0.19814898 -0.087393254 0.0016866836 -0.16390316 -0.011453102 0.26017386 0.1261711 0.034463562 -0.11182616 0.07759244 -0.04570595 -0.10524977 0.07621611 -0.055564016 -0.024722049 -0.070936166 0.18295407 -0.2604531 0.04150465 0.09101259 0.50593483 -0.07806225 0.1349005 0.20267716 -0.054138742 0.067053266 -0.20289041 -0.14482777 -0.10140267 0.30672362 0.121082805 0.020003648 -0.027733793 0.20801802 0.034112714 0.058574557 -0.23211582 0.04956476 0.098499686 0.061339017 0.0036570944 -0.015909536 -0.08494414 0.07303274 -0.38661984 0.17104632 0.008541928 -0.11684499 0.07365286 -0.1572065 -0.28882992 -0.057827067 0.21474223 -0.1694281 -0.060724072 0.004665998 0.052347656 0.084663875 0.03303133 -0.19379131 -0.022332149 0.29282874 -0.05034097
2550 -0.24240978 -0.26519346 0.07869345 -0.4184551 -0.19368316 0.0808598 -0.21655777 0.049710255 0.14479126 0.061466224 0.23364346 -0.054227676 -0.16198395 0.08477954 0.00062132854 -0.110617384 0.10931321 -0.21444073 0.14301255 0.035839245 0.3225984 -0.114165545 0.13581325 0.24391405 -0.008966252 -0.0131212985 -0.14419514 0.10648135 0.052977752 0.13454278 0.07589523 -0.21310854 -0.079333566 0.21733388 -0.23282003 0.11304443 -0.17650816 0.037492033 0.12631428 -0.06837406 0.0816898 -0.028802276 0.06545329 -0.32152086 0.15677196 -0.35547796 0.11943 -0.09384063 -0.17378639 -0.07368402 -0.15835737 -0.20213768 -0.06290693 -0.14950036 0.10480455 0.09011634 -0.0044056065 0.1393874 0.21471012 -0.019399159 -0.0022060073 0.08143913 -0.004785613 -0.089296676 0.22057196 -0.2947164 -0.18027422 0.19018602 0.0056139296 -0.0011846793 -0.28926945 -0.10703468 0.04956385 0.008813216 0.13538769 0.15090066 0.12407252 -0.11612906 0.061245814 -0.025933407 -0.25154883 0.12720391 -0.21406436 0.32841632 0.08188526 0.28695086 0.23197252 0.37278742 0.04012267 -0.13664533 -0.03830004 -0.031791534 0.027415643 0.03284674 -0.23086753 0.24361585 -0.037762813 0.011681648 0.049312044 -0.101612434 -0.104917675 0.13271438 -0.041533723 -0.01827596 -0.010189399 0.022749688 0.011119886 0.027819578 0.057994105 -0.22291672 0.3057835 0.16472787 0.15216191 0.21705246 -0.15563956 -0.014831766 -0.0786927 0.06693385 0.084679745 0.14073122 -0.13254352 -0.08205169 0.17020068 -0.08304558 0.1279673 -0.13284905 0.21683338 0.2103142
2568 -0.11147132 0.13581988 0.053642858 -0.18328805 -0.21964698 0.029126966 0.12768514 -0.048031095 0.1365925 0.028915737 0.184469 0.1574446 -0.22461423 -0.010001205 0.14343643 0.0579586 0.12594695 -0.09575956 0.10645073 -0.14391316 0.13165054 -0.2451682 -0.13943477 0.03338448 -0.0818841 -0.1434204 -0.032376435 0.0048560635 0.026353067 0.011288886 0.21565993 0.27546147 -0.032063786 0.1051378 -0.11453162 -0.11611564 -0.0801165 0.07776759 0.07376367 0.16038948 0.08974743 0.014187996 -0.07217137 0.121853225 0.048507906 -0.08639934 0.010105193 -0.041528907 -0.030561354 -0.078643315 -0.04187215 -0.028166113 0.043590967 -0.3972753 0.117710054 -0.08072185 0.25889176 0.009516595 0.22012082 0.027911345 -0.27982908 0.18319122 -0.08980191 0.16435923 -0.06171653 -0.06791473 -0.039722152 -0.11823568 -0.25165468 -0.0553932 -0.25691503 0.016462665 0.098299846 -0.12790804 0.19785221 0.0421349 -0.13724045 -0.25511846 -0.13163061 0.1362074 0.020992981 -0.0735336 -0.20287013 -0.049920496 0.42949805 0.28226498 0.09685752 0.23673198 0.11282513 0.007388877 -0.0018522916 0.097455025 -0.11729472 0.124235556 0.06864614 0.02549661 -0.038345255 -0.33510384 -0.034631778 -0.0744995 0.07229856 -0.11174528 0.034719802 0.24575856 -0.032995775 0.038469326 0.0888247 0.0354823 -0.06497221 -0.20417601 0.06861547 0.20970723 -0.04448224 -0.0882133 -0.1753325 0.0717425 0.22078598 0.24427117 -0.10290091 -0.08705291 -0.21279298 -0.12445737 -0.29752505 0.0774609 0.043104507 0.08248537 0.18351364 0.11637282
2604 -0.23668897 0.024896473 0.31855708 0.054492597 0.08346619 0.19779041 -0.025721436 0.14844823 -0.064203314 -0.11634492 0.19451964 -0.10514197 -0.18876824 0.26824152 0.045740742 0.017925233 0.06511489 -0.17317161 -0.14142606 -0.28273 0.28450128 -0.46340466 -0.16823553 0.04834557 0.1392236 -0.044116266 -0.10773857 0.24289264 -0.06728601 0.104303494 -0.06818036 -0.13891168 0.080078684 0.32127786 -0.1465642 0.04761543 0.081653945 0.080702044 0.064786166 -0.013001169 0.0502313 -0.016300267 0.14110713 0.14559966 0.07511016 0.009577488 0.071744405 0.15102379 -0.0633107 -0.14744133 0.084266916 0.079090625 0.01300282 -0.044891633 0.38211042 0.023399783 0.21818641 0.21104263 0.2915724 0.17488982 -0.05774395 -0.091964796 -0.02706974 -0.16306423 0.00017724681 0.10864059 -0.026270175 0.024317458 -0.03620471 0.101418905 -0.042711534 -0.2844535 -0.04540874 -0.117710695 -0.08199392 -0.019668505 0.059229355 0.11158453 -0.13492928 0.0076341555 0.11899861 -0.16952308 -0.25262037 0.12623559 0.15885103 0.23804292 0.06124491 0.20092194 0.006381572 0.16298996 0.2350841 -0.01867129 -0.074087 0.059559155 0.095617786 0.009439937 0.094892144 -0.0892389 0.023754343 0.28459918 0.072690114 -0.04245229 -0.037433892 0.12081782 -0.20651318 0.045614153 -0.047566533 -0.070421115 0.18908864 -0.2664294 0.2753755 0.008494416 -0.15516403 0.0010616961 -0.32085302 0.03922555 -0.036355678 0.30436128 -0.18469259 -0.046895612 -0.0013377252 -0.09877899 0.057368886 0.008483046 -0.0321734 0.081221424 0.2022772 0.003699566
2610 -0.28502783 -0.25325865 0.04442278 0.2638695 -0.075966515 0.000466123 0.03337778 0.25771195 0.010097132 -0.11554666 0.14693324 0.17192462 -0.10347843 0.2245444 0.16291505 0.11421965 0.31794316 -0.068546236 -0.06999261 -0.08215645 0.08455743 -0.121715665 0.0005031997 0.09243937 -0.32543117 0.07354815 0.18721874 -0.15276359 -0.2631074 -0.10647308 0.0771435 -0.13649651 -0.19923742 -0.00595998 -0.12421959 0.023435129 -0.17758748 0.016915059 -0.16219616 -0.009593901 0.037550986 0.31712154 -0.06537193 -0.24087189 -0.13933511 0.012395888 0.14074296 -0.121652886 0.17212233 0.022644179 -0.15080385 -0.008824944 0.008461097 -0.34088993 0.048258364 -0.04825392 0.12016951 -0.015560594 0.018204927 -0.0813161 -0.06432129 0.08992879 0.13493815 -0.030485217 0.19357942 -0.22537866 0.019283392 0.050506882 -0.094705865 -0.08695239 -0.118615374 0.22567953 0.03293808 -0.08230589 0.24227081 -0.2290034 -0.12996642 -0.07016654 -0.025883356 0.15814537 -0.354117 0.16414328 -0.17394349 0.038866065 0.15712391 0.2051616 0.011409606 -0.015821766 -0.13207516 0.07434383 0.031623 -0.23411712 -0.16749461 0.024618281 -0.06106975 0.17250997 -0.18082567 0.054145806 0.0009382468 0.15822722 -0.0031300134 0.012507097 0.022502888 0.019709436 -0.1728908 -0.08472861 0.25422755 0.18006943 0.02675154 -0.34721425 0.09644626 0.32822666 -0.15903735 -0.05890054 -0.07769133 -0.09528406 0.05577734 0.28709784 -0.42281017 0.02253502 0.052558713 -0.23035342 -0.0037302151 -0.061282333 0.10077438 -0.16344467 0.17902091 0.24788052
2454 -0.21118721 -0.23334146 0.10308582 -0.22789131 -0.1102532 0.0819721 0.056660186 0.12539941 -0.11581016 -0.0009515432 0.11630767 -0.02196287 -0.16292845 0.22868206 0.025910372 -0.09614396 0.017289752 0.18413307 -0.25049824 -0.111134194 0.08762972 0.053297028 0.20015195 0.30264142 0.02078847 -0.031385742 0.15277515 -0.0060114046 -0.13462174 0.2213933 0.14616759 0.22046858 0.029244984 -0.032815494 -0.14636609 0.051437054 0.049405865 0.052802045 0.21530436 0.2032428 0.04681289 0.31918883 -0.020194868 0.14197129 0.13696653 -0.01972454 0.09969122 -0.28966972 -0.14148547 0.07466083 -0.14371009 0.07103803 -0.1147695 -0.26296455 0.24687912 -0.18412668 0.053168744 0.018916588 0.11855176 0.15015143 -0.06708246 -0.015686978 0.23093288 -0.03951436 0.0569204 0.052603938 -0.12231619 0.112921976 -0.16657762 -0.03835135 -0.10824609 -0.024070827 -0.122492336 -0.05097797 0.13645743 -0.053821247 -0.06077161 0.022571342 -0.18453597 -0.1553876 0.045975383 0.015611339 -0.17964049 0.12583487 0.27214858 0.16388117 0.07153151 0.30846292 -0.11097948 0.13468474 -0.11814506 0.123982266 0.10433989 -0.09009689 0.04216138 -0.07164894 0.22951932 -0.34421265 -0.050068278 0.10334393 0.1883063 0.04515379 0.05749193 0.19101177 -0.15244879 0.0035574879 0.065011315 0.07621735 -0.08092398 -0.2625432 0.19182336 -0.04028646 -0.1276261 -0.13427618 -0.19162974 0.31166157 -0.09226706 0.27455816 -0.27965918 -0.2526208 -0.082953565 -0.023747217 -0.13206637 -0.05746127 0.008859623 -0.1658318 -0.053892378 -0.020889776
686 -0.0068802317 0.10184903 0.048253655 -0.14654514 0.19757622 0.077493735 0.02023572 -0.009522903 -0.009249501 0.008014884 0.1133453 -0.0060204435 -0.096105054 -0.053942364 0.11024654 -0.123744234 -0.037637036 -0.01871363 0.028956484 -0.13192613 0.140911 -0.014479337 0.05393684 0.24657631 -0.017137695 -0.044577956 0.027780896 -0.020038795 0.006681022 0.13693322 0.11411588 -0.025523428 -0.057329673 -0.10370586 -0.20977657 0.042628463 0.05831279 0.16344638 0.12157716 0.012846193 -0.04926935 0.05455689 0.059998278 -0.002583191 -0.14211306 -0.045765072 -0.051265318 -0.12244014 -0.01655084 0.06875943 0.017183058 -0.17264348 -0.09847088 -0.05521636 0.18504131 -0.015538682 0.12604295 0.07550881 -0.0068027116 0.25933605 -0.09084742 0.122695364 -0.22370586 -0.12830529 0.062010378 0.029012738 -0.019079268 -0.08939083 -0.21799202 0.051048297 -0.058111478 0.008360355 -0.05590722 -0.1644239 -0.069850214 0.0121793235 -0.12978515 -0.0010597662 0.19602835 -0.017249774 -0.23621133 -0.19756506 -0.101420276 0.11894335 0.07951485 0.11371059 0.07822485 0.049080897 0.17553055 -0.10953563 0.053668167 0.01661546 0.041561864 0.09041298 0.09983453 0.107551016 -0.11384929 0.024291832 -0.07883135 -0.10135558 0.04150657 0.0097494535 0.11745785 -0.12766314 -0.23675135 -0.05411037 0.22681388 -0.053828012 0.04159271 -0.011889173 0.21250923 -0.107404515 0.055599246 -0.061365683 0.06311525 0.025033882 0.09433796 0.03612903 -0.21339807 -0.12213616 0.07658852 0.016609149 -0.013072471 0.04643754 -0.03422727 0.08401845 0.090478785 0.13391007
2464 -0.5107779 -0.08258488 0.10993189 0.23452719 -0.1956371 -0.16247445 0.050639313 0.020800507 -0.28836033 -0.661753 0.012182858 0.10166228 -0.09593025 0.027527543 0.08349265 0.09950083 0.025462916 -0.36673158 0.12414067 0.19056632 -0.19288191 -0.12681781 -0.15370205 -0.2238714 0.029273044 -0.32917845 -0.4967908 0.048634507 -0.15480436 0.124627024 -0.2506856 -0.11016412 -0.13829777 -0.5380878 -0.4653969 0.43376166 -0.21050619 -0.012369976 0.118342794 -0.020706218 -0.3105074 0.28475663 -0.03770009 0.12648878 0.10220796 0.39584503 0.72965354 0.3516366 -0.19631755 -0.07131941 -0.14668807 -0.026336437 -0.41906756 -0.25319502 0.18766609 -0.1750592 -0.048534986 0.21073751 0.09297883 0.4828584 0.005681196 0.12133422 -0.1188975 -0.1962837 0.12589425 -0.07313975 -0.44257307 0.22068435 0.10759877 0.07465061 -0.18666805 0.07629827 0.019608436 -0.25834358 -0.1568682 -0.03280361 -0.26485568 0.048920654 0.86839885 -0.056261793 -0.27997968 0.18642765 -0.15253937 0.61268604 0.36878356 0.2059054 0.08055491 0.09577193 0.35456967 0.09060925 -0.1095756 -0.008660795 0.0054484378 -0.28045017 0.31600574 -0.14431667 -0.11288193 0.41239938 -0.2500703 0.20704256 0.26353407 -0.0426264 0.069815844 0.13962157 -0.14072575 -0.07984567 0.23621383 -0.46395987 0.4504493 0.037975933 0.29848355 0.37934798 0.3814727 -0.20287271 -0.022732105 0.10920902 -0.080696195 0.5577225 0.37967417 -0.49695364 -0.0042285807 -0.34793946 -0.30548605 -0.03572722 -0.15208687 -0.19085439 0.3488567 0.17050506
249 -0.1147323 0.092896216 -0.10061468 0.05598226 0.08404277 -0.13856211 0.05804152 0.09857917 0.14132348 0.13736877 0.057339765 -0.08651284 -0.24909772 0.14467871 0.14213811 -0.03648897 -0.01543308 0.028949648 0.12549284 0.16015424 0.07781094 -0.24691007 0.0021711786 0.3801234 -0.08791747 -0.16069289 0.1526653 0.02591935 0.06295881 0.34563386 -0.0042580506 -0.052454915 0.0920376 -0.07796005 -0.08445731 -0.13375783 -0.007394326 0.18165056 0.15658747 -0.10922007 0.20835249 0.12007402 -0.085844934 -0.15501206 -0.029967854 0.39622116 0.12633105 -0.082051836 -0.18199037 0.15875074 0.19873403 -0.18203615 -0.23667806 -0.067733444 0.07653968 0.027893214 -0.23225573 0.07076309 -0.062275227 0.030306792 0.17928375 -0.18922675 0.22077622 0.06684647 -0.1254689 -0.16069119 -0.2813073 0.18878482 -0.06954538 0.25489938 0.0140693225 -0.14572938 0.09756401 -0.12464351 0.16704254 -0.17079808 -0.045057107 -0.31180722 -0.0039740284 0.0265381 0.031615257 -0.054329127 -0.047242776 0.10112191 0.095910266 -0.03289938 -0.090120874 0.064871505 0.15667596 -0.050710708 0.20861852 0.1696106 -0.09092116 -0.113605976 -0.17122997 0.25161803 -0.019239686 -0.133694 -0.123511344 0.21862344 -0.09327713 0.30855113 0.1413732 0.24254274 -0.32368937 -0.15172869 -0.098859005 0.043387037 0.1397552 -0.2977773 -0.086075515 -0.08319013 0.26337346 -0.20993227 -0.07444991 -0.050996657 -0.06937739 0.16206394 0.03243962 -0.04978405 0.059458382 -0.079369694 -0.10633431 -0.13413416 0.060468107 0.17180371 0.08461322 0.26380193
36 -0.18690136 0.16725416 -0.07029906 0.10120534 0.021550622 -0.12299992 -0.028065989 0.011766027 0.14636748 0.15504588 0.11196423 -0.111341625 -0.22573915 0.08091848 0.14897771 -0.07028511 0.069565095 0.027231192 0.10610678 0.1263744 0.12713185 -0.2123945 -0.056822576 0.43114102 -0.07032669 -0.20649537 0.21669674 0.049709424 0.13423277 0.25240722 0.06778778 -0.0638196 0.056556508 -0.0996294 -0.13756591 -0.12935589 -0.059162926 0.23631041 0.060542203 -0.088100426 0.1607844 0.115046844 -0.114581384 -0.18470256 0.040627766 0.38761792 0.1677384 -0.006471072 -0.09802818 0.13576889 0.13086724 -0.15747653 -0.21190545 -9.9181765e-05 0.053499866 -0.05544821 -0.205539 0.15437794 -0.12158229 -0.019528031 0.17294802 -0.18456875 0.23521274 0.06887353 -0.06744793 -0.14689453 -0.25686926 0.1529927 -0.03790924 0.2929765 0.041537125 -0.07323893 0.1747563 -0.17383695 0.21163945 -0.15060398 0.023043577 -0.32620406 0.0722901 0.011503368 -0.002044263 -0.08076425 0.035642546 0.06429826 0.12526476 0.04027104 -0.05813141 -0.06572386 0.20557363 -0.054528 0.08290018 0.14651215 -0.125492 -0.07509916 -0.21438988 0.19083288 -0.06560463 -0.11332162 -0.1077116 0.25738165 -0.09473435 0.3071486 0.108644485 0.19709863 -0.32249978 -0.10559291 -0.09108045 0.049919058 0.13001505 -0.24197793 -0.08506477 -0.07634434 0.27315262 -0.17930165 -0.12413523 -0.09048064 -0.106843546 0.12017403 0.049561195 -0.037690274 0.0519731 -0.07663059 -0.10677805 -0.118553825 -0.035635266 0.18152772 0.046869937 0.33652064
2431 -0.17444335 0.053764623 0.018671384 0.021850402 -0.16200097 0.000664269 0.18043357 -0.010607533 -0.031455312 -0.30533144 0.47958875 -0.13153248 -0.033106994 0.29872498 -0.04969178 -0.21928799 -0.0011980619 -0.25344628 -0.09243983 -0.18137126 -0.008079635 -0.025048602 -0.05477668 0.3641339 -0.17797895 0.21313947 -0.040303215 -0.034019854 -0.039099116 -0.306385 0.1699023 0.09842236 0.04703954 -0.094692655 0.0597525 -0.15046042 0.044362035 -0.025110893 -0.15412259 0.07848303 -0.025015425 -0.025969254 -0.13028298 -0.10592471 0.28225076 -0.11221322 0.02300513 -0.00647263 0.4026554 -0.16742463 0.022764543 0.08149652 -0.051159445 -0.121069044 0.16798998 -0.40820903 0.18125853 0.2747614 0.117625594 0.15844041 -0.10242178 0.049465954 0.1882467 -0.024473138 -0.03203093 -0.22496836 0.21850917 -0.10411912 0.04715757 0.02292284 -0.35413623 -0.20904446 0.072045736 -0.010742348 0.17001048 -0.03901048 -0.049004912 -0.26697668 -0.043980543 0.020522946 -0.16796796 -0.15693592 -0.17590567 0.32110327 0.18715389 0.07599631 0.016925896 0.16312382 0.065838106 -0.105303325 0.06035219 0.09251428 -0.15560128 -0.090222776 -0.012872203 0.377924 -0.2948296 0.0031349703 -0.13490963 0.07117562 0.05772777 0.12484008 -0.20091073 0.09395845 -0.14835925 0.06855618 -0.03335926 -0.07819498 0.20711358 -0.033585235 0.029253101 -0.056287277 -0.17154433 0.043381207 -0.1510552 -0.14460059 -0.114067145 0.31506655 0.009515007 -0.12013589 0.5021028 0.15327726 -0.037607394 0.011897352 0.054754585 0.029683376 0.07571977 0.13643105
88 -0.12620677 0.12362716 -0.082275726 0.09034522 0.10510257 -0.08036176 -0.04261869 0.037318416 0.13552894 0.14312512 0.011293049 -0.11336336 -0.23547484 0.059235223 0.07282353 -0.007948983 0.049917296 -0.028402984 0.09031571 0.15998904 0.12659663 -0.20357227 -0.034055844 0.46654382 -0.059120256 -0.12501067 0.21369818 -0.0046906085 0.11452269 0.32020277 0.057343587 -0.070265085 0.1625471 -0.14608023 -0.15904002 -0.1429013 -0.011777338 0.23350397 0.11053144 -0.06666181 0.11536525 0.13180652 -0.10789159 -0.17903629 -0.040224925 0.40652233 0.14220208 -0.023737377 -0.1253379 0.19578828 0.14308192 -0.15492353 -0.19717394 -0.058445245 0.08371599 0.0049706167 -0.18745781 0.12874919 -0.0075306203 -0.022437047 0.15248504 -0.16141601 0.22890802 0.03084405 -0.056906298 -0.16671155 -0.24109933 0.1201226 -0.01388884 0.2927688 0.03434032 -0.02715393 0.15042904 -0.1376524 0.12528953 -0.104623236 0.02553466 -0.35234872 0.063381515 0.018629499 0.055491127 -0.04855802 -0.033644985 0.13473141 0.1328654 -0.047298744 -0.1711869 0.048282407 0.23670545 0.031957887 0.12250619 0.16497217 -0.09598568 -0.12803386 -0.21675885 0.24255571 0.009290357 -0.1641989 -0.116207235 0.20987749 -0.062027335 0.23336473 0.1863554 0.19683385 -0.33195144 -0.15286496 -0.09798607 0.067690484 0.15066107 -0.28512684 -0.07787238 -0.065744564 0.35015136 -0.18280345 -0.13037348 -0.072372004 -0.0885901 0.18413238 0.03623251 -0.053991225 0.01473724 -0.123223096 -0.09208578 -0.15307562 -0.041670796 0.21025793 0.056589477 0.20623294
236 -0.105580494 0.1586239 -0.13269302 0.11202903 0.047981374 -0.06691522 -0.06408433 0.07222381 0.13212769 0.15155807 0.073298156 -0.06704189 -0.17642576 0.12875357 0.05243114 -0.020659735 -0.050379217 -0.08041357 0.06046231 0.20636572 0.07366274 -0.21785066 -0.014233073 0.37661064 -0.122871205 -0.08761896 0.1888661 -0.0086531155 0.12742063 0.32478124 0.05512591 -0.055414148 0.10175812 -0.16089086 -0.16878901 -0.092940934 -0.016760925 0.20539619 0.10057953 -0.1187549 0.21756689 0.14944154 -0.10274929 -0.17710833 0.023455085 0.40645275 0.04238672 0.0041951737 -0.13166387 0.12794073 0.14905775 -0.15632164 -0.18128824 -0.0031633188 0.1292074 0.008548237 -0.22341554 0.08386395 -0.056624703 -0.0025701295 0.116616555 -0.13401495 0.19652882 0.03940817 -0.051769104 -0.093583465 -0.27697128 0.14685819 -0.10589679 0.27067885 0.028713001 -0.08645834 0.21004157 -0.20199774 0.11057922 -0.13598572 0.01732958 -0.32439065 0.100394174 0.039391592 -0.0035076297 -0.073797114 -0.037346475 0.14763229 0.20858876 0.060238224 -0.11672131 0.07335852 0.22021964 -0.088540405 0.15170184 0.16856816 -0.07153712 -0.07784189 -0.16291396 0.26083687 -0.0351892 -0.1434968 -0.12508845 0.26919797 -0.10973101 0.3268513 0.1321798 0.13544336 -0.3193156 -0.17910996 -0.038331088 0.065030575 0.09942646 -0.30960116 -0.07486568 -0.05720205 0.26522446 -0.18520278 -0.121372625 -0.110405244 -0.041430276 0.07979351 0.05575416 -0.025789052 0.057751462 -0.065840565 -0.11621617 -0.17781486 0.07698783 0.19298334 -0.0010494427 0.28623477
250 -0.12931013 0.13595618 -0.19633836 0.055750683 0.1270812 -0.11699372 -0.03859483 0.087522954 0.13572113 0.13635868 0.04712537 -0.076409 -0.22694233 0.07887053 0.19317432 -0.034110148 0.122100554 0.028402215 0.078015596 0.20106722 0.06511512 -0.23103513 -0.048850745 0.3625382 -0.09456572 -0.22271317 0.13310087 0.0704918 0.058775023 0.31863338 0.08289913 -0.111579575 0.07969923 -0.117730156 -0.13573368 -0.17125764 -0.11217178 0.1909498 0.07753529 -0.10770265 0.19199295 0.09575957 -0.071828455 -0.22326669 0.06286608 0.35650772 0.11302713 0.012987749 -0.15844238 0.11006645 0.10011817 -0.22234857 -0.2381743 0.010989942 0.05072302 0.0129622985 -0.22223473 0.16029419 -0.07327992 0.031900357 0.21361896 -0.17566882 0.20244204 0.036767364 -0.08460388 -0.14542487 -0.16056879 0.17199065 -0.018060101 0.33359626 -0.011366202 -0.048349 0.11390239 -0.13664429 0.21154103 -0.18840264 -0.059831724 -0.43126947 0.057540223 0.02414227 0.02064695 -0.09036009 -0.019298667 0.08511638 0.109472625 -0.035746884 -0.04190951 0.00012553798 0.12757617 -0.07742972 0.14884824 0.19010812 -0.11214086 -0.08288141 -0.15861456 0.2854753 0.004721267 -0.047479726 -0.09131357 0.23787788 -0.08794283 0.247831 0.12876019 0.19257554 -0.27083114 -0.114555925 -0.0008847972 0.043702334 0.12502149 -0.27787328 -0.06949883 -0.073901914 0.30705342 -0.14493321 -0.065745145 -0.07243405 -0.13362022 0.1853901 0.047093377 -0.007948335 0.04897216 -0.03277019 -0.07409793 -0.15351142 0.054239757 0.22502583 0.14134347 0.31057218
2482 -0.32841003 0.0068326704 -0.33679992 0.1310265 0.069613725 0.16941662 -0.21873344 0.053377554 -0.1012974 -0.51256716 0.2982927 -0.080096334 -0.29177967 0.23644954 -0.09394628 0.026294278 0.16630037 -0.2980898 0.091524586 -0.14782435 0.2539724 -0.18471171 0.0032031306 0.30120647 0.23502 0.053364422 -0.45255214 -0.027306397 -0.050000157 -0.005229607 -0.39644247 -0.077868015 -0.36441582 0.06952356 0.005118616 -0.023990175 -0.05120027 0.06435129 -0.18005347 0.049110726 -0.023435198 0.3777052 -0.27380612 -0.28911197 0.1858075 -0.051767804 -0.15996052 0.114306636 0.079029895 0.095440276 0.017518425 -0.023524387 -0.013915792 -0.21762905 0.3056045 -0.05618497 -0.15114565 0.10827113 0.006724325 0.046882264 -0.07448198 0.15265085 0.27473783 -0.21636654 0.08881463 -0.07308762 -0.21723235 0.14989683 -0.32817313 -0.020403948 -0.122350425 0.0320802 0.04508609 0.11024483 0.042197857 0.29510108 -0.02935356 0.12503098 0.096951924 0.20475851 0.18081142 0.3392696 -0.16153654 -0.13083267 0.11574347 0.49480802 0.19047542 0.15506572 0.15868223 -0.26153672 -0.09469416 -0.064698696 -0.06147447 -0.4566848 0.09874235 0.06716747 -0.1460423 -0.113950685 0.09048477 0.24579792 0.14762805 0.013266489 0.24706605 0.1186582 0.030311365 -0.05636333 0.2342147 0.021851594 0.17058924 -0.1585766 0.4798794 0.17591105 -0.22035615 0.16154723 -0.13625804 0.069804914 -0.10907396 -0.10539778 -0.039942596 -0.2553943 -0.033225488 0.101640135 -0.026278969 0.11694083 0.14236102 0.37774658 -0.048802897 0.49304622
195 -0.07685297 0.21251367 -0.123304404 0.08949993 0.0442501 -0.061387558 0.007411238 0.0552436 0.12068784 0.09536988 0.03225561 -0.073477395 -0.24713635 0.08977684 0.09895931 -0.100836396 0.045882545 0.010407647 0.05585321 0.16814984 0.06227209 -0.17431311 -0.053832315 0.3908113 -0.1336671 -0.15713821 0.19163695 0.04020151 0.103093304 0.3135175 0.043344818 -0.05442794 0.1105104 -0.11946565 -0.13435382 -0.14445385 -0.040557027 0.23571648 0.09797602 -0.051969357 0.16613346 0.16778642 -0.049163137 -0.18564513 -0.02406895 0.4058479 0.04161286 -0.01266544 -0.11245511 0.16787718 0.18364276 -0.19143294 -0.2352359 -0.03167916 0.049071386 -0.013312801 -0.21351995 0.1697566 -0.07686726 -0.015245358 0.12295723 -0.14376095 0.24936835 0.09465486 -0.056841716 -0.16168578 -0.24893625 0.108329795 -0.04988979 0.337357 0.0047102515 -0.011297078 0.12354172 -0.11719982 0.11254499 -0.16396034 0.024407241 -0.32104978 0.08765941 -0.051886786 0.02752369 -0.057123594 0.017535795 0.12033088 0.1027987 0.025702538 -0.08318352 0.03398671 0.193875 -0.01793506 0.16787685 0.22293706 -0.11445775 -0.113129154 -0.18085487 0.2883163 -0.040589847 -0.12199932 -0.094655395 0.2594943 -0.15240882 0.25903645 0.11777478 0.17804563 -0.34268618 -0.18435259 -0.054208804 0.06907737 0.10995568 -0.25631514 0.008034011 -0.09660384 0.27213442 -0.120904274 -0.12516046 -0.058933407 -0.071280584 0.10050508 0.015397347 -0.02430806 -0.005444435 -0.098872125 -0.10259619 -0.12511499 0.07220562 0.1970363 0.06671052 0.23846993
2499 -0.15976319 0.01607815 0.2250846 -0.07949061 -0.0990913 0.25384384 -0.007466406 -0.09781468 -0.0017093673 -0.174948 0.1709751 0.09836656 -0.3776319 0.22248445 0.06311343 0.15259969 0.15286887 -0.0010136247 -0.007384888 -0.10389208 0.2955009 0.033087946 -0.23640995 0.47625935 -0.1626002 0.07542939 0.04791164 0.3067587 0.09207497 -0.13522346 -0.0323375 -0.17876391 -0.070340544 0.10673243 -0.0816002 0.12996566 0.09200816 0.062023558 0.17027967 0.25633192 0.3924607 0.29878306 0.01614775 -0.027880332 -0.067343764 -0.037569802 0.30874485 -0.33833542 -0.15363772 0.18013309 -0.019010069 0.24605517 -0.023632888 -0.21029219 0.22282079 -0.09737901 0.082618706 0.16212247 -0.10770126 0.110261545 -0.075054914 -0.17523241 0.023302883 -0.26544768 -0.040201 -0.13327107 -0.20872396 -0.11698144 0.055212904 0.09364206 0.2629319 0.094724946 0.033054985 0.006767966 0.20716482 -0.1574859 -0.11576087 -0.011550313 -0.03582827 -0.050130412 -0.12706889 -0.112511694 -0.1895067 0.059381932 0.025554579 0.30977535 0.10497292 0.14529325 0.14669959 -0.09477734 -0.1853418 0.25423297 0.045824103 -0.0071279863 -0.24059643 -0.2538599 -0.016635714 -0.032892726 -0.12252386 -0.03435925 0.06738273 -0.13282596 -0.07400032 -0.08340788 -0.104249045 -0.026899708 0.2245807 -0.027046565 -0.040590767 -0.20312417 -0.049495485 0.07369921 -0.10998093 -0.054269373 -0.16797173 0.03940508 0.20719296 0.18676738 -0.048462123 -0.26924792 0.19932163 -0.18146151 -0.089493 -0.14057635 0.1344796 -0.147997 0.14580269 -0.1865042
2617 0.1082227 0.06459 0.10167878 -0.15453379 0.041637335 -0.12935892 -0.021784991 0.11568624 0.021154046 -0.013175915 0.054443505 0.038042586 -0.1942135 0.35200325 0.11317349 0.064524196 0.22441727 -0.028968403 -0.013174698 -0.07681061 0.18207288 -0.20426601 -0.00140093 0.0061227814 0.007901731 -0.21957634 0.09190982 -0.19718838 -0.08097728 0.039999556 0.1750637 0.01960425 -0.09099014 0.0323432 0.15379961 0.124764934 0.053966578 0.07742983 0.17621142 0.1880434 0.01385055 0.0032840644 0.06722597 -0.04540389 0.21193367 0.08056386 -0.0618933 -0.3799672 -0.15824755 0.28210336 0.08244577 0.026826095 -0.0638428 -0.39613944 0.04719401 -0.06608924 0.24980086 -0.02533315 0.10376466 0.20154047 -0.15840217 0.17637089 -0.029188007 0.07289773 -0.013701999 -0.048142437 0.111421965 0.029997567 -0.018515354 -0.018617433 -0.21780941 0.049182024 0.010144595 -0.07164891 0.19036348 -0.039733108 -0.20788701 -0.07354922 0.118706964 -0.05569117 -0.12203116 0.11764068 -0.084775746 0.3950763 0.26830506 0.11974563 -0.015250774 0.3220582 -0.13644044 -0.09717779 0.16644035 -0.1335553 -0.051451925 -0.33149457 -0.013142388 0.13980898 0.10717098 -0.11454391 -0.059039984 -0.084936924 -0.019848607 0.11460177 0.15347274 0.19818826 0.026325872 -0.17316313 0.17848323 -0.0069865556 0.088690005 -0.14105345 0.24212362 -0.0413347 -0.09357257 0.024412373 -0.10157192 -0.028025083 0.104140304 0.39853546 -0.3156739 -0.08708605 0.018986778 0.1189898 0.1369679 -0.17070507 0.15145639 0.11265909 0.15583703 0.14163862
881 0.04751453 -0.25206771 -0.11354658 -0.013843941 0.011077016 0.019113125 -0.043868713 0.028219596 0.070496075 -0.06709031 0.34430456 0.025182571 -0.19901668 0.14963062 0.051500756 -0.059855413 0.19666949 -0.13550763 0.115845844 -0.24090193 -0.08433698 -0.046169624 -0.1476392 0.09522773 -0.20157808 -0.037376765 0.042259496 0.06725377 -0.11849332 0.20974426 -0.040199727 0.053136066 0.059760574 -0.026540626 -0.10493014 0.108090326 0.03106138 0.089518055 -0.08494883 -0.016842738 0.13543962 0.17649765 -0.074236736 0.09795317 -0.039500345 -0.1525117 -0.056105863 -0.1107106 0.090413906 0.020619579 0.034693763 -0.1797072 -0.12577981 -0.29653266 0.111716434 0.08193435 0.013894181 -0.02080772 0.08450942 0.16023216 0.035638563 0.17640209 -0.19960539 -0.11143526 0.0196082 0.12781169 -0.034028154 0.1690389 -0.0101224305 0.025864772 0.03570866 0.18909445 -0.10975531 -0.3271011 -0.015644511 0.06253768 -0.15314217 -0.13125907 -0.05120786 -0.14633732 -0.112216644 -0.05290118 -0.05541648 0.19456239 0.023397094 0.082689285 0.02172319 0.13316844 0.25075385 -0.09083939 0.124734275 -0.07488197 0.023445114 0.04289442 0.0932664 0.062467642 -0.17414688 0.06815301 0.07712236 -0.010466126 0.22731034 -0.05379243 0.21638922 0.058144785 -0.18760876 -0.0066215275 -0.18116415 -0.056072943 0.06485177 -0.008152322 -0.07775267 -0.17868392 0.2089518 -0.04361276 -0.14055237 0.1178742 0.00858681 0.062842146 -0.12781364 -0.12378646 0.04704647 0.04514435 -0.16609804 -0.10626539 0.018836508 0.10089684 -0.013059079 0.0151366005
849 -0.10735508 -0.17214306 0.14303531 -0.04674426 0.096418075 0.03294831 -0.02384349 -0.012566095 -0.03331336 -0.2799694 0.06689189 0.014668418 0.10864853 -0.21809684 0.079838455 -0.17057642 0.16467717 0.0513485 -0.0552149 -0.2911669 0.17835365 -0.23982076 -0.28108782 0.08223642 -0.040416777 0.35277224 0.014657613 0.21129006 0.13265532 0.029558297 -0.18438764 0.13682204 0.043368246 0.031973206 -0.1339305 0.12260944 -0.15322782 0.0673084 -0.09244436 0.013454136 0.06088085 0.07919176 -0.038794775 -0.008696257 -0.04441191 -0.1298598 0.05719991 -0.19336349 0.12365314 0.091753565 -0.08748261 -0.07248462 -0.13196526 -0.3434605 0.2234449 0.04029466 -0.048249528 0.11062215 -0.14809202 0.158666 -0.13712002 -0.0031136202 0.1574438 -0.074839614 0.025739845 0.05296386 -0.2060223 -0.08496286 -0.2423628 -0.06673013 0.050520517 0.15937898 -0.20573276 -0.22760688 0.109034225 -0.033665143 -0.2627106 -0.21267846 0.17804407 -0.032273233 -0.11954868 -0.11555253 0.12807812 0.23619917 -0.20450504 0.16172767 -0.15485151 0.11421752 0.22508132 0.047820218 0.034099575 -0.0336602 0.07931173 0.030225473 0.1314806 0.095088676 -0.004141548 0.103850305 -0.10030556 -0.17749146 0.14467569 0.10924553 0.06968197 0.031419028 -0.274863 0.01197926 0.015866514 -0.15034802 0.09182736 -0.045072865 0.044893693 0.09546498 0.10234257 -0.1472825 -0.32387012 0.11182668 -0.021021308 0.08930549 -0.075918846 -0.050132483 -0.041215733 -0.08418739 0.22470784 -0.049469642 0.1472821 0.14814651 -0.03655059 0.35184345
2430 -0.19805013 -0.0060424567 0.17658117 -0.2991973 0.0162579 0.25090596 -0.14491233 -0.052657858 0.07576901 -0.12012547 0.115386404 0.12644827 -0.20155965 0.07472072 0.15485339 -0.06829639 0.03174411 0.12933044 -0.14456433 -0.25651678 0.2290841 -0.13432032 -0.04299759 0.13536145 -0.10720561 -0.22262652 -0.013531042 -0.021629794 -0.12067508 -0.15363267 0.22327895 0.11000004 -0.12673308 -0.118776724 -0.00045276718 0.16612864 -0.030485084 0.14444618 -0.16858594 0.20570354 -0.028860582 0.15448983 -0.08693755 0.07418251 -0.013036734 -0.094835855 -0.0434041 0.14894211 -0.034458846 0.16944852 -0.16884956 0.031071752 0.05483654 -0.03505961 0.10642346 -0.17365262 0.12999825 0.0060538542 0.043993883 -0.069713384 -0.111006185 -0.22120495 0.03578894 -0.12058824 -0.0046017324 -0.03130145 -0.02145039 -0.10523614 0.043590575 0.17535557 -0.14957903 0.2081862 -0.04861366 0.061922684 0.25037542 -0.22064443 -0.20432666 -0.24981259 -0.35732982 0.032725424 0.012531242 -0.027252274 -0.23217198 -0.05147586 0.20538905 0.116325825 0.04216578 0.15848069 -0.06673869 -0.13307464 -0.07845913 -0.10726886 -0.067165546 0.05414383 -0.06264847 -0.048715375 -0.007513735 -0.19941424 -0.09474255 -0.17722516 0.17111383 0.12969506 0.22410002 0.09688949 -0.19810759 0.045002714 -0.09009913 -0.14102891 0.28307003 -0.17739788 0.16034819 0.18379804 0.09028081 0.06869558 -0.31249765 -0.034191143 -0.03807438 0.22742124 -0.1431515 -0.18235096 0.049270388 -0.24601376 0.025543872 0.020329382 -0.007963718 0.0023836147 0.10973825 0.23732959
2614 -0.059592754 0.14891422 0.2642693 -0.20481415 -0.04733757 -0.061723296 -0.235012 0.022505142 0.16394389 -0.07758005 0.35662112 0.0108941505 0.12293733 0.45800614 0.18600796 -0.091862656 0.16080266 -0.0062156967 -0.012689769 0.05139216 0.051124364 0.15467681 -0.12293005 0.20008878 0.012869413 -0.24018228 0.07080291 0.10967268 0.07423437 -0.19008934 0.035182778 0.11919334 -0.2769653 -0.069876164 -0.11646484 -0.11436911 0.08375411 0.041985497 0.21535219 -0.06247052 -0.043303773 -0.18976603 0.06251188 0.0063106306 0.041906554 0.0031373005 0.21980128 -0.16495742 0.17980449 0.08535936 -0.05772247 0.0012683857 0.040480148 -0.12213874 0.14514986 0.004617293 0.0607244 0.16373461 -0.09799886 0.080131665 -0.15090725 -0.30112273 0.18249534 -0.05160112 0.14758366 0.036402557 0.003945943 -0.04900708 -0.011537708 0.025641793 -0.0060046576 -0.0057753446 -0.02952914 -0.31802398 0.053021125 0.18172604 -0.39896455 -0.021450989 0.22024079 0.08881679 -0.11105962 -0.2562146 -0.31363133 -0.13242926 0.21883258 0.14254653 0.25212857 0.31118166 0.10906583 -0.16365112 -0.22925179 -0.016717391 -0.25575247 0.13733165 -0.056246933 -0.062228348 0.01599298 -0.36734858 -0.2303693 0.17362317 0.45567268 -8.215039e-05 0.24027944 -0.14259854 -0.067167364 -0.21087974 0.10301844 -0.25328767 0.1529869 -0.034642056 -0.0016176694 -0.03702155 -0.120795816 0.17167915 -0.015237146 0.090022504 0.010104825 0.24362765 -0.20822959 -0.13400342 -0.13313422 0.16864632 0.12501614 -0.050992128 0.28222117 0.13164122 0.15559326 0.4760463
2593 -0.068899356 0.15140526 0.33430335 -0.18215571 0.053174593 -0.049447887 -0.24153227 -0.087696195 -0.00019661631 0.026865529 0.35293573 -0.058575787 -0.07741137 0.13420328 0.26252136 0.013311816 -0.050531108 0.06433729 0.00066812645 -0.0590289 0.2708172 -0.17381166 0.02562636 0.3162939 -0.09550285 -0.1700805 -0.06211307 -0.086788684 -0.26934406 0.101845615 0.08565459 -0.0994371 -0.20451877 -0.07411262 -0.19179118 -0.3352898 -0.113233216 0.058465865 -0.003702284 0.18444656 -0.14793442 0.098899804 -0.0297589 -0.12995829 -0.09207425 -0.10802415 0.37544993 -0.22997451 0.1467726 0.25377864 0.082970805 0.10521363 0.17670321 -0.25955462 0.008064373 -0.14417697 0.26912424 0.15979865 0.10175299 0.12602082 -0.2032364 -0.20095447 0.13460834 -0.11353096 0.21729162 0.0040896013 0.24545684 0.18187177 -0.10408198 -0.028199209 -0.07388442 -2.9707167e-05 -0.047735628 0.06332911 -0.0082739005 -0.046585858 -0.31664908 -0.0650154 -0.010553782 -0.06872889 -0.15740667 0.1922324 -0.13557109 0.031039538 -0.06083289 -0.034429904 0.21692732 0.0765235 0.11210583 0.18616402 0.29909036 0.03329372 0.14341025 0.06164208 -0.038940508 0.25135672 0.20302916 -0.21588317 -0.10207568 -0.02389066 0.20293227 -0.056172743 0.13440134 0.1727342 -0.011827429 0.0799122 0.029176699 0.040544182 0.13154839 -0.10460378 0.320321 -0.032412566 0.0112807555 -0.10893151 -0.069272205 0.06726079 0.017887283 0.38309598 -0.038646672 0.0024403988 -0.17432301 -0.1971245 -0.047176152 0.04016204 0.123775505 0.13614288 0.27654973 0.10364356
2511 -0.14381753 -0.019345619 0.00062065024 -0.2166726 -0.16765952 0.028830387 -0.103168115 -0.03244831 0.024604721 -0.082282774 0.11006217 -0.11940242 -0.18617344 0.17568158 0.06494779 -0.026107892 -0.059683464 -0.0748941 0.17384431 -0.22171888 0.27361274 -0.046059124 0.07861765 0.2787527 -0.14564902 -0.117407426 -0.20734857 0.18718375 -0.019284805 0.006539791 0.12329647 -0.0795019 0.16090196 0.06143106 -0.057778742 0.23782724 0.08895078 0.01205955 0.011154009 0.33249933 0.23306693 0.12425006 -0.018861601 -0.069174044 0.038648736 0.088305496 0.05314356 -0.17544562 0.011189853 0.052667603 -0.04476377 0.2151079 -0.0016232227 -0.11631539 0.2528945 -0.11369787 0.4547706 0.004437276 -0.0723205 -0.01987725 0.014174295 0.12003474 0.09009825 0.2738186 0.004520786 0.101084806 -0.05786099 -0.12033034 0.111810036 -0.14428613 -0.00978042 -0.044577125 0.05632154 0.1083349 0.22844706 -0.0012203502 -0.0025675225 -0.024317954 0.07515023 -0.075502366 -0.0033701255 0.07893824 -0.0879982 -0.07537969 0.04079818 0.03505253 0.15801509 0.09636143 0.112483695 0.12229561 -0.14849739 -0.033140082 -0.004296138 -0.14063351 0.22866002 -0.0068969633 -0.025344932 -0.30610764 -0.19848552 0.026068656 0.13259952 0.0756235 0.14048317 0.12307018 -0.44654676 0.1396594 0.048819453 -0.02632866 0.00069811946 -0.21928662 0.29726747 0.14965431 -0.011716323 0.10767076 -0.19475217 -0.05704015 0.16150814 0.13814223 -0.3137919 -0.16090913 0.108804695 -0.22025067 -0.13195537 -0.14905241 0.0588336 -0.083382845 -0.12390266 0.2914625
2596 -0.30721635 -0.089645 0.0805906 -0.10542358 -0.11359701 -0.014706281 -0.25302893 0.23560274 0.08559747 0.24536288 0.24807757 0.0076683783 -0.124253094 0.08101348 0.14691663 0.106692836 -0.05102901 -0.066419005 -0.13102467 -0.25300953 0.1185237 -0.2798048 0.05791251 0.1172419 0.09432187 -0.041520897 -0.16437574 0.045799114 -0.17003115 0.009520176 0.18210071 -0.1323812 0.112541944 0.06471439 -0.25110286 -0.14834249 0.14855058 -0.050955404 0.06827103 0.016015258 0.07075897 -0.1349455 -0.029371249 0.06218134 0.026681341 -0.08946025 -0.082264274 -0.013638427 -0.04700521 0.2159682 -0.026067937 -0.06462781 0.1539145 -0.20947005 0.004385422 -0.2799397 0.00018950191 -0.012131262 0.022769695 0.2627923 -0.15157726 -0.24597052 0.048527982 -0.21441841 0.03721585 -0.30759823 0.032109186 -0.21200404 -0.033043724 -0.03822062 -0.099735886 -0.06797228 -0.17124605 -0.06487686 0.1852805 -0.06806491 -0.3984653 -0.27901632 0.05063221 0.15666658 0.11203856 0.034686506 -0.41146064 0.017035337 0.14445265 -0.03034797 0.10635552 -0.08544851 -0.011287886 -0.32478333 -0.066144474 -0.16393082 0.011198986 -0.037405822 0.098343916 0.36966583 0.03046338 -0.041479427 0.055294104 -0.045720626 0.052687783 0.09297589 0.023299929 0.12332037 -0.060746346 0.059310578 0.15340622 -0.029523628 -0.021861637 -0.09711453 0.323993 0.085104264 -0.10560653 -0.107665055 -0.058693554 0.10695776 -0.13699773 0.18172334 -0.16480534 -0.29232353 -0.14438227 0.008525296 -0.034308784 0.129705 0.11996101 -0.20987305 0.01123015 0.0629966
2508 -0.23708418 -0.2013449 -0.005639256 -0.09190085 -0.14389311 0.08027782 -0.14889711 -0.20397915 -0.18264206 -0.124098666 0.2291781 0.048860457 0.037583306 0.17805144 0.16149563 -0.18642758 0.24473672 -0.15904236 0.018986912 -0.1264595 0.16457091 -0.25562248 0.12361062 0.36046934 0.014563805 -0.20693898 0.23524655 -0.016113507 -0.10566158 0.032380447 0.42935947 0.013998744 0.0073179957 0.2155572 0.08646582 0.26638022 0.037084337 0.053360302 -0.10307706 -0.097263165 0.06039279 0.29555026 -0.011470742 0.2082954 -0.065565675 0.08946698 0.020482197 -0.049940217 0.07751377 0.23863901 0.059469942 -0.06810094 0.20685478 -0.48530456 0.10068833 -0.21549594 0.053585086 0.19544658 0.20021033 0.2463078 0.089426905 -0.28939772 0.34185365 -0.07750534 0.038918614 -0.09682497 -0.27741128 -0.037138313 -0.011883351 -0.29206687 -0.08154982 -0.041780893 0.3164413 -0.08464272 0.018062472 -0.054528203 0.04566191 -0.017845193 0.14303045 0.000106474356 -0.0035959594 0.01316587 -0.3569417 0.058578353 0.14063543 -0.1451322 -0.09795359 0.25929165 0.025837872 -0.33184102 -0.18324764 -0.18904777 -0.0903696 0.06488272 -0.28007564 -0.007186172 -0.06909334 0.046056204 -0.12531114 -0.22164716 0.1905264 0.18706045 -0.25959632 0.04139931 -0.026746958 0.19342484 0.4828003 -0.23115283 0.039522946 -0.20418881 0.019393241 0.100627765 0.04574387 0.20592888 -0.14572312 -0.22049665 0.1377198 0.11746336 -0.0021773104 -0.009339221 0.038146853 -0.16810894 0.07399249 0.26512784 -0.030912587 0.15447704 -0.26997042 0.3085132
2561 -0.10978424 0.40489927 -0.11283723 -0.007839707 -0.36538205 -0.06126058 0.1287199 -0.20285633 0.26860693 -0.03831926 0.26154822 0.049153488 0.08385787 -0.021450574 0.021688972 -0.1080951 -0.37903327 -0.3029011 -0.0087051885 0.029410403 0.44841197 -0.45151109 0.04878776 0.46624982 -0.41513753 -0.113965765 0.46547616 0.30358416 -0.057063453 -0.095180295 -0.0015437799 -0.26538584 0.287493 0.1695381 -0.18339543 0.21907134 0.41277924 -0.028965726 -0.05649097 0.009864814 -0.0787581 0.23102087 0.09209628 0.15450469 0.09385449 0.14260495 -0.232939 -0.06562406 -0.16226153 0.037990414 -0.024761375 0.028370822 -0.21965615 -0.2666618 0.17797287 0.04031362 -0.16693632 0.023853675 0.11735629 0.48410577 -0.037439376 0.1469459 0.19646424 -0.13162579 0.11884094 -0.25927222 -0.3848014 -0.064295456 0.053884953 -0.12248886 -0.19130637 -0.23852782 0.21095268 0.31572023 -0.37697914 -0.08113134 -0.45001075 0.043953694 -0.15815088 0.015500521 0.002074249 0.15973027 -0.28603452 0.35169357 0.025816618 0.63044196 -0.29269361 0.059757583 -0.028717801 0.3137694 0.05341861 0.0046191975 0.075791806 -0.023495259 -0.1171528 0.13464326 0.0024478342 0.15799402 0.06846096 0.10482546 0.24845056 -0.026086535 -0.13930835 0.21924914 -0.16762647 -0.33615518 0.22102559 -0.16108903 0.36101633 0.10995342 -0.2407504 0.26187506 -0.373354 0.17250222 -0.059097573 0.16953158 -0.09212955 -0.3720701 -0.029941475 -0.5351618 0.11938974 -0.3375029 0.14343263 -0.12369336 0.17808084 0.09201036 0.32977468 0.4078908
2425 -0.13395305 0.0017284994 0.07605193 -0.18551292 -0.095523566 -0.1485322 0.10987217 0.28577948 -0.10501294 0.042103156 0.16810325 -0.009941432 0.08421703 0.13092422 0.24791765 -0.16753668 0.004408338 -0.15497594 -0.101581134 -0.14924584 0.42897728 0.16491869 -0.31866807 0.22405757 0.0156678 -0.020284029 -0.23466565 -0.0022878356 0.1462072 0.3064205 0.014487492 -0.06643345 0.10218051 -0.12223496 -0.042184845 -0.020207366 0.1437606 0.17581318 -0.068448395 0.157421 0.34968638 0.16292053 -0.32741153 0.10375443 -0.06709015 -0.021239482 0.006136131 -0.017479185 0.06266113 -0.0010230697 0.05226291 -0.0052842256 0.19772133 -0.26981235 0.2500139 -0.05100295 0.07976991 0.08728274 -0.06478746 -0.17914324 -0.17725499 -0.005470843 0.05158233 -0.055185284 0.037610266 0.06871824 -0.06952722 -0.26322028 -0.107093975 -0.19904704 -0.19313939 0.27309084 0.07399614 0.1380351 -0.11933232 -0.24105744 -0.2401387 -0.1907862 -0.057112757 -0.19751216 -0.17834666 0.14873351 -0.5102477 0.16215675 0.16685222 0.36468688 -0.26705882 -0.000644573 0.042584028 -0.21785276 0.1419298 0.04111554 -0.34122562 -0.119994015 -0.22103642 -0.04357264 -0.062332544 -0.39712676 0.012211787 0.2535159 0.19955622 0.25821197 -0.06450051 -0.13779074 0.11757909 -0.19752078 -0.018884357 -0.1467343 0.46181294 -0.17288768 0.24154001 -0.07074039 0.0361711 -0.06783625 -0.10482598 0.130463 0.03316712 0.16672803 -0.008418049 -0.038889166 0.030027866 -0.25043476 0.21337682 -0.128134 -0.031572323 -0.11773697 -0.15209259 0.010784186
87 -0.19233315 -0.03007006 0.1376083 -0.030169943 0.0977685 -0.20099542 -0.043660995 0.05801446 -0.08756528 -0.121532254 0.10181755 0.112585634 0.042378586 0.053722627 0.20539735 -0.10022034 -0.13891748 0.10943528 0.014617242 0.007683801 0.42283764 -0.24510375 -0.048543278 0.18183361 -0.16900688 0.072738804 -0.006229282 0.102552 0.06347014 0.05157329 0.10507631 -0.04782203 -0.019218476 -0.1828275 -0.096073344 0.1118837 0.07887961 -0.16791269 0.01450106 0.1563709 0.0696959 -0.10628812 -0.12027925 -0.07019372 -0.14441152 0.13557494 -0.15782456 0.17205581 0.22702304 0.17040285 0.14131874 -0.26425543 -0.04726552 -0.30639535 0.22882523 0.16725701 0.0020924662 0.1995802 -0.060858805 0.12550429 0.20215695 0.23465747 0.28891402 -0.029076857 0.049937647 -0.05213846 -0.15286832 -0.017095948 0.005542688 -0.09322398 0.043227307 -0.11225871 0.030547675 0.17922275 0.060205635 -0.07413939 -0.08290248 -0.06946332 -0.045611974 0.05018596 -0.15426023 -0.11759792 -0.17182183 0.2442803 0.33058134 0.124539465 0.24294738 0.17700543 0.13421836 0.13021572 -0.062184904 0.008091493 -0.25068915 -0.18880872 0.05593008 -0.018708263 0.0078694895 0.30109262 -0.07129944 -0.19677788 -0.24340788 -0.028518006 0.23991455 0.17980774 -0.0679277 0.1058226 0.021327564 -0.047834307 0.026231604 -0.1282187 -0.16598167 -0.03624091 -0.012554588 -0.039216716 0.015006484 0.14900064 -0.03033263 -0.01723596 -0.05503054 -0.042265195 -0.10783794 -0.08275489 -0.14639431 0.18868557 0.11900918 -0.1825198 -0.23180522 -0.21513967
359 0.02064055 0.18882054 0.14859281 0.028179625 -0.06683912 -0.09304214 -0.13913557 0.100154735 -0.10649508 -0.053760767 0.34202105 0.03201852 -0.00017099002 -0.034084056 -0.21199575 -0.23751158 0.11079561 0.12967603 0.274712 0.2087985 0.06728461 -0.030605678 -0.14325835 0.36018994 -0.014343463 -0.19087395 0.12864403 0.30046237 -0.044762507 -0.24506308 0.019547857 0.054544594 -0.25150976 0.24981947 -0.33019653 -0.16208188 -0.17638256 -0.057554804 -0.24909374 -0.063881196 0.040315967 0.048297517 -0.13717556 -0.11466353 -0.19825028 0.34326005 -0.25256187 -0.07580777 -0.23622625 0.19473794 -0.039817512 0.0008046678 -0.1838044 0.012316525 0.30740514 0.034644313 -0.0816037 0.19946127 -0.012413003 0.008673342 -0.2047422 -0.0057248515 0.11333142 -0.2000021 0.11915891 0.079786025 -0.43462414 -0.16798674 0.17909932 -0.025722995 -0.20241676 0.14123903 0.36556688 0.0980866 0.02279842 0.11890641 0.008342642 -0.21633324 0.17294867 0.1947782 0.15447007 -0.023788836 0.29708883 0.19482198 0.20033191 0.12932003 -0.07216286 0.0651891 -0.17503081 -0.24093473 0.22609025 0.10625266 0.2603292 -0.016451076 -0.15084444 0.16519731 -0.10150182 -0.1678831 -0.10166265 0.13267215 0.109340295 0.10663487 0.013015154 0.23661539 -0.29075202 -0.12773523 -0.073684245 -0.04092046 -0.010284669 -0.3163817 0.21229084 0.04024776 -0.07326361 -0.09440686 0.018841406 -0.13191745 -0.023092255 0.11975673 -0.3271419 -0.27258396 0.056353364 -0.07085111 -0.044690203 0.08749074 -0.11415808 -0.11452496 -0.085838914 0.07897911
2532 -0.20366707 0.21941358 -0.1755021 0.1213408 -0.061860528 0.05760949 -0.18556035 0.038045526 -0.327507 0.056128915 -0.10513993 -0.008203508 -0.43368766 0.17520384 -0.089438885 0.10819644 0.030167256 -0.08519329 -0.26899642 0.014383201 0.16627978 0.072648935 -0.5188529 0.33508715 -0.2406162 -0.25619984 -0.10389256 -0.013355965 0.03458454 -0.15156062 -0.014211913 0.16382477 0.13682655 0.061182205 -0.09084975 -0.029705714 -0.18074977 0.07208165 -0.09417014 0.06908297 -0.061119627 0.0895815 0.042043995 -0.24605834 -0.12801227 0.0737353 0.015589337 -0.1979955 0.10154049 0.12945233 0.21883447 0.0018175833 -0.09137486 -0.33631614 0.3725598 -0.16720186 0.4135353 -0.0015113164 0.180703 0.21740113 0.20405594 -0.022298783 0.004323366 0.18600282 0.028678607 -0.08026054 0.20143436 -0.32013416 0.34153646 -0.24118832 -0.07229881 0.13006395 -0.15798753 0.3284776 0.29715416 0.2758786 -0.06647089 -0.31423485 0.223474 -0.03676609 -0.02298511 0.21562502 -0.13562761 0.21597005 -0.0026840745 0.23273431 -0.0032585205 0.20579898 0.42042083 -0.020090813 0.051612757 -0.07201577 -0.0965578 -0.025286969 -0.1340268 0.0051082275 0.08810277 -0.049007203 0.067106575 -0.024436433 -0.036072224 -0.07234796 0.30589053 0.009776447 -0.26887333 0.024621084 -0.02976338 -0.22965711 -0.31007195 -0.33913282 0.35742354 0.13259156 -0.1783783 0.21954012 -0.21233702 0.18114017 -0.34866884 0.252192 -0.1796536 -0.28220686 -0.2751057 -0.04623495 0.16886772 -0.0730379 0.20478979 -0.0512273 -0.07377232 0.18982469
164 -0.17750627 -0.09735714 0.07546827 -0.052612975 0.10700818 -0.13428064 -0.057414073 0.03624635 -0.11309776 -0.101820864 0.054821815 0.12022417 0.05151267 0.035435297 0.18408668 -0.0016716691 -0.20083423 0.15057902 -0.002397468 -0.080492035 0.4181603 -0.28251636 -0.014764472 0.17072156 -0.105946705 0.060421884 -0.036970407 0.09604083 0.06987326 -0.04862915 0.11745989 -0.10503825 -0.005001646 -0.2197215 -0.14617862 -0.010503884 0.17629227 -0.12128058 0.011873298 0.16136734 0.0074659693 -0.036031913 -0.18309565 -0.09141231 -0.17555338 0.1995757 -0.17364891 0.15485203 0.24885394 0.1963542 0.09468506 -0.16100234 -0.08007879 -0.30719787 0.17698139 0.13841037 0.020742659 0.27252778 -0.074669726 -0.019494398 0.14431116 0.17195626 0.20350508 0.0007953855 0.02429265 -0.066513956 -0.12629776 0.018480565 -0.018446065 -0.02495989 0.031104192 -0.10434642 0.020090818 0.1782837 0.009799777 0.044987734 -0.11407802 -0.110843755 -0.06652329 -0.1068589 -0.048547626 -0.092145294 -0.06337554 0.27184227 0.2937628 0.09547435 0.30427143 0.25526467 0.17336862 0.14813833 0.05229458 -0.0063007968 -0.22700137 -0.182498 0.10969018 -0.15504982 -0.00868806 0.21578223 -0.021516679 -0.1257485 -0.22097829 0.020503955 0.13916121 0.15462568 -0.11163366 0.038320262 -0.007392836 -0.10927049 0.13450395 -0.060931526 -0.14278072 -0.020261608 -0.11391684 -0.12024512 -0.033476517 0.091902725 -0.010831143 0.040302984 -0.020535052 -0.0012079425 -0.09776522 -0.18611209 -0.13909355 0.049783934 0.14467302 -0.20341192 -0.06052815 -0.19700001
278 -0.17936765 0.23360483 0.42787775 0.32735863 -0.021664202 -0.02873416 -0.19621165 0.32021725 -0.099523894 -0.024112547 0.18557402 -0.097343735 0.03643039 -0.1046146 -0.10194417 0.26659068 -0.18696128 0.05103776 -0.03679268 0.0736876 0.0618774 -0.21394502 0.21464422 -0.064478636 -0.26621446 -0.009759914 -0.013061791 -0.0841734 -0.013695062 -0.23989666 0.230531 0.078821555 -0.0005901869 0.09246578 0.12082551 -0.22575352 -0.04651872 -0.04561875 0.18888432 -0.026531652 0.22888826 0.3055637 -0.05529615 -0.09511089 -0.2564706 0.03290168 0.27528304 0.07660249 -0.21923198 0.049576856 -0.1005224 0.103466734 -0.09737553 -0.22158012 0.21829027 0.06177411 -0.1296043 -0.10219179 -0.18200332 0.18900011 -0.21719296 -0.036912534 -0.06950777 -0.064325884 0.0034696215 -0.061422832 -0.07019176 0.11225064 -0.21083221 -0.13990371 -0.015683098 0.0697323 0.27018535 0.20380493 -0.041653983 0.225367 0.16710515 -0.32511514 -0.04946415 0.13067003 -0.22476134 -0.101777494 -0.30734506 0.47921124 -0.07221255 -0.073772624 0.087362416 0.31203967 0.16819009 -0.18969218 -0.16617382 -0.10714257 -0.25202575 -0.20627347 -0.12301563 0.15572868 -0.33673844 -0.13418424 0.22778617 -0.18450215 0.52365047 -0.13052195 0.035921358 -0.012659156 0.038122367 -0.10322764 -0.15799552 -0.26799503 0.16989648 -0.5450928 -0.0077798595 -0.17428938 0.04601052 -0.017460324 -0.117717244 0.27420932 -0.109766476 0.36513463 0.17600124 -0.16156591 -0.14508286 -0.040762696 0.041614827 0.11676254 0.070801124 0.33212712 -0.16011783 0.04115938
1109 -0.22274394 0.15531023 0.09385684 0.025688043 0.42931837 -0.07069575 0.027581282 -0.112330064 0.033087526 0.037332974 0.18553154 -0.0147973765 -0.11231793 0.10184818 0.4897384 -0.019757034 -0.03442098 -0.1284676 0.09439258 -0.26468897 -0.016246866 0.043521002 -0.13650669 0.11659338 0.023808153 -0.22002806 -0.12528782 0.109957345 -0.2779691 -0.08061992 -0.008494727 0.04328385 -0.0012211305 -0.13426964 -0.09726968 -0.22181445 -0.010033046 0.17652586 0.028296443 0.14958732 0.061380316 0.114026636 -0.25992438 0.15286936 -0.1698179 -0.19752416 -0.05620806 -0.23975158 -0.021221988 0.094840474 -0.16057241 -0.08676892 0.1465659 -0.098019384 0.46586943 0.1478119 0.10723387 0.07631175 0.06222233 0.344449 0.09449694 0.35917345 -0.114913166 -0.032661438 0.12150285 -0.18097837 -0.2978493 0.13441293 -0.17966716 0.03845915 0.05214091 0.05998388 -0.13153824 -0.35607758 0.18631859 0.18763162 -0.16101198 -0.14165328 0.024234362 -0.23306136 -0.12063576 0.14880513 0.02407961 0.071042866 0.023268715 0.08834741 0.1645342 0.18552494 0.27684206 -0.22203307 0.14252232 0.049733803 0.1062489 0.07008472 0.087925345 0.24136227 -0.35145268 0.025782863 -0.024639785 0.29853708 0.14299312 -0.18583134 -0.09778686 0.11299304 -0.058877658 -0.115715966 0.10229775 -0.3001352 0.03243073 -0.07422982 0.056814693 0.15797931 0.06392652 -0.18763942 0.036152974 -0.07208489 0.15114345 -0.012321373 -0.24339254 -0.035334565 0.27262464 0.18728682 0.17335328 -0.2104516 -0.27749783 0.031967055 -0.33635873 0.15597713
716 -0.054661278 0.24383415 0.049392287 0.024606897 -0.023983011 0.09496008 -0.0317711 0.107824765 -0.16371094 -0.081137106 0.23462847 -0.013464579 -0.33987713 -0.08627939 0.19036318 -0.20188224 0.2095768 -0.12511809 -0.02331271 -0.09769014 0.05442299 -0.0013417706 -0.28964958 0.24877293 0.0028891629 -0.090644546 -0.13381809 0.09004945 -0.10297012 0.045005966 0.19598112 -0.057932053 -0.010917822 -0.32876924 -0.35948163 0.079409145 0.38079193 -0.041169032 -0.33006442 0.094273336 0.34185052 0.02335422 0.060893975 -0.12096716 -0.1553383 0.032810118 -0.12044426 0.010065291 -0.050110158 -0.15098853 -0.011375522 -0.18406087 -0.17043255 0.06124839 0.106429935 -0.07537047 -0.102340735 -0.13668415 0.23427297 0.18204562 0.110980466 0.087335296 -0.18199268 -0.13057064 0.4001697 -0.13996483 -0.07937566 -0.08167852 -0.015778791 -0.1965702 -0.049896535 -0.11859979 -0.11408444 -0.24115382 0.2164455 0.22307685 -0.03187328 0.16898721 0.14192052 0.015030634 -0.054609947 -0.11050412 -0.19740552 -0.041702926 -0.031079305 0.35119072 0.11930615 0.143687 0.1388502 0.044277187 0.07128374 -0.06853947 0.21082367 0.05520933 -0.021254081 0.07163651 0.09826591 0.08073039 -0.22356848 0.055356856 0.24787433 -0.09596878 0.042426057 -0.20994475 -0.1488461 -0.04394857 -0.010529459 -0.14772603 0.068784714 -0.14666292 0.1102268 -0.21384 0.2116299 -0.32536596 -0.0024169479 -0.17280447 -0.09896927 0.23211302 -0.33870363 -0.006411089 0.062266663 0.028058337 -0.02677758 0.10864014 0.044983834 0.04176812 0.030253429 0.10839921
720 -0.0782864 -0.19645406 -0.00066114246 -0.1420288 -0.030300977 -0.044279296 0.050688386 0.0632715 -0.37285158 -0.2507293 0.07207214 -0.09505215 -0.124774165 -0.12767579 0.52942955 0.112827964 0.053792227 -0.13593619 -0.1281171 0.049917806 0.13285531 -0.22416332 -0.1695585 0.12692931 -0.09088834 0.1942682 -0.21464494 0.047113802 0.2254518 0.26457506 0.3105929 -0.12323651 -0.37183198 0.04320354 0.16003382 0.107007444 0.52865076 0.03590654 0.09273131 0.19925034 0.052472726 -0.1612459 0.096007265 0.023708072 -0.38125038 0.27962592 0.047041386 0.1468057 0.0784313 0.14222734 -0.10270101 -0.07083504 0.11092586 -0.21009347 0.28589556 -0.27697518 -0.033420786 0.22631425 -0.11191115 0.12306882 -0.10076157 0.09532002 0.26058686 0.028565614 0.12201091 -0.3269197 0.021672418 -0.0694989 0.113622166 -0.11517264 -0.3398962 -0.0570331 0.26563996 -0.40857714 -0.26885396 0.36581218 -0.22401293 0.19488306 0.15694553 0.08849742 -0.1945415 -0.14909428 -0.39941454 0.3736246 -0.027631715 0.4151778 0.106054924 0.002620193 0.05913585 0.2187627 0.011958838 -0.23234531 0.21524778 0.2698869 -0.024103098 -0.13275729 -0.23592915 -0.011568029 -0.134031 0.14002062 0.011618309 -0.22921519 -0.042116426 -0.14186631 -0.17893507 0.013266967 -0.03565931 -0.04266801 0.23847468 -0.4042013 0.05081643 -0.19503722 0.2864718 -0.051920805 0.13078724 -0.017635291 -0.19413918 -0.21434958 -0.20901719 -0.14082873 0.11887903 0.29930833 -0.22090754 -0.28318402 0.02195164 0.03755281 0.1909018 0.19177596
637 -0.055341575 0.00306945 0.050638385 -0.14329372 0.25774488 -0.083092995 -0.07244268 -0.018625304 -0.024222806 -0.17395106 0.012538316 0.13895948 0.006350059 0.15540715 0.019775935 -0.01954738 0.014701958 0.114882514 -0.04466452 0.063313454 0.3176782 -0.22119272 0.013486825 0.10603993 -0.0037189277 0.10196759 -0.060925826 0.07280472 0.15176234 -0.06288666 0.068614475 0.029521592 -0.03078234 -0.17272162 -0.02519534 0.033384822 0.16737619 -0.11481903 0.011718594 0.07708216 -0.025159083 -0.0739688 -0.08666689 -0.11265554 -0.1958947 0.14554739 -0.2923927 0.16715483 0.3417946 0.1405596 0.120976835 -0.20433521 -0.22199701 -0.23487423 0.17397228 0.12304551 -0.07796081 0.29492417 -0.07063239 -0.08202298 0.19805393 0.26152125 0.1828315 0.009463718 0.022430327 0.015804313 -0.31289244 0.076088525 -0.06000985 -0.009128781 -0.063159026 -0.09031817 -0.015524422 0.09010708 0.10067198 0.01690489 -0.16681747 -0.1595299 -0.038883172 -0.05463759 -0.0077906633 -0.049132872 -0.00047296088 0.33876914 0.26221275 0.154159 0.34066573 0.09868521 0.05855888 0.008673224 -0.062573396 -0.04152063 -0.24009578 -0.21066128 0.05026863 -0.040299624 -0.007347302 0.31675485 -0.047572166 -0.24459201 -0.12156532 -0.063730195 0.147176 0.2309228 -0.056481224 0.14785862 -0.038279742 -0.15420853 0.14885162 -0.07086913 -0.052270394 0.028314104 0.019214783 -0.1704587 0.066957295 0.11951458 -0.091779545 0.087220185 -0.08860693 0.10972627 -0.04296734 -0.150723 -0.14861953 0.020939711 0.17924337 -0.15445067 -0.08765066 -0.01190416
137 0.006679798 -0.033122085 0.06778087 -0.11432616 0.2488255 -0.3093212 -0.048796583 0.09389236 0.0522556 -0.1890263 0.14475872 0.032379694 0.09284587 0.11011569 0.032709707 -0.024201293 -0.02102475 0.10458354 -0.015358328 -0.027181244 0.42598093 -0.26715666 0.0024168626 0.026556788 -0.08401264 0.11021585 0.067114845 -0.041049644 0.16090418 -0.022435103 0.057331905 -0.05855741 -0.06399843 -0.1725062 0.0039641773 -0.03750299 0.16455154 -0.1143325 0.021860413 0.025355967 0.078191526 -0.15351602 -0.13126726 -0.08415713 -0.055965148 0.16876152 -0.28286287 0.19423258 0.3719974 0.07889091 0.17443724 -0.21210797 -0.15667772 -0.2377747 0.14585772 0.12490493 -0.16788815 0.2828504 -0.020380944 0.06435026 0.20310982 0.25131863 0.21635158 -0.060904086 -0.006840127 0.0035044793 -0.23206873 0.06308479 -0.07374416 0.021519251 -0.0066517657 -0.05107318 -0.08296876 0.0927237 0.045492474 0.018813625 -0.2249644 -0.03153116 -0.02110667 -0.07157808 -0.09157361 -0.004867854 -0.12712911 0.2948844 0.30756727 0.123887055 0.3521149 0.15311289 0.011179072 0.013368553 -0.10224456 -0.055280283 -0.21639623 -0.1881034 0.016957112 -0.0026248293 -0.0076977843 0.24766868 -0.03459876 -0.14961526 -0.07186107 0.015470336 0.12913515 0.07796385 -0.05927622 0.040821254 -0.017356357 -0.18090199 0.18044081 -0.0033821603 -0.12298333 -0.009436957 0.009887209 -0.10304556 0.037342492 0.15833436 -0.10723518 0.0907226 -0.0735084 -0.0012425478 -0.02675121 -0.07723602 -0.0958127 0.098353505 0.20486683 -0.19586885 -0.0553335 -0.005993447
120 -0.38703725 -0.02066272 0.151741 0.20567045 0.20181021 0.024703179 -0.08285484 -0.35467482 0.1537446 0.014969713 0.41090623 -0.18712059 0.018202066 -0.05825957 0.03940039 -0.063045494 -0.1675647 0.0822181 0.0131413285 0.1268911 0.13828157 -0.1042101 -0.083015464 0.30566195 0.040295083 0.19853517 -0.05122968 -0.13441339 -0.21741755 -0.13508478 -0.12694338 -0.1828536 -0.574816 0.14976561 -0.26971853 0.13526863 0.17603719 0.05755331 -0.089393854 -0.058819287 0.03921854 0.24242643 -0.065190405 0.11928841 0.12844148 0.16888766 -0.2390708 -0.068146825 -0.14892136 -0.107089624 -0.028235815 -0.09429349 -0.19189548 -0.11477358 0.23682696 -0.018079711 0.20820859 -0.094348386 -0.05192253 0.2519509 -0.11441347 -0.13959077 -0.070747666 0.13942991 -0.16322854 -0.2069563 -0.1070598 0.11668609 0.027118813 -0.11320903 -0.3195692 0.097923234 -0.03757373 0.17079951 0.19837871 0.065822564 -0.099537 -0.059292164 0.05126958 -0.063295215 0.1382477 0.065490924 -0.17249316 0.16601753 0.2448482 0.007211545 0.36429402 -0.014298722 0.119890004 -0.16817027 0.13287094 -0.017240888 -0.0083320625 0.10773187 -0.060752325 -0.10130384 -0.14156443 0.03455276 -0.06289367 -0.082943276 0.34377462 -0.14425991 -0.04639391 -0.11176348 -0.11196232 -0.28895077 0.033187095 0.17905656 0.15452622 -0.20692399 -0.047293365 -0.11040153 0.10830367 -0.2712837 -0.28696737 -0.08625192 -0.02055333 0.37630492 -0.061411608 -0.101070054 -0.19896278 0.14525075 0.048888702 -0.21850877 -0.1133495 -0.1417221 -0.3052946 0.09371138
138 0.020423919 -0.11716431 0.09799773 -0.16510995 0.22396535 -0.13736881 -0.007427564 -0.016225893 0.07374855 -0.123757094 0.08845376 0.051237468 -0.010773704 0.0872868 0.007459041 -0.0485193 0.0049932655 0.14755 -0.035298936 -0.031190176 0.2751162 -0.28733012 0.006297244 0.11694744 -0.033938788 0.040119484 -0.0535393 0.06496598 0.19797617 -0.033457596 0.15693207 -0.032124795 -0.06759542 -0.16287561 -0.10835514 -0.013524337 0.20847851 -0.027721629 0.0038842082 0.1187987 -0.06867157 -0.063979425 -0.08524737 0.037368532 -0.1964399 0.18546915 -0.23113479 0.20570955 0.31068385 0.017774958 0.0861946 -0.24291134 -0.07000986 -0.24745664 0.191873 0.20296903 -0.12986529 0.25316548 -0.044566132 -0.0024244946 0.22927785 0.32945466 0.18593442 -0.0729457 -0.01753425 -0.016513094 -0.29608244 0.07177969 -0.09518627 -0.10848156 -0.057042606 -0.14445315 -0.02201722 0.17192262 -0.0145652015 0.0068089077 -0.24193487 -0.2087295 -0.046489745 -0.12154002 0.034893308 -0.024729906 -0.17303428 0.33784905 0.21994495 -0.043834932 0.34447768 0.20697495 0.06979803 0.05606117 -0.038808014 0.024175417 -0.26297957 -0.25032425 0.033737123 -0.06759785 0.05226234 0.26383814 -0.06226186 -0.06597985 -0.08998373 0.073886305 0.010214188 0.19302279 -0.1396585 0.08754468 -0.13212632 -0.18773155 0.278643 0.015000358 -0.09789503 -0.0050156224 -0.058222797 -0.15453394 0.019139728 0.1747422 -0.11421533 0.09249249 -0.03504179 0.11809754 -0.037658338 -0.16670948 -0.026672065 0.11417926 0.07713764 -0.17978954 -0.10839639 -0.04991479
1067 -0.050710563 -0.07205418 -0.14797395 -0.10682921 0.0021621455 0.104854524 -0.09499973 -0.063658394 -0.04677966 -0.118814304 -0.086743414 0.035566404 -0.08571845 0.02907648 -0.03966125 -0.15395848 -0.0062104883 -0.25264096 0.022757927 -0.15632573 0.14711222 -0.047019996 -0.10096853 0.18346344 -0.061480924 0.11265629 -0.055788863 -0.005246967 -0.1537019 0.001503279 0.14506754 0.17895453 0.21351351 -0.087156735 0.010005529 -0.024961656 -0.03965796 -0.06750905 0.08592651 -0.0765282 0.13762814 0.11576459 -0.096070476 -0.12937374 0.034542132 0.077363655 -0.1640938 -0.043489534 0.042319566 0.16263737 -0.051759556 -0.33652756 0.12323276 -0.15161033 0.025981039 0.03246025 -0.07401061 -0.15445283 0.077099144 0.3243916 -0.050603323 0.024078986 -0.1984097 -0.11054922 0.032130394 0.25824445 0.15396087 0.07936193 -0.1799901 0.15812102 -0.15187058 0.0071480568 0.15072858 -0.16052207 0.100424774 0.021275103 -0.21095625 -0.13187371 -0.18190478 -0.1491856 -0.028955948 -0.096749336 -0.09419125 0.11554797 -0.0394306 -0.03342074 0.06080621 0.03529862 0.21074578 -0.09958583 0.05293671 -0.3269824 -0.18198039 0.015504509 0.18590346 0.126211 -0.14336339 -0.04639674 -0.31897545 -0.1363521 -0.24158837 -0.0824933 0.029986428 0.060445428 -0.21181501 -0.12043229 0.042176735 -0.054989103 0.22812381 -0.117725946 0.28675258 -0.034940835 -0.013969729 -0.018527983 0.033865035 0.15502295 -0.114874475 -0.031727385 -0.06976062 -0.06189841 0.19497244 -0.21319333 -0.16167419 -0.33139408 -0.093450874 -0.08632183 0.0695652 0.23653103
397 -0.23893976 -0.027358618 0.22701031 -0.027287988 0.12531237 -0.024954692 -0.16766888 0.31959322 0.14488894 0.2294749 0.12499442 -0.34700775 -0.18050641 0.29628217 0.2348514 0.02948633 -0.17589219 -0.050504655 0.096222185 0.13202257 0.22552602 -0.047040604 -0.25362322 0.070118494 -0.44562116 -0.15571874 0.029172974 -0.05210537 0.0032616367 0.21139787 0.04010535 0.050616357 0.057869494 -0.3507431 -0.09911275 -0.033797324 -0.032540556 0.12697013 0.20664856 -0.041760977 0.009866727 0.32773867 -0.12335356 -0.0026728937 -0.36824384 0.22683276 -0.06781843 0.06887357 -0.1541533 -0.14983374 -0.0035201914 -0.08560824 -0.06870003 0.023652092 0.010526377 -0.22524267 -0.4104694 0.04842745 -0.07364814 0.05487978 0.16653673 0.0524402 -0.14819571 0.029013261 -0.020247621 -0.08662608 0.008102353 -0.20795286 0.027005274 0.10138108 0.03245754 -0.2461277 0.122116335 -0.2099755 -0.01034848 0.0655263 -0.38217208 -0.085454956 0.09190397 0.015165171 0.13096471 0.11792799 0.037733123 0.2060112 0.053620778 0.028978085 0.16059385 0.09896213 0.03881925 0.08241153 0.23568597 0.038535785 0.003323706 -0.16523328 -0.08457776 0.20378834 -0.31322393 -0.0154901855 -0.097034454 0.13036974 0.19794177 -0.17818508 0.011117443 0.49253285 -0.016350014 0.4512148 0.03033546 0.3050395 0.092563085 -0.47893858 0.05495571 -0.086118 0.2720818 0.09663717 -0.2797936 -0.19612953 0.13508068 0.19135946 -0.060421795 0.009693688 -0.020172078 0.059179243 -0.11283247 -0.20088083 -0.040000368 0.088976055 -0.096219905 0.31206253
22 0.099640936 0.13972524 -0.0105348835 -0.0070935707 0.1583514 -0.2475119 0.23583624 0.30016315 -0.33027416 0.05746961 -0.13625768 0.006415233 -0.09996369 -0.1679943 -0.14697239 -0.38036418 0.2626988 -0.22536339 0.07711938 0.19703752 0.20942926 -0.14385198 0.17195415 0.3707079 -0.1793705 0.105880864 -0.111565135 0.34941247 -0.18486162 -0.17495717 -0.04127442 0.16187693 -0.34324655 -0.024357215 -0.11256599 0.07564895 0.20330822 0.013901591 0.39327428 0.2550994 0.097979344 0.13593571 0.090072915 -0.23714054 0.19123782 0.27166983 -0.1549039 0.019448362 -0.0076863007 -0.67541826 0.12905794 0.024022574 0.02402761 -0.34660307 0.12406591 0.07264599 -0.09471631 0.04378373 -0.07538319 0.13789785 0.026203962 -0.15050034 0.17516848 -0.11381625 -0.22360802 -0.18526433 -0.28964266 0.02093966 0.11432328 -0.035801057 0.2132698 0.08882279 -0.29187015 -0.27105576 0.059883695 -0.03950799 -0.019982237 -0.035863787 0.08607522 -0.22488265 -0.09002548 -0.071612485 -0.13720201 0.07773281 0.6012884 -0.334771 -0.11182356 0.18974137 0.23655277 -0.18727812 0.1815946 -0.2664593 0.25048625 0.4003067 -0.07337766 0.33665067 0.12019622 -0.18564957 0.4240263 -0.078922495 0.11378554 -0.0015754508 -0.37872913 0.19693673 -0.24686527 -0.05530914 0.04554901 -0.12866451 -0.20070657 0.041412212 0.4382298 0.13547838 -0.16877308 -0.22414692 -0.36082962 -0.10321988 0.1365531 -0.049875736 -0.09992369 0.20435809 -0.03580365 -0.25033858 0.00047055582 -0.006859099 0.03356048 0.3555921 0.08917815 0.25908893
12 -0.35982272 -0.03819135 -0.15307085 -0.008449067 -0.035461124 -0.061184905 -0.08811249 0.0042794296 0.20190607 -0.10507569 0.13799775 0.1485849 0.13618176 0.27462 0.21045576 -0.2700628 0.08234418 -0.15303963 0.0076328865 0.04508296 0.2977357 -0.23889142 0.09225551 0.136463 -0.058254816 0.082507335 -0.29570538 0.4994317 -0.030945672 0.16831239 0.10959807 -0.03641427 -0.2481418 -0.39488897 -0.26135695 0.15868396 -0.22254454 0.43687573 0.038965125 0.15862004 0.042490367 -0.11269448 0.25987336 -0.11319323 -0.2148695 0.29049987 -0.19863506 0.0054508643 -0.23849002 0.023179065 0.09665131 -0.20535527 0.40247554 -0.14794199 0.050211105 -0.20110919 -0.033920232 -0.12662324 -0.2884046 0.09451314 -0.05093238 0.17401649 -0.104285784 0.2908243 0.20155078 -0.15630369 -0.16007812 0.03983363 0.23212254 -0.05841746 -0.19464155 0.25802457 0.01397837 -0.039432608 0.07220221 -0.2690447 -0.023883028 -0.21797864 -0.16920492 0.028470872 -0.019199708 -0.34926012 -0.15652856 0.21225359 -0.014600491 0.20143765 0.15934312 0.08576955 -0.17757984 0.08467958 -0.05483803 -0.1320139 0.14509982 -0.008419975 0.0073427386 -0.12215606 -0.03784795 -0.056529507 -0.018985271 -0.01307655 0.07038831 -0.22308816 -0.0155231245 0.1558042 -0.23216015 -0.0933419 0.068195164 -0.051441867 -0.017765122 -0.030515317 0.1762827 -0.3029499 0.14451902 0.112485275 0.0037007695 0.06720108 -0.021218564 0.051662475 0.11998132 -0.30514145 -0.010738184 -0.019184003 -0.15559335 0.20460978 -0.025412431 0.11158824 -0.24688864 -0.0580163
2419 0.032829955 0.05447073 0.11793458 -0.113868214 -0.12252928 0.2946299 -0.121617734 -0.013996063 0.08280742 -0.041019186 0.22865994 -0.22929992 -0.24433704 0.084703945 -0.11783026 -0.2234524 -0.057967853 -0.4028046 -0.036911037 -0.30322567 0.34188223 -0.37240556 -0.23063122 0.09058462 0.062466756 -0.28176522 0.20557144 -0.21022445 0.14178921 -0.19443738 0.2531819 0.102878205 0.15320194 0.093088545 -0.057554502 0.00011266798 -0.09753557 0.25768754 -0.041863587 0.08674576 0.0011748798 0.14381935 -0.023832222 -0.021282652 0.13470264 0.043479457 0.15869519 0.09865478 0.20049512 0.07987977 0.19305493 -0.17671789 0.19320484 -0.18280308 0.21745566 -0.38170007 -0.11454286 0.084820285 0.06103059 0.1964009 -0.14889117 -0.11788333 -0.0027626052 -0.08452089 0.055321857 0.029392935 -0.07055951 -0.057317294 -0.12221093 -0.19876547 0.034646116 -0.005306407 0.011504731 0.08948409 0.3014719 -0.111802146 -0.21333349 0.031551313 0.04274366 -0.27918416 -0.2600121 0.19832923 -0.040169515 0.10755866 0.039842047 -0.12436954 0.16030468 -0.280448 0.07414225 0.049673084 -0.16573815 -0.08888774 -0.01601365 -0.1320818 -0.23034972 0.06270302 0.07517554 -0.055811297 -0.10645043 -0.044787306 0.13304329 -0.1403253 -0.15326436 0.17233436 -0.1692941 -0.12890813 0.04440431 -0.23741636 0.11807053 -0.1337532 0.021778753 0.061133943 -0.10713707 -0.020937823 -0.24933892 -0.000667346 -0.016760489 0.16537808 -0.25685 -0.34718284 0.08540464 -0.072018445 0.13088828 0.023541309 -0.28437757 -0.1274996 -0.113863416 0.23455489
2622 -0.31709114 0.1286808 -0.1337986 0.059370354 -0.29864818 -0.03550609 -0.28361532 0.21447565 -0.29875416 -0.053819988 0.124539495 0.10865299 -0.26855266 -0.09961614 0.081926756 -0.13433921 -0.15293427 -0.13590033 -0.14585856 0.04929211 0.12323401 -0.12297529 -0.14610872 0.30375585 0.07665715 -0.15054402 0.12539235 0.34136894 -0.22333583 0.09731471 0.22865278 -0.031312633 0.025784627 -0.29413638 -0.26864132 -0.107778646 0.10776094 0.11286423 0.04351292 0.23719642 0.016733484 0.22485118 0.13449807 0.07686195 0.06635185 -0.09014555 0.2919316 -0.103664234 -0.09916703 0.026622087 -0.333284 -0.07475288 -0.026692884 -0.029231187 0.2519294 0.0031172156 -0.0024177108 0.26836786 -0.11214448 -0.0039879465 -0.11789824 0.082839854 0.0267768 -0.06784644 0.18352315 0.09003547 0.22365823 0.0011726634 -0.09129298 -0.16515572 -0.03769355 0.0711932 0.1343633 0.29054028 0.33025917 -0.15585488 -0.40825987 -0.18787394 0.08276627 0.0035289344 -0.26137683 -0.13684872 -0.4768717 0.053050775 0.02270775 -0.1500515 0.32542145 -0.07522228 0.20242976 -0.06301887 0.16983996 -0.08747055 0.049356762 0.10568112 -0.13757588 0.010790813 -0.012579363 0.025826087 0.051232133 -0.07421667 -0.029553086 0.18100701 0.081233375 0.077498525 0.29051352 -0.18620144 0.09104998 0.09108718 0.066343136 -0.27171922 -0.24804904 0.17215085 -0.30393726 0.13342175 -0.1949417 0.15608348 -0.1300103 0.22324026 -0.07536187 0.042745546 -0.17167586 -0.020730775 0.030011332 -0.13782889 0.0023359316 -0.016107107 0.13136613 0.24935207
56 -0.12665637 -0.074064195 0.10849822 0.10592174 0.27553532 0.0083649 0.052180696 -0.09567836 -0.010775625 -0.1109723 0.19893539 0.048395183 -0.12166952 -0.21345592 -0.14567284 0.0907545 0.03222885 0.040846147 -0.0675689 0.08021691 0.04419755 -0.112278916 0.054443046 0.33271372 -0.007047476 0.032269396 -0.090091094 0.08567135 -0.21195015 0.098347 0.11900903 0.13493979 0.03913246 -0.061876047 -0.34325922 0.18744212 -0.093544394 0.090855636 -0.012308772 -0.02748613 0.120891795 0.23959528 -0.022855055 -0.13958134 0.08505977 0.2922638 -0.17383859 0.23917674 -0.080252156 -0.05039302 -0.12879044 0.08602635 -0.02212381 0.06636791 0.05637676 0.037504878 0.038762856 -0.1719249 0.08943875 0.20766526 -0.18078507 0.10228335 0.15294094 -0.0947748 0.28530002 -0.019274931 0.13676323 -0.059457667 -0.27714738 0.18939912 -0.123147324 0.14419504 0.24491516 -0.018305475 -0.045193754 -0.054189626 0.038057934 -0.2038544 0.39420545 -0.16703705 -0.0046855053 0.18965155 -0.112928405 0.22901139 0.056046892 -0.12285944 0.21214043 -0.0071318066 0.12551895 0.016208721 -0.040801078 -0.2987682 -0.2256491 -0.20292708 -0.16708735 0.019219896 -0.13828382 -0.056809254 0.0037726157 0.025595246 0.09917157 -0.0017899269 -0.13512352 0.1211299 -0.035785656 0.17024119 -0.25847718 -0.01642418 0.18722959 -0.12052309 -0.09491647 -0.0035209276 -0.13976718 0.23544857 -0.4242705 0.2662248 0.23485334 0.12271058 -0.18716045 0.02417123 0.062315814 0.09886636 -0.12597583 0.120742306 -0.12344476 -0.08771426 0.3321453 0.32981712
424 -0.13406415 -0.050304286 0.25768635 -0.40975282 0.21973257 0.07409535 0.15895082 -0.0044161556 0.16967194 -0.2714623 0.08140889 -0.14130941 -0.039932482 -0.12438523 0.033771627 -0.19991681 -0.08962845 -0.06813803 0.063660204 0.11602414 -0.006440251 -0.21314883 -0.21037322 0.3749601 0.3592234 0.011449973 0.08630298 -0.07618714 -0.098647036 0.059196316 -0.22836238 0.27807948 -0.07399373 -0.16325818 0.05865947 -0.017998664 -0.029812008 -0.30932814 0.2597008 -0.08145847 0.24765918 0.33367655 0.14432731 -0.05484142 0.06565471 0.1308523 0.16618551 -0.07648659 0.18792251 -0.16678329 -0.011255425 -0.21195592 0.4439989 -0.44267035 0.06393338 -0.16712016 -0.03801303 -0.1436765 -0.2118305 0.20170255 0.094953164 0.063715726 0.08972871 -0.010876603 0.1262999 0.13303961 -0.20445542 0.24789168 0.0060137524 0.3587418 -0.21571216 -0.08425482 -0.32378188 0.116973035 -0.04278109 -0.16344538 0.09044734 -0.15172264 0.11463082 -0.0055483347 0.018859677 -0.07302684 0.17351872 0.029319374 -0.121948935 0.35176992 -0.046658292 0.1783768 0.05454768 -0.11781808 0.18652962 -0.32380655 -0.20945293 0.06954941 0.06423496 0.23799731 -0.17127585 0.101124756 0.10770095 0.35780713 -0.14634386 0.15227112 -0.1909021 -0.37405992 0.43121725 -0.25823858 0.08660464 -0.39686552 -0.0009688529 -0.42152262 0.010185855 -0.26659742 0.080803365 0.03561647 -0.09780924 0.067553684 0.21873239 0.06164275 0.029547112 -0.46552792 -0.1697254 -0.27869597 -0.36570495 -0.11386669 -0.1713116 -0.09130703 -0.2053694 0.55564135
166 0.04087997 -0.064467505 0.084191844 -0.19810118 0.13975126 -0.15985753 -0.066653304 -0.046445582 -0.109789416 -0.08728745 0.037386376 0.059757795 -0.09348576 0.11628817 0.0814274 -0.0130239455 0.04021872 0.15287891 -0.1050937 0.036849633 0.37623394 -0.25303963 0.04351639 0.091034114 -0.10623934 0.046389848 0.011275185 0.09410325 0.22683077 0.006399925 0.119443335 -0.010155883 -0.02580722 -0.16141398 -0.068656534 0.058806766 0.15420276 -0.17279002 0.0148662655 0.10786452 0.026605759 -0.09840442 -0.04915628 -0.06293132 -0.21762234 0.20077306 -0.21605062 0.20505382 0.3972593 0.035721652 0.17085978 -0.22874765 -0.07872037 -0.35656968 0.17340168 0.13387467 -0.20255527 0.26439103 0.017489117 0.0069649736 0.20090078 0.294534 0.22006053 0.009539371 -0.021580566 -0.0205675 -0.30782577 0.017053034 -0.064467475 -0.04155184 0.0071677906 -0.2208651 0.05257304 0.15102762 -0.0009731028 0.03633741 -0.17477311 -0.016903335 -0.046460673 -0.17578013 -0.011653915 -0.110640846 -0.07740771 0.2607795 0.3503791 0.023035849 0.35862598 0.14508179 0.12461447 0.07270697 -0.07063501 0.055009678 -0.23297818 -0.13193016 0.02225966 -0.027837776 -0.061575983 0.34644043 -0.022828212 -0.14630589 -0.14283854 0.057358354 0.08329959 0.14059892 -0.16421875 0.042303436 0.032800183 -0.17623231 0.14774658 -0.0031541013 -0.16833581 0.062432367 -0.007667635 -0.066918224 -0.011565113 0.12982015 -0.11411557 0.08174717 -0.13130634 0.06182491 -0.07445644 -0.2053353 -0.015163747 0.12360983 0.10147139 -0.101667404 -0.056046598 -0.064660266
289 -0.19683668 0.03705409 0.34548816 -0.11023184 0.0898738 0.016309801 -0.15000877 -0.06937646 0.16208962 -0.17063883 0.28266707 0.037703965 0.18606819 0.1922827 -0.0809651 -0.30867997 -0.26720905 -0.023857541 0.10516614 0.12847593 0.014988125 -0.27927142 0.0028507607 0.50904536 0.10164812 -0.06660949 0.019894581 -0.15196474 0.043744273 -0.25109008 0.15377386 0.010064948 -0.19752845 0.13515821 -0.2166387 0.11044244 0.19554923 0.019198254 0.014287185 0.0026031793 0.2041523 0.26537707 0.17242216 -0.06689608 -0.08760821 0.21137738 0.099273905 0.03915044 -0.14621015 0.3407821 -0.14882974 0.03519809 0.14699937 -0.16986033 0.3667293 -0.0057861893 0.2311909 0.11536392 -0.13789248 0.28316683 0.0037687018 0.23801269 0.09484201 -0.06884158 -0.14239469 0.074172 -0.064744554 0.16912398 0.07765846 0.10513221 -0.09225262 0.11358063 -0.2151233 0.16565861 0.13768677 -0.07407597 -0.10457255 -0.36475044 0.2586612 0.4152324 -0.15359867 0.0033715905 -0.0023633814 -0.012068497 -0.08171052 0.22096585 -0.031749673 0.097359054 0.112970494 0.02896444 0.08356332 -0.1962351 -0.20090242 -0.066827394 0.06750071 0.05834795 -0.075338066 -0.21927167 0.2077263 0.08405308 0.017997442 0.03371426 -0.17151746 0.07685745 0.2820554 -0.09436379 -0.17806087 0.08312613 0.056488857 -0.22473757 -0.01327228 -0.11648114 -0.042225216 -0.12225334 0.081940874 0.14065117 0.0073436825 0.16116984 0.23623836 -0.331312 -0.19145109 -0.20641986 -0.32997364 -0.08799887 -0.22358346 -0.29550916 -0.28640664 0.26215088
161 0.27919236 -0.022507206 0.2533541 0.07384625 0.026830906 -0.18696706 0.15368626 -0.040899295 -0.08220402 0.038043074 0.4393775 0.0044292454 0.047228336 -0.029455857 0.16892679 -0.21319671 -0.055644453 -0.03603227 -0.16650116 0.2790215 0.19233795 -0.007810789 -0.14353435 0.44249862 -0.15722643 0.058602326 -0.0068379217 0.023140812 -0.35817507 0.38679868 0.23290165 -0.2413193 0.17597839 0.1426003 -0.17515919 0.13964853 0.17426573 -0.12024243 -0.039485797 0.1361577 0.22336416 -0.088645935 -0.03560532 -0.15804735 0.08624989 0.19213082 0.06443947 0.24790394 -0.29832935 -0.19541709 -0.18072706 0.19018668 0.111182846 -0.13209653 0.28980115 0.030868469 0.087196894 -0.041545525 -0.20029426 0.23905328 0.018669903 -0.12770277 0.11125762 -0.16444641 -0.08421833 0.024300436 -0.055773996 0.27121812 -0.099537194 -0.27982548 -0.3706261 0.009036022 0.2839945 -0.117554754 0.26063564 0.04570393 -0.2472643 -0.34737682 -0.1599524 0.073089845 -0.045903318 -0.029253544 0.14636518 -0.100856744 0.09143457 0.016575437 0.24783441 0.22847973 0.17618766 0.15311833 -0.10080216 0.19583775 -0.21289586 -0.043961175 0.119770974 -0.0718509 -0.051541056 0.17640936 -0.034852456 0.11217802 0.084313296 -0.24073936 0.056280706 0.055850815 -0.13472916 0.04211275 -0.016551835 -0.009822137 0.029288828 -0.1933174 0.084993996 -0.19231641 -0.119603276 0.07070379 0.035497386 -0.1663969 -0.32666475 -0.031554338 -0.15278527 -0.07425738 0.10352339 -0.20047584 0.13633227 0.14239222 0.05808872 -0.07562545 0.15769373 0.31442747
13 -0.27551904 -0.05172916 -0.2407048 -0.038498085 -0.12293538 0.003968293 -0.008186899 0.06272389 0.20833597 -0.12194218 0.046460133 0.17369317 0.15947251 0.25026873 0.12425803 -0.20127036 0.091910794 -0.1016631 -0.028262692 0.008454227 0.3325444 -0.19626859 0.114757955 0.10695192 -0.17358439 0.11283468 -0.24162312 0.47253427 -0.07892718 0.16277945 0.11938129 -0.05547342 -0.22990371 -0.43279946 -0.2599894 0.10269583 -0.21879916 0.51610535 -0.0021041634 0.161586 0.032547284 -0.044815555 0.27324718 -0.14759819 -0.31159908 0.32865378 -0.18663722 -0.0025974235 -0.12599449 -0.029732013 0.030284094 -0.2180734 0.3456578 -0.1684298 0.011986981 -0.18911049 -0.06813579 -0.13767625 -0.2510895 0.110789336 -0.09907097 0.27217817 -0.078319155 0.25563 0.22632968 -0.085461095 -0.14774345 0.104932785 0.06906206 -0.088555664 -0.12846488 0.27376196 0.012773674 0.0024800817 -0.0064851777 -0.22814295 -0.0030345886 -0.16400544 -0.18588692 -0.18034628 -0.04252276 -0.37719294 -0.13055527 0.18966489 -0.00873296 0.3145825 0.20061307 0.08227919 -0.14845563 0.1471703 0.005023313 -0.043844715 0.21431798 -0.011972733 0.05576016 -0.19494046 -0.005168631 -0.08730983 -0.03877886 0.09935761 0.047062706 -0.20089206 -0.062294733 0.05412317 -0.35716447 -0.14679949 0.03116454 -0.17291935 0.06647658 -0.036353026 0.06909647 -0.25955373 0.04969571 0.087318055 -0.110250406 0.044871833 0.0054348027 -0.04243493 0.050903402 -0.26516393 -0.022468522 -0.13509943 -0.127184 0.08822431 0.01723055 0.015894365 -0.18979193 -0.025340103
1286 0.042103164 0.026270961 -0.019205227 -0.13562159 -0.1210612 0.36569434 -0.12252942 -0.047868624 -0.0003663807 -0.30877867 0.23986776 -0.007643687 -0.044310816 -0.18363024 0.0762882 0.01447868 0.053034198 -0.016702354 -0.15629858 -0.103697635 0.046472084 -0.29103026 -0.18513884 0.26743466 -0.024310363 0.30796084 0.12419553 0.042441495 -0.14251667 0.11940461 0.041177467 0.1109843 -0.043744206 -0.11184326 -0.2713595 0.20070893 -0.1829603 0.10461291 0.12130082 0.12140312 0.1122665 0.0036559866 -0.04312756 -0.2823874 -0.005869937 0.08155905 -0.05111026 -0.43923926 0.008518023 0.016001584 -0.3274103 0.049737208 -0.14554846 -0.20730957 0.19779137 -0.13781983 -0.017767163 -0.06663534 -0.11262412 0.20217162 -0.13225806 -0.07557899 -0.0019278607 0.0114583615 -0.08759289 0.31984127 -0.052788492 -0.03834901 -0.14523995 -0.09634333 -0.0707051 -0.017760802 -0.017275924 -0.33706594 -0.1702081 0.024637645 -0.18017973 -0.1774272 0.23265474 -0.02297578 0.042614862 -0.2553894 0.055810105 0.085518084 -0.0904617 -0.14028461 0.057179384 -0.020817833 0.11968815 -0.0663141 -0.13998345 -0.059050802 -0.17649476 -0.11172561 -0.053623933 0.31359938 -0.029612599 0.1193498 0.116952516 -0.11570137 0.17726852 0.009529103 -0.19331677 -0.11599762 -0.19220386 -0.129323 0.05046561 -0.20771377 -0.07082286 -0.098175846 0.04825013 -0.08528755 0.3760374 -0.05181506 -0.13038233 0.2944917 -0.14091259 -0.025130942 -0.27978042 -0.09389229 -0.10548495 -0.15396273 0.25865638 -0.07837465 0.35893804 0.22410855 0.2680464 0.040194795
2623 -0.112007864 0.11395387 0.13607362 0.06100001 -0.1076973 0.027537385 -0.00896903 -0.05221114 0.07867331 0.19309781 0.52413833 0.08879698 -0.42674047 0.18128902 -0.28006268 -0.0120996535 0.031474482 -0.40066078 -0.018795626 -0.08846341 0.17399494 -0.0025628777 -0.120229 0.31887102 0.102473184 0.27781764 -0.14075674 -0.010580443 0.28104064 -0.0387186 0.19972949 0.2063903 -0.023212904 -0.12707055 -0.457883 -0.03762259 -0.010378259 0.16896254 0.0655118 0.14117545 -0.064687066 0.052136596 0.021483975 0.115017615 0.14200746 0.22800742 0.0748729 -0.18966226 -0.17129266 0.0754655 0.08895551 0.041317854 0.09019966 -0.2918389 0.07344181 -0.22793424 0.036787298 -0.056630015 -0.046803072 -0.20335248 -0.08376134 -0.17562154 -0.12943958 -0.1526693 0.12384234 -0.022646131 -0.22829773 0.0494527 0.041402154 -0.22167423 -0.18778048 -0.3322066 -0.057164185 -0.17368913 0.23234513 0.06864971 -0.15376824 -0.28151095 -0.07483075 0.12138338 -0.2351786 0.1288206 0.047081407 0.30981496 -0.065218136 -0.09110979 0.009261509 0.11069215 -0.26521954 0.16601342 0.030867962 -0.35777012 -0.23960815 -0.024065876 -0.18299186 0.18964751 0.024746977 -0.16455242 0.04770895 0.054365873 0.017230136 -0.0147660235 0.08593317 0.19065471 0.05279095 0.05331788 0.10854906 0.018576924 0.19301322 -0.11722488 0.0021804986 -0.07788392 -0.04666947 -0.16782978 -0.019160844 0.30207878 0.0032138026 0.24086824 -0.32919526 -0.1990656 0.012723695 -0.09948706 -0.031725723 -0.1359349 -0.05688532 0.039358307 0.062338676 0.020948952
2320 -0.30447897 0.06700595 0.37761155 -0.08183966 -0.030296557 0.048216436 0.06621952 -0.1511282 -0.097491585 0.13806696 0.210197 -0.016395813 -0.23658578 0.055756737 0.13544975 0.16650128 0.14920126 -0.10407468 0.117212735 -0.12968992 0.07566276 -0.03159449 -0.14117013 0.37211904 -0.018915499 0.11109554 0.122372314 -0.17764993 -0.17993863 0.23339978 -0.054926373 0.08278089 -0.010548765 -0.3425226 -0.07491724 0.09006064 0.22260205 0.39185593 0.029322594 -0.13604744 -0.00863908 0.09844278 -0.13904494 -0.12857027 0.025703238 -0.018784951 -0.14019188 0.07846359 0.066561826 0.104501076 -0.117531165 -0.35133904 0.054511424 0.0068504745 0.07137751 -0.17140818 0.013240251 -0.20874636 0.057348404 0.29999384 0.017360007 -0.019080777 -0.05095304 0.18625659 0.17166425 0.18498196 -0.006119978 0.06991921 -0.33828902 -0.20139289 0.06623308 0.026823007 0.018590018 -0.28933352 -0.07423145 -0.102602296 -0.022124538 -0.17083374 0.3403365 0.040331133 -0.08378953 -0.10651892 0.17688915 0.03970007 0.035560057 -0.12502103 0.11456417 0.25986218 0.3471709 -0.3355717 0.16126533 -0.043235805 0.25103882 0.12327294 0.023458572 0.36040577 -0.06309323 -0.07678916 0.12978868 -0.04455501 0.15013751 -0.060001317 0.009602756 -0.019158578 -0.14726244 -0.19388221 0.06290876 -0.25276908 0.0601692 -0.18864514 0.08815695 0.017002782 0.03488159 -0.097162835 -0.18565176 0.10676236 0.0401353 -0.029554911 0.01989071 -0.17307663 0.15249543 0.11807034 0.13125089 -0.12060126 0.036801375 -0.05904043 -0.03938812 -0.054246575
163 0.37697154 -0.045011178 0.2314661 0.107028954 -0.0038484433 -0.2528619 0.23131064 0.04814406 -0.04718466 0.09647807 0.33676273 0.06194808 0.057554152 0.005476064 0.16332711 -0.24312529 -0.14204404 -0.11686021 -0.20302358 0.27847216 0.32666072 0.060402595 -0.23258802 0.2969059 -0.0628487 0.09704664 -0.0037293073 -0.028584246 -0.33371925 0.3883515 0.21828423 -0.021985458 0.16246754 -0.0155827645 -0.16609631 0.09198044 0.12354033 0.041018885 0.025438625 0.22284207 0.11371274 -0.08482312 -0.005765225 -0.25076813 0.07455163 0.14876315 0.045327924 0.16937704 -0.39034715 -0.16555578 -0.08057715 0.19582549 0.0703176 -0.21792346 0.17611282 -0.0021255838 0.0793098 -0.028022578 -0.09410112 0.13749881 -0.041679956 -0.0056729093 0.051953927 -0.21893978 -0.13656838 0.13945349 -0.13605137 0.1894726 -0.13070865 -0.24282852 -0.44901177 -0.09863146 0.35951114 -0.0846137 0.23432608 0.050702043 -0.24558662 -0.402225 -0.24909618 0.091403976 -0.013615566 -0.0879761 0.12749337 -0.05785321 0.019411474 0.1402638 0.26763117 0.18074532 0.13080612 0.11491437 -0.11352425 0.2172744 -0.122655235 0.051252272 0.0578416 -0.096526854 -0.06800887 0.17418331 0.07227371 0.04184703 0.07563611 -0.15665732 -0.017538937 0.07057909 -0.020289598 0.06529161 -0.10652058 -0.15991268 0.07481159 -0.17849912 0.14722537 -0.17944263 -0.098168366 -0.07617465 0.03372115 -0.21136111 -0.3286573 0.01957986 -0.30613342 -0.17181957 0.22468908 -0.2519168 0.11296452 0.021321228 0.033119187 -0.02068365 0.28573662 0.3750734
1489 -0.2492183 -0.08173335 0.0052219843 -0.15334553 0.13123815 -0.22826919 0.19753227 0.006299331 -0.13265626 0.04367112 0.36783794 -0.04306801 0.060255345 -0.022409419 -0.13492043 0.056828536 -0.02303008 -0.0085591255 0.15576594 -0.068817645 -0.04830394 -0.005682104 0.010884708 0.19298364 -0.313389 -0.041686602 0.0096717905 0.013492109 0.087272696 0.20627801 -0.0053712092 0.23365192 -0.033843633 -0.068521686 -0.0063808006 0.28516725 -0.22892037 -0.16650409 0.0051919394 0.0721066 -0.07280696 0.10056711 -0.39951715 -0.11706529 -0.079883955 0.02840457 0.0012705371 -0.10417818 0.12048022 0.10517473 0.01978561 -0.1066388 -0.16411841 -0.0036148333 0.3458061 -0.057088364 -0.108481534 0.2015487 0.07797032 0.16313913 0.010399424 -0.09203954 -0.044929296 -0.07423061 -0.114709795 -0.05951088 -0.116100624 0.115784794 -0.034301806 0.12123598 -0.12729415 -0.07534828 -0.041383527 -0.21396665 -0.09648684 0.16393892 -0.11439068 0.011660428 -0.14829776 -0.18965107 -0.109542415 -0.1059678 -0.013969752 0.09436287 -0.1283585 -0.124687694 0.12796333 -0.0093070315 0.090173684 -0.037554033 0.17203045 -0.22733966 0.026637891 0.12954406 0.026608678 0.13267502 -0.29032418 0.15578306 0.16411836 -0.25265944 0.21767081 0.19632317 0.03834255 0.20603259 -0.36205912 -0.12698539 -0.112823114 -0.19705698 -0.043275047 -0.14040431 0.18668576 -0.28682315 0.15565063 -0.21300498 -0.3583431 0.022557711 0.014199007 -0.110140726 -0.048291616 -0.123489045 -0.16895036 1.8883722e-05 -0.0048345025 0.01939539 -0.095950484 -0.06702089 0.107081294 0.097426854
420 -0.090004094 -0.008030654 0.09971075 -0.18607044 0.29171532 0.18796301 0.0123739885 -0.03339745 -0.16515508 -0.27038518 -0.0018136543 -0.18830858 0.13982964 0.3735957 0.08619984 0.17927958 -0.0059065153 -0.107952364 -0.1252478 0.029466674 0.22124273 -0.5181907 -0.033203952 0.15948465 -0.24560632 -0.28698334 -0.10295981 -0.048242766 -0.09525699 -0.26575205 -0.0893076 0.027959174 0.030608082 -0.04145032 -0.4817003 0.17498238 0.08838692 -0.07841183 0.16324838 -0.025930623 0.015093327 -0.053634357 -0.16916536 -0.2780626 -0.27837682 -0.080280066 -0.022875097 -0.13496724 -0.15870444 0.029974151 -0.090936445 0.099010915 -0.15382908 -0.32154924 -0.113063276 -0.31794026 0.0012839067 -0.21339327 0.04007727 0.07833534 -0.02219396 0.01429428 0.33057517 -0.1750258 -0.004648786 0.1541711 -0.16285962 -0.01700685 -0.2694757 -0.1917709 -0.06534114 -0.02282537 0.14359689 0.036853515 0.16287172 -0.12795533 -0.3184856 -0.27169046 0.19936866 -0.1752511 -0.3155219 -0.19127415 -0.14177373 -0.032472417 0.004502313 0.24174073 -0.14418976 0.20669338 0.1320637 0.20657477 -0.19627416 0.049893204 -0.06481757 0.02268355 0.17006598 0.25072077 0.13789283 -0.020170972 0.051491637 -0.04052009 0.078064695 0.23276131 -0.20401151 -0.00833286 -0.084983684 -0.15298134 -0.3623557 0.06602384 -0.13852338 -0.19837296 -0.3562462 -0.007665838 -0.07586341 0.36507002 -0.09520207 0.05932179 -0.03573497 -0.05031066 -0.022744128 -0.07960632 -0.22673497 -0.011182462 -0.16063894 0.053141005 -0.32531744 0.15904133 0.03555365 0.0004902798
141 0.0023577414 -0.061281826 0.08897013 -0.15302521 0.24206951 -0.11369558 0.00045643526 -0.052310653 -0.101379715 -0.16789182 0.08073947 0.17391992 -0.014418445 0.048266366 0.124014296 -0.07319703 0.09505586 0.108747505 -0.07626756 -0.052298646 0.32071292 -0.19587098 -0.032785974 0.06245762 -0.10471235 0.11572656 -0.068454474 0.08057109 0.17251654 -0.009887136 0.041332413 0.003287478 -0.0002511136 -0.22585139 -0.023415372 0.026660837 0.2620261 -0.12010247 0.020702524 0.09715296 -0.01600685 -0.05345514 -0.20114288 -0.04119256 -0.18703781 0.12509656 -0.16761261 0.18007092 0.41660875 0.035517596 0.15318972 -0.24123245 -0.15665185 -0.2938727 0.1267932 0.121585004 -0.14847842 0.30590308 -0.09973538 -0.05692979 0.15220301 0.2417468 0.18973368 -0.049459096 0.10932502 -0.020173391 -0.24436255 0.05968884 -0.045678828 -0.001863406 0.017408041 -0.12308974 0.008575618 0.10643958 0.050507553 0.023847269 -0.13420203 -0.07624845 -0.075387865 -0.15763403 0.001007916 -0.22540541 0.0046495325 0.3064519 0.3792772 0.112164475 0.3099555 0.19892867 0.08908412 0.123576194 -0.03291116 0.032163996 -0.2652467 -0.1680371 -0.0055968533 -0.03872608 -0.096183755 0.30924556 -0.0355088 -0.14965597 -0.17466958 -0.013984187 0.10803171 0.11486646 -0.1841659 0.09207637 0.050871845 -0.23640308 0.18897635 -0.047713462 -0.069910884 -0.038967554 -0.061031193 -0.12619704 -0.052915704 0.08405567 -0.096195966 0.024061276 -0.09891205 0.074958935 -0.09296274 -0.17765655 -0.12587787 0.08330198 0.11944679 -0.20734192 0.010977383 -0.18840678
651 -0.11457367 -0.12352932 0.26103747 0.030398058 0.09703147 -0.13397248 -0.2729859 -0.014615051 -0.07674874 0.021178082 0.072060615 0.35019746 -0.105638646 0.07111758 -0.055377822 0.02432059 0.31601983 0.17556821 0.08140011 0.29165402 0.45397347 -0.16459839 -0.15248501 0.33418584 0.36002597 -0.13265286 -0.10914639 0.091279514 -0.005033064 -0.061874814 0.12235937 0.06390931 -0.08970185 -0.062698536 0.14322414 -0.034221727 0.01839076 0.20796795 -0.1911298 -0.1798718 0.04912065 0.3296555 0.060417242 -0.1910576 0.16444384 -0.060700335 0.031600118 -0.12906109 0.14993346 -0.0588834 0.066531144 -0.087048985 -0.3267023 -0.07937641 0.07166023 -0.12615518 0.16453043 0.049451206 -0.26726714 0.28779474 0.20566322 0.1361378 -0.085573144 -0.23207831 0.06824292 -0.02176488 0.14342451 0.30343893 -0.4015198 -0.12236346 -0.07492111 -0.17910673 -0.084076226 -0.015267854 -0.050802264 -0.16428356 -0.2557216 -0.13077407 0.017061213 -0.12614661 0.033175014 -0.30566233 -0.036707394 0.3526946 0.07536652 0.04102823 -0.29888937 -0.034977738 0.08412319 -0.18003345 -0.03963646 0.19476426 -0.037159782 0.46223134 0.100266635 -0.03885016 -0.26194403 -0.30943626 -0.046847124 -0.045634136 0.033952765 -0.15990745 0.0050607445 0.3567675 0.093269974 -0.10125046 -0.018897511 -0.016947411 -0.15598592 -0.19659548 0.037043385 0.19123073 0.19313356 0.43609443 -0.087975234 0.14110808 -0.07809094 -0.03799128 -0.07385771 -0.23549339 0.003942252 -0.17774622 -0.039091796 0.05098826 -0.12520891 0.0864781 -0.14534745 0.35018018
162 0.33305493 0.00036976096 0.13617688 0.04803635 -0.051104005 -0.22862034 0.06665861 -0.07721238 -0.09379548 0.13734266 0.3462549 0.06818065 -0.04214282 -0.010696244 0.09252725 -0.15623759 -0.004554478 -0.1302641 -0.23473465 0.19081508 0.24379784 0.02123157 -0.16082452 0.3235788 -0.11259817 0.012789707 0.057891224 -0.022137206 -0.3493095 0.3339032 0.31640336 -0.07019792 0.16172282 0.15320435 -0.14322865 0.21870811 0.124157235 -0.08374429 -0.05093569 0.14727606 0.20813867 -0.11636551 -0.031605434 -0.21716729 0.10909908 0.23124081 -0.029713199 0.30542764 -0.2947837 -0.2058273 -0.08424557 0.15102619 0.14009376 -0.29417366 0.1506222 -0.03457863 0.12686165 -0.116354056 -0.023635056 0.22961098 0.029656995 -0.13477546 0.074620165 -0.17038047 -0.16235727 0.062243003 -0.16563947 0.21565087 -0.023345357 -0.27023694 -0.50781655 -0.038362697 0.35841113 -0.14725068 0.1526403 0.046304263 -0.16668421 -0.42385337 -0.14381355 0.19068107 0.03892168 -0.098499745 0.13437663 0.083304875 0.073100336 0.035450872 0.2521461 0.28701058 0.18275368 0.07796514 -0.1242692 0.21421699 -0.21408798 0.030535325 0.21122079 -0.09914591 0.0057065682 0.19881319 0.025849478 -0.031023953 -0.008604446 -0.15019923 0.11040923 0.11108163 -0.08966155 0.10763391 -0.06180427 -0.0349996 -0.019535873 -0.1502846 0.1733813 -0.25520357 -0.08648215 0.009808381 0.03031815 -0.17507309 -0.32499632 -0.017109953 -0.22208254 -0.17387061 0.2151333 -0.2859036 0.1936289 0.11940919 0.09021326 -0.07041393 0.14935811 0.38913873
613 -0.00054831686 0.08769321 -0.12184084 -0.035689864 -0.0017586305 0.14621492 -0.55026066 -0.21620207 -0.24199966 -0.10236153 0.36528334 -0.03161519 -0.22400923 -0.059005287 -0.04715385 -0.18152925 -0.012656566 -0.13660799 -0.11098658 -0.17014933 0.16561022 -0.046338383 0.027201012 0.23772874 -0.037162684 -0.11907002 -0.18587594 0.069194734 -0.19582583 -0.20801848 0.09499455 -0.15078537 0.08657215 -0.2639987 -0.16399875 -0.30751422 -0.13377993 0.19912344 -0.021314388 0.10359671 -0.004164762 0.23485842 -0.1832048 0.13447493 -0.11741887 0.12059103 -0.025931992 -0.11052607 0.0150776245 -0.06925309 -0.10906232 -0.0174039 -0.12053172 -0.3262296 -0.01857366 0.047774334 0.25080588 -0.26907718 0.043059327 0.26488063 0.006580812 0.18178146 -0.1500271 -0.268381 -0.22986938 -0.15620722 0.083738595 0.029766208 -0.101348855 0.3716202 0.015964007 0.008471575 -0.15603891 0.024998413 0.1752504 0.010931663 -0.25963357 -0.097743995 0.14985916 0.21950482 -0.14103632 -0.02482369 -0.21220675 0.14320971 0.19741489 -0.057193015 0.10107599 0.22518444 -0.024053967 0.03571003 -0.113478705 -0.08784892 0.05841142 -0.1910653 -0.11087185 0.0007062053 0.005576201 -0.04268925 -0.0111337425 0.36272272 0.09991647 0.0027913225 -0.070736304 -0.10612972 -0.27554217 0.08264749 -0.2602643 0.13448642 0.061701775 -0.40829304 0.1668626 -0.012793 -0.27746296 0.0038423836 -0.041394465 -0.023032255 -0.2877452 0.16735609 0.061337423 0.08028203 -0.039495435 0.17026396 -0.039221693 0.0084731 -0.30405268 -0.19775769 -0.07970094 0.11409133
213 -0.11498656 -0.031222599 -0.37733832 0.20511179 0.258309 -0.0648815 0.078123875 0.024881205 -0.31028926 -0.03531719 0.44148704 -0.05475662 -0.20381539 0.042468425 0.05272606 0.0565163 -0.07668648 0.11164101 0.25609177 0.14933668 0.47050104 -0.10406791 0.25789055 0.20927928 0.23908553 -0.0069752717 0.19515495 0.063415855 -0.11338132 0.14194332 -0.1460104 0.13445963 -0.03803636 -0.1597887 -0.1916258 0.33103368 0.21245268 0.025727306 0.43818718 -0.16713916 0.22353102 -0.07199234 -0.021209873 0.04950537 -0.13092043 0.1847189 -0.17851555 0.055446826 0.16564175 -0.056559164 -0.2666545 0.11497658 -0.039890412 -0.3180502 0.060702626 -0.32314757 -0.11859899 -0.034744788 0.08556136 0.07257664 -0.2334044 0.11455118 0.030053826 0.036475923 0.30553845 0.08268098 -0.065189384 0.25426447 0.1321288 -0.27400312 0.069079384 0.1181676 -0.25518712 0.1234649 0.03581043 0.28388736 -0.020259341 -0.3922469 -0.20569041 0.00092245435 -0.0007236299 -0.11413873 0.14075272 -0.035928886 0.14905834 -0.015772425 -0.014259225 -0.021616828 0.11692666 -0.13591576 -0.35583502 -0.042333048 -0.16763104 -0.014756763 -0.001163015 0.15627372 -0.47689438 0.032923546 0.3361595 0.27227023 -0.05640079 -0.0013236449 0.41080585 0.1268159 -0.26017648 0.037358623 0.23030998 -0.12721314 0.0445859 -0.029524585 -0.048851132 0.17504025 0.03697575 0.12454669 0.18181545 -0.12086983 0.08510301 0.354035 -0.08250091 0.11195731 -0.13647573 -0.06496815 -0.029100103 -0.10701019 -0.07047327 -0.10064517 0.15201189 0.08720171
337 0.20017886 0.22966914 0.009608392 -0.17713672 -0.1327545 -0.059449945 -0.057876386 -0.12720045 -0.10226385 -0.14520258 0.09160329 0.028794747 -0.011921502 0.08996328 -0.1631216 0.05723631 -0.022418646 0.019815043 0.09465183 0.055722676 0.3558747 -0.14508183 0.10141249 -0.059726704 -0.021737983 0.11204522 -0.14955518 0.03256116 -0.14281316 -0.08336038 -0.007467221 -0.04815381 -0.19302513 -0.12302366 -0.11759712 0.0959675 0.07347784 -0.17051941 0.20175242 0.056606673 -0.031254657 0.19825545 -0.10594778 -0.1360498 -0.026889522 0.053656787 -0.09772035 0.02464182 0.07805562 0.06722652 0.18879952 -0.24195813 0.05954404 -0.14825554 0.11966641 0.22166403 -0.024016539 0.24249955 -0.0031504931 -0.21718664 0.28029805 0.17773567 0.026760276 -0.0371965 -0.047367048 0.11289546 0.0134513965 0.054080885 -0.24978353 -0.048202515 0.0024459327 -0.025380393 0.07893912 -0.16700046 0.10373967 -0.14774537 -0.064626895 -0.17201537 0.049612865 -0.2398137 -0.02182097 0.084131114 -0.15089038 0.015487021 -0.0065090246 0.20716698 0.14150108 0.07817373 -0.051280733 -0.015019877 0.03408546 -0.101320714 -0.11801753 0.041551556 -0.06265093 0.08224105 -0.08354446 0.18281148 0.17062807 0.0014264232 -0.10339372 0.017022401 0.25010908 0.0336878 -0.33504713 0.109245874 0.04114272 -0.2606554 0.293857 -0.057106998 0.17261752 -0.11371616 0.08208156 -0.08924516 0.06323073 0.25861064 0.041054416 0.12339108 -0.009438833 -0.07403333 -0.36937097 -0.023656592 -0.21704242 0.09248584 -0.11207592 -0.06193542 0.03722434 -0.078752674
338 0.18292919 0.19750172 0.052563183 -0.11448817 -0.15569563 -0.052429933 -0.08994897 -0.088085376 -0.113290824 -0.16673537 0.14699738 0.056939702 0.06841831 0.09414072 -0.16380312 0.008839046 -0.06112155 0.04496257 0.050034158 0.013263159 0.30615306 -0.1716395 0.018102538 -0.042294517 0.028166054 0.12423228 -0.030539729 -0.028558312 -0.12847793 -0.037263703 0.1257251 -0.054098833 -0.18911259 -0.26776507 -0.09512292 0.030675886 0.006554631 -0.16640766 0.18420292 0.011314437 -0.12334218 0.1790031 -0.12722832 -0.067643404 -0.06505558 0.03306182 -0.03240551 0.008780198 0.079338975 0.030183645 0.11980384 -0.17779504 0.08382902 -0.19879428 0.2029667 0.23922132 -0.05617939 0.2633865 -0.05460002 -0.19836095 0.26488504 0.15850143 -0.031565703 -0.011920387 -0.05120248 0.14367276 0.03751852 0.06363701 -0.35247672 -0.073957615 0.05901411 0.037340816 0.111362666 -0.16800931 0.15142466 -0.15786947 -0.10131791 -0.2501007 0.025227707 -0.26862693 0.02187083 0.07611051 -0.23961607 0.053268332 -0.03204918 0.18501689 0.1919802 0.07162643 -0.07307398 0.032275196 -0.028071182 -0.088235505 -0.07504334 0.16848983 -0.13697793 0.07400066 -0.03483108 0.1734914 0.11068461 -0.04275104 -0.05696177 -0.03649955 0.2295548 -0.008381538 -0.31148702 0.08043098 -0.0049429936 -0.26237997 0.21457851 -0.060054287 0.06696792 -0.11397157 -0.024492905 -0.08621401 0.058310363 0.24235302 0.008410103 0.14262469 -0.04142017 -0.062489934 -0.38525993 -0.03220365 -0.2091475 0.007164655 -0.12838857 -0.18408443 0.010322887 -0.11646887
652 -0.040825084 -0.075140126 0.30332974 -0.040464997 0.014753665 -0.24268898 -0.3716929 -0.04737202 -0.15034741 0.16515811 0.07539078 0.41182023 -0.00854835 0.042328205 0.03430346 -0.01276344 0.32222566 0.15746927 0.048798427 0.32144356 0.46829146 -0.23612817 -0.2265797 0.30503818 0.25606233 -0.07784797 -0.15750907 -0.01853625 -0.06670217 -0.015582328 0.15125309 0.038747016 -0.02645894 -0.098283425 0.16244772 -0.010931929 -0.04599842 0.16719992 -0.10449022 -0.22482641 0.06253141 0.26914212 0.0683935 -0.1990987 0.08617705 -0.010222895 0.07040321 -0.103057966 0.23573694 -0.049716268 0.028779872 -0.11342167 -0.18564971 -0.14054018 0.037516255 -0.1681159 0.19142626 -0.08287955 -0.32054642 0.2957892 0.16437353 0.12912406 -0.06937568 -0.1617516 0.079046324 0.033708356 0.2069072 0.14520141 -0.40081942 -0.18482852 -0.13490513 -0.19688593 -0.104177564 0.0028040865 -0.061292883 -0.19982709 -0.23375502 -0.11655147 0.0428829 -0.15655313 -0.00437718 -0.2517791 -0.10942111 0.43413606 0.08131208 0.0013437072 -0.3401232 -0.023653174 0.050507486 -0.17305404 -0.0652846 0.16865142 -0.1156933 0.4348092 0.01376384 -0.00035256962 -0.24957131 -0.2641905 -0.12448898 -0.12923618 0.04327773 -0.1683713 0.08061066 0.31469756 0.075759135 -0.13210207 -0.13862099 -0.09489093 -0.2240661 -0.2088725 -0.038133748 0.12526307 0.17690927 0.35766056 -0.025513606 0.09911289 -0.16979583 0.06033389 -0.119769044 -0.25785363 -0.0151214795 -0.18412441 0.14519244 0.06879719 -0.1106023 0.034727387 -0.21584618 0.3981256
